
    // Select all (Ctrl+A), Copy (Ctrl+C), paste to an empty text file (Ctrl+V) and save that file as 'generated_code.h'
    // 
    // Auto-generated header file. Assumes img to be a floating point array
    // of 64 elements (corresponding to an 8x8 b&w image)

    #include <math.h>

    float norma_even;
    
inline float activation_even_0 (float x, float n) 
{ return x > 0 ? x : 0;}
inline float activation_even_1 (float x, float n) 
{ return x > 0 ? x : 0;}
inline float activation_even_2 (float x, float n) 
{ return x > 0 ? x : 0;}
inline float activation_even_3 (float x, float n) 
{ return x > 0 ? x : 0;}
inline float activation_even_4 (float x, float n) 
{ return x > 0 ? x : 0;}
inline float activation_even_5 (float x, float n) 
{ return x > 0 ? x : 0;}
inline float activation_even_6 (float x, float n) 
{ return exp(x)/n;  }

    float guess_digit_even (const float *img, int flag)
    {
    
  // Declare the arrays in the stack
  const float kernel_0[43][30] = 
  {{  -0.0363792516291,   0.3443620204926,   0.2076959908009,   0.0205966066569,  -0.0160319246352,   0.3166510760784,   0.2257189154625,   0.0592020303011,   0.0832069888711,   0.0974283814430,  -0.0746081471443,  -0.0538028255105,   0.1223098263144,  -0.3387472927570,   0.0936081781983,  -0.1872878968716,  -0.2661154866219,  -0.1410504877567,  -0.4069178402424,  -0.0417727343738,  -0.4046969711781,  -0.1458021700382,  -0.4294156730175,  -0.0240699965507,   0.0563867278397,  -0.2798002362251,  -0.1853094846010,   0.1525353938341,   0.3933767676353,   0.1499826163054},
   {   0.1994658261538,  -0.0716072469950,  -0.1229407712817,   0.0199457313865,  -0.1604120433331,   0.1943132728338,  -0.3856904506683,   0.1141195520759,   0.2513071894646,  -0.0144455796108,  -0.1056436896324,  -0.0852772593498,  -0.2122859209776,   0.1526617705822,   0.0550355091691,  -0.0648400634527,   0.2475602179766,   0.0023234495893,  -0.4074504077435,  -0.0210202541202,  -0.0379963517189,  -0.3432866930962,  -0.0808340460062,   0.1031104177237,  -0.1379332691431,  -0.3800327777863,   0.3328312635422,   0.1517726480961,  -0.0598664321005,   0.0999865233898},
   {  -0.1731067299843,  -0.0925787314773,   0.1669689267874,  -0.0497893318534,  -0.0203548278660,   0.0017466773279,  -0.0900568068027,   0.0550123900175,  -0.0528417713940,   0.1497029811144,  -0.5257391929626,   0.1014844924212,   0.3137906789780,  -0.2393470555544,   0.0688147097826,   0.1047826632857,   0.0667707026005,  -0.0662881284952,  -0.0364774987102,  -0.0704193934798,  -0.2313321530819,   0.0411856397986,   0.0890325829387,  -0.0958703681827,   0.1883877366781,   0.2478776574135,  -0.1115930303931,  -0.0286159552634,  -0.0162530206144,   0.1690345108509},
   {  -0.0718229338527,  -0.2566811442375,  -0.3728514313698,  -0.1177894249558,  -0.0667622461915,   0.0416193529963,  -0.0525752939284,   0.2604208290577,   0.0499360151589,  -0.1945809125900,   0.2251600474119,  -0.3550096452236,   0.0669369474053,  -0.2321572005749,  -0.0534769445658,  -0.0625681653619,  -0.1245641484857,  -0.1353925764561,  -0.3729564547539,   0.0034035914578,   0.0622364878654,  -0.0740579664707,   0.0032744859345,  -0.1977730095387,   0.0457064434886,  -0.1641498208046,   0.1121843457222,  -0.0996343493462,   0.0863508060575,   0.0207187011838},
   {   0.0527588538826,  -0.0551700070500,   0.0925119072199,   0.0533176995814,   0.0791337341070,  -0.0489938929677,   0.1844699084759,  -0.0474069528282,  -0.1809131354094,  -0.1920497566462,  -0.2056615501642,  -0.2633388042450,  -0.1420667171478,  -0.2472239285707,  -0.2192640006542,  -0.2090128958225,  -0.1633356213570,   0.1626568585634,   0.0859355106950,   0.0752557963133,  -0.0729145780206,   0.1159544885159,  -0.0223119426519,  -0.0417574793100,  -0.0293312817812,   0.1074776798487,   0.0933459922671,  -0.0700380206108,   0.1253582835197,   0.1981286108494},
   {  -0.0102267330512,  -0.0179329998791,  -0.2221757024527,  -0.1316234171391,   0.0061080711894,  -0.0761497765779,   0.0218031965196,   0.0511551834643,  -0.1036525890231,  -0.0525100678205,   0.0678872242570,   0.1160460412502,   0.1218829229474,  -0.1196940094233,  -0.0410587191582,  -0.1106981858611,   0.1043020188808,   0.2197404950857,   0.0309756584466,  -0.1154583990574,   0.1611960530281,  -0.2615244388580,  -0.0238631442189,   0.0011491990881,  -0.0679861307144,   0.0071373055689,  -0.0394543968141,   0.1720911264420,   0.0213316772133,   0.0364227369428},
   {   0.1299802511930,  -0.2993937730789,  -0.0801843479276,  -0.1096665412188,  -0.0466005653143,  -0.3607757985592,   0.0991634950042,  -0.3468398153782,   0.1181713864207,   0.0053159031086,   0.0226799044758,  -0.1479578018188,  -0.3090709149837,   0.3629792034626,  -0.2887874543667,  -0.2038440555334,  -0.2041242122650,  -0.0068046362139,   0.1820604205132,  -0.3357461392879,   0.0264641512185,   0.2566893994808,  -0.0003084340133,   0.0816155076027,  -0.0542317107320,   0.0685655102134,   0.1861436963081,   0.0835047066212,   0.4257791936398,   0.0197710935026},
   {  -0.3243435323238,   0.2420017272234,   0.0017306472873,  -0.3741938471794,   0.2907679975033,  -0.1265401095152,   0.0905773341656,  -0.0142240216956,  -0.0269677974284,   0.3044553697109,   0.1021012142301,   0.1204776242375,  -0.0135439783335,   0.0423037931323,   0.1453057080507,   0.2259348481894,  -0.2036248147488,   0.0408573187888,  -0.1397927850485,   0.2579931616783,  -0.1193075254560,  -0.1882898956537,   0.3388037085533,  -0.0860905870795,  -0.3106031715870,  -0.2143751233816,   0.3086868226528,   0.1978513449430,   0.0459633693099,  -0.0315115489066},
   {   0.1648042947054,   0.1414197683334,   0.0698432922363,   0.0399879962206,   0.0411851070821,   0.1386599093676,  -0.1571046262980,  -0.1162969246507,  -0.1572826206684,   0.2201675325632,   0.2510572075844,  -0.3062095940113,   0.0844319835305,   0.1188148930669,   0.3284034132957,   0.3315148949623,   0.2449580430984,   0.1097423136234,   0.0361723303795,   0.2365190982819,  -0.2345163226128,  -0.1579285860062,  -0.0165025647730,  -0.3455341458321,  -0.2518717944622,   0.1051459014416,   0.1656055301428,   0.0803099423647,   0.1157179549336,   0.1579677462578},
   {  -0.0247374009341,   0.1729199439287,   0.0769495517015,  -0.1387925148010,   0.0331808440387,   0.0330388955772,  -0.0620367825031,  -0.0891918465495,   0.0320540070534,  -0.1126972958446,  -0.0779408812523,  -0.2575947940350,  -0.0017262648325,   0.0098761273548,   0.0757995694876,   0.0117547502741,  -0.0549952350557,  -0.1181161850691,  -0.1856154948473,  -0.1044978573918,   0.0837140083313,   0.0158126875758,   0.0789277926087,  -0.1601070612669,   0.0450829416513,  -0.0364024229348,  -0.2580061256886,   0.1315461546183,   0.1447961330414,   0.0316748879850},
   {  -0.1476138532162,   0.0118700629100,  -0.2009169757366,   0.1399361491203,  -0.1233282536268,  -0.1568996310234,  -0.3016825318336,  -0.1392302066088,  -0.2777399420738,   0.1512530148029,   0.0359635017812,  -0.1666133999825,   0.0206105709076,   0.1727627217770,   0.1781583726406,   0.2237390130758,   0.1405772119761,  -0.1767548471689,   0.3000679612160,  -0.1460539102554,   0.0442113541067,   0.1577698141336,  -0.0531380437315,   0.1139221340418,  -0.0657162144780,   0.0034924070351,   0.3151883780956,   0.3390525877476,   0.1101958230138,  -0.1055665090680},
   {  -0.0847133994102,  -0.1045869588852,   0.0614815093577,  -0.1971629559994,   0.1668179035187,   0.1518767178059,  -0.1296021938324,   0.0375687293708,   0.1127258911729,   0.2425530403852,  -0.1189654767513,   0.0906376689672,   0.1818610578775,   0.0873474404216,   0.3357345461845,  -0.1197021454573,  -0.0657963156700,  -0.0340862274170,  -0.0127214780077,  -0.2103773355484,  -0.2968828678131,   0.1130013540387,   0.1594035625458,   0.1162409856915,  -0.1568576991558,   0.1257329136133,  -0.0234354231507,  -0.2197005748749,  -0.0625170543790,   0.0587803907692},
   {   0.0509194470942,  -0.1137747466564,   0.0892356410623,  -0.0736814513803,  -0.0501976944506,   0.1773208230734,  -0.0264346208423,  -0.0638072639704,  -0.0167474746704,  -0.0160902310163,  -0.0188091173768,   0.2891473770142,  -0.1779585480690,  -0.1987731307745,  -0.3071644008160,   0.1302595287561,  -0.0145592745394,   0.1795843839645,   0.1101037561893,  -0.2103783339262,  -0.1548249572515,   0.2320973426104,  -0.1064489409328,  -0.2177697718143,  -0.1919399350882,  -0.1934122890234,  -0.0586910434067,   0.1805521696806,  -0.1208967193961,   0.1619979739189},
   {   0.0311453007162,   0.4210969805717,  -0.1040423437953,  -0.0749784260988,   0.1847641766071,   0.0889896154404,   0.0578652583063,   0.0264829043299,   0.2965346276760,  -0.2101825624704,  -0.0632041320205,   0.1288674473763,  -0.0217019841075,  -0.0267924685031,   0.0532311536372,   0.3508813083172,  -0.1365686208010,  -0.2198985964060,   0.0280869770795,  -0.2915527224541,  -0.0953992083669,  -0.0453620180488,  -0.0013984888792,  -0.0789048224688,  -0.1577730923891,   0.1862283647060,   0.1536776721478,   0.0767980366945,   0.4162480533123,  -0.0917582213879},
   {  -0.2959788739681,  -0.3063907623291,  -0.2987152934074,  -0.1192239895463,   0.0668011903763,  -0.1346562951803,   0.2028095126152,   0.3832973241806,   0.0813669338822,  -0.0843245908618,   0.2879188954830,  -0.0132685331628,   0.0262720230967,   0.1432497948408,   0.1024772301316,  -0.0715329870582,  -0.2716400921345,   0.0208551548421,   0.2166090607643,  -0.1128096356988,   0.2032597064972,   0.1748178154230,   0.1343581676483,  -0.1879670768976,   0.0488551817834,   0.1730369031429,  -0.1030652299523,   0.0335271023214,  -0.0698718652129,  -0.0360604859889},
   {   0.0512690320611,   0.0916036665440,   0.0190758444369,  -0.2240415215492,   0.0809439346194,   0.0608669780195,  -0.0316542759538,   0.0510829910636,  -0.0482161715627,   0.0063470285386,  -0.0406424812973,   0.1100834533572,   0.1473340541124,   0.0683363676071,   0.0710871741176,  -0.0399689152837,  -0.0961725786328,  -0.0471048913896,  -0.0350360758603,  -0.1687489002943,  -0.0331911668181,  -0.0284963492304,  -0.1370117217302,   0.0330426171422,  -0.1398269236088,   0.1723739504814,   0.1055919900537,  -0.2315836101770,   0.0635679364204,   0.0366194881499},
   {   0.0591116175056,   0.3711695969105,   0.1405990868807,  -0.0825178846717,  -0.0110259586945,  -0.0238575600088,   0.0568850450218,   0.0130961183459,  -0.1704104691744,   0.0089886048809,  -0.0076296790503,   0.2510917484760,  -0.1851295232773,  -0.1288138777018,  -0.1734357178211,   0.1212909445167,   0.0268915668130,   0.0579478591681,   0.0324387252331,  -0.1638413518667,   0.0506637804210,   0.1196636036038,  -0.0379690788686,   0.0234591234475,  -0.1431095600128,  -0.0437837690115,   0.1400253176689,   0.1172114536166,  -0.0658797472715,   0.0529979467392},
   {   0.0913936421275,  -0.1385312080383,  -0.5493353605270,  -0.1264510601759,   0.1006895676255,   0.0506254024804,  -0.0275083240122,   0.0742774382234,  -0.1270616948605,  -0.1138832792640,  -0.0787690579891,  -0.0143684949726,  -0.0750221014023,   0.1816298216581,   0.0631219148636,  -0.0799517184496,  -0.2497803270817,  -0.0196263585240,   0.0862273573875,  -0.0339310690761,   0.0586301088333,  -0.2784681022167,   0.2428066730499,  -0.1490761190653,   0.1053263619542,   0.0434865951538,   0.0263446494937,  -0.1741535216570,   0.1076997891068,  -0.2344019412994},
   {  -0.2317504584789,  -0.1177456006408,  -0.1320141553879,  -0.0252912938595,   0.1009836345911,   0.2752588689327,  -0.1604198366404,  -0.2265820652246,  -0.2817926108837,  -0.1279910206795,   0.3988486826420,   0.0538156293333,   0.1259445548058,  -0.0219684839249,   0.0489668287337,   0.1711575388908,  -0.0861852392554,   0.0557443052530,   0.0352776907384,   0.1050200238824,   0.1433059573174,   0.0583569183946,  -0.0803412869573,   0.0516196563840,   0.0850863084197,  -0.1235365048051,   0.1009157970548,  -0.1959673017263,  -0.2275518476963,   0.3303419947624},
   {  -0.0185431577265,  -0.0816376134753,  -0.0830615088344,  -0.0455153398216,   0.0050861756317,   0.0061344685964,  -0.0732592344284,   0.0593784675002,   0.0906782448292,   0.0076738833450,   0.0014632961247,  -0.0549869090319,   0.2278782725334,  -0.0575212240219,   0.0370652489364,  -0.0240286216140,  -0.0324273072183,   0.0288636200130,   0.0398164503276,  -0.0027230374981,  -0.0700111016631,   0.0665770396590,  -0.0016059959307,   0.0590480975807,  -0.0562129281461,   0.0337703488767,   0.1249246448278,  -0.0282335560769,   0.0791485905647,  -0.0885174795985},
   {  -0.0065590091981,  -0.2294676005840,   0.0674683824182,   0.0074586188421,  -0.0201055537909,   0.0191708020866,  -0.0579871237278,  -0.0235292706639,  -0.0924360826612,  -0.0365831032395,   0.0284386221319,   0.1900825649500,  -0.1364326775074,  -0.0410162955523,   0.0839299336076,   0.1316915154457,   0.1061978414655,  -0.0446159392595,   0.0554858967662,  -0.1160377711058,  -0.0126016363502,  -0.0706420987844,  -0.0146557772532,   0.0530082918704,  -0.0725525990129,  -0.0477891042829,  -0.0547118820250,  -0.0039691161364,   0.0003219358041,   0.1167717948556},
   {   0.1719721406698,  -0.0382844023407,  -0.1133983507752,   0.0915962681174,  -0.1189168095589,   0.0901271551847,  -0.0145483752713,   0.0543967410922,   0.1459543108940,   0.0377070382237,   0.0959452837706,  -0.0475605577230,   0.0800809636712,   0.1272692084312,  -0.0558687411249,  -0.0856761485338,  -0.0656494647264,   0.0885061621666,  -0.0295317154378,   0.0057670171373,   0.0311847943813,  -0.0239418148994,   0.1694494336843,   0.0741408765316,  -0.1101664528251,   0.0958948805928,  -0.0888322591782,   0.1290206164122,  -0.1452403217554,   0.2370649278164},
   {  -0.0567110627890,   0.2013053148985,  -0.1614846736193,   0.4055975973606,  -0.3531082570553,  -0.1182394996285,  -0.0381413698196,  -0.1181856542826,   0.2486269176006,  -0.2159977108240,  -0.3225550055504,   0.0770185440779,  -0.0715494751930,   0.0010549533181,   0.2952851057053,  -0.2357905060053,  -0.2228818386793,   0.2000179439783,   0.0395204387605,   0.0813720002770,   0.2199657559395,  -0.0415369831026,   0.1031346991658,  -0.0233600120991,   0.2177480608225,   0.1772904247046,   0.1187375560403,  -0.0754148215055,   0.0430616252124,  -0.0443103089929},
   {   0.0673025846481,  -0.0283849630505,   0.1246904432774,  -0.0591524019837,   0.1664043813944,   0.3269546031952,  -0.1149320676923,  -0.0435260422528,   0.2989616096020,   0.0867729857564,  -0.2856208980083,   0.2036519646645,   0.2383061200380,   0.0815911740065,  -0.0705851316452,  -0.0638787522912,   0.2405668646097,  -0.3231697380543,   0.1954813152552,  -0.1585353612900,   0.1188275441527,   0.1220307946205,   0.0930159986019,   0.3184814751148,   0.3216243386269,  -0.2565968334675,  -0.2393179237843,   0.3110140562057,  -0.0715859755874,   0.2271141111851},
   {   0.0704584568739,  -0.1597381979227,   0.1337912231684,   0.0012755207717,  -0.0552672147751,   0.0667669251561,   0.1548635214567,  -0.0274516697973,  -0.0941706821322,  -0.0054011447355,   0.0420982427895,   0.1070557832718,   0.0141739165410,  -0.2895002663136,   0.0235475860536,   0.0654649585485,   0.0140075124800,  -0.0128124495968,  -0.1140289381146,   0.1031994745135,   0.2082867026329,   0.0036943664309,  -0.0579403005540,   0.0691923126578,  -0.1487348228693,  -0.0204880442470,  -0.0580332987010,  -0.2353378385305,  -0.0290874224156,   0.0033875769004},
   {  -0.1616083383560,   0.1194984912872,   0.1353912651539,   0.4377680122852,  -0.1694813668728,  -0.1188763678074,   0.1351229995489,  -0.0700192004442,   0.2962629795074,  -0.1727516502142,  -0.0587875209749,   0.1979343146086,   0.3158345222473,   0.1008290126920,   0.1307072341442,  -0.1931918859482,  -0.1222035363317,   0.1469506770372,  -0.1845283955336,   0.0914001241326,   0.2058895081282,   0.0346134118736,   0.1582977324724,  -0.1785767078400,   0.1101703271270,   0.1878511160612,  -0.0866487249732,   0.1425194442272,   0.0046318909153,  -0.0442309863865},
   {   0.2654262185097,   0.0552329756320,  -0.0284623838961,  -0.1319076418877,   0.3016249835491,  -0.0434974208474,  -0.2020832300186,   0.0292935892940,   0.2828667461872,   0.0182791426778,  -0.2100010514259,   0.2826058864594,   0.2981946766376,  -0.0907519385219,  -0.1614777743816,  -0.1532845199108,   0.1586659103632,  -0.3703800439835,  -0.0346721298993,  -0.2352297455072,   0.1347495764494,   0.0998749583960,   0.1183504387736,   0.1158459782600,  -0.0186471864581,  -0.2269290238619,   0.0133635150269,   0.0855888351798,   0.1091274172068,  -0.0770493000746},
   {   0.2123199999332,  -0.1356653720140,  -0.0603329204023,  -0.2156973928213,  -0.2711127400398,  -0.0371561571956,  -0.2177934944630,  -0.1547303795815,  -0.0228450298309,   0.1751774400473,   0.0843933671713,   0.1364860534668,  -0.0567035041749,   0.2062951177359,  -0.0408149957657,  -0.0081003094092,  -0.1919431835413,   0.0563294850290,   0.1872263848782,   0.3032630681992,  -0.0289481095970,  -0.0662071704865,  -0.2698104977608,   0.0566325820982,  -0.0550915375352,   0.1153780147433,  -0.1999835819006,  -0.0098882028833,   0.5278690457344,  -0.3177011907101},
   {  -0.0335431471467,  -0.0871547088027,  -0.0925645157695,   0.1094067841768,   0.1313534528017,  -0.2232286334038,  -0.1428268104792,   0.1966174989939,   0.0596936456859,  -0.0903675630689,   0.1015807390213,  -0.0578982941806,   0.0631044581532,  -0.0511548593640,   0.2685756683350,   0.1283821761608,  -0.1920380145311,  -0.1324406266212,  -0.1782740950584,  -0.0547285415232,   0.1018958985806,  -0.0846908688545,   0.1076242923737,  -0.0556333437562,  -0.0572608150542,  -0.1495950669050,   0.3083018660545,  -0.1165372058749,  -0.0705863982439,  -0.0834795311093},
   {   0.1009106114507,  -0.1940963864326,   0.1819762438536,   0.1238155737519,  -0.1530271470547,  -0.1831881701946,   0.1746408492327,   0.0279227644205,   0.1944383829832,  -0.1171355172992,   0.1504100561142,  -0.2105887234211,   0.0080065978691,  -0.0733741298318,  -0.1774105280638,   0.0959329083562,   0.0633611306548,   0.1196705698967,  -0.0525108389556,   0.0570830069482,   0.0780188515782,   0.0232430528849,   0.0254338346422,   0.2037730664015,  -0.1903540492058,   0.0999213904142,   0.0893799513578,   0.1509906202555,   0.0718704834580,  -0.0119873778895},
   {   0.4375645518303,  -0.3593805432320,  -0.0152519820258,   0.2423981577158,   0.1842281371355,   0.1633958071470,  -0.4733398854733,   0.4132793545723,  -0.1658419668674,   0.1825909316540,  -0.1262720078230,  -0.0025891591795,   0.1838543117046,   0.1782066226006,   0.2429662793875,  -0.1853694021702,   0.0444008409977,   0.1801779866219,  -0.1366345584393,  -0.3353344202042,  -0.3760636448860,  -0.0895247831941,  -0.3122732937336,   0.0539071187377,   0.2215733975172,  -0.1416995078325,  -0.2183653861284,   0.2253171801567,   0.1923742443323,  -0.1247819438577},
   {  -0.1251066029072,   0.2772934734821,   0.1042715534568,   0.1327819228172,   0.0137908319011,  -0.1791755408049,  -0.0241024568677,   0.0630494281650,   0.0819704085588,   0.1798845082521,  -0.0031852442771,  -0.0069484822452,   0.2190628498793,   0.3535452485085,   0.2294700443745,  -0.0968528389931,   0.0835473015904,  -0.0896539762616,  -0.2214342951775,   0.0623396709561,  -0.1316036432981,   0.1259541660547,   0.1158981844783,  -0.1370893120766,   0.1359480917454,  -0.2475806921721,  -0.1258718967438,  -0.1213217154145,   0.0114082200453,   0.2247487306595},
   {  -0.2547961473465,   0.0867219865322,  -0.0521479435265,   0.1011725664139,   0.1996247321367,   0.0532148741186,  -0.2854252159595,  -0.1134658455849,   0.0397492311895,   0.0301034897566,  -0.2860884368420,   0.2223368585110,  -0.0620855726302,   0.2357904762030,   0.0923723652959,   0.0518062375486,  -0.1610899865627,  -0.0364933162928,  -0.0241578575224,   0.1534922868013,  -0.2939051389694,   0.1119423285127,  -0.1523748487234,  -0.1141436323524,   0.1694384664297,  -0.3056348860264,  -0.1461159437895,  -0.1151679754257,  -0.0207012929022,   0.2150748670101},
   {  -0.2551239132881,  -0.2293776720762,  -0.2309084236622,   0.1617677509785,   0.1774623543024,  -0.1822476834059,  -0.3619321286678,   0.1968299448490,  -0.0116796083748,  -0.0481332726777,   0.4192104339600,   0.2325654923916,   0.0270361136645,   0.1782930344343,   0.2419045865536,  -0.0066139637493,  -0.2067174464464,   0.0668310970068,  -0.0598611533642,   0.2207359820604,   0.1101297140121,   0.4517512321472,  -0.1531758010387,   0.1189546436071,  -0.1359249055386,   0.1037496104836,  -0.0701407939196,   0.2561455965042,   0.1568200439215,   0.0875005945563},
   {  -0.3804450631142,   0.1142054423690,  -0.3342390358448,   0.0721712559462,  -0.2665311396122,   0.0101010380313,   0.2166018784046,  -0.1043394356966,  -0.2821516692638,   0.1869465857744,   0.1590180993080,  -0.0405902154744,   0.2023478001356,   0.2392443418503,  -0.0739790648222,  -0.1086343526840,   0.0708361417055,  -0.0901030376554,   0.0197219438851,  -0.0803372412920,  -0.0490497909486,   0.1732222586870,  -0.0602519102395,   0.1392114609480,  -0.2075170427561,  -0.0363582149148,   0.0210640374571,   0.0821235328913,   0.2177235633135,   0.0711640045047},
   {  -0.0215537957847,  -0.0397710911930,   0.1105847880244,   0.0600053966045,   0.0083043603227,   0.1359319239855,   0.0849048197269,  -0.0113174039871,   0.1077380031347,  -0.0097483433783,  -0.1021413505077,  -0.0296561624855,   0.0955933183432,  -0.0093954028562,  -0.0133522897959,   0.1195538789034,   0.0768216326833,  -0.0875495225191,   0.0096266614273,   0.0821671485901,  -0.0465937517583,   0.0890368372202,  -0.0525567941368,  -0.0396694913507,   0.0391257666051,  -0.0257203709334,  -0.0435034297407,   0.0120746949688,  -0.0246049501002,  -0.0444523207843},
   {   0.1957311034203,  -0.1572687029839,   0.2146210819483,  -0.3428243100643,   0.3326531350613,   0.0512249581516,   0.3013632297516,   0.1599104106426,  -0.2222291827202,   0.5249915719032,   0.0806535184383,  -0.1888860464096,   0.1816661953926,   0.3348631858826,   0.2151718139648,  -0.0099797481671,   0.0110481372103,  -0.0692209079862,   0.0743125006557,  -0.0125074740499,  -0.4077553153038,   0.1687822043896,  -0.0011071714107,   0.1908882707357,  -0.0861192941666,   0.3946367204189,  -0.1042966321111,   0.1055896282196,   0.1134827807546,   0.3198639750481},
   {   0.0415049456060,  -0.1914765834808,   0.1423684656620,  -0.0064993780106,  -0.3536013364792,  -0.1680788844824,  -0.2082092314959,   0.1091915965080,  -0.1770768016577,  -0.0799758881330,   0.2245126664639,   0.2405900359154,  -0.0535633936524,   0.1461173892021,  -0.1768514961004,   0.4359181523323,   0.1765215396881,   0.5812505483627,  -0.0715848878026,  -0.4213117361069,  -0.1716325432062,   0.2035406976938,   0.2388236969709,  -0.4986878335476,  -0.3965691030025,  -0.0770248398185,   0.1746684163809,  -0.0755668729544,  -0.0451444387436,   0.0336258262396},
   {   0.0105007803068,  -0.0535994730890,  -0.2209915220737,   0.0019676466472,   0.1089399158955,  -0.2182084619999,  -0.2064511030912,   0.0825037434697,   0.0772610157728,  -0.0607208013535,   0.1230715140700,   0.2462591081858,   0.1953473836184,  -0.1694755256176,   0.0981948375702,  -0.0352425836027,   0.2860183715820,   0.0302726048976,   0.0473641641438,  -0.0724074020982,  -0.1012483984232,   0.0851636379957,  -0.3400038778782,   0.1333501189947,  -0.1778816729784,  -0.1272716522217,   0.2399655133486,  -0.2487246245146,  -0.0495380088687,  -0.1284492611885},
   {  -0.1497622877359,   0.0906884893775,   0.2154453992844,   0.0440023541451,  -0.0821128189564,   0.0696960017085,  -0.0205203127116,   0.0127047244459,   0.1131778657436,   0.1212738975883,   0.0258966982365,  -0.1478676348925,  -0.0760791748762,   0.1275994628668,   0.1655736714602,  -0.1665529459715,  -0.1296401023865,  -0.0741841867566,   0.0522535890341,  -0.0363702401519,  -0.0977548658848,   0.1330024600029,   0.1546355783939,   0.0217606481165,  -0.0260055065155,  -0.1237274557352,   0.0314968489110,   0.0000339011094,  -0.0932680740952,   0.0396605320275},
   {  -0.1026389673352,   0.0775422453880,   0.2704890072346,   0.4104379117489,  -0.3380132913589,   0.1995235234499,   0.0905992761254,   0.3219800889492,   0.1759995222092,  -0.3441244363785,  -0.1959765106440,   0.1494828164577,   0.1455087363720,   0.3388912975788,   0.2537493109703,  -0.0854714214802,  -0.0142680816352,   0.2747854292393,  -0.3459207415581,   0.0304410718381,  -0.1503656208515,   0.0367078930140,  -0.2285506576300,   0.2141208946705,   0.0544439665973,   0.2610577940941,  -0.0530796721578,   0.1966822296381,   0.2341394275427,  -0.0976030901074},
   {  -0.2963782846928,  -0.1299162358046,   0.0801196545362,   0.0640543922782,   0.0503717437387,   0.0453706346452,  -0.0298127084970,  -0.0871021673083,  -0.0542183741927,  -0.2202327698469,   0.1865269541740,  -0.1356312185526,   0.4020174145699,   0.0494137108326,  -0.1702259182930,  -0.3624289631844,   0.0759611874819,  -0.4550474882126,   0.1795273274183,   0.1237399801612,  -0.1233472377062,  -0.0521257407963,   0.2324448525906,   0.1127182990313,   0.2266081720591,  -0.2237430661917,   0.0990744754672,   0.0816313102841,   0.0146590499207,  -0.0538747161627},
   {   0.0038764909841,  -0.0717941001058,  -0.2068843543530,   0.0529880411923,  -0.0281702205539,  -0.3415541648865,  -0.1044401526451,  -0.0561899952590,  -0.0608162023127,   0.0793997198343,  -0.0092241624370,  -0.2017918676138,  -0.1703454256058,   0.1266534924507,   0.1206610724330,  -0.0836011692882,   0.1358873993158,  -0.0726389512420,   0.1899898052216,  -0.0020345107187,  -0.2320765405893,   0.0677903592587,  -0.1701872944832,  -0.0622745975852,   0.1410069614649,  -0.1380502879620,   0.0286688804626,  -0.0674011409283,  -0.0364626236260,   0.1435873061419}};
  const float bias_0[30] = {   0.1685896217823,   0.2319099754095,  -0.0595415197313,   0.1107810288668,   0.1000969186425,  -0.0199941508472,   0.1864591985941,   0.3103272020817,   0.0972768440843,   0.0738041177392,   0.0993122309446,   0.1850678324699,   0.0421606861055,   0.1247566118836,   0.3166310191154,   0.1550426930189,   0.2005610167980,   0.1489631086588,   0.1761348098516,   0.2147363573313,   0.2369717061520,   0.3307609856129,   0.0289063714445,   0.1526189893484,   0.0901546627283,   0.0868055373430,  -0.0330336093903,   0.3210886120796,   0.1384381502867,   0.1427224725485};
  // Declare the arrays in the stack
  const float kernel_1[30][30] = 
  {{   0.3076763749123,   0.2396042495966,   0.1363276243210,   0.2820531725883,   0.0342802219093,  -0.1116368472576,  -0.0595111101866,   0.1076072156429,  -0.1801630258560,   0.2973950505257,  -0.1327236294746,  -0.0759464725852,   0.0308964271098,  -0.0585259161890,   0.2601161003113,   0.0872699990869,   0.0658314228058,  -0.0137400189415,   0.2035797536373,   0.0889911577106,  -0.2567293047905,   0.1975300908089,  -0.2423216998577,  -0.2069849520922,  -0.0862228497863,  -0.0462771095335,   0.3134791851044,  -0.0695514082909,   0.2071630805731,   0.0440438874066},
   {   0.2694723010063,  -0.1725150346756,   0.2386222034693,  -0.2145970463753,   0.2021760642529,   0.2879430949688,   0.0818518474698,   0.0363865308464,   0.2613071799278,  -0.4096523523331,   0.2596260011196,  -0.0678480416536,  -0.2029207646847,  -0.2586169838905,   0.0966745018959,  -0.2046425938606,  -0.0339149087667,   0.1460648179054,  -0.0696153268218,   0.3690015971661,  -0.0986464023590,   0.1406639516354,   0.1683411896229,   0.1745196431875,   0.1577191054821,   0.2423520982265,   0.0620632246137,  -0.0183779150248,   0.1403132379055,  -0.0809143260121},
   {   0.2439080625772,   0.0403949618340,   0.1733553260565,   0.0820396617055,  -0.0453201979399,   0.0237714499235,  -0.0556568428874,   0.1306437999010,   0.0085426177830,   0.2268762439489,  -0.1656614542007,  -0.0385566167533,   0.0062911827117,  -0.1099189817905,  -0.0644646361470,   0.2196992784739,  -0.2848916649818,   0.0434605516493,   0.1969297528267,  -0.0450583212078,  -0.2867773771286,   0.0200395639986,  -0.1669717878103,  -0.1052048578858,  -0.1086684241891,  -0.1801909655333,   0.1439162939787,   0.0276397615671,   0.0638745799661,  -0.0929532945156},
   {  -0.0792040303349,  -0.0094728926197,  -0.2017331868410,   0.2766422629356,  -0.3041537404060,  -0.2956053316593,  -0.1192642599344,   0.1452482491732,   0.1610864549875,  -0.2049367129803,   0.2425395548344,   0.2103745490313,  -0.2702595293522,  -0.1202803775668,  -0.2398572266102,  -0.1119045913219,   0.0341498255730,   0.4572964906693,   0.1871095150709,  -0.0632934793830,   0.0095554012805,   0.2038303464651,  -0.1456675976515,   0.1771862506866,   0.1654040366411,   0.2812379002571,  -0.1465333700180,  -0.1771786957979,  -0.0897476077080,  -0.3854726254940},
   {   0.2602085769176,   0.2770960330963,  -0.2147724181414,   0.2323221862316,   0.1460553258657,  -0.2528372704983,   0.3072961568832,   0.0111650815234,  -0.1095463633537,  -0.1491059213877,   0.3849226832390,  -0.0546051748097,   0.3686140477657,   0.0048389313743,  -0.0369903296232,   0.0193698015064,  -0.1043648347259,  -0.2901550829411,   0.0716623961926,   0.0306010786444,   0.3253237903118,   0.1351693868637,   0.0735306218266,  -0.1748583018780,   0.1681393831968,   0.3068397939205,  -0.0275780446827,   0.2492056339979,  -0.0073604029603,   0.0730256363750},
   {  -0.2251733988523,  -0.3094664514065,  -0.1132272034883,   0.1381416469812,   0.0285465624183,  -0.0386048555374,  -0.0944547653198,   0.1819755882025,  -0.0480957441032,  -0.2806336581707,  -0.1512564867735,  -0.1662996113300,  -0.0792453661561,  -0.0131389591843,  -0.2432286441326,  -0.1624775081873,   0.0109203336760,  -0.1062866672873,  -0.0169022213668,   0.1219291239977,  -0.3863911330700,  -0.0338568836451,   0.0616356804967,  -0.2739588916302,  -0.3485977947712,  -0.0031567770056,   0.1627786606550,   0.1192745566368,  -0.0504126921296,  -0.1326831579208},
   {  -0.3278290927410,  -0.0443619042635,   0.1736426502466,  -0.0338502824306,  -0.2506371140480,   0.2053176015615,   0.1543084084988,  -0.1099908724427,  -0.1640872210264,  -0.0387011058629,   0.1678034812212,  -0.0850959569216,  -0.0664479359984,  -0.0647963061929,  -0.3003819584846,  -0.0537251494825,   0.2215034961700,   0.0116176232696,  -0.1808452308178,   0.0687382593751,   0.0536064691842,  -0.0028446123470,  -0.0225426182151,   0.0378455296159,   0.1834141016006,  -0.1705238074064,   0.2247332781553,  -0.3721756041050,   0.4355862438679,   0.0912077203393},
   {   0.2911894321442,   0.3792622089386,   0.0824428945780,  -0.2154305279255,  -0.2167600691319,  -0.0651084259152,   0.1736531108618,   0.0189374256879,   0.2215724140406,   0.3038534522057,   0.0952860265970,  -0.1074676290154,  -0.1851453632116,   0.0197970885783,  -0.0156561359763,   0.0748172551394,   0.1706730425358,  -0.0119659276679,   0.1712159812450,  -0.0643271729350,  -0.4348836839199,   0.1732786595821,   0.1554717421532,   0.3348625898361,   0.0972489044070,   0.0965947359800,   0.2859164178371,   0.2103043198586,  -0.3690579831600,   0.2983873784542},
   {   0.3157728314400,   0.3157073259354,   0.0590119473636,  -0.2154761552811,   0.0453417524695,   0.0257277749479,   0.0204596612602,  -0.1240164414048,  -0.1227662563324,  -0.0827009081841,   0.1851558089256,   0.1402747929096,   0.0762090310454,  -0.0656885951757,  -0.2506650984287,  -0.1188061386347,  -0.0921811610460,  -0.0797996222973,  -0.0880249515176,  -0.0254511069506,   0.1376935392618,  -0.0832838714123,   0.1823102831841,   0.1743185967207,  -0.1848273873329,   0.2546197175980,   0.2321869134903,  -0.1903035193682,   0.0358940139413,  -0.1586382538080},
   {   0.1802956461906,  -0.1130722239614,   0.1980904042721,   0.1738087385893,  -0.0568625256419,  -0.3156970441341,   0.1376388221979,  -0.1255244463682,   0.2242170125246,  -0.0186382774264,  -0.0508954785764,  -0.1108208149672,   0.1893838495016,  -0.0591835305095,   0.0189202707261,  -0.2401974201202,  -0.0399905107915,  -0.1807820051908,   0.1062368303537,   0.1028336659074,   0.0370921790600,   0.0958405286074,  -0.2174973785877,   0.2892821431160,  -0.2468848675489,   0.0191745497286,   0.0969542562962,   0.1274917572737,  -0.1317360103130,   0.1509405970573},
   {  -0.0962153524160,   0.1409092396498,   0.2778151929379,   0.2749476134777,   0.0438551679254,   0.1890424937010,  -0.2112882137299,   0.2915075719357,  -0.2220259755850,   0.1365554332733,   0.1543039828539,   0.0702311918139,   0.1445231735706,   0.1154666244984,  -0.2166085690260,  -0.2323699593544,  -0.0156037267298,  -0.0295134037733,  -0.2456623613834,  -0.0275295283645,   0.2688389420509,  -0.2237190902233,  -0.4519928693771,  -0.1564956605434,  -0.0547692924738,  -0.1505097448826,   0.3281916379929,   0.1411193609238,   0.0200911983848,   0.1167066544294},
   {   0.0345376729965,   0.0679444745183,  -0.0977740287781,   0.2110083103180,  -0.0499451681972,   0.2747460603714,  -0.0738045349717,   0.1490141153336,   0.2302488982677,   0.0556227490306,   0.3045860826969,   0.2573559880257,  -0.0501365661621,   0.1276595890522,   0.0803244188428,   0.1616189926863,   0.3625665009022,   0.0342508517206,   0.2622129917145,  -0.1892118901014,  -0.0034333588555,   0.2061756104231,   0.3049908578396,  -0.1032845079899,  -0.0315224342048,  -0.1956571638584,  -0.1790673434734,  -0.1883254200220,   0.1146673336625,  -0.0908102765679},
   {  -0.2642199397087,   0.0686848983169,   0.0589238442481,  -0.2144650816917,  -0.3189377486706,  -0.0316088609397,   0.0685837939382,   0.1287763416767,   0.2196221500635,  -0.2323237210512,   0.3833589553833,   0.2174638956785,  -0.0165453515947,  -0.0552143640816,   0.0328534580767,   0.0633854568005,   0.0233672615141,   0.1350281685591,   0.1984471082687,  -0.1829477399588,  -0.1500746011734,  -0.2113498151302,   0.1286642700434,  -0.2725006043911,  -0.0954420343041,   0.1525713205338,  -0.0940061360598,   0.0905176922679,   0.1022313162684,   0.0888645797968},
   {  -0.1732228249311,  -0.2553603649139,  -0.0525037162006,   0.0587948635221,   0.0475186668336,  -0.1002506390214,  -0.0649307891726,   0.1819326728582,   0.3093966841698,  -0.0992204099894,   0.4187231659889,  -0.1695587784052,  -0.1110950633883,   0.1405072510242,  -0.1505450606346,   0.1720153540373,  -0.2432389408350,  -0.0529800020158,  -0.0397418960929,   0.2175447940826,   0.1304505467415,   0.0229089017957,  -0.0245836284012,   0.1936854124069,  -0.1750639379025,   0.0994438454509,   0.1378347724676,  -0.0422780327499,  -0.0098873684183,   0.2366272956133},
   {   0.0853249803185,   0.2802058756351,   0.0648428499699,  -0.0963607802987,  -0.3376151919365,   0.2360449433327,  -0.1165071129799,   0.1384644806385,   0.1878921538591,   0.2531050741673,  -0.0861199945211,  -0.1334640830755,   0.1082090958953,   0.1046873331070,   0.1501748263836,  -0.0413591116667,   0.2062807530165,   0.1114754900336,   0.0193232409656,   0.1891086548567,   0.0911850854754,  -0.0005430628080,   0.0950073376298,   0.2883932888508,  -0.0897404849529,  -0.0827058479190,  -0.2372499704361,   0.1057407781482,   0.1202630102634,  -0.1389409303665},
   {   0.1966242194176,   0.3137710392475,   0.1859422326088,  -0.2239611893892,   0.0148339048028,  -0.1650676280260,  -0.1746852993965,   0.0260960571468,   0.1954611241817,  -0.2372393459082,  -0.0416322983801,  -0.3681536018848,   0.3456296026707,   0.0533822216094,   0.2024639546871,  -0.2644142508507,   0.2002004683018,   0.0506177805364,   0.0527228973806,  -0.0190132539719,  -0.1229397356510,   0.2929409444332,  -0.1211436912417,   0.2153454869986,   0.1641135513783,   0.2120104283094,  -0.0012722560205,  -0.1773867905140,  -0.1327941268682,   0.3266028463840},
   {  -0.2315502166748,  -0.0904077813029,  -0.0162433199584,  -0.2654927670956,  -0.2111578732729,   0.0411801002920,  -0.0072836256586,   0.1664278507233,  -0.2024095058441,   0.1017406135798,  -0.3273181617260,   0.0324426591396,   0.0125797847286,   0.0296972952783,  -0.3315000832081,   0.0030264731031,  -0.0531029105186,  -0.0743089839816,  -0.1978071630001,  -0.0208404865116,  -0.3068471252918,  -0.2016282230616,   0.2140171229839,  -0.0623943507671,   0.0548683889210,   0.1431978791952,   0.1598988771439,   0.0370105691254,   0.2964557111263,  -0.1218034997582},
   {   0.0115709118545,   0.0748630091548,   0.1853600889444,   0.1819249093533,   0.0806896612048,  -0.0686122700572,  -0.3327800035477,  -0.1398769319057,   0.0540294647217,   0.0812759622931,   0.2084147036076,  -0.2998059093952,   0.2750301659107,  -0.1120827868581,  -0.0283968932927,   0.0280617214739,   0.1572122275829,   0.2604054212570,   0.2247810065746,  -0.2693771421909,   0.0383267775178,   0.2331943958998,  -0.0120563888922,   0.3538243472576,  -0.2314043641090,   0.0790650546551,  -0.1496064215899,  -0.2842198610306,   0.1777650713921,   0.1479191333055},
   {  -0.1402275860310,   0.1553502231836,   0.1348121464252,  -0.2380478531122,   0.2221451401711,  -0.0442702397704,   0.1209435760975,  -0.0463709868491,   0.1505254060030,   0.0673777088523,   0.1798849552870,  -0.1638472527266,  -0.2167909741402,   0.1195626407862,   0.0448000580072,  -0.0855902731419,   0.3191554546356,  -0.0179915018380,  -0.0869350954890,  -0.1305514425039,   0.0146580180153,  -0.0635702535510,   0.1588227748871,  -0.1545379757881,  -0.0537657290697,   0.2107951045036,  -0.2449450939894,  -0.1570575237274,   0.1445296704769,   0.0262187290937},
   {   0.2413809150457,   0.1105473414063,   0.1561313718557,   0.2873402535915,   0.0783528387547,   0.0723275467753,   0.1384961456060,   0.0202181246132,   0.1871197521687,   0.0787107869983,  -0.1989744454622,   0.0098060602322,  -0.1575157642365,   0.3220151960850,   0.2769921123981,  -0.3733301758766,   0.3698656857014,  -0.1951386481524,   0.1356549710035,   0.0555472858250,  -0.1676932424307,  -0.1082884818316,   0.2377467453480,  -0.1589815169573,   0.0577015094459,  -0.3173494338989,  -0.0683655589819,  -0.0237036291510,   0.0148810613900,  -0.1044590994716},
   {  -0.3028949201107,   0.0297976285219,  -0.3376584947109,  -0.2177890390158,   0.2021188586950,  -0.2250619679689,   0.2368942648172,  -0.1906198859215,   0.1862927228212,   0.1246123537421,  -0.0579455606639,   0.0994979143143,  -0.2815705239773,   0.2996566593647,   0.1906436681747,  -0.3252307176590,   0.0627626329660,   0.2177311927080,  -0.1134516447783,  -0.0719655752182,   0.2422781884670,   0.2785885632038,  -0.1247290223837,  -0.1709531545639,   0.0774897262454,  -0.0789688900113,  -0.2317109853029,  -0.1371884346008,   0.1841149777174,  -0.2221989929676},
   {  -0.0955327004194,  -0.0328640080988,  -0.2043979763985,  -0.0434932485223,   0.2225272804499,   0.1353657990694,  -0.1285754293203,   0.2121895998716,  -0.2502943277359,  -0.3325253129005,   0.1158924847841,  -0.0516692586243,   0.0552247725427,   0.2902160286903,   0.0859488919377,   0.2927674949169,   0.1472977697849,  -0.0227407105267,   0.0484059862792,   0.0169998016208,   0.1304613351822,   0.1759083867073,   0.1215084567666,   0.1842631697655,   0.1010228991508,  -0.1732144653797,  -0.0725339129567,   0.0443784631789,  -0.1066335216165,   0.1238777860999},
   {  -0.2010794728994,  -0.2564605474472,  -0.1658638715744,   0.2196323722601,   0.0413672290742,  -0.0600406564772,  -0.0297022406012,   0.2551892995834,   0.0104282647371,  -0.0891953185201,  -0.4676637947559,  -0.0556144416332,   0.2898666560650,  -0.0355449095368,   0.2450324445963,   0.1587092131376,  -0.0726788863540,  -0.1874212622643,  -0.0453724451363,  -0.2323751300573,   0.0569530837238,  -0.1154007837176,   0.1596679687500,  -0.1664326041937,   0.1401497721672,   0.3240977823734,  -0.0479736253619,   0.1812743693590,  -0.0834919437766,  -0.0503923781216},
   {  -0.0397956147790,   0.1280062794685,  -0.2914385795593,   0.2453954070807,  -0.1498817801476,   0.0080925505608,   0.4326084852219,   0.1200332865119,   0.1338993906975,  -0.0312720276415,  -0.1227060854435,   0.1516208946705,  -0.1173020750284,   0.0452598705888,  -0.0568318627775,  -0.1670199781656,  -0.0595402717590,  -0.3552904725075,  -0.1258057206869,  -0.2622530758381,   0.2511451542377,  -0.0801174193621,  -0.4033353328705,   0.1490151733160,  -0.3097494840622,  -0.2797642052174,  -0.1520627290010,   0.3356098234653,  -0.0743372291327,  -0.2433243393898},
   {   0.1598013490438,   0.1185579001904,  -0.0087174689397,   0.2476208060980,  -0.1196430474520,  -0.1373696178198,  -0.0381809547544,  -0.1294002681971,  -0.1306406855583,   0.2914015650749,  -0.0857186391950,   0.3714206516743,  -0.3827593624592,  -0.1462941765785,   0.0125065380707,  -0.1433496922255,  -0.2065442651510,  -0.0162372402847,   0.1675884723663,   0.0453501753509,  -0.0204373318702,   0.1884312629700,  -0.2331985831261,   0.0785590261221,   0.1270953714848,   0.3397055864334,   0.1534863114357,   0.2538367211819,   0.1535363793373,  -0.2013137936592},
   {  -0.0037763081491,   0.0972157865763,  -0.2146716862917,  -0.2635910511017,  -0.3753648102283,  -0.1829283237457,  -0.1450672596693,   0.0977217108011,   0.3789915442467,   0.0782386437058,   0.1463503390551,   0.1601919829845,   0.2021381855011,   0.3653475046158,  -0.2186171710491,   0.2880228757858,   0.2073919028044,  -0.0159084144980,   0.1214415878057,   0.3683834671974,   0.2256920188665,   0.2154406905174,  -0.3479855954647,  -0.1866621673107,  -0.3500995934010,  -0.0213243179023,  -0.1318972557783,  -0.0686977058649,   0.2745668292046,  -0.0958001166582},
   {  -0.3011718094349,  -0.1204905435443,   0.0209565628320,  -0.1749266386032,   0.0703194811940,   0.0688504576683,  -0.0835413485765,  -0.1676113307476,   0.0709161683917,  -0.3237815499306,  -0.0016143249813,  -0.0450739860535,  -0.0845905691385,  -0.1405537873507,  -0.1139453500509,  -0.2147877812386,   0.0452635549009,  -0.0532241985202,  -0.1129217371345,  -0.2512298822403,   0.0430508740246,  -0.0039469641633,  -0.0292901899666,  -0.0444895774126,   0.1344704627991,   0.1806688606739,   0.1614606976509,  -0.1327311396599,  -0.1061962842941,  -0.0560799986124},
   {   0.2598810195923,   0.0852533802390,  -0.3256545066833,  -0.1371278613806,   0.2723369896412,  -0.1608152389526,   0.1020907610655,  -0.2314328998327,   0.4181748926640,   0.2575467824936,   0.4370321631432,  -0.0094618173316,   0.0176178812981,   0.0302709434181,  -0.1250204890966,   0.3031345009804,   0.2601633369923,  -0.1641140133142,  -0.1817466169596,   0.1624571830034,   0.2947673797607,   0.0943166464567,   0.2811990380287,   0.1729021817446,   0.1325167268515,   0.2338989377022,   0.1063762530684,   0.1794588714838,  -0.1386645883322,  -0.2624370157719},
   {   0.2537115216255,  -0.1924465000629,  -0.0817930921912,   0.1825864166021,  -0.1352826207876,  -0.1152311488986,  -0.0369815863669,  -0.2787670791149,   0.3656522035599,  -0.0554060228169,   0.3100209534168,   0.1021615862846,  -0.0148610556498,   0.2031732797623,   0.0472013056278,  -0.1333057135344,  -0.2927688956261,  -0.0075912196189,  -0.0357698351145,  -0.0479609072208,   0.2387903928757,   0.2078228741884,  -0.1204945966601,   0.2984518110752,   0.1961878091097,  -0.4041725993156,   0.2571563720703,   0.1372717618942,   0.0642714425921,  -0.1077546626329},
   {  -0.1827418208122,  -0.0872487574816,  -0.0968558937311,   0.2284237593412,   0.0549838580191,   0.2873845398426,   0.2432930320501,  -0.1902805566788,  -0.0499053485692,  -0.1437935382128,   0.1009561717510,  -0.0360592044890,  -0.0093651842326,  -0.2384507954121,  -0.2271032631397,   0.0965680629015,   0.2686925530434,  -0.1148891001940,   0.3831248581409,   0.0836276486516,   0.1041052863002,  -0.1457476764917,   0.0800623595715,   0.3137431442738,  -0.0528984963894,   0.2443865984678,   0.1762585937977,   0.0105826780200,  -0.0791563689709,   0.0411656536162}};
  const float bias_1[30] = {  -0.0409529246390,   0.0845435261726,  -0.1001843512058,  -0.0518313683569,   0.1409116834402,   0.1911986768246,  -0.0231333449483,   0.0941363275051,   0.1136631593108,   0.0696657001972,   0.0648940801620,  -0.1253993958235,  -0.0588443279266,   0.0859442725778,   0.0392424799502,   0.0607995204628,   0.1468390077353,  -0.0071902312338,   0.1317101716995,   0.1438748538494,  -0.0428517907858,   0.0190979447216,   0.1036660447717,   0.0692987963557,   0.1173501089215,   0.0713972225785,   0.1410980522633,   0.0616921931505,   0.0902905613184,   0.0700784102082};
  // Declare the arrays in the stack
  const float kernel_2[30][30] = 
  {{  -0.0805103704333,  -0.1691826432943,  -0.0634144395590,   0.1706693172455,   0.2674687802792,   0.2606753706932,   0.0236012712121,  -0.1599004417658,   0.0402740761638,   0.2845054268837,   0.1582625061274,   0.1646274924278,  -0.1473939716816,   0.1096115559340,   0.3359630107880,   0.0949086174369,  -0.0594619065523,   0.2363058030605,  -0.0000057187972,   0.0190598517656,  -0.2315069586039,   0.2641240358353,   0.3045485913754,  -0.2816211581230,  -0.2155401110649,  -0.2628099918365,   0.0589216239750,   0.0764048397541,   0.3406115174294,  -0.3667717874050},
   {  -0.0576215088367,   0.2241983860731,  -0.1788172423840,  -0.2158538699150,   0.0057884110138,   0.1091051325202,   0.0502098239958,   0.3744061887264,   0.0610922388732,  -0.1645384281874,  -0.0046007847413,   0.0200580619276,   0.2810058295727,  -0.0197515990585,   0.2048027664423,   0.2188559770584,   0.3249020576477,   0.1701473891735,  -0.0860474258661,   0.0027648203541,   0.2241526097059,   0.0715662017465,   0.2624134719372,   0.2077280580997,   0.2669246792793,   0.0199320334941,  -0.0724000111222,  -0.0230422634631,   0.1137773692608,   0.0871094465256},
   {  -0.1375114023685,  -0.0443078242242,  -0.0285469461232,   0.2736307978630,  -0.2589891552925,  -0.0859115570784,  -0.2650386095047,   0.2088445425034,   0.1896971613169,   0.1964454799891,   0.0145538309589,   0.2139151394367,  -0.0699451938272,   0.1730361431837,   0.1697134226561,  -0.1804312318563,  -0.3259965777397,  -0.2344533950090,  -0.2247639447451,  -0.1925179213285,   0.1788810640574,   0.0199873726815,   0.1017337739468,  -0.1101220101118,   0.1365146189928,   0.0487575493753,  -0.1554975509644,   0.1102838590741,  -0.1057204529643,  -0.0642265677452},
   {  -0.0395512580872,   0.2448982447386,  -0.0450384207070,   0.1321922391653,  -0.0076308799908,  -0.2301699519157,   0.1679320484400,  -0.2629810273647,   0.3259954154491,   0.2734467089176,   0.0544122159481,   0.1294277310371,   0.0907551571727,  -0.1920254230499,   0.3138223290443,  -0.3101489543915,   0.1373647600412,  -0.1450662314892,   0.3116780817509,  -0.0518784634769,   0.1464377939701,   0.2470751702785,  -0.1034159958363,  -0.1019618958235,  -0.0557730458677,   0.2376886457205,  -0.0105745792389,   0.2695373594761,  -0.0899465084076,   0.0707984939218},
   {   0.1080418974161,   0.2989829480648,   0.3657739758492,  -0.0756122395396,   0.3497515320778,   0.2595821022987,   0.2444400638342,   0.2847349345684,  -0.2126287221909,  -0.3050248622894,   0.0143122887239,  -0.0057950704359,  -0.0692011639476,  -0.1504281014204,   0.1608246415854,  -0.0010133536998,   0.0229894276708,  -0.2596331834793,  -0.0843180939555,   0.2554056346416,  -0.1936007738113,   0.3125237524509,  -0.0080056441948,   0.0532538555562,   0.0601119510829,   0.1256859153509,  -0.1359400004148,  -0.2065171003342,   0.0756623148918,  -0.3125182986259},
   {   0.0540889799595,   0.0294878445566,  -0.1284034848213,  -0.2305232584476,   0.0398807935417,  -0.1082179099321,  -0.0404549390078,  -0.1915711313486,   0.2866134643555,  -0.1680930405855,  -0.0162331741303,  -0.2153969258070,  -0.2790396213531,   0.0055971085094,   0.1223626360297,  -0.2186273783445,  -0.0041511096060,  -0.3542916774750,   0.1093659475446,  -0.2774185538292,   0.2888008654118,   0.0438587069511,   0.3028784096241,  -0.1290986835957,   0.1929866075516,   0.0911238119006,   0.2029560804367,  -0.2414478957653,   0.0907982215285,  -0.0836535766721},
   {  -0.2422595471144,   0.0262900330126,  -0.2525091171265,   0.3576517403126,  -0.0458617992699,  -0.3166991174221,   0.1673457622528,   0.2666154801846,  -0.0511563196778,   0.2460409700871,  -0.2864814996719,   0.2343793511391,   0.0665662884712,  -0.1468634307384,  -0.2195411622524,  -0.1229464560747,   0.3164091706276,  -0.0126642072573,  -0.2508357763290,   0.1775379925966,  -0.0991502851248,   0.1831829696894,   0.3429708480835,  -0.1991625875235,   0.1780375838280,   0.2896954715252,  -0.2079704552889,   0.1233068257570,   0.0541444867849,   0.1429830491543},
   {   0.2889782190323,   0.3006535172462,   0.2918470799923,   0.1035683378577,   0.1571224331856,   0.1420179009438,   0.2586084008217,   0.0398986153305,  -0.2404766231775,  -0.1887665987015,   0.0423364453018,  -0.1767705529928,  -0.0228137671947,  -0.0215448457748,  -0.1466511189938,   0.2586536705494,  -0.1311430335045,   0.0437567718327,   0.0543949753046,   0.1952451318502,   0.2157624661922,   0.0328203812242,   0.2024350464344,  -0.0720377564430,   0.2171796113253,  -0.1223185434937,  -0.3067383468151,   0.1752933710814,  -0.0240026321262,  -0.1714881062508},
   {   0.2491759806871,   0.3020270168781,   0.1850357353687,  -0.0220898017287,  -0.0679883435369,   0.1203551366925,  -0.0345721431077,  -0.0612760148942,  -0.2194238901138,   0.1309885382652,   0.2141521424055,   0.0477788336575,   0.3197434544563,   0.1071201190352,   0.2243155390024,   0.3364462852478,  -0.0744896158576,  -0.0401317477226,   0.3056589663029,  -0.0333243906498,   0.1420169025660,   0.1596213579178,   0.0543891638517,   0.1141144484282,   0.0506966076791,   0.1871802657843,  -0.2534137964249,   0.2930648028851,  -0.0184739511460,  -0.1367068886757},
   {   0.0064419191331,  -0.1216490417719,  -0.0081536164507,  -0.1664172410965,  -0.0688374787569,   0.1036081388593,  -0.2764576375484,  -0.1941692531109,   0.3232194781303,  -0.0291428789496,   0.2003800719976,  -0.2556854188442,   0.0779711082578,  -0.0129158040509,   0.1433133631945,  -0.0084517914802,   0.1099040880799,   0.0686349123716,   0.0220352467149,  -0.1381357014179,  -0.2552736401558,   0.1634573191404,  -0.1811193972826,  -0.0264525897801,   0.1376670300961,  -0.0587861724198,  -0.0749143213034,   0.0569888092577,   0.1889825314283,  -0.1296377480030},
   {   0.1888064891100,   0.0258186887950,   0.1906361877918,   0.3324405848980,  -0.1130583956838,  -0.1231388300657,   0.1406334042549,   0.2052462548018,   0.1948739439249,   0.0421819165349,  -0.0931429192424,  -0.1045938432217,   0.0928338021040,  -0.2522773742676,   0.3152863085270,   0.0301753114909,   0.3807271122932,   0.0667385086417,   0.1491738259792,   0.1044523045421,  -0.0728740394115,  -0.0274961255491,  -0.1554789990187,  -0.1445281058550,  -0.2369227409363,  -0.0580890253186,  -0.1413033753633,  -0.1915611177683,   0.1854366660118,  -0.1001413539052},
   {  -0.3569236099720,   0.1704844981432,   0.2166787385941,   0.1937514096498,   0.0251644719392,  -0.0602756254375,   0.2971999347210,  -0.2405223995447,   0.0615635402501,  -0.1865003407001,  -0.1353299319744,  -0.1975344866514,   0.0143130589277,  -0.2578552365303,  -0.0638931319118,  -0.0519922897220,   0.1559376567602,   0.2078924924135,  -0.0009849831695,   0.2170345783234,  -0.2496180236340,  -0.3045404553413,  -0.0574634373188,  -0.1370245218277,  -0.0693526566029,   0.3468175232410,   0.0666977241635,   0.1760752797127,  -0.0747600793839,  -0.0247224085033},
   {   0.0532908514142,  -0.1113567501307,   0.1009381189942,  -0.0167799461633,  -0.2335030883551,   0.2734455168247,   0.0208291299641,  -0.1808103919029,  -0.0865730047226,   0.2959751486778,   0.0576837398112,   0.0723635256290,   0.1862231045961,  -0.0591548085213,  -0.1717628985643,   0.1963596045971,   0.0948510766029,  -0.2169501483440,  -0.2951372861862,   0.1177912205458,  -0.2379596829414,  -0.2117642760277,   0.0172225590795,  -0.1651249080896,  -0.0326313413680,  -0.2579202651978,  -0.4577552080154,   0.2432503253222,  -0.2210945188999,   0.2383205443621},
   {   0.3420398533344,   0.1592696905136,   0.3895829617977,  -0.0408948920667,  -0.0116199003533,  -0.2257730215788,  -0.2577378749847,  -0.0306198913604,  -0.2279443889856,   0.1932439655066,   0.2609854340553,   0.0828733965755,  -0.3268336355686,   0.1240293160081,   0.3304828107357,  -0.2359200417995,   0.3192400634289,  -0.1488170772791,   0.0385453589261,   0.2655757069588,   0.0829373225570,   0.2382159978151,  -0.3654780387878,  -0.2160046845675,  -0.0654365718365,  -0.1098573058844,  -0.3015594780445,  -0.3285948932171,  -0.1464800536633,  -0.0127526735887},
   {   0.2843438386917,  -0.1692821830511,   0.1167549416423,  -0.2412736564875,   0.0978994816542,   0.4337097108364,  -0.3702420890331,  -0.0215117894113,  -0.0288650114089,  -0.1068616956472,  -0.1309148073196,  -0.0282750576735,  -0.1398521661758,  -0.0176781229675,  -0.1071554124355,   0.3261218070984,   0.0346812680364,  -0.1079524084926,   0.1499914377928,  -0.0595579445362,  -0.1232398152351,   0.1850833892822,   0.0389740727842,   0.0991318151355,   0.0034783002920,  -0.0460031777620,   0.1361272335052,   0.2287790626287,   0.1132686808705,   0.1398228704929},
   {   0.1606386899948,   0.2006580829620,   0.3127090632915,   0.1626978665590,  -0.0137346945703,  -0.0605287663639,  -0.0049649109133,   0.0158080346882,  -0.5080209374428,  -0.3368179798126,   0.0260644722730,  -0.0426886528730,  -0.1264073401690,  -0.0572626665235,  -0.1341146677732,   0.0169628988951,  -0.3439026772976,   0.1369148790836,  -0.0339448712766,   0.0905675068498,  -0.2506177723408,  -0.0731803402305,  -0.0435012988746,   0.1847258359194,   0.1579059660435,   0.1595730185509,   0.3389987647533,   0.0221130661666,  -0.1252536773682,  -0.3999799489975},
   {   0.3043587505817,   0.2131309807301,   0.0768136382103,   0.1906436830759,   0.3236183524132,   0.1665749400854,  -0.0620567873120,   0.2794058918953,   0.1759376674891,   0.1198702976108,   0.2046743184328,   0.0546654351056,  -0.0655345469713,   0.0787641257048,  -0.0364562980831,  -0.2440386563540,  -0.0468070507050,   0.0466694906354,   0.2987146973610,   0.3271816372871,   0.0212329253554,   0.0763897001743,   0.1490572243929,   0.1767749786377,  -0.2354068160057,  -0.0288296174258,  -0.0184428375214,  -0.0793321654201,   0.1984439194202,   0.2544336318970},
   {  -0.0063103162684,  -0.0141537515447,  -0.0887092202902,   0.3179006576538,   0.1024660989642,  -0.1189612746239,  -0.1259581297636,  -0.2524710297585,   0.0136228473857,   0.4165418446064,  -0.2624228596687,   0.1588746309280,   0.1965536475182,  -0.0719005092978,   0.2795799076557,   0.1921414434910,  -0.1426544785500,   0.2051263153553,  -0.2409635931253,   0.0206212513149,   0.2894360721111,  -0.0923166200519,   0.2986209988594,  -0.0077363364398,   0.2114705443382,  -0.1260040998459,  -0.0627068430185,   0.2062217444181,  -0.1114659160376,   0.4191417992115},
   {  -0.0256202444434,  -0.2925774157047,  -0.0686757043004,   0.2176474779844,   0.0255048759282,   0.0012068627402,  -0.2379779219627,   0.2841170728207,   0.1153943017125,   0.1021587625146,   0.1313671618700,  -0.0247656404972,   0.2828633189201,  -0.0927688702941,   0.2135808020830,  -0.1013751253486,  -0.2138208448887,  -0.1788436770439,   0.2334133088589,  -0.0733189061284,   0.1563000977039,   0.2803229987621,   0.0037635196932,  -0.1717597246170,   0.2949008643627,  -0.2249500751495,  -0.0009139483445,   0.2594126760960,   0.3751072287560,  -0.0050008320250},
   {  -0.1093045473099,  -0.0364850610495,   0.2937613427639,  -0.1514313966036,   0.2604713141918,  -0.1403903365135,   0.1566261798143,  -0.0686987414956,   0.1869930922985,  -0.1999576985836,  -0.0206347070634,  -0.0004319335858,   0.0528679899871,   0.2345945984125,   0.1608981639147,   0.3025941252708,   0.2550940811634,  -0.2055860608816,   0.2199141681194,  -0.1046935543418,   0.2362972050905,   0.0989824309945,   0.2032064944506,   0.4028093516827,  -0.3542592525482,   0.1778574287891,  -0.2773615419865,  -0.1912621110678,  -0.1347938776016,   0.0968127623200},
   {   0.0010778092546,  -0.0464678183198,   0.2837989032269,   0.1212460547686,   0.0179762449116,  -0.3186724781990,   0.1165151968598,  -0.1648108214140,  -0.1636064946651,  -0.0584109313786,  -0.1857666820288,   0.0272389333695,  -0.0535160750151,   0.0841297209263,  -0.3529253602028,   0.2359562665224,  -0.1089968532324,   0.2959443032742,  -0.0709023699164,   0.0389002040029,   0.1511088162661,   0.1074217930436,  -0.2011828869581,   0.1920991390944,  -0.4320931434631,   0.2926893234253,   0.3343746662140,   0.2392168343067,  -0.1866933554411,   0.3212370574474},
   {  -0.2512937188148,   0.2646405100822,  -0.0278323609382,   0.0114385625347,   0.1864289194345,  -0.0547488778830,  -0.2729821503162,  -0.1043187081814,  -0.1642014086246,   0.2439530938864,   0.0687902942300,  -0.2927077412605,   0.2517609298229,  -0.0437387973070,   0.3306396305561,  -0.2516318559647,   0.0424867533147,   0.1931856125593,  -0.3065627515316,   0.2452448010445,   0.2181736826897,  -0.0501411333680,   0.0240242816508,   0.3131401836872,   0.2486686855555,   0.1712502837181,  -0.3003331720829,  -0.0608722977340,   0.0760335177183,   0.3047837316990},
   {  -0.0666410401464,  -0.0015407192986,  -0.1088134273887,  -0.0116825522855,   0.1130384579301,  -0.0441445000470,   0.0689669400454,   0.2589671611786,   0.2485364526510,  -0.0355505459011,   0.3790389299393,  -0.2460871189833,   0.0058344141580,  -0.3527220189571,   0.0172985121608,  -0.0630683824420,   0.0841733068228,   0.1653084903955,  -0.0696476697922,  -0.2991229891777,   0.1441215723753,   0.3564618527889,  -0.0336661748588,   0.1158836707473,  -0.3167974650860,   0.1134369224310,   0.1379826366901,   0.0984901860356,  -0.0492394082248,  -0.1249661371112},
   {  -0.1947185546160,  -0.1300335228443,   0.1789754182100,   0.0441135317087,  -0.0633751004934,   0.1458751559258,   0.1364085972309,   0.2220489233732,  -0.3163748979568,   0.3014832735062,  -0.2783017456532,  -0.0981895104051,  -0.2755209803581,   0.3442825376987,   0.2908924221992,  -0.0263120085001,   0.1264525949955,  -0.0775533095002,   0.1547325700521,  -0.3011466860771,   0.3167832195759,  -0.1553739011288,  -0.0243403017521,  -0.1878942996264,  -0.3673567175865,   0.3146266639233,   0.1368836313486,  -0.0416917912662,   0.1771072447300,   0.1376886963844},
   {   0.0675522834063,  -0.1918976604939,   0.3076713383198,  -0.1103748753667,   0.1888238340616,   0.0742565244436,  -0.0745939537883,  -0.0978588312864,  -0.0571822598577,   0.0293894652277,   0.1809013187885,  -0.0092410715297,   0.1183162182570,   0.0859238803387,  -0.0696821063757,   0.2239461988211,  -0.0096520762891,   0.0045521808788,   0.2652172744274,  -0.0760800838470,  -0.1419508010149,   0.2564644217491,  -0.0245513096452,   0.0238829050213,   0.3075523376465,  -0.1519831717014,   0.0950746685266,  -0.2213055640459,   0.1607051938772,  -0.2503297030926},
   {  -0.0936373844743,   0.1139396578074,  -0.0018648918485,   0.2115175575018,  -0.0138053456321,   0.0572505891323,  -0.2758403420448,  -0.1567741334438,   0.1976760625839,   0.1847571283579,   0.3180459439754,  -0.2593941986561,  -0.0294151231647,   0.0520936772227,  -0.1090893149376,  -0.2237412035465,   0.1613501161337,   0.1154706627131,   0.0440437421203,   0.0645933449268,   0.1725088655949,  -0.2176396995783,  -0.0162526294589,   0.1761761158705,   0.2123889923096,  -0.2071292251348,  -0.0464131832123,   0.2277605086565,  -0.2439627051353,   0.1302182227373},
   {   0.2289798557758,  -0.2290097475052,  -0.1534491181374,   0.1347974538803,  -0.1517433822155,  -0.2573619484901,  -0.2966830432415,  -0.1640201061964,  -0.3844113647938,  -0.0295918378979,   0.0288412999362,   0.3707226812840,   0.1320842653513,  -0.0611932016909,   0.2001331597567,   0.0183020532131,  -0.0303464569151,  -0.3379291892052,   0.0809677392244,   0.1025996729732,   0.0032951221801,  -0.0385782755911,   0.0291699524969,   0.2121598720551,  -0.2358271181583,  -0.0857093408704,  -0.1971141248941,   0.2674768269062,  -0.1145913973451,   0.2680130302906},
   {  -0.1755281239748,   0.3629725277424,   0.2227830141783,   0.1825944185257,  -0.2067985236645,   0.0153882848099,  -0.1883274316788,   0.0651071816683,  -0.0897584557533,  -0.2492729574442,  -0.0605138204992,   0.1944529563189,   0.2378181964159,   0.3134180605412,   0.1601286232471,  -0.0841348916292,   0.1319673657417,   0.1484026908875,   0.1114977225661,   0.1471645534039,  -0.1212745606899,   0.1679585427046,   0.1956094205379,  -0.0385134629905,   0.0424047186971,   0.2490233480930,   0.3286150395870,   0.1719202548265,   0.1393722593784,  -0.2560850977898},
   {   0.3664948940277,  -0.1555521935225,  -0.1818276196718,   0.2606243789196,  -0.0728379413486,  -0.1446870416403,   0.1871645301580,   0.2562437355518,  -0.0748016685247,  -0.0196849852800,   0.0440955758095,  -0.2446851879358,   0.2027120292187,  -0.1782713681459,  -0.1642965525389,  -0.0508272349834,  -0.0486961342394,  -0.0463196858764,  -0.1710647791624,   0.2452393919230,   0.0111392633989,  -0.1034077182412,   0.1325031667948,   0.2966232597828,  -0.1000014618039,   0.0926759466529,   0.0637878999114,  -0.0799213424325,  -0.2418846338987,  -0.0025662891567},
   {   0.1304790079594,   0.1627009361982,   0.0909222960472,   0.3133181631565,   0.0991574302316,  -0.0781447589397,  -0.2082624435425,   0.1399107724428,   0.2749656140804,  -0.0154319340363,  -0.2657261490822,   0.1961304247379,   0.1313950121403,  -0.1771029084921,   0.1009779050946,   0.0885384753346,   0.1176672056317,  -0.0768774002790,  -0.1886817216873,  -0.1411245912313,   0.1455630511045,  -0.1609298735857,   0.2903811633587,  -0.2198892384768,  -0.0575139373541,   0.0364001803100,   0.1098044440150,   0.0283628925681,   0.3209174573421,   0.3091512620449}};
  const float bias_2[30] = {   0.0896871015429,   0.0562936328351,  -0.0023967875168,  -0.0228822138160,   0.1140744760633,   0.0136679103598,  -0.1651576608419,   0.1370087116957,   0.0184561833739,  -0.0934549421072,   0.1319240778685,   0.0348452925682,  -0.0662942975760,   0.0031135368627,   0.0242132805288,  -0.0846630781889,   0.0155804026872,  -0.0634467899799,   0.0892564877868,   0.0111157828942,   0.0679649710655,   0.0990443527699,   0.0408875346184,   0.1635721623898,  -0.0935479104519,  -0.0509042367339,   0.0321767777205,  -0.0508881807327,   0.0596386492252,   0.0080871451646};
  // Declare the arrays in the stack
  const float kernel_3[30][30] = 
  {{  -0.0704087838531,   0.0729059800506,   0.0449730455875,   0.1230745166540,  -0.0582294836640,   0.2099288403988,   0.0166531410068,   0.0850459411740,   0.1994477212429,   0.2844578027725,   0.0149781638756,  -0.1485465764999,   0.2025328129530,   0.1473113000393,  -0.2411541044712,  -0.0711392164230,  -0.2215293496847,   0.0361518710852,   0.4050484597683,  -0.1217810362577,  -0.1849848628044,  -0.0006756992079,   0.1231948584318,   0.1726811230183,   0.0160750634968,   0.1925984472036,   0.1972163915634,  -0.0733513757586,  -0.2115622609854,  -0.2180242985487},
   {  -0.3335680663586,   0.0764644593000,   0.1757080107927,   0.0809212848544,   0.0569494515657,   0.2580837011337,   0.0565532594919,   0.1766901612282,   0.1756132245064,  -0.1305281072855,   0.0654357969761,  -0.0839099586010,   0.2857832312584,   0.1661697626114,  -0.1369121670723,   0.1232205852866,   0.0807277336717,   0.0155370095745,  -0.3254835307598,   0.1092721447349,  -0.2605840563774,   0.1520151942968,   0.2047000229359,  -0.2141900509596,   0.3310903310776,  -0.0342931747437,   0.2846373617649,  -0.1349159330130,  -0.2575981616974,  -0.2115075141191},
   {  -0.4346785843372,   0.0023183450103,   0.3652876317501,  -0.3110301494598,  -0.1231731399894,   0.1485990136862,   0.2278439849615,   0.3085164427757,   0.0237027890980,  -0.1914052516222,   0.3485741019249,  -0.0753095820546,  -0.3653776347637,  -0.2641004025936,  -0.3044441342354,   0.1084905490279,  -0.2494603246450,   0.1426371335983,  -0.2714308500290,   0.2748817503452,  -0.0426908470690,   0.2520768642426,   0.0336916334927,  -0.2585371136665,   0.0088366754353,  -0.1243697255850,  -0.0642570182681,  -0.1914146393538,   0.2270758152008,   0.0057089771144},
   {   0.3509897887707,   0.0673981532454,   0.0479609444737,  -0.1322493702173,   0.3052192330360,  -0.2410145848989,  -0.2042320966721,   0.1094773262739,   0.1296562254429,  -0.2801021039486,  -0.0709661021829,   0.3024724721909,   0.0156467761844,   0.1833051145077,  -0.2090416848660,   0.1233418136835,  -0.1406072229147,  -0.0536492951214,   0.1370615661144,   0.3290640711784,   0.0734495967627,  -0.0670445337892,   0.2360178977251,   0.3336628377438,  -0.0140408473089,  -0.0337366946042,  -0.0349857993424,   0.2886971235275,   0.2441545128822,  -0.0684373080730},
   {  -0.2097891271114,  -0.2829803228378,   0.1250006705523,  -0.1801320761442,  -0.2451681196690,   0.0756484568119,   0.3140222132206,  -0.3062678277493,   0.2671356499195,   0.0631963983178,   0.3416685760021,  -0.0146424435079,  -0.2548522055149,  -0.2824771106243,   0.1071936041117,   0.0665020495653,   0.1644127815962,   0.1533673554659,  -0.0836707204580,  -0.0227268859744,  -0.2837464511395,  -0.2062755376101,   0.2713586091995,   0.0277832262218,  -0.2086660563946,   0.1066169440746,   0.0363977067173,  -0.3045927584171,   0.3611576259136,   0.0279636401683},
   {  -0.0147948479280,   0.0646387115121,  -0.1907618492842,   0.0715190991759,  -0.1534043699503,  -0.2717576324940,  -0.2880236208439,  -0.1354990154505,  -0.2324165105820,  -0.1702760159969,   0.1564330905676,  -0.0956698432565,  -0.2963162958622,  -0.3799194395542,  -0.0789033398032,  -0.3844521045685,   0.0038721009623,  -0.2251880168915,   0.2474414706230,   0.2396036982536,   0.0542084090412,  -0.1780729442835,  -0.1518417000771,  -0.0231356564909,  -0.2041477710009,  -0.0526349060237,  -0.0263787992299,  -0.1576021760702,  -0.0439014993608,   0.3023792207241},
   {   0.0570827536285,  -0.1945525854826,  -0.0721071138978,   0.1781053096056,   0.0387225374579,  -0.1165722236037,  -0.0635514035821,  -0.2774218618870,  -0.2800969183445,   0.1691314578056,   0.2895606160164,   0.1685364544392,   0.2749024331570,  -0.0288147516549,  -0.2923080921173,   0.0380920469761,   0.1053485274315,   0.1317925602198,  -0.3415338099003,  -0.0531656481326,   0.1574219912291,   0.1625139266253,  -0.2432092875242,  -0.0203942134976,  -0.2142691314220,  -0.0970406830311,   0.1350400298834,   0.0744912922382,   0.1904999017715,  -0.0304214395583},
   {   0.0112181743607,  -0.1447948515415,   0.1587713956833,  -0.0706413090229,  -0.0576823651791,   0.1849918514490,   0.2980196475983,  -0.0746020823717,  -0.0248525384814,  -0.3266859948635,   0.1025663614273,  -0.2354386299849,   0.1989116370678,   0.2251980602741,   0.1043746694922,   0.1839134842157,   0.2287283092737,   0.1909428536892,  -0.1046206429601,   0.2228981703520,   0.1274849772453,   0.2791044712067,   0.3220169842243,   0.2921955883503,  -0.2804346382618,   0.2668326795101,   0.1889375150204,  -0.0957354307175,   0.1222799345851,   0.1729819029570},
   {  -0.1744815111160,  -0.0782156065106,  -0.0664931237698,   0.2988967001438,  -0.2490657866001,  -0.0043030786328,   0.1724644154310,  -0.0488156825304,  -0.0870371311903,  -0.2624652981758,  -0.0644312724471,   0.2365232110023,  -0.1479164510965,   0.1593218594790,   0.0230788588524,  -0.1487335413694,   0.2642926871777,   0.1662677377462,   0.2959754467010,   0.1353669762611,   0.1816983520985,   0.0062489579432,   0.1474845111370,  -0.1721897125244,  -0.1678990274668,   0.2004559040070,  -0.0730944722891,   0.1247255951166,   0.3187898397446,   0.2680456638336},
   {   0.1837782412767,   0.0889622345567,  -0.0792253389955,   0.0879212617874,  -0.0394208244979,  -0.3437323868275,  -0.0524036362767,   0.1624312847853,  -0.0379099845886,   0.0758987292647,  -0.1239397302270,  -0.0831105187535,   0.2977570593357,  -0.1944224685431,  -0.2076529264450,  -0.1738978326321,   0.2118636965752,  -0.1464098393917,  -0.0777996703982,   0.1113447695971,   0.2356820106506,   0.1138325482607,  -0.0314292348921,   0.3155457079411,   0.0865187346935,  -0.3672038912773,   0.1830455213785,   0.3038147687912,   0.1584438979626,  -0.2253643423319},
   {  -0.1492899954319,   0.0423948466778,  -0.1244577690959,   0.2258620411158,  -0.1299980878830,   0.1346070468426,   0.2501986026764,   0.0353637635708,   0.1843239665031,   0.2839569449425,  -0.1305231451988,  -0.2324364036322,   0.0795698761940,   0.1249251887202,   0.1771469116211,  -0.2154882550240,   0.1667564511299,   0.0645418316126,   0.0335993282497,   0.0776479393244,   0.2732692956924,   0.2187252789736,  -0.1240550503135,   0.2264965474606,  -0.0560787096620,   0.3143498897552,   0.3516214787960,  -0.0107590928674,  -0.2274145781994,   0.3414834141731},
   {   0.0528467819095,  -0.1355682760477,   0.1566988229752,  -0.0416461937129,   0.1227935701609,  -0.3381280899048,  -0.2829573750496,   0.0416029840708,   0.1462394893169,   0.2135953605175,   0.0410329438746,   0.3260810971260,  -0.2373632043600,  -0.1413381844759,  -0.1317217797041,  -0.0749239623547,   0.1626510173082,  -0.0570080876350,   0.1619198024273,   0.1006372869015,   0.1657965481281,   0.2644610702991,   0.0009464106988,   0.2623002827168,   0.2448657602072,   0.1874936074018,  -0.0573792830110,   0.1197962313890,  -0.0487275831401,  -0.0065593728796},
   {   0.1748422682285,  -0.2379327714443,   0.0175698474050,   0.2031697630882,  -0.2324400097132,  -0.1095805689692,  -0.2265817373991,   0.0540385879576,   0.0695118531585,   0.0853844955564,  -0.2672627270222,  -0.2771351337433,  -0.1402379125357,   0.2603406608105,  -0.0300953593105,   0.0093317013234,  -0.1350659728050,   0.3198783993721,   0.1911876052618,   0.3430370986462,  -0.1643461436033,   0.3191169500351,   0.2588559389114,  -0.0246698241681,   0.2270411550999,  -0.0585438571870,   0.0769614130259,  -0.2507132887840,   0.2696058154106,   0.2631001472473},
   {   0.1689663529396,  -0.0664134174585,  -0.2122358828783,  -0.0055579096079,  -0.1373492479324,   0.3549460768700,   0.2651158273220,  -0.0657497644424,   0.1795747727156,  -0.0358922220767,   0.0305293109268,   0.0879455059767,  -0.0790523216128,   0.0296592451632,  -0.1716500371695,   0.1706191450357,  -0.1370190083981,   0.0864875242114,   0.1990026384592,   0.2215543687344,   0.2649430334568,   0.0181264821440,  -0.1869506835938,  -0.0568199753761,  -0.2668575942516,   0.1354973614216,   0.1901910603046,  -0.0652846172452,  -0.0375450216234,  -0.0217250362039},
   {   0.2972019612789,  -0.0718991681933,  -0.2054774314165,   0.3191474676132,   0.0280980058014,   0.2628343701363,   0.1544171571732,   0.0016773254611,   0.0829583480954,  -0.3631564080715,   0.2165825515985,   0.0172984935343,  -0.1163369715214,   0.1497954726219,  -0.2893337607384,  -0.2524074018002,   0.2728530764580,  -0.1238351538777,  -0.1945933997631,   0.0677137598395,   0.1478266268969,   0.2729192972183,  -0.1534471213818,  -0.2775100469589,   0.3702045381069,  -0.0031752050854,   0.0763571336865,  -0.0365991406143,   0.2624263763428,  -0.2465311437845},
   {  -0.1260079592466,  -0.3796750009060,  -0.1867941170931,   0.1132185533643,   0.0497696846724,   0.2030076831579,   0.1859889477491,   0.0608615204692,   0.1548690646887,  -0.1918724477291,  -0.1142145171762,  -0.1934928447008,   0.0404499880970,   0.0669657140970,   0.2859328091145,  -0.2813744544983,  -0.0510701835155,   0.0454164817929,  -0.0715083554387,   0.3201057016850,   0.1583321690559,  -0.1908746808767,   0.1673879474401,   0.0634873881936,   0.2753656208515,  -0.1768820285797,  -0.2309834957123,   0.2363490313292,   0.1319090276957,   0.0849637314677},
   {  -0.1167820319533,  -0.1748107224703,   0.1590360254049,  -0.1859155148268,   0.0843781903386,   0.0390040725470,   0.1970373690128,   0.0664340183139,   0.1960174292326,   0.1589491814375,   0.2973035871983,  -0.3240118324757,   0.3346074521542,  -0.1025886163116,  -0.2199612557888,   0.2151095569134,  -0.1622472852468,  -0.1287886798382,  -0.4155271351337,   0.2073555439711,  -0.2614577710629,   0.3252668976784,   0.0391907319427,  -0.2596662044525,   0.0708346739411,   0.3451665043831,   0.1463297307491,  -0.1230261847377,   0.2941040098667,   0.3103723227978},
   {   0.1966097354889,  -0.2285997420549,  -0.0120203699917,  -0.1829950213432,   0.2915715277195,  -0.2912528216839,   0.0195118077099,  -0.3331696093082,   0.0098075401038,  -0.0741293877363,  -0.1642074286938,  -0.0882703438401,   0.3142348527908,  -0.2347452640533,  -0.2233172953129,   0.2002511024475,   0.1052766889334,  -0.0326173342764,   0.0059485309757,  -0.0675919950008,   0.2026828229427,   0.1713796705008,  -0.2281935811043,   0.1333306580782,   0.0560625940561,   0.0070680454373,   0.0122510241345,  -0.2026383727789,  -0.0719065666199,  -0.1166807487607},
   {  -0.0105519331992,  -0.0905561894178,   0.0312432926148,   0.1128147169948,   0.0776754394174,   0.3079493045807,   0.0475514233112,   0.2983627617359,  -0.3211228847504,   0.0782490745187,   0.0589536614716,   0.2838652133942,  -0.1435847878456,   0.3015822172165,   0.1787375956774,  -0.1641212552786,   0.1358377039433,  -0.1472817808390,  -0.0266303215176,   0.3198649287224,   0.1188404932618,  -0.3375256061554,  -0.1885221898556,  -0.2023976892233,  -0.1620600968599,   0.2623214423656,   0.3619654774666,  -0.1744563132524,   0.0491635166109,   0.1216332018375},
   {   0.0002658948360,   0.3187294304371,  -0.0020127813332,   0.2936727702618,   0.2690867185593,  -0.2729223370552,   0.0792759507895,   0.2623252570629,   0.0743125304580,   0.2236496359110,   0.2929570972919,   0.0969946607947,   0.2356444746256,  -0.0834658518434,  -0.1587378531694,   0.1027694568038,   0.1021605655551,   0.3267790377140,  -0.0471989139915,   0.0051689893007,   0.2179190516472,  -0.0834610834718,   0.2426149845123,  -0.0817064121366,  -0.1130304634571,  -0.1842967867851,   0.1730914115906,  -0.0459532961249,  -0.0262829717249,   0.1309530586004},
   {  -0.2965677380562,   0.1917241215706,  -0.1005327776074,  -0.1520358026028,   0.1262028366327,  -0.0579924322665,   0.0350007005036,   0.0345976427197,   0.3187441825867,  -0.2202112376690,  -0.0763580724597,  -0.3278560638428,  -0.1997986882925,  -0.1330766379833,  -0.0747271850705,  -0.1667437255383,   0.0740368887782,  -0.1273392587900,  -0.2227341830730,  -0.0009563880740,  -0.0902010276914,   0.2668492496014,   0.0579888969660,  -0.0466028749943,   0.1737359166145,   0.2585951983929,   0.0642613470554,   0.0961315408349,  -0.0255037676543,  -0.1874820441008},
   {  -0.0387429408729,   0.0523140914738,  -0.2137778401375,   0.0023795634042,  -0.2159793376923,   0.1867035627365,   0.1500129401684,   0.0323893949389,   0.0496840216219,  -0.0581174418330,   0.3435097932816,  -0.2009161710739,   0.0948562324047,  -0.0808432474732,  -0.2090404629707,   0.2339919805527,  -0.0891825780272,   0.0493243560195,   0.0866734087467,  -0.2653417885303,   0.2866821885109,  -0.2791832983494,  -0.1326498091221,   0.0382442101836,  -0.0569968223572,  -0.1815727055073,  -0.1009867191315,  -0.1472182571888,   0.1404135078192,  -0.2260112017393},
   {   0.1590339690447,   0.2357978671789,  -0.0101165603846,  -0.0162368398160,   0.0624255426228,  -0.1116020008922,  -0.1400692611933,  -0.1147951707244,   0.0918618366122,   0.0928330346942,   0.0991176441312,  -0.2192266583443,   0.0981117114425,   0.0906955376267,  -0.0164941791445,  -0.1953915506601,  -0.1972610652447,   0.0355411916971,   0.0394807904959,  -0.0686797723174,  -0.1048763096333,  -0.0332040078938,   0.1469984203577,  -0.1925744563341,   0.2023834586143,  -0.0736404284835,   0.2002070844173,  -0.2574859559536,   0.2363858371973,   0.2987464964390},
   {   0.1501921266317,   0.1373115181923,   0.2347856312990,  -0.1019314825535,   0.2097246199846,   0.3637251555920,   0.2182622551918,  -0.2031972855330,   0.1479945331812,   0.0426367558539,   0.0709670260549,  -0.1327818334103,  -0.2700923681259,  -0.2133524864912,  -0.0312420669943,  -0.0182464774698,   0.0367255359888,   0.1372488737106,  -0.2011449038982,  -0.1967796087265,   0.0086134551093,  -0.2225786298513,  -0.2516907155514,   0.2422990351915,   0.2113832086325,  -0.1431463956833,  -0.0171697549522,   0.0424732193351,  -0.1563619971275,  -0.2062915861607},
   {   0.0406226366758,  -0.3602588176727,   0.0955945402384,   0.1895988285542,  -0.1520221233368,  -0.3188140392303,  -0.1562781631947,  -0.2456310838461,  -0.3688297569752,  -0.1644713282585,   0.1394069641829,   0.3571253716946,   0.1285246759653,   0.1113386154175,  -0.0563200414181,   0.1305548399687,   0.0053444406949,   0.0824396759272,   0.0635013133287,   0.2716901600361,   0.0694238543510,   0.2029769420624,  -0.4350422620773,  -0.2941435873508,   0.1926138252020,  -0.1080563515425,  -0.0555990599096,   0.2223010808229,  -0.1514046490192,   0.3910027742386},
   {   0.2470154315233,  -0.2029625922441,  -0.1701437979937,   0.2615122199059,  -0.0147680435330,   0.2869119942188,  -0.0459127128124,   0.0880133211613,   0.0578590668738,   0.1748983561993,   0.0457813926041,   0.1483842134476,   0.2786217927933,   0.0986968651414,  -0.2467265576124,   0.0540094897151,  -0.1938073784113,   0.1451967656612,   0.0293418038636,   0.2536120712757,  -0.0419302843511,   0.1178346350789,   0.0354533344507,   0.2463913857937,   0.1659553945065,  -0.1365734338760,   0.1940955221653,   0.2553657889366,   0.0539632551372,   0.0019766073674},
   {  -0.1963905394077,  -0.0341260246933,   0.2721660435200,   0.2224428951740,   0.2905393242836,  -0.2812029719353,  -0.3066535592079,  -0.4117916524410,  -0.1945279687643,  -0.0553288608789,  -0.0341161154211,   0.1489140540361,   0.4770737886429,  -0.1020473167300,  -0.0691731721163,   0.0965658947825,  -0.3330413699150,   0.0302874520421,   0.0607297383249,  -0.0221116971225,   0.1711478829384,   0.1266693770885,  -0.3215025961399,  -0.2296801209450,  -0.0814519226551,  -0.1209076344967,   0.2066057622433,  -0.0343569889665,   0.4002542197704,   0.2803258001804},
   {  -0.2381787151098,   0.2248172312975,  -0.3346011936665,   0.1182534992695,  -0.1881200671196,   0.0770364627242,   0.0978406518698,  -0.2999779582024,  -0.1110622733831,  -0.0095069911331,  -0.1830814033747,   0.3180787563324,   0.2914644479752,  -0.0767728388309,  -0.2800000607967,   0.2917344868183,  -0.1442873179913,  -0.1455548554659,   0.2239794582129,  -0.0248100254685,   0.2739213109016,  -0.1430948823690,   0.2175658792257,   0.2637711763382,   0.2591435909271,  -0.2110413312912,   0.2243172079325,  -0.1606475114822,   0.3523162007332,   0.2641815245152},
   {   0.1051500737667,  -0.2941224575043,  -0.1601778268814,  -0.2232969850302,  -0.0172892753035,  -0.3392652571201,   0.2179738283157,  -0.2533949017525,  -0.2491889894009,   0.0801559537649,  -0.0703489854932,   0.0616952776909,  -0.2712225914001,   0.0496766641736,   0.3000864386559,   0.1207277402282,  -0.2380375713110,   0.2298921495676,   0.1342923790216,  -0.2328010648489,   0.1456081271172,  -0.0453643202782,  -0.2705224752426,  -0.1971711069345,   0.1979030072689,   0.3003745675087,   0.0650637000799,  -0.2540019452572,   0.3348215818405,  -0.0977724194527},
   {  -0.2774623930454,   0.3564273715019,   0.1780329495668,   0.0902411416173,   0.2168919891119,  -0.3367049992085,  -0.1694256663322,   0.0970143079758,  -0.1965014636517,  -0.0796924829483,   0.1490059942007,   0.1205296367407,  -0.2518827319145,  -0.2059366405010,   0.1665657609701,  -0.0604337751865,  -0.1306137442589,   0.2314635962248,  -0.1409235894680,  -0.1308454126120,  -0.0856159999967,   0.0954185277224,   0.0537502318621,   0.0013091886649,  -0.0823201611638,  -0.0730250254273,  -0.0399925485253,   0.2951092422009,   0.2388799190521,  -0.0023257080466}};
  const float bias_3[30] = {   0.0033330861479,   0.0675162151456,  -0.0970771759748,   0.0138983977959,   0.0738083943725,   0.1101051494479,   0.0382644422352,   0.0390063971281,   0.0679102912545,   0.0634408816695,   0.0982752740383,   0.0116888983175,  -0.1125092282891,   0.1175272166729,   0.0001587391016,  -0.0709097906947,  -0.0495192855597,  -0.0459651909769,   0.0257204398513,  -0.1611420363188,  -0.0122202718630,   0.0153631269932,   0.0668856352568,   0.0835665985942,  -0.0553411357105,   0.1656304150820,   0.0475726202130,  -0.1112811416388,  -0.0458558984101,   0.0096913808957};
  // Declare the arrays in the stack
  const float kernel_4[30][30] = 
  {{   0.1299092471600,   0.0423397310078,  -0.0860816463828,  -0.0130349723622,   0.0117291370407,  -0.0178449116647,   0.1939104646444,  -0.1980400979519,  -0.0259684752673,  -0.2352537959814,  -0.2184919118881,   0.0428652316332,   0.0153856538236,   0.1631921082735,  -0.1889915615320,   0.0337063632905,  -0.1433240920305,  -0.4394467771053,  -0.1665433794260,   0.2919827401638,   0.1508326977491,  -0.0272963866591,   0.1719169616699,   0.2135648727417,   0.0269590299577,  -0.0451304502785,  -0.1075686514378,  -0.1154376268387,   0.0046238987707,   0.0677001178265},
   {   0.3071184456348,   0.1305908709764,  -0.0659304261208,  -0.0376642085612,  -0.0628270059824,   0.1236422583461,  -0.0997075438499,   0.0127388639376,  -0.1753830760717,  -0.2494069188833,  -0.2297631800175,   0.2571877837181,  -0.1196837872267,   0.1662412583828,   0.2083128094673,  -0.3453516364098,   0.2232389450073,   0.1790218353271,   0.3216660022736,   0.0757858082652,   0.0738316625357,  -0.3069107532501,   0.2522708475590,  -0.0817397683859,   0.0212437007576,   0.2963617146015,  -0.0870678648353,   0.1640668958426,  -0.0350084789097,  -0.2212778478861},
   {  -0.2409980744123,  -0.0694135949016,  -0.0407183356583,  -0.1800954937935,  -0.0793396681547,   0.0983018800616,  -0.2353921830654,   0.1623420119286,  -0.2277565002441,   0.2237711101770,  -0.2186818867922,   0.1539549976587,   0.0603577904403,  -0.0504618920386,  -0.0955035910010,   0.1114548742771,   0.0063762869686,   0.0329870991409,   0.0856703370810,   0.0399067997932,  -0.0630636811256,  -0.1555692106485,  -0.0682062283158,  -0.2332587391138,  -0.1794878691435,  -0.2738640308380,  -0.0196508988738,  -0.2732144296169,   0.2754947245121,  -0.0858305618167},
   {   0.3011805117130,  -0.0286349169910,   0.1095268353820,  -0.1789729297161,   0.2083215564489,   0.1666442006826,   0.2627341449261,  -0.2207754254341,  -0.1039333567023,  -0.0435083024204,   0.0681366249919,  -0.1294243633747,  -0.0047507937998,   0.0242808237672,   0.1162476837635,   0.2544983923435,   0.0260163545609,   0.1418349742889,  -0.2446674406528,   0.0175665877759,   0.0887489020824,   0.0512735620141,   0.1401955038309,  -0.1925054490566,   0.1127140298486,  -0.0439515411854,   0.1788561642170,  -0.1170789673924,   0.3062298595905,   0.0984772294760},
   {  -0.0952972024679,  -0.0493215918541,   0.2778710722923,  -0.1147965416312,   0.1944138556719,   0.1035595163703,  -0.2023880481720,   0.0409394875169,   0.1483251601458,  -0.0326096341014,  -0.1274769753218,   0.1442687958479,   0.3394116759300,   0.3009082674980,   0.1982006579638,  -0.1771912723780,  -0.2727830708027,   0.1676398813725,   0.1172791421413,   0.1396481692791,   0.1621603071690,  -0.0080974763259,   0.2026260346174,   0.2758304774761,  -0.2503604590893,   0.2410218119621,   0.1110317260027,   0.2594919502735,   0.2543410956860,   0.2424427866936},
   {  -0.0599645785987,   0.3347331583500,   0.0540403127670,   0.0596674717963,  -0.0646681264043,  -0.3343964517117,   0.0151881882921,  -0.2597785592079,   0.1496614813805,  -0.0446695871651,   0.3537803590298,  -0.0256526563317,  -0.1579820960760,   0.0259985886514,  -0.0606536492705,   0.1187173798680,   0.3485848903656,   0.1674673855305,   0.1599143296480,   0.0499148331583,   0.0155598307028,   0.2874899506569,  -0.0661622583866,   0.1536704301834,   0.1848757117987,  -0.2415092587471,  -0.2435140013695,   0.3318646252155,   0.0735863074660,  -0.1849230378866},
   {   0.0231263637543,   0.2613255381584,   0.0223358161747,  -0.0510160326958,  -0.1783727705479,  -0.2703916728497,   0.1619966477156,   0.0427434332669,  -0.2433737963438,  -0.2014464735985,   0.0449505299330,   0.1409547626972,  -0.0101644815877,   0.0155074195936,   0.1239034608006,   0.2668312191963,   0.2110627591610,   0.3395558595657,  -0.1829853951931,  -0.3452284038067,  -0.3175151348114,   0.0005271529662,  -0.1996448040009,   0.0285235084593,  -0.0742917060852,  -0.1367397010326,  -0.1816212534904,   0.2791594564915,   0.1896445900202,  -0.1534370481968},
   {   0.1011096462607,   0.2628310918808,   0.2969198524952,   0.0399226397276,  -0.0632627829909,  -0.2512066364288,  -0.1761254072189,  -0.0601019263268,  -0.1443630307913,  -0.2371487766504,   0.2920027673244,  -0.1107248142362,  -0.0119309592992,   0.2002033442259,   0.2252409309149,  -0.0872458443046,  -0.2345268428326,  -0.1327466666698,  -0.1766324490309,  -0.1479360461235,  -0.2133442610502,   0.0132938688621,  -0.1834621131420,   0.2745556533337,   0.1870804727077,   0.2041138857603,  -0.1610822379589,   0.0729980990291,   0.0204629730433,   0.1108767241240},
   {  -0.1155535951257,  -0.2288759201765,   0.3144109249115,   0.0599225498736,   0.1488236337900,  -0.1601844578981,   0.0717094242573,   0.1794994175434,  -0.2220430970192,   0.2199655771255,   0.1024318486452,   0.2565148770809,  -0.0119609525427,   0.0099505921826,  -0.0531850717962,  -0.1026562675834,  -0.1162373423576,  -0.1253587305546,   0.0161254089326,  -0.0006415111129,  -0.1863543391228,  -0.1155750453472,   0.3398612737656,  -0.3122743070126,   0.0296293497086,   0.1476599127054,  -0.0630893781781,   0.3126551210880,  -0.1885145753622,  -0.1960729509592},
   {   0.2269335240126,  -0.0123619465157,  -0.2371685504913,  -0.0765408799052,   0.0237691495568,   0.1041674464941,  -0.3107847273350,   0.1054107844830,  -0.2060385048389,   0.2265066504478,  -0.1322304457426,  -0.0977976173162,   0.2833526432514,  -0.0230510514230,   0.1916714012623,  -0.1157549619675,  -0.1051116585732,  -0.3044430911541,   0.1591552495956,   0.0226076580584,   0.1153760999441,   0.1599117517471,  -0.0924972146749,   0.0843121632934,  -0.2065604031086,   0.2633804380894,   0.3220537900925,  -0.2409117370844,  -0.2096474915743,  -0.0898813381791},
   {   0.1655744165182,   0.1786050647497,   0.2642890214920,  -0.1647295206785,   0.3311331570148,  -0.1115855574608,   0.2349830865860,   0.0907717123628,  -0.1590082943439,   0.2733973264694,  -0.0980742499232,  -0.0323639661074,   0.1688068211079,   0.2231164127588,   0.0671231821179,  -0.0651602223516,   0.2682294249535,  -0.0889203622937,  -0.0972980558872,  -0.1953946948051,  -0.1123991906643,   0.1269629448652,  -0.2837848067284,  -0.1312795132399,  -0.2331105321646,   0.2364245951176,   0.0248054694384,   0.2304018139839,   0.0262827128172,   0.2763183116913},
   {  -0.1207496151328,   0.1014363095164,  -0.0057837865315,   0.2712792754173,  -0.2127494961023,   0.2356741428375,   0.1966735869646,   0.0639517903328,  -0.2959427833557,  -0.1568553596735,   0.3627839088440,  -0.1085446998477,  -0.3627103567123,   0.1598095297813,  -0.3459675908089,  -0.2343282699585,   0.3549352586269,   0.0074890051037,   0.1899431347847,   0.1933014988899,  -0.0333319976926,   0.1132389679551,   0.2552355825901,  -0.0219609141350,   0.2035616338253,  -0.0709890648723,   0.3021280765533,   0.0387523174286,   0.0721295475960,  -0.0613411962986},
   {   0.0143023161218,  -0.0589721724391,  -0.2072934359312,  -0.2930991053581,   0.3117183148861,   0.2215528041124,   0.1896338462830,   0.0903258174658,   0.4001723229885,   0.2704562544823,  -0.1287449151278,   0.3254476189613,  -0.1473262608051,  -0.0618039481342,   0.1092116832733,  -0.0469364300370,  -0.2151518762112,   0.2619219124317,  -0.1858565658331,   0.1228357851505,   0.3513903319836,   0.0587858594954,  -0.1475570201874,  -0.1128959655762,  -0.1585522592068,  -0.2977100908756,  -0.0219223890454,  -0.0068970625289,   0.1016082093120,   0.1708182096481},
   {   0.2373582422733,  -0.0847872942686,   0.0139134414494,  -0.1881472766399,  -0.2622071504593,  -0.3600910902023,   0.1419328302145,   0.2380745559931,  -0.3052507936954,   0.0746997147799,   0.4536328017712,  -0.0447050146759,   0.1081898137927,  -0.1388957649469,   0.2400502264500,  -0.2232980430126,   0.3020089268684,  -0.0448661707342,  -0.2328914403915,   0.3059197664261,   0.0826514810324,   0.1975076645613,  -0.2583923339844,  -0.2350099682808,   0.1385740637779,  -0.3149341046810,  -0.2315769493580,  -0.1171509996057,  -0.1244995817542,   0.0249461196363},
   {  -0.1868200451136,   0.2668221294880,  -0.3116762638092,   0.3041972219944,  -0.2239758670330,   0.2449851930141,  -0.2729722261429,  -0.1574206948280,  -0.0568205527961,  -0.1767054349184,  -0.2491985559464,  -0.1009660139680,   0.1674586534500,  -0.0612369775772,  -0.1127381920815,   0.0007772490499,   0.2015356272459,  -0.1779378652573,   0.2978670895100,  -0.1801740378141,   0.1384833157063,  -0.2632795572281,   0.2514531314373,  -0.0773726254702,  -0.0660670548677,   0.1946646273136,   0.1468902677298,  -0.2237342745066,  -0.2621753811836,   0.2503392398357},
   {  -0.2756530344486,   0.0879095569253,  -0.0151125919074,  -0.1952424347401,   0.1741007119417,   0.0776121988893,  -0.2081328034401,   0.2842446565628,   0.2672112882137,   0.1933216601610,  -0.3945072591305,  -0.1240689083934,   0.0004413499264,   0.2311186641455,   0.0474988147616,  -0.1326285302639,  -0.3618817329407,  -0.0723623335361,  -0.0551379323006,  -0.1615987569094,   0.0517473146319,   0.1524148434401,  -0.2949340343475,   0.1176108196378,   0.3249103426933,  -0.0249758344144,   0.2227347344160,   0.0369558632374,  -0.1378503292799,   0.2371805608273},
   {   0.0904368832707,  -0.2907658517361,  -0.0803908333182,   0.3795898258686,   0.1131739467382,   0.2894122600555,  -0.2792624831200,  -0.0898713916540,  -0.2204909026623,  -0.2558553516865,   0.1202624589205,  -0.1392316818237,   0.1883600801229,   0.2807070016861,  -0.1666402518749,  -0.3380205929279,  -0.2375216782093,  -0.0750145092607,  -0.1124891415238,   0.0650500059128,   0.2842716276646,   0.0911806598306,  -0.2367199212313,   0.1091209352016,  -0.1700212806463,   0.1646672338247,   0.2188736349344,  -0.1761702746153,   0.2985604405403,   0.1838612556458},
   {  -0.1513126790524,   0.1709132194519,  -0.0341665484011,  -0.1437233537436,   0.2021512538195,  -0.0869766399264,  -0.2609903514385,  -0.2327151000500,   0.2672684788704,  -0.1100463494658,   0.1026371270418,  -0.1799383163452,   0.1551502346992,  -0.1663221418858,  -0.0081768939272,   0.2911990284920,  -0.2229788154364,  -0.0478891357780,   0.2271678149700,  -0.2009297460318,  -0.2116005718708,  -0.1162182539701,  -0.1031453460455,  -0.2791616916656,   0.1029160618782,  -0.1432964354753,  -0.0082752685994,  -0.1705634295940,  -0.0905308723450,  -0.2565168738365},
   {  -0.1656878292561,   0.2492880970240,  -0.1690213531256,  -0.0503696240485,  -0.3077444136143,  -0.2000690847635,  -0.0290251132101,   0.2099177390337,  -0.2625559568405,  -0.1664797961712,  -0.0122488513589,   0.0126061327755,  -0.3395827412605,  -0.1402325481176,  -0.1822736561298,   0.1761582791805,  -0.1286094486713,   0.0303344577551,  -0.2577367424965,  -0.2284340709448,   0.1761946678162,   0.2737610936165,   0.2378741502762,  -0.0967940315604,  -0.1343400180340,  -0.3522246479988,  -0.0164647940546,   0.1594226509333,   0.0966800376773,   0.2873625159264},
   {   0.1121574789286,   0.0844135805964,   0.2791627049446,   0.2012830078602,  -0.0402802117169,  -0.1313284784555,  -0.1648686230183,  -0.0936290398240,   0.3643304407597,  -0.0609852485359,  -0.3299446403980,   0.2390122562647,  -0.2315194755793,  -0.1479693800211,   0.0970414951444,  -0.3102724552155,  -0.2666708528996,  -0.3288509249687,  -0.0460281409323,  -0.0702985450625,   0.2052151113749,   0.2719606757164,   0.3007019758224,   0.2884767651558,   0.1000926718116,   0.2708745002747,   0.1737391352654,   0.2059639394283,   0.2769694924355,  -0.1793133318424},
   {  -0.0626948624849,   0.0590241886675,  -0.2125117927790,   0.2473409771919,  -0.0353138223290,  -0.2407515943050,   0.1414408683777,  -0.1678191870451,   0.2638839781284,   0.2590318620205,   0.3516898751259,  -0.0214565247297,  -0.2827949821949,  -0.1153435483575,  -0.1234563216567,  -0.0877920240164,  -0.0959833711386,   0.2098984718323,  -0.1083928421140,  -0.1217284053564,   0.0301529765129,  -0.3063599467278,  -0.1844988465309,   0.2852882146835,   0.0337355248630,   0.0133155789226,   0.2418206185102,  -0.0141718508676,  -0.1276657730341,  -0.2006307989359},
   {   0.2573020160198,  -0.0109878052026,  -0.0335899032652,   0.0736330598593,   0.1280239671469,  -0.2924501597881,  -0.2531547844410,  -0.2712111175060,  -0.0078218691051,   0.2715958058834,  -0.0877080038190,   0.2112440615892,  -0.1697820127010,   0.2562673389912,   0.0093748504296,  -0.0237605869770,  -0.3417246937752,  -0.2684935033321,   0.3223778605461,  -0.2032414376736,   0.1319863945246,  -0.2014443874359,  -0.1561808586121,  -0.1817837655544,  -0.1793486922979,   0.1809992641211,   0.1160183250904,   0.1972657591105,  -0.0747858732939,   0.1097269728780},
   {  -0.2784076929092,  -0.1568281501532,   0.2925631105900,  -0.0684708058834,  -0.0260306186974,   0.0975933969021,  -0.0519080609083,   0.1905959099531,   0.2290640771389,  -0.1918249875307,   0.0020996246021,   0.0177819430828,   0.2330131828785,   0.2448362112045,  -0.1334702521563,   0.1548637002707,   0.1214315071702,   0.0939508005977,   0.1532521694899,  -0.0006932643591,  -0.1204123646021,   0.0159902963787,  -0.0108592482284,  -0.0677417889237,   0.1032893955708,  -0.0200936105102,   0.1938326507807,   0.2059042453766,  -0.0360911190510,  -0.1388903707266},
   {  -0.1186677813530,  -0.0854859054089,   0.2128390371799,   0.3133515715599,   0.0712003707886,  -0.0843813866377,   0.1160423755646,   0.1316693723202,   0.1445046663284,  -0.1859223246574,   0.1735885292292,  -0.1267980039120,   0.2997297346592,  -0.0833788812160,   0.1502264440060,   0.1536822766066,   0.0529642961919,   0.0011707702652,   0.0165779776871,  -0.0999509841204,  -0.2632106244564,   0.0551884509623,  -0.3051743209362,   0.0256070829928,  -0.3168704211712,  -0.0495097115636,  -0.2542455494404,   0.0944856703281,   0.0545792728662,   0.0054483874701},
   {  -0.0948389321566,   0.1205950304866,   0.1504014283419,   0.0388806760311,   0.0826280936599,  -0.2957935333252,  -0.2155667841434,   0.0730750635266,   0.2497149705887,   0.0075915721245,  -0.1329819411039,   0.0522747300565,   0.2716363966465,  -0.2463432252407,   0.2400425076485,   0.2474313378334,  -0.0519046261907,   0.1836429238319,  -0.1602777689695,   0.1093018725514,  -0.1076028570533,   0.2700418531895,   0.2613629996777,   0.3224049806595,  -0.2028338462114,  -0.1097225397825,   0.1029925197363,  -0.1641499400139,  -0.1045992076397,  -0.0690281242132},
   {  -0.0525221563876,   0.3427405357361,  -0.1235700100660,   0.1843869835138,  -0.2540578544140,  -0.1929376721382,   0.0599700771272,   0.2864426970482,  -0.2073019444942,  -0.2736468017101,   0.3394924700260,  -0.0937329083681,  -0.1403981000185,  -0.2450887262821,  -0.2452905774117,   0.0551350265741,   0.0158166214824,   0.2353165894747,   0.1499156802893,   0.2769106626511,  -0.1298424154520,   0.2561869919300,  -0.0622021555901,  -0.1746339052916,   0.1246960833669,  -0.2586136162281,   0.1942842751741,   0.2574419081211,   0.1169298589230,   0.2488813251257},
   {   0.1203765794635,   0.2370347827673,   0.1012971848249,  -0.2556702494621,  -0.1863144338131,   0.2137816548347,  -0.1809660643339,   0.2785576879978,   0.3416804671288,   0.0145314754918,   0.0941527634859,   0.3438327908516,  -0.1848817765713,  -0.2177940011024,   0.1279851347208,   0.0182757638395,   0.2004474699497,   0.2833057343960,   0.3228836059570,  -0.0067756874487,  -0.0721517652273,   0.0790883377194,  -0.0122582437471,   0.0450316220522,  -0.1321280896664,   0.1493207216263,   0.2715154290199,  -0.0798217877746,  -0.0133615359664,  -0.0024926657788},
   {   0.0305151417851,   0.2640407085419,  -0.3427517414093,  -0.1124683693051,   0.0059065213427,  -0.0289098676294,   0.2887189686298,  -0.1859049499035,  -0.2248994857073,   0.0146589148790,  -0.3960184156895,   0.1929250508547,   0.1617194265127,   0.2017456293106,  -0.0962647125125,   0.2959947586060,  -0.3187456429005,  -0.2196213155985,  -0.3509495854378,   0.1481904536486,   0.2840735912323,  -0.1204613819718,   0.0707668513060,  -0.1438207626343,  -0.2243357747793,  -0.3527717590332,  -0.2579845488071,  -0.3411405384541,   0.3284373283386,   0.2327505052090},
   {   0.1459863483906,  -0.1066524386406,  -0.1964437216520,   0.0118173100054,   0.2726462781429,   0.1855069994926,  -0.1463537216187,  -0.2792106568813,   0.3018327653408,  -0.2373882532120,  -0.2139904946089,   0.3019624948502,  -0.0628440007567,   0.0500832460821,  -0.2376028299332,   0.2058725506067,   0.0010645953007,  -0.3233533501625,  -0.1590450257063,   0.0200442466885,  -0.1091335713863,   0.0961662307382,   0.0461700372398,  -0.0455901362002,   0.2161847501993,  -0.0908806324005,   0.0076491078362,  -0.3097384870052,   0.3058688938618,  -0.2461649179459},
   {   0.1373341232538,  -0.1864999234676,  -0.1887270212173,   0.0654629021883,   0.3763501346111,   0.2969972491264,  -0.1343682110310,   0.0340976454318,  -0.0299211181700,   0.0127302389592,   0.1012710332870,  -0.2100955992937,   0.2319023311138,  -0.1013677939773,  -0.0493267327547,   0.2094289958477,  -0.2646766602993,   0.1622178554535,  -0.1338366568089,   0.1175908595324,   0.2164214551449,   0.2051657289267,   0.1453985869884,   0.2733078002930,  -0.0825977846980,   0.0658788606524,   0.1728648692369,   0.0643284395337,   0.2983626127243,   0.0423678085208}};
  const float bias_4[30] = {   0.0670703202486,  -0.0179183613509,   0.0055645829998,   0.1270137727261,   0.0621607564390,  -0.1294874995947,  -0.0054623573087,   0.0564672909677,   0.0151372868568,   0.0773725882173,   0.1746336519718,  -0.0083279423416,   0.1908993422985,   0.0649335086346,   0.0436153374612,  -0.0373443327844,   0.1352358162403,   0.0981819406152,   0.0438005514443,   0.0607308261096,  -0.1644965261221,  -0.0709010884166,   0.0328114293516,  -0.0655875653028,   0.0476879552007,   0.0718441158533,  -0.0280189141631,   0.0287963934243,  -0.0288233794272,   0.0963156819344};
  // Declare the arrays in the stack
  const float kernel_5[30][30] = 
  {{   0.1309146881104,   0.2969057857990,   0.2442911714315,   0.0854300260544,  -0.0114369783551,  -0.0608335919678,  -0.2084326744080,   0.3017828166485,   0.2589192092419,  -0.2362831830978,   0.2508163452148,  -0.0352762117982,   0.0431181713939,   0.3114699721336,  -0.3554565310478,   0.2110988199711,  -0.0981003195047,  -0.0946948528290,   0.0518045090139,   0.0774830058217,  -0.1278358697891,   0.0180086456239,   0.0246968455613,   0.0174581427127,  -0.3029139637947,   0.2065409421921,   0.2858379185200,  -0.0602092072368,  -0.1924846917391,  -0.1279983073473},
   {  -0.0825658664107,   0.1818643808365,   0.3481432497501,   0.2052188366652,  -0.0836383253336,   0.2157610803843,  -0.0056904372759,   0.2543980479240,  -0.1749473512173,  -0.1448288857937,   0.2403200864792,   0.1965711265802,   0.1770935654640,  -0.2562350928783,   0.1981607377529,   0.0666972622275,  -0.1812311410904,  -0.3343193233013,   0.1286930739880,  -0.2365401536226,   0.1738684177399,   0.2511463165283,  -0.2634163796902,   0.0094918366522,  -0.0436414033175,   0.1389597058296,   0.0564625747502,  -0.0517750158906,  -0.0357770584524,  -0.0417337529361},
   {   0.1738243550062,   0.1325061321259,   0.1032315939665,   0.3356721401215,  -0.1712067723274,   0.1190075352788,   0.0624515116215,   0.0703289359808,  -0.1105197891593,  -0.2472171783447,   0.2972943484783,   0.1991377323866,   0.3748757243156,   0.0985171645880,   0.3947930037975,   0.2414791136980,   0.3164997994900,  -0.1525359153748,   0.1796794682741,  -0.0360521301627,   0.0723777264357,   0.3569679260254,   0.3039247095585,  -0.1198968663812,   0.0162936896086,   0.1146964952350,   0.2139760404825,  -0.2196413427591,   0.3115708827972,  -0.0507306344807},
