
    // Select all (Ctrl+A), Copy (Ctrl+C), paste to an empty text file (Ctrl+V) and save that file as 'generated_code.h'
    // 
    // Auto-generated header file. Assumes img to be a floating point array
    // of 64 elements (corresponding to an 8x8 b&w image)

    #include <math.h>

    float norma_even;
    
inline float activation_even_0 (float x, float n) 
{ return x > 0 ? x : 0;}
inline float activation_even_1 (float x, float n) 
{ return x > 0 ? x : 0;}
inline float activation_even_2 (float x, float n) 
{ return x > 0 ? x : 0;}
inline float activation_even_3 (float x, float n) 
{ return x > 0 ? x : 0;}
inline float activation_even_4 (float x, float n) 
{ return x > 0 ? x : 0;}
inline float activation_even_5 (float x, float n) 
{ return x > 0 ? x : 0;}
inline float activation_even_6 (float x, float n) 
{ return exp(x)/n;  }

    float guess_digit_even (const float *img, int flag)
    {
    
  // Declare the arrays in the stack
  const float kernel_0[43][30] = 
  {{   0.1593445539474,  -0.1517014354467,   0.0069097606465,   0.0875460878015,   0.1892893165350,   0.0038451871369,  -0.3499656319618,   0.0715122297406,   0.1421900093555,   0.2307769507170,   0.3182637095451,  -0.1441563218832,  -0.2144619524479,   0.0768543779850,  -0.2779503166676,  -0.0394174344838,  -0.1050045266747,  -0.4203936457634,   0.2299344986677,   0.0020578675903,  -0.1268742382526,   0.1058894395828,  -0.3375960886478,   0.2587442994118,  -0.0913691818714,   0.0962190106511,   0.2367621213198,   0.1357627362013,  -0.2583360970020,  -0.3537757396698},
   {   0.1759767681360,   0.0902507826686,   0.0377413332462,   0.1654453873634,  -0.1157353073359,   0.0031952250283,   0.1019147261977,  -0.0585505366325,   0.1305920928717,  -0.1996299326420,   0.0954482480884,   0.1847403496504,  -0.0182241108268,   0.0917427763343,  -0.0644390285015,   0.1999120563269,  -0.1922813206911,   0.1236430779099,   0.1534430980682,   0.1113880574703,  -0.2212458252907,  -0.3785342276096,   0.1267548650503,   0.0434571243823,  -0.4258947670460,   0.1471503823996,   0.2016400545835,   0.1019911542535,  -0.2833061218262,  -0.1184792146087},
   {   0.1561394035816,  -0.0454527363181,  -0.0232398714870,   0.2004176080227,   0.1324717700481,   0.0842886269093,   0.0954093039036,   0.1748397648335,   0.1317826658487,   0.1811677217484,  -0.0976276323199,   0.1307543665171,  -0.0583555735648,  -0.1184795051813,   0.0169539432973,   0.1373554170132,  -0.2837702631950,  -0.1126615256071,  -0.0231256857514,  -0.4277608096600,   0.1459022164345,  -0.0265619736165,  -0.1506684869528,   0.1489225327969,   0.1735738366842,   0.0635326951742,  -0.2213443815708,   0.1634506881237,  -0.0545024313033,   0.0801910385489},
   {  -0.0680515319109,  -0.0475915819407,   0.0869106575847,  -0.2650441825390,   0.2612701058388,   0.0626363009214,   0.0601426623762,   0.3025920093060,  -0.1207615360618,   0.0500432364643,  -0.0721676051617,   0.0988183245063,  -0.1122401878238,  -0.0216061361134,  -0.2414635717869,  -0.0995875895023,   0.2756032943726,   0.0418659001589,  -0.1939643025398,   0.2633180618286,  -0.0210098978132,  -0.2513664364815,   0.0175630506128,   0.1454084664583,  -0.2614771723747,  -0.2073778361082,  -0.1393973827362,  -0.0544211380184,  -0.0578306242824,  -0.1347282230854},
   {   0.2470346093178,  -0.0141550581902,   0.0906522274017,  -0.1720116436481,   0.1747014522552,   0.0380802415311,  -0.0936369076371,   0.0030669476837,  -0.1827430874109,   0.1055131256580,   0.1025757342577,   0.0884044915438,  -0.0844586491585,   0.1380054652691,  -0.1389015763998,   0.2493499964476,   0.2231346964836,  -0.0978052094579,  -0.1324056237936,   0.1138342022896,  -0.1875387728214,   0.1823069304228,  -0.0975065156817,  -0.1437214612961,  -0.0972788482904,   0.1024500876665,  -0.3909008502960,  -0.1617663502693,  -0.0954807400703,  -0.0232353005558},
   {   0.0145478518680,   0.0004615313956,   0.0708930641413,  -0.1317731738091,   0.1833919137716,  -0.0984466522932,  -0.0029322984628,   0.2476382404566,  -0.0841384977102,   0.0522688440979,   0.2617293596268,   0.0848245993257,   0.0300978440791,  -0.1853353977203,   0.0284147877246,  -0.1269663423300,  -0.1272091567516,  -0.0193109195679,   0.0773075744510,   0.0723202973604,   0.0939712375402,  -0.0332788862288,  -0.0849469602108,  -0.1708886027336,   0.1029858216643,  -0.1075310781598,   0.1821274906397,  -0.0071312282234,   0.1766988039017,  -0.1710515916348},
   {  -0.3078680038452,  -0.0971933305264,  -0.0473881252110,  -0.1631373763084,   0.1709380000830,   0.0780200064182,   0.2413540482521,  -0.1215319558978,   0.1452206522226,  -0.0876539275050,  -0.1186490952969,  -0.0232598911971,   0.2165108174086,  -0.2221960574389,   0.1502579450607,  -0.1557189077139,   0.1999023556709,   0.1895244121552,  -0.1058048307896,   0.1788218170404,  -0.2420348227024,   0.4552936255932,  -0.2021353095770,  -0.0815020799637,  -0.0275954157114,  -0.1232047304511,  -0.1148989349604,  -0.0620576031506,  -0.0614508464932,   0.2656354606152},
   {  -0.0915507748723,   0.0752128362656,  -0.3602517545223,  -0.1235544532537,  -0.0888353213668,   0.3308791518211,   0.2929432392120,   0.0229175910354,   0.0636556521058,   0.0279237981886,   0.2031143158674,  -0.2519540488720,  -0.1587145924568,  -0.1643444448709,   0.0925253257155,   0.0479161180556,   0.0659226998687,   0.0663365200162,  -0.0781461969018,   0.0281870160252,  -0.2742785811424,  -0.1112458854914,  -0.1907868981361,  -0.0998887941241,   0.1953567266464,  -0.2506598830223,   0.0562009476125,  -0.0019310992211,   0.3937710225582,  -0.2219580262899},
   {   0.1918631792068,   0.2284006923437,   0.4059191048145,   0.0352918207645,  -0.1309722810984,  -0.3100088834763,   0.3264048099518,  -0.1446781158447,  -0.1139965802431,   0.2429255545139,  -0.2625868022442,   0.1706911772490,  -0.1156182438135,  -0.1705518662930,  -0.0416865162551,   0.2122690975666,  -0.3211281299591,  -0.0839466005564,   0.3267000317574,  -0.0549591742456,  -0.1393978297710,   0.3022188842297,  -0.1941234320402,  -0.1355708092451,  -0.1745323091745,  -0.2899983525276,  -0.2423899322748,  -0.0054617263377,   0.1249295696616,  -0.0489459969103},
   {  -0.0984323173761,  -0.0639087632298,   0.0138569613919,   0.3725484311581,   0.0588561333716,   0.0616335012019,  -0.0003528044035,  -0.0052610924467,   0.0840439870954,   0.1536242365837,  -0.2381762862206,  -0.0491426102817,   0.0271335151047,  -0.2347768247128,  -0.0463630147278,  -0.1299603432417,  -0.1115453764796,  -0.1424995660782,   0.0323502272367,   0.1769585013390,   0.2489002197981,   0.0415283143520,  -0.1508171558380,   0.0352369137108,  -0.1203798577189,  -0.0182067435235,   0.1349386572838,  -0.0528760068119,  -0.0354867950082,   0.1046714633703},
   {  -0.2817043066025,   0.0562905184925,   0.1203246712685,   0.0494152829051,  -0.1629982292652,  -0.0626275762916,  -0.0848730802536,   0.1659228056669,  -0.1100273877382,   0.0995762646198,   0.0339442528784,   0.2520872950554,   0.0320915170014,  -0.1073567569256,  -0.1741002053022,  -0.1539530307055,  -0.1051359549165,   0.3074124455452,   0.2575204372406,   0.1353308409452,   0.1415761709213,   0.0537350066006,  -0.4702718257904,  -0.2585069835186,   0.0188355017453,   0.1714921891689,   0.0321864746511,  -0.2130645513535,   0.3223008215427,   0.2353260070086},
   {  -0.1700828820467,  -0.0884562805295,  -0.0944337397814,  -0.0644986853004,  -0.0598685406148,   0.1737369000912,   0.1555595844984,   0.0834256932139,   0.0475028902292,   0.1156729385257,  -0.0351371876895,   0.1784993559122,  -0.2312800437212,   0.1815892904997,  -0.0612300708890,   0.0574588663876,   0.1571633666754,  -0.1615847796202,  -0.0730984658003,  -0.0864594653249,   0.0861884579062,  -0.0205483883619,   0.0400068648160,   0.1845595389605,  -0.0651528760791,  -0.0301095824689,  -0.0312295667827,  -0.0131086939946,   0.1869214177132,   0.0672404766083},
   {   0.1257043927908,  -0.2718316912651,   0.1319299340248,   0.0596783533692,  -0.0862239450216,  -0.2791753411293,   0.1053035929799,  -0.1702452898026,   0.1696295142174,  -0.0498513728380,  -0.0288736298680,  -0.0805291384459,  -0.0144702084363,   0.0092724794522,  -0.0739226862788,   0.0840082392097,   0.0496895350516,   0.0713465437293,  -0.0009482119349,   0.0703384205699,  -0.0482640415430,   0.1499333083630,   0.0192776117474,   0.0310552418232,  -0.1901011615992,  -0.1772245764732,   0.0911686867476,   0.0851059928536,  -0.1242061927915,  -0.0377375073731},
   {  -0.0166528429836,  -0.0107594309375,   0.2131273746490,   0.5946915149689,  -0.1507861614227,   0.2768560051918,   0.1649695783854,   0.0028478642926,   0.0204942468554,  -0.0483525991440,  -0.0710935592651,   0.1512257754803,  -0.0995840653777,   0.1542465537786,   0.0085245715454,  -0.1631002575159,  -0.2934750020504,  -0.0508941002190,  -0.0931048542261,   0.0084576345980,   0.1812649071217,  -0.2747967541218,  -0.0577725879848,  -0.2551320791245,  -0.0370831899345,   0.0211750045419,   0.1032641604543,   0.0506992302835,  -0.0178704112768,  -0.0017879174557},
   {  -0.1574905663729,   0.1922640651464,   0.1140711233020,  -0.0915518105030,  -0.0377256087959,   0.1685579419136,  -0.0827592983842,   0.1672037392855,   0.0330555886030,  -0.1668662577868,  -0.2480044215918,  -0.2745011746883,   0.0402984991670,  -0.0964160636067,  -0.0467223264277,  -0.0443056896329,   0.2883182764053,  -0.1565668284893,  -0.1941541284323,  -0.0079792570323,   0.0934196114540,   0.0694546699524,   0.1566918492317,  -0.1678151935339,   0.2800604104996,  -0.2062277197838,  -0.0631500110030,  -0.1281546652317,   0.1703370511532,   0.1937234252691},
   {  -0.0559962093830,  -0.1811451017857,  -0.0575407966971,  -0.2002026438713,   0.0877191945910,   0.0026210662909,   0.0467780791223,   0.1088902056217,  -0.0485864505172,   0.2058249413967,  -0.1190365627408,  -0.0263673067093,  -0.0485367923975,   0.1192657276988,   0.0689315125346,   0.0466933920979,   0.1318453252316,  -0.0512993596494,   0.0411598347127,  -0.0766144320369,   0.1279496550560,   0.0608259066939,  -0.0494345352054,   0.1519588083029,  -0.0831182077527,  -0.0254049375653,  -0.0320539176464,  -0.0871819779277,   0.0644998550415,  -0.0627370849252},
   {  -0.0380203463137,  -0.2570413053036,   0.0799511373043,   0.0239845439792,   0.0937655717134,  -0.1644715368748,  -0.0739193037152,   0.0837437212467,   0.0512169227004,   0.0497731901705,  -0.0635240525007,   0.0640695765615,  -0.0739109516144,   0.0101802442223,   0.0326029583812,   0.0526302494109,  -0.1035199314356,   0.0825887173414,   0.0031635616906,   0.0028402321041,   0.2004505395889,   0.0786743015051,   0.0436174087226,   0.1119884625077,  -0.1322456598282,  -0.0111272837967,   0.0548267178237,   0.1347957998514,   0.1366236656904,  -0.0072846892290},
   {  -0.0739630833268,  -0.1154534891248,  -0.1154799759388,   0.1441366374493,  -0.0321940071881,  -0.0357061959803,   0.2675182521343,  -0.2088241130114,  -0.2664543986320,  -0.0678625628352,  -0.0539346486330,   0.1286701560020,  -0.0115102268755,  -0.1096014827490,   0.1753984838724,   0.2634021937847,   0.2204906940460,  -0.1326874792576,   0.1889750510454,   0.1257572919130,   0.1500456333160,  -0.0664871111512,   0.1720341295004,  -0.2279534339905,  -0.0116081256419,  -0.0317836068571,  -0.1013603657484,   0.0086314268410,  -0.2059751451015,  -0.0433399491012},
   {  -0.0626000538468,   0.2040501534939,   0.0405093207955,   0.0759691074491,  -0.0347881950438,   0.1087597757578,   0.1595104932785,  -0.0574507750571,  -0.3824435472488,   0.1415958553553,   0.0484908632934,  -0.1211803629994,  -0.0333350598812,   0.0705562233925,  -0.0588568635285,  -0.0126579022035,  -0.2941404581070,  -0.0211757328361,  -0.2961744964123,   0.4097625017166,   0.0175584349781,   0.0278818421066,   0.2555496096611,   0.2578798532486,  -0.0111407861114,  -0.1163882240653,   0.0549957826734,   0.0125606767833,  -0.1219096332788,  -0.0675809755921},
   {  -0.0585017241538,   0.0149564016610,  -0.0520806312561,  -0.0314189307392,  -0.0176586378366,  -0.0205606631935,  -0.0303512979299,   0.0606100894511,   0.0098229069263,   0.0949915051460,   0.0111933629960,   0.0221080277115,  -0.0498580783606,  -0.1279639899731,  -0.1002623289824,  -0.0874221399426,   0.0769159346819,  -0.0742894485593,   0.0480500608683,   0.0068034608848,  -0.0339862369001,   0.0399176254869,   0.0374615229666,   0.0152410753071,   0.0593700930476,  -0.0933950096369,   0.0252742394805,  -0.0113160461187,   0.0487967915833,  -0.0554746650159},
   {   0.1010955348611,   0.0039225690998,   0.0133469654247,  -0.0130041101947,  -0.0626125857234,   0.0228484142572,   0.0770604461432,  -0.0933012068272,   0.0225363820791,  -0.0095251575112,   0.0019576097839,   0.0236378274858,   0.0066793984734,   0.0187173243612,   0.0298646111041,   0.0992021560669,  -0.0605615675449,   0.0473928526044,  -0.0388639606535,   0.0297521594912,  -0.0000993225694,   0.0470368079841,  -0.0219475161284,   0.0772408321500,   0.0377195626497,   0.0138740129769,  -0.0794339478016,   0.0689839050174,  -0.0715634226799,  -0.0159221738577},
   {  -0.0945669561625,  -0.1753891855478,  -0.0208779517561,  -0.1336990147829,   0.1282680481672,  -0.1785527914762,   0.1466451734304,  -0.0402463786304,  -0.2237578034401,  -0.1064995527267,   0.1724005639553,  -0.0359413959086,  -0.0103552546352,  -0.1493871062994,   0.2030683457851,   0.1660865843296,  -0.2592717111111,  -0.1256822198629,   0.1439427137375,   0.1298627555370,   0.1246186569333,  -0.0014667860232,   0.1135460510850,  -0.0042923032306,   0.0541171021760,  -0.0376320928335,   0.0594064071774,  -0.0090221194550,  -0.1163596808910,  -0.0836367979646},
   {  -0.1387416422367,   0.0897646471858,   0.3283512592316,   0.1052536964417,  -0.4021587073803,  -0.2355238348246,  -0.2445358484983,   0.2415177375078,  -0.2203530818224,   0.1288338452578,  -0.0031735491939,   0.1715797036886,   0.3526355922222,  -0.1262249201536,  -0.1059750467539,  -0.1494061052799,  -0.0955359116197,  -0.1747724264860,   0.1427439898252,  -0.1400435268879,   0.0463137142360,  -0.0817375779152,  -0.0613653436303,  -0.2054542899132,   0.2553170621395,   0.0757291913033,   0.1056803241372,   0.2380298823118,  -0.3112342357635,   0.0262784417719},
   {  -0.1023909524083,  -0.0276689585298,  -0.4548105001450,  -0.0852718204260,   0.1892723292112,   0.5289983153343,  -0.1590884476900,   0.0379783883691,  -0.1899957805872,  -0.0585168339312,  -0.0735115334392,   0.0536516346037,  -0.0644055604935,   0.1155927777290,   0.1588097959757,  -0.0998674035072,   0.0988871455193,   0.0707882940769,   0.1443617641926,   0.1294175237417,   0.0768124684691,  -0.0524195171893,  -0.0055771037005,  -0.1789806485176,  -0.0698792710900,   0.4355828166008,   0.0512200593948,  -0.1699334830046,  -0.1438010185957,  -0.1683141440153},
   {   0.0815544277430,  -0.1176586672664,  -0.0228322427720,  -0.1613527834415,  -0.0382092408836,  -0.0895373746753,  -0.0717265531421,  -0.1120160073042,  -0.1014299392700,   0.1127158030868,   0.1370297223330,   0.1369005888700,  -0.1398903876543,  -0.1366115659475,  -0.0933352261782,   0.1790361255407,   0.0131771955639,   0.1490543484688,  -0.0758550092578,   0.0178488586098,  -0.0631342008710,   0.0446272753179,   0.1712835729122,   0.0531183220446,   0.1369204372168,  -0.0428477302194,  -0.1207752823830,   0.0718897879124,  -0.0520591847599,  -0.1311672180891},
   {   0.0413177907467,   0.1566589027643,   0.2932865321636,   0.0914417579770,  -0.2838841676712,   0.0599168241024,  -0.2221609055996,   0.1050610095263,   0.0216401182115,   0.0512369722128,  -0.1586855500937,   0.2261741757393,   0.3139319121838,   0.0239451564848,  -0.0317446701229,  -0.1585063040257,   0.0679770261049,   0.0637166053057,   0.0027515653055,   0.0145592410117,   0.1983547210693,  -0.2147202640772,   0.0859434977174,  -0.1145934239030,  -0.0622115880251,   0.0361948683858,  -0.0291537120938,   0.3708900809288,  -0.1974703073502,   0.0170031879097},
   {  -0.1169042587280,   0.0488129146397,  -0.3242018818855,   0.0787520930171,   0.2735674679279,   0.2376638799906,  -0.3277811110020,   0.0457299016416,  -0.1660493910313,  -0.1465594768524,   0.1252423226833,  -0.1602233499289,  -0.1056644991040,  -0.1469194889069,   0.1940950304270,  -0.2111923098564,   0.3124401271343,  -0.0828761756420,  -0.0610371977091,   0.2320756614208,  -0.0954257026315,   0.1180104389787,   0.1105969771743,  -0.1023074537516,   0.0639407262206,   0.2755300700665,  -0.0110821248963,  -0.1762360781431,   0.1813021004200,  -0.1221086308360},
   {  -0.3354853391647,  -0.0680068507791,  -0.1402705311775,   0.0822405666113,   0.0242633782327,  -0.3184300065041,  -0.0600373595953,  -0.3857234716415,   0.0072006294504,  -0.2667223811150,   0.1739757210016,  -0.3179345130920,  -0.1828951835632,  -0.0179713722318,  -0.0058910790831,   0.0037846679334,   0.1296551227570,   0.4573882520199,   0.1184530481696,   0.0271130241454,   0.3312114477158,  -0.2423667907715,  -0.2514102160931,   0.2517319917679,   0.2204083949327,   0.1750853955746,  -0.4154375493526,   0.0905772000551,  -0.3025331497192,   0.0554758608341},
   {  -0.2580929100513,  -0.0315668769181,  -0.1278948038816,  -0.0019852807745,   0.2361478805542,   0.0862892642617,   0.0539867356420,  -0.3268098831177,   0.0623786151409,  -0.0302045214921,  -0.2020508944988,  -0.0790948942304,   0.1566825658083,   0.1089458912611,  -0.1390440016985,  -0.1403363943100,   0.1548924297094,   0.1423305273056,   0.0302215795964,  -0.0581729523838,   0.0807186290622,  -0.1634215563536,  -0.2971738576889,  -0.1805082261562,  -0.0916995480657,   0.0046516791917,   0.1039364859462,   0.1277294456959,  -0.0852551236749,   0.0873929113150},
   {   0.1325733065605,   0.0119528016075,  -0.0621467716992,  -0.0420931801200,  -0.1540769040585,  -0.0554716214538,   0.1160937324166,   0.0152564244345,  -0.1855777502060,  -0.1396628767252,   0.0680837929249,   0.0530871450901,   0.1052632555366,  -0.1923876255751,   0.0426156632602,   0.1157945469022,   0.1404630988836,  -0.0209761485457,   0.2192149907351,   0.0632224082947,  -0.0501505583525,   0.0296841971576,   0.0293904617429,   0.0595464967191,   0.0390729457140,   0.1234287098050,  -0.1366804987192,  -0.1233666017652,   0.0756353139877,   0.1419447809458},
   {  -0.2396378517151,   0.1574297845364,   0.1464908421040,   0.0631596744061,   0.3212864100933,  -0.1317998170853,  -0.1028816252947,  -0.1831231266260,   0.3332771062851,   0.1334684342146,   0.3063398301601,  -0.2518707513809,   0.2204615473747,   0.0664883777499,  -0.3427144885063,   0.1582916080952,  -0.0610375367105,  -0.0220865979791,   0.4408843815327,  -0.4081634879112,   0.0319925323129,  -0.3124521076679,  -0.1174872145057,  -0.2058634161949,  -0.1765490621328,   0.0589116290212,  -0.3269022405148,   0.0714961811900,  -0.0064266133122,  -0.4673221409321},
   {  -0.1618511974812,  -0.0087443813682,  -0.1325121670961,   0.0723144635558,  -0.3443576097488,   0.2259399145842,   0.1027963086963,   0.0267264284194,   0.0962582081556,   0.2317420542240,  -0.0144909918308,  -0.0764998123050,   0.1281136572361,   0.0496893487871,  -0.0152647215873,   0.1366197168827,  -0.0067486758344,   0.3019007146358,  -0.2764791250229,  -0.2057801932096,  -0.1752147078514,  -0.1320003271103,  -0.3134546875954,  -0.0063593536615,   0.0733907371759,  -0.1325260549784,   0.0459318347275,   0.2368310838938,  -0.1936614662409,   0.0148153044283},
   {  -0.1007116883993,   0.2392160594463,   0.0685722306371,   0.1617267578840,   0.0715482905507,   0.1437861025333,  -0.0228295847774,   0.0138920778409,   0.0285593587905,   0.0706501752138,  -0.1746250987053,   0.0717595070601,  -0.1286668181419,  -0.0143088661134,  -0.2950685322285,   0.2917394340038,   0.1867272555828,   0.1283636987209,  -0.1953996121883,  -0.2808268070221,   0.1210261359811,   0.0221792999655,   0.2705451846123,   0.0084788277745,  -0.2156485021114,  -0.0463699847460,  -0.3045963346958,   0.2034245431423,  -0.1370951086283,  -0.0076877614483},
   {  -0.3473765850067,   0.2480784505606,   0.2521758675575,  -0.1169676184654,   0.0724048465490,   0.1067821905017,   0.0884800031781,  -0.0041586621664,   0.0988917946815,  -0.1419506669044,  -0.0466652065516,  -0.1502718031406,   0.0078589553013,   0.3534451425076,  -0.0044383034110,   0.3192536234856,   0.1834913641214,   0.1986137777567,   0.1414454728365,   0.1474131196737,   0.2760950624943,  -0.1128360927105,   0.0592440478504,  -0.4928208589554,   0.1764796078205,   0.1665078550577,  -0.2959427535534,  -0.0792784988880,   0.2005213350058,   0.2497206330299},
   {   0.0549999997020,  -0.0702543631196,  -0.0087272962555,  -0.0763862356544,  -0.0564890690148,  -0.1199245825410,  -0.1313467323780,   0.1246915236115,  -0.3443325161934,  -0.0629690289497,  -0.1890639066696,  -0.1414762288332,   0.0784051120281,   0.0801367461681,  -0.0047076712362,  -0.0259474497288,  -0.1734335273504,   0.0027524216566,  -0.3617652356625,   0.0461281836033,   0.0803144946694,  -0.3572126626968,  -0.2973758578300,   0.0426507778466,  -0.1659936159849,   0.1161638796329,   0.2144632190466,  -0.2497886419296,   0.2221793532372,   0.1923441141844},
   {   0.0941655859351,   0.0422508940101,  -0.0073601733893,   0.0068657998927,   0.0005428843433,  -0.0289067886770,  -0.0019326681504,   0.0834815278649,  -0.0238157622516,   0.0233129430562,  -0.0273643750697,   0.0249038375914,  -0.0455074682832,   0.0127865690738,   0.0382405966520,  -0.0115205524489,  -0.0631722584367,  -0.0458238236606,   0.0246707964689,  -0.0147971604019,   0.0224011652172,  -0.0518760159612,   0.0807920098305,   0.0385193414986,  -0.0917771458626,   0.0021038902923,   0.0006474909605,  -0.0062752147205,   0.0155279720202,   0.0311894565821},
   {  -0.0719211697578,  -0.0713932290673,  -0.1577197611332,   0.2636484503746,   0.4227470457554,   0.3744048178196,   0.4452621340752,  -0.1082845330238,   0.1408103406429,  -0.4032375514507,   0.0021585731301,  -0.0684481635690,  -0.3747648894787,   0.1177147328854,  -0.3075996339321,   0.1665763854980,   0.1061276718974,  -0.3462932407856,   0.2362300157547,   0.0512952581048,   0.1677376776934,   0.1276718974113,  -0.2573281526566,   0.1534353345633,  -0.0386624895036,  -0.3493582010269,   0.1389442533255,  -0.3603337109089,   0.3915773630142,   0.1111620068550},
   {  -0.0605770833790,  -0.1754270046949,   0.5699087977409,   0.0736043378711,   0.1420171707869,  -0.5135169625282,   0.1789452135563,  -0.3543873131275,   0.1249121800065,   0.3362118601799,  -0.0214906502515,  -0.1700282394886,  -0.1505189538002,  -0.0942525640130,   0.0799803435802,  -0.0008904981078,   0.0196187496185,   0.1688236296177,  -0.0703564584255,  -0.1280140280724,  -0.0049676029012,   0.0203744657338,  -0.1770127862692,  -0.1116357669234,  -0.2996101677418,  -0.3420508801937,   0.2888239026070,  -0.1298849880695,  -0.1335387676954,  -0.1152728050947},
   {   0.2497273981571,  -0.0509364567697,  -0.1653320789337,   0.1112739592791,   0.0769402086735,  -0.0502624735236,  -0.1220423728228,  -0.0421473644674,  -0.0276166889817,  -0.2100730091333,  -0.0023317816667,  -0.2181522250175,   0.1081454977393,   0.2013985961676,  -0.1633567214012,   0.1335278898478,  -0.0338075831532,   0.3130655586720,  -0.0267001073807,  -0.3640671670437,  -0.3326989114285,   0.2761140167713,   0.1601271927357,  -0.0846702530980,   0.0042020143010,   0.0718453004956,   0.0582344904542,  -0.0373776033521,   0.0654435977340,   0.1139131709933},
   {   0.1507537364960,   0.0993826463819,  -0.1721926629543,   0.1219528242946,   0.1704173684120,  -0.1336156129837,   0.0052099954337,   0.0418039225042,   0.0877758786082,  -0.0286444649100,  -0.0915177315474,  -0.1348248869181,   0.1090774685144,  -0.2304597645998,   0.0831512659788,  -0.0069896085188,   0.0579157769680,   0.1801142394543,  -0.1259365379810,  -0.1003746688366,  -0.0158314313740,   0.1394996196032,  -0.1999972462654,  -0.1058147996664,  -0.2689962983131,   0.0281280633062,  -0.1077987998724,  -0.0260083004832,  -0.0182661414146,   0.0378601141274},
   {   0.0917728915811,  -0.2716579139233,   0.1382374912500,  -0.0888841450214,   0.1641878336668,  -0.1152974814177,  -0.0990413576365,   0.1091003268957,  -0.2267041951418,   0.2205103784800,  -0.2523019909859,  -0.1330690234900,   0.3532106876373,   0.1067511513829,  -0.0837395638227,  -0.1370740681887,   0.0255776103586,  -0.1365068554878,   0.2148968130350,   0.0131805166602,   0.2185732424259,   0.2300124764442,   0.1356079876423,   0.0019821019378,  -0.0952383875847,  -0.0113134915009,   0.2571775913239,   0.1264397501945,  -0.1294712573290,   0.0186630897224},
   {   0.3317329287529,  -0.0870018675923,  -0.0732360556722,   0.0147723546252,  -0.1335765123367,   0.5037932395935,  -0.4252493977547,   0.2913031578064,  -0.0075959442183,   0.1176397949457,   0.2013300806284,   0.2283159643412,   0.2307368367910,   0.2102818191051,   0.1594904810190,  -0.1512053012848,   0.0661297664046,   0.1646350622177,   0.1242568492889,  -0.1824465543032,  -0.0510550253093,  -0.2784199416637,  -0.0176792554557,  -0.0568409599364,  -0.0908633172512,  -0.0999104380608,  -0.0759046971798,   0.0119465412572,  -0.0467914231122,   0.0834841504693},
   {  -0.0893891602755,   0.1162292584777,   0.2207188159227,  -0.1210710406303,   0.1193478032947,   0.1418899446726,  -0.0553201250732,   0.1527466475964,   0.0711936503649,  -0.1908294856548,   0.0436889156699,   0.0191301703453,   0.0446832776070,   0.2263676077127,  -0.2454998493195,  -0.1473690867424,  -0.1084130257368,   0.0816233977675,   0.1272915750742,   0.0180044192821,   0.0158236306161,  -0.0067930696532,  -0.0922429636121,   0.2039147168398,   0.1311330348253,  -0.0206942688674,   0.0749472603202,   0.0402513854206,   0.0027362599503,   0.0663075894117}};
  const float bias_0[30] = {   0.1099712476134,   0.1264781504869,   0.0437358133495,  -0.0164235699922,   0.2637407779694,   0.0412231273949,   0.0856624841690,   0.2409715950489,   0.0574629232287,   0.0344974696636,   0.0701653584838,   0.0660507008433,   0.0161409135908,   0.1706721186638,   0.1714781671762,   0.2278945446014,   0.0811791792512,   0.1257552057505,  -0.0372011810541,   0.1775775700808,   0.2206556200981,   0.1896352767944,   0.1316332221031,   0.0240442212671,   0.1316780298948,  -0.0132710486650,   0.1399825215340,   0.0543607249856,   0.1828741729259,   0.2165693342686};
  // Declare the arrays in the stack
  const float kernel_1[30][30] = 
  {{   0.0312011148781,   0.1135768219829,   0.3093661367893,   0.0105875777081,   0.2407566606998,  -0.3616035580635,  -0.0077963974327,   0.1890259236097,  -0.2528854608536,  -0.0698059275746,  -0.0486839190125,   0.1168246716261,  -0.2986932992935,   0.0405865497887,   0.0840418040752,  -0.2211288064718,   0.0616510696709,   0.0597139261663,  -0.0911109000444,   0.2852308154106,  -0.1198033317924,  -0.3206054866314,   0.1457737833261,  -0.1908664703369,  -0.0321662910283,  -0.0117916613817,  -0.0844942927361,  -0.1625528633595,  -0.0657360479236,  -0.0230298265815},
   {   0.2809933722019,  -0.0502150654793,   0.0294945333153,  -0.0169710032642,  -0.0944734364748,   0.2188489884138,  -0.2345297038555,  -0.1412352025509,  -0.0437133796513,   0.2784668803215,  -0.0477741211653,   0.2960414588451,   0.0894708856940,  -0.1885270029306,   0.2360014170408,  -0.0698270648718,  -0.0790225714445,   0.0168267283589,  -0.0721853747964,  -0.0347457714379,  -0.1844288706779,  -0.1090281009674,   0.1805964559317,   0.1081259027123,   0.2550174891949,  -0.2232205569744,   0.3721011579037,   0.0650349110365,   0.2835327982903,  -0.1142375245690},
   {  -0.2650610506535,  -0.0639403760433,   0.2113174349070,  -0.0747948661447,   0.0919284448028,   0.0051931231283,  -0.0057593612000,  -0.1294849067926,   0.3173435628414,   0.0107022412121,   0.1483346223831,   0.1179689317942,  -0.0757915824652,  -0.1751288622618,  -0.2625970244408,   0.2902872264385,   0.0724716484547,   0.3378721177578,   0.0063252733089,  -0.0913727879524,  -0.0675111785531,   0.0592297986150,   0.4111248850822,   0.1503988504410,  -0.0499844066799,  -0.0978000015020,   0.1086030304432,   0.0792144834995,  -0.0405402034521,  -0.1837216019630},
   {  -0.0780720636249,  -0.0758167952299,  -0.0205723475665,  -0.1639975905418,  -0.2907281219959,  -0.0296676997095,  -0.0148007450625,   0.0331590138376,   0.2269926518202,  -0.1056972891092,  -0.1953616589308,   0.0598050430417,  -0.1505859196186,   0.1872991174459,   0.1240771114826,  -0.0180875919759,   0.2258944362402,  -0.1172130778432,  -0.2016968727112,  -0.0133431153372,   0.4570701420307,  -0.1016744226217,   0.0903671830893,   0.1362316906452,   0.1787192374468,  -0.2835496068001,  -0.0184812340885,  -0.1625249832869,   0.2431002110243,   0.0710371732712},
   {  -0.1159432008862,   0.3532861173153,  -0.1550394892693,  -0.0140727832913,   0.1306831091642,  -0.1218804344535,  -0.0558758601546,  -0.1035402640700,  -0.2943280935287,   0.1084769517183,   0.0182562675327,   0.0123306643218,  -0.1374719440937,   0.2653352916241,   0.3014092743397,   0.2466542869806,   0.1230982020497,  -0.0875032097101,   0.0174545552582,   0.1091562062502,  -0.2824344038963,   0.0208369530737,  -0.0109117776155,  -0.1647267639637,   0.1196421980858,  -0.1212734729052,  -0.1339163929224,   0.0507801435888,  -0.1336472779512,   0.2987289428711},
   {  -0.2898230254650,  -0.3060580492020,  -0.2807424962521,  -0.1506595909595,   0.1646216660738,   0.0731344521046,   0.2469308674335,   0.0297633334994,   0.0469903573394,  -0.1638753265142,   0.0061190892011,  -0.1957652568817,  -0.1161193475127,  -0.1446526199579,  -0.1456720530987,   0.3730078637600,   0.3237607181072,  -0.0111404275522,  -0.2069557011127,  -0.1744978576899,   0.3182860314846,  -0.1251487433910,  -0.4368503391743,   0.2968646585941,  -0.0564156994224,  -0.1207880675793,   0.0366180315614,   0.2169579565525,   0.1247941106558,   0.1125891730189},
   {  -0.2328038364649,  -0.1285361349583,   0.1453189700842,  -0.1450478434563,   0.1069656535983,   0.0122357476503,   0.1265963912010,   0.0572109073400,   0.2080731391907,  -0.0731049478054,   0.3063079118729,  -0.1737594455481,   0.2159407287836,   0.2372009903193,   0.3015711307526,   0.3201386630535,   0.0132235419005,  -0.3541123270988,  -0.1324208378792,  -0.0692085996270,   0.3036345839500,   0.2104257792234,   0.2228261679411,   0.2392432540655,  -0.0463406182826,  -0.2368189543486,  -0.2275933623314,   0.0088548082858,   0.1117401644588,   0.0243335608393},
   {  -0.1873645037413,   0.3614553511143,  -0.1797215491533,   0.1412631720304,   0.1733621954918,  -0.3201404809952,   0.1584053337574,   0.3436422348022,   0.2713450491428,   0.1506039351225,   0.0246972255409,   0.2522228062153,  -0.0600770153105,   0.1610905975103,   0.1317927688360,  -0.0746345520020,  -0.0416556149721,   0.2221218198538,  -0.1270388662815,  -0.1826730817556,  -0.2003523260355,  -0.1534333825111,  -0.2438904047012,  -0.0175984594971,  -0.1093666404486,   0.2002207189798,   0.2977102398872,  -0.1018600165844,  -0.0856857821345,   0.1276082247496},
   {  -0.0358797945082,   0.2514615654945,   0.1998409181833,   0.1575304567814,   0.1852350980043,   0.3676449656487,   0.0565266124904,   0.0742459893227,   0.1572893857956,   0.1737041920424,  -0.2476917058229,  -0.1304829567671,   0.1546731144190,   0.2977639436722,   0.2288524359465,   0.1929721385241,   0.3067645728588,  -0.2966651320457,  -0.1614292562008,  -0.1125566214323,  -0.0384827814996,  -0.0711101964116,  -0.1693729013205,   0.2513020336628,   0.2588734626770,   0.1316805481911,   0.1933071911335,  -0.1571443080902,  -0.0210767462850,   0.2566871941090},
   {   0.1071835756302,  -0.1954822391272,   0.2907061278820,   0.2302070856094,  -0.1046044826508,  -0.1853185445070,  -0.1720773875713,  -0.1134939640760,   0.2593954205513,  -0.1809034049511,  -0.0228303615004,  -0.0593075975776,   0.1870163083076,  -0.1299607306719,  -0.2018219828606,   0.0066716591828,  -0.0103298891336,  -0.0307288691401,  -0.0741463825107,   0.0530030354857,  -0.2038486897945,  -0.0533429570496,   0.2439000457525,  -0.0227145049721,   0.0401421003044,   0.1121657937765,   0.1292170733213,  -0.3231868743896,   0.0536350496113,   0.0303069110960},
   {   0.0078763486817,   0.1141157373786,  -0.2276152819395,   0.2803063094616,  -0.2526915669441,  -0.0995822995901,  -0.0588330551982,  -0.1194993853569,   0.0178598444909,   0.0110141709447,  -0.0751183927059,   0.0514646023512,  -0.0322235524654,  -0.1808861196041,   0.0250130016357,   0.1311217695475,   0.0506980568171,  -0.0884356126189,   0.2848104238510,  -0.2357382476330,  -0.3198564648628,   0.1450349539518,  -0.0862131565809,  -0.0695616900921,  -0.1617908030748,  -0.2275795787573,  -0.0247861072421,   0.1576496362686,   0.3032818436623,   0.2944321632385},
   {  -0.3510427772999,   0.1118375509977,   0.2694944143295,  -0.1097727566957,   0.0302024297416,   0.2640280425549,   0.3011591136456,   0.1117111444473,  -0.1566289812326,  -0.0483283400536,  -0.0461876392365,   0.2689325809479,   0.2807591855526,   0.2539113759995,   0.3137664198875,  -0.1417511701584,  -0.0816454440355,   0.0254215262830,  -0.1303232610226,   0.0905010402203,  -0.0594126619399,   0.2103107422590,  -0.1097893565893,  -0.0835543647408,  -0.3725113272667,  -0.1146957725286,  -0.1048545092344,   0.0154347931966,   0.1798748821020,   0.2170675247908},
   {  -0.2733030915260,   0.1823318302631,   0.1545066982508,  -0.2477670013905,  -0.1717297136784,   0.3052659928799,   0.3111055791378,   0.0974125489593,  -0.2426419258118,   0.2728477120399,   0.1708384305239,  -0.1057451665401,   0.2580750584602,  -0.1195675283670,   0.1172505691648,   0.2774167358875,   0.1401082128286,   0.2643715739250,   0.2225366085768,  -0.2803450822830,   0.1441518813372,   0.3293097913265,  -0.1216001510620,   0.2468799501657,   0.2780149877071,   0.2560473680496,  -0.1004813387990,   0.1116711869836,  -0.1788314431906,   0.2947044968605},
   {   0.3828457593918,   0.3063338398933,  -0.1328801214695,   0.0921649038792,   0.2066637873650,   0.1742129474878,  -0.2513378262520,   0.0952842012048,   0.0750190392137,  -0.1799219548702,  -0.2426027506590,   0.2340251654387,  -0.0356097593904,   0.1298547238111,   0.0060021062382,   0.0002184610930,   0.0842402204871,  -0.0850509852171,  -0.0863411352038,   0.1429965347052,  -0.0297764260322,  -0.1798655688763,   0.0530228614807,   0.0568306967616,  -0.1739214658737,   0.0563495494425,   0.1428335160017,   0.0976619422436,  -0.1660177260637,   0.0177208371460},
   {   0.0146431243047,   0.0582382939756,   0.2651508450508,  -0.2070418149233,   0.1404809802771,  -0.0484142117202,   0.2228017300367,   0.2005415409803,   0.0544306337833,   0.0145620247349,  -0.1257371455431,   0.3092867136002,   0.2462388426065,  -0.1123380884528,  -0.2975414395332,   0.2095364779234,  -0.1377874165773,   0.0211744494736,   0.0246604513377,   0.2611054182053,   0.0882835313678,   0.0051326369867,  -0.2290858477354,   0.0810346230865,   0.3969910740852,  -0.2434032857418,  -0.1151440739632,   0.0191919077188,   0.2591299712658,   0.3194582760334},
   {   0.0725339055061,   0.1771737933159,  -0.0497534386814,   0.3786354362965,   0.0105428854004,  -0.2241616398096,  -0.0775049924850,  -0.0379468351603,   0.0201426111162,   0.1365957409143,   0.2963023483753,   0.0820381715894,  -0.1032265275717,   0.1561786532402,  -0.0491862930357,   0.2911399602890,   0.2334057241678,  -0.0914333239198,   0.1831178367138,  -0.0522987619042,   0.3266584277153,   0.1899216324091,   0.1647015213966,   0.1125696972013,  -0.0502594746649,  -0.1914990842342,   0.2375326007605,   0.0330893807113,  -0.2033824771643,   0.0986885055900},
   {   0.0403024256229,   0.1260822564363,  -0.0614108555019,  -0.1644339412451,  -0.0950716808438,   0.0315737091005,  -0.2127616405487,   0.0127971218899,   0.1705425381660,   0.2003700286150,  -0.1304885745049,   0.1181076839566,   0.2355283945799,   0.1168747395277,   0.0319959446788,   0.0803194269538,   0.0139532424510,   0.2113620638847,   0.1008313074708,   0.1887541264296,  -0.0811325758696,   0.1787429004908,   0.0646281242371,  -0.1472199112177,  -0.1589971482754,  -0.1871389597654,  -0.1920389682055,   0.1970206052065,  -0.2294695228338,   0.2529413998127},
   {   0.3074042201042,  -0.2899919748306,   0.1642552018166,   0.1444723010063,  -0.1479183137417,   0.3343565165997,   0.0512841567397,   0.2253710031509,  -0.2556283771992,  -0.1344683021307,   0.0126456515864,   0.2365577518940,  -0.1103514507413,  -0.3119876384735,  -0.1102856546640,  -0.0610775202513,   0.2006493806839,   0.1016470417380,   0.2207862734795,   0.0726507827640,  -0.1363305300474,  -0.0721378549933,  -0.2144671380520,   0.1093886047602,   0.3778725862503,   0.0195910669863,  -0.1175067052245,   0.4210007190704,   0.0931767299771,  -0.2383691221476},
   {   0.1833894997835,   0.3491308391094,   0.1114083006978,   0.2735926508904,   0.0997573509812,   0.2265906929970,  -0.0474012419581,   0.0401756949723,   0.2696078419685,   0.1070413514972,  -0.1013242304325,   0.0443516336381,  -0.0327212326229,  -0.3532609343529,   0.2434084415436,  -0.1693163663149,   0.3375559449196,  -0.0665462687612,  -0.1473476290703,  -0.3198458552361,  -0.1562696993351,  -0.0038179201074,  -0.2255284041166,  -0.1532533019781,   0.0165493134409,   0.0942301750183,  -0.0842684060335,  -0.1222721189260,   0.0994785502553,   0.2337198406458},
   {  -0.2821675539017,   0.2537137269974,  -0.0864356830716,  -0.1854209154844,  -0.2825971543789,  -0.0657510459423,   0.0762646421790,   0.1674137860537,  -0.3263588547707,  -0.2848049700260,  -0.1116484478116,   0.3141484558582,  -0.0169468838722,  -0.2105908095837,   0.3093333840370,  -0.0485785529017,  -0.2800558805466,   0.1803076863289,   0.2617212533951,   0.2195810973644,   0.1059946566820,  -0.1856049448252,  -0.1124593913555,   0.2024458199739,  -0.0422226265073,   0.2029637098312,  -0.0122378729284,   0.2743729054928,  -0.3603784739971,   0.1641673296690},
   {   0.0442032143474,  -0.2466344535351,  -0.0576442703605,   0.2021440267563,  -0.2748573422432,   0.2234461754560,  -0.0321165770292,  -0.2421932220459,  -0.2247946709394,   0.2801166772842,   0.0298030599952,   0.3177618682384,   0.3605780005455,   0.1607196778059,  -0.0998340100050,   0.0058358111419,  -0.0116142574698,   0.2050808370113,  -0.3251480162144,  -0.0058833956718,   0.2080333083868,   0.1979429125786,  -0.2277939021587,   0.1738547831774,  -0.0414946638048,   0.2364290207624,  -0.2152834236622,  -0.1736515611410,  -0.0213249921799,  -0.0953135937452},
   {  -0.0620890893042,   0.2998290359974,  -0.0249722767621,  -0.1749200075865,   0.0438512451947,   0.2942713201046,   0.1426155418158,  -0.0352647677064,   0.2332957684994,  -0.2480562478304,  -0.0158293992281,  -0.0489024817944,  -0.1065226718783,  -0.3040475845337,   0.4542308151722,  -0.1918990910053,  -0.1701272875071,  -0.1303446143866,   0.0068993475288,  -0.0862511694431,   0.0363723300397,  -0.2574805617332,   0.1922084242105,   0.2885649204254,  -0.0927019640803,  -0.1566601395607,  -0.1402479112148,   0.2375910431147,   0.2515300512314,  -0.0039034271613},
   {   0.1983445733786,  -0.1888799220324,   0.0046533965506,  -0.1595779657364,  -0.1240203380585,  -0.0605645142496,   0.0521117188036,   0.1228076443076,  -0.0543118827045,   0.2615216970444,   0.2603797316551,   0.1934873312712,  -0.2075725644827,  -0.0343759097159,  -0.1883718073368,   0.2838267982006,   0.0424808524549,   0.2594912946224,  -0.3519535958767,   0.2731887996197,  -0.0084773134440,  -0.3135814368725,  -0.1175195202231,   0.2571493387222,  -0.1811178922653,   0.0497054532170,  -0.2589652240276,  -0.1419520080090,   0.3280872106552,   0.3603598773479},
   {   0.1869698017836,  -0.2753209769726,   0.3492162823677,   0.1929462850094,  -0.2565795779228,  -0.0771160274744,  -0.0369438119233,   0.3700760900974,  -0.0195436626673,   0.2288647592068,   0.1042202562094,  -0.2169327735901,  -0.1711270809174,  -0.0235823392868,   0.2007851749659,   0.0689134672284,  -0.3362071812153,  -0.1327456086874,  -0.0482478402555,   0.0025708477478,  -0.0753576532006,  -0.2744550704956,  -0.1955974102020,  -0.2434239238501,  -0.3043371438980,  -0.2586478888988,   0.1474662572145,  -0.0827915742993,   0.4374808371067,  -0.1645284742117},
   {   0.1945258527994,   0.1414203494787,   0.0683089718223,   0.1291264295578,   0.1505803167820,  -0.2243252545595,   0.2467274963856,  -0.1868553161621,   0.1594913601875,   0.0257506109774,  -0.0189049914479,  -0.0156928896904,   0.1481423079967,   0.0194961912930,   0.0264055095613,  -0.1679032146931,  -0.2252612560987,   0.1804791390896,   0.1754478812218,   0.1192537173629,   0.2487538158894,   0.1295396983624,  -0.2212410271168,   0.3804236948490,   0.0044609406032,   0.2265558391809,  -0.0468763150275,   0.0541705861688,  -0.0717164203525,  -0.0871686264873},
   {  -0.1005729287863,  -0.1157218515873,  -0.2178071737289,   0.0279931724072,  -0.1575182378292,   0.3049727082253,  -0.0096817873418,  -0.0104286028072,  -0.1256213337183,  -0.0080644199625,   0.0777294412255,  -0.3013021051884,  -0.1552356928587,  -0.2241948246956,  -0.0978095754981,   0.2086709141731,  -0.1098653003573,   0.3555912971497,   0.2240237295628,  -0.1257745176554,  -0.1076465100050,  -0.2362562865019,  -0.0973035991192,   0.1848750710487,   0.1064683869481,   0.1868512183428,   0.1164551153779,  -0.1675859540701,   0.1403659731150,  -0.0193964950740},
   {   0.2188136130571,   0.1655911058187,  -0.0969526246190,   0.0337356440723,   0.2558847963810,  -0.3880244493484,   0.2168052494526,   0.2336099594831,   0.0103831999004,  -0.1783390939236,   0.0337305180728,   0.2008330225945,  -0.0687376186252,   0.2350267469883,   0.3890200257301,   0.2225665003061,  -0.0520855598152,   0.1971149146557,  -0.1340574622154,   0.2352079004049,   0.0984414517879,   0.2609030306339,   0.2538554668427,  -0.1776578724384,  -0.1628227531910,  -0.0120566664264,   0.0529190599918,  -0.0713320150971,  -0.1236595883965,  -0.0249495767057},
   {  -0.1857916563749,  -0.1822492033243,  -0.2153507620096,  -0.3077097833157,  -0.0292372889817,  -0.1553748100996,  -0.2150325775146,   0.0803260132670,  -0.0988183617592,  -0.2394210398197,   0.0305472221226,  -0.0288482233882,  -0.2548051774502,  -0.0659224539995,  -0.0569634027779,   0.1912797987461,   0.2321818172932,   0.0876851007342,   0.1485420763493,  -0.2165977507830,   0.1178607866168,  -0.1176729872823,   0.1169625297189,   0.1449321657419,   0.0663479939103,  -0.1653686314821,   0.2162521481514,   0.0072000264190,   0.0818618461490,   0.2032870054245},
   {   0.0186874661595,  -0.1140882447362,   0.3331806659698,  -0.1859034299850,  -0.0710051357746,  -0.0665830671787,   0.2162034213543,   0.0136383716017,  -0.2182564288378,   0.2150979936123,   0.0147762894630,   0.1057938411832,  -0.3297087550163,  -0.2688436806202,   0.1284225583076,   0.4188513457775,   0.3140714168549,  -0.2974451780319,  -0.0542400851846,   0.2677161395550,  -0.3069618940353,   0.0377104990184,  -0.1487214714289,   0.2801940739155,   0.1651256978512,  -0.3669358491898,  -0.0201468095183,   0.4070132374763,   0.1217043101788,  -0.0396429896355},
   {   0.2272100746632,  -0.2695618569851,  -0.2355936914682,   0.3432507216930,   0.2704994380474,  -0.1549831777811,   0.0331911630929,  -0.1863647401333,  -0.1527547985315,  -0.1900360584259,   0.2673609554768,   0.1038807779551,   0.3379841148853,   0.1010613963008,   0.3433852493763,  -0.0744858384132,  -0.1582422852516,   0.3162827789783,  -0.1537801474333,   0.1650262624025,   0.1123473793268,  -0.0704586878419,   0.3015272617340,   0.3230689764023,  -0.2510396540165,   0.0798114910722,   0.1210856214166,   0.3209831416607,  -0.2917709350586,   0.0523952469230}};
  const float bias_1[30] = {   0.1493048220873,   0.0304385516793,   0.0240768361837,   0.1700832843781,   0.1187236458063,   0.0895473957062,   0.0323831029236,   0.0173932518810,  -0.0129757141694,   0.1713453978300,   0.0711921378970,   0.1266684383154,   0.0889707729220,  -0.0890241116285,   0.0354136638343,   0.0716811418533,   0.0967249572277,   0.0098735298961,   0.0694561749697,   0.1410100609064,  -0.0265631955117,  -0.0014393315651,   0.0441017486155,   0.0303533114493,   0.0583739466965,  -0.0798493176699,   0.2085468471050,   0.0535604581237,  -0.1234236434102,   0.0271442607045};
  // Declare the arrays in the stack
  const float kernel_2[30][30] = 
  {{   0.3076990842819,   0.0473559536040,   0.1331239789724,  -0.1348023712635,   0.0059185270220,   0.0732480809093,  -0.1861466169357,   0.0780968740582,  -0.3010495305061,  -0.1916712820530,   0.1863239854574,   0.0036200701725,   0.0248021539301,  -0.0892392024398,  -0.1247337684035,   0.0921277478337,  -0.1835581958294,  -0.1507811397314,  -0.2322507053614,  -0.2459496259689,   0.3174630701542,   0.3291605114937,  -0.1323596835136,   0.3302714228630,  -0.1527162790298,   0.3319769501686,   0.2699556052685,  -0.0355180911720,  -0.0938763692975,   0.0953864902258},
   {   0.2978568673134,  -0.1290707290173,  -0.2494508475065,   0.1452421844006,  -0.0438515543938,  -0.2431403249502,   0.0625606104732,   0.2087657600641,  -0.1648334562778,   0.0317848660052,   0.1590185910463,   0.2123576402664,   0.1438668668270,   0.2417441457510,  -0.1914047002792,  -0.3141551613808,   0.1496592611074,  -0.1777874827385,   0.3220300078392,   0.0490074008703,   0.2644374668598,  -0.2233449518681,  -0.0235511250794,  -0.1695195734501,  -0.1585163921118,   0.1310350298882,   0.2731617391109,  -0.1016653180122,  -0.1556520909071,   0.1872494816780},
   {  -0.1402907371521,  -0.0222126692533,  -0.2291179150343,   0.2375717908144,   0.1989284604788,   0.1828016787767,  -0.0196315702051,   0.1274795532227,  -0.2164132446051,   0.0044240825810,   0.2881944179535,   0.2293266952038,  -0.2409057319164,   0.0318650603294,   0.0747883766890,   0.1837150454521,   0.2330684363842,  -0.2284812182188,  -0.0334740877151,  -0.3862014710903,   0.0857782810926,  -0.1913009583950,   0.0789117664099,  -0.0533014126122,   0.2528345882893,  -0.0172275807709,   0.0078487945721,   0.0670001804829,   0.1317018568516,   0.3251768946648},
   {   0.0619455501437,  -0.1162944510579,   0.0900073796511,  -0.1482359766960,  -0.2051282972097,  -0.1250219792128,  -0.0364572778344,  -0.1522462964058,   0.2711111605167,   0.2477940618992,   0.2106128334999,   0.1007617115974,  -0.3345179259777,   0.0977753549814,   0.0223800558597,   0.3705424368382,  -0.0343331098557,  -0.2479703724384,   0.0093871885911,  -0.1099885404110,   0.0766730830073,  -0.2520926296711,  -0.3335221409798,  -0.0702890902758,   0.3185069262981,   0.0854545310140,   0.1584294140339,   0.2535535097122,   0.0868553072214,   0.1548694819212},
   {  -0.2214424163103,   0.2555017471313,   0.2111084461212,   0.0283352788538,   0.1561034768820,  -0.1852333545685,  -0.1772785037756,   0.0619008652866,   0.1721213757992,   0.1008536145091,   0.2525193095207,  -0.0257802121341,   0.1534255743027,   0.1348791420460,   0.3639476597309,  -0.1868454068899,   0.2618125975132,  -0.1243033930659,   0.0934470891953,  -0.0989768877625,  -0.1240820661187,   0.0155676957220,   0.2335928678513,   0.3500340282917,   0.1094700694084,  -0.2838016152382,   0.0516123510897,   0.3025224804878,  -0.0092496220022,  -0.1171366944909},
   {   0.2504180669785,  -0.0570982508361,  -0.0222203247249,  -0.0303475726396,  -0.0459907427430,   0.0665774717927,   0.3062612712383,   0.4515924155712,  -0.0657307580113,   0.2485452145338,  -0.1207548677921,   0.2524614632130,   0.0847698077559,   0.1567990928888,  -0.2151297181845,  -0.0469988062978,   0.0004519605718,   0.3282095193863,  -0.3436926603317,  -0.0621831566095,   0.3217750787735,   0.2715768814087,   0.2162565737963,   0.1248112097383,  -0.0898063778877,   0.0115995984524,  -0.0617935732007,   0.0939506143332,   0.3159051537514,   0.3314653038979},
   {  -0.1415809988976,   0.0812231227756,  -0.2515898644924,   0.1094620674849,   0.2858808636665,  -0.2156593799591,  -0.1146957799792,  -0.1467353552580,  -0.0411371998489,  -0.2498642206192,  -0.0304446164519,  -0.1554509997368,  -0.1439709961414,   0.0759362652898,   0.1281824111938,   0.0355336479843,   0.1836939007044,   0.2860540151596,  -0.0752206966281,   0.2221097499132,  -0.2083224803209,  -0.0851079300046,   0.3287018537521,  -0.2140215337276,  -0.0788595378399,   0.0958060920238,   0.1101858317852,   0.0682676210999,   0.0684623569250,  -0.2800787389278},
   {   0.2281520813704,   0.0891159698367,   0.2894554436207,  -0.2631932199001,   0.1410527378321,   0.0879292488098,  -0.0445012710989,  -0.0728327631950,  -0.0951792225242,  -0.2095650732517,   0.1507635265589,  -0.2055707871914,  -0.0448773503304,  -0.0867421254516,   0.1823481619358,  -0.0902984887362,  -0.1775019317865,   0.3246524333954,   0.3207072615623,   0.2761256396770,  -0.0788654461503,   0.1626059859991,   0.2246578931808,  -0.0344133675098,  -0.1069460362196,  -0.1175791844726,  -0.2174377739429,  -0.1413298249245,  -0.2084792852402,  -0.1324130743742},
   {  -0.0178063549101,  -0.0523003749549,  -0.0232779774815,   0.1996115148067,   0.1010334715247,  -0.3567335307598,   0.3198048770428,   0.2799415290356,  -0.0205412078649,  -0.1441895216703,   0.0589339062572,   0.2329732477665,   0.3190925419331,  -0.0467908233404,   0.0288736317307,   0.0010414493736,   0.0729796737432,  -0.1471986472607,   0.1755659729242,   0.0847368240356,   0.2785029113293,   0.1590720713139,   0.0690548047423,   0.1752852201462,   0.1685912311077,   0.0110273109749,  -0.2231459170580,  -0.3068084120750,   0.4176453649998,   0.0063151172362},
   {   0.1625641286373,   0.1691785007715,  -0.2791948318481,  -0.2269954681396,   0.1871411651373,   0.1499785184860,   0.0431395955384,   0.3127351105213,   0.1998611837626,   0.1475396603346,  -0.2271902412176,   0.3504572510719,   0.1445746719837,  -0.3686929345131,   0.0562896281481,  -0.3332771658897,   0.1485763043165,   0.1997007727623,  -0.0496963895857,   0.1237283423543,   0.1613781005144,  -0.2576241791248,  -0.0395580455661,   0.1376990228891,   0.1222492530942,   0.2779511511326,   0.1516607105732,   0.0578924678266,   0.2376312315464,   0.1190695017576},
   {  -0.2324651479721,  -0.0137547319755,   0.0332212969661,  -0.2434289008379,  -0.0921230912209,  -0.2242378741503,   0.2622367441654,   0.1826205700636,   0.1387035101652,   0.0204767752439,   0.2850664258003,   0.0031784784514,  -0.1020772978663,   0.1782793402672,   0.1691889613867,  -0.0220456384122,  -0.0880158618093,   0.1222488284111,   0.2184968292713,  -0.1644923985004,  -0.2136132866144,   0.1501135379076,   0.3000571727753,   0.2792179882526,  -0.1166438236833,  -0.2082207947969,  -0.2734868228436,   0.2783965766430,  -0.0951631590724,   0.1660777479410},
   {  -0.0055461316369,  -0.1107911616564,   0.2862639427185,  -0.0459552146494,  -0.1567765325308,   0.0093759745359,   0.0465137213469,   0.0243674237281,   0.3322523832321,   0.3632816076279,   0.3398686945438,  -0.2288420200348,  -0.0918645486236,  -0.0250537879765,  -0.2454941719770,  -0.2833788692951,  -0.3178374171257,   0.1955927610397,  -0.1527465581894,  -0.1573496013880,   0.0000069956077,   0.2909067869186,  -0.0204596742988,   0.0639779791236,  -0.1965276747942,  -0.0642430633307,   0.3236007690430,   0.3269728720188,  -0.1137839928269,  -0.2003701031208},
   {   0.1887105107307,  -0.1861498653889,   0.1418941915035,   0.1127427369356,   0.0285129174590,  -0.1591199934483,  -0.2372659444809,   0.0351068153977,  -0.1213596314192,   0.3446657359600,   0.1596364825964,  -0.2223059535027,  -0.0076021677814,   0.2262160181999,   0.0367552265525,   0.2037838697433,   0.0203286930919,   0.3122063875198,   0.2702817022800,  -0.2104638665915,  -0.2401268184185,  -0.0990228801966,  -0.1953323930502,  -0.1914911717176,  -0.2478896677494,  -0.0579456649721,  -0.0976188182831,  -0.2031657695770,   0.1927099972963,  -0.1701020151377},
   {  -0.1976157426834,  -0.3459194600582,  -0.1992097198963,   0.0602458640933,  -0.3548071086407,   0.0722428336740,  -0.1828763335943,  -0.0008920908440,  -0.0609258636832,   0.1146131530404,  -0.0050064329989,   0.0971704572439,  -0.1633185446262,  -0.0714861080050,   0.1935411095619,  -0.2481507360935,   0.1331229954958,   0.0660869106650,   0.2431155294180,   0.2436526566744,   0.1268429160118,  -0.1865363866091,  -0.1755303889513,  -0.0395662821829,   0.0254939366132,   0.0250211823732,   0.2435625493526,  -0.1497600674629,  -0.1415800899267,  -0.2811484932899},
   {   0.0254072323442,   0.2048042863607,   0.1056464239955,  -0.1384161859751,  -0.3581443130970,   0.1481507718563,   0.2568915486336,  -0.2270732074976,   0.0791058018804,  -0.1369730830193,   0.1281748414040,  -0.1774639934301,  -0.2087780088186,  -0.0739721208811,  -0.0354665815830,   0.1104198172688,   0.2413205802441,   0.1492499411106,   0.0688349306583,  -0.0971872285008,  -0.0819438844919,   0.1678911000490,   0.2852883636951,   0.3089206516743,   0.3238644003868,  -0.0550587885082,  -0.2223314493895,   0.1523682326078,   0.0772938579321,  -0.1471562683582},
   {   0.2483157664537,  -0.2763608396053,   0.2833926081657,  -0.0490933060646,   0.3216771483421,   0.2253432720900,   0.1047634333372,  -0.2361374199390,   0.1639036983252,  -0.0722696110606,  -0.0004561276874,   0.1719178408384,  -0.0714163333178,   0.2296339273453,   0.1527761071920,  -0.3242149055004,   0.3272156715393,   0.2376590073109,   0.0233055949211,   0.1321461349726,   0.2515141665936,  -0.2073500603437,   0.3198606669903,  -0.2703607082367,   0.2494961172342,  -0.0329263322055,   0.1530639976263,   0.0420358031988,   0.1907397061586,   0.2138235569000},
   {   0.1254152357578,   0.0750979781151,  -0.2583856880665,  -0.1114504635334,  -0.1726110130548,   0.1683248877525,   0.2306104898453,  -0.1587692946196,   0.1866251528263,  -0.1652303189039,   0.0170168243349,   0.0434885472059,   0.2428886890411,   0.0193473845720,  -0.2521221041679,   0.0933441221714,   0.0895752906799,  -0.2440356165171,  -0.1530828177929,  -0.0038798961323,   0.2157011777163,  -0.2417818754911,  -0.2754372060299,   0.1185710057616,   0.2777046859264,   0.0266192145646,   0.2578193247318,   0.1340692043304,  -0.0087096272036,   0.1345203369856},
   {   0.1769468635321,   0.0380989499390,   0.1846297085285,   0.3272916376591,   0.1729419827461,   0.1544388085604,   0.0718022808433,  -0.1153212115169,   0.0385918766260,  -0.1886509209871,   0.1120071113110,   0.2302872985601,   0.1683529764414,   0.0847916901112,  -0.1032118275762,   0.2079662829638,   0.1246758475900,  -0.1353809535503,   0.1509741246700,  -0.3109802305698,  -0.1333249211311,   0.1794498115778,   0.0501795634627,  -0.2632473409176,  -0.2266824990511,   0.0901639238000,  -0.1407865881920,   0.3080591857433,   0.3292074203491,  -0.0448938570917},
   {   0.0691934227943,   0.0611408576369,   0.0872833579779,   0.1686234325171,  -0.1714799702168,   0.1911108493805,  -0.1262869536877,   0.2479136884212,   0.0951756089926,   0.1634752303362,  -0.0408117286861,   0.2254860401154,   0.3130744993687,  -0.3239834010601,  -0.0170499961823,   0.1939263939857,   0.2111108601093,  -0.4287766218185,  -0.0815896093845,   0.2795588672161,   0.1251083165407,  -0.0651276558638,  -0.0592711679637,  -0.0095726577565,   0.1170377880335,   0.0611746869981,   0.1890609711409,   0.1430598199368,   0.0441778078675,   0.1514057815075},
   {   0.0530163794756,   0.3053312599659,  -0.2645466625690,  -0.2397359907627,  -0.1683304458857,  -0.0291641280055,  -0.0336831510067,   0.3429712653160,   0.0702075213194,   0.1590122282505,   0.0508092902601,  -0.1176828667521,   0.0075389752164,   0.0110028171912,   0.1484070122242,  -0.1376557797194,  -0.1939407736063,  -0.1781105995178,   0.1271561086178,   0.1869009882212,   0.3223524093628,  -0.1283002346754,  -0.0126610165462,   0.2198063284159,   0.2328666895628,  -0.0744099915028,   0.0156919788569,   0.0296471286565,   0.0940669700503,   0.2369874864817},
   {   0.1998739838600,  -0.1604383289814,   0.3573990166187,  -0.0699551552534,  -0.2897098064423,   0.2050632238388,  -0.2824375629425,   0.0370808243752,   0.0945735350251,  -0.0718090608716,   0.0010886722011,   0.0139129143208,  -0.0701110735536,  -0.3915328085423,   0.1975110471249,   0.3827593326569,   0.0254576001316,  -0.1872195005417,   0.0348462723196,  -0.0147085478529,   0.3211609423161,  -0.2001850754023,  -0.0772143453360,   0.0091192992404,   0.0520381592214,  -0.0271401386708,  -0.0217328034341,   0.1861536204815,  -0.0146990157664,   0.2730237543583},
   {   0.0971863195300,   0.1510495096445,  -0.2399791181087,  -0.0078737568110,  -0.0167986135930,   0.1362798362970,   0.1849017888308,  -0.0509927198291,  -0.0803700685501,  -0.1517188847065,  -0.2622771263123,  -0.2125679552555,  -0.0055964239873,   0.0347668193281,  -0.2202599197626,  -0.1512833982706,  -0.1126896142960,   0.0422093495727,   0.0210167225450,   0.0349863618612,   0.1636471748352,  -0.1249118000269,   0.2481589615345,  -0.0416429713368,  -0.1862756311893,  -0.0484091490507,  -0.3470069169998,   0.1526067405939,   0.2328634113073,  -0.0991605594754},
   {  -0.0741202682257,   0.1389184296131,  -0.2446430772543,   0.3312977850437,   0.2826586067677,   0.3134872913361,   0.0362524874508,  -0.2005860358477,  -0.0579135157168,  -0.0564783737063,  -0.0378068573773,  -0.1287067681551,  -0.1993258148432,   0.2677381932735,   0.1585626751184,  -0.0931767895818,   0.1490028053522,   0.1824815571308,   0.2291660606861,  -0.1044575795531,   0.3285622298717,   0.2648008465767,   0.0073814974166,  -0.0854805111885,  -0.0047044563107,  -0.1324316114187,   0.0119082899764,  -0.0666646882892,  -0.0624172799289,   0.3131333291531},
   {   0.1407276839018,   0.1379407346249,  -0.1568184494972,   0.0854785740376,   0.0995666384697,   0.1099976822734,   0.2636213004589,  -0.0249909479171,  -0.2028291523457,   0.3179889321327,  -0.2048614770174,   0.0745833888650,   0.0264269616455,   0.0018195569282,  -0.1174490228295,   0.2181032449007,  -0.1315758526325,  -0.2230464369059,  -0.2614870369434,   0.1138955578208,  -0.1367232948542,   0.3158340156078,   0.2280706912279,   0.2535507082939,  -0.0787541046739,   0.2504229843616,  -0.0216627810150,  -0.1829342842102,   0.3350922763348,  -0.0274315588176},
   {   0.0405825786293,   0.1427404880524,  -0.0352143421769,  -0.0466684810817,  -0.3831023573875,   0.2637111246586,  -0.2375106960535,   0.2164407521486,  -0.2057545334101,  -0.0397158227861,   0.0714136585593,  -0.1074193418026,  -0.1788016557693,   0.1483352780342,  -0.5090919137001,   0.2496100366116,  -0.0756437182426,  -0.2863214612007,   0.2205442488194,  -0.3036019206047,   0.2442900091410,  -0.2925050854683,  -0.0243385918438,  -0.2968877255917,  -0.2762781977654,   0.0667857155204,  -0.0008300858317,  -0.2144909054041,  -0.0968476012349,   0.4070661365986},
   {   0.0391980111599,   0.0642789527774,  -0.1437238305807,   0.3092534840107,   0.1430184543133,   0.2207572162151,   0.0917983800173,   0.0565283857286,  -0.0948454737663,  -0.2643634974957,  -0.0790310800076,  -0.0010816425784,  -0.1671400368214,  -0.0540881231427,   0.0767819732428,  -0.2056836932898,   0.2447828352451,  -0.1533991843462,   0.1657956540585,   0.0046446863562,   0.2289156615734,  -0.2702209353447,   0.0691715627909,   0.1921985000372,  -0.1156102642417,  -0.2707886993885,  -0.1323269754648,   0.0806941539049,  -0.1486539989710,  -0.0867398902774},
   {  -0.1932851821184,  -0.2011961638927,  -0.0259351823479,   0.0434661619365,  -0.0458290986717,  -0.0050899125636,   0.2406547814608,   0.0976229459047,  -0.0616418793797,   0.0557592660189,   0.2025037258863,   0.2289917916059,   0.1210244894028,  -0.1729586571455,  -0.0660108327866,  -0.1751798838377,   0.2786639630795,  -0.1219885274768,   0.0799581930041,   0.1377626955509,   0.2018002718687,   0.2587368488312,   0.1132038012147,   0.1307132691145,  -0.2896901369095,   0.2857548892498,   0.2601875662804,   0.0462495014071,  -0.2828759849072,   0.0737508758903},
   {   0.1133041679859,   0.0708607584238,   0.0771837830544,   0.1469746232033,   0.0182401351631,  -0.0335573069751,  -0.2410928755999,   0.0267686937004,  -0.1376337558031,  -0.2792903482914,   0.1795758605003,  -0.2821366190910,  -0.0299455951899,  -0.3058898150921,   0.2253650426865,   0.1723917126656,  -0.1041344702244,   0.0980517342687,  -0.0211649686098,   0.2579234838486,  -0.1824143677950,   0.1300395578146,  -0.0012538061710,  -0.1830747872591,   0.1898733824492,   0.1382931768894,   0.1136205121875,   0.2357790470123,   0.3601959049702,   0.3087901175022},
   {  -0.3470427691936,  -0.0624668970704,   0.0931107029319,   0.0125646544620,  -0.2282865792513,  -0.2005625814199,   0.0290410891175,  -0.1270743906498,  -0.3145797252655,   0.0878333672881,   0.3396115899086,   0.1560691148043,   0.2271395176649,  -0.2103372514248,   0.3663981556892,   0.1993933022022,   0.3600358366966,  -0.1618272364140,   0.2741470038891,  -0.1677111685276,   0.1309593319893,   0.1122637987137,  -0.1175796240568,  -0.0438347049057,  -0.2291160374880,   0.0453800000250,  -0.1348961591721,  -0.1242412552238,  -0.0762350559235,  -0.3005777299404},
   {   0.0627015903592,  -0.0179204009473,   0.2827499508858,   0.1669705361128,   0.2458227276802,   0.1447994560003,   0.3093177378178,   0.3094671666622,  -0.1768248081207,  -0.0563841350377,   0.1236953511834,   0.1379749476910,   0.2810752391815,   0.2056744396687,   0.3209659755230,   0.2189026176929,   0.1891638040543,  -0.0821383669972,   0.1557869464159,   0.0120243551210,   0.1303370445967,   0.1780361235142,   0.2264280766249,  -0.0291075892746,  -0.2879323959351,  -0.1363218873739,  -0.0513016544282,  -0.0953394025564,  -0.1078140512109,   0.0492648221552}};
  const float bias_2[30] = {   0.0836297720671,   0.1138046458364,   0.0623727068305,   0.0306984893978,   0.0277847927064,  -0.0140998912975,  -0.0528685227036,   0.2157693654299,   0.1701327115297,   0.1043708398938,   0.0904436782002,   0.0384555719793,   0.0132457278669,   0.1441395580769,   0.0243466813117,  -0.0522689186037,  -0.0158595722169,   0.1015933379531,  -0.0212228372693,  -0.0632906258106,   0.1408526301384,   0.0338936299086,   0.0737961158156,   0.1090439110994,   0.0051318770275,   0.0133290793747,   0.1872492730618,   0.0275970865041,   0.0612742267549,  -0.1244212612510};
  // Declare the arrays in the stack
  const float kernel_3[30][30] = 
  {{   0.2652033865452,  -0.0400146655738,  -0.3514238893986,  -0.2478632926941,   0.0244190283120,  -0.1242681220174,  -0.0412486121058,  -0.0156862679869,  -0.0058203679509,   0.0549702756107,  -0.0767526254058,  -0.2543755769730,  -0.0223894026130,  -0.0037205656990,   0.1232838183641,  -0.2453923225403,   0.3083857297897,  -0.1438279002905,  -0.1613126993179,  -0.2338292151690,   0.0998442992568,   0.1486757695675,   0.1166347712278,   0.3075933158398,  -0.2248793989420,   0.2801491916180,   0.0570591464639,  -0.0212895926088,  -0.2251501232386,   0.3206700980663},
   {   0.0015705381520,  -0.2580918967724,  -0.0691755935550,   0.1813897043467,  -0.1087566241622,  -0.2385946363211,  -0.2479571253061,   0.0254994556308,  -0.3058543801308,   0.2706002891064,   0.0047873277217,   0.1813758164644,   0.1511590331793,   0.1404425948858,   0.2339218854904,  -0.3001119196415,   0.0739964619279,  -0.0277159046382,  -0.0054150158539,  -0.1225663945079,   0.2364754229784,   0.2157194912434,   0.2724466919899,   0.2142768502235,  -0.2737582623959,   0.1149161681533,   0.2133719623089,  -0.0265272818506,   0.1456373184919,   0.0798500329256},
   {  -0.1107804179192,   0.1519925743341,  -0.2665450870991,   0.0727561861277,  -0.2680565714836,   0.1339671611786,   0.0838659033179,  -0.0258017480373,  -0.1741091310978,   0.2654890120029,   0.0569538734853,   0.2672230899334,   0.0976711437106,  -0.2761985361576,  -0.1935362070799,  -0.1072378307581,   0.0494310222566,  -0.3134931623936,   0.2336295396090,  -0.0578742362559,   0.2136213034391,  -0.0937041714787,   0.0292893052101,   0.0091716833413,  -0.0989048629999,  -0.2786189615726,  -0.2099764049053,   0.2142279446125,  -0.1804923862219,  -0.2249720096588},
   {   0.0255335979164,  -0.0085620190948,  -0.0484247505665,  -0.2635500133038,   0.0594667084515,   0.1336676180363,  -0.1130871698260,  -0.0791946798563,   0.2011213153601,  -0.1687796860933,   0.0518175140023,   0.0945026651025,   0.1921139508486,  -0.2431270331144,  -0.1024046093225,  -0.1200409680605,  -0.0497878305614,  -0.1556940972805,  -0.1806396394968,   0.1038720831275,   0.1928911060095,  -0.2231716364622,   0.0234646201134,   0.1336323618889,  -0.2615530490875,   0.2795588374138,   0.1927773654461,   0.2616249918938,  -0.1103847026825,   0.1208041533828},
   {  -0.1117427647114,  -0.3635304570198,   0.1641100347042,  -0.3037046194077,  -0.0004416716110,   0.0168872047216,   0.0244407970458,  -0.1893164962530,  -0.0215482898057,  -0.3735020756721,  -0.0137862591073,  -0.2090371847153,  -0.0862870216370,  -0.0516785793006,   0.2021575272083,   0.4160102605820,   0.2238356769085,   0.0425159409642,   0.0060726506636,  -0.0331159979105,  -0.1093587055802,   0.1228617727757,  -0.3425896465778,   0.1154377013445,  -0.1239254474640,   0.0860824510455,   0.1451357752085,   0.2847369015217,   0.0442864224315,  -0.2388069182634},
   {  -0.2763051092625,   0.0675437971950,  -0.1694047003984,  -0.2480172961950,   0.1135479733348,   0.2865835726261,   0.3092123568058,  -0.2479432821274,   0.0490367896855,   0.2483022361994,   0.2935416102409,  -0.0879499912262,   0.2542022764683,   0.0952165722847,  -0.2021235227585,   0.0084076998755,  -0.0790279135108,   0.0845886096358,  -0.0316810607910,   0.0718736425042,   0.2128177285194,  -0.0666442662477,   0.2305820137262,   0.0342445746064,  -0.1475659608841,  -0.1458551138639,   0.0093525834382,   0.2077937722206,  -0.0814851149917,  -0.1008055135608},
   {   0.0294660907239,  -0.0052807102911,   0.1309236139059,  -0.0612444765866,  -0.0014132434735,   0.0864410847425,   0.2869027256966,   0.1349323093891,  -0.2668931484222,  -0.2966200113297,   0.2572603225708,   0.2665603458881,   0.2796424627304,   0.0413589030504,  -0.0146901076660,  -0.2178813517094,  -0.2746632397175,  -0.2385962605476,   0.0544744767249,  -0.2418143302202,  -0.0070719379000,   0.0480881705880,   0.1089518144727,  -0.1412473917007,   0.3178210258484,   0.3364962637424,   0.1074190661311,  -0.2658064663410,   0.3521015644073,  -0.0417050756514},
   {  -0.0853063389659,  -0.1772283315659,   0.1693065315485,   0.2153190821409,  -0.0717778205872,   0.1119021475315,  -0.1109499484301,  -0.3109913766384,  -0.2649823427200,   0.3143990933895,   0.0976034253836,   0.0783001184464,  -0.2174160927534,   0.0591658242047,   0.1060570627451,   0.2114607989788,   0.0122942840680,   0.1755239069462,   0.0645082592964,  -0.2144869863987,  -0.1375613361597,   0.1114764213562,   0.2277707904577,  -0.1731241792440,   0.3036063015461,   0.2221498340368,   0.2705364227295,  -0.1246517971158,   0.0208624042571,   0.1747901439667},
   {  -0.0249212607741,   0.3144183754921,   0.2892020642757,   0.0680103227496,  -0.1192246004939,   0.1127282157540,   0.2802500426769,  -0.1995708197355,   0.0949139893055,   0.0544075779617,  -0.3000877499580,  -0.2361478060484,  -0.4200137853622,  -0.0249306652695,  -0.1925990730524,   0.2674586474895,   0.1127344742417,   0.0155761493370,   0.2198325544596,  -0.2112634032965,  -0.2510640323162,  -0.3376008272171,  -0.0455513000488,   0.1678378731012,   0.1514180600643,   0.2335817515850,  -0.3378735184669,  -0.1090472936630,  -0.1051176115870,  -0.1671705096960},
   {   0.1875640153885,   0.2791370153427,   0.0101804221049,   0.3520101010799,   0.2582967579365,   0.2450606822968,  -0.2851177453995,  -0.2385654151440,   0.2212682217360,   0.1733483821154,  -0.2710545063019,   0.0955365076661,  -0.1077073439956,   0.2582969665527,   0.0400955714285,   0.3697110116482,  -0.0823947265744,  -0.2518691420555,  -0.1023513525724,   0.3061820566654,   0.1545736938715,   0.0969961509109,  -0.0908526778221,   0.0590998157859,  -0.1763671040535,  -0.0912295654416,   0.2546054124832,  -0.1651002913713,   0.1391235589981,   0.3298501074314},
   {   0.1297081708908,   0.1911030709743,   0.1536795049906,  -0.0846909061074,  -0.2568562924862,  -0.2334708869457,  -0.1639644205570,   0.1963041275740,   0.2171038538218,   0.0799227431417,   0.2128058820963,  -0.2477198988199,  -0.2692548632622,  -0.1478301435709,  -0.2188317626715,   0.2655300498009,   0.0882729142904,  -0.2696660757065,   0.2473339736462,   0.2396180778742,  -0.0363096594810,  -0.2857925295830,  -0.0999493077397,  -0.1336780488491,   0.2126809209585,  -0.0805557072163,   0.2542909085751,  -0.2585023939610,  -0.1636497974396,   0.2865975499153},
   {  -0.1949702203274,  -0.0094767240807,  -0.1452442407608,  -0.1192925423384,  -0.3801555037498,   0.3135395050049,   0.2365699559450,  -0.1629468202591,  -0.0299481227994,   0.1886862665415,   0.1853585392237,   0.1548617780209,   0.0441467091441,  -0.0787462890148,  -0.0719246119261,  -0.0913906991482,  -0.1468339562416,  -0.0464873388410,   0.2051386386156,  -0.0470149293542,   0.1362542957067,  -0.0736490115523,  -0.1776519119740,   0.1200833916664,   0.0999172553420,   0.2736467719078,   0.0295331720263,  -0.0256337951869,   0.2104711532593,   0.0722266808152},
   {   0.1757822483778,  -0.1116737276316,   0.0870445892215,  -0.0766534060240,  -0.1781427562237,   0.3576779067516,   0.1848484277725,   0.1140109673142,  -0.3950494527817,  -0.2154931277037,   0.0491926930845,   0.0716226324439,  -0.0133597701788,  -0.1364316642284,   0.0292492639273,   0.0067400839180,  -0.2695656418800,  -0.0631764009595,   0.2273877859116,  -0.1808181405067,   0.3517539501190,  -0.1218828111887,  -0.0819659680128,  -0.2058162838221,   0.0967720746994,  -0.0243216808885,   0.1563358306885,   0.0310129243881,   0.3196739852428,   0.1092647165060},
   {  -0.2937928736210,   0.1860175430775,  -0.2914012968540,   0.2957946360111,   0.0082230512053,   0.0209537185729,  -0.1161768138409,   0.1929584890604,   0.2233419865370,   0.1726935058832,  -0.0954423248768,  -0.1808119863272,   0.2582284510136,  -0.0862505063415,   0.3610133230686,   0.3383535146713,   0.1369435340166,  -0.2901394069195,  -0.2975209653378,   0.3042112290859,   0.0100659495220,   0.2263782918453,  -0.4168988168240,  -0.2389006167650,   0.1170876473188,   0.1814741939306,  -0.0706239715219,  -0.1386878788471,   0.0979124978185,  -0.0783900395036},
   {  -0.1018652170897,  -0.2939563393593,   0.2494859844446,  -0.1548859328032,   0.1524439454079,   0.2233247756958,   0.2558861076832,   0.2815194725990,  -0.2025793194771,   0.1631300151348,  -0.0715064853430,   0.2727199494839,   0.2256533056498,   0.0671187117696,  -0.2293259054422,   0.2962429225445,  -0.1941344439983,  -0.2414709925652,  -0.1474530845881,   0.3383328616619,  -0.1595693677664,   0.0272085797042,  -0.0923317149282,  -0.1230503395200,   0.1021169275045,  -0.2544520199299,  -0.0249807834625,  -0.2794272303581,   0.1500893682241,  -0.0785635113716},
   {   0.0022361297160,   0.1113276481628,  -0.1684891730547,   0.0181435327977,  -0.2625168561935,   0.2011825591326,   0.2268944382668,   0.0994345843792,  -0.1275709122419,   0.2505474388599,  -0.0752201527357,  -0.1478402018547,  -0.1863586604595,  -0.0797061249614,  -0.4503172338009,  -0.1601112335920,  -0.2980928122997,  -0.0707980394363,   0.2657643258572,  -0.0763241052628,  -0.1373224109411,   0.0767313018441,  -0.1817719936371,  -0.2435745447874,  -0.1654216200113,  -0.2141299247742,   0.2831739187241,  -0.2773939669132,  -0.0832417458296,   0.1271755695343},
   {  -0.2944419384003,  -0.0021009037737,   0.0945751741529,  -0.2079010903835,  -0.0329853408039,   0.0750309377909,   0.0690294355154,   0.2128168493509,  -0.2378226369619,  -0.1542254984379,  -0.0610799454153,  -0.2096029222012,   0.0431391038001,  -0.0522417388856,  -0.2017954736948,  -0.1910152137280,  -0.2466272562742,   0.0032741113100,   0.3218622803688,   0.1609121114016,  -0.0428836718202,  -0.1653024256229,  -0.1492515653372,  -0.1853600442410,   0.2066854387522,   0.1043598800898,  -0.0960486903787,   0.1769695729017,   0.2428051233292,  -0.0048955157399},
   {  -0.1788464188576,   0.2168712615967,   0.0963079556823,  -0.2189516425133,   0.1171195060015,   0.0333267040551,  -0.0997670590878,  -0.1680646985769,   0.0991602092981,   0.2136892527342,  -0.1300368458033,   0.0869517251849,  -0.0854552239180,  -0.3368857204914,   0.3528565168381,   0.1432406604290,   0.0531922839582,   0.2371460944414,  -0.0183348860592,   0.2470962405205,  -0.0617150887847,   0.0663423463702,   0.3931472599506,  -0.2961184084415,   0.2499197721481,  -0.0442951284349,   0.1953637748957,   0.2647086977959,   0.0482242256403,   0.2539452016354},
   {   0.0801340863109,  -0.1899727433920,   0.0813081488013,  -0.1580362021923,   0.1339025050402,   0.1862445622683,   0.1207227781415,  -0.1860532015562,  -0.1386087536812,  -0.1708598136902,   0.2600988149643,  -0.1107803061604,  -0.1339611113071,   0.2126634269953,   0.1694538146257,   0.0344135463238,   0.0454487092793,   0.1118656918406,   0.0974975153804,  -0.0614611543715,   0.2735913991928,  -0.1331494897604,   0.0389608852565,   0.0521417409182,  -0.1338270157576,  -0.3014049828053,   0.0014850125881,  -0.0494112595916,   0.0272101536393,   0.1604655534029},
   {  -0.2577361464500,  -0.2537953853607,   0.0346826650202,  -0.1775030344725,  -0.0662391856313,   0.1550099700689,   0.0619083084166,  -0.1609709560871,   0.2253150939941,  -0.2233756780624,   0.1464082151651,   0.3060801327229,  -0.0954931899905,   0.2812162637711,  -0.0950490385294,   0.0694590434432,  -0.0826376602054,   0.2092511057854,  -0.0423080325127,  -0.0917221382260,  -0.1924942582846,  -0.0331946909428,  -0.1495341062546,   0.2665026485920,   0.1116644367576,   0.2012396454811,  -0.0827329531312,  -0.2680562734604,   0.0642051994801,  -0.1008005142212},
   {  -0.0257497858256,   0.2752826511860,   0.1594660580158,   0.2956811785698,  -0.2636779844761,   0.0218436382711,   0.1978413611650,  -0.2230931371450,   0.1960459798574,   0.0655384883285,  -0.0669981539249,  -0.2137258946896,  -0.3274563848972,   0.1977829188108,   0.2442848682404,  -0.0092478860170,   0.3235963582993,   0.0539625547826,   0.1144255548716,   0.1323555409908,   0.2237481176853,  -0.1923139095306,   0.2687762379646,  -0.2299957424402,   0.1515623778105,   0.1288221180439,  -0.0002518038091,   0.0538070015609,   0.1932911723852,   0.2788434028625},
   {   0.2254016548395,   0.0830593481660,  -0.0840119272470,   0.1509528756142,  -0.1031638979912,   0.0722059458494,  -0.1758188903332,  -0.1334133744240,  -0.3005560338497,  -0.1664289236069,   0.2354957908392,   0.0032161371782,  -0.0769336372614,  -0.1526294052601,  -0.2326807379723,  -0.0622713379562,  -0.0708535537124,   0.1478909254074,   0.1383369415998,   0.3189456760883,   0.1685905605555,  -0.2683716714382,   0.1475386470556,   0.1690530478954,  -0.1986390203238,  -0.0767518505454,  -0.1770377904177,   0.3527384102345,   0.3463908135891,  -0.0656812712550},
   {   0.1856620609760,   0.0608852915466,  -0.0052522462793,   0.2604223489761,  -0.2734051942825,   0.1122172772884,   0.0617995746434,   0.1361716389656,   0.0715506747365,  -0.1179434657097,  -0.2083158344030,  -0.2195224612951,  -0.0134143820032,  -0.0642688050866,  -0.0892349854112,  -0.1614982783794,   0.1280982643366,   0.2456670552492,  -0.1828404963017,   0.3094009459019,   0.2694545388222,   0.1919614225626,  -0.3003323376179,   0.0233078375459,  -0.2225497215986,   0.0219680573791,   0.1004303991795,  -0.1074876263738,  -0.2328293472528,   0.1963365972042},
   {   0.2943378686905,   0.2006528228521,  -0.2633641958237,  -0.0099461236969,   0.1522254794836,  -0.1222189441323,   0.1631553918123,   0.1722095161676,   0.1914373040199,   0.2264462262392,  -0.1825372725725,  -0.1818100512028,   0.1647533178329,   0.1818624436855,  -0.2569832801819,   0.2767454981804,   0.1548133194447,  -0.0781078785658,   0.1656555682421,   0.1415166407824,   0.2301435768604,   0.1617902517319,  -0.2817831337452,  -0.2019855231047,   0.2954844534397,  -0.1143282651901,  -0.2112169116735,  -0.0653965473175,   0.0535670928657,  -0.0771895498037},
   {  -0.1969254612923,  -0.1321944296360,  -0.1459569334984,  -0.1022141575813,   0.0245262570679,   0.0320986919105,  -0.0696122646332,  -0.1915884315968,   0.1996037960052,  -0.2022109031677,   0.3035679459572,   0.0290965139866,  -0.1727112233639,   0.1253489851952,   0.2363464385271,  -0.2468971014023,   0.0955160930753,  -0.1362665146589,  -0.0704569369555,   0.1629655808210,  -0.0517279952765,  -0.0768102928996,  -0.1903314888477,  -0.3337616920471,  -0.0956845954061,   0.1777063012123,   0.0115879885852,   0.1285444796085,   0.2763447165489,   0.2025364339352},
   {   0.3259201645851,   0.2170778065920,  -0.3471783399582,  -0.1565831452608,   0.1822994351387,   0.0706914737821,   0.1994734853506,  -0.1989812105894,   0.1552362740040,  -0.1986377686262,   0.0466674640775,  -0.2831272184849,  -0.2984030544758,  -0.0355748645961,   0.0224763900042,  -0.0389910675585,   0.0972919836640,  -0.0768376663327,   0.2324022054672,  -0.0661558881402,   0.1257122159004,  -0.0698755010962,   0.2585748434067,   0.1836802959442,   0.0313835479319,  -0.0138476230204,  -0.2401749044657,  -0.1826456487179,  -0.1208681464195,   0.1483699530363},
   {  -0.1511708348989,  -0.0025272406638,   0.1442722231150,   0.1281037330627,  -0.0185160338879,  -0.1589705646038,   0.2717054486275,  -0.0596118941903,  -0.2445075064898,   0.1891889572144,   0.0376941002905,  -0.0830830335617,  -0.3508624136448,  -0.0021275046747,   0.1709565371275,  -0.0022453279234,   0.3658817708492,  -0.0342733748257,   0.1435971707106,  -0.0196311678737,  -0.0161734316498,  -0.0004418900062,   0.1673723608255,   0.1880108714104,   0.1170332804322,   0.0861515849829,   0.2244840115309,  -0.2503942251205,   0.0508275702596,   0.0781142711639},
   {   0.2387138605118,   0.2495377361774,  -0.0921661555767,   0.3623849451542,   0.0098831290379,   0.0268217641860,   0.0312137473375,   0.1634484380484,   0.2806693017483,  -0.0722876191139,   0.2777910828590,  -0.2106994241476,   0.1176320984960,  -0.1492440849543,  -0.0734307840466,   0.2145659327507,  -0.0327208749950,  -0.1435350924730,  -0.2688967287540,   0.1595530509949,  -0.0184069499373,   0.1407029777765,   0.0073809996247,  -0.2227721959352,  -0.2275462746620,  -0.0700373351574,   0.0655933320522,  -0.3998892009258,  -0.0812937617302,   0.3694815337658},
   {   0.3379980027676,   0.2080093026161,  -0.2891342043877,  -0.2496434599161,   0.2754371166229,   0.2184215635061,  -0.2224560678005,  -0.2045661509037,  -0.0958857759833,  -0.0678454488516,   0.1823995113373,  -0.1298224329948,   0.3075543344021,   0.0393772944808,   0.0377576053143,   0.2626347839832,   0.2391564846039,  -0.0899831578135,  -0.0019303853624,   0.2290306389332,  -0.2498485147953,   0.1940954923630,   0.2310643643141,   0.2291135042906,  -0.0676212161779,   0.3033490180969,   0.3566005825996,  -0.1858373135328,  -0.0820165723562,   0.1208175644279},
   {  -0.1125645115972,   0.1813066154718,   0.1854547113180,  -0.2832680940628,  -0.2918712496758,  -0.0001608587481,   0.0766024217010,  -0.2452081590891,   0.2324312329292,  -0.2587448954582,  -0.0575995333493,  -0.2915416657925,   0.1054810434580,   0.3300524353981,  -0.0206083152443,   0.0118405772373,   0.0472748354077,   0.1544098109007,  -0.2509286999702,  -0.1656159013510,  -0.2742169201374,   0.1749393492937,  -0.0113556729630,   0.1132050082088,   0.2443149834871,   0.3466452062130,   0.1598168164492,   0.1076098605990,  -0.0828059837222,  -0.1045747175813}};
  const float bias_3[30] = {   0.0732847005129,   0.0049354280345,   0.0437159873545,   0.1265896111727,   0.0479514710605,  -0.1131913214922,  -0.0480663813651,   0.0697349756956,  -0.0820303484797,   0.1360308378935,  -0.0737786293030,  -0.0076275076717,   0.0039465860464,   0.1101903021336,   0.2069987654686,   0.0193928647786,   0.0528187565506,   0.0184885840863,   0.0432499498129,   0.0500447638333,   0.0672449246049,   0.0220956951380,   0.0760400965810,   0.0312293507159,  -0.0408535301685,  -0.0332178436220,   0.1015719100833,   0.0324869491160,  -0.0415695607662,   0.0684278681874};
  // Declare the arrays in the stack
  const float kernel_4[30][30] = 
  {{  -0.0301215704530,   0.1325753778219,  -0.3057919144630,   0.0161030981690,   0.0814970880747,  -0.0259257052094,  -0.2643585503101,   0.2376568168402,   0.0092033967376,  -0.0674595162272,   0.1914495974779,  -0.0017944159918,   0.2564905583858,   0.0221373960376,  -0.0039605624042,   0.0312521681190,  -0.2070702165365,   0.2861596941948,  -0.2398960292339,   0.3237116038799,  -0.3597723245621,   0.1610538512468,  -0.0545647665858,   0.0124615915120,   0.3072966635227,   0.1951828449965,  -0.0063847727142,  -0.0032670400105,   0.1485102474689,  -0.2275141030550},
   {  -0.1011190861464,   0.0923321098089,  -0.2472154796124,  -0.0288210306317,   0.0774354189634,  -0.1785480976105,  -0.1570233404636,  -0.1361811459064,  -0.1138320788741,   0.1051550507545,   0.1175656020641,   0.1489607542753,   0.3139866590500,  -0.1300992518663,  -0.1398564428091,   0.1515452414751,  -0.2119853496552,   0.2832218110561,   0.0424891859293,   0.2530703246593,  -0.0167521741241,   0.1894312947989,   0.3030953109264,   0.2359959483147,   0.1311432570219,  -0.0834888443351,  -0.0977118387818,   0.3117100298405,  -0.1937747448683,  -0.0945520102978},
   {  -0.1051474511623,  -0.0939444079995,   0.0885571986437,   0.2682668864727,   0.0693991407752,   0.2998667061329,   0.2494895160198,  -0.0082429023460,  -0.0236077308655,  -0.0308340974152,  -0.0217478144914,   0.1968876123428,  -0.1843565404415,   0.0826357081532,  -0.2473563998938,  -0.3566028475761,  -0.1096782162786,  -0.0493604168296,   0.0300648715347,  -0.0260832142085,  -0.1947452872992,  -0.0705999433994,   0.1666299551725,   0.6100726723671,   0.0786060690880,   0.2022381722927,  -0.2669478952885,   0.1097340136766,   0.0826312005520,   0.0448900014162},
   {   0.0507899448276,  -0.1443383991718,   0.1255080848932,   0.2973152101040,  -0.1166372895241,   0.4862227737904,  -0.0234418213367,   0.4407291710377,   0.2097023725510,  -0.2089490294456,   0.4143807888031,   0.0736960545182,  -0.3875653147697,   0.0283046793193,  -0.3673448562622,   0.2808493375778,  -0.3331480324268,   0.0322288833559,  -0.0941516086459,  -0.1812770217657,   0.2871801555157,  -0.2539487183094,  -0.1665408015251,   0.0167281553149,  -0.0456653572619,   0.4847891032696,   0.0131632983685,   0.2145546078682,  -0.3036061525345,  -0.3905211389065},
   {   0.0397629700601,  -0.0578666217625,  -0.0627498999238,   0.0649559125304,   0.2262087762356,   0.0518766045570,   0.0910728275776,   0.2646942138672,   0.0742058083415,   0.2148491442204,   0.1312764883041,   0.0617735311389,  -0.2021909803152,   0.2744949162006,   0.0778392478824,  -0.0291447378695,  -0.3537478446960,   0.0088676353917,   0.1759150177240,   0.0126571245492,   0.1632899194956,   0.2117609530687,   0.3544802665710,   0.0100857745856,   0.3363325297832,  -0.0038725598715,   0.2740012705326,  -0.1735511571169,   0.0159095861018,  -0.2493214607239},
   {  -0.0564350076020,  -0.2286774516106,  -0.2766492664814,  -0.2490088045597,  -0.0548101626337,  -0.1900793313980,   0.1709289401770,   0.2451413720846,  -0.2775386869907,   0.2768868505955,   0.0762737542391,  -0.1734734624624,   0.1515206694603,  -0.0438615791500,   0.1929471939802,   0.0775767788291,   0.2145264446735,   0.2334889471531,   0.0701963379979,   0.0108665777370,  -0.2248623967171,   0.2021145075560,  -0.2279858738184,   0.1165024191141,   0.2736150622368,  -0.1907693743706,  -0.1986066848040,   0.3256584703922,  -0.1504601091146,   0.0244707167149},
   {  -0.1942617297173,   0.1089943572879,   0.2213455885649,  -0.0175249967724,   0.2577357292175,  -0.1454188972712,  -0.3227159976959,  -0.3771086037159,  -0.2700799405575,   0.0887499228120,  -0.2558394074440,  -0.3240606784821,  -0.0095945475623,  -0.3672811686993,   0.2029803395271,  -0.2003854215145,  -0.0482098646462,   0.0509632192552,   0.1984845548868,   0.2421161383390,  -0.2245892882347,  -0.0533391535282,  -0.2423932850361,  -0.3067175745964,   0.1266066282988,   0.0622354969382,   0.0164559632540,   0.2787930071354,   0.3099185824394,   0.2763530015945},
   {   0.3115891218185,   0.2243667542934,  -0.0779532417655,  -0.2566654682159,  -0.1330621540546,   0.0717237740755,   0.0042405198328,  -0.2068720608950,   0.0553282164037,  -0.0132091185078,  -0.1175207123160,   0.0220069028437,  -0.1948918104172,  -0.0378207452595,   0.1658220887184,  -0.0072260536253,   0.0473227500916,  -0.0399971082807,   0.0259252358228,   0.0788018554449,   0.0143744628876,  -0.1442035734653,   0.0620319172740,  -0.2011620253325,  -0.0074664857239,   0.2523377835751,   0.3125951290131,  -0.3349773883820,   0.2525631189346,  -0.2436797022820},
   {   0.1483968794346,  -0.3336974382401,   0.1209911927581,  -0.0536537319422,  -0.1306111067533,   0.2417996972799,   0.1263273209333,  -0.1396506428719,   0.0727282911539,   0.3025804758072,  -0.2220061272383,  -0.2396979629993,  -0.0909602791071,  -0.0480083897710,   0.2224272489548,  -0.0550989471376,   0.0801540315151,  -0.1549234986305,   0.1957454234362,   0.0204409267753,   0.1617694050074,   0.1889229267836,   0.1143037378788,  -0.2259440720081,  -0.2199237793684,  -0.1949815005064,   0.0769212543964,  -0.2336206436157,  -0.2654082179070,   0.1230722814798},
   {  -0.3539855182171,   0.3382021784782,   0.1164048537612,  -0.1271196901798,  -0.0501785092056,   0.4460332989693,  -0.2550687193871,  -0.0734190121293,  -0.0692018419504,  -0.3520444035530,   0.3376982808113,   0.3707649707794,  -0.0908203199506,   0.3319198191166,  -0.0446147806942,   0.4378321468830,  -0.2860996723175,  -0.2326047122478,   0.1821810752153,   0.2276130914688,  -0.1475957036018,  -0.0943382158875,  -0.2041483521461,  -0.0825745910406,  -0.1617915928364,  -0.1872812062502,  -0.2196938544512,   0.2074924111366,  -0.3239425718784,  -0.2617135643959},
   {   0.2874928414822,  -0.1416123658419,   0.2633414566517,   0.0716133415699,  -0.3077465593815,   0.1549832671881,   0.2356404066086,  -0.1713093072176,  -0.2564835846424,   0.3055543303490,   0.3164476752281,  -0.0649155676365,   0.1902174949646,  -0.0752677768469,   0.2855252921581,  -0.0514726974070,   0.2213717550039,   0.2041229456663,  -0.0291740726680,   0.2581760287285,   0.2980183660984,   0.2457109838724,  -0.1104555949569,   0.1737386286259,   0.2603585422039,  -0.2938381433487,  -0.0559941194952,  -0.2360107004642,   0.2902685105801,   0.2106613218784},
   {   0.1591676026583,   0.0781570449471,   0.1765185892582,  -0.1620297431946,  -0.1855772882700,   0.0373648814857,  -0.2515237629414,  -0.2859786450863,   0.1993651688099,   0.2759037017822,   0.0108685335144,   0.1213406622410,   0.0703907161951,   0.1216596513987,  -0.2937979698181,  -0.1544437557459,   0.0795450434089,   0.1284512877464,  -0.0440016351640,   0.1741755902767,   0.2617026865482,  -0.1764129549265,  -0.1519659012556,  -0.1691226959229,   0.2876212894917,   0.0057139312848,  -0.2370486110449,   0.0542288757861,  -0.2661560475826,  -0.2423828244209},
   {   0.2521897554398,   0.2787959575653,   0.2678225338459,   0.0853748172522,   0.0834347307682,  -0.0126036377624,   0.0326420627534,   0.3111766576767,   0.1135136336088,   0.1996697038412,  -0.0292487926781,  -0.1955744177103,  -0.2030339986086,  -0.2421411871910,  -0.3337029218674,   0.0929489359260,  -0.2361803948879,  -0.3238695263863,  -0.1243439391255,  -0.2645773291588,  -0.0080253090709,   0.0694219022989,  -0.3339032232761,   0.3388155102730,  -0.1614252924919,   0.3109082281590,   0.3106406033039,  -0.0735913068056,  -0.2679328620434,   0.0146710313857},
   {   0.3360285162926,  -0.2711771130562,   0.0913895741105,  -0.1232845857739,   0.2913230061531,   0.0824507400393,   0.2596737146378,   0.2135329097509,  -0.2715044021606,  -0.0441239811480,   0.1218267977238,   0.1759369075298,   0.0607850253582,   0.2703203260899,  -0.3551004827023,  -0.0517777577043,  -0.1634351015091,   0.1401862055063,   0.3205427527428,  -0.3658815920353,  -0.0738359391689,   0.1684217900038,  -0.0889375358820,  -0.2735599279404,  -0.1453402638435,  -0.0337519049644,   0.2920073568821,   0.1511164307594,   0.0870804339647,   0.1668008863926},
   {  -0.0230697076768,  -0.2136127650738,  -0.3106648623943,  -0.1596140712500,   0.2511864006519,  -0.1636308282614,   0.0707096010447,  -0.3576403856277,   0.2143835276365,   0.3891498446465,  -0.4062156677246,   0.3216286003590,   0.1380292028189,  -0.3948984146118,   0.1626727432013,  -0.0879861563444,   0.1462894082069,   0.1212226971984,   0.0254278406501,   0.0363867767155,  -0.0445197261870,   0.3115406632423,  -0.0735421925783,  -0.1523072421551,  -0.0238169748336,  -0.4022540152073,   0.2774986922741,   0.1956576704979,  -0.0830927118659,  -0.1361659318209},
   {   0.1120112910867,   0.0376631952822,  -0.0476413592696,   0.0948758199811,   0.2406220883131,   0.2033457905054,   0.2730167210102,   0.0455043651164,   0.1512526720762,   0.2182337790728,  -0.1997490972281,   0.0848783776164,   0.1148245409131,   0.0491266362369,   0.2409319430590,   0.1094130650163,  -0.0525508299470,  -0.0861899778247,  -0.2468780875206,  -0.0502872467041,  -0.0242264438421,  -0.2954484820366,   0.2711121439934,   0.3077439069748,  -0.1354341059923,  -0.1110059618950,  -0.2492313534021,   0.1662220805883,   0.1555253714323,  -0.1975244283676},
   {   0.2204304039478,   0.1963106244802,   0.1635191440582,  -0.0626709684730,  -0.0955314040184,  -0.0822647735476,  -0.1578644663095,   0.2328075170517,   0.1092953607440,  -0.0684620887041,   0.2193933576345,   0.0350729450583,  -0.0833621099591,  -0.0366564467549,   0.0714317783713,  -0.1984511017799,   0.1004705801606,  -0.1502783149481,  -0.0842183008790,  -0.3132836520672,  -0.2987035512924,  -0.3479196727276,   0.3497339785099,  -0.2148325592279,   0.0142186507583,   0.3391723632812,  -0.2854577898979,   0.3143296837807,  -0.2364453971386,   0.1314396262169},
   {   0.1151800006628,  -0.0210134144872,   0.0929688364267,   0.1541098654270,   0.0832692384720,   0.0228858143091,   0.1771115660667,  -0.1580053269863,   0.2889486849308,  -0.1250379234552,  -0.1067680045962,  -0.2526917755604,   0.1231363788247,   0.2450535148382,  -0.1345968842506,  -0.0738181397319,  -0.0521981939673,   0.2637872993946,  -0.1406770348549,   0.1673008054495,   0.0349031463265,   0.0602688938379,  -0.1308035999537,   0.2482139170170,  -0.1951895356178,   0.2374954223633,   0.1269495487213,  -0.2647230029106,  -0.0055339848623,  -0.2460772544146},
   {   0.2465094923973,   0.1709473729134,   0.1184001490474,   0.1733388751745,  -0.1839869022369,   0.2694852948189,  -0.1397124379873,  -0.0376765429974,   0.2353114038706,  -0.0160580333322,  -0.0204793401062,  -0.0316567309201,  -0.1386129111052,  -0.2450480312109,   0.1290934979916,   0.2543345689774,  -0.1665755808353,  -0.1085691004992,   0.3523927330971,  -0.0781612843275,  -0.2695688307285,  -0.1694137752056,   0.1273767054081,  -0.2875358164310,   0.0291881989688,  -0.1972471773624,  -0.1298342347145,   0.0571758747101,   0.0108309686184,  -0.1046037375927},
   {   0.0319798029959,   0.3461064994335,  -0.0012376253726,   0.0594885759056,   0.0706509798765,   0.2441687285900,   0.3458054661751,  -0.0528849475086,  -0.2768527567387,  -0.0500131137669,   0.1268457472324,   0.0090513695031,   0.1275364607573,   0.2285245805979,   0.1025200933218,  -0.0867577940226,   0.1446638256311,   0.1299328804016,   0.0408151224256,  -0.0102280918509,   0.0223601292819,  -0.3857817649841,   0.0240372139961,  -0.1830750256777,  -0.2167028635740,   0.1725327223539,  -0.0291154813021,  -0.0681974813342,   0.1075644046068,   0.2497081607580},
   {   0.0583652108908,   0.1545945852995,   0.1834519654512,  -0.3190857768059,   0.0977706238627,   0.0193306636065,  -0.2021456956863,   0.1086901575327,  -0.0261194966733,   0.2262466102839,  -0.1573306173086,   0.3047263622284,   0.1802967041731,   0.2139439433813,   0.0311042703688,  -0.1557319611311,   0.0046580019407,   0.1184970960021,   0.3229419291019,   0.1656032800674,  -0.2209512889385,   0.1959438771009,  -0.2183139324188,  -0.0209301542491,  -0.2794416844845,   0.2657861113548,  -0.2853136658669,  -0.2695594429970,  -0.2454996258020,   0.2748641669750},
   {   0.2777670025826,  -0.1580649465322,   0.3165751099586,   0.1052121967077,   0.2159362137318,   0.2192953824997,   0.3354127705097,  -0.1023609861732,  -0.0153039265424,   0.2048183083534,  -0.2225097417831,   0.1986979991198,  -0.2181824147701,   0.0033032507636,  -0.2522666752338,   0.1098009496927,  -0.0574908852577,  -0.2971844971180,  -0.2778020203114,  -0.2988962531090,   0.2124013453722,  -0.0485690422356,  -0.3306188881397,  -0.1168387234211,  -0.1817473024130,   0.0663625523448,  -0.0400388725102,   0.2463810294867,   0.2140298783779,   0.0322669483721},
   {  -0.1972320973873,   0.0526982285082,  -0.1079829931259,  -0.1589037626982,  -0.1547292917967,   0.1761236488819,   0.0245688389987,   0.2021371871233,  -0.0777978077531,  -0.1955000609159,   0.2771002948284,  -0.0062426454388,  -0.3331496417522,  -0.2481643408537,  -0.2192085683346,   0.1823831498623,   0.2501704990864,   0.3473840355873,  -0.2025070041418,  -0.0625143498182,  -0.2434269934893,   0.3249808251858,   0.1619088351727,   0.1063807755709,   0.2366712093353,  -0.0134743610397,  -0.0539426207542,   0.1952053159475,  -0.1947150081396,  -0.1419083923101},
   {   0.1985374093056,  -0.0442411042750,   0.2241616249084,   0.2270917743444,   0.1779417842627,   0.1222210973501,   0.1887223273516,   0.1704528927803,   0.2984518408775,   0.0130293173715,   0.2379677742720,   0.3557424247265,   0.2770424187183,   0.1601567268372,   0.3361045122147,  -0.0105674704537,   0.0950970500708,   0.2311139106750,  -0.3297947645187,  -0.1200332418084,  -0.0541506670415,  -0.2349673211575,  -0.2498734146357,   0.3362868726254,  -0.3626682162285,   0.0752291455865,   0.1787643134594,   0.3293238282204,  -0.1386853456497,   0.0563697256148},
   {  -0.3115718364716,   0.0249162316322,  -0.4167502522469,  -0.2012418061495,  -0.3114143311977,   0.0012053108076,   0.2232310026884,   0.1393220275640,   0.1874918192625,  -0.2757767736912,   0.0321936570108,  -0.0938630253077,  -0.0404380224645,  -0.1968330293894,  -0.1322253644466,  -0.2430670857430,  -0.2402179241180,  -0.2726696729660,   0.3589269220829,   0.2015539258718,  -0.3694399893284,   0.2958511710167,   0.1015748754144,  -0.3138937652111,   0.1660503745079,  -0.0782009363174,   0.1096684560180,  -0.1413588970900,   0.0448958873749,  -0.0185931753367},
   {   0.1882025599480,  -0.2268520742655,   0.1515815407038,   0.0052807340398,  -0.1358509510756,  -0.2558050751686,   0.0388233996928,  -0.2601959407330,   0.2521211206913,   0.3315716087818,   0.0250272154808,  -0.2245909869671,   0.1971404403448,   0.2824331521988,  -0.2317197024822,  -0.1539966315031,   0.2802861928940,   0.3434517681599,   0.0923549458385,   0.1522824466228,   0.1756783127785,  -0.3167794644833,  -0.1709647476673,   0.2122348845005,   0.2355244457722,  -0.1286226212978,  -0.2253517955542,   0.2363057881594,   0.0386972129345,   0.3120545148849},
   {  -0.2254908233881,   0.2195927351713,  -0.2880929112434,  -0.2246435433626,   0.1040121465921,  -0.0324569158256,  -0.1040534228086,   0.2697261273861,   0.2868272364140,  -0.0639688819647,  -0.1936614960432,   0.3450801074505,   0.0644911602139,   0.1806997060776,   0.1364084184170,  -0.2033906280994,   0.0977215021849,   0.2327822297812,   0.2831406593323,  -0.2701684832573,   0.2242986559868,   0.2295511364937,  -0.0376131087542,  -0.1790692210197,  -0.1872819066048,   0.0225943438709,  -0.1845988184214,   0.1620086282492,   0.2158454060555,   0.0189252775162},
   {  -0.4545291960239,   0.3351822495461,  -0.1185005679727,   0.0256261900067,  -0.2079101502895,   0.3547115921974,  -0.1425585597754,   0.3473826050758,  -0.1128768622875,  -0.3329009711742,  -0.0031727829482,  -0.0590465441346,  -0.0446568690240,   0.0772511661053,  -0.4029701650143,   0.0070059825666,   0.0928576067090,  -0.4063649773598,  -0.0608461499214,  -0.1663980036974,   0.3543638288975,  -0.0091384565458,   0.1328963935375,  -0.1201597005129,  -0.1348256319761,   0.2217965126038,  -0.0452589988708,   0.2871871888638,  -0.1837797760963,   0.1832824051380},
   {  -0.3602296411991,   0.1797695606947,  -0.2372535318136,   0.1176764070988,  -0.4211406111717,   0.1346737146378,   0.0575373247266,  -0.0923785492778,  -0.1156008094549,   0.1665222495794,   0.2481577396393,  -0.1503182500601,   0.2701076865196,  -0.0485473535955,   0.3789662718773,   0.3242529332638,  -0.2583082020283,   0.2083425968885,   0.1481310576200,   0.1669746190310,   0.2487925142050,   0.1911647617817,   0.1141737103462,  -0.1231894269586,  -0.0013036732562,  -0.0820721685886,  -0.0374425351620,  -0.1542124897242,   0.1022975742817,  -0.1344965547323},
   {   0.1559357196093,   0.0022281326819,  -0.1850798875093,  -0.1379690468311,  -0.1865253895521,  -0.0327279530466,   0.3381675183773,   0.2685474157333,   0.1268990635872,  -0.0586822815239,   0.2986529171467,   0.1824627965689,  -0.0422593839467,  -0.2278304398060,  -0.1456164419651,   0.2018454521894,   0.3021331131458,  -0.0645822510123,  -0.0885821208358,   0.2164775133133,  -0.1375859379768,  -0.0455173589289,  -0.2353357821703,   0.1308104395866,   0.1951846927404,   0.0617575310171,  -0.1430020481348,   0.2970103323460,   0.2627015113831,   0.1165821328759}};
  const float bias_4[30] = {  -0.0264589041471,   0.0793851315975,   0.0075521203689,  -0.0104074059054,  -0.0228329822421,   0.0449507012963,   0.0383483581245,   0.0413038507104,   0.2013965696096,  -0.0225962363183,   0.0372004210949,   0.0608423277736,  -0.0210007131100,   0.0729680284858,  -0.0267331097275,   0.1205571293831,   0.0211120229214,  -0.0075607462786,  -0.0102602355182,   0.0146000599489,  -0.1169458255172,  -0.0337054654956,   0.0008829880971,  -0.0276162307709,  -0.0225042998791,   0.0599355138838,  -0.0041853268631,   0.0265612751245,   0.0666110664606,   0.0175345987082};
  // Declare the arrays in the stack
  const float kernel_5[30][30] = 
  {{  -0.1760522127151,   0.1932568103075,   0.0600750148296,   0.2385162264109,   0.1496296823025,   0.1735763251781,   0.2457632273436,   0.0531855449080,  -0.1321111768484,   0.1645409911871,  -0.3160953223705,  -0.3265023827553,   0.0469044111669,   0.1243313252926,   0.1141882464290,  -0.1130364090204,  -0.0155097283423,  -0.0356121882796,  -0.1203324869275,   0.2826839983463,   0.0256497263908,  -0.1216899603605,  -0.2385956048965,  -0.1879237443209,   0.1324998140335,   0.1046144068241,   0.2305966615677,  -0.1151327863336,   0.2307337671518,  -0.1774278432131},
   {   0.0870815813541,  -0.0637255162001,   0.0439817234874,  -0.2146667987108,   0.0453944094479,  -0.0529485009611,   0.0174793973565,  -0.2801191806793,  -0.3064633607864,  -0.0610948875546,   0.2705757319927,   0.2883040308952,  -0.1300348192453,   0.1485144346952,  -0.1106731742620,   0.1437067836523,   0.2844014763832,  -0.0801304802299,   0.3455092012882,  -0.0182943698019,   0.2379837334156,   0.1781759858131,   0.1768837422132,  -0.1300308257341,  -0.2359920889139,   0.1307622790337,  -0.2603056430817,   0.1762507110834,  -0.2939707040787,   0.2860884964466},
   {  -0.2567519545555,  -0.2097086161375,   0.0673466175795,   0.1462153643370,  -0.1565699428320,  -0.0604045614600,   0.0216151326895,  -0.0794334635139,  -0.1395925581455,   0.0164683461189,  -0.3536575734615,  -0.0227705370635,  -0.2659340202808,   0.2331997007132,  -0.2313439846039,   0.3354989588261,   0.1161600127816,   0.3586542308331,  -0.1232087314129,  -0.3058811724186,  -0.2409005165100,  -0.2322212308645,   0.0295343827456,   0.0702187269926,   0.0991426557302,   0.1235741600394,   0.2095293998718,  -0.2026693075895,  -0.1010538190603,  -0.3914211094379},
