
    // Select all (Ctrl+A), Copy (Ctrl+C), paste to an empty text file (Ctrl+V) and save that file as 'generated_code.h'
    // 
    // Auto-generated header file. Assumes img to be a floating point array
    // of 64 elements (corresponding to an 8x8 b&w image)

    #include <math.h>

    float norma_even;
    
inline float activation_even_0 (float x, float n) 
{ return x > 0 ? x : 0;}
inline float activation_even_1 (float x, float n) 
{ return x > 0 ? x : 0;}
inline float activation_even_2 (float x, float n) 
{ return x > 0 ? x : 0;}
inline float activation_even_3 (float x, float n) 
{ return x > 0 ? x : 0;}
inline float activation_even_4 (float x, float n) 
{ return x > 0 ? x : 0;}
inline float activation_even_5 (float x, float n) 
{ return x > 0 ? x : 0;}
inline float activation_even_6 (float x, float n) 
{ return x > 0 ? x : 0;}
inline float activation_even_7 (float x, float n) 
{ return x > 0 ? x : 0;}
inline float activation_even_8 (float x, float n) 
{ return x > 0 ? x : 0;}
inline float activation_even_9 (float x, float n) 
{ return x > 0 ? x : 0;}
inline float activation_even_10 (float x, float n) 
{ return exp(x)/n;  }

    float guess_digit_even (const float *img, int flag)
    {
    
  // Declare the arrays in the stack
  const float kernel_0[42][35] = 
  {{   0.1823152750731,   0.0345005169511,  -0.1469966024160,  -0.0752818584442,   0.1664214134216,   0.0441862121224,   0.0731922909617,   0.1082005649805,   0.1186169162393,   0.1617204993963,   0.1087407767773,   0.1861257404089,  -0.2805520296097,  -0.0753666907549,  -0.3222713172436,  -0.2748762965202,   0.0357105620205,  -0.1577673256397,   0.1056986302137,   0.2127731293440,  -0.2513541579247,   0.1344026327133,  -0.0017010490410,   0.2118055075407,  -0.0538821704686,   0.2192326486111,  -0.2657917439938,   0.2372570782900,   0.2085445374250,  -0.3376160264015,  -0.0258727446198,   0.0523922294378,  -0.1424706280231,  -0.2567012608051,  -0.1613372266293},
   {  -0.0539659857750,  -0.0579319596291,   0.2361799925566,   0.2282276302576,  -0.0287381242961,  -0.0103979203850,  -0.2180382460356,  -0.1159682869911,  -0.0834364444017,   0.0215655509382,   0.1092254072428,  -0.1922172904015,   0.1806653290987,   0.2716782391071,  -0.1487141102552,   0.0432793647051,  -0.1772106736898,   0.0675059184432,  -0.0583766624331,  -0.1024474129081,  -0.3271816968918,   0.0839002430439,  -0.1104848757386,  -0.2883197069168,  -0.1798446327448,  -0.1615501195192,  -0.0109658995643,  -0.1219872534275,  -0.1386142522097,  -0.3198751509190,   0.3118171393871,   0.0886683091521,  -0.1360261440277,  -0.0526788756251,  -0.0289294216782},
   {  -0.0073898662813,   0.0688192099333,   0.2350439876318,   0.1680617928505,   0.0107434643432,  -0.1832440942526,   0.1264429986477,   0.2122834920883,   0.0727459490299,  -0.1716842800379,  -0.1757353544235,   0.1205831691623,  -0.0264342781156,   0.0724223330617,  -0.2485614120960,   0.0379793457687,   0.3037531375885,   0.0180532317609,   0.0927099734545,   0.1198216825724,  -0.0614641979337,   0.0098159546033,   0.0283157695085,   0.2023352831602,   0.2260864973068,  -0.0037615473848,   0.0640270411968,  -0.1992206573486,   0.0256532970816,   0.1738974452019,   0.0087058432400,   0.0269005317241,  -0.2202960699797,  -0.2306872755289,  -0.1662731170654},
   {   0.1066818460822,  -0.0602110028267,  -0.0235757660121,  -0.1414288133383,   0.0841888859868,  -0.1773317605257,  -0.1339286416769,  -0.2248978316784,   0.0775040984154,  -0.1843406707048,   0.0246515832841,  -0.2561393976212,  -0.1599816530943,   0.2704955041409,   0.0968297496438,  -0.0920409560204,  -0.1044191643596,  -0.2741720676422,  -0.2695296704769,  -0.1560012102127,  -0.3144479691982,   0.0807708427310,  -0.0731970667839,   0.1276685297489,  -0.0818218067288,   0.1069763675332,  -0.1086459234357,   0.0690375939012,  -0.2420033216476,  -0.1476491987705,   0.2000432759523,  -0.0866551026702,   0.0556527525187,   0.1966619640589,  -0.3044622242451},
   {  -0.1933894455433,  -0.2815425097942,  -0.2404849976301,  -0.2245259284973,  -0.2594315707684,  -0.0393996313214,   0.1798080950975,   0.2222730666399,  -0.1810202300549,   0.1951244920492,   0.2128738462925,  -0.0272350944579,  -0.1690285652876,   0.1949282437563,  -0.2920251190662,  -0.2416415214539,   0.0856367945671,  -0.1176582127810,  -0.0141977323219,   0.2390732169151,  -0.0591137968004,   0.2025326043367,  -0.3180376291275,  -0.1673072129488,   0.0186854265630,  -0.1807062476873,   0.0565929524601,  -0.0777333900332,  -0.0887861773372,   0.0458506494761,  -0.1476575732231,  -0.2205797135830,   0.2052140533924,  -0.1911200881004,  -0.0627202466130},
   {   0.2191221714020,  -0.0046060043387,  -0.1347119808197,  -0.2304140627384,   0.2298939526081,  -0.1954806447029,   0.0018174204743,  -0.2383027374744,  -0.0684399604797,  -0.1337742060423,  -0.1382613629103,  -0.0786891132593,  -0.2227325141430,   0.1366586983204,   0.0100451922044,  -0.0796455815434,   0.1303787380457,  -0.0548350103199,  -0.1220927834511,  -0.0449343211949,  -0.2016598880291,  -0.1533060371876,   0.0478072427213,   0.0617449805140,  -0.1673296988010,   0.1321663111448,  -0.1266755908728,   0.0745930299163,  -0.0904350951314,   0.0209796726704,  -0.1356943398714,   0.1396688222885,   0.0010147175053,   0.1480380594730,  -0.1371802985668},
   {  -0.1416612118483,   0.0859971418977,  -0.1224282756448,  -0.2982230186462,  -0.2863531410694,   0.1099017783999,   0.3235471546650,   0.1950528621674,   0.0141278449446,   0.0184655375779,  -0.2053745836020,   0.2416521161795,   0.0211350750178,  -0.3310908377171,  -0.0669911503792,  -0.2569412589073,  -0.2048891782761,  -0.2203135937452,   0.0329258143902,  -0.0741259381175,   0.0246663391590,  -0.1192566454411,  -0.1678538471460,  -0.0395843051374,  -0.0417840406299,   0.0446391813457,  -0.1210627257824,   0.1854225844145,   0.0148118641227,   0.0231232047081,   0.0993392020464,   0.1441022008657,   0.1898837536573,  -0.2327868640423,  -0.2492790222168},
   {  -0.2709862589836,   0.0512244626880,  -0.0604596324265,  -0.2469561696053,   0.0375729165971,  -0.0873580724001,  -0.0265239737928,  -0.1866319626570,   0.1282684057951,   0.0884720161557,   0.0653090104461,  -0.0187952592969,  -0.0258997660130,  -0.0060927872546,  -0.2237205505371,  -0.1755035370588,  -0.1553540378809,  -0.1745858490467,   0.1444085836411,  -0.2684368789196,  -0.0080820377916,   0.1164499074221,   0.1168380007148,   0.2655853331089,  -0.1704436689615,  -0.2390367835760,  -0.2865656912327,   0.0181980859488,   0.2247914969921,   0.1893094331026,  -0.1048814356327,  -0.0950300693512,  -0.2418910562992,  -0.1393141299486,  -0.1497945636511},
   {  -0.1779050827026,   0.0619688443840,   0.0799300447106,  -0.1693859398365,  -0.1718542724848,  -0.0066910940222,  -0.0872825384140,   0.1104542165995,   0.0305850207806,  -0.0799596160650,   0.2442670017481,   0.0933698937297,  -0.1291233301163,  -0.0013212026097,   0.2510579228401,  -0.0271305460483,  -0.2445878684521,  -0.2703281641006,   0.2479619383812,  -0.2028198987246,  -0.2395596504211,   0.1351575702429,  -0.0973014459014,  -0.1529013961554,  -0.1359617859125,  -0.2172058224678,  -0.2722910046577,  -0.1686845421791,   0.0566354170442,  -0.0666668787599,   0.1585165709257,   0.1204166784883,  -0.1550452262163,   0.0435022823513,  -0.1646357923746},
   {  -0.1223636046052,  -0.2277906686068,   0.1299639344215,  -0.0773772150278,   0.1662774235010,  -0.0093214614317,  -0.1732380539179,  -0.2670567035675,   0.1766791343689,  -0.1265372186899,   0.1987996399403,  -0.1212895214558,  -0.0734536424279,   0.1984498798847,   0.0138541972265,  -0.1284857094288,  -0.1895491480827,   0.0788074284792,   0.1885985732079,  -0.0926384925842,  -0.2012592107058,   0.3067274093628,   0.0319785289466,   0.1668907105923,   0.0784851536155,   0.1671057939529,  -0.2420071512461,  -0.1237606406212,  -0.1589353084564,  -0.0677487403154,   0.0708466097713,   0.0085422508419,  -0.2276081442833,  -0.2168359458447,   0.2357807010412},
   {  -0.1140379458666,   0.1702594608068,   0.0883726477623,   0.1362255960703,  -0.0218910146505,  -0.1315017342567,   0.3120796978474,  -0.0422034822404,  -0.1796370595694,   0.2566133141518,   0.1978770345449,   0.0179226752371,  -0.1455158293247,   0.1416646242142,   0.2554669678211,  -0.3049424886703,  -0.0585989691317,  -0.1100547090173,   0.0876861587167,   0.1463823914528,   0.1850011348724,   0.3042209446430,   0.2006963491440,  -0.1130737215281,   0.2682730257511,   0.1040526628494,  -0.0902493000031,  -0.1527883112431,   0.0969448983669,  -0.0610301606357,  -0.2293350547552,  -0.1013915687799,  -0.1281967312098,   0.1611642688513,   0.1433965861797},
   {  -0.1516775339842,  -0.2063961923122,  -0.3087596893311,  -0.0039055231027,  -0.2238107025623,   0.0984934270382,   0.1618288457394,   0.2337224483490,   0.0635571479797,  -0.0965055301785,   0.2094973027706,   0.2409771233797,   0.2609045207500,   0.2170806676149,  -0.0899064838886,  -0.1067026332021,  -0.1718002110720,   0.0667615905404,   0.1170110777020,  -0.0217993240803,   0.2356892079115,  -0.1064216792583,   0.2599714100361,  -0.2267686873674,   0.0129882432520,  -0.1959589272738,  -0.2068386524916,   0.0618751347065,   0.1105629652739,  -0.1571641117334,   0.0838582366705,   0.1640844047070,   0.2132140547037,   0.0374769568443,   0.0631689131260},
   {  -0.1220532730222,  -0.2329554408789,  -0.0651629790664,  -0.2230079919100,   0.0796657279134,  -0.0732953399420,   0.0185022894293,   0.0775626674294,   0.0137415844947,  -0.0961394235492,   0.0407025814056,  -0.2176716625690,   0.0857387259603,   0.0441256016493,   0.2447113543749,  -0.1027548536658,  -0.0700127929449,   0.0914871320128,  -0.2439126819372,  -0.0643162503839,   0.0221123732626,   0.1150734499097,  -0.0652225241065,   0.0118621271104,  -0.1037547513843,  -0.1402275264263,  -0.1736892312765,  -0.0076502528973,   0.0241512432694,  -0.2096967846155,   0.0782788246870,   0.0682229250669,   0.0747052431107,   0.0968977659941,  -0.0736855641007},
   {   0.1068399921060,  -0.0637577399611,  -0.0718112513423,   0.2540797889233,  -0.0816432535648,  -0.1980154663324,  -0.1628686785698,  -0.2127010077238,  -0.0293521713465,  -0.2917980849743,  -0.2561201453209,   0.1752825379372,   0.2437600195408,  -0.2762013971806,   0.1083300039172,   0.0901092737913,   0.1006404310465,  -0.0362135171890,   0.0090687200427,  -0.1134452372789,  -0.0462136305869,  -0.2161002457142,   0.2496572285891,  -0.2213576883078,  -0.2761084437370,   0.2772414088249,   0.1416940540075,   0.1481240093708,   0.0440564304590,   0.0349286384881,  -0.0050826440565,   0.2702829241753,   0.2752954661846,   0.1040358617902,   0.0562089383602},
   {   0.1810156553984,   0.1714264303446,   0.2785643637180,  -0.0851354077458,  -0.1684814691544,   0.2889797389507,   0.1135294288397,  -0.1555394977331,   0.0976321995258,  -0.1928076595068,  -0.2935345470905,  -0.1962367296219,   0.2161572724581,   0.3133012056351,  -0.0551130399108,  -0.2760492861271,  -0.0228241644800,   0.1508405655622,   0.2534239590168,  -0.2391775995493,   0.1317647993565,  -0.1485721915960,  -0.0617335475981,   0.2887816727161,   0.0319391191006,  -0.1183031052351,  -0.1992855519056,   0.0120381191373,  -0.2098874896765,   0.2087916284800,  -0.0902649089694,   0.0127379568294,  -0.1501223742962,  -0.0614936202765,  -0.2029476165771},
   {  -0.2324065417051,  -0.1555957347155,   0.2148933857679,  -0.1601723134518,  -0.0855503678322,  -0.2042589336634,   0.2257255166769,  -0.0994481146336,  -0.1170622780919,   0.0775261819363,   0.1102534979582,   0.1209816560149,   0.0804414004087,  -0.1836116015911,  -0.0870012342930,  -0.0879213064909,   0.0003594603622,   0.2028189599514,  -0.0621629394591,   0.0898919776082,   0.1329469233751,  -0.0959778055549,  -0.2175375521183,  -0.2294166088104,   0.1760289818048,  -0.0360430516303,  -0.2302063852549,   0.0773747265339,  -0.1421396136284,  -0.0860156044364,   0.1688944697380,  -0.0915418416262,   0.0394151955843,  -0.1823039948940,  -0.2652572989464},
   {   0.1299612522125,   0.0371866673231,   0.0988273695111,   0.0497829914093,  -0.0595759898424,  -0.0315446667373,   0.0757001116872,  -0.1283466219902,  -0.0588109456003,  -0.1570497900248,   0.0156677514315,   0.0081963837147,   0.0038229366764,  -0.0879301279783,  -0.1964390575886,   0.2086601108313,   0.2059816420078,   0.1459187716246,  -0.0703582391143,   0.2335153669119,   0.2164111882448,  -0.1589268743992,  -0.1442345678806,  -0.1216948926449,  -0.0930617451668,   0.1193161904812,  -0.1627553254366,  -0.0053415200673,   0.1339350044727,   0.2656190991402,  -0.0600641369820,   0.2258902937174,  -0.1416530460119,   0.1979483664036,  -0.2517664134502},
   {  -0.0844084694982,  -0.0216414164752,   0.0860931277275,  -0.2331347912550,  -0.1444295197725,  -0.0898621678352,   0.2251899391413,   0.0833329632878,  -0.1200445294380,  -0.0571300312877,   0.0472498089075,  -0.0763733908534,  -0.1851785629988,  -0.1385197639465,   0.0567316710949,  -0.0647241622210,   0.2835766673088,   0.0119585851207,   0.0178402978927,   0.1291551738977,   0.0370275378227,  -0.2173716127872,  -0.2582726478577,   0.1128354594111,  -0.2924273908138,  -0.1046049445868,   0.1626172214746,   0.2710722684860,  -0.2470965683460,   0.0351315438747,  -0.0148296803236,   0.2911311089993,   0.1343532204628,   0.1973140984774,   0.1125322505832},
   {   0.2455360740423,   0.2800162434578,  -0.1703383475542,  -0.2751321792603,   0.0699041411281,   0.2507517635822,  -0.2310556024313,  -0.1436542272568,  -0.2326724529266,   0.2480892986059,  -0.1023617386818,   0.2165504246950,  -0.0238114446402,   0.1755439937115,  -0.0655144453049,   0.1252761930227,  -0.1138866618276,  -0.1666198223829,  -0.0715957581997,   0.0079378522933,   0.2207839488983,   0.2780348658562,  -0.1002252623439,  -0.0922229662538,   0.0931018590927,  -0.1349064260721,  -0.1258243918419,   0.0491932705045,   0.2316515296698,   0.0403342470527,  -0.2326372563839,  -0.1303845643997,  -0.2755130231380,  -0.0714717581868,  -0.2010486423969},
   {  -0.0271770209074,  -0.0859387293458,   0.0724707320333,  -0.0111599899828,   0.1383465379477,  -0.0021510149818,   0.1015963926911,   0.0154149886221,  -0.1964820772409,   0.0898879170418,   0.0253440756351,   0.0294578652829,   0.0764009058475,   0.1614755839109,  -0.1456729471684,  -0.1908769756556,   0.0443122349679,  -0.0130819128826,   0.2019156217575,  -0.1573231369257,  -0.0093109188601,   0.0439508594573,   0.2146795094013,  -0.1745461374521,   0.2475388199091,   0.0301053207368,   0.0659225657582,  -0.1561906188726,  -0.2558622062206,   0.1765196919441,  -0.2108249664307,  -0.0146888615564,  -0.0749725177884,  -0.0425266735256,  -0.0862369760871},
   {   0.1813891828060,  -0.0290936343372,  -0.0553261265159,   0.0348803251982,  -0.0131971677765,   0.1711315512657,   0.2183445990086,  -0.0424443259835,  -0.0883240625262,  -0.0905141457915,  -0.0628983452916,  -0.2061788141727,   0.0505664795637,   0.0962818562984,  -0.1099135428667,  -0.0213814508170,  -0.1673312038183,  -0.0814629197121,  -0.0221476033330,   0.2469367831945,   0.1589993089437,   0.0270814485848,   0.1296016722918,  -0.3243248164654,  -0.0439713113010,   0.0293729212135,   0.0171684455127,   0.1928502321243,   0.1867674589157,   0.2243047505617,   0.2293333262205,  -0.2249761968851,   0.1526540368795,   0.1169002354145,   0.0433411188424},
   {   0.0719418376684,   0.2468287199736,  -0.0132289733738,   0.1218863129616,   0.2530602514744,   0.0979025885463,  -0.0770998299122,  -0.1757134646177,  -0.2427734434605,   0.2290702909231,   0.2520731687546,   0.2360200136900,   0.2540144026279,   0.0682193711400,  -0.0377727560699,  -0.2392195016146,  -0.1122521087527,   0.0068794023246,  -0.0346250198781,  -0.0237164329737,  -0.0538117997348,   0.2226274162531,   0.1037695333362,   0.2338758111000,  -0.2075619250536,   0.1906277388334,  -0.1311327815056,   0.2813454568386,   0.1364644765854,   0.2230663150549,   0.1011803522706,   0.0839517042041,   0.0380049124360,   0.2096780538559,  -0.1935678571463},
   {   0.1502096801996,  -0.2448678761721,   0.2268856316805,  -0.0041852775030,   0.2059064656496,   0.0969101265073,  -0.2085372954607,  -0.0586550086737,   0.2093691676855,  -0.0758866071701,  -0.1108395755291,  -0.2004058957100,  -0.0455598421395,  -0.0992863774300,  -0.1878036111593,  -0.0614359751344,   0.1451533287764,  -0.1546916067600,   0.1867322027683,   0.0020558673423,   0.1854109466076,  -0.0472362563014,   0.2593900561333,   0.1494733542204,  -0.0019260547124,  -0.1984577924013,   0.2225987762213,   0.1191997528076,   0.1816487908363,   0.0757268294692,   0.2210354208946,   0.0464085452259,  -0.0204828139395,   0.1779327392578,   0.0446246415377},
   {   0.1464803367853,  -0.2926827669144,  -0.1034760326147,   0.1266630440950,   0.0914375260472,  -0.2154029160738,  -0.1653277575970,   0.1306418329477,  -0.0351623930037,  -0.0525878407061,   0.2961438596249,  -0.0904661267996,   0.1897201687098,   0.1867301017046,   0.1209596395493,  -0.0486929416656,   0.1166282072663,  -0.1747812181711,   0.0420963130891,   0.1059375926852,  -0.0805526822805,   0.1413128823042,   0.1596471518278,   0.2215924412012,  -0.0480423383415,   0.2207272499800,   0.0840787887573,  -0.1458841413260,   0.2404938489199,   0.1052703559399,   0.0632566139102,  -0.1172121986747,  -0.0871677920222,   0.1237263306975,   0.1604025810957},
   {   0.1048140898347,   0.0719583928585,  -0.0407838262618,  -0.0599127970636,   0.0724667087197,   0.1736971288919,   0.0248541068286,  -0.0423475950956,  -0.1742051988840,  -0.1997485756874,   0.1092456132174,  -0.0722287446260,  -0.0647055730224,   0.1624492853880,   0.1104036271572,  -0.0978320017457,   0.1595508605242,  -0.0723506063223,   0.1823392361403,   0.0534782595932,   0.0998166874051,  -0.0529429763556,   0.0833316221833,   0.0466885566711,  -0.1658645421267,  -0.2288982868195,   0.2416712343693,   0.0539647117257,  -0.1738281250000,  -0.1575117856264,  -0.1090242490172,   0.0104262577370,  -0.1752118319273,  -0.0704239681363,  -0.2978650927544},
   {   0.1034024506807,   0.2370914667845,  -0.1181698665023,  -0.2215045094490,   0.1988502889872,   0.0740552321076,   0.2282986193895,   0.1136106625199,   0.0405961945653,   0.0272777043283,   0.0033534339163,   0.1117621064186,  -0.1292283535004,   0.0242007598281,  -0.1504430472851,  -0.0334525704384,   0.1476519554853,   0.1034832149744,   0.0594968236983,   0.2145654261112,   0.1167181432247,  -0.1218095868826,  -0.1126703843474,  -0.0952088534832,  -0.2955223917961,  -0.2949263155460,   0.2060534060001,   0.1353905498981,  -0.2241979092360,  -0.0185403153300,   0.0322378277779,   0.0417901426554,   0.0502240099013,   0.0199121367186,   0.1136745885015},
   {  -0.1512477993965,   0.0495361387730,   0.1570534408092,   0.1674417406321,   0.2688411176205,  -0.0170874074101,   0.0847189873457,   0.0405549965799,  -0.1778701841831,   0.0088238473982,  -0.1321679204702,   0.1538765877485,   0.0268158260733,  -0.1457544565201,  -0.2152188420296,  -0.0280276760459,  -0.0954878032207,  -0.1292004436255,  -0.0254780817777,   0.0638453960419,   0.1390926688910,   0.0860450938344,  -0.1182231679559,  -0.0576346144080,  -0.1254883855581,   0.0633233860135,   0.0276039149612,  -0.1602152884007,   0.2380811572075,   0.1754880398512,   0.1156629174948,   0.0234123785049,  -0.1838293373585,  -0.1798036545515,  -0.2072863727808},
   {   0.0440702438354,   0.0753840655088,  -0.1464530080557,  -0.2148347049952,  -0.2200247943401,   0.0544217899442,   0.2585176527500,  -0.0553402304649,   0.0108225485310,   0.2348626852036,   0.0317320004106,  -0.1996835917234,  -0.0377889312804,  -0.0006116543082,   0.2129329144955,  -0.1926236450672,   0.0221065972000,  -0.1614382117987,  -0.1225960329175,   0.1586029231548,   0.1694285273552,  -0.1857292205095,   0.1042749807239,  -0.0298545602709,   0.0395915620029,  -0.2047287374735,  -0.0311045851558,   0.2910558283329,  -0.0397961363196,  -0.0319804362953,   0.0467571131885,   0.2907581031322,   0.0877293422818,   0.1472815126181,   0.0514207556844},
   {  -0.0425485372543,  -0.0008981057908,  -0.2095262110233,   0.2013357132673,  -0.0098491180688,  -0.1646155565977,   0.0584648624063,   0.2372296899557,  -0.0744817852974,   0.2163934111595,   0.0896854475141,  -0.2688766717911,  -0.1916144341230,   0.1554635763168,   0.2370036840439,  -0.1418305039406,  -0.1452572047710,  -0.3219546377659,   0.0004303942260,   0.0600311905146,   0.2440706193447,   0.0812479704618,  -0.0122061809525,   0.2722396850586,   0.1295365095139,   0.1370519101620,  -0.1716414839029,   0.2338872104883,   0.2928998470306,   0.1252079308033,   0.0713438838720,   0.2497643381357,   0.1854375898838,  -0.0912828743458,   0.1151464879513},
   {  -0.1395567506552,  -0.0608788467944,  -0.2456327974796,   0.2932144999504,  -0.2131477594376,  -0.1966509670019,   0.1884556263685,  -0.1002374067903,  -0.0151416761801,  -0.0156243136153,  -0.2877381145954,  -0.2474389970303,  -0.2618400156498,   0.2637830674648,   0.1795688569546,  -0.2216443866491,  -0.0670276507735,   0.2036474049091,   0.1511481255293,  -0.2309912443161,  -0.2301255762577,  -0.1116656064987,   0.0538505800068,  -0.0140769407153,  -0.2073602229357,  -0.2289801388979,  -0.0331783704460,  -0.2151841074228,   0.1329698711634,  -0.1861037164927,   0.2809801995754,   0.2561506927013,   0.1881377547979,  -0.0951052084565,   0.1188169196248},
   {  -0.0007157387445,   0.2773949205875,  -0.1772558391094,  -0.1732058674097,  -0.1711688935757,  -0.2629428505898,   0.0147971184924,   0.2173447757959,  -0.1692530959845,   0.1246087327600,  -0.1890532970428,  -0.0228061638772,   0.1357490867376,   0.3024788796902,  -0.1603819429874,   0.0474120378494,   0.2388306856155,   0.1995760798454,  -0.1585897505283,  -0.0179312359542,  -0.0409710183740,   0.0323558449745,  -0.1382060199976,   0.2062944024801,   0.1625881493092,  -0.0131144300103,  -0.2472739219666,   0.1118837296963,  -0.1649997979403,   0.0290702488273,  -0.2831241190434,   0.1151209324598,   0.1559478938580,  -0.2924764454365,  -0.1257641762495},
   {  -0.0511727780104,   0.1675165444613,  -0.2743499279022,   0.0325292050838,   0.0342639200389,   0.0097951358184,   0.0819234028459,   0.2789696455002,   0.3229915797710,   0.0142747974023,   0.2095805406570,   0.1287382692099,   0.1550754755735,  -0.2298362404108,   0.0526121333241,   0.0265966411680,  -0.0512596331537,   0.0725683867931,  -0.1987939774990,  -0.0075902938843,  -0.2309202551842,  -0.0440635010600,  -0.0611779615283,   0.1467984169722,   0.0703787952662,   0.2324894964695,  -0.0109194535762,  -0.0755376666784,  -0.2379987239838,  -0.3074484765530,  -0.0991357192397,   0.2353566139936,   0.0043078903109,  -0.0392451956868,   0.0583212114871},
   {  -0.0741972029209,   0.1237121149898,   0.2501523494720,   0.1599484831095,  -0.0358020812273,  -0.1392218619585,  -0.2198062986135,   0.0290599465370,   0.3245548009872,  -0.0390701107681,  -0.1249930486083,  -0.3154602348804,  -0.0321927778423,   0.3057323396206,   0.0435038655996,   0.0248200688511,  -0.1690192520618,  -0.1472880393267,   0.2101211845875,  -0.0969208180904,  -0.2305363714695,  -0.2744720578194,   0.0151947969571,   0.1363516002893,  -0.0609061047435,  -0.1032197400928,   0.1921042203903,   0.2930016219616,   0.0738054439425,  -0.2319157570601,   0.0886582508683,  -0.1447836160660,   0.1299528628588,   0.0133311515674,  -0.1310850828886},
   {  -0.0615464486182,   0.2834177911282,  -0.1739367246628,   0.2044892162085,  -0.1073684841394,   0.2491533160210,  -0.1671844422817,  -0.0302757993340,  -0.0240191444755,  -0.0857742875814,  -0.0913120657206,  -0.2289287894964,  -0.1442653536797,  -0.1649231910706,  -0.0897395163774,   0.2028780877590,  -0.2634038329124,  -0.1561488956213,   0.0405482575297,   0.1422759294510,   0.3026656210423,  -0.1315185278654,  -0.2157288044691,  -0.0827952623367,   0.1692182123661,   0.2134597003460,   0.1256797462702,   0.0067666452378,   0.1639089137316,  -0.0459448322654,  -0.2348202466965,   0.2152641862631,   0.2917763888836,  -0.0722324326634,  -0.0565447099507},
   {   0.0950810015202,   0.2540054321289,  -0.0913381576538,  -0.2383512407541,  -0.0226166211069,   0.2748119235039,   0.0606761537492,  -0.1518037766218,  -0.0790411978960,   0.2074510604143,   0.2399233728647,  -0.2859717905521,  -0.2244078963995,  -0.2747204005718,   0.2371023595333,   0.0007030609413,   0.1845730841160,   0.0967593640089,  -0.0376892611384,   0.0775834918022,   0.1951911449432,   0.1927441805601,   0.2531236112118,  -0.1291317790747,  -0.1236533895135,   0.1522628217936,  -0.1320160776377,  -0.0981183722615,  -0.0492565445602,  -0.1534839421511,   0.0662263408303,  -0.2183906733990,   0.0412928834558,  -0.1633476912975,   0.1042974740267},
   {   0.0453921407461,  -0.2074859440327,   0.1733097434044,   0.1981978714466,   0.2076781690121,   0.0069909566082,  -0.0456003360450,  -0.1542644053698,  -0.1336464434862,  -0.1421587318182,   0.0642224624753,   0.1213148757815,  -0.2121841609478,   0.1105823889375,  -0.0953247696161,  -0.2402956783772,  -0.1631420254707,   0.1932118088007,  -0.0524070933461,  -0.0236574523151,   0.1181417331100,  -0.1949092447758,   0.1147040426731,  -0.2390174865723,  -0.0839233621955,  -0.1815775781870,  -0.1911078989506,   0.0234717167914,   0.0837717428803,  -0.2220137715340,  -0.2118994146585,   0.0997616201639,   0.0038702336606,  -0.0842521786690,   0.1739957481623},
   {  -0.1196061521769,   0.1708329319954,  -0.0987942963839,  -0.0916405469179,   0.0627444908023,  -0.0465228557587,  -0.0873085632920,  -0.1476480513811,   0.0417932644486,  -0.0675454437733,   0.0562714189291,  -0.1932142823935,   0.0594356916845,   0.1004565656185,   0.2328517585993,   0.2152464538813,  -0.0719329118729,   0.1684136092663,  -0.2305179685354,   0.1230233684182,   0.1326853185892,   0.2378035932779,   0.1537499278784,   0.0805343911052,  -0.2586475610733,   0.2937462031841,   0.0063243061304,   0.2208698838949,  -0.1195221617818,   0.0905756726861,  -0.0404256433249,   0.2483413964510,  -0.0898525267839,  -0.2601621448994,   0.1401071399450},
   {  -0.0435345321894,   0.0420092158020,  -0.0532637499273,  -0.1363295167685,  -0.2054047435522,   0.0575737580657,  -0.1040807589889,   0.2269907891750,   0.1521717309952,   0.1219540908933,  -0.2050991505384,  -0.1246516034007,   0.2178607732058,   0.0091142253950,  -0.2009533494711,  -0.1343573033810,   0.2003086060286,  -0.1698260158300,   0.1280058324337,   0.1860827058554,  -0.0102548599243,   0.0970758795738,  -0.1458957493305,  -0.0298457853496,  -0.1685092300177,  -0.0356715656817,  -0.1136608272791,   0.0016273930669,   0.3009989857674,   0.2181497961283,   0.1906566172838,  -0.1633014976978,  -0.1270784884691,   0.1940789073706,   0.2190789729357},
   {   0.2464630156755,   0.1702479422092,   0.2837209701538,  -0.1127049252391,  -0.1081592887640,   0.2334958761930,   0.0148929497227,   0.0315784439445,  -0.1227372288704,   0.2176061421633,  -0.0792491808534,   0.1276909261942,   0.0666047781706,  -0.1550366580486,   0.1810179352760,   0.0402938798070,  -0.1257128566504,   0.0192287806422,   0.0213347692043,  -0.0438150875270,   0.1209029406309,   0.3023595511913,   0.1710963994265,  -0.2352929711342,  -0.1467291563749,   0.0555499419570,   0.0547913126647,   0.2324627339840,  -0.1185657158494,  -0.2493863552809,  -0.2505530714989,   0.1616852283478,  -0.1927217394114,  -0.1517522782087,  -0.2577387094498},
   {  -0.1860000342131,  -0.1575613766909,  -0.0128232603893,  -0.2311569154263,   0.0286040026695,   0.1281731426716,   0.2195243537426,  -0.0219591967762,  -0.0237121246755,   0.1483978480101,  -0.1967249959707,  -0.0872922912240,  -0.0256460271776,  -0.1413611471653,  -0.1489939987659,  -0.2279273718596,  -0.1503544002771,  -0.2197366803885,   0.1353178918362,  -0.1874879747629,  -0.0972001627088,   0.2109334915876,  -0.2611551284790,  -0.1981204748154,   0.0232874080539,  -0.1874351054430,   0.1863173395395,  -0.1369246393442,   0.0880021378398,  -0.0396278426051,   0.2292339950800,   0.1794697046280,  -0.0596661642194,   0.0243003871292,  -0.2401908487082},
   {   0.0402057208121,   0.1654839515686,  -0.0798487514257,  -0.0486139506102,  -0.0174730289727,  -0.2435307055712,  -0.2196467965841,  -0.1449599564075,  -0.0869571194053,   0.2070309668779,  -0.1405047923326,   0.2354798316956,  -0.2188107371330,   0.2141962945461,   0.1718562394381,  -0.2001840472221,   0.0092099988833,   0.2089733928442,  -0.2043251842260,  -0.1567874699831,   0.2184854745865,   0.1517813056707,  -0.1494697034359,   0.0903463661671,   0.2267612665892,   0.0014511661138,  -0.0566175878048,  -0.2428777813911,   0.0160186346620,  -0.0215662680566,  -0.1035954728723,   0.1731598973274,   0.2672165930271,   0.0950858965516,  -0.1892482936382},
   {  -0.1003103554249,   0.1491952538490,  -0.0381752327085,  -0.1469212025404,   0.2133512347937,   0.0720791518688,  -0.0653949230909,  -0.2194229811430,  -0.0906575545669,  -0.2126246690750,   0.2832446098328,  -0.1866913735867,  -0.1283340305090,  -0.0304535161704,   0.1919193267822,  -0.0293464940041,   0.0880592763424,  -0.0212932433933,   0.0143541069701,   0.1288547217846,   0.0933750420809,   0.0359833240509,   0.1818486303091,  -0.1985202729702,   0.1554992496967,   0.2238523662090,  -0.1914290040731,  -0.0467665977776,   0.1690043061972,   0.2330274432898,  -0.2630380392075,   0.1634350270033,  -0.2159511595964,   0.0821750611067,  -0.2641355991364}};
  const float bias_0[35] = {  -0.0334427207708,   0.0321293659508,   0.0209721196443,   0.0342677086592,   0.0243472140282,   0.0400277227163,  -0.0357842184603,   0.0209555905312,  -0.0061523094773,  -0.0388781391084,   0.0425458177924,   0.0386019982398,   0.0239409618080,   0.0625936463475,   0.0683447420597,   0.0442306287587,   0.0391051359475,   0.0426353551447,   0.0371840037405,  -0.0126571590081,   0.0378824584186,   0.0277350135148,   0.0528825782239,   0.0467238239944,   0.0588841922581,  -0.0069667985663,   0.0310888271779,   0.0189138893038,   0.0190123971552,   0.0512852519751,   0.0585658513010,   0.0361580550671,   0.0283366646618,   0.0361994802952,   0.0642560645938};
  // Declare the arrays in the stack
  const float kernel_1[35][35] = 
  {{  -0.0095765395090,   0.2565843164921,   0.1362567543983,   0.0662412345409,  -0.2468590289354,   0.1343876570463,  -0.1906255185604,   0.1826178729534,  -0.1539792567492,  -0.0763160511851,  -0.1695330590010,  -0.1766149103642,   0.1530766785145,   0.1635591238737,   0.2451400309801,  -0.2182566225529,   0.0253119505942,   0.0911260098219,  -0.2087695151567,   0.2419158518314,  -0.1825850605965,  -0.2769517302513,  -0.0707124695182,  -0.0617699958384,  -0.1309028267860,   0.0623185895383,   0.1992204785347,   0.2061807513237,   0.1672959774733,  -0.2704086899757,  -0.1382593065500,   0.1640132814646,   0.1684156507254,  -0.0568710938096,  -0.2369865626097},
   {   0.2965316474438,  -0.1113785579801,   0.1802910268307,   0.1137313991785,   0.1973257511854,  -0.1363011598587,  -0.0799897164106,  -0.1724381297827,  -0.1050101518631,  -0.0117649342865,   0.1820968240499,   0.2715178132057,  -0.0157207716256,   0.3132699131966,  -0.1341823488474,   0.0416321642697,   0.2808731496334,   0.2532315254211,  -0.2694638073444,   0.0828179195523,  -0.1305203884840,   0.0884878039360,  -0.2512874305248,   0.1828582286835,   0.1747343093157,   0.1290167272091,  -0.0858290866017,   0.2434743642807,  -0.3007139563560,   0.0351360253990,  -0.0237120166421,   0.0855225473642,  -0.1258061379194,   0.0275010894984,  -0.0294319856912},
   {  -0.0484352111816,  -0.0356156677008,   0.0605920664966,  -0.0499763637781,   0.1008592620492,   0.1730865985155,   0.2853988111019,   0.1729127615690,  -0.1740574091673,  -0.0182590950280,  -0.1197351664305,  -0.0340061001480,  -0.2810952663422,   0.0817333757877,  -0.0803897455335,   0.1895755529404,   0.1615904867649,   0.0767686516047,   0.0862733870745,   0.2239130139351,  -0.0836158096790,  -0.2519448101521,   0.0025398370344,  -0.1712189912796,  -0.1890117526054,  -0.1142001822591,   0.2319692522287,   0.0031442521140,   0.0582629032433,   0.0371910333633,   0.0770655348897,  -0.1039310023189,   0.0552912242711,  -0.0166566204280,  -0.1308398991823},
   {  -0.2234630137682,  -0.1369717568159,  -0.0589003004134,  -0.1164499148726,  -0.1619314998388,  -0.1670520156622,   0.1517810672522,   0.0186092201620,   0.0781382173300,   0.0372183211148,   0.0104756141081,   0.2050844281912,   0.2944176793098,  -0.2178868204355,  -0.0933863446116,   0.0126944798976,   0.1066297069192,   0.0175993405282,   0.1821862310171,  -0.2850339412689,  -0.0071779661812,   0.1019504889846,   0.1829701811075,   0.1827625483274,  -0.0020500624087,  -0.2317297011614,   0.1458472013474,   0.2087106257677,   0.0299183223397,  -0.0693810284138,   0.0825329869986,   0.2382951080799,  -0.1145409047604,  -0.0057502742857,  -0.1312772035599},
   {   0.1516174077988,  -0.1938529461622,   0.2772080898285,   0.2411300837994,   0.1378726214170,  -0.3206518292427,   0.2982060313225,   0.1537697166204,   0.0236678868532,  -0.1026081889868,  -0.2057334631681,  -0.3245353698730,  -0.0555449500680,  -0.1192310154438,   0.1856297403574,  -0.1793704032898,  -0.0607940480113,  -0.0844080746174,  -0.0586629025638,  -0.0539632476866,   0.0648171231151,  -0.0544904395938,   0.1135114729404,   0.2075126320124,  -0.0481135472655,   0.3022512197495,  -0.1535110622644,  -0.2107259929180,   0.2786804139614,  -0.2290167659521,  -0.2396621704102,   0.0238898713142,   0.0452359840274,  -0.0356609150767,   0.0636668205261},
   {   0.1043577045202,  -0.0161170810461,   0.2418170720339,   0.1466439664364,   0.0738583952188,  -0.0704972296953,  -0.0789966210723,  -0.0514865070581,   0.0934185609221,   0.1145928576589,  -0.2115664780140,  -0.1405829936266,   0.1119150668383,   0.0575959235430,   0.2550820410252,   0.1197399795055,  -0.1794172674417,  -0.0440271794796,  -0.0619586110115,  -0.2300411462784,  -0.1132781803608,   0.2806043624878,   0.1472103744745,   0.1177980229259,   0.1858820021152,  -0.0185582749546,  -0.1808976083994,  -0.1665594130754,   0.2472231686115,  -0.2153268903494,   0.0674044117332,   0.1222645491362,   0.2484018057585,  -0.2410090714693,   0.1086757630110},
   {   0.0886600837111,  -0.0883535072207,   0.2904672920704,   0.1753791868687,   0.1973798274994,   0.0641499087214,   0.0430343635380,  -0.2037398219109,   0.2517528533936,   0.0115723628551,  -0.2055975496769,   0.2443424463272,   0.2691045403481,   0.1083564311266,   0.2094086259604,   0.1865763962269,  -0.0360329151154,   0.0407666750252,  -0.0748346820474,  -0.2017775774002,  -0.0842666029930,   0.2810636460781,  -0.1313907206059,  -0.1877992004156,  -0.0110666146502,  -0.1771076172590,  -0.2884517312050,  -0.0384254567325,   0.2434381842613,   0.0097939725965,   0.3204714357853,  -0.1104255765676,   0.0929384902120,  -0.0226244777441,   0.0064343628474},
   {  -0.0035295775160,   0.1541655212641,   0.0592155791819,   0.1496674567461,   0.0114503940567,  -0.2545322775841,   0.0246645342559,   0.0546865165234,  -0.0770311579108,   0.1713712066412,   0.0777478367090,   0.1324976086617,   0.2776386141777,  -0.3215270042419,  -0.0065223439597,  -0.0123311886564,   0.3114508092403,   0.0852007567883,   0.2940683364868,   0.1428234577179,  -0.2156899571419,   0.0314524732530,   0.1293665170670,  -0.0400741770864,  -0.0555232167244,  -0.1051179394126,   0.0126761160791,  -0.0404984578490,  -0.0291098114103,  -0.2005758285522,   0.1409288942814,   0.2147979140282,   0.1811198145151,   0.0154548073187,  -0.0443034470081},
   {  -0.0202800240368,  -0.0186117868870,  -0.0894743949175,   0.3264563977718,   0.2467512786388,   0.0023939965758,   0.2061854451895,  -0.0561957098544,  -0.0105567127466,  -0.2342972904444,   0.0536549314857,  -0.1076496541500,  -0.2287815958261,  -0.1200963184237,  -0.1232534721494,  -0.2716532647610,   0.1047196388245,   0.0462386831641,  -0.1368202716112,   0.0691244304180,   0.0435972884297,   0.1989717334509,  -0.1847810447216,  -0.1943130493164,  -0.2206616103649,  -0.1719885766506,   0.0991361960769,   0.3166511058807,  -0.2717020809650,   0.2482831180096,   0.1586115956306,  -0.0859228521585,   0.1254436224699,   0.2181067913771,   0.1160869598389},
   {  -0.0758055746555,   0.2592504918575,  -0.0300100930035,  -0.0644031614065,   0.2068094611168,  -0.2785069942474,  -0.2161832898855,  -0.1993080228567,   0.2456444054842,   0.3269437253475,  -0.1729121059179,   0.2921806573868,   0.1124150231481,  -0.1133511886001,  -0.1788965165615,  -0.0674016922712,   0.1084602549672,  -0.2278460115194,   0.1899581998587,  -0.0820484906435,  -0.0346832573414,  -0.1392782479525,  -0.2102711200714,  -0.1506488025188,  -0.2052492499352,  -0.0266304127872,  -0.2637141048908,  -0.0472672730684,  -0.1770833581686,   0.1747520267963,  -0.0449156314135,  -0.0979856997728,  -0.2500881552696,   0.0884908661246,  -0.2940704524517},
   {   0.0565584786236,   0.2399405092001,  -0.1198302507401,  -0.1197462975979,   0.0551242865622,   0.1589169651270,   0.2666778266430,  -0.1053344756365,   0.1232232004404,   0.0212036706507,   0.0107499100268,   0.0491507686675,   0.0882794559002,   0.0463198199868,  -0.0983531475067,   0.0042367284186,  -0.1411481648684,  -0.2699610888958,  -0.2264139801264,   0.1492941528559,   0.0275722723454,  -0.1877137422562,   0.0207021012902,   0.2307960689068,   0.3119097948074,   0.0168756674975,  -0.0782887861133,  -0.1851858496666,  -0.1303696185350,   0.1365595459938,   0.0722406655550,  -0.2113129198551,   0.2576139271259,   0.0158768277615,   0.2867221832275},
   {  -0.0201981812716,   0.0248210802674,   0.0782133340836,   0.0424205847085,   0.2436107993126,  -0.1125365942717,   0.2090260833502,  -0.1000316441059,   0.2638364434242,   0.0516745373607,  -0.1057824045420,  -0.0247903075069,   0.2267811149359,  -0.2429304718971,  -0.0004322793393,  -0.2871137261391,  -0.0645976737142,   0.2052671909332,  -0.1510857492685,  -0.0444852747023,  -0.1184570491314,   0.1650535911322,   0.2210514992476,   0.0843080282211,   0.1855636090040,  -0.0572384297848,  -0.0339289642870,  -0.0600207112730,   0.2779565751553,   0.2451911568642,   0.0435029566288,   0.1193068921566,  -0.1041352301836,  -0.1837480217218,   0.2312847375870},
   {  -0.2009456008673,   0.1651949733496,   0.1591014564037,  -0.2062775790691,  -0.1913128942251,  -0.2184244692326,  -0.2383491545916,  -0.0871227011085,  -0.2365181148052,  -0.2461851090193,  -0.0282110292464,  -0.3160426318645,   0.1086013242602,   0.0729217454791,  -0.0100858686492,   0.1390188783407,  -0.0632429420948,   0.0117061128840,   0.1262993067503,   0.2347202301025,  -0.1856594383717,  -0.0401728525758,   0.2254391461611,   0.3034028112888,  -0.0938705578446,   0.1143737882376,   0.1457803398371,   0.2813917398453,  -0.0147832632065,   0.2047403305769,   0.1761798262596,  -0.1813259124756,  -0.2069482803345,   0.2454337179661,  -0.2298349738121},
   {   0.1161778867245,   0.0955581888556,  -0.1174431219697,   0.0530137680471,   0.1027467697859,  -0.1692364364862,  -0.0997961908579,   0.2988862991333,  -0.1127224490047,   0.1362429261208,  -0.2278029024601,  -0.2390210181475,   0.0178490858525,   0.1568596363068,   0.1575915962458,   0.0392762944102,  -0.0065098279156,  -0.1142125949264,   0.2023076564074,  -0.1310338973999,   0.2358981221914,   0.0012907736236,  -0.1251020729542,   0.1991047561169,   0.1460780948400,   0.2728939056396,   0.2002283781767,   0.2557514607906,   0.2458562403917,   0.1107413545251,  -0.2607285678387,   0.0873349681497,  -0.1065399572253,   0.1938057094812,   0.0152606815100},
   {   0.1155751496553,   0.2096812576056,   0.2359787225723,  -0.2977200150490,   0.1179255396128,  -0.0667515471578,   0.1565615534782,   0.0377623923123,   0.1161058172584,   0.0855495780706,  -0.1944202035666,   0.1156686916947,  -0.0784472376108,   0.1808085143566,   0.2591079473495,  -0.0671583265066,  -0.0813913196325,   0.2738829553127,  -0.1151855513453,   0.2804913818836,  -0.2210450172424,  -0.2285331785679,  -0.1865925937891,   0.0077689061873,   0.2717537581921,  -0.1545839905739,  -0.2557542622089,   0.2009343802929,  -0.2222627699375,  -0.1460672318935,  -0.2147336006165,  -0.0998808592558,  -0.2662566602230,   0.1149308234453,  -0.1496996879578},
   {  -0.1676107496023,   0.3084664344788,   0.2053893655539,  -0.0941142067313,  -0.0257994700223,  -0.1241700425744,  -0.0300423968583,   0.0107370093465,  -0.1567720323801,  -0.0689410418272,  -0.0827671587467,   0.2287371009588,  -0.0933118388057,  -0.0838808193803,   0.2757259607315,   0.0898423716426,   0.1633981317282,  -0.1473122090101,   0.0210225973278,   0.2833240926266,   0.2373928874731,  -0.3154465556145,   0.2186777144670,  -0.2383890151978,   0.2223005443811,   0.3272340297699,   0.1092154085636,  -0.0611749365926,  -0.0411806516349,   0.2607644200325,   0.0254449341446,   0.1122762560844,   0.2575494945049,   0.1379046142101,   0.2010052651167},
   {  -0.1161608546972,   0.2956089973450,  -0.0534040704370,   0.1481837481260,  -0.2116653621197,   0.0201010741293,  -0.2627032995224,   0.1713015288115,  -0.1069772541523,   0.1087411865592,   0.2384824156761,   0.1603284478188,   0.1977675408125,  -0.1040929928422,   0.2157148867846,   0.0841963589191,  -0.1078208610415,  -0.0098406486213,  -0.0474622808397,  -0.1275770217180,  -0.1257704943419,  -0.0342971645296,  -0.1708215624094,   0.1793318837881,   0.3050983846188,   0.0171588044614,   0.0004528187565,   0.2680284082890,   0.1857813298702,  -0.0127207022160,   0.0751590952277,  -0.1483098417521,  -0.1346779018641,   0.1304321587086,   0.1363792866468},
   {   0.0384311564267,   0.3244287073612,  -0.1894715428352,  -0.1316029429436,  -0.2046478539705,   0.1438298970461,  -0.1813539862633,   0.2237460166216,   0.0361443758011,   0.1466998308897,   0.2387185096741,  -0.2671115696430,  -0.1538716554642,  -0.1154895722866,  -0.0203228015453,  -0.1759840399027,   0.0100578870624,   0.1895909607410,  -0.0101132523268,   0.0578311756253,   0.2282954752445,  -0.1915303468704,   0.2097404003143,   0.2135202139616,   0.1467010229826,   0.2923581898212,  -0.0958421602845,   0.1494248360395,   0.2036756873131,  -0.0326808132231,   0.2472080588341,  -0.2074646651745,  -0.2332348674536,   0.2502774596214,   0.2228425741196},
   {  -0.0406745932996,   0.1246736571193,   0.2338986843824,  -0.0608072541654,  -0.0155448717996,   0.2101902216673,   0.0176869425923,   0.0457438752055,  -0.0950942263007,   0.1861539185047,   0.0325959473848,   0.0584908649325,   0.1664074957371,   0.2707092761993,  -0.2288837581873,   0.0144893657416,  -0.1804175376892,   0.2162578850985,  -0.2165747731924,   0.2026286423206,   0.1847127079964,  -0.0654392093420,   0.2463591843843,  -0.0971667096019,  -0.1295632719994,   0.2759609222412,  -0.0071309022605,   0.2799632549286,  -0.1609411388636,  -0.2181036025286,   0.2665555179119,  -0.2108675539494,  -0.2429543435574,   0.0435967333615,  -0.0551314577460},
   {   0.2936703562737,  -0.2323361635208,  -0.1194645017385,   0.0287592113018,   0.2337341904640,   0.2740863263607,   0.2788932025433,  -0.0270502567291,   0.0621971338987,  -0.2051334679127,  -0.0565041638911,  -0.2771930098534,   0.0645323023200,   0.2128008604050,  -0.2636485993862,   0.0999066457152,   0.1786755025387,  -0.2957789301872,  -0.1949086487293,  -0.1932504475117,   0.0046081538312,   0.0209676232189,  -0.0516723915935,  -0.1720958203077,  -0.2744086384773,   0.1420838832855,  -0.0939757674932,  -0.2160604596138,  -0.2176366448402,  -0.1644525229931,   0.2543883621693,  -0.0574097335339,   0.1078096851707,  -0.0633535161614,   0.0188005547971},
   {   0.2186344861984,  -0.1448962539434,   0.1374461054802,  -0.0966937243938,  -0.0093780616298,  -0.2959810197353,   0.2025665789843,   0.2160624116659,  -0.2418654561043,   0.3095725476742,   0.3017897605896,   0.1736524105072,  -0.2116332203150,   0.1024012044072,  -0.1098007112741,  -0.2806037366390,   0.2365220636129,  -0.0049873096868,  -0.0486497730017,  -0.2316829264164,   0.1555313467979,   0.2686564922333,   0.0454550758004,  -0.0938908532262,   0.1558529734612,  -0.2210418581963,   0.0683574900031,  -0.2548908889294,  -0.1056340783834,   0.0078741153702,   0.2904239892960,  -0.1695162057877,   0.0907503664494,  -0.1953146308661,  -0.2422312349081},
   {   0.2884469926357,   0.0412132404745,  -0.0426889546216,  -0.1031120568514,   0.2108080834150,   0.2517591714859,  -0.2473922520876,  -0.2205684334040,   0.2387317121029,  -0.0756155103445,   0.1581382006407,  -0.0177202709019,   0.1257949173450,  -0.1064446046948,  -0.1746871024370,  -0.2511552870274,   0.0968384668231,  -0.0531884022057,  -0.2735432088375,   0.0460439212620,  -0.2483293712139,   0.2585815787315,   0.2945617735386,  -0.2207166254520,  -0.1248953118920,   0.1376761496067,  -0.1744251251221,  -0.0744288563728,   0.0876186639071,   0.0963617786765,   0.2643484473228,  -0.0727397501469,   0.1598937362432,  -0.1815634518862,   0.0713832601905},
   {   0.0732747688890,   0.0869580134749,   0.2688107192516,   0.3109568357468,  -0.2736102342606,  -0.0264958608896,  -0.0868654623628,  -0.2977681457996,   0.2995816469193,   0.2363739758730,  -0.1131024584174,  -0.1154484823346,   0.0297943614423,  -0.2829487025738,   0.1417224705219,  -0.1276731193066,  -0.2101101577282,   0.2140649855137,  -0.0120862321928,   0.2666760385036,  -0.2670851051807,   0.0168419536203,   0.1298568546772,  -0.0691528096795,  -0.0032565565780,   0.0992823988199,  -0.1684448868036,   0.0291669126600,   0.1988550275564,  -0.0575725696981,  -0.2739255726337,   0.0376282334328,  -0.1444590091705,  -0.1395828425884,   0.1663925647736},
   {   0.3131431937218,   0.1405602097511,   0.2082961499691,   0.3104228675365,  -0.1913889050484,  -0.1566934287548,   0.0685010105371,  -0.2661551237106,  -0.0877252146602,  -0.1071974635124,   0.1670965105295,  -0.2010641396046,   0.1315335035324,   0.1239802986383,   0.1540956646204,  -0.0487734638155,  -0.1869276314974,   0.0810548216105,  -0.0924681574106,   0.0645725950599,  -0.1050399914384,   0.0703908652067,  -0.0306608695537,   0.3005150854588,   0.0452517308295,  -0.1677045375109,  -0.2167315483093,  -0.0063413986936,  -0.2194417715073,  -0.1615415960550,   0.1108073815703,  -0.1398950666189,   0.2539676427841,  -0.0365437231958,  -0.1571091264486},
   {   0.2905533909798,   0.1774273663759,   0.0339290387928,   0.1992078274488,  -0.2398193329573,  -0.0798186883330,  -0.0323717258871,  -0.0941314622760,  -0.1879417002201,   0.1676107645035,   0.2944931983948,   0.1824836581945,   0.0479791946709,  -0.1260959506035,   0.1721233874559,  -0.2053797245026,  -0.0522958561778,   0.1109007373452,   0.2718923985958,   0.2297253012657,   0.0970286130905,  -0.0391028113663,  -0.2092371135950,  -0.0206013247371,   0.0301482323557,   0.0719355344772,   0.1050465553999,   0.1430769264698,  -0.0213444977999,  -0.0676860883832,   0.2261178642511,  -0.0852740481496,   0.2825830280781,  -0.2307364344597,  -0.1793663352728},
   {   0.2668052911758,  -0.2419762313366,   0.2162875384092,   0.2909697890282,  -0.2637430429459,   0.1706912368536,   0.1770776808262,   0.2403636276722,   0.1534856706858,  -0.0411071591079,   0.0715044513345,  -0.0290613342077,  -0.0876880288124,  -0.0190893840045,   0.0003572892456,  -0.2175501585007,  -0.2998439967632,  -0.0796639025211,   0.0536020509899,   0.0186108741909,  -0.0799900740385,   0.0936114490032,  -0.0298996753991,   0.0774932876229,  -0.1367167830467,  -0.0429376102984,  -0.2774452567101,   0.1855055838823,  -0.1696037054062,   0.2225377410650,  -0.1739912778139,   0.1867801696062,  -0.1441339999437,  -0.1630966961384,  -0.1010462716222},
   {  -0.2073357701302,  -0.0180213246495,   0.0613745376468,  -0.1517668217421,  -0.0519121326506,  -0.2429098188877,   0.1185740306973,  -0.1115323156118,  -0.0423730537295,   0.1252356469631,   0.1189104169607,  -0.3052246868610,   0.2869909405708,  -0.0415814071894,   0.2306951880455,   0.2573703229427,   0.0699548199773,  -0.1484056562185,   0.1448325067759,   0.2050267755985,  -0.0516007170081,  -0.0456309914589,   0.1209468320012,   0.1930217146873,  -0.0511773824692,  -0.0637875944376,   0.0437251217663,  -0.2167579233646,  -0.1386257857084,   0.2375684380531,   0.1388581693172,   0.1798439174891,   0.1253132820129,  -0.0660590380430,   0.1360298395157},
   {  -0.2238033711910,  -0.2211070209742,   0.0475116707385,   0.1153825670481,  -0.2403075098991,  -0.0738706961274,  -0.1241721734405,   0.2701101303101,   0.2109765112400,   0.0134435035288,  -0.0553640089929,   0.1971376240253,   0.2981872260571,   0.2701596915722,  -0.0994298532605,   0.2328463941813,   0.2982069849968,   0.1508755385876,   0.2885904610157,   0.1833019405603,   0.1224558800459,   0.1817537248135,   0.1681690067053,   0.0730416253209,  -0.1718986928463,  -0.0421146973968,   0.0848005115986,   0.2998135089874,  -0.1854074001312,  -0.2131682932377,   0.2663506269455,   0.1318004429340,  -0.0628107115626,  -0.1341718286276,  -0.2740569114685},
   {   0.1079938337207,  -0.1410094350576,   0.2304837703705,   0.1233436912298,   0.0875038430095,  -0.0795152336359,   0.0396653711796,  -0.2680149674416,   0.1028787121177,   0.1725714057684,   0.0614683888853,  -0.1116243973374,   0.0754730850458,   0.0883770734072,  -0.1874320507050,   0.0558418072760,  -0.0522773861885,  -0.0123971784487,  -0.0546309165657,   0.2727229595184,   0.0726793333888,  -0.1491717696190,   0.2364686280489,  -0.1059460341930,   0.0834226831794,   0.1238939091563,   0.2555971145630,  -0.2067240625620,   0.0145330373198,  -0.1155980080366,  -0.2298602163792,   0.0510954000056,  -0.0800484716892,  -0.0667125657201,  -0.2950933575630},
   {  -0.2231992334127,  -0.0292654018849,   0.2825880348682,   0.0375754795969,   0.2855582833290,  -0.1142750978470,   0.0826598256826,   0.0070846551098,   0.1206646636128,  -0.1201287806034,   0.0411587394774,  -0.1313417851925,  -0.2297641783953,  -0.0947083458304,  -0.0354138910770,   0.1573643684387,  -0.1643245965242,  -0.0507358051836,  -0.0283448770642,  -0.0853704437613,   0.2219620049000,   0.3109763562679,   0.1178482472897,  -0.1329353600740,  -0.0970400124788,  -0.2174170762300,   0.1878090351820,   0.0572271235287,  -0.0118235480040,   0.0681805238128,  -0.1188551485538,  -0.0160890854895,  -0.2254794239998,   0.0442923158407,   0.2206435501575},
   {  -0.0502129718661,  -0.2611838281155,  -0.0132014583796,  -0.0754256621003,  -0.2044807523489,   0.1718116551638,  -0.2103689610958,  -0.1047920361161,   0.1055876091123,   0.1242996454239,  -0.0842868238688,  -0.1656160354614,  -0.2010756283998,   0.0593801029027,  -0.0284826979041,  -0.0731162205338,   0.2243432104588,  -0.1253010779619,  -0.0657694786787,  -0.2120010703802,   0.1549060046673,   0.1873088181019,  -0.1759555190802,   0.0396742969751,   0.1486405879259,   0.0364905558527,   0.1398904472589,   0.1213428154588,   0.2846996486187,  -0.1373831629753,  -0.2184983044863,   0.1832425594330,  -0.0944856852293,  -0.1791570186615,   0.3123036324978},
   {   0.1463530510664,   0.1809361726046,   0.1131813600659,  -0.0227739047259,   0.1536687910557,  -0.1960422992706,   0.2155257761478,   0.1339988857508,  -0.0672010928392,   0.0296721253544,  -0.2479725778103,  -0.1813298910856,  -0.1205511167645,  -0.0297769028693,   0.2323184907436,   0.2242939919233,   0.0125462654978,  -0.1186128780246,   0.2794468700886,  -0.0125209186226,  -0.3317679762840,   0.0600442141294,   0.1448990404606,   0.1541019380093,   0.1954181641340,   0.2385257035494,   0.0238116607070,   0.0357271879911,  -0.2757864296436,   0.0272436924279,  -0.0337779596448,   0.1241263598204,   0.1482077687979,   0.1681014895439,  -0.3267813622952},
   {   0.1592148393393,   0.2119190096855,  -0.0047696311958,  -0.2302435338497,  -0.0625582113862,   0.2437998056412,   0.0732837915421,   0.2082320898771,   0.0108430385590,   0.0022262644488,  -0.1434406042099,  -0.0290511194617,  -0.0121922381222,   0.2860231697559,   0.1345082223415,  -0.1925273984671,  -0.1776459217072,  -0.0381604395807,  -0.2423578798771,  -0.1517487615347,  -0.2046668231487,   0.3111554384232,  -0.1936141848564,  -0.0560881122947,  -0.2010977715254,   0.1317204087973,   0.0206254851073,   0.2358609437943,   0.0531989559531,  -0.0524525977671,  -0.0190290622413,  -0.2414457052946,   0.1259531378746,   0.0042271730490,  -0.2679625451565},
   {  -0.1442563235760,  -0.1678634136915,   0.2099315673113,  -0.1699281930923,   0.1166135817766,  -0.0230778716505,   0.2803475856781,  -0.2864353358746,  -0.2303387522697,   0.0145851187408,  -0.1152972280979,  -0.1576942354441,   0.2209339737892,   0.2080050855875,   0.1364497244358,  -0.1610782146454,   0.1890218108892,  -0.0978566184640,  -0.0476060360670,   0.2890314459801,   0.2117550075054,  -0.1148049011827,   0.2887564599514,   0.2110956758261,   0.2821692526340,  -0.1831132471561,   0.2437811642885,  -0.1097133979201,  -0.2417571097612,   0.1092802882195,   0.0886644497514,  -0.2561708986759,   0.1263567656279,  -0.3272159099579,   0.1486472189426},
   {  -0.1681775450706,   0.1622607558966,  -0.0518504343927,  -0.0652997940779,   0.0058988397941,   0.1314403116703,  -0.1798923611641,   0.1582314372063,   0.0093668950722,   0.1933893114328,   0.1779159754515,   0.0335487574339,   0.2637079060078,  -0.0085794972256,  -0.2222825288773,  -0.1641712486744,  -0.1180983483791,   0.1436235904694,   0.0714649558067,  -0.0876267254353,  -0.0868859291077,   0.2792910039425,   0.0456348285079,  -0.0536441057920,  -0.0284346248955,   0.0335939526558,  -0.1743021011353,  -0.1153299286962,   0.0569110773504,  -0.0595382936299,  -0.0262841582298,  -0.1544848233461,  -0.3185824751854,   0.0118328323588,   0.2402611523867}};
  const float bias_1[35] = {   0.0365731865168,   0.0361485481262,   0.0427419207990,   0.0192148853093,  -0.0388803519309,  -0.0145804220811,  -0.0249175094068,   0.0079858005047,  -0.0376171879470,   0.0266148224473,   0.0301095172763,  -0.0488360449672,  -0.0410650447011,   0.0208553969860,   0.0150695787743,   0.0016419539461,  -0.0077899498865,   0.0104025732726,   0.0409174561501,   0.0346139222383,   0.0383894145489,   0.0211722552776,   0.0341910459101,   0.0256628338248,   0.0281401239336,   0.0506400354207,   0.0275611989200,   0.0346973277628,   0.0532076954842,   0.0143703799695,   0.0297733154148,  -0.0025628083386,  -0.0029023967218,  -0.0277396887541,   0.0438543222845};
  // Declare the arrays in the stack
  const float kernel_2[35][35] = 
  {{  -0.1310568600893,  -0.1135184168816,   0.1155194938183,   0.1464410275221,   0.1502622812986,  -0.0270168054849,  -0.0503958649933,  -0.1590708941221,   0.2115971297026,   0.0451694093645,   0.0991688743234,  -0.0225412044674,   0.2073730677366,   0.2773030102253,   0.1105637177825,   0.0255966335535,  -0.1326518058777,   0.1380115002394,  -0.0958498194814,  -0.2544267177582,  -0.0899128988385,  -0.0900395214558,  -0.2454752624035,   0.1630512475967,  -0.1545025408268,   0.2049552351236,  -0.0331128202379,   0.2736720442772,   0.0296784415841,   0.2167686223984,   0.0879912376404,   0.1110741943121,   0.1546806395054,  -0.0104793189093,   0.1038933470845},
   {  -0.2139694839716,   0.2101020365953,  -0.2292361855507,   0.2239983826876,   0.0014680554159,   0.1957924067974,  -0.0916897058487,  -0.2491423934698,   0.2393785864115,   0.2136260569096,  -0.1407809555531,  -0.2508072257042,   0.2243128567934,   0.2726372778416,  -0.0501808859408,   0.0620646029711,  -0.0951846241951,   0.2897373139858,   0.0509493462741,   0.2598484158516,   0.1641020327806,   0.2397743910551,   0.2278176695108,   0.2530011534691,  -0.3147239089012,   0.1008918657899,   0.2502797544003,   0.1274821460247,   0.1763870716095,  -0.1834903061390,   0.2358057200909,  -0.1572840213776,   0.2603554725647,   0.0791244208813,  -0.2290601134300},
   {   0.0162482522428,   0.0939705222845,   0.2612500190735,   0.2816272377968,  -0.0893009006977,   0.1077031940222,  -0.0686222016811,   0.1825785040855,   0.1668054163456,   0.1912053674459,   0.2395165711641,  -0.1463682651520,   0.1855806857347,   0.2871436178684,  -0.2673361897469,   0.1294758319855,  -0.2520871162415,   0.0453252270818,  -0.1973450332880,   0.0765036642551,   0.0203399341553,   0.2191426157951,  -0.1634862273932,  -0.1705632060766,  -0.1006514132023,   0.1800967901945,  -0.2803093791008,  -0.0238137096167,  -0.1334083080292,   0.2302252352238,   0.3046850860119,   0.1663631647825,   0.2366796135902,  -0.2013464272022,  -0.1431339830160},
   {  -0.2320394963026,  -0.1303843557835,   0.1155928149819,   0.0353309810162,  -0.1979486793280,   0.2373675107956,   0.2069394886494,  -0.3187572360039,   0.0190868340433,  -0.2292517423630,  -0.0470998510718,   0.1383317559958,   0.0815184265375,   0.2539102137089,   0.0464587993920,   0.1469706743956,   0.1325879096985,   0.0537419766188,  -0.2729325294495,  -0.2595163285732,  -0.1270865947008,  -0.1373567730188,  -0.2293283343315,  -0.0053621609695,   0.0511590018868,   0.0301894601434,   0.1884002387524,  -0.1831667572260,   0.3157566487789,  -0.1034542098641,  -0.0312766395509,   0.1078179031610,  -0.2272948324680,   0.1278387904167,   0.0221767947078},
   {   0.1877288967371,   0.0757422000170,   0.1207341998816,   0.1089452654123,  -0.2151767015457,   0.1363830417395,  -0.1121613159776,  -0.2431346625090,   0.2197277098894,  -0.2327869385481,  -0.0657427161932,  -0.0816597267985,  -0.2323303520679,   0.0649976208806,   0.1015585362911,  -0.0898359715939,   0.2103192806244,  -0.1909991353750,   0.0868764072657,  -0.1463104337454,  -0.2639884650707,  -0.0951476246119,   0.2205368578434,  -0.2495367825031,   0.0237571578473,  -0.2501920163631,   0.1490585803986,  -0.1083741709590,   0.1043844297528,   0.1618996858597,   0.2575449347496,   0.0128978816792,   0.0482301376760,  -0.1139991506934,   0.2902468144894},
   {   0.0827622786164,  -0.1671667993069,  -0.1435637772083,   0.2907436490059,  -0.1596184372902,  -0.0242184493691,   0.0164466015995,   0.0776878893375,   0.2956764400005,   0.1879591494799,  -0.0276037547737,  -0.2773989737034,  -0.1282188743353,  -0.1698561608791,   0.0112954238430,  -0.1135635450482,   0.0839388445020,  -0.1829476356506,  -0.2145148962736,  -0.1925092488527,  -0.2599435150623,  -0.0889407396317,   0.2684694826603,  -0.2455824166536,  -0.1402853429317,   0.0716739967465,   0.0693591088057,  -0.2621191143990,   0.2014491111040,  -0.2541536688805,   0.0589382983744,  -0.1490837782621,  -0.1476024091244,   0.1011936366558,  -0.2626276016235},
   {  -0.0439546629786,  -0.0681014508009,   0.0296996571124,   0.0969341695309,  -0.0279178153723,   0.2131310999393,  -0.1458971649408,  -0.1143467575312,   0.2466383427382,  -0.0479407608509,  -0.2362444549799,   0.0958490222692,   0.0330767631531,   0.0885376036167,   0.2470424622297,  -0.0668065920472,   0.2792435288429,   0.0547330453992,   0.1365720629692,   0.2379866689444,   0.0893577635288,  -0.1505730599165,  -0.0407991819084,   0.0194601584226,  -0.0835807770491,  -0.0378751344979,  -0.2020219564438,   0.1835519075394,   0.2727082073689,   0.2807842791080,   0.0712356492877,   0.1780177652836,  -0.0692243203521,   0.0286487266421,   0.1791898310184},
   {  -0.1147643476725,   0.2466863095760,   0.0986479446292,   0.1869684606791,   0.2225257754326,  -0.0702255442739,  -0.2102742344141,  -0.0153266200796,  -0.2673065960407,   0.0495475195348,  -0.1634504944086,  -0.1231101676822,  -0.0267349462956,   0.2281295657158,   0.2495760172606,  -0.2509016692638,   0.2003231644630,  -0.1705074310303,  -0.1100765019655,  -0.0559429638088,  -0.0023384785745,  -0.1183181852102,   0.0957671254873,   0.1833321601152,  -0.0948721095920,  -0.0988603979349,  -0.2331634312868,  -0.2486319243908,  -0.1370760798454,   0.2868689000607,  -0.2207152992487,  -0.1955094337463,   0.2433948516846,   0.2209886908531,   0.0717585161328},
   {   0.2419653832912,  -0.1705944836140,  -0.1606792062521,  -0.1969867348671,   0.1566951572895,   0.2111041098833,   0.3007285296917,  -0.2366798520088,  -0.0108264917508,   0.1443412750959,  -0.1830452829599,   0.2811069488525,   0.1042664125562,  -0.1073464304209,   0.2284712791443,  -0.1859196126461,  -0.2070359587669,   0.0730616897345,  -0.2355442345142,  -0.1289662420750,   0.2011301219463,  -0.2112988382578,  -0.1116136461496,  -0.0740914642811,  -0.0495034828782,   0.0979103744030,   0.2094217538834,   0.1628934741020,   0.1465654373169,   0.0863483175635,   0.0848403498530,  -0.0325182117522,   0.1678940951824,   0.0119427740574,   0.2938463389874},
   {  -0.1203179955482,  -0.0179959554225,   0.0148454857990,   0.2537051439285,   0.0612170174718,  -0.0290708318353,   0.2093377560377,  -0.0597119517624,   0.1194955930114,  -0.2124927192926,   0.3289975225925,   0.0245453789830,  -0.2406828254461,   0.2868034541607,   0.1182903423905,  -0.2134782969952,   0.1458310335875,   0.1558585762978,  -0.0199652258307,  -0.2712766826153,  -0.1202675253153,  -0.0730243027210,   0.2769784033298,   0.2736435830593,  -0.0328753404319,  -0.2381242960691,   0.2666816115379,  -0.1781067550182,  -0.0670857354999,   0.2120411694050,   0.2042178362608,  -0.1789447218180,   0.1953489184380,  -0.2685932815075,   0.1969865262508},
   {  -0.2299970537424,   0.0828865692019,   0.0844147503376,  -0.1054046005011,   0.0845758467913,  -0.0557245835662,   0.2423067539930,   0.2468116283417,  -0.2415378093719,  -0.0406626015902,   0.2285164594650,   0.2463427484035,   0.1279146969318,   0.1749144792557,   0.1298547983170,   0.1909670233727,   0.3050823509693,  -0.1768665909767,   0.1426923722029,  -0.0310534648597,   0.0033802727703,   0.1801914423704,   0.2600594460964,  -0.0387409292161,  -0.0750337615609,  -0.2109370231628,   0.1033114641905,  -0.2400566786528,   0.1223051548004,  -0.2115661054850,  -0.0887714847922,  -0.0525158978999,   0.3090938627720,   0.1392172873020,  -0.0692165195942},
   {  -0.2046086490154,  -0.1572325527668,   0.0638055801392,  -0.0536241531372,  -0.1001194640994,   0.1198774650693,   0.0459768436849,  -0.1918271631002,   0.1006530448794,  -0.2508532702923,  -0.1711703240871,  -0.2899589240551,   0.0035251721274,  -0.1183845996857,  -0.2958902120590,   0.2041190564632,  -0.1315215975046,  -0.0354576110840,  -0.0735486820340,  -0.1662733107805,   0.2378082126379,   0.2054944485426,  -0.2590379118919,   0.0652018710971,   0.2362196892500,   0.1380354464054,  -0.2759506702423,  -0.0425646007061,  -0.1436549574137,   0.2313871383667,   0.1067718863487,  -0.1723197102547,  -0.2372531294823,  -0.1835601031780,   0.2340701371431},
   {   0.1743738800287,  -0.2922840416431,   0.0005401769304,   0.2386003583670,  -0.1484392881393,  -0.2538396120071,   0.1301987618208,   0.0666514039040,   0.1726048141718,   0.1765953451395,  -0.2423880398273,   0.0812516734004,   0.0499960631132,  -0.2021245807409,   0.1093216612935,  -0.3035733699799,  -0.1901233494282,   0.0391663610935,   0.2234777361155,   0.0809602588415,   0.1500672250986,  -0.1244798749685,  -0.2647962570190,   0.0549939908087,  -0.1673806309700,   0.0802887752652,  -0.0687499195337,  -0.0675586909056,   0.0633766278625,  -0.2767953872681,   0.2445314079523,  -0.0332815498114,  -0.1557286828756,  -0.1788329035044,   0.0143905272707},
   {  -0.0544404089451,  -0.0665987133980,  -0.2726263999939,   0.2351302355528,  -0.2227099537849,   0.1872038245201,   0.0263606756926,  -0.1552394926548,   0.1771306991577,   0.1981717050076,  -0.1632691919804,   0.1320880353451,   0.2223795503378,   0.0641584545374,  -0.2194620668888,   0.0363999754190,   0.1775037944317,  -0.0583084970713,   0.3140205740929,  -0.0292775183916,  -0.1350506693125,   0.0363146215677,  -0.2109557688236,   0.0824708566070,  -0.1421386748552,  -0.0183954481035,   0.0698329061270,   0.1491118073463,  -0.2166460156441,   0.2491070926189,   0.0207151602954,  -0.3064550757408,  -0.2165033072233,   0.0480515919626,  -0.2116207033396},
   {   0.3135828077793,  -0.0466890856624,  -0.1322833299637,  -0.0440336465836,   0.2376923114061,   0.0702858567238,  -0.0578363314271,   0.2621444761753,  -0.1463413834572,  -0.0499628931284,   0.3382261395454,  -0.1872884482145,  -0.2611642777920,  -0.2487095594406,   0.1921906322241,  -0.1172342151403,  -0.2374962568283,   0.2479338645935,  -0.1762464493513,  -0.1740340888500,  -0.1743844896555,  -0.0530689433217,   0.1842855513096,   0.1859298348427,   0.2373484075069,  -0.0874385833740,  -0.1654968857765,  -0.0869946852326,   0.2348226606846,  -0.1715406477451,   0.0656577795744,   0.2811872661114,   0.1786700487137,   0.0236579924822,   0.2020470649004},
   {  -0.2125026583672,  -0.0104215927422,   0.2465875297785,   0.2012011855841,   0.0875712335110,  -0.1467825323343,  -0.2302834391594,  -0.2822238504887,  -0.2048633694649,  -0.0568850152194,   0.1665866374969,   0.1066431850195,  -0.2719002068043,  -0.1294278204441,   0.2551653683186,   0.0228685904294,   0.0952569767833,   0.2787819802761,  -0.1341923624277,   0.1651488691568,  -0.1603090763092,   0.0772799998522,  -0.0157813075930,   0.1157610341907,   0.0849418193102,  -0.1752227991819,  -0.2241284847260,  -0.0662866756320,   0.2111942768097,  -0.1126891747117,  -0.1902232319117,   0.0109860030934,   0.0978735387325,   0.2937278151512,  -0.2709777951241},
   {  -0.0163949169219,  -0.0196442492306,   0.1572016030550,  -0.0792974531651,  -0.2364521324635,   0.0853605940938,   0.0460007600486,   0.2675693333149,  -0.1319536715746,  -0.1039561703801,  -0.1214818879962,   0.2129311561584,  -0.2473682910204,  -0.1436066031456,  -0.2345284372568,   0.0490212626755,   0.2283278703690,   0.1722834110260,   0.0567921958864,  -0.1908218413591,   0.2153460532427,  -0.2387418448925,  -0.2118863612413,   0.1852408349514,   0.2477774322033,  -0.1597352772951,  -0.2525383234024,  -0.1535714119673,  -0.0123863173649,  -0.2769204974174,   0.0458758138120,  -0.0718145892024,  -0.1136683374643,   0.2026055753231,  -0.1568035483360},
   {   0.2851716279984,   0.1706023067236,  -0.1057033538818,  -0.0977612957358,  -0.2408746182919,   0.2439417392015,   0.1269207447767,   0.1655288189650,   0.1971510648727,   0.0397212207317,   0.1101673245430,   0.2928788661957,   0.0375182405114,   0.1742460876703,  -0.0459694154561,  -0.0957953706384,   0.1587201952934,  -0.2423373758793,   0.2285980284214,   0.2320604026318,   0.0895283818245,  -0.2200142890215,  -0.0036904704757,   0.2800441086292,  -0.0434375926852,  -0.0833701193333,  -0.1001006588340,   0.0483135432005,   0.0887589678168,  -0.2216174006462,   0.3080526292324,  -0.2605326771736,   0.0810577422380,   0.2388015091419,  -0.0206100493670},
   {   0.1377850919962,  -0.0502609834075,  -0.1786176115274,  -0.0815278217196,   0.2656431794167,  -0.1001264750957,   0.3060280978680,  -0.2514822483063,   0.2365045547485,   0.0966281369328,  -0.2015923112631,  -0.2436578124762,  -0.1250031590462,  -0.0904206112027,  -0.2399945110083,  -0.1944921463728,   0.0796760842204,   0.2320172935724,  -0.2137576788664,  -0.1993063986301,   0.0364722646773,  -0.2638731896877,  -0.1210258379579,   0.2599157094955,  -0.2961862981319,  -0.0099667953327,  -0.0283952932805,  -0.2045385539532,  -0.1796437203884,   0.2692819535732,  -0.3074705302715,  -0.0462701991200,   0.1499678641558,   0.1995908021927,  -0.2283574789762},
   {   0.2095361202955,  -0.1075449213386,   0.0798797160387,   0.2776123285294,   0.2355186045170,  -0.2875561416149,   0.2601208686829,   0.2734000384808,  -0.2337771654129,   0.2072561085224,  -0.1678263992071,  -0.0918479561806,   0.2106831669807,   0.1256045550108,  -0.0164114329964,   0.1436010301113,  -0.1034353673458,  -0.1874760538340,  -0.2434875965118,   0.0447786785662,  -0.2238906770945,   0.1485674977303,   0.0287236180156,   0.2500110566616,   0.1693978756666,   0.2208786606789,   0.0424250252545,   0.2293888181448,   0.0995239764452,   0.1377473473549,   0.0295654013753,   0.1300879865885,  -0.1357332915068,  -0.1192590668797,   0.1076778322458},
   {   0.0618618875742,   0.0937493592501,   0.2036462128162,   0.0368626117706,   0.1470251232386,  -0.1065660342574,   0.0144470278174,   0.2176098823547,   0.1083844080567,   0.2372362166643,  -0.0439883135259,   0.0286434069276,   0.2938362360001,   0.1955036222935,   0.1835994571447,   0.2433103322983,  -0.0703363642097,   0.2183058857918,  -0.2294956892729,   0.0166319981217,   0.2967878878117,   0.2741581797600,   0.2278042882681,   0.0745236575603,   0.1992432624102,   0.1355293840170,   0.2586167156696,   0.0670103952289,  -0.2244892865419,  -0.0067145866342,  -0.0005906444858,   0.1792480647564,   0.0196643937379,  -0.1674444973469,  -0.0487169958651},
   {  -0.1309264004230,  -0.2390025705099,   0.1585012078285,  -0.1322464495897,   0.2626034319401,   0.2027457654476,  -0.0903742164373,   0.2131240963936,   0.2084721773863,   0.0489160418510,   0.2198553979397,  -0.1328382492065,   0.1015900969505,   0.0196149777621,  -0.1072496697307,   0.2413307428360,   0.1579460948706,   0.1290388554335,  -0.1347337067127,  -0.1141272783279,  -0.1191870123148,   0.2450508326292,  -0.0001755725680,   0.1718498319387,  -0.0940188020468,   0.0981098040938,   0.2308168560266,  -0.0243737809360,  -0.1605256348848,   0.1633842736483,  -0.0292801056057,  -0.1890292018652,  -0.1948943287134,   0.1601579338312,   0.1270781308413},
   {  -0.1919955164194,  -0.2395266145468,   0.0947405248880,   0.2600425183773,  -0.1789954006672,   0.2016892135143,   0.3182775080204,   0.2063073962927,  -0.2522863745689,   0.2274063229561,   0.0774168595672,  -0.0147366123274,  -0.1535366028547,  -0.1358366161585,  -0.0639312639832,   0.2803540825844,  -0.0270283538848,   0.0507336519659,   0.0069909640588,   0.1020111963153,   0.0183233246207,  -0.1032817512751,  -0.1852775514126,  -0.0242394749075,   0.2111319005489,  -0.2482296526432,   0.0845656394958,  -0.0525242276490,   0.2384722232819,   0.1845559775829,   0.2750220894814,  -0.1649857610464,  -0.1578483730555,  -0.1932297348976,  -0.0386230647564},
   {  -0.2132878303528,   0.0858420878649,  -0.1051469594240,  -0.1156245246530,   0.0720827281475,  -0.1258390247822,   0.1872528344393,   0.0248975809664,  -0.0142268352211,  -0.1624740660191,   0.1297706216574,   0.1016321703792,  -0.0397630110383,   0.2595980763435,  -0.2291710674763,  -0.0911645218730,   0.2298981994390,   0.2640472948551,   0.0096883876249,   0.3024725615978,   0.1230868473649,   0.0343459174037,   0.2517248690128,   0.1682719588280,  -0.2725278735161,  -0.2027587890625,   0.0134877981618,  -0.1004807800055,   0.2635791599751,  -0.2359672337770,  -0.0897838547826,  -0.0323479361832,  -0.0131090171635,   0.1173101142049,  -0.0398594513535},
   {  -0.2418180406094,  -0.3004140555859,  -0.2132228016853,   0.0874377638102,  -0.2693048119545,   0.2559611499310,   0.2850035130978,   0.1775808781385,   0.1472727805376,   0.2171422243118,  -0.0294182412326,   0.0504389666021,   0.1422592252493,   0.0072900257073,   0.1882175952196,   0.2797077000141,   0.2601521909237,  -0.0699076801538,  -0.1283462047577,  -0.0474878065288,  -0.2581301629543,   0.0069974092767,   0.1850420534611,   0.1779787540436,   0.0189181119204,  -0.1310906708241,  -0.1758036464453,   0.1608166694641,   0.1286696642637,   0.0474954955280,  -0.0330309569836,  -0.1973961293697,   0.1730354279280,   0.1039615422487,  -0.1997466236353},
   {   0.0959381088614,   0.0355916395783,   0.2276464849710,  -0.2456548810005,  -0.1116781160235,  -0.2305330932140,  -0.1361095905304,   0.1307316124439,   0.3107641935349,   0.1697997152805,   0.0581296049058,  -0.2170193791389,   0.1778606772423,  -0.2118128985167,  -0.0194308571517,   0.1643349677324,  -0.2529123127460,   0.1413350254297,  -0.0586540400982,  -0.0203118938953,  -0.0917924568057,  -0.2090759277344,   0.0130020510405,   0.2194601595402,   0.1838937252760,  -0.3026089966297,  -0.0959569588304,   0.2011190950871,  -0.1776247173548,  -0.0624936148524,  -0.0942967906594,  -0.1090980470181,   0.1740706712008,  -0.1851442158222,  -0.2357847690582},
   {  -0.1850263327360,   0.3019362092018,   0.2365240007639,   0.2132883518934,  -0.0319566465914,   0.2660879492760,   0.2215158492327,  -0.0890998393297,  -0.1818069219589,   0.0909346342087,  -0.1983749866486,  -0.0481760986149,   0.0105642247945,  -0.0109933214262,   0.1274197101593,   0.2724905014038,  -0.1981806606054,   0.2264252007008,  -0.0865183323622,   0.2909628152847,  -0.1406846344471,   0.1566952168941,   0.1174645051360,  -0.1964123547077,  -0.2230218946934,   0.0400540567935,  -0.1328314691782,   0.0345387086272,   0.1350675821304,   0.0134963672608,  -0.0452651157975,   0.1092888638377,  -0.1297767460346,   0.0541657544672,  -0.2600101828575},
   {  -0.2563439309597,   0.1312922984362,   0.1018523946404,   0.1731154173613,   0.0559837706387,  -0.2529675662518,   0.2875677049160,  -0.1776415705681,   0.1449526995420,   0.2267246991396,   0.0312621407211,  -0.1535590887070,   0.1107170283794,  -0.1051185056567,  -0.3036924004555,  -0.1533365845680,   0.2054478526115,   0.2664017081261,  -0.0891077294946,   0.1011454463005,   0.1705385148525,   0.0456727482378,  -0.1536232084036,   0.1496553719044,   0.2332600206137,   0.0779589936137,  -0.1039570719004,  -0.1328929066658,   0.2617942392826,  -0.2578473091125,   0.0282285865396,   0.1539315581322,   0.2182144820690,   0.0512875802815,   0.0848371013999},
   {  -0.2320982366800,  -0.2152904421091,  -0.0675416588783,   0.1590528488159,   0.0710686296225,   0.2647269070148,  -0.1702252626419,   0.1229432895780,   0.0812978595495,   0.1857677549124,  -0.0608671642840,  -0.1932379156351,  -0.1378781199455,  -0.2877367436886,  -0.1841692477465,   0.1722797155380,   0.2671910226345,  -0.2677160203457,   0.0980354696512,  -0.2334282398224,   0.1965894997120,   0.2438954710960,  -0.0580126605928,   0.1945267915726,   0.0326947756112,   0.1693597137928,   0.0727290958166,   0.0751515775919,   0.2921479344368,  -0.0804859995842,  -0.2213457822800,  -0.1749616414309,  -0.0438607297838,  -0.2429384887218,   0.1663603186607},
   {   0.2148758023977,  -0.0217829626054,   0.0260657463223,   0.2227105498314,  -0.0252980124205,  -0.2515528798103,   0.3115999102592,  -0.0412899963558,  -0.0435779802501,   0.2856220901012,  -0.2379175871611,   0.1902264207602,   0.2717853486538,   0.2517952620983,   0.1253203749657,  -0.1692854315042,  -0.0225536152720,  -0.0617834068835,   0.0004663984582,   0.2338785976171,  -0.1345366537571,   0.2210859805346,   0.0949166640639,  -0.1051287949085,   0.2556019425392,   0.1061429530382,  -0.0329473391175,  -0.0364532656968,   0.1907895356417,  -0.0359029807150,  -0.1276093423367,  -0.0604947581887,  -0.0191359389573,  -0.1922944486141,  -0.0313508808613},
   {   0.0051071080379,   0.1181087940931,  -0.1635406762362,   0.2587119936943,  -0.1797094494104,  -0.1397709697485,   0.1036281138659,   0.0399640761316,   0.0268094800413,  -0.1952706128359,   0.1951662749052,  -0.2370583415031,   0.2425828874111,   0.1389580070972,   0.0542829446495,  -0.0878549590707,   0.1957921981812,   0.0399913154542,   0.0316945649683,  -0.0033995006233,   0.2007346451283,   0.2294850647449,   0.2321311384439,   0.0359404720366,  -0.0084110470489,   0.0826711058617,  -0.2936425209045,   0.1706452667713,   0.0197832230479,  -0.1111517697573,  -0.1937292665243,  -0.2297182977200,  -0.1177078634501,   0.0999034866691,   0.1657754331827},
   {  -0.0859507471323,   0.2485193461180,  -0.0533178299665,  -0.2358156889677,   0.0252743754536,   0.2591662406921,   0.2857615947723,  -0.1680232733488,   0.2551750242710,   0.2322555780411,  -0.1707554310560,   0.2702858746052,   0.1775135248899,  -0.1735024899244,  -0.2400872707367,   0.0365058593452,   0.3307363092899,  -0.0222079902887,   0.0483196116984,  -0.1104693934321,   0.1887905448675,  -0.2265626639128,  -0.0817657336593,  -0.0026008549612,  -0.1100196167827,  -0.0870880633593,  -0.2177989631891,  -0.2226051390171,  -0.0040943366475,  -0.1887397617102,   0.2479265481234,   0.2120168358088,  -0.0400263816118,   0.2247552275658,   0.1774917542934},
   {  -0.1199937164783,   0.1966398507357,   0.3116328418255,   0.1310889869928,   0.3094040155411,   0.0846974104643,  -0.0029790427070,   0.0562268756330,   0.1547441482544,  -0.0433640889823,  -0.1531846672297,   0.1667459458113,  -0.0386318974197,   0.1134389936924,   0.0583126470447,  -0.0139039065689,   0.1238541603088,  -0.0120958453044,  -0.2136769443750,  -0.0856957882643,  -0.0419889912009,   0.2381610274315,   0.1680901497602,  -0.2896922230721,   0.1348181813955,  -0.1467903405428,  -0.1156162545085,  -0.0794375613332,   0.0512119531631,  -0.0579638294876,  -0.2988353967667,  -0.2492495030165,  -0.2152910977602,   0.1397824585438,  -0.2400005906820},
   {  -0.0795025005937,  -0.0913648381829,   0.1209686174989,   0.0721245706081,   0.0545380935073,   0.0915317833424,  -0.1604171544313,  -0.1110941320658,   0.1216980367899,   0.2619230449200,  -0.0757711082697,  -0.2236509025097,  -0.2306642532349,  -0.1976197957993,  -0.2847242951393,   0.0587895624340,  -0.1246825754642,   0.1061937361956,   0.0035915267654,  -0.1620547324419,  -0.1073451042175,  -0.0362299680710,  -0.0666708201170,  -0.1944505274296,   0.2100948989391,  -0.0814146623015,  -0.2494595199823,  -0.0491745173931,  -0.0120387244970,   0.2204252481461,   0.1723918914795,   0.2188027054071,   0.1240404844284,   0.0500635951757,   0.1549557447433},
   {   0.2075946331024,  -0.0247784666717,  -0.0656926780939,  -0.1477249115705,  -0.1656224727631,  -0.2718883454800,   0.0260303504765,  -0.0857813060284,  -0.1545182466507,   0.2868103384972,   0.1368798017502,   0.0926687270403,  -0.0783708989620,   0.1929571032524,  -0.2580870985985,   0.0978744551539,   0.1263546794653,  -0.1430688053370,  -0.2073150128126,  -0.2512367069721,   0.3256725966930,   0.2747091650963,  -0.1564096510410,   0.2686824798584,  -0.1812117248774,   0.1623234450817,  -0.2270800322294,   0.2005872428417,   0.2063117176294,   0.3092163503170,  -0.2119365483522,  -0.2552658319473,   0.1105188727379,  -0.0518862083554,  -0.1923790127039}};
  const float bias_2[35] = {   0.0288680028170,   0.0318694077432,   0.0388228707016,   0.0282740704715,   0.0251427870244,  -0.0217485986650,   0.0263516064733,   0.0258743762970,  -0.0093748476356,   0.0335225388408,   0.0429489389062,   0.0159478522837,   0.0209450609982,   0.0282006263733,  -0.0141059998423,   0.0304716490209,   0.0274021271616,   0.0084811067209,  -0.0034923795611,  -0.0171485505998,   0.0404812283814,   0.0223706569523,   0.0259317327291,   0.0387093238533,  -0.0199984014034,   0.0327132754028,   0.0019386053318,   0.0361500643194,   0.0336152985692,   0.0404560156167,   0.0120672751218,  -0.0003602614452,   0.0384294986725,   0.0295395664871,  -0.0395647659898};
  // Declare the arrays in the stack
  const float kernel_3[35][35] = 
  {{   0.2307560890913,  -0.1010931655765,  -0.0884661227465,   0.2737832665443,  -0.1171893700957,  -0.1382011622190,  -0.0870535597205,  -0.0649122744799,  -0.1316066086292,   0.2331124097109,   0.2986183464527,  -0.0459629744291,  -0.0274942219257,  -0.2427812665701,   0.0365420207381,  -0.1242491677403,  -0.2470744252205,  -0.0402446389198,   0.2107395678759,   0.1817707717419,   0.0866405591369,   0.1644022017717,  -0.0137506304309,   0.0377812236547,   0.0067916703410,  -0.0659212768078,   0.2753602862358,   0.0712872371078,  -0.1855197846889,   0.2667255699635,   0.0562489815056,  -0.2310432940722,   0.2577029466629,   0.2264166325331,   0.0982225760818},
   {   0.0198734141886,   0.1065578460693,  -0.0071562873200,   0.0777011588216,  -0.0730416998267,  -0.1516481935978,   0.1774220913649,   0.2309270799160,  -0.0036165802740,   0.3267920315266,  -0.1761806756258,   0.2368823587894,  -0.0549279823899,   0.2769089937210,   0.2061770260334,  -0.2236413508654,   0.1267575919628,  -0.2953304350376,   0.3177281916142,  -0.3260833919048,  -0.1169916242361,  -0.0537405088544,  -0.0467372983694,  -0.0822411999106,  -0.2547183036804,   0.2569658458233,  -0.1886457055807,   0.1568625271320,   0.2939316332340,  -0.2243112921715,   0.0298121739179,   0.2632566690445,  -0.0838684365153,  -0.1953660100698,   0.0760717689991},
   {   0.1476063281298,  -0.1053932309151,   0.0615176297724,  -0.1754813045263,   0.1593212187290,   0.2265801876783,  -0.0856505557895,   0.2442975342274,  -0.1581683307886,  -0.0769375860691,  -0.1527890861034,   0.0035281558521,  -0.1503277719021,   0.2295892536640,   0.1063376963139,  -0.0934924259782,   0.1090080812573,  -0.1448075473309,  -0.1450243145227,   0.1565602421761,  -0.2103115767241,  -0.1765277385712,   0.0797894969583,   0.0100350119174,  -0.0120256375521,  -0.1363220363855,   0.0352656394243,  -0.0603525787592,   0.2500685155392,  -0.1310686469078,   0.0798057392240,   0.1132392808795,  -0.1033211648464,  -0.1469222456217,   0.2102926522493},
   {   0.2491310089827,   0.0750867798924,  -0.2694280147552,  -0.0885918885469,   0.2813184261322,  -0.2003609687090,  -0.0057304478250,  -0.0396053791046,  -0.2403354048729,   0.1352974325418,  -0.0913572311401,  -0.2334110438824,  -0.0051746363752,   0.0559009127319,  -0.1350107789040,   0.1306120902300,  -0.1366011053324,   0.1605173796415,   0.2267032265663,  -0.0024034900125,  -0.1134025081992,   0.0777970179915,   0.0377094708383,  -0.2449529170990,  -0.2947367131710,   0.0444636233151,   0.2162568867207,  -0.0186749398708,   0.0718231201172,   0.0617734342813,  -0.2729316949844,  -0.2044140994549,   0.1167819127440,  -0.1359687447548,   0.1890379935503},
   {   0.2128385603428,   0.0897830724716,   0.1709302216768,   0.2760651111603,  -0.2631084024906,  -0.2093078494072,  -0.0755416452885,   0.3046319186687,  -0.0203614179045,  -0.0026037907228,  -0.0516302473843,  -0.1611735224724,  -0.0884506851435,   0.0656415671110,  -0.2491395026445,   0.1620011776686,  -0.2272282987833,  -0.2573008835316,   0.2834800481796,   0.0117008732632,   0.0832975953817,   0.2305681258440,   0.1597995162010,   0.0579820051789,  -0.2587273418903,  -0.1446445137262,   0.2182023823261,   0.3116530478001,  -0.2009672969580,  -0.1916330605745,  -0.1097200736403,  -0.2212771475315,   0.2137820720673,   0.0535924099386,   0.0295328740031},
   {  -0.0363052338362,  -0.1047133728862,   0.2085276395082,  -0.2758809030056,  -0.2160248607397,   0.1133729964495,  -0.2442278116941,  -0.0771182626486,  -0.1303970515728,   0.0883735120296,   0.1105590388179,   0.2888513505459,   0.1931169033051,  -0.0401592478156,  -0.0484800152481,  -0.1138888075948,   0.0117338234559,   0.0826029330492,  -0.1078032329679,   0.2205835133791,   0.1930547505617,  -0.0919923260808,  -0.1010562032461,  -0.1416869759560,   0.1378953754902,   0.2190083265305,  -0.1905307471752,  -0.0878943875432,   0.1407429575920,   0.3085112571716,  -0.1138943061233,   0.0474552325904,   0.1179078221321,  -0.1860696524382,  -0.1771247982979},
   {  -0.1995223164558,   0.0966027677059,  -0.1859499812126,   0.0573755279183,   0.1083849072456,  -0.0673536583781,   0.2774064540863,   0.2164391577244,  -0.0257642194629,  -0.1917007863522,  -0.0546499043703,  -0.1472433060408,  -0.1238177493215,  -0.2003429383039,  -0.1186425015330,   0.2799824178219,   0.1221752390265,  -0.0939370319247,   0.2316001951694,  -0.2271903157234,   0.0554665997624,   0.1977521479130,   0.1210075691342,   0.3354710638523,   0.1847917437553,  -0.0304149575531,   0.2455986887217,   0.2277168929577,   0.2811025977135,  -0.0826206058264,  -0.2682149708271,   0.0056693484075,   0.0971117615700,   0.2323881834745,   0.3116727471352},
   {   0.1751280575991,  -0.0361278317869,   0.0356719121337,  -0.1871449351311,   0.2765217721462,  -0.2801968455315,   0.0003991381673,  -0.1962789297104,   0.0153412660584,   0.2013985514641,  -0.2322111725807,  -0.2066882252693,  -0.2386476844549,  -0.2309587001801,   0.1203049570322,  -0.2872962951660,  -0.1671586185694,   0.0663020387292,   0.2211453914642,  -0.0022779102437,   0.1125594601035,  -0.1971414387226,   0.1059396713972,   0.3015193641186,  -0.1453647613525,   0.1047764420509,  -0.2196754664183,   0.2171328365803,   0.1314843744040,   0.0424741208553,   0.1865848153830,   0.0181444473565,   0.1632789075375,  -0.1978180706501,  -0.0112274978310},
   {   0.0210953876376,   0.2040043920279,   0.1427341699600,   0.0954905748367,   0.1085604131222,   0.0676911547780,  -0.0763509348035,   0.1611563861370,  -0.1839734017849,   0.0564678236842,   0.2870637476444,   0.0105950236320,  -0.1370864063501,   0.0904141068459,   0.2941237688065,  -0.0849547982216,   0.0355028398335,   0.1754061430693,  -0.0976454317570,  -0.2453196942806,   0.0124097196385,  -0.1476933807135,   0.0485796481371,   0.0892927348614,  -0.2546471953392,  -0.2599098384380,  -0.1308401376009,  -0.0227133706212,   0.2187424451113,  -0.1511411368847,  -0.1813426315784,  -0.0750958919525,  -0.2852823436260,  -0.0530301183462,   0.0310863386840},
   {  -0.1638030409813,   0.0311634428799,   0.0007877582102,  -0.2046209275723,   0.2098619788885,  -0.1712820827961,  -0.0569078028202,   0.1005044430494,   0.2795022428036,   0.3095954954624,  -0.1590811610222,   0.1131001636386,  -0.2715590596199,  -0.0352771990001,   0.0487161278725,  -0.1431183069944,   0.2878190875053,  -0.1400320082903,   0.1153255477548,  -0.1013355255127,   0.0083065284416,  -0.0968778803945,   0.1081186830997,  -0.1018430963159,  -0.2239029556513,  -0.1635319590569,  -0.1905739456415,   0.0668370351195,  -0.0479925423861,   0.1007915213704,  -0.0958438888192,   0.1780719310045,   0.2640054821968,  -0.1881925314665,   0.1281739622355},
   {   0.0915110483766,  -0.1159049421549,   0.0679439902306,  -0.2530947923660,  -0.1106709241867,   0.0758659392595,   0.2127959132195,   0.0989295393229,  -0.0382566228509,   0.0156786330044,   0.1614937633276,   0.0129928234965,  -0.1325222402811,  -0.3023580014706,   0.1553788632154,  -0.1285104155540,  -0.2951197028160,   0.2943286895752,   0.2599277198315,  -0.0452201366425,   0.2959953546524,   0.1952043473721,   0.0406565070152,  -0.2082002460957,   0.1444745361805,  -0.1132587417960,  -0.2377027124166,   0.1366547346115,  -0.1312105655670,   0.0356658175588,   0.1412513107061,   0.2168451398611,   0.1055286675692,  -0.1158423647285,   0.2210876494646},
   {   0.0935418978333,  -0.2367042899132,  -0.0703664943576,  -0.0068107256666,   0.1252041012049,  -0.0825752243400,   0.2232666164637,   0.0018410457997,   0.0787195190787,   0.1983552724123,  -0.2184001207352,   0.1993727236986,   0.2758172452450,  -0.2437311112881,   0.1931985616684,  -0.2533467113972,  -0.2142051160336,  -0.1670936197042,   0.1781865954399,   0.1414409577847,   0.1899181157351,   0.1806866377592,  -0.0041032941081,   0.1281331777573,  -0.1850542724133,   0.0049682552926,  -0.0215190276504,  -0.2232816070318,   0.1366162449121,   0.2566304504871,  -0.1564905941486,  -0.2130412757397,   0.2654557526112,   0.0586162880063,  -0.1625198423862},
   {   0.1731844544411,  -0.2569901943207,   0.0062625021674,  -0.1201807335019,   0.0705769211054,  -0.2398111969233,  -0.2416145056486,  -0.0032230787911,  -0.2134903222322,  -0.0643171966076,  -0.2332418709993,   0.0322293788195,   0.1766495406628,   0.1922376602888,  -0.0179353114218,   0.0048589748330,  -0.0435704849660,   0.1686261743307,  -0.2295842915773,   0.1961695700884,  -0.0914222970605,   0.2800013720989,   0.0236167926341,  -0.0555827654898,   0.2341203838587,   0.2390233576298,   0.0505776666105,   0.2604027390480,   0.1004412770271,  -0.0659479200840,  -0.2088606059551,   0.2807160913944,  -0.1363203078508,   0.2783446907997,   0.0337520278990},
   {   0.1183905228972,  -0.1185062453151,  -0.1165170222521,  -0.2542926967144,   0.1585116982460,  -0.1421435326338,   0.2282083183527,  -0.0013699023984,  -0.2395174056292,   0.2592659592628,   0.2050644457340,  -0.1024046391249,   0.0708450078964,   0.1167805269361,   0.1775442510843,   0.1207070797682,   0.0036705418024,  -0.0873923376203,   0.0987519025803,   0.0282767582685,   0.1095880791545,   0.3099711537361,  -0.0983004420996,   0.0956809148192,  -0.1231793686748,  -0.1838291287422,  -0.1104189530015,   0.0791447386146,   0.1620028614998,   0.2646888494492,   0.1312602609396,   0.0695364847779,  -0.1438039690256,  -0.1733673363924,   0.1293498128653},
   {  -0.2522451877594,  -0.0314527861774,   0.2244719862938,   0.1978345066309,  -0.0034902198240,  -0.2632886171341,   0.0251187384129,  -0.2324567139149,  -0.0680321082473,   0.2186783999205,  -0.3153138458729,  -0.1531686782837,  -0.0021004909649,  -0.1480071842670,   0.0302767455578,  -0.0506863147020,  -0.0848858803511,  -0.2463570684195,   0.2378221005201,   0.0814329907298,   0.1457503885031,   0.2021755129099,  -0.0135016655549,  -0.1947059184313,   0.0568253472447,  -0.0736330151558,   0.0580987185240,   0.0371237248182,   0.0997614040971,   0.1157515496016,  -0.0742900446057,  -0.2977613806725,   0.0111020775512,   0.1783989965916,  -0.2229004204273},
   {   0.0642239898443,  -0.0226820390671,   0.2213046103716,   0.2495221048594,   0.2865143716335,  -0.0291391611099,   0.0537100806832,   0.1034370437264,   0.2681108117104,  -0.1267502456903,   0.2472031861544,  -0.2393608093262,  -0.2081173509359,   0.2024414390326,  -0.1104297190905,  -0.2804332077503,  -0.1992596387863,   0.0535850115120,  -0.1135357916355,   0.0087533658370,  -0.1413864642382,   0.1967686712742,   0.0884095281363,   0.1303288340569,  -0.2429972589016,  -0.0060178427957,  -0.2317420840263,   0.1784714758396,  -0.2200642675161,   0.3004504144192,  -0.1063552722335,  -0.1287792623043,  -0.0905563905835,  -0.2036405652761,   0.0278308130801},
   {  -0.1920599192381,  -0.0317884124815,   0.1037687659264,  -0.2425326257944,  -0.0724103078246,   0.0720933899283,   0.2000816017389,   0.3136738538742,   0.2453870922327,   0.2802707254887,   0.1101288422942,   0.2608906030655,  -0.1990727037191,   0.1090355068445,  -0.1499590128660,  -0.1788245737553,   0.1887066513300,   0.1472557187080,   0.0257845837623,   0.2759091854095,  -0.1956480294466,   0.3036282062531,  -0.1711473166943,  -0.1098022162914,  -0.0101674832404,  -0.1142415180802,  -0.1244753748178,   0.2833124399185,   0.1162616014481,   0.2344679087400,  -0.2828559875488,  -0.3094086050987,   0.1827172785997,   0.1379882246256,   0.0089269680902},
   {  -0.0709851384163,   0.2150138616562,  -0.2925295233727,   0.0025911214761,   0.0582087971270,  -0.0429500676692,  -0.2072757482529,  -0.0601984784007,  -0.0811583027244,   0.2289672791958,  -0.1242257058620,  -0.2649281024933,   0.2270071953535,   0.1827056109905,   0.1542042493820,   0.1266958564520,   0.2663237750530,   0.0249024592340,   0.1084868311882,   0.0013098166091,   0.1296759247780,   0.2024997919798,   0.1542468667030,  -0.2470161169767,   0.0021048472263,  -0.1016326025128,  -0.0422263927758,  -0.1562865227461,  -0.0691383033991,  -0.2348404973745,   0.2570797502995,   0.2055277973413,  -0.0990575030446,  -0.0434178523719,   0.2684078514576},
   {   0.0535025149584,   0.0303424838930,  -0.1489098221064,   0.2416547089815,   0.2747735679150,  -0.0497011058033,  -0.1552005112171,   0.1066586971283,  -0.0905423238873,   0.2458905726671,  -0.1051309853792,   0.1435336917639,   0.0719034522772,  -0.2572854161263,   0.2278169542551,   0.2267517596483,   0.1756140291691,   0.1309261173010,  -0.1615372300148,  -0.1366402506828,   0.1368567496538,   0.2632074952126,   0.1962319910526,  -0.1754076331854,   0.0542454048991,  -0.2889887988567,  -0.0229926221073,   0.0232870802283,  -0.1597824841738,  -0.1060113161802,  -0.2796585857868,   0.2895522415638,  -0.2863758504391,   0.2297108769417,  -0.0119761694223},
   {  -0.1332648396492,   0.2711493074894,   0.1845062375069,   0.1615103632212,   0.2551386952400,  -0.2585099935532,  -0.1810045838356,   0.1154049783945,  -0.2347968220711,  -0.1652017682791,  -0.0195346791297,  -0.1559526622295,   0.1253943741322,  -0.2628611028194,   0.0360051058233,   0.0719827190042,   0.2132762819529,  -0.2802210152149,   0.2267872542143,   0.2022010236979,   0.1709392666817,   0.1593782454729,  -0.2363935410976,   0.2410952746868,   0.1841299831867,  -0.2855422496796,   0.3134390711784,  -0.1189680770040,  -0.0281833168119,  -0.0615988522768,   0.1516007632017,   0.0153193818405,   0.1181869730353,   0.2779426276684,   0.2093233168125},
   {  -0.2394674420357,   0.0438739694655,  -0.1621499955654,  -0.0118833296001,  -0.0215005241334,   0.1847367584705,   0.0687717050314,   0.0901576429605,   0.0918826833367,  -0.2705117464066,  -0.0767397955060,  -0.0842348709702,   0.0454211831093,   0.0650890395045,  -0.2221190482378,   0.1050735414028,  -0.0116158425808,   0.2442448288202,   0.2398913353682,  -0.1291511356831,  -0.2134013324976,  -0.0969699695706,  -0.0842214226723,   0.2778934240341,  -0.2566298842430,  -0.1185589581728,   0.0019528662087,   0.2911458313465,   0.1513524502516,   0.0699946582317,   0.0844032540917,  -0.1987932920456,   0.1190736442804,  -0.2369686365128,   0.2575828135014},
   {   0.1058362498879,  -0.0926570072770,  -0.0960152447224,  -0.1790513843298,   0.0781027749181,  -0.0178914684802,   0.1190076544881,  -0.1747518926859,   0.0069374241866,   0.0597789958119,  -0.0914075374603,  -0.2041456997395,  -0.1114831566811,   0.1842947006226,  -0.1734172999859,  -0.1058176234365,  -0.1995084136724,   0.2328646183014,   0.1052512452006,  -0.1721226871014,   0.0123575357720,   0.1859625130892,   0.0762471258640,  -0.1918810606003,   0.0837981030345,   0.2072457373142,   0.2135732918978,   0.0099565135315,  -0.2398306131363,   0.2894102036953,   0.2530336380005,  -0.1799471080303,  -0.2402102202177,  -0.2071232646704,  -0.1977959573269},
   {   0.0408268459141,  -0.2233700752258,   0.1610266566277,  -0.1000503823161,   0.2456430047750,   0.2551079690456,   0.2336083352566,  -0.0156631059945,  -0.0847867280245,  -0.1584711074829,   0.2594748735428,  -0.1201435625553,  -0.2959219217300,   0.1296036541462,  -0.0194490011781,   0.1275276541710,   0.1055748239160,   0.0339607484639,  -0.0403599180281,   0.0892016664147,   0.2643408775330,  -0.1661244332790,  -0.0097998566926,  -0.1973552852869,   0.2087062597275,  -0.1315158903599,  -0.2347902953625,  -0.1718869507313,  -0.2533779144287,  -0.0659947544336,  -0.1870626062155,  -0.0053818486631,  -0.2160234153271,   0.0955183357000,   0.1234005093575},
   {  -0.0185649208724,  -0.1330339908600,   0.0741418451071,   0.0267134699970,  -0.1387033611536,  -0.0382662080228,   0.2327732145786,   0.0206489581615,   0.1848004758358,   0.3035012781620,  -0.2253758758307,  -0.2216698974371,   0.0745097398758,  -0.1150990724564,   0.2746570706367,   0.1486052870750,  -0.0062196571380,   0.1849339306355,  -0.0139168556780,   0.0974692553282,   0.1599823832512,   0.1709794551134,   0.2600771486759,   0.2959678173065,  -0.2160800993443,  -0.2146837413311,   0.3077347278595,   0.0874208733439,   0.0276317596436,   0.1772932410240,  -0.1025019735098,   0.0528978407383,   0.0007610844914,   0.0853129550815,   0.2742331624031},
   {   0.0616742931306,  -0.1112147867680,   0.2673259377480,  -0.0790707170963,  -0.2350833564997,   0.1497808098793,   0.1892282962799,   0.1765700429678,  -0.2013581544161,  -0.0216922629625,  -0.1101505607367,  -0.2486075311899,   0.0870629027486,  -0.0783884003758,   0.0615980066359,   0.0872044414282,   0.1346263289452,  -0.2195656150579,   0.0165299791843,  -0.1465972810984,  -0.1331996619701,  -0.1857325583696,   0.1936460137367,  -0.1979383379221,  -0.1368980854750,   0.0582315027714,   0.2308847010136,  -0.0387218333781,  -0.1581186503172,   0.1406972259283,  -0.2334411293268,  -0.1717996001244,  -0.0727277472615,  -0.0873318314552,  -0.0261384192854},
   {   0.1789089441299,  -0.0229438506067,  -0.0781270563602,  -0.1087361946702,  -0.0712324827909,  -0.2375538945198,   0.1776768267155,  -0.2223812937737,   0.2413323521614,  -0.2255071252584,   0.0933433175087,   0.1882209926844,  -0.2270631939173,   0.1005341932178,   0.0993716269732,   0.2526137530804,   0.0312272924930,   0.0444017238915,   0.1225414723158,  -0.2833471000195,   0.2435879856348,   0.2442962974310,   0.2463280409575,  -0.1470083445311,   0.0731319487095,  -0.0365237332880,  -0.1895328313112,   0.2679919302464,  -0.1388583481312,  -0.0064801438712,   0.2504528164864,  -0.2790439426899,  -0.0633025988936,  -0.1257961690426,  -0.0417715758085},
   {  -0.0322569198906,  -0.0709682852030,  -0.0770283341408,  -0.2180901616812,   0.0412244684994,  -0.1435018181801,  -0.0547422207892,  -0.2377285510302,   0.0281548593193,  -0.0166105777025,   0.0552731752396,  -0.1346793770790,   0.2183272987604,  -0.1026861146092,   0.0911666750908,   0.2812557816505,  -0.2304631024599,   0.2279460728168,  -0.2434482276440,   0.1178152710199,   0.1473417133093,   0.2775262594223,  -0.0183820072562,   0.0553959757090,  -0.0287868194282,  -0.2091466188431,  -0.0261108726263,   0.1279706358910,   0.0861660465598,   0.2524482011795,  -0.0056769847870,   0.0432445220649,  -0.0315541476011,  -0.2981484830379,   0.1947900950909},
   {   0.0003920285671,  -0.2620879709721,  -0.1725157946348,   0.0714181289077,  -0.2685916423798,  -0.2301677614450,   0.3134275674820,   0.0815666913986,   0.2056078463793,  -0.0021316185594,   0.1418593674898,  -0.0025474934373,   0.0094142789021,   0.1019999012351,   0.1163166910410,   0.1009668484330,   0.0476098321378,  -0.1702691912651,  -0.0401811450720,  -0.3074710071087,   0.2287756949663,   0.0650313049555,   0.2199154198170,   0.1689248830080,  -0.0740438252687,  -0.1227082535625,  -0.2694072723389,   0.1179382279515,  -0.1072885096073,   0.2119336128235,   0.2385101914406,  -0.0872350856662,   0.0803784728050,  -0.1666071116924,   0.0492614582181},
   {  -0.1020548641682,   0.2206314802170,  -0.2368352264166,   0.2148754000664,  -0.0796622410417,   0.0524862557650,  -0.2811509370804,   0.2358065396547,   0.2337853759527,   0.2401136308908,  -0.0295759253204,  -0.1275076121092,   0.0620011426508,  -0.0015270620352,   0.0962157025933,   0.1285596936941,   0.1804829090834,  -0.1150593534112,   0.1619143038988,   0.2517417371273,   0.1616881936789,  -0.1206435859203,   0.1886904090643,   0.0925475880504,   0.2500347793102,  -0.1165374219418,   0.0799296721816,  -0.1179950237274,  -0.1599180102348,   0.0190653000027,  -0.0525119639933,   0.0360821112990,   0.2862361967564,   0.0924462452531,   0.2185517102480},
   {   0.1858696192503,  -0.0228891074657,   0.0153440050781,   0.1226990818977,  -0.2120751887560,  -0.0663640946150,   0.0806286931038,  -0.1238889396191,   0.0557059831917,   0.0765151381493,   0.3153406083584,  -0.2644882202148,   0.0853800624609,  -0.1485478132963,  -0.2071961462498,  -0.0473283082247,   0.2151855081320,   0.2287159413099,   0.1357163637877,  -0.2935456633568,   0.1274241060019,  -0.0383882187307,   0.1014692559838,  -0.2045590877533,   0.2285410761833,  -0.1680140644312,   0.0974795296788,  -0.0165465064347,  -0.0306823663414,   0.1654664725065,  -0.2279685735703,   0.0911652445793,   0.2729771435261,  -0.1811357736588,   0.2404968589544},
   {   0.0204418785870,  -0.0058321673423,  -0.0778325423598,  -0.2025879919529,   0.0072909980081,   0.1403997093439,   0.3144081830978,  -0.2252146750689,   0.0607151798904,  -0.0643437802792,   0.2425675541162,   0.0134281795472,  -0.0906203463674,  -0.2755530774593,  -0.0240291971713,   0.0876965075731,   0.1201648861170,   0.1124074831605,   0.2535931766033,  -0.1874323487282,  -0.1424951702356,   0.2343623191118,   0.2591966688633,  -0.0120074786246,   0.1395813375711,   0.0440237894654,  -0.2328635305166,   0.0879440382123,  -0.0450883917511,   0.1983959078789,  -0.2578002214432,  -0.1903174966574,  -0.0269038937986,  -0.1660794466734,  -0.0480265133083},
