
    // Select all (Ctrl+A), Copy (Ctrl+C), paste to an empty text file (Ctrl+V) and save that file as 'generated_code.h'
    // 
    // Auto-generated header file. Assumes img to be a floating point array
    // of 64 elements (corresponding to an 8x8 b&w image)

    #include <math.h>

    float norma;
    
inline float activation_0 (float x, float n) 
{ return x > 0 ? x : 0;}
inline float activation_1 (float x, float n) 
{ return x > 0 ? x : 0;}
inline float activation_2 (float x, float n) 
{ return x > 0 ? x : 0;}
inline float activation_3 (float x, float n) 
{ return x > 0 ? x : 0;}
inline float activation_4 (float x, float n) 
{ return x > 0 ? x : 0;}
inline float activation_5 (float x, float n) 
{ return x > 0 ? x : 0;}
inline float activation_6 (float x, float n) 
{ return exp(x)/n;  }

    float guess_digit_odd (const float *img, int flag)
    {
    
  // Declare the arrays in the stack
  const float kernel_0[43][35] = 
  {{  -0.3626840412617,  -0.2024441510439,   0.2572534084320,  -0.2386747151613,   0.2389107495546,  -0.2067242264748,   0.1721357107162,  -0.0940755233169,  -0.0749410316348,   0.1090300157666,  -0.0567902699113,  -0.0800426900387,   0.2900410294533,  -0.1941942274570,  -0.2280763387680,  -0.0713479965925,   0.0756577253342,  -0.1631956994534,  -0.2874667346478,  -0.1836115121841,  -0.1598572582006,   0.1167489811778,  -0.2068411111832,  -0.1075438112020,   0.0760296359658,  -0.0988918691874,  -0.3490072786808,  -0.1933986246586,  -0.1465965360403,  -0.0224494040012,   0.0387703478336,   0.0728441402316,  -0.4441961944103,  -0.1498907059431,   0.2506240606308},
   {  -0.0859163552523,  -0.1923491805792,   0.1047339588404,  -0.3231933116913,  -0.2541069388390,   0.0152228698134,  -0.2057825773954,   0.1029991135001,   0.1376262009144,  -0.0260239876807,  -0.1119018718600,   0.3106167614460,  -0.0078123193234,  -0.1389932781458,  -0.1545807272196,   0.2269156277180,   0.1906509995461,   0.0085359662771,  -0.1345536559820,   0.0846758857369,   0.1705640852451,   0.1479766368866,   0.0545524694026,   0.1919061839581,   0.1015268266201,  -0.1752247810364,   0.0219903159887,  -0.1809704303741,  -0.2157186120749,  -0.3227693438530,   0.1336973458529,  -0.2510820031166,   0.0417361296713,   0.0020442467649,   0.0359133891761},
   {  -0.0885980576277,  -0.1827447712421,  -0.1285321265459,  -0.0438519269228,   0.0810418650508,  -0.0898891389370,  -0.1429711133242,  -0.0614324994385,   0.1519155949354,   0.0690398961306,   0.0558289363980,  -0.2842036485672,   0.0793762356043,  -0.0534384027123,   0.3757165968418,  -0.1581315547228,   0.0259304791689,  -0.0181416422129,   0.1016855686903,  -0.0057994378731,  -0.2280603647232,   0.2572631239891,   0.0436384789646,  -0.1822021007538,  -0.0586884133518,   0.0290540698916,  -0.0081891715527,  -0.1664524227381,   0.1985122561455,   0.0661806687713,   0.1985349953175,   0.1574396193027,   0.1723884493113,   0.1292162835598,  -0.0939085558057},
   {  -0.2185623198748,   0.2125844210386,  -0.4201864302158,  -0.0595235787332,   0.0810686498880,  -0.1685575693846,  -0.0528720989823,  -0.0493081398308,   0.3354860544205,  -0.2418309003115,  -0.1244001314044,   0.0401680693030,   0.1697172820568,  -0.1666884422302,   0.1417265385389,  -0.1097346395254,  -0.1193494573236,   0.1047734022141,   0.0330767147243,  -0.0913275852799,   0.0403997749090,   0.0417279750109,  -0.2358936816454,  -0.0199008509517,  -0.2425646483898,  -0.2143121063709,   0.1014427393675,   0.1914090514183,   0.0624215714633,  -0.2938555181026,  -0.2595174014568,  -0.1075578927994,  -0.2456033676863,  -0.0397112295032,   0.0807277932763},
   {   0.0455002859235,   0.1522131264210,  -0.1927010715008,   0.0687034502625,   0.0105185555294,  -0.0660878792405,   0.0586290210485,  -0.0954811051488,   0.1922879666090,   0.0285067614168,   0.2623096704483,  -0.2072740197182,  -0.1955283880234,   0.0825014039874,   0.1168973892927,  -0.1982596069574,   0.0370760150254,   0.1460136026144,   0.1498951464891,  -0.0863678008318,   0.1147140339017,   0.1458040028811,   0.0992406383157,   0.1124368533492,   0.1086046248674,  -0.0284787919372,   0.2061756551266,  -0.2413890957832,  -0.0704938322306,   0.1316932737827,   0.3230655491352,   0.1256245821714,   0.0442836284637,  -0.1072462946177,  -0.2399428486824},
   {   0.1088076755404,   0.0831637457013,  -0.0019115119940,  -0.1451550275087,  -0.2255022674799,   0.2114640921354,   0.2513001561165,   0.0842180922627,  -0.0198214352131,  -0.1298044919968,   0.0854087918997,   0.1185560449958,   0.1678022295237,  -0.1424981057644,   0.2113771438599,  -0.0580521039665,  -0.0165715422481,  -0.1386845856905,  -0.0092987678945,   0.3100982010365,  -0.0916095525026,   0.1341258585453,   0.0529942102730,   0.1591373831034,  -0.0857196152210,   0.2017633169889,  -0.0908304527402,  -0.0310497637838,   0.2143249213696,  -0.0818174034357,   0.0234004165977,   0.0410283766687,   0.0520050898194,  -0.0523409135640,   0.0473479107022},
   {   0.1983644217253,   0.2574825882912,   0.1591474115849,   0.0782752111554,   0.2538681924343,  -0.2727473974228,  -0.1222089231014,   0.1268335282803,  -0.2568411529064,   0.3019993007183,  -0.1645644307137,  -0.2033744603395,   0.0029769621324,   0.2014268338680,  -0.2421631366014,  -0.1808322072029,  -0.3466051220894,   0.1441624015570,  -0.3141649663448,  -0.1541365683079,  -0.2661359608173,  -0.2249419540167,  -0.4033259749413,   0.0212806407362,  -0.1623890846968,  -0.3457994759083,  -0.2514466643333,  -0.0215533562005,   0.1226989030838,  -0.2794893682003,  -0.0231072418392,  -0.0209594629705,   0.2148360311985,   0.0781076326966,  -0.1673420071602},
   {  -0.2040851712227,  -0.2144083529711,  -0.0501484274864,   0.1897128075361,  -0.0626920834184,  -0.1129523441195,   0.2526780366898,   0.2383108586073,  -0.0830959901214,   0.1295731961727,   0.1032211631536,   0.1567557603121,   0.0603427812457,   0.4258754253387,  -0.1260234117508,   0.1673906147480,  -0.3150877654552,  -0.3668148815632,  -0.3853723108768,   0.1587406545877,  -0.1616384536028,   0.2582421302795,   0.0690750554204,   0.2422090321779,  -0.3958847522736,  -0.0069243661128,  -0.0011610300280,   0.1567523330450,   0.1579880863428,  -0.0294123981148,   0.0376306287944,  -0.2528250515461,   0.1283873170614,  -0.0926921814680,   0.2523683011532},
   {  -0.1136391609907,  -0.3550572395325,   0.0086961342022,   0.2837879955769,   0.0213116798550,   0.0230496991426,   0.1108404621482,  -0.1382800787687,  -0.3252155482769,  -0.0117305098101,   0.0354624427855,  -0.0324412174523,  -0.0835047811270,   0.0763941034675,  -0.0857268422842,  -0.3529056608677,  -0.1735064238310,  -0.0278344992548,  -0.1522212475538,   0.2613337635994,   0.1474442631006,  -0.4380643665791,   0.1612136363983,  -0.0136770755053,   0.0004381433246,  -0.2247804105282,   0.3256288468838,  -0.0054979980923,   0.2850531637669,  -0.1451809257269,   0.2547363340855,  -0.0925432294607,  -0.0648231208324,   0.1202325299382,   0.0269481372088},
   {  -0.3234196603298,  -0.1032557785511,  -0.1147794425488,   0.0298681836575,  -0.0021308674477,   0.1063600480556,  -0.2832386493683,   0.1102635338902,   0.1259969621897,   0.1447649151087,  -0.0831732228398,  -0.0749032795429,  -0.1742652356625,  -0.2097496390343,  -0.2807776331902,  -0.0544382147491,  -0.1063082739711,  -0.2065764516592,  -0.0624654404819,   0.0014119677944,   0.1664876043797,   0.0863842964172,   0.1764898151159,   0.0636601075530,  -0.1079501062632,   0.0765344649553,   0.1961948126554,  -0.0634248182178,  -0.0531811751425,   0.0793387591839,  -0.0053965412080,   0.2888199388981,   0.3524305224419,   0.0202575437725,  -0.0279454495758},
   {   0.2641044855118,   0.1701998710632,  -0.0235671252012,   0.1549455076456,  -0.4169135689735,  -0.2272794991732,  -0.1230255365372,  -0.1498419046402,  -0.2492863833904,  -0.2579014003277,   0.1427997499704,  -0.0824796110392,   0.0381242781878,   0.1575314700603,   0.0456215888262,   0.2439164966345,   0.1223234385252,  -0.0406611785293,   0.0894932746887,  -0.1269385367632,  -0.1042145118117,  -0.2325159758329,  -0.2602768242359,  -0.2451535910368,  -0.2214440405369,  -0.0404199920595,   0.0436569005251,   0.2391703277826,  -0.0215330179781,  -0.0521017052233,   0.1779347807169,  -0.0137098385021,   0.1155499741435,  -0.2603560388088,  -0.0574778206646},
   {   0.0776253119111,   0.1470592021942,  -0.0530843399465,   0.1600220799446,   0.1470385193825,   0.2601053118706,  -0.1378248929977,   0.0728424340487,  -0.0621226355433,  -0.0772405862808,   0.1513638049364,  -0.0908873453736,   0.0007629131433,  -0.0498946160078,  -0.1753087937832,  -0.2990285158157,   0.1638223081827,  -0.0257760062814,   0.0506976917386,  -0.0900991037488,  -0.3188957273960,   0.2024385035038,   0.0493780337274,   0.2365702837706,  -0.0963823795319,  -0.1880971789360,   0.2944312393665,  -0.0246029589325,  -0.0144188469276,   0.0245621241629,  -0.2502354979515,  -0.1881926804781,   0.0457752794027,  -0.0555742494762,   0.1405365020037},
   {  -0.0139103224501,  -0.2191719561815,   0.1098967194557,  -0.3258242905140,   0.1431563347578,   0.3052095770836,   0.0456855706871,  -0.0851907804608,  -0.1662148982286,  -0.0410518497229,   0.1172441765666,  -0.0705189481378,  -0.0906368643045,   0.2322043925524,  -0.0934212058783,   0.1925765275955,  -0.0095497462898,   0.0264427512884,  -0.2314434945583,  -0.1475382745266,   0.0256166569889,  -0.2195712625980,  -0.0073462799191,  -0.0338681526482,  -0.0735026448965,   0.0637399777770,  -0.2859674096107,  -0.0511501431465,   0.1238154172897,  -0.1201235875487,   0.2445096969604,   0.1820799410343,   0.1891464143991,   0.0379993878305,   0.1584358811378},
   {   0.0633510202169,   0.0313810072839,   0.0184021387249,   0.1128993555903,  -0.0634928494692,  -0.1035401150584,  -0.1442697495222,   0.2881761193275,   0.1261730641127,  -0.0138425743207,  -0.0816449448466,   0.0181269776076,  -0.4808312058449,   0.1380017697811,  -0.0464498586953,   0.1199985295534,  -0.0507786497474,   0.0350630804896,  -0.1439841836691,  -0.0385999493301,   0.2709085941315,  -0.0211261101067,   0.1081746593118,  -0.2024210542440,  -0.0908690690994,   0.1099089607596,  -0.0716958567500,   0.1061179265380,  -0.0153232403100,  -0.0012206078973,   0.0804747492075,  -0.1964945942163,  -0.1329342871904,   0.3997018337250,   0.0172734670341},
   {   0.1804843693972,   0.1179166361690,  -0.3409973084927,   0.1852049678564,   0.0338152199984,  -0.0012492376845,   0.1742827892303,  -0.0325599461794,  -0.0449575297534,  -0.4231427907944,   0.1780710667372,  -0.1991198360920,  -0.1217285245657,   0.2422415912151,  -0.1875878721476,  -0.0236486978829,   0.1264531314373,  -0.0512139163911,   0.2878322601318,   0.0211898032576,   0.2360012233257,  -0.1654440313578,  -0.0227044969797,   0.1775920242071,  -0.2134038507938,   0.0653266832232,  -0.1000807061791,   0.2093330472708,  -0.1111891493201,   0.2259067147970,  -0.1492011994123,   0.0716171637177,   0.0052697933279,  -0.1351808458567,   0.1680345535278},
   {  -0.0800481513143,   0.1812497675419,  -0.1241321712732,  -0.0693803578615,   0.1041027754545,   0.0542601794004,  -0.1094407811761,   0.0845663771033,   0.0228863637894,   0.1639937758446,  -0.0852281525731,   0.0216590370983,   0.0443329177797,   0.0997173637152,   0.0009123494383,  -0.2523004114628,   0.2262952923775,  -0.0523281283677,  -0.1371333748102,  -0.0513893924654,   0.0285181701183,   0.0872172638774,  -0.0834714546800,  -0.0611383654177,  -0.0646368712187,   0.0890065878630,  -0.0714533999562,   0.1521376520395,   0.0258983336389,   0.2058747112751,  -0.0964885279536,   0.0962196961045,  -0.1687027066946,  -0.0794541314244,  -0.1735157668591},
   {   0.1096129491925,   0.0638542324305,   0.0180800054222,  -0.1804261058569,   0.0098825339228,   0.0073669757694,  -0.0388716273010,  -0.0923431366682,   0.0101230312139,   0.0973452404141,   0.1603220701218,   0.1606983840466,  -0.0583148002625,  -0.0779987126589,  -0.0229488704354,   0.1338331401348,   0.1245740950108,   0.0237600952387,  -0.1512578576803,  -0.0178594887257,  -0.1740932613611,   0.0559341199696,  -0.1689935475588,   0.0126640163362,   0.0597080104053,   0.0736860036850,  -0.0878392532468,   0.0628394335508,   0.0302572157234,   0.0502086021006,   0.2063957750797,   0.1773004531860,  -0.0917005762458,  -0.0622358769178,   0.1625139564276},
   {  -0.0118303028867,   0.0766498818994,   0.0502469055355,  -0.1062139123678,   0.0692795664072,   0.1830928772688,   0.0302373040468,   0.0801253244281,  -0.0564593933523,   0.2227605879307,  -0.0077920141630,  -0.0589239075780,  -0.2516849935055,  -0.1336008459330,  -0.0506536141038,  -0.0404713600874,   0.0446229204535,   0.0572675839067,  -0.0172172393650,   0.0239360369742,   0.0063261473551,  -0.0947629585862,  -0.2497032135725,   0.2845236063004,  -0.0282148141414,  -0.0287963449955,   0.0322396121919,  -0.1079391315579,  -0.0596304200590,  -0.0625645816326,   0.0428656674922,  -0.2214112132788,  -0.1017130687833,   0.1237907782197,   0.1011649966240},
   {  -0.1102227270603,  -0.0568627640605,   0.0471758916974,   0.1523555815220,   0.1839024424553,  -0.0964502096176,   0.1883216351271,  -0.1407592892647,  -0.0759839639068,   0.0209216233343,   0.1346483826637,   0.2185785323381,  -0.3158750236034,  -0.0100197484717,  -0.2199638783932,   0.2647740244865,  -0.1327879130840,  -0.0670192167163,  -0.0271950494498,  -0.1487342417240,  -0.1252105832100,  -0.0476156361401,   0.1282697319984,  -0.1846244782209,  -0.0874397382140,   0.0488449670374,   0.0433007255197,  -0.2332940101624,   0.0229913089424,  -0.0976136773825,   0.0772999450564,   0.1064079180360,  -0.0390233509243,  -0.0698570832610,  -0.1954928338528},
   {  -0.0028693696950,  -0.0089449351653,   0.0776889175177,   0.0462601520121,  -0.0301774367690,  -0.0515098534524,  -0.0172188151628,   0.0643995478749,  -0.0133483856916,   0.0298435650766,  -0.0264542456716,   0.1787646859884,  -0.0350697003305,  -0.0428861603141,  -0.0655915215611,   0.1241781190038,  -0.0442325100303,  -0.0393158942461,  -0.0470470115542,  -0.0109153976664,  -0.0786138027906,  -0.0080448128283,  -0.0436677075922,   0.0922724306583,  -0.0809129774570,  -0.0629684925079,  -0.0593138821423,   0.0969881489873,   0.0156864691526,  -0.0765430480242,   0.0370782613754,  -0.1119320467114,   0.0364569202065,   0.0496829599142,   0.1187455207109},
   {   0.0094931060448,  -0.0928452685475,  -0.0622585713863,  -0.1514118462801,   0.1531525850296,   0.0439001992345,  -0.0853065475821,  -0.1141714826226,  -0.0400523133576,   0.0661670416594,   0.1129428222775,  -0.1578756868839,  -0.0923377797008,  -0.1144068986177,  -0.0964112356305,   0.1574989259243,  -0.0932137146592,  -0.0501369386911,  -0.0189592372626,   0.0183698534966,   0.0725303441286,  -0.0548928044736,   0.0585068985820,  -0.1808365881443,   0.0785056501627,   0.0983208715916,   0.1002759262919,   0.0504527837038,   0.0322626046836,  -0.0283950194716,  -0.0347557812929,   0.0882129147649,  -0.0464075878263,   0.0340040586889,   0.0932724848390},
   {  -0.0935252681375,  -0.0412273965776,  -0.0374678522348,   0.0185890775174,  -0.1996173113585,   0.1564611792564,   0.0311823468655,   0.0670242905617,  -0.0749444738030,  -0.0071644610725,  -0.0068259332329,   0.1705907732248,  -0.1223641782999,   0.0847960188985,  -0.0875635594130,  -0.0899694934487,   0.1355154365301,   0.0664097741246,   0.0748678073287,  -0.0193021465093,   0.1147341802716,   0.0309395492077,  -0.0263093002141,   0.1663406938314,  -0.0686883553863,  -0.0455205552280,  -0.1212356686592,  -0.2432274371386,  -0.0519791692495,   0.0697394683957,  -0.0441484376788,  -0.1005708202720,   0.1095570847392,  -0.0162056200206,  -0.0807644724846},
   {  -0.0205572824925,   0.3457122743130,   0.1546167433262,  -0.1372141093016,  -0.1804810315371,  -0.2085295915604,  -0.0009803450666,   0.1255767941475,   0.0569046735764,  -0.2087722271681,  -0.1903843581676,  -0.0384958460927,  -0.1547224521637,  -0.3510369956493,   0.1607171595097,   0.0449182353914,  -0.0377671793103,   0.2360262721777,  -0.0670504644513,  -0.2003567814827,   0.3052284121513,  -0.2526539862156,   0.0236519742757,  -0.0319424569607,  -0.0030275450554,   0.1812494248152,  -0.3349239826202,  -0.3008740544319,   0.2828284502029,   0.0369057133794,   0.0949965342879,  -0.0813123136759,   0.1825310140848,  -0.0205620490015,   0.0197810754180},
   {  -0.0067140134051,   0.2858757972717,   0.2267039716244,  -0.2966866493225,   0.0587748028338,  -0.0861680582166,  -0.2765589058399,  -0.1079173460603,  -0.1289957314730,   0.0291066411883,  -0.1477821171284,   0.0389232374728,  -0.0903411209583,   0.2950037121773,  -0.0404794588685,   0.1278906613588,   0.1188527643681,  -0.2998642325401,   0.2818596959114,  -0.1425879746675,   0.0722232609987,   0.3944134712219,  -0.2441641688347,   0.1718695312738,   0.0209919176996,   0.1696831583977,   0.0594473481178,  -0.1647614240646,  -0.4600763618946,  -0.1280569881201,  -0.4280444681644,  -0.0979420989752,  -0.0133248884231,   0.0859160795808,  -0.1338930875063},
   {   0.0572345703840,   0.0085227405652,   0.0770803689957,   0.1320984959602,   0.0792057514191,  -0.1476552933455,   0.0124274622649,  -0.1018227860332,  -0.1310674101114,   0.1433718204498,  -0.0924882739782,  -0.1333123147488,  -0.0591844208539,  -0.0296590216458,   0.1788385361433,   0.1762458235025,  -0.0181762669235,   0.0909904241562,  -0.0475872978568,  -0.1180046051741,   0.0739151388407,  -0.0732887238264,  -0.1318610012531,  -0.0977425351739,   0.2190795987844,  -0.0775192007422,   0.0955513715744,   0.2274946570396,   0.0976688414812,  -0.0944814085960,   0.0080657545477,  -0.3237645626068,   0.0220145769417,  -0.0834874808788,  -0.0203773491085},
   {   0.0839938223362,   0.3308503031731,  -0.1312706917524,   0.1686530560255,   0.0849215835333,  -0.1723170876503,   0.0743662938476,   0.0749379694462,   0.0839535817504,  -0.0339081883430,  -0.2924982011318,   0.0766744911671,  -0.0664137527347,  -0.0239704847336,   0.1103278398514,  -0.1128736212850,   0.0343980602920,   0.0915147960186,   0.2051933854818,  -0.2409703582525,   0.1305586397648,  -0.0916316434741,  -0.0657181516290,  -0.0861263573170,   0.1127504110336,   0.0126273222268,  -0.0967995151877,  -0.4249570369720,   0.2407322824001,  -0.1167052090168,   0.1360520124435,   0.1025275215507,   0.0240962319076,   0.1933815330267,  -0.0300821643323},
   {   0.1611221283674,   0.3508756756783,   0.0853470936418,  -0.2613320350647,  -0.0386114008725,   0.0537647455931,  -0.0027542524040,   0.1667827069759,   0.1171409264207,   0.1243763417006,  -0.1796610802412,   0.2661871016026,  -0.0540008544922,   0.2123521417379,  -0.1296643167734,   0.2185352146626,  -0.0409799031913,  -0.3006193935871,   0.2314711511135,  -0.0083290496841,  -0.1763868778944,   0.4012587666512,   0.0346569381654,  -0.1284685134888,   0.1270475089550,   0.3373172581196,   0.0825465768576,   0.0945717617869,  -0.3630223274231,   0.0191915966570,  -0.3162840306759,  -0.2177186012268,  -0.1222339645028,  -0.0936247482896,   0.0097540561110},
   {   0.2872527539730,  -0.0716653168201,   0.2381810992956,   0.1159252002835,  -0.1439907252789,   0.0789568349719,   0.3370683193207,  -0.1996612995863,   0.0504457838833,   0.0787525326014,   0.0279447305948,  -0.2269465625286,   0.2774550616741,   0.0961071699858,  -0.2070396691561,   0.1139629706740,   0.2113801836967,  -0.0273577403277,  -0.1785670518875,  -0.1340060383081,   0.1685915887356,   0.0818932428956,   0.1697825044394,   0.0458364225924,  -0.0146149042994,  -0.0346549265087,  -0.3445682823658,  -0.0010413908167,  -0.2327811121941,   0.0821372643113,  -0.0978480502963,  -0.2911895513535,  -0.0993412658572,   0.2612338364124,   0.0477017909288},
   {   0.0324209854007,   0.1925362348557,  -0.1777116954327,   0.1652915030718,  -0.0817887485027,   0.1182092353702,   0.0510343313217,  -0.0949384197593,   0.1106049045920,  -0.0927714407444,   0.0827697068453,   0.1584148406982,   0.1391668766737,   0.0869474560022,  -0.0029566285666,  -0.0022855470888,  -0.1120283603668,  -0.1963275969028,  -0.0932584181428,  -0.3233215808868,  -0.0019436571747,   0.0039087794721,  -0.2253620028496,   0.0611352398992,   0.0405279211700,  -0.1078959926963,  -0.1837389767170,   0.1182046681643,   0.2909761369228,  -0.2713016271591,  -0.0936003774405,   0.0760506466031,  -0.1487126350403,   0.1702168136835,   0.0836369469762},
   {   0.0341321453452,   0.2243004888296,   0.1482891440392,   0.0318803526461,  -0.3247950375080,  -0.1466156244278,  -0.2309952974319,  -0.0065825125203,  -0.2117811888456,   0.0934931114316,   0.0374263413250,  -0.0273447651416,   0.0946931093931,  -0.0226915050298,  -0.2420454621315,   0.1882911622524,   0.0604290217161,  -0.0317756123841,  -0.0257363021374,   0.0821167677641,  -0.0159229766577,  -0.0131635051221,  -0.2078615427017,  -0.0418559610844,  -0.1004574000835,  -0.2442387640476,  -0.1907920390368,  -0.2221168726683,  -0.0897975638509,  -0.0823750644922,  -0.1255765110254,   0.0842711925507,  -0.2682204246521,  -0.0448231659830,  -0.0413122586906},
   {   0.1340797394514,  -0.2763342261314,  -0.0630234330893,   0.1333419978619,  -0.4299644827843,  -0.1355316191912,  -0.2470766752958,   0.3296386301517,   0.4034999310970,   0.2391247898340,  -0.2163046300411,  -0.2588358819485,   0.3878153562546,  -0.2717334926128,  -0.3944154679775,  -0.2658686935902,  -0.1169683933258,   0.1838029175997,  -0.1557392030954,  -0.4274221956730,  -0.0529799982905,  -0.2032802104950,   0.3886217772961,   0.0755492150784,   0.3242604434490,   0.0258106943220,   0.0094374502078,   0.1205040812492,  -0.2397777438164,  -0.1966940313578,  -0.0138402739540,   0.0689619556069,  -0.1057363003492,   0.4263040423393,   0.3361544609070},
   {   0.1413133144379,  -0.1128377988935,   0.0530772693455,  -0.1125493571162,  -0.2150254100561,   0.0494805350900,  -0.1956673115492,  -0.0531822033226,   0.2657015025616,   0.1751188188791,  -0.1583353132010,   0.1270581781864,  -0.1454004347324,   0.1619855761528,  -0.0506316497922,   0.0537651591003,   0.1270075589418,  -0.0084606334567,   0.0093762651086,   0.0043116686866,  -0.0024697410408,  -0.1199360415339,   0.2179253399372,   0.0308189280331,   0.2893159687519,   0.0455908291042,  -0.0289407130331,   0.1333630084991,  -0.2263833284378,  -0.1510987281799,   0.1288158297539,  -0.2183016091585,   0.0136316837743,  -0.0649032592773,  -0.2705880701542},
   {  -0.0864808708429,  -0.3137543201447,   0.1539521664381,   0.0609541349113,  -0.1865108907223,  -0.0881315842271,  -0.1456311047077,  -0.0281538181007,   0.1776939928532,  -0.1335431635380,   0.0479101836681,  -0.1713077425957,  -0.2200912833214,   0.1332675814629,  -0.1573855280876,   0.1174535304308,   0.0256480388343,   0.1304762810469,   0.2171508073807,  -0.2894838452339,   0.2186001986265,  -0.0800574868917,   0.1671150177717,   0.0607633069158,  -0.1850072592497,  -0.0775456950068,  -0.2289846986532,  -0.0677898600698,  -0.1143420934677,  -0.0062958458439,   0.0601497776806,  -0.2406027913094,  -0.1686548441648,   0.1394174844027,  -0.1044545918703},
   {   0.2965750992298,   0.1946313828230,  -0.2641654908657,   0.2361878901720,  -0.2142909914255,   0.1771380752325,  -0.0092485416681,   0.0472989715636,   0.1031858474016,   0.0159541424364,   0.0849589109421,  -0.2637401819229,   0.2488231509924,   0.1040602028370,   0.0710409879684,   0.1031982675195,   0.0088181197643,   0.0225055888295,  -0.1381392776966,  -0.3904832303524,  -0.1573620140553,  -0.2189120948315,  -0.1805905997753,   0.3101309537888,  -0.1047558188438,   0.1302728503942,  -0.0894162729383,   0.2439458370209,  -0.0904348120093,   0.1866130083799,   0.1654441058636,   0.0723355263472,   0.1524428874254,   0.0104156266898,  -0.2712946832180},
   {  -0.0794393345714,   0.2270348519087,  -0.1700885742903,   0.1810378730297,  -0.0305454861373,  -0.0959736108780,  -0.1925545781851,  -0.3316779136658,   0.0731285437942,  -0.3424163460732,   0.2078642994165,  -0.0800809562206,  -0.1347237229347,  -0.0540148280561,   0.1421906203032,  -0.0074878367595,   0.2476603239775,   0.0636248514056,  -0.1691631376743,   0.1270835250616,   0.1670317202806,   0.1546980589628,  -0.2453674525023,  -0.3441130816936,  -0.0327799022198,   0.2106136381626,   0.0802299752831,  -0.0724915862083,   0.0324240922928,   0.1226970627904,   0.2169346213341,  -0.1649128198624,   0.1132973060012,  -0.1351165175438,   0.1074564531446},
   {  -0.0061138668098,   0.0449098534882,   0.0687898695469,  -0.1167785599828,   0.0601538792253,   0.0758474692702,   0.1744937002659,  -0.0037606095430,   0.0899409726262,   0.0111938891932,   0.0451140105724,  -0.0451559722424,  -0.0383861586452,  -0.0649020001292,   0.0211959462613,  -0.1097069978714,   0.0445090867579,   0.0434417873621,   0.0476199463010,   0.1789700239897,   0.0245480164886,  -0.0092642279342,   0.1005176156759,   0.0163040608168,  -0.0430427677929,  -0.0672431066632,  -0.0638788193464,  -0.1487267464399,  -0.0135013321415,   0.0577072314918,  -0.1323807835579,  -0.0535247772932,   0.0167579129338,  -0.0311580430716,  -0.0177379921079},
   {  -0.0385350361466,  -0.0583435036242,  -0.2117563337088,   0.0309107545763,  -0.0560091249645,  -0.1189540252090,  -0.1094734519720,  -0.1997979879379,  -0.0776502862573,  -0.0173772200942,   0.4005593657494,  -0.0356924422085,  -0.2064962238073,   0.4586183130741,  -0.2077208310366,  -0.2038400918245,   0.0511526241899,  -0.3607509434223,  -0.3661841154099,   0.2190241813660,  -0.0224310122430,   0.1692268550396,   0.2608820199966,   0.3018177747726,  -0.4190888702869,  -0.2783530950546,   0.0297522228211,  -0.0511380024254,   0.0534729771316,   0.2020276635885,  -0.0998200997710,  -0.0169074945152,  -0.1047214418650,   0.0608709566295,   0.2241344004869},
   {   0.3799514770508,  -0.0124825267121,   0.2174908518791,  -0.2666352093220,  -0.0086244987324,   0.1392648965120,  -0.1844242662191,  -0.2132916301489,  -0.3201310336590,   0.1436535269022,   0.3527522087097,   0.1758244931698,   0.0985792055726,   0.1299008578062,  -0.0186870601028,   0.0964163467288,   0.2879750430584,   0.4198567569256,  -0.4185216724873,   0.0373849757016,   0.0082463528961,  -0.1528177112341,   0.0912775546312,  -0.0650529488921,  -0.1181795895100,  -0.3284523189068,  -0.2192592024803,   0.0293457545340,   0.1995853781700,  -0.2020375281572,   0.3058864474297,   0.3711000382900,   0.0934655889869,  -0.1087834760547,  -0.0807367861271},
   {   0.2031135410070,   0.0368887558579,   0.1656663417816,  -0.1163857281208,  -0.0147601598874,  -0.3367691934109,   0.3105406165123,  -0.1349640488625,  -0.1594927012920,  -0.1441969573498,   0.1696052104235,  -0.2078592330217,  -0.0963671803474,   0.1039649173617,   0.2870213985443,   0.0209636259824,   0.0924677997828,   0.0381366647780,   0.1780768483877,   0.1655209362507,  -0.1426792740822,  -0.1385908722878,  -0.0351623222232,  -0.0087978430092,   0.0401989594102,  -0.2302616238594,   0.0699854120612,  -0.1558903604746,   0.0232304129750,  -0.2684549689293,  -0.0831686928868,   0.1247739568353,  -0.0562448091805,   0.2612028717995,  -0.1494385600090},
   {   0.1186810433865,  -0.0943671390414,  -0.1159268021584,  -0.0916090160608,  -0.1146794185042,  -0.0811085551977,   0.0436721071601,  -0.1408029198647,  -0.0952411442995,   0.0995408222079,  -0.1526804417372,  -0.1482971310616,  -0.0323421582580,   0.1737957745790,   0.1005597338080,  -0.2027373760939,   0.0586015991867,  -0.0118848290294,   0.0285757854581,   0.1142143532634,   0.1524406671524,  -0.1041994616389,   0.1128630414605,   0.0691580772400,   0.1478693336248,   0.0996885374188,   0.1567554026842,  -0.2792017757893,   0.0358299501240,   0.0133642861620,  -0.1664858609438,  -0.0527644231915,  -0.0115188295022,   0.0033280593343,  -0.1397483497858},
   {  -0.2045044302940,   0.0945578217506,  -0.1237794533372,   0.2988745272160,   0.1319140344858,  -0.0233544204384,  -0.2004452049732,   0.2386489361525,   0.0109574757516,  -0.2692411243916,  -0.3316559791565,   0.0896751061082,   0.0726257637143,  -0.3634010851383,  -0.0770740658045,  -0.0550027079880,  -0.0665286555886,   0.3780105113983,   0.3985236585140,  -0.2000321149826,   0.0442688018084,  -0.3394982218742,  -0.2440438419580,  -0.2003447264433,   0.1459444314241,   0.1235948279500,  -0.0490650460124,  -0.1963840574026,   0.0369791761041,   0.0265855155885,  -0.1773421317339,   0.1668884456158,  -0.0931950509548,  -0.0975945591927,  -0.1900787204504},
   {   0.0230300519615,   0.3486422896385,   0.2326640784740,  -0.0207596141845,   0.0400037318468,  -0.1153295785189,  -0.2152153700590,   0.1437729448080,   0.2172218859196,  -0.1526032537222,   0.1247520595789,  -0.0199952889234,   0.1545450687408,   0.1931015551090,   0.0254784934223,  -0.0839865282178,  -0.0710002928972,  -0.4452399015427,   0.0087145566940,   0.0276383571327,  -0.2509099841118,   0.1947690248489,  -0.1681090295315,  -0.0861311480403,   0.1998824626207,   0.3329137861729,  -0.0608364120126,  -0.2644658982754,  -0.3071411252022,   0.0649936199188,  -0.0442674793303,  -0.2306445688009,   0.1607394814491,  -0.2155600786209,  -0.2539410591125},
   {  -0.0479166023433,   0.0704006999731,  -0.1594680100679,  -0.1629849821329,   0.0155277457088,  -0.1226430460811,   0.1446171402931,   0.0550145693123,   0.1127199083567,  -0.0632755532861,  -0.0269900821149,  -0.0761111304164,   0.1572307199240,   0.1447068899870,   0.0564272291958,   0.0921250060201,   0.1645937561989,   0.1004368439317,  -0.1000922545791,  -0.0520812384784,  -0.2242005467415,   0.1715323626995,  -0.0384083762765,  -0.1215430349112,  -0.1727679669857,   0.1461719125509,   0.1084340736270,  -0.0683842226863,   0.0052059716545,   0.1082399189472,  -0.0107818702236,   0.2567771375179,  -0.1531182080507,  -0.0952723547816,   0.2411879003048}};
  const float bias_0[35] = {   0.0583775639534,   0.1827483922243,  -0.1315150260925,   0.0951213613153,   0.1368696242571,   0.0928061753511,  -0.0185351781547,  -0.0134543990716,   0.2126149535179,  -0.0812322944403,   0.1221656948328,   0.1170828789473,   0.0281518697739,   0.1087867915630,   0.1221143603325,   0.1469661146402,   0.2101435512304,   0.0092049967498,   0.0652671232820,   0.1292961090803,   0.1991896927357,   0.0125304888934,   0.0886423736811,   0.0852628722787,  -0.1220863237977,   0.1639735549688,   0.1426429748535,   0.0423775762320,   0.0736879557371,   0.1263407170773,   0.0832089707255,   0.2094232887030,   0.0993984639645,   0.0626041963696,  -0.0151350824162};
  // Declare the arrays in the stack
  const float kernel_1[35][35] = 
  {{   0.2210656404495,   0.0115547701716,   0.1584461778402,   0.0496040023863,  -0.1637931764126,   0.2350794076920,  -0.1595442742109,   0.2741924822330,  -0.0208004806191,   0.0917393639684,  -0.2708141803741,  -0.0688653960824,   0.1942052543163,  -0.0937658399343,   0.1295901685953,   0.2063008844852,  -0.0882112011313,   0.1957642883062,  -0.0912549272180,   0.2702137231827,  -0.1575643420219,  -0.1879139989614,   0.1499443501234,  -0.1987280994654,  -0.1601501256227,  -0.2273570597172,  -0.1913510411978,  -0.1236824765801,  -0.1260674148798,   0.0992989763618,  -0.1495227515697,  -0.0675904229283,  -0.3239672482014,   0.1030096039176,  -0.2122116386890},
   {   0.0926976799965,  -0.1267863512039,  -0.1594507694244,   0.1349017769098,   0.1435469388962,   0.3188279867172,   0.0656184777617,   0.1005149781704,   0.0102864075452,   0.1686913669109,   0.1130729317665,   0.1761664450169,   0.2117062956095,  -0.1414923071861,  -0.0396096445620,   0.1016399636865,  -0.1527941226959,  -0.2051721215248,   0.0856026038527,   0.2439182847738,   0.3439340889454,  -0.0616142861545,  -0.2001132071018,   0.2341095507145,   0.3470950424671,   0.2869397103786,  -0.1667611598969,   0.2761895954609,  -0.1237264573574,  -0.0947897657752,   0.1207324415445,   0.2862265706062,  -0.0128275854513,  -0.0780754163861,  -0.0053126048297},
   {   0.1872699260712,   0.1867531687021,  -0.1254713386297,   0.0186414346099,   0.1259146034718,  -0.1857173740864,   0.0423961281776,  -0.0385071411729,  -0.2324753701687,   0.1998744755983,   0.1127926483750,   0.1751592457294,   0.0881760716438,   0.1590085029602,   0.0141767952591,   0.1065195873380,   0.0436048842967,   0.0470771081746,   0.2995052337646,   0.2269519269466,  -0.0819401815534,  -0.1669944226742,   0.2479531764984,   0.2103112041950,  -0.0833445936441,   0.1297844499350,   0.1717494428158,  -0.1706497073174,  -0.2236333638430,  -0.1293094903231,  -0.0537963882089,  -0.2525693178177,   0.1613518148661,  -0.0143641866744,  -0.0846989825368},
   {  -0.2586773037910,   0.1747255027294,  -0.0557611361146,   0.0755281075835,  -0.0215637180954,  -0.0019463233184,   0.1819889992476,   0.0515074580908,  -0.2077667564154,   0.2476904839277,  -0.0956893116236,   0.1369086503983,  -0.2513636052608,   0.0198042653501,   0.3170133233070,   0.1383281052113,   0.0993471518159,  -0.1632696092129,   0.2910191118717,   0.0373803861439,   0.2450665533543,   0.2486167997122,  -0.1740134358406,  -0.0112515259534,  -0.1035715416074,  -0.1601682007313,  -0.2310336828232,   0.2320528626442,   0.0990877747536,   0.1481897979975,   0.2183741331100,  -0.0295810494572,  -0.2137300670147,   0.0651899203658,   0.3065067231655},
   {   0.0253063030541,  -0.0081411795691,   0.1236406117678,  -0.1470319479704,  -0.1966954916716,  -0.2691348791122,   0.0172931514680,   0.1997098922729,   0.0937640815973,   0.3359519243240,  -0.1126860156655,  -0.2117631733418,  -0.1119623929262,  -0.0187741219997,   0.2361057400703,   0.1400254070759,   0.0289996471256,   0.1146525666118,  -0.2666689753532,   0.1453761905432,   0.3385866284370,  -0.1916743963957,   0.1480703353882,  -0.0120014166459,   0.0089217126369,   0.1455450356007,  -0.1310219764709,  -0.0153731582686,   0.1768150627613,   0.3035702407360,   0.1141574978828,   0.1640269309282,   0.2048884034157,   0.0883507579565,  -0.1453926861286},
   {   0.2295174598694,   0.2409927845001,  -0.1834030449390,  -0.1145080700517,  -0.0286147817969,   0.2118488550186,  -0.0455097667873,  -0.1798131167889,  -0.0698060616851,  -0.0529357083142,  -0.1889984905720,   0.0184871200472,  -0.1000634133816,  -0.0895427316427,   0.3236316442490,  -0.2453404068947,   0.3493508994579,  -0.1553643792868,   0.0517036244273,   0.1099022775888,  -0.1627082824707,   0.0349924303591,  -0.0609098039567,  -0.0327851921320,   0.2496726959944,  -0.2769785523415,   0.2464115917683,  -0.0654929503798,   0.0150701254606,   0.2185117006302,   0.1671599149704,  -0.1559432595968,  -0.0023669726215,  -0.1640594154596,   0.0089337630197},
   {  -0.0088445972651,   0.1577371805906,  -0.0412342511117,  -0.0406745374203,   0.0759053528309,   0.1722246706486,  -0.2034626305103,   0.1521018743515,   0.1479958742857,  -0.1515111327171,   0.1504866480827,  -0.3353237211704,  -0.0101873576641,   0.1599793136120,   0.1873065531254,  -0.1805711984634,   0.2127817273140,  -0.0555991344154,  -0.1789138466120,  -0.1514584422112,  -0.1413362622261,   0.3311171829700,   0.2941172719002,   0.0658086761832,  -0.1241651177406,  -0.1416272968054,  -0.0357609726489,   0.1465163975954,  -0.0649267807603,   0.0380687527359,   0.1325964182615,  -0.2317200452089,   0.0038393998984,   0.1013960838318,   0.2854028642178},
   {   0.1374569684267,  -0.1782839894295,   0.1768489629030,   0.0791053473949,   0.0355379208922,  -0.0104038696736,  -0.0377487614751,   0.1716120392084,  -0.0647595599294,   0.3267607390881,   0.0036643648054,   0.1207826584578,  -0.1304765939713,   0.2628073394299,   0.1734072864056,  -0.1885723620653,   0.1362069696188,  -0.1540241241455,   0.1435441076756,   0.3212721943855,   0.1768566966057,   0.1345476061106,   0.1434785127640,   0.2258189171553,   0.2298095226288,   0.0898989811540,  -0.2220484912395,  -0.2252152711153,  -0.0203105267137,  -0.1871770471334,   0.2808820903301,   0.0943060293794,   0.1692981868982,   0.2062768787146,   0.0224457234144},
   {  -0.1852323710918,  -0.1903079450130,   0.2563823461533,   0.3835644423962,  -0.1985024511814,  -0.1816930323839,   0.0781178325415,  -0.2449904829264,  -0.0201544687152,  -0.0319442674518,  -0.2024038285017,   0.0389715060592,  -0.1022427529097,   0.2305262833834,   0.0599199607968,   0.0849082991481,  -0.1913710087538,  -0.2509396076202,  -0.0028848662041,   0.0311966445297,  -0.1884328722954,  -0.2386790663004,  -0.1499173641205,   0.0581890642643,  -0.2358494848013,   0.0193734746426,   0.0917239263654,  -0.2572773396969,   0.2647193372250,  -0.1163541227579,  -0.1736641079187,   0.1800132989883,   0.1016942709684,  -0.2069758325815,   0.1903326064348},
   {  -0.2881440520287,  -0.0151197332889,   0.0906231552362,  -0.2608830332756,   0.0056669814512,  -0.1593543887138,  -0.0657236650586,   0.2555208504200,   0.1331120729446,   0.0839718580246,  -0.2375286370516,  -0.2762216031551,   0.0167678464204,   0.3086825907230,  -0.1274499893188,   0.0027017174289,  -0.0124025344849,   0.1052346974611,  -0.1055391579866,  -0.0227710418403,   0.1150888726115,  -0.2537235915661,  -0.1479355394840,  -0.1876750886440,   0.2476719021797,   0.2071956098080,   0.3197280764580,  -0.0807053223252,  -0.2093445658684,  -0.2268115431070,  -0.2228348404169,  -0.1505405753851,  -0.2980262339115,   0.0140226110816,   0.0142721347511},
   {   0.1639972478151,   0.2791868746281,  -0.0610878355801,   0.1408411860466,   0.1696956157684,   0.0316622704268,  -0.1454746723175,   0.0263757277280,  -0.1219798475504,  -0.1799668967724,   0.0647938847542,   0.2638588249683,   0.0005388301215,   0.0907269865274,   0.1747767776251,   0.0724729970098,   0.3207902610302,   0.0036647138186,   0.2246324121952,  -0.3178733885288,   0.2473266720772,  -0.1877440959215,   0.2613751292229,   0.0456224083900,   0.0841243043542,   0.1896542161703,   0.0954200103879,   0.1039362698793,   0.3028048276901,  -0.2503995895386,   0.0196222476661,  -0.0242111030966,   0.0283745694906,   0.2840847373009,  -0.1959765702486},
   {  -0.1283767223358,   0.1889240145683,   0.0262352302670,   0.0585781522095,  -0.1178270429373,  -0.0229366552085,   0.0606912486255,  -0.0090756099671,  -0.0437852814794,   0.0410926155746,  -0.2286180108786,   0.0563865154982,  -0.0893813148141,  -0.1242419034243,   0.1776744127274,  -0.0833347812295,  -0.1458064466715,   0.2231661379337,   0.0037506264634,   0.0014544553123,   0.1576104164124,   0.0142260566354,  -0.1698438227177,   0.0969835743308,  -0.1353038847446,   0.1859672963619,   0.2070367336273,   0.1465932726860,   0.0604387149215,   0.2063509225845,  -0.0642283186316,  -0.2326373606920,   0.2575029432774,   0.0919712185860,  -0.1956588774920},
   {  -0.2201692461967,  -0.0260194092989,  -0.2215019464493,   0.0996837392449,   0.1504371464252,  -0.0412278510630,   0.3814918100834,   0.0152078513056,  -0.0112745724618,   0.1304611861706,  -0.0937590673566,   0.0418752022088,  -0.1267426013947,   0.1547988355160,  -0.1539959460497,  -0.0964873582125,   0.2843787670135,  -0.3703356683254,  -0.0186247825623,  -0.1294838786125,  -0.1222757846117,  -0.0520081408322,   0.1574347615242,   0.0034326391760,   0.1434386819601,   0.2846573591232,   0.0604718551040,   0.1138424575329,  -0.1469846665859,  -0.1418575793505,  -0.2530057430267,  -0.0630554705858,  -0.0612097866833,   0.1768482476473,   0.2438581436872},
   {   0.0787124335766,   0.1711534559727,   0.0804579183459,  -0.0881307423115,   0.2040813416243,   0.3232109248638,  -0.2161326110363,  -0.1319932043552,   0.0425431802869,  -0.0947037786245,   0.0751762986183,  -0.0512792579830,   0.1485802084208,   0.2571408450603,  -0.1027718186378,   0.1351048052311,  -0.2467011213303,   0.3206864893436,   0.1353935152292,   0.0116779562086,  -0.1702202707529,   0.0794078931212,   0.1650549620390,  -0.1287748664618,   0.2097466439009,  -0.0314696878195,  -0.0223747417331,   0.2420533150434,   0.2707121670246,   0.0855742543936,   0.0104895001277,   0.0007434457075,  -0.1839310973883,   0.0965037867427,  -0.0451943762600},
   {   0.1575761139393,  -0.0176371261477,  -0.2838929891586,   0.1913228034973,  -0.1723803281784,  -0.1655528545380,  -0.1534545272589,   0.0490067899227,  -0.1105823591352,  -0.1625507324934,  -0.2883818745613,   0.0031027141958,   0.2449495047331,   0.1291062086821,   0.3323571085930,  -0.0957096442580,   0.0827680677176,   0.0929689183831,  -0.1889006197453,   0.1953465193510,  -0.1763261407614,  -0.2774752974510,  -0.1255949735641,  -0.0482655614614,  -0.1072272360325,  -0.0816144645214,   0.0071566482075,   0.2626722455025,  -0.0989311859012,   0.0506301373243,  -0.1167628541589,  -0.3120029866695,   0.2742251157761,   0.1431873738766,  -0.0590072050691},
   {   0.0130738578737,  -0.2489300817251,   0.2251456528902,   0.1214550733566,  -0.1150911673903,   0.1289049834013,  -0.1159989237785,  -0.1108544617891,   0.3146268129349,  -0.1746006011963,   0.2215259671211,  -0.2181983590126,   0.0308755151927,   0.2092320919037,   0.2883329391479,   0.0743519961834,  -0.0949490740895,   0.1316013634205,   0.0019744422752,   0.3148478865623,  -0.2141263186932,  -0.2063159644604,  -0.1718425899744,   0.1577117890120,   0.0936634540558,   0.1461796909571,   0.1242957338691,   0.2567753195763,   0.0452283285558,   0.1931955367327,  -0.2766039967537,  -0.2491673529148,   0.1157327070832,  -0.1990708857775,   0.2715379297733},
   {   0.0128661310300,   0.1707032322884,  -0.1179333776236,   0.2176987677813,   0.2232410758734,  -0.1705555021763,  -0.1017242893577,   0.3366154730320,  -0.0734815448523,   0.1815177947283,   0.2712617218494,   0.0955501720309,   0.0057081212290,  -0.0241462104023,   0.1549364775419,  -0.0298528447747,   0.1306415051222,  -0.2512776851654,  -0.0548267625272,   0.0564463734627,   0.0249651242048,  -0.2300246506929,  -0.1566847413778,   0.1643911600113,  -0.1270991563797,  -0.2033275514841,   0.2478470057249,  -0.0565346702933,   0.2720181643963,   0.3074391186237,  -0.2647891640663,  -0.0378780774772,  -0.3139324486256,   0.2936889529228,  -0.0725762173533},
   {  -0.1260492503643,   0.2401884049177,   0.0396420620382,   0.0185180827975,   0.2231514751911,   0.0727643892169,  -0.1985234618187,  -0.0524070709944,   0.3023956418037,   0.0372255481780,   0.0035090465099,  -0.0310037750751,  -0.0404647290707,   0.2491076886654,   0.0754385218024,  -0.1097052320838,   0.0414502397180,   0.0570879913867,   0.3320389091969,  -0.0011568339542,   0.1662606596947,  -0.1499994099140,  -0.1488139480352,   0.1909996420145,  -0.1054367348552,   0.0729174166918,  -0.2310790419579,  -0.1018591746688,  -0.2543690800667,  -0.2192011177540,   0.0835337564349,  -0.0502262599766,   0.2275939881802,   0.0007111202576,  -0.1018856540322},
   {  -0.3521138131618,  -0.3742936253548,  -0.1359760463238,  -0.1040129065514,   0.1804623454809,   0.0991759151220,   0.2834018468857,   0.0915092229843,  -0.0347805581987,   0.1080439910293,  -0.2029763460159,  -0.1568913757801,   0.1777702420950,   0.0159976892173,   0.1838558167219,   0.0472558662295,   0.1160665601492,  -0.1699812859297,   0.2844873070717,   0.1867265552282,   0.0179719477892,  -0.3056361675262,   0.0024160367902,   0.3054493963718,  -0.1679590195417,   0.3000272214413,  -0.1687588393688,  -0.1018076911569,  -0.1864406913519,  -0.2142154127359,   0.2600407898426,  -0.2091410607100,  -0.0430773012340,   0.0935863181949,  -0.1398487538099},
   {  -0.0840019360185,   0.0894272252917,   0.0801535174251,   0.0046783108264,  -0.1777020990849,  -0.2082753032446,   0.1948801577091,  -0.0552308075130,  -0.0118189118803,   0.1522498279810,  -0.0177182909101,  -0.0885079652071,  -0.1156088784337,  -0.2547529935837,  -0.2254408001900,  -0.0106632271782,   0.3260183334351,   0.2833087444305,   0.0047596935183,   0.2158099859953,   0.2114702910185,  -0.2719741165638,   0.3217274844646,  -0.0221031978726,   0.0535704009235,   0.0661713406444,   0.2006970643997,   0.3236947059631,   0.0129576940089,  -0.0179304480553,   0.3715286552906,   0.1553722470999,   0.0731116011739,   0.3188096284866,   0.0111673343927},
   {   0.0834825783968,   0.2715544402599,  -0.2136590480804,   0.0237964503467,  -0.0754172429442,  -0.2208811044693,   0.2013346552849,  -0.0006080437452,   0.1821650862694,  -0.1229773536325,  -0.1879178583622,   0.1587210893631,  -0.1224476993084,  -0.3113596737385,   0.2164645940065,  -0.2187088131905,   0.0888224318624,   0.0191255081445,  -0.2249333411455,   0.3624780774117,   0.0619649030268,   0.2170713245869,   0.0213695634156,   0.1663767844439,   0.0135247400030,   0.1246905624866,  -0.1616547703743,   0.0170079115778,  -0.0481495335698,  -0.0824657827616,  -0.2007287591696,   0.0083411326632,   0.0447991304100,  -0.2161132097244,   0.3498237431049},
   {  -0.2629590928555,  -0.3428245484829,   0.0726686939597,  -0.0334451906383,   0.0315828882158,  -0.0629896000028,  -0.2254824042320,  -0.0665894374251,  -0.2467566877604,   0.1969645321369,  -0.2357582747936,   0.2425910830498,   0.2156364619732,   0.0688056573272,   0.0538731105626,   0.2570141851902,  -0.1936322748661,  -0.1199457123876,  -0.0761595517397,   0.1482488811016,   0.2739606201649,  -0.1155579388142,   0.3337105214596,   0.0416830405593,   0.2616637945175,   0.1963750720024,  -0.2141534984112,  -0.1568827182055,  -0.0539640225470,  -0.1413411945105,   0.0325986668468,   0.0382249690592,   0.1532191336155,   0.1253122389317,  -0.1928711086512},
   {  -0.1754765957594,  -0.1128011792898,   0.0687630400062,   0.2134163826704,   0.0278406348079,  -0.1216809377074,   0.1214504614472,  -0.1208594441414,   0.3159833550453,   0.3205058276653,   0.0770682319999,   0.2777964472771,   0.1522708088160,   0.1156085655093,   0.2610121667385,   0.0994930714369,  -0.0214394778013,  -0.1501947641373,   0.0601886808872,  -0.2547721266747,  -0.0818366408348,   0.2176325619221,   0.2598848342896,   0.0639471635222,   0.0078971209005,   0.0884053632617,  -0.0414998643100,  -0.2617787122726,   0.0093480208889,  -0.2389335483313,  -0.0853640288115,   0.0480078831315,  -0.1377543509007,   0.2270965725183,   0.1735007464886},
   {  -0.0298384372145,  -0.1393583118916,   0.2811925113201,   0.3102511167526,   0.2677443325520,   0.2632887661457,   0.0383205525577,   0.0992233604193,   0.0112458188087,   0.0015471051447,   0.1970898956060,   0.0780086964369,  -0.2227790057659,   0.2148802876472,  -0.0966338813305,   0.1555354893208,   0.2360212653875,   0.0777586400509,  -0.0115975458175,   0.1642337441444,  -0.0783038586378,  -0.1479602158070,   0.2291094511747,  -0.2948566675186,   0.1826008409262,   0.0911462903023,  -0.1331729888916,  -0.0841769352555,   0.1636104881763,   0.0953954756260,  -0.2262311428785,  -0.1148943006992,   0.0986445099115,   0.1379685103893,  -0.1266071200371},
   {  -0.0310155190527,  -0.0645218193531,  -0.2041779160500,  -0.0441248044372,  -0.0617441199720,  -0.2627695202827,  -0.0426993332803,  -0.2327490448952,   0.2494908273220,  -0.1392928957939,   0.0450306683779,  -0.0029252185486,  -0.0203569848090,   0.1236180290580,  -0.1759625077248,   0.1033060550690,  -0.2081605345011,  -0.0156345125288,  -0.0931107476354,  -0.0059051942080,  -0.2008641213179,   0.0261602159590,  -0.2478799372911,   0.2841657996178,   0.0188868455589,  -0.1121321469545,  -0.1722500622272,   0.1748267859221,  -0.0043200459331,   0.2843971550465,   0.1847441494465,  -0.0459594242275,   0.0702012926340,  -0.0781697630882,  -0.0780092403293},
   {   0.1408371627331,  -0.1077214404941,   0.0088895820081,   0.0367964766920,   0.1618018746376,   0.1123512908816,   0.1042003110051,  -0.0049425372854,  -0.2654265165329,   0.0970884487033,   0.2070849388838,   0.0979110524058,  -0.2631407678127,   0.1800416707993,  -0.1290306597948,   0.0692358314991,   0.2603885531425,   0.1599875241518,  -0.0344493314624,   0.0600212030113,   0.2089494317770,   0.0349050126970,  -0.0933564603329,   0.3320603370667,  -0.1523272842169,   0.0706494748592,   0.0572003200650,   0.0671209767461,  -0.1970013231039,  -0.1880720853806,   0.1113479509950,  -0.1849853098392,  -0.0279662963003,   0.0862095504999,  -0.1062526330352},
   {  -0.1481644064188,  -0.1116993427277,   0.0510525256395,  -0.1581671237946,   0.3313347399235,  -0.0807232856750,   0.1874639838934,   0.0443586148322,  -0.1286843419075,   0.0673240944743,  -0.0363448299468,   0.1530222296715,   0.1443189978600,  -0.0641586855054,   0.1791966408491,   0.2458295673132,   0.0054607666098,  -0.0375374667346,   0.1403594166040,  -0.2455454319715,   0.1953395307064,  -0.2063086032867,   0.2227755486965,  -0.1011528372765,   0.2414468973875,  -0.1954735070467,   0.1862008869648,   0.2951385080814,   0.2333521246910,   0.0723567083478,   0.1615831106901,  -0.0177013501525,   0.2245103418827,  -0.2825087010860,   0.2346195429564},
   {  -0.0045479461551,   0.2980448007584,   0.0655916258693,  -0.2321280390024,   0.3045890629292,  -0.0046712527983,   0.2921918332577,   0.0881856754422,   0.1620735526085,  -0.1389384269714,  -0.1930610686541,   0.1605589240789,   0.1247355639935,  -0.0320979394019,  -0.2251083701849,   0.0337365046144,   0.0360301621258,   0.0949711799622,  -0.1682364642620,  -0.2781369090080,   0.1450493186712,  -0.1725131571293,   0.1004040464759,  -0.1730929464102,   0.1517817676067,   0.0695610344410,   0.0758191719651,   0.3185035884380,  -0.0402245149016,   0.2505494952202,  -0.1609241366386,  -0.0864921361208,   0.1192669123411,  -0.0866537913680,   0.0762987285852},
   {   0.0214965231717,   0.1239837929606,  -0.0866877734661,  -0.3042209446430,   0.2324842661619,   0.1565857529640,  -0.1905377060175,  -0.1774836480618,   0.3782434165478,   0.0374538302422,   0.2207641303539,  -0.2558619379997,   0.2243292927742,  -0.0062072733417,   0.0067881545983,  -0.3915245234966,  -0.1012465432286,  -0.0971847400069,   0.1882235556841,   0.3481786847115,   0.1875803172588,  -0.0149177033454,  -0.0205486100167,   0.0387767814100,   0.1292112618685,  -0.2549321651459,  -0.1242990940809,   0.2836132049561,   0.2225923538208,  -0.2475443482399,  -0.0212188437581,   0.0917801260948,   0.2345737367868,  -0.0344322659075,  -0.2793844044209},
   {  -0.1526128500700,  -0.1859950870275,  -0.1663423180580,   0.0262447614223,   0.1095577478409,   0.2168743163347,   0.0222219433635,   0.0419760495424,  -0.0166500527412,  -0.0625776350498,  -0.0669111832976,  -0.2374571859837,  -0.1158759891987,   0.0983059778810,   0.1588370651007,  -0.1457929611206,   0.1494458168745,  -0.0050046127290,  -0.0339973568916,  -0.2720721364021,   0.0776086300611,   0.0986587479711,  -0.1633183956146,  -0.0018684931565,   0.1047843918204,   0.1195627525449,  -0.0422568656504,   0.2199370861053,   0.3161845207214,   0.1414938867092,  -0.0987055450678,  -0.2319168746471,   0.0703970640898,  -0.1441667079926,   0.0479156412184},
   {  -0.1158383786678,   0.1399984359741,   0.2464375942945,   0.0374862365425,  -0.1115634217858,  -0.0295699164271,   0.1881285905838,   0.1620920002460,   0.3074042201042,  -0.1862314790487,  -0.0910542011261,  -0.1242716684937,   0.1089473813772,   0.0223885457963,   0.0511384159327,  -0.1585870087147,  -0.0818144232035,   0.0605488866568,   0.2873903810978,   0.3007574677467,   0.1019647493958,  -0.1330831199884,  -0.0186688322574,  -0.0634682029486,   0.1759093552828,  -0.2298801541328,   0.1560692787170,  -0.1352696865797,  -0.1636944413185,  -0.1984436064959,   0.0534053482115,  -0.0389069691300,  -0.1858781129122,   0.1563491374254,  -0.0375002846122},
   {   0.1375980079174,   0.3081916570663,   0.3565404713154,   0.0207882486284,  -0.1999034285545,   0.1097463443875,   0.2897760868073,   0.1553901582956,   0.2769069075584,  -0.0359554849565,  -0.0394690781832,   0.0723851248622,  -0.1101917177439,  -0.1513454467058,  -0.1116334870458,  -0.0020698702428,   0.2076893597841,  -0.1538824737072,   0.2298266887665,   0.2887433171272,   0.1347502171993,   0.0116789788008,  -0.0808219686151,   0.2836300134659,  -0.1342206746340,  -0.2433209270239,   0.2791083455086,  -0.0202075019479,   0.0673653408885,   0.2819424271584,   0.2411618679762,  -0.0011887446744,  -0.0994147136807,   0.0160045586526,  -0.0639886185527},
   {  -0.0840043947101,   0.2285856753588,   0.0341564007103,   0.0967502817512,   0.2292441129684,   0.0982103049755,  -0.0045718946494,  -0.1072248965502,  -0.0402922108769,   0.2654966413975,   0.1281209588051,  -0.0934221670032,  -0.0010995991761,  -0.2486749589443,  -0.0627633109689,  -0.2020108103752,   0.1580934226513,   0.2719340622425,  -0.0582769438624,  -0.1964927166700,   0.2582466602325,  -0.0745033025742,  -0.2399755716324,   0.2451960146427,  -0.0775621905923,   0.1250175535679,   0.1824597269297,   0.2703863680363,   0.0186198409647,   0.1506750583649,   0.1587506681681,  -0.1840274631977,   0.1432582587004,  -0.1678313314915,  -0.1244114115834},
   {   0.0020657349378,  -0.0501584447920,   0.3128164708614,  -0.1131838485599,   0.0785963311791,   0.1337427496910,   0.0557679273188,  -0.0128725087270,   0.0741613507271,   0.3157238960266,  -0.0009262446547,  -0.0016224336578,  -0.1011871472001,   0.1842178404331,   0.0786032602191,  -0.1490055173635,   0.1405494511127,  -0.0526642873883,   0.2018446177244,   0.1887040436268,  -0.2895012795925,  -0.2000088542700,  -0.1545735895634,  -0.0217543318868,   0.3513343036175,  -0.0435276292264,   0.1184680759907,  -0.0252965185791,   0.0950589999557,  -0.1402386426926,  -0.2596303820610,  -0.0131496023387,   0.1992845386267,   0.1133493036032,  -0.0528949834406},
   {   0.2213090807199,  -0.1158950999379,  -0.0235685687512,   0.0737440809608,   0.0446072407067,  -0.1957443952560,   0.1467723548412,  -0.0575457401574,   0.2220054864883,   0.1628086268902,  -0.1505431085825,  -0.0455163829029,   0.1437063515186,  -0.1396585106850,   0.1505647450686,   0.1245246157050,   0.0224655400962,  -0.0298821888864,  -0.1533563286066,  -0.2144191861153,   0.1761616617441,   0.2030098140240,   0.2017295658588,   0.1616057902575,   0.0390625409782,   0.0585194043815,  -0.0322759486735,  -0.2607307136059,  -0.1154451146722,  -0.2634834945202,  -0.1628930568695,   0.0859688147902,   0.1448277980089,   0.1429122537374,  -0.1605404317379}};
  const float bias_1[35] = {   0.0262942090631,  -0.0229923129082,   0.0185198131949,   0.1493120342493,  -0.0115038771182,   0.1317247301340,   0.0890234783292,   0.0804528072476,  -0.0312503576279,   0.0694093555212,  -0.0308148078620,  -0.0223586298525,   0.0670304000378,  -0.0792758390307,   0.1214987561107,  -0.0422370806336,   0.0742911621928,   0.1110912263393,  -0.0660116896033,   0.0198570098728,   0.0970833078027,   0.0108563620597,  -0.0226665101945,   0.0069482717663,  -0.0324810259044,  -0.0458446666598,   0.1342465132475,   0.0769322216511,   0.1565208733082,   0.0966965034604,   0.0889627411962,   0.1516523808241,   0.0701455250382,   0.0965289101005,   0.0812059342861};
  // Declare the arrays in the stack
  const float kernel_2[35][35] = 
  {{  -0.2920682430267,  -0.1391459554434,  -0.3915168344975,   0.0171290896833,  -0.0549880377948,  -0.0807278081775,   0.2601608037949,   0.1653497368097,   0.1153045743704,   0.2251738011837,   0.0300084967166,   0.1622618585825,  -0.0603513866663,   0.1997419446707,   0.1030350998044,   0.0855490118265,   0.1470710635185,  -0.0630281940103,   0.2382422685623,  -0.0885541960597,  -0.1154936328530,   0.2035532593727,  -0.1530859321356,   0.0994274392724,  -0.1503800600767,  -0.1380516588688,   0.0250535272062,  -0.1492428034544,  -0.2629231214523,  -0.0721145719290,  -0.2839778363705,   0.1312458813190,  -0.0806939154863,  -0.3542502820492,   0.2883324325085},
   {   0.0620286092162,   0.1874862611294,  -0.1067719906569,   0.0258359909058,  -0.0208149608225,  -0.0555378086865,  -0.1631504148245,  -0.0017287841765,  -0.2321002185345,   0.1005299761891,   0.0255364831537,   0.0216228216887,  -0.1680573821068,  -0.3271137475967,   0.1578746885061,  -0.1779275238514,   0.0457242764533,  -0.1260851472616,  -0.2978039085865,  -0.0087508605793,  -0.1434846371412,  -0.0730221495032,   0.0660050660372,  -0.0653087720275,   0.2322381734848,   0.2742424011230,   0.0234253816307,  -0.0010568684665,  -0.0627840757370,   0.1666194349527,  -0.2631161510944,   0.1471120566130,  -0.2677875161171,   0.1376716494560,   0.1479938477278},
   {   0.0423124507070,   0.0437299013138,   0.1230172291398,   0.1814959496260,   0.0815049335361,  -0.2399410009384,   0.1171666309237,   0.3019144237041,   0.0160035938025,  -0.0867176502943,   0.2672989368439,  -0.0976910889149,   0.2079994529486,   0.0989492908120,   0.1545848101377,  -0.2725162506104,   0.1015897616744,  -0.2343773543835,  -0.1745917648077,  -0.1972576528788,   0.1598488241434,   0.0574632808566,   0.3193412721157,  -0.1052920594811,   0.1083268821239,  -0.0385923646390,  -0.0697816163301,  -0.1658564060926,  -0.1873825490475,   0.0449531562626,   0.0904037281871,   0.1338531821966,   0.0566181987524,  -0.2145045548677,   0.1042346283793},
   {   0.1876129060984,   0.1181147098541,   0.0413461253047,  -0.2036606818438,   0.2222223877907,   0.3098145723343,  -0.1623526662588,   0.0763046517968,   0.0825432315469,  -0.0566598549485,  -0.0596601180732,  -0.0672166049480,   0.0541831851006,   0.1897929459810,  -0.2096326798201,  -0.0411679819226,  -0.1482560336590,   0.0056248400360,   0.3428398370743,   0.0591444596648,   0.1814002096653,   0.2419512867928,  -0.0292584113777,   0.3025974035263,  -0.0674397870898,   0.2056704312563,   0.1531039476395,   0.1374994367361,  -0.0145730776712,  -0.0845717787743,  -0.0433910042048,  -0.0189459230751,   0.2382318228483,  -0.2507493793964,   0.1084232330322},
   {   0.0580486841500,  -0.1468953043222,   0.2176489084959,  -0.1918831020594,  -0.1715756356716,   0.1885484904051,   0.0701280757785,   0.3510172963142,   0.1861224621534,   0.1527588665485,  -0.0224734731019,  -0.1588088124990,   0.1180802881718,  -0.2037774026394,  -0.1964074671268,  -0.0694949254394,   0.1126971691847,  -0.0715877339244,  -0.2193852365017,  -0.1529822498560,   0.0135297542438,   0.3074122667313,  -0.2014921754599,   0.2253146022558,   0.1548509150743,   0.2820475995541,   0.1412719637156,  -0.1990166455507,   0.1580055505037,   0.2033805996180,  -0.2073666006327,  -0.1672785729170,  -0.0362935885787,   0.1852351278067,  -0.1873427331448},
   {  -0.2893300652504,  -0.1176848858595,   0.1390498727560,  -0.1029747277498,   0.0630223974586,  -0.1025974452496,  -0.2749085128307,   0.0038750870153,  -0.1838392615318,   0.2881758809090,  -0.0629149451852,  -0.1599411666393,  -0.3899539113045,   0.1799209415913,  -0.1498181968927,  -0.0160806663334,  -0.3976375162601,   0.1663178503513,   0.0306399669498,   0.2666214704514,  -0.1417823433876,  -0.0745979025960,   0.2725949883461,   0.1274908035994,   0.1338155418634,  -0.1527760326862,   0.2038254886866,   0.0431971848011,  -0.1084964871407,  -0.1835962086916,   0.0975627228618,  -0.0276862587780,   0.1082769557834,   0.2622501254082,  -0.1658905446529},
   {   0.0493729226291,   0.0473553761840,  -0.1604423522949,   0.2174967229366,   0.2717067003250,   0.1144900172949,   0.2521567344666,   0.2287797033787,   0.0011662134202,   0.1528387069702,  -0.2717168033123,   0.3241462409496,   0.1399634927511,   0.1671211272478,  -0.0535742938519,   0.0462377183139,   0.1781852543354,   0.1450468748808,   0.0955742970109,  -0.2228233814240,   0.2407183647156,   0.1079656109214,   0.0794228240848,   0.0643096566200,   0.2893504500389,  -0.0194274187088,   0.0746847242117,  -0.1236098259687,  -0.0817525088787,  -0.1391168087721,  -0.2590569853783,   0.1188824102283,  -0.2848117649555,   0.1270575672388,   0.2646094858646},
   {  -0.2437155991793,   0.2457292973995,   0.2041922062635,  -0.1797076761723,   0.3070798814297,  -0.1216004863381,   0.0323278382421,  -0.1695663034916,  -0.1856401562691,  -0.1753735244274,  -0.0712419226766,  -0.0425715819001,  -0.1420760750771,   0.3080896735191,  -0.1800055503845,   0.3007760345936,  -0.0241810902953,   0.1881387084723,  -0.0894412994385,  -0.1177580803633,   0.0958287268877,   0.1308345198631,   0.2827397584915,  -0.1518388539553,  -0.0909454748034,   0.2607541978359,  -0.2926439046860,   0.1769185662270,  -0.1811037063599,   0.2070341855288,  -0.0572709776461,   0.1639631688595,  -0.1726031303406,  -0.0738835409284,  -0.0596503019333},
   {  -0.2480698376894,   0.2528809607029,  -0.2003186047077,   0.0091116027907,  -0.0408970862627,  -0.0139498161152,   0.2822590768337,   0.3266410231590,   0.2566371560097,  -0.2814045846462,  -0.0632680580020,   0.0348469875753,   0.0098162684590,  -0.2080633938313,   0.0467973314226,  -0.0278645902872,   0.0515999719501,  -0.0741390734911,  -0.0864367410541,  -0.1569579690695,  -0.2083471715450,  -0.0647326856852,   0.0307000484318,   0.1261776834726,   0.0020212943200,   0.1223257035017,  -0.0037682685070,   0.1080018207431,   0.3243574798107,   0.0592500567436,   0.1817114204168,   0.2086716294289,  -0.1344715505838,   0.0574838854373,   0.3135963082314},
   {  -0.1767899096012,   0.2061213552952,  -0.1470941752195,  -0.2621355354786,  -0.0084354048595,   0.1009990870953,   0.1926315724850,   0.2241753935814,   0.2737400829792,  -0.0297374837101,  -0.0189754180610,  -0.2712501287460,  -0.0654496923089,   0.0544397048652,  -0.1315330266953,  -0.1351416409016,   0.1479746848345,  -0.0838232859969,  -0.1125939935446,   0.2504083812237,   0.2580106556416,  -0.0652654096484,   0.1931149661541,  -0.1961405873299,  -0.0358223654330,   0.0740523412824,   0.0082942117006,  -0.0959669947624,   0.2540162205696,  -0.0529253967106,  -0.1209573075175,   0.0808170437813,  -0.0520849227905,  -0.1935804784298,   0.1962361037731},
   {  -0.1892937719822,  -0.1488201171160,  -0.1733402758837,   0.1724010258913,   0.1136571317911,   0.1925420165062,   0.1400445848703,  -0.1622520834208,  -0.0595732741058,  -0.1826988607645,  -0.1772588491440,  -0.1100544705987,   0.0072175539099,   0.0538345016539,   0.0550185255706,   0.1194974258542,  -0.1375980377197,  -0.1001725271344,   0.1657613366842,  -0.0734360367060,  -0.1737096607685,   0.2238620668650,  -0.2287666052580,  -0.2567309141159,  -0.2049039751291,   0.2117029130459,   0.0649663284421,  -0.0034328617621,   0.2185235470533,  -0.0477654188871,   0.2637847363949,   0.0018520938465,  -0.0782944932580,  -0.1122126728296,   0.2361883968115},
   {   0.0260735489428,   0.0253064911813,   0.2445687800646,  -0.0466911792755,  -0.2519115507603,  -0.0537442229688,   0.1492147743702,   0.1268599778414,  -0.1654686331749,   0.0686765164137,   0.0767673403025,  -0.0851184055209,  -0.0592770986259,   0.2593766748905,   0.1930124610662,  -0.1305238306522,   0.1517545282841,  -0.0354795195162,  -0.1773178279400,  -0.0810743495822,  -0.1741303652525,  -0.1444192081690,  -0.0196315795183,  -0.0825955644250,  -0.0441270284355,   0.2608181834221,  -0.0262801721692,   0.0928050577641,   0.1697669178247,  -0.1075346171856,   0.3289484679699,  -0.0619405023754,   0.0465291924775,  -0.0910956040025,   0.1847430914640},
   {  -0.2179804891348,  -0.0824732035398,  -0.2129463106394,   0.0340329706669,  -0.1006078273058,  -0.0061868960038,   0.1025695130229,   0.1570723503828,   0.0935289859772,   0.2816519439220,   0.1710332930088,  -0.2080178707838,   0.2079144418240,   0.1446444690228,   0.0167475137860,   0.2017977088690,  -0.1779100596905,  -0.2468795180321,  -0.0178488306701,  -0.2188099175692,  -0.0686299800873,   0.1852163076401,   0.1073744371533,  -0.2470038086176,  -0.1666011065245,   0.1419246345758,   0.1579024046659,   0.2043118923903,   0.0509681738913,  -0.0874337404966,  -0.1043732538819,   0.0384542681277,   0.1635182797909,  -0.0935416370630,  -0.0954342335463},
   {   0.2193975597620,  -0.1711163669825,   0.2186080813408,   0.0263603162020,  -0.1841378211975,   0.2395381182432,   0.0022410014644,   0.2721887230873,   0.2146905362606,  -0.1360595375299,  -0.1179552823305,   0.1806195229292,  -0.0346787832677,   0.0678228139877,  -0.0337172783911,  -0.1206533089280,   0.2085413187742,   0.1367793828249,  -0.1177996695042,  -0.0046071750112,   0.2333904504776,  -0.2417525202036,  -0.2234578430653,  -0.2292016595602,  -0.1607568413019,   0.2404039800167,   0.1268819421530,   0.1871208697557,  -0.0890400335193,   0.1838263869286,  -0.1920738816261,  -0.2318425476551,   0.2534425854683,   0.1056255847216,  -0.0837696045637},
   {  -0.0149111542851,  -0.0981284752488,  -0.1118654757738,   0.2407888174057,  -0.0546225830913,  -0.0731164962053,  -0.2713628709316,   0.1655582040548,   0.0363178327680,   0.2070868462324,  -0.2258650809526,  -0.0190810728818,  -0.0525453872979,   0.2651419341564,   0.1515367031097,   0.0847374275327,  -0.1155729144812,  -0.2459517717361,   0.3361924588680,   0.2106186300516,  -0.0446422882378,   0.2451221495867,  -0.1112339794636,  -0.0986751765013,   0.1321427673101,   0.0612013787031,  -0.1102523207664,   0.0597295463085,   0.0054284543730,   0.0948975756764,  -0.1867800951004,   0.3117586374283,  -0.2778447866440,  -0.0817489773035,  -0.0861238837242},
   {   0.2988692820072,  -0.0338453650475,   0.2788563370705,   0.0010485973908,   0.2646302282810,  -0.1439893245697,   0.0642380118370,  -0.1511609554291,   0.1142179518938,   0.0350741185248,  -0.0424489490688,  -0.0836592838168,  -0.1051222011447,   0.0332319624722,  -0.0332073010504,   0.2916602492332,  -0.1679745316505,  -0.2228516638279,  -0.0616645589471,   0.0879743248224,   0.2323665022850,  -0.0771774053574,  -0.2447216957808,   0.0819925293326,   0.3519726395607,   0.0763671696186,  -0.2190763056278,  -0.1250660717487,   0.0349565260112,  -0.0397238619626,   0.3188833892345,  -0.0223596747965,  -0.0512376874685,   0.0560198724270,   0.1374748945236},
   {  -0.0756203383207,   0.0323418527842,  -0.1552145332098,  -0.1465868204832,   0.0736638456583,  -0.1905876398087,   0.2885317504406,   0.0551689937711,   0.2730830013752,  -0.2857825458050,   0.1422753036022,   0.1508248001337,   0.2369368970394,   0.1905156970024,  -0.0386876612902,   0.0171597450972,   0.2026930153370,   0.1242269054055,   0.1669136881828,  -0.1113355681300,  -0.1248871684074,  -0.0220972336829,   0.1286251991987,   0.2084672451019,  -0.1925992667675,   0.1520365178585,   0.0702569782734,  -0.0527914986014,  -0.0311471894383,   0.2277690172195,   0.1169227361679,   0.2777552008629,   0.1417340636253,   0.2244987189770,   0.0164741203189},
   {   0.0484979487956,  -0.2765266299248,   0.0745650976896,  -0.1878679245710,  -0.0060754660517,  -0.3047021329403,  -0.2041136026382,  -0.1542328000069,  -0.0671019628644,   0.0041342149489,   0.2883554399014,  -0.1316587179899,   0.2364756911993,  -0.0451106168330,  -0.1444093137980,  -0.1728647053242,   0.2279029786587,  -0.1888586580753,  -0.0066475863568,  -0.1719792336226,  -0.0067073991522,   0.3240137398243,   0.1105782166123,   0.2141319513321,  -0.1008649244905,  -0.2255388647318,   0.1398171931505,   0.2123157978058,  -0.1107939332724,   0.2710905373096,  -0.0850479304790,   0.3440380096436,   0.1733211278915,   0.2476200610399,   0.0544941350818},
   {  -0.0961022302508,   0.1823014020920,   0.1572003066540,   0.0964994877577,   0.1215957552195,   0.1182668954134,  -0.1026300266385,   0.0429039411247,   0.2489608079195,  -0.1244045495987,  -0.2067411243916,   0.2721107304096,   0.0810351446271,  -0.1761439740658,   0.2710970342159,   0.0402039438486,   0.0817328989506,   0.0347641333938,  -0.2481814026833,   0.1638071686029,   0.3381865918636,   0.0247697792947,  -0.0986222177744,   0.2281411737204,   0.0121702551842,  -0.1091884449124,   0.2205855995417,  -0.2823075652122,  -0.1777342855930,  -0.0433110818267,   0.1862930357456,   0.0906611829996,   0.1499587595463,   0.1086571291089,  -0.0011727676028},
   {   0.1392335444689,  -0.2755953073502,   0.1396431773901,   0.0091987000778,   0.2545346915722,  -0.0510013028979,  -0.1649469435215,  -0.0107143213972,   0.0834001898766,   0.2587421834469,  -0.1994570940733,  -0.0783002525568,   0.1578504890203,  -0.2323636859655,  -0.3149534165859,   0.0773028209805,   0.0945953801274,  -0.0042374944314,  -0.1623348742723,  -0.1556292474270,   0.1209705993533,   0.0411172471941,  -0.2128088921309,   0.0451201535761,   0.3502980470657,  -0.1835145056248,   0.1091012358665,   0.0085598379374,   0.1775354593992,  -0.2038737982512,   0.1230933293700,   0.3130479753017,  -0.2853740751743,  -0.1912661492825,  -0.1342014521360},
   {  -0.2854188382626,  -0.1315228790045,   0.0744263827801,  -0.3016291260719,   0.0146769136190,  -0.0078590167686,   0.0461329743266,   0.0462346412241,  -0.1035141944885,  -0.0614115074277,   0.2971491217613,  -0.1164106577635,  -0.1004298403859,   0.1444640457630,   0.2128299176693,  -0.2566438913345,  -0.2580776214600,   0.0829747766256,   0.0147729041055,   0.2076594531536,  -0.0797460749745,  -0.0089523484930,   0.2316814512014,   0.1459219902754,   0.1934869140387,  -0.0056956326589,   0.1380374580622,  -0.2763279080391,   0.1165560409427,  -0.1843376010656,  -0.2802036702633,   0.2494696974754,  -0.1302389949560,  -0.0314786061645,   0.0161510240287},
   {  -0.1288031041622,   0.0102588301525,  -0.2898719012737,  -0.0085910139605,  -0.1334508061409,  -0.2460345476866,  -0.1643992364407,  -0.1611459106207,   0.1692843139172,   0.0777447447181,  -0.0691007971764,   0.1818364560604,  -0.1250362098217,  -0.0244619920850,  -0.4150145351887,   0.0292782932520,   0.1025786027312,  -0.2195739597082,   0.1608665883541,   0.0875222086906,   0.0978482812643,  -0.0780369117856,  -0.1775367856026,   0.2666208446026,  -0.1298998743296,  -0.2122492641211,   0.1350104808807,   0.1716566830873,   0.1465969383717,   0.2774508595467,  -0.2904749512672,  -0.1933593004942,  -0.0299955271184,  -0.0025109951384,  -0.2070836573839},
   {   0.1133543103933,   0.2988607287407,  -0.1175909265876,  -0.2369845509529,   0.3143051564693,  -0.1467740982771,  -0.2455482780933,  -0.1757578253746,  -0.1544647663832,  -0.2096634805202,  -0.2189393341541,  -0.1133877635002,  -0.1993306428194,  -0.0496798157692,   0.2732774019241,   0.1374797523022,   0.2026984095573,  -0.1093475595117,  -0.1226392164826,   0.0751294791698,  -0.2016225308180,  -0.0354233756661,  -0.0378952287138,   0.2392162382603,   0.0529390461743,  -0.1484946757555,   0.2835114598274,   0.1046378165483,  -0.1861620843410,   0.0292552020401,   0.2695668041706,   0.2179103940725,   0.2623207867146,  -0.0553505532444,   0.0313579216599},
   {  -0.0156760849059,   0.0537006743252,   0.1588506847620,   0.2139944136143,  -0.0313756056130,   0.1118955612183,  -0.1791515350342,  -0.0404275618494,   0.0832648351789,  -0.0595594868064,  -0.2425443828106,   0.1391576230526,   0.0075009781867,   0.0827400684357,  -0.3361440002918,   0.2872974574566,   0.3012631237507,   0.2383888065815,  -0.2594172656536,   0.2189248949289,   0.0634837001562,  -0.1010824516416,   0.0695734694600,   0.1940873414278,  -0.2126174420118,   0.0831428319216,   0.2872674763203,   0.1852948069572,   0.3456849753857,   0.0765436589718,  -0.2397357821465,   0.1463426202536,  -0.0163173135370,  -0.2291056960821,  -0.2042582333088},
   {  -0.2251759916544,   0.0243124086410,  -0.2625018060207,   0.0802732780576,  -0.3127803504467,  -0.1990802139044,   0.0781779587269,   0.3000750243664,   0.1372077465057,  -0.0179367084056,   0.3126271963120,  -0.0264253634959,  -0.0194631423801,  -0.2784071266651,   0.2686105966568,  -0.1084162220359,   0.1658264249563,  -0.1564572155476,  -0.2118836790323,  -0.1036229282618,   0.2639212906361,   0.0622669532895,  -0.2392508834600,  -0.1928716003895,  -0.2285955399275,  -0.1665728688240,   0.1392242908478,  -0.0052877343260,  -0.1154681071639,  -0.1060562804341,   0.3208778202534,  -0.0192092340440,   0.3537415564060,  -0.1632040590048,  -0.0270235110074},
   {  -0.0454119071364,  -0.1310234367847,   0.1431005150080,  -0.0429580435157,   0.1414851248264,   0.1752548366785,   0.2037100493908,   0.0330037027597,  -0.1892017424107,  -0.0714383274317,   0.1857639253139,   0.2221259325743,   0.1129028722644,  -0.0658088549972,   0.0538341477513,   0.1402448564768,   0.1038015112281,  -0.1091391518712,  -0.1773635149002,   0.0170484073460,  -0.0738236531615,  -0.2628515660763,   0.1445123255253,  -0.0914338678122,   0.2574134171009,   0.0083017777652,   0.3361739516258,   0.2047048360109,  -0.0903515964746,  -0.2562039494514,  -0.2010271400213,   0.1642569452524,   0.3090814650059,  -0.0640624165535,   0.2893310189247},
   {  -0.1764901429415,   0.2214003056288,  -0.1308684200048,   0.1410249620676,  -0.1254114210606,  -0.1394568383694,  -0.0217605624348,   0.0431069284678,   0.0023373232689,   0.3285383284092,   0.1122695133090,  -0.0079887975007,  -0.0501767806709,   0.0475013628602,   0.1892242431641,  -0.1494687348604,  -0.1497391611338,   0.1837567687035,   0.2787781357765,   0.1336740851402,  -0.1311393678188,   0.3545075058937,   0.0261755622923,   0.0978788286448,   0.1213623061776,   0.0954628437757,   0.0051802094094,   0.2172988653183,  -0.2127396762371,  -0.1743862926960,  -0.1325972974300,  -0.1982866376638,  -0.1212210431695,  -0.2721066474915,   0.3133838772774},
   {  -0.1254333555698,  -0.0355825908482,   0.0983300656080,  -0.0508191473782,  -0.0487228706479,  -0.0234740544111,  -0.0769834816456,   0.2474806308746,   0.1142832711339,   0.1521628350019,  -0.0455038249493,  -0.0660076141357,   0.0244256481528,   0.0551978759468,  -0.0170381516218,   0.1970063000917,  -0.1124067753553,   0.0609969645739,  -0.0829898193479,  -0.0656947493553,   0.0480626709759,   0.1504347324371,   0.2369801998138,  -0.0704670548439,   0.2210343331099,  -0.0071345297620,   0.3010508716106,   0.2301757186651,  -0.0315278284252,   0.1084564551711,  -0.1626860499382,   0.2412006109953,   0.1278489381075,   0.2059776335955,  -0.1425473392010},
   {  -0.1320991367102,  -0.0890251100063,  -0.2922764420509,  -0.0269975289702,  -0.2888947725296,  -0.1482834070921,  -0.2030496895313,   0.2613292038441,  -0.0841814503074,   0.0153141869232,   0.2372366487980,   0.0135330604389,   0.0374506004155,   0.1619974225760,   0.2714837789536,  -0.1850161999464,  -0.1457464396954,  -0.2903654873371,   0.0196041297168,   0.1012067422271,  -0.1941064000130,   0.0041491664015,   0.2666443586349,   0.1075875610113,   0.2079649567604,   0.2870744764805,  -0.0808759555221,  -0.2755044102669,  -0.3286856114864,   0.1744955927134,   0.0927159190178,  -0.0893728435040,   0.2842810153961,   0.2662751674652,  -0.1265073418617},
   {   0.0145300738513,   0.0692085772753,  -0.0387666523457,  -0.0208290852606,  -0.1564030647278,   0.0940574407578,   0.1671055555344,   0.0766098797321,   0.1796914041042,   0.0954695120454,  -0.2695492804050,   0.2011755704880,  -0.2682576179504,   0.2351543158293,  -0.2124548405409,  -0.1755554676056,   0.0222368277609,  -0.1797379106283,   0.0508088879287,   0.1872741878033,  -0.0380682237446,   0.0397792905569,   0.1214850246906,   0.1231256872416,  -0.1555404067039,   0.2524256110191,   0.1418863832951,  -0.2311783432961,   0.1438942402601,   0.2945518493652,  -0.1082260832191,   0.1955790221691,  -0.0449211224914,  -0.0102470610291,  -0.0013461549534},
   {   0.0748592540622,  -0.1611550897360,   0.2785354852676,  -0.0827119126916,  -0.1022417768836,  -0.0435127392411,  -0.0350273922086,  -0.0918185710907,  -0.2055028527975,   0.0611570626497,  -0.0091071054339,   0.0194743294269,   0.0358724109828,  -0.0700872614980,  -0.0770110264421,  -0.1885703951120,   0.1941146850586,   0.0305728204548,   0.0964039936662,  -0.1602910161018,  -0.0612020455301,  -0.2209873944521,   0.3128598630428,   0.0689649432898,  -0.1710665673018,  -0.2444384545088,  -0.0206510741264,  -0.2220856994390,   0.1596884578466,   0.2754799723625,  -0.1828486323357,  -0.0167545154691,   0.2139820456505,   0.0819052681327,  -0.2329957932234},
   {   0.2262201756239,   0.3656035661697,   0.0542937256396,   0.0380493514240,   0.1205048337579,   0.4648117125034,   0.3460897505283,   0.1147054210305,  -0.1359761059284,   0.0073661305942,  -0.1182095557451,   0.3047716021538,  -0.0154800517485,  -0.0420010164380,   0.1191564574838,   0.1182760372758,   0.2682931125164,   0.2225134074688,   0.0677999109030,  -0.0735995545983,  -0.1442419141531,   0.2019177377224,  -0.1681353598833,  -0.0487300232053,   0.0952622368932,   0.1875148564577,   0.1096476316452,   0.2061051577330,  -0.1204579249024,  -0.0702125430107,   0.0899509862065,  -0.0830504670739,  -0.0580043755472,  -0.0162108633667,   0.1805784255266},
   {   0.0711865127087,   0.1233148798347,   0.1738461107016,   0.2513915002346,  -0.0807708576322,   0.1344429999590,   0.3140349090099,   0.1272483319044,   0.1425912529230,   0.1727618575096,   0.2088241279125,   0.0556069687009,   0.0522558614612,   0.0157113317400,  -0.0391953252256,   0.1710976511240,  -0.1996013373137,  -0.2427923232317,   0.2394298315048,  -0.0216294154525,   0.0615647919476,  -0.2313209027052,   0.0593635886908,  -0.1624479889870,  -0.0849703028798,  -0.1253710389137,   0.1032481193542,  -0.2845804095268,   0.0964089855552,  -0.0377170182765,  -0.1818828880787,   0.2687457799911,   0.0822532549500,   0.0640503466129,  -0.0637521967292},
   {   0.1040146872401,   0.0351110436022,  -0.1995772421360,   0.0173386260867,  -0.1159310266376,  -0.0661251395941,   0.1961904466152,   0.2421392351389,  -0.1799177378416,  -0.0297962836921,   0.0096991509199,   0.0645445957780,  -0.0369102656841,   0.1636796444654,   0.2595842778683,  -0.2066867053509,  -0.1758479923010,   0.1850669085979,   0.0460100695491,  -0.1219128593802,  -0.2289675474167,   0.1291515082121,  -0.1440984010696,  -0.1131859496236,   0.1217169165611,   0.1774846017361,   0.1112416163087,   0.1565057039261,   0.0774410888553,   0.0510625354946,  -0.1457434743643,   0.2586957514286,  -0.2159853577614,  -0.1743445545435,  -0.2536164224148},
   {  -0.1733301132917,  -0.1655691862106,   0.0859635695815,   0.0287066902965,   0.0300994049758,   0.1030144542456,  -0.0441815145314,  -0.1105561852455,  -0.3121393024921,  -0.2906694114208,   0.1936356276274,  -0.2329628467560,   0.3187591433525,   0.2367360293865,  -0.2030849307775,   0.2875944375992,  -0.1490824222565,   0.0117374807596,   0.2311742454767,   0.0925938859582,  -0.1689808070660,   0.3431958258152,  -0.1140509620309,   0.1653275191784,  -0.3016412556171,   0.0135405408219,   0.2368621379137,   0.1844436973333,  -0.2010205686092,   0.1286119073629,  -0.0932495221496,  -0.0526562333107,   0.0434727631509,  -0.4188576340675,   0.0457491353154}};
  const float bias_2[35] = {   0.0200545843691,  -0.0082267289981,  -0.0114187179133,  -0.0175437163562,   0.0773299559951,   0.0475748702884,  -0.0322533771396,   0.0330087095499,   0.0699821114540,   0.0703894793987,   0.0227413307875,  -0.0591421425343,  -0.0212552249432,   0.0920281857252,  -0.0079268347472,  -0.0888822972775,  -0.0374177992344,   0.0464621782303,   0.1140101402998,   0.0955101326108,   0.0182623360306,   0.1125734746456,   0.0961808711290,   0.1782106608152,   0.0135614806786,   0.0099357152358,   0.0218029413372,  -0.0377985946834,   0.0338755808771,   0.0240990482271,   0.0285919606686,   0.0734789520502,  -0.0079051991925,   0.0388179570436,   0.0145797729492};
  // Declare the arrays in the stack
  const float kernel_3[35][35] = 
  {{   0.1103972122073,  -0.0147014688700,  -0.1257068812847,   0.0863112881780,   0.0407510660589,   0.1960209608078,  -0.0206199623644,  -0.1441162526608,  -0.2467076778412,   0.2120043933392,  -0.2227521091700,   0.2527665793896,  -0.2509425282478,   0.1125430464745,   0.2209767252207,  -0.1230965480208,   0.0299358889461,   0.2988055050373,   0.3598037362099,   0.1839799433947,  -0.1478250920773,  -0.0565467886627,   0.0783917978406,   0.0249313358217,  -0.0292357336730,   0.2508131563663,   0.1272346526384,   0.2010031491518,   0.2409170418978,  -0.0783137530088,   0.1710752397776,   0.1638755947351,  -0.2408533543348,  -0.2327894717455,   0.0911168381572},
   {   0.1714822202921,  -0.2076113224030,   0.0614399835467,  -0.3031394779682,  -0.0997652634978,   0.3123171925545,  -0.2765899002552,  -0.0877239033580,   0.0295083355159,   0.0998346805573,   0.1725260466337,   0.1735824048519,   0.0142465205863,   0.1114680543542,  -0.0700369477272,   0.2392055094242,   0.1669502407312,  -0.1358034610748,   0.1485130488873,  -0.2166193127632,   0.3360259532928,  -0.2810025811195,  -0.2566244900227,  -0.0363496504724,  -0.2031717747450,   0.1618559807539,   0.2743049561977,   0.1649370193481,   0.3001407980919,  -0.0171080455184,   0.1267972737551,  -0.1955639272928,  -0.3028115332127,  -0.1741627454758,  -0.0036789234728},
   {   0.0869775116444,   0.2007314711809,   0.2751110196114,   0.0299700628966,  -0.0069372029975,   0.1514676362276,  -0.3532936871052,   0.2726746201515,   0.3234236240387,   0.2589458823204,   0.0597635209560,  -0.2246034890413,   0.1932128816843,  -0.1809555590153,   0.1932707130909,  -0.1905509531498,  -0.1562955677509,  -0.3453477621078,  -0.0944638922811,   0.1995545774698,   0.2156749814749,  -0.1944558620453,  -0.0307409986854,  -0.1756446957588,  -0.1934728771448,  -0.1404128670692,   0.2123653739691,   0.1293360292912,  -0.0767409279943,  -0.1322205066681,   0.0620337575674,   0.1895007938147,   0.1978037804365,  -0.1866869330406,   0.0511247105896},
   {   0.2912395894527,  -0.3365327119827,  -0.0575935691595,   0.0557506680489,   0.1563481092453,  -0.1604367792606,   0.2324129492044,  -0.1891271919012,   0.0397799164057,  -0.0651550292969,  -0.0769072771072,  -0.0853199660778,  -0.0386202707887,   0.0575553998351,   0.2253051400185,  -0.0312513932586,  -0.0998540222645,  -0.0473096147180,  -0.1949707716703,  -0.0519206300378,  -0.1529200524092,  -0.0741582885385,  -0.2600910067558,  -0.1932335495949,  -0.0412753336132,  -0.2877865433693,  -0.0684282407165,  -0.2124541997910,  -0.0940639972687,   0.1116824075580,  -0.1906235367060,  -0.1378774791956,  -0.0356738343835,   0.1181075274944,  -0.2011012583971},
   {   0.1878639906645,  -0.0089161414653,   0.0990843698382,  -0.0287039987743,  -0.0327552892268,   0.2477044463158,  -0.0977006480098,   0.2506576776505,   0.1943486183882,  -0.2064293026924,   0.1183456778526,   0.2100141942501,  -0.1570626050234,   0.2376065999269,   0.0538115091622,  -0.0439860858023,   0.0186130553484,  -0.1314312517643,  -0.2031738609076,   0.0169112551957,  -0.1451597958803,  -0.1071432828903,  -0.0857180729508,  -0.1555195897818,  -0.2718796133995,  -0.2297474741936,  -0.2088121622801,   0.3052222430706,   0.2411135286093,  -0.1529986858368,  -0.0306414030492,   0.1731358170509,  -0.0600964315236,  -0.1512603163719,   0.0164116118103},
   {   0.1619228571653,  -0.0392890758812,   0.2347657531500,   0.0680106952786,   0.1733797639608,   0.2769125103951,  -0.1750781536102,   0.2049711495638,   0.1162379980087,  -0.1514610201120,  -0.2572058439255,   0.1852297782898,  -0.0420857630670,   0.2878195047379,  -0.0275936070830,   0.2060808390379,  -0.0581628233194,  -0.1419794261456,   0.1838580816984,  -0.1096892952919,  -0.0636050924659,   0.2440525591373,  -0.2692224681377,  -0.1408079713583,   0.1655642241240,   0.2314359247684,  -0.0260272361338,   0.0711714327335,   0.2158387005329,  -0.2184872478247,  -0.2319455444813,   0.3128657341003,  -0.0355047956109,  -0.2154924273491,   0.1319109797478},
   {   0.0938515290618,  -0.2748123705387,   0.1808555275202,  -0.2128894925117,  -0.1430134028196,  -0.0024590627290,   0.0999165624380,   0.1008364036679,   0.1237397640944,  -0.1584840714931,  -0.1283075362444,  -0.1273959130049,  -0.1047995388508,   0.0855625867844,   0.2588700950146,   0.0321684665978,   0.2379319816828,  -0.1873338222504,   0.2365596741438,  -0.3221752941608,  -0.0902715697885,   0.1988298147917,  -0.2219493985176,   0.2343068271875,  -0.2685883343220,   0.0912775471807,   0.0725464299321,  -0.0698802322149,  -0.1001132503152,   0.2616589069366,  -0.0367368012667,  -0.1271019726992,  -0.0519371144474,   0.0029262918979,  -0.0653407797217},
   {  -0.1129211112857,   0.2994478642941,   0.2125267833471,   0.2501540184021,   0.1822249889374,   0.1939968019724,   0.2035148888826,  -0.0804163739085,  -0.0137950666249,  -0.0244678519666,   0.0186343993992,   0.0740268975496,  -0.0279115941375,  -0.1862518489361,   0.2438873052597,  -0.1934535205364,  -0.1900030523539,  -0.1461089849472,   0.0443647205830,   0.1789956688881,   0.1167100220919,  -0.0943188890815,   0.0348288714886,   0.0573668032885,   0.2675567865372,   0.3033907413483,   0.0694332420826,   0.2334049344063,   0.1759744882584,   0.3078116476536,   0.0164731685072,   0.3160413801670,  -0.2707173824310,   0.2255058586597,  -0.0540420189500},
   {   0.0894326716661,   0.2373588830233,   0.2576964199543,  -0.2283375710249,  -0.0311723649502,  -0.0077011841349,   0.2372799366713,   0.2570813596249,  -0.0582223571837,   0.2560347914696,  -0.2790400683880,   0.0962526053190,   0.0886106118560,   0.2315520793200,   0.1316189318895,   0.2669634521008,  -0.2098433822393,   0.2557151615620,  -0.0767783075571,   0.1094889938831,  -0.0008099260740,   0.1211367398500,   0.1681295931339,  -0.1363971382380,   0.1152990162373,  -0.1756144911051,   0.0665252357721,  -0.0811473950744,   0.0652306750417,   0.2801072001457,  -0.1630147397518,   0.3311473131180,  -0.0242548827082,   0.2505675256252,   0.1600410044193},
   {   0.2484305351973,  -0.0612183734775,  -0.1282005906105,  -0.1803697049618,  -0.2335362732410,   0.0675238519907,  -0.2497783154249,  -0.0762635767460,   0.1689780205488,  -0.2322732061148,  -0.1325846463442,   0.1298547238111,   0.2477945685387,   0.1717179864645,   0.1283512115479,  -0.2142030000687,  -0.2087310552597,  -0.1716466844082,  -0.1087233871222,   0.2813772559166,  -0.0595327168703,  -0.1116578355432,   0.0272176712751,   0.0182721074671,   0.2826308310032,   0.2940587103367,   0.1484667658806,   0.0523964054883,  -0.0262432768941,   0.0231590680778,   0.1298739165068,  -0.1555270999670,   0.0728191137314,  -0.1442816555500,   0.1156950667500},
   {   0.1935288757086,   0.0447759032249,  -0.0554166212678,  -0.0195851605386,  -0.0693764090538,   0.0035629640333,   0.2270317226648,   0.2518800497055,  -0.0369688048959,   0.2485564053059,  -0.1992941349745,   0.1339081078768,   0.1662458032370,  -0.1458038836718,   0.2671168148518,   0.1395537555218,  -0.0750539228320,   0.1679990887642,  -0.1444964110851,   0.0338620245457,   0.0101383663714,  -0.0004677995748,   0.0008649730007,  -0.2432193458080,  -0.1308289915323,  -0.0964751839638,  -0.1187982633710,  -0.0979898869991,  -0.0223816838115,   0.0311005767435,   0.3241440355778,   0.1975993812084,   0.0499595403671,   0.3003063201904,   0.2070875316858},
   {  -0.2040164023638,   0.1916859596968,   0.1726349443197,   0.0012603782816,  -0.0085862912238,   0.2093525826931,  -0.1102983355522,  -0.0402013435960,   0.2430629134178,   0.0710740387440,  -0.0845036804676,  -0.2261745780706,  -0.0950211063027,  -0.1181966960430,  -0.2176658809185,  -0.1757826209068,  -0.1624692380428,  -0.0274434294552,   0.1251876950264,  -0.2518397867680,   0.3541048765182,   0.0959601029754,   0.2253954112530,  -0.0956936031580,  -0.1585561186075,  -0.1885464191437,   0.1170176044106,  -0.0889436453581,  -0.2838162779808,   0.2214265912771,   0.2312778532505,   0.3139744400978,  -0.2889710962772,  -0.2075191438198,   0.1522944867611},
   {  -0.0702326968312,  -0.0813060328364,   0.1698419451714,   0.2168800383806,   0.1539939939976,   0.1219762265682,   0.2195122838020,  -0.3034174144268,  -0.0912492573261,  -0.2931700944901,  -0.2334146648645,  -0.1286898851395,   0.1293829977512,  -0.2559773921967,   0.0774752274156,  -0.2805579900742,   0.0242181606591,  -0.1616192013025,   0.0247177947313,  -0.1713116616011,  -0.0257590562105,   0.0929764658213,   0.0175471007824,   0.1539402455091,  -0.2185297757387,   0.0789342820644,  -0.0834819525480,  -0.1965169608593,   0.0382928699255,  -0.2736320495605,  -0.0831847712398,   0.2563838660717,  -0.2465998828411,  -0.0291442852467,  -0.1405301243067},
   {  -0.1848503202200,   0.0193813163787,  -0.2699621617794,   0.0264017414302,  -0.2214105874300,  -0.3240048885345,   0.3183233439922,   0.1224498599768,   0.0801832675934,  -0.1875829249620,  -0.0419971123338,   0.0376610830426,   0.1566882282495,   0.2297371923923,   0.0655335187912,  -0.0915542244911,   0.2767835557461,   0.1373305022717,  -0.0411845445633,  -0.1904283761978,  -0.1404021978378,   0.0744968280196,   0.2665753960609,   0.2864086925983,   0.0259936042130,  -0.1102510541677,   0.2715145051479,  -0.0096523910761,   0.2278464585543,  -0.2529629170895,   0.2097440958023,   0.3044899404049,   0.2012306451797,   0.0445406436920,  -0.1051438227296},
   {   0.1161641627550,  -0.1594275832176,   0.2330915629864,   0.1380295008421,   0.3037797808647,   0.3139642477036,  -0.1052904352546,   0.1938566565514,   0.2350913435221,  -0.0601992197335,  -0.1938844174147,   0.1578754186630,   0.0665213242173,   0.0697083696723,   0.0389883369207,   0.1923554241657,  -0.1029036939144,   0.1958532929420,  -0.2103845775127,  -0.1105045154691,  -0.0753495767713,   0.1583759337664,   0.0763616114855,  -0.3034873306751,   0.2208687961102,  -0.0290091671050,  -0.1172015145421,   0.1853490769863,   0.1839686036110,   0.1497631818056,  -0.2583262026310,  -0.1812593936920,   0.0206734314561,  -0.0405205041170,   0.2979932427406},
   {  -0.2642248570919,   0.0554772615433,  -0.0193522237241,   0.1162211596966,   0.3192643523216,   0.1729849427938,  -0.2562169134617,   0.1396374255419,  -0.1148531138897,  -0.1788728237152,  -0.0376847647130,  -0.0072785867378,  -0.2356557846069,  -0.1629072576761,  -0.2494481801987,  -0.0629628077149,   0.0676664859056,   0.2353954464197,   0.3325371146202,  -0.0014082156122,   0.2262230813503,   0.2681894004345,   0.1436465680599,  -0.1315048784018,  -0.1303754597902,  -0.0045274719596,  -0.1522449851036,  -0.0916621312499,  -0.0652201473713,  -0.1365271359682,  -0.2349512875080,   0.2128530144691,  -0.2134101092815,  -0.2469972819090,  -0.0732227265835},
   {  -0.1727143824100,  -0.2251043170691,   0.1584220975637,   0.1206572949886,  -0.0287449192256,  -0.2465891987085,  -0.1796062439680,  -0.2673439085484,   0.1865859478712,   0.2959432899952,  -0.1098989546299,   0.2477034628391,  -0.2961325645447,  -0.1343339234591,   0.2698750793934,  -0.0344258435071,   0.1031642928720,   0.1198690161109,   0.2112038135529,  -0.1250600665808,   0.3502685725689,  -0.0198365971446,   0.0207987036556,   0.1451331377029,  -0.1311891674995,   0.0190975442529,   0.2735505402088,  -0.1456245929003,   0.2463169842958,   0.1718546301126,  -0.0789051353931,   0.1051004156470,   0.0876170098782,  -0.2633883655071,   0.0747089758515},
   {  -0.0869351029396,  -0.0867070332170,  -0.0650473460555,   0.1337880045176,   0.2454620301723,   0.0064264098182,   0.0513925179839,   0.2291883975267,   0.0276327021420,  -0.1548157185316,   0.0600195005536,   0.0942526161671,   0.1361937969923,   0.0002973151859,   0.1484853476286,  -0.1934289634228,  -0.0748800411820,  -0.1284197270870,   0.0363059528172,   0.2546030580997,  -0.2322707772255,   0.1804243475199,  -0.2628455758095,   0.0049131279811,  -0.3342351913452,   0.1307811886072,   0.1616110205650,   0.0416564419866,   0.1292255818844,   0.0183575339615,  -0.1999600827694,   0.1197260171175,  -0.2909512519836,   0.2908670604229,  -0.2747948169708},
   {   0.3267940580845,   0.1402359455824,  -0.2257039248943,  -0.1845000088215,  -0.3656276464462,  -0.3394411504269,  -0.0248448867351,  -0.0567448288202,  -0.4785110354424,  -0.1502492874861,   0.1073246151209,  -0.0617484673858,   0.3581975102425,   0.0748443379998,  -0.1289501935244,  -0.1372149437666,  -0.0068074334413,   0.3328741490841,   0.1154585480690,   0.2565245032310,  -0.3200736939907,  -0.0030919220299,   0.3555989265442,  -0.1298566907644,   0.1970960199833,  -0.2431140393019,   0.1218160465360,  -0.1294337064028,   0.0202297251672,   0.0155716678128,  -0.0844446644187,   0.3544880449772,   0.1013209521770,  -0.0904705822468,  -0.0089809270576},
   {   0.1185895353556,   0.2893261313438,   0.1739430874586,   0.1330020278692,  -0.0970076993108,  -0.0293879956007,  -0.1859648227692,  -0.0500619225204,   0.0238878335804,   0.1049900949001,   0.0744106024504,   0.2204048782587,   0.1381189674139,   0.0231362506747,  -0.0909592360258,  -0.2627025246620,  -0.0598977394402,   0.2789164483547,  -0.1049960628152,   0.0095493895933,  -0.1347708255053,   0.0063778450713,  -0.2356309741735,  -0.0168966613710,   0.1779512614012,   0.0166160687804,   0.1560913771391,  -0.1947354525328,   0.2953944802284,  -0.0098330639303,   0.1984087824821,   0.1401805579662,   0.1785306483507,  -0.1725107133389,  -0.0343980304897},
   {  -0.2049610018730,   0.1407605111599,   0.2404724657536,  -0.0669607147574,   0.0972858667374,   0.1201683655381,  -0.2464576065540,  -0.2942239046097,   0.0087084146217,   0.1209139600396,   0.0285398550332,  -0.1018739417195,   0.1825503110886,   0.2314343452454,   0.1129108443856,   0.1524799019098,  -0.2153356969357,  -0.1999478638172,   0.2692566514015,   0.0335930511355,   0.0914380997419,   0.3405423164368,  -0.2350066006184,  -0.1684937626123,   0.2335661053658,   0.0841004997492,  -0.2250151038170,   0.0646999329329,  -0.2141954749823,  -0.2504977881908,  -0.0430947430432,  -0.2292148321867,  -0.2148032784462,   0.1681102514267,  -0.3290523886681},
   {  -0.0898218452930,  -0.2090127021074,  -0.0131826288998,   0.0895536020398,  -0.1581116765738,  -0.1045045852661,   0.2118883132935,   0.0120304124430,  -0.1648262292147,  -0.0914896354079,   0.0527975745499,   0.2233277261257,  -0.1597225368023,   0.1513047218323,  -0.0917202457786,  -0.3022979199886,  -0.0043381163850,   0.1348344683647,  -0.3089844286442,   0.0586204193532,  -0.0256255995482,  -0.0020828871056,  -0.0146936001256,   0.1239276453853,  -0.1013411134481,   0.2898024320602,  -0.0143705764785,   0.0954788178205,   0.0533030964434,  -0.2259431928396,   0.2341414690018,  -0.0710343569517,  -0.0923507437110,  -0.2478113472462,   0.1357223689556},
   {   0.2236628830433,   0.1826896965504,   0.2373241186142,  -0.0146248945966,  -0.0738493353128,   0.2819197475910,  -0.1745570003986,  -0.1978803575039,  -0.0205698125064,  -0.2940982580185,  -0.0257595069706,  -0.2597636282444,   0.3297313153744,  -0.1417971402407,  -0.0131986830384,   0.2882533967495,   0.2318801581860,   0.2574462592602,  -0.1603352129459,   0.0844479575753,  -0.2830454111099,  -0.2551851272583,   0.1732148379087,   0.2152324020863,   0.2543057501316,   0.2936349213123,   0.0238227751106,   0.2296435832977,   0.0762740895152,  -0.2323049008846,   0.1261630207300,  -0.2451013773680,   0.1338513493538,  -0.1382900178432,   0.0439297296107},
   {  -0.2372288256884,   0.0203286986798,  -0.0797277539968,  -0.1179743409157,   0.1271156370640,  -0.1249802857637,  -0.1815149933100,   0.0058784163557,   0.2558577358723,  -0.0844194144011,  -0.2374016642570,   0.1534224450588,  -0.1767250746489,   0.2864650189877,  -0.0991204679012,   0.0322765633464,   0.0474163033068,   0.1507498621941,   0.2059031575918,   0.2121754735708,  -0.0027366040740,   0.1884319484234,   0.3203026056290,   0.0129079241306,   0.1135409101844,   0.0421511344612,  -0.2560798525810,   0.1069201380014,   0.0357332937419,   0.0880015268922,   0.2738054096699,   0.0102911377326,   0.3492046296597,   0.1321515887976,  -0.1390840560198},
   {  -0.2784160077572,   0.3092216551304,   0.0936573147774,  -0.0880052000284,  -0.1169185638428,   0.1288170367479,  -0.1855521947145,  -0.0524955205619,   0.2579566240311,  -0.0970514267683,   0.1051649898291,   0.0757067576051,   0.2330537885427,  -0.1235651597381,  -0.1385480165482,  -0.1579542160034,  -0.1186626330018,   0.2800981104374,  -0.0384220741689,  -0.0953417792916,   0.2430876195431,   0.2647738456726,  -0.0811026468873,   0.2634451985359,  -0.0416519679129,   0.0759371742606,   0.1019556075335,  -0.2261599004269,   0.1222758963704,   0.2690433263779,   0.3217164576054,  -0.2706645131111,   0.0211903825402,   0.2794081866741,   0.0073536140844},
   {  -0.0474553853273,   0.0062967287377,   0.2615699172020,   0.2224108129740,   0.3134062588215,   0.1256390959024,   0.0314607694745,  -0.2089642137289,   0.1455426067114,   0.0130022196099,  -0.0221014227718,   0.2203140705824,   0.0617232546210,   0.0620666295290,  -0.0928582772613,  -0.0967375412583,  -0.1253815889359,  -0.0766501277685,   0.1144551485777,  -0.1987133026123,   0.1460901051760,   0.3427162766457,   0.0470208972692,  -0.0548111684620,  -0.0654926747084,   0.1824789494276,   0.0723242685199,   0.2683988511562,   0.1681653410196,   0.2976182401180,  -0.2302020490170,  -0.1285822242498,  -0.2284555733204,   0.0765721872449,   0.2650464177132},
   {   0.0361235924065,   0.0187963414937,  -0.0772233679891,  -0.1927888989449,   0.1381082236767,   0.1705023944378,   0.2476152181625,   0.0266627054662,   0.0682955756783,   0.2856277227402,   0.2124620079994,   0.0102656334639,  -0.0793567970395,   0.0179981254041,   0.3098548352718,   0.0331234708428,   0.0147474380210,  -0.0611193291843,   0.1606478244066,   0.1662956625223,  -0.2038650363684,  -0.0890557840466,   0.1621693074703,   0.0683573558927,   0.0816010907292,   0.1130141094327,   0.0393441170454,  -0.0639825761318,  -0.0476088598371,   0.1680893898010,   0.2980152368546,  -0.2034012079239,  -0.0082429293543,  -0.1458114683628,  -0.2685304582119},
   {  -0.0648011416197,  -0.1582559049129,  -0.0431296788156,   0.1734699606895,  -0.2974775433540,  -0.1329009383917,   0.2746398448944,  -0.3188267946243,  -0.0474596247077,   0.0583709813654,   0.0357192866504,   0.0162862632424,  -0.2127624154091,   0.0612490251660,   0.0728156715631,   0.1340802311897,  -0.0034939730540,   0.0693630874157,  -0.1875246316195,  -0.0239703841507,  -0.1407096385956,  -0.1836873888969,  -0.2276018112898,   0.0178529266268,  -0.0304753724486,   0.1320716440678,  -0.0964359194040,  -0.2533778548241,   0.2204020470381,  -0.1851510703564,  -0.3401102423668,  -0.1176821738482,   0.2506224215031,   0.2136570364237,  -0.1051336824894},
   {   0.1774770617485,   0.1157407164574,   0.0408865064383,   0.0298939477652,  -0.0236611459404,  -0.0997122526169,  -0.0971051529050,   0.2615109086037,   0.2092414498329,   0.0415185093880,  -0.0100323222578,  -0.1047797501087,   0.1580448448658,  -0.3639743626118,  -0.1635585874319,   0.2428625822067,   0.1810299158096,  -0.1535606235266,   0.1646301448345,   0.0597749128938,   0.1196401044726,  -0.0973881408572,   0.1107124984264,  -0.2868960499763,  -0.2189680486917,   0.3417564034462,   0.1422029137611,   0.0538901165128,   0.2181615084410,  -0.0573296248913,   0.1078872084618,  -0.1251035779715,  -0.2156186401844,   0.2593097686768,  -0.3057253956795},
   {  -0.1777372956276,  -0.0453232415020,  -0.2103991359472,   0.2842954695225,  -0.1296001225710,  -0.2245232611895,   0.1544763743877,   0.0303644407541,  -0.0992977023125,  -0.1290247440338,  -0.0163934268057,   0.1521708369255,  -0.1562922894955,  -0.2120854854584,  -0.2569463551044,   0.1646096408367,   0.3032952249050,  -0.1210872828960,  -0.1217647939920,   0.2827749550343,   0.3042817711830,  -0.1637025326490,   0.0730555132031,  -0.1615316569805,   0.2185777723789,   0.1867169737816,  -0.0324854105711,  -0.0828492343426,   0.0943281725049,  -0.0144088100642,   0.2889362275600,   0.0238413717598,  -0.2073301821947,   0.0734211578965,   0.0921739488840},
   {   0.1377160549164,  -0.1585488319397,  -0.3127056360245,  -0.0139476656914,   0.0287366472185,   0.2486485838890,   0.1569955945015,   0.0852053686976,   0.1481424868107,  -0.1306795030832,   0.3262074589729,   0.0166498515755,   0.0736940950155,   0.0809264034033,   0.1905700117350,   0.1305805891752,  -0.0217505022883,   0.2556338310242,   0.2565575540066,  -0.1224212422967,  -0.0460702218115,  -0.2541140019894,   0.2217670381069,  -0.0937634557486,  -0.0418796911836,   0.2572052776814,   0.1076443791389,  -0.0828728899360,  -0.1907731592655,   0.1724305748940,   0.1594744026661,  -0.1868702471256,  -0.0748366937041,   0.1369505524635,  -0.0976415872574},
