
    // Select all (Ctrl+A), Copy (Ctrl+C), paste to an empty text file (Ctrl+V) and save that file as 'generated_code.h'
    // 
    // Auto-generated header file. Assumes img to be a floating point array
    // of 64 elements (corresponding to an 8x8 b&w image)

    #include <math.h>

    float norma;
    
inline float activation_0 (float x, float n) 
{ return x > 0 ? x : 0;}
inline float activation_1 (float x, float n) 
{ return x > 0 ? x : 0;}
inline float activation_2 (float x, float n) 
{ return x > 0 ? x : 0;}
inline float activation_3 (float x, float n) 
{ return x > 0 ? x : 0;}
inline float activation_4 (float x, float n) 
{ return x > 0 ? x : 0;}
inline float activation_5 (float x, float n) 
{ return x > 0 ? x : 0;}
inline float activation_6 (float x, float n) 
{ return exp(x)/n;  }

    float guess_digit_odd (const float *img, int flag)
    {
    
  // Declare the arrays in the stack
  const float kernel_0[51][30] = 
  {{   0.0827780291438,  -0.2196985334158,   0.2421136498451,   0.1679178029299,  -0.1380065679550,  -0.2881800234318,  -0.2052257806063,   0.0722551345825,   0.2668280899525,   0.0661612674594,  -0.2518996000290,  -0.0160987023264,  -0.1134945154190,   0.1959960162640,  -0.1193545088172,  -0.2429045587778,   0.0195044148713,   0.2985881268978,   0.0626596510410,  -0.1877255141735,   0.0318537987769,  -0.1087934225798,  -0.1100183576345,  -0.0799271464348,  -0.3320102393627,   0.1451631486416,  -0.1428431868553,  -0.1364612281322,  -0.1628394871950,   0.0547981895506},
   {  -0.1536747664213,  -0.1290418505669,  -0.1946746408939,   0.0644105225801,   0.0434122011065,  -0.1689656972885,  -0.0697254315019,   0.2832643985748,   0.1220308467746,   0.1063960120082,  -0.0325074158609,   0.1423498392105,   0.0106625622138,  -0.2125448435545,  -0.0400027148426,  -0.1744413971901,  -0.1716082692146,   0.1337338089943,  -0.0219716001302,  -0.1292458474636,  -0.0177124459296,  -0.1909297406673,   0.0653860643506,  -0.1356995701790,  -0.1305173039436,  -0.2280697524548,   0.1236470639706,   0.1251104623079,  -0.2012578547001,   0.2206355035305},
   {  -0.0929264500737,   0.1709105521441,   0.2223587483168,   0.0043683238328,   0.0128182992339,   0.1505793631077,   0.1078724563122,  -0.2109403759241,  -0.1407724618912,   0.2175352275372,   0.0955870077014,   0.2002904862165,   0.1545071154833,  -0.0938963815570,  -0.3041713535786,  -0.2348087877035,  -0.3103910386562,   0.3236857652664,  -0.2513947188854,   0.0830232277513,  -0.0160178877413,   0.1568938493729,  -0.1792778223753,  -0.1241992861032,  -0.1855842620134,   0.0420288965106,  -0.2136638462543,  -0.0003605376405,  -0.1539172381163,   0.2131005376577},
   {   0.1306933909655,  -0.0344352424145,  -0.1433282345533,  -0.2018720805645,  -0.0643308237195,   0.0909369736910,  -0.1599190533161,  -0.0351311527193,   0.1498709321022,  -0.1398462355137,  -0.1681830734015,  -0.1274778693914,  -0.0990978330374,  -0.2037573903799,   0.2555260956287,   0.1871738731861,   0.1696052253246,   0.1486335396767,  -0.1141328588128,   0.0657948479056,  -0.1745918989182,   0.0898095741868,  -0.3223133385181,  -0.1920175403357,   0.2895376384258,  -0.0501985028386,   0.1199157908559,   0.0265459045768,  -0.1876199692488,  -0.0714647769928},
   {  -0.1460909694433,  -0.0205358751118,   0.2889332771301,  -0.1737810522318,   0.0198904071003,  -0.0875285863876,   0.1210131272674,   0.2052864879370,  -0.1999300271273,  -0.0648612082005,   0.1148554161191,   0.0997209250927,   0.2345255315304,   0.0488511957228,  -0.2529778778553,  -0.2272114157677,  -0.0836556628346,   0.0231998134404,  -0.2163285613060,  -0.0309034064412,  -0.0951926857233,   0.1380340307951,  -0.1216773763299,  -0.1493407189846,  -0.1789748370647,  -0.2399767637253,  -0.0880977809429,  -0.0306329596788,   0.1284948587418,  -0.1743643581867},
   {   0.0518244169652,   0.1724640727043,   0.2079640626907,   0.1647034436464,   0.1177132427692,   0.0691679492593,  -0.1438553035259,  -0.0558914579451,   0.1907948255539,   0.0346242859960,  -0.2828787863255,   0.1427603214979,  -0.0898654460907,  -0.2409804463387,   0.0069506727159,   0.1846185922623,  -0.0011729041580,   0.1522019207478,   0.0605782009661,  -0.1501121520996,  -0.3098906576633,   0.1395477652550,   0.0494150333107,   0.3061630427837,   0.1588924974203,  -0.2970017492771,  -0.0625278800726,  -0.1410304158926,  -0.0198207907379,   0.0330627188087},
   {  -0.1063104048371,  -0.3443246483803,   0.1995164006948,   0.1527726054192,  -0.0549157112837,  -0.1685667186975,  -0.0181703437120,  -0.0817795395851,   0.0039056676906,  -0.2763634026051,   0.0095558585599,  -0.2656190097332,  -0.0288020931184,   0.0194056779146,  -0.0154814207926,   0.2976304292679,  -0.1498853415251,   0.0697080269456,  -0.3193559944630,  -0.1515594720840,   0.2480875551701,   0.0214674565941,   0.2647601962090,   0.0258481577039,  -0.0531742386520,   0.3149873614311,  -0.1248884871602,   0.1438408493996,   0.0217817258090,  -0.0453973785043},
   {   0.1143923997879,  -0.0361279286444,   0.0650016292930,   0.1809152364731,   0.1653324514627,   0.1629523336887,   0.0984147861600,   0.0765013396740,  -0.2638252079487,  -0.1718667894602,   0.0631688907743,  -0.0099985571578,   0.0482298992574,  -0.1407531350851,   0.1283810138702,   0.1820348650217,   0.0258234273642,  -0.1232107281685,  -0.0000280268232,  -0.2162612825632,  -0.2695879042149,  -0.3954699933529,  -0.1614010632038,  -0.0734225437045,   0.0797888711095,  -0.1483894437551,   0.0040949224494,   0.1944069713354,   0.2650415897369,  -0.0758777484298},
   {   0.0779617801309,  -0.1807681322098,   0.0632468909025,   0.2293993830681,   0.2260149121284,   0.2255281060934,  -0.3712384998798,  -0.0394604429603,   0.0291594658047,   0.2201087176800,   0.0155826946720,  -0.1750346720219,  -0.3209657967091,  -0.0403663925827,   0.3311037719250,  -0.2178369313478,  -0.0664736405015,  -0.0845319777727,   0.0827979370952,   0.1925838589668,   0.2463007569313,  -0.2322573661804,   0.3030810952187,  -0.1703040450811,  -0.0757808387280,   0.0011874751654,  -0.1530913859606,  -0.2364712059498,   0.1450687795877,   0.1991497576237},
   {  -0.1111190691590,   0.1270913332701,  -0.3187858462334,   0.1250328570604,  -0.1342903822660,   0.3065608143806,  -0.0130720362067,   0.0746547281742,  -0.0856859833002,  -0.1428067833185,  -0.4421283602715,  -0.0148899313062,   0.1922907233238,   0.3504214584827,   0.3202312588692,  -0.1572716832161,  -0.4869616329670,   0.2210686057806,   0.0629678368568,   0.1006696745753,  -0.1724879592657,   0.1469389945269,   0.5116626620293,   0.0850688591599,   0.1614980697632,  -0.2234215587378,  -0.0318344086409,  -0.0010440738406,   0.4331865012646,  -0.1842473894358},
   {  -0.2439143359661,  -0.2259628921747,  -0.1339853852987,  -0.0519365817308,   0.3767694234848,  -0.1376800090075,   0.2412004023790,  -0.2112640738487,  -0.2143813073635,  -0.0346194542944,  -0.2226547896862,  -0.0131107764319,  -0.0326737128198,   0.0052769049071,  -0.0870424583554,   0.2138995230198,  -0.0336994715035,   0.0821425169706,  -0.1165502741933,   0.2497770637274,   0.0180167667568,   0.1147028729320,  -0.1600439250469,   0.0237131509930,   0.0982294380665,  -0.2543283998966,  -0.0969030782580,  -0.1082544103265,  -0.0276586581022,  -0.2777536511421},
   {  -0.1903516799212,  -0.0051795472391,   0.1101476103067,  -0.1174091249704,  -0.0909334719181,   0.1728127896786,   0.1458636671305,   0.0515778735280,  -0.0143019622192,   0.1073662340641,   0.1522772014141,  -0.3134075403214,   0.0784177705646,   0.0868659541011,  -0.2662167549133,  -0.0842406898737,  -0.2162157446146,   0.0534670427442,   0.1198630034924,   0.2217909842730,   0.2186390012503,   0.2340248078108,  -0.0945466458797,  -0.1541060954332,   0.0571266263723,  -0.2197868227959,   0.0456821173429,  -0.0225866474211,   0.1596253514290,   0.1440234780312},
   {   0.1942401826382,  -0.0273413434625,   0.2739178240299,   0.0604970194399,  -0.2919801473618,  -0.1127590015531,   0.0947912484407,  -0.0956733748317,  -0.0364189781249,  -0.0635310485959,  -0.1375047117472,   0.1356372833252,   0.2597216069698,  -0.0930276438594,   0.1343919485807,  -0.0023535280488,  -0.1601432412863,   0.0008313170401,   0.0436748489738,  -0.2800908088684,  -0.1868076771498,   0.3777389526367,   0.0614982806146,   0.0537789687514,  -0.1588275879622,  -0.1130429431796,   0.1200232207775,  -0.0374392606318,   0.0076207695529,   0.0752129405737},
   {   0.1007936671376,   0.1876193284988,   0.0875623077154,   0.0064895353280,   0.3418016731739,  -0.1006561890244,  -0.0273680537939,   0.3101954460144,   0.2174284309149,  -0.0670282319188,   0.1376383155584,   0.1009772047400,   0.0613669268787,  -0.2035966813564,  -0.1096357703209,   0.1999437361956,  -0.0374112315476,  -0.2502727210522,   0.0011311534327,   0.2395295500755,  -0.1197539642453,  -0.0225056055933,   0.2476102113724,  -0.0762892886996,   0.2558563351631,  -0.0254153087735,   0.1618520766497,  -0.4219071269035,  -0.1921544522047,   0.2383661121130},
   {   0.0835915729403,  -0.0903554260731,   0.1468498557806,  -0.2577806711197,  -0.1292977184057,   0.1773294359446,  -0.0506357885897,  -0.0678668469191,  -0.0091781308874,   0.0059914644808,  -0.1725379973650,   0.1541417837143,  -0.1897213459015,   0.0239963196218,   0.0903341844678,   0.1614196002483,  -0.1012554094195,  -0.1960736811161,  -0.3026286959648,   0.2586146295071,   0.0814449787140,  -0.1413827389479,   0.1215941309929,  -0.1601500958204,   0.2169980704784,   0.0767742469907,  -0.0859335362911,  -0.2663492560387,   0.1186184957623,  -0.0067627644166},
   {   0.0269589181989,   0.0171834267676,  -0.0397512055933,  -0.2616900801659,   0.1295452415943,   0.2264701873064,  -0.0301614981145,  -0.0552312992513,  -0.0344380065799,   0.2318616360426,  -0.1043385341763,   0.0324233733118,   0.2747799754143,  -0.1139005497098,  -0.0927014201880,   0.2183636724949,   0.0562227368355,   0.1298200786114,  -0.2183629870415,   0.2291770726442,  -0.2537406086922,   0.1684438437223,  -0.0504040643573,  -0.1147831901908,  -0.0197649747133,   0.0034728026949,  -0.0358003638685,   0.0132172396407,  -0.0395385101438,   0.1060740053654},
   {   0.2157597541809,  -0.1163079440594,  -0.1436041295528,  -0.2343584746122,   0.1377342492342,   0.1306541711092,  -0.1693723052740,  -0.0594846047461,  -0.0819443315268,   0.1146803200245,   0.0653581917286,   0.0503022633493,   0.0427087284625,  -0.2122204750776,  -0.0385104604065,   0.0508619546890,  -0.0011345311068,  -0.0620630718768,  -0.0824185460806,  -0.1059349402785,  -0.1190362647176,   0.2568706572056,  -0.0417293906212,  -0.0862580165267,   0.0677709430456,   0.1221878901124,   0.2704354822636,  -0.0865915045142,  -0.1172838807106,   0.0786862969398},
   {  -0.1554845571518,   0.0859517306089,  -0.3252703547478,   0.1071761026978,  -0.1157259717584,   0.0239516366273,   0.1096230000257,   0.2603176534176,  -0.0296145640314,   0.2020346522331,   0.0992063879967,   0.2060648351908,  -0.1165056228638,   0.0804412513971,   0.1287083029747,   0.1284078210592,  -0.0704125687480,  -0.0069565949962,  -0.0692557692528,  -0.1029624640942,   0.0821021869779,  -0.1287722587585,  -0.0088914548978,   0.1853901147842,  -0.2203965038061,  -0.1550939232111,   0.0075064222328,   0.1867143958807,   0.0488135479391,   0.0353521630168},
   {  -0.0852641835809,   0.0341386534274,  -0.1778486371040,  -0.1453414857388,  -0.3172705471516,  -0.0304085556418,   0.0160509459674,   0.0445589609444,  -0.1640545576811,   0.1852941811085,   0.0158945899457,  -0.1396891772747,   0.0651763379574,  -0.0814846456051,  -0.0160027462989,   0.1885920166969,  -0.0092778820544,   0.1516058295965,   0.0874802172184,  -0.2550362944603,   0.2721025943756,  -0.1053134575486,  -0.2432687282562,  -0.0106367310509,  -0.1943247169256,   0.1623437106609,  -0.2749464511871,   0.1173910945654,  -0.3303782641888,   0.0114711718634},
   {  -0.0184930656105,  -0.2858300507069,  -0.1522199213505,   0.2883645296097,  -0.1607788354158,   0.0161724612117,  -0.0959720835090,   0.0534235164523,   0.1053538545966,   0.0797818377614,   0.0809088349342,   0.2053640186787,   0.1312474161386,  -0.0990982353687,  -0.2085458934307,   0.2159490287304,  -0.0306612271816,  -0.0710665509105,   0.1594917923212,  -0.2279453873634,  -0.0376246534288,  -0.0250647198409,  -0.2105845361948,   0.0415092557669,   0.3344820439816,  -0.1605838388205,  -0.0051623256877,  -0.0647879019380,  -0.1325437426567,   0.0736801624298},
   {   0.2810469865799,   0.3427806794643,  -0.0276928115636,   0.1075892597437,   0.2498427331448,  -0.1289582401514,  -0.1455125063658,  -0.0687832012773,   0.0302149131894,  -0.0545994229615,   0.0729184001684,  -0.0949317663908,  -0.0311943758279,   0.0503680668771,   0.0292573198676,   0.1889063566923,   0.0007676635869,   0.0578764230013,  -0.0554478056729,   0.1402439624071,  -0.0308899413794,  -0.0156698785722,   0.0473250262439,   0.0658062547445,   0.1499269902706,  -0.0747946798801,  -0.0616658031940,   0.0860777348280,   0.0443517155945,   0.0278843864799},
   {  -0.0564370490611,  -0.1494451612234,   0.1918431669474,  -0.1316248476505,  -0.1555157154799,  -0.0360655374825,   0.1323435753584,   0.0957643315196,   0.0763041153550,   0.1371115148067,   0.2265174984932,   0.1515400260687,   0.0036354698241,   0.0398653149605,   0.1507540792227,   0.1192266419530,  -0.0263025946915,   0.0551456660032,   0.1022409275174,  -0.2318822443485,   0.0316948220134,   0.0422200858593,  -0.1590879708529,   0.0706626623869,  -0.0297030061483,  -0.1095944419503,  -0.1524498909712,  -0.0724100023508,   0.0392631664872,  -0.1160703822970},
   {   0.1467758864164,  -0.0639277547598,   0.2461223900318,  -0.2078949064016,   0.2561001479626,   0.2512223422527,   0.0677060708404,  -0.2214825898409,   0.2372027188540,  -0.0408126637340,   0.0019835601561,   0.0682419985533,   0.1931051015854,   0.2174121737480,   0.1761164963245,   0.0755956023932,  -0.1073046848178,  -0.1024188622832,  -0.1542166322470,   0.1871005296707,   0.0165675226599,  -0.0344400703907,   0.1467851996422,  -0.2643087804317,   0.0247258059680,  -0.1420645117760,   0.0548793300986,   0.2393941581249,  -0.1390289664268,  -0.1591264307499},
   {   0.1481256037951,   0.0097416862845,   0.0215194188058,   0.1303191632032,  -0.2506080567837,   0.1177679896355,  -0.0831707268953,   0.1059283986688,   0.1280864030123,   0.0268153287470,   0.1276799589396,  -0.2200918942690,   0.2339676022530,  -0.0211586207151,   0.0159467495978,  -0.1497509628534,  -0.1925459802151,   0.0837183520198,  -0.0937394201756,   0.0943296477199,  -0.1441472768784,  -0.1053295508027,   0.1852887123823,   0.0593652576208,  -0.0910660922527,   0.0213015601039,   0.1398260593414,  -0.2830006182194,  -0.1824659705162,  -0.0532211586833},
   {   0.0941399261355,   0.0733578354120,   0.1652814447880,  -0.1080032065511,  -0.2333709150553,  -0.0686873272061,  -0.1186628863215,  -0.1929751485586,   0.0092755611986,  -0.1151347830892,   0.0004160619283,   0.0380968190730,   0.0904497504234,  -0.1354641020298,   0.1959856003523,  -0.1732784956694,   0.0371050983667,  -0.1621729284525,  -0.1528092771769,   0.1525452584028,  -0.0896387621760,   0.0599046088755,   0.0550691708922,  -0.0068756984547,   0.1217473372817,  -0.1686360985041,   0.1265995502472,  -0.0301828309894,   0.0110699022189,   0.0386300235987},
   {   0.0060355919413,  -0.0737308412790,  -0.1004441305995,   0.1225234270096,  -0.3044042289257,  -0.1479703485966,  -0.1748977154493,  -0.0543816313148,   0.2319126576185,  -0.1321987062693,   0.0632718876004,   0.0926199331880,   0.2369639575481,  -0.0306146331131,   0.0114320032299,   0.1305991262197,  -0.1015082299709,  -0.0006477973075,  -0.1225695312023,  -0.0324834659696,   0.0923936665058,   0.3433748781681,   0.0731390491128,  -0.2172714024782,   0.2104715108871,  -0.0760100707412,   0.0633099302649,   0.2859573066235,  -0.0045332587324,  -0.1489868015051},
   {   0.0841517001390,  -0.0148175507784,  -0.1398781388998,   0.0499541461468,  -0.0374212265015,   0.2421160340309,   0.1413885951042,  -0.0481786839664,   0.2197097539902,  -0.1226161122322,   0.0575710870326,   0.0419449731708,   0.2380535155535,  -0.0112246694043,  -0.2810981571674,  -0.1727933287621,  -0.0991132557392,   0.1203712224960,   0.0800725445151,  -0.1737020909786,   0.0622752830386,   0.0714787170291,   0.1522318422794,  -0.0016572149470,   0.0854645743966,   0.0018029826460,   0.0529994331300,   0.0011696490692,   0.0911639258265,  -0.2102589011192},
   {  -0.3597826361656,  -0.2765464782715,   0.0417262576520,  -0.3381884098053,   0.2041048705578,   0.1685232073069,   0.0372760891914,   0.2507194280624,  -0.0692240893841,  -0.2632919549942,   0.2802585363388,  -0.2769793272018,   0.0941028818488,   0.2274785637856,   0.0920383930206,  -0.0613327994943,  -0.0310867223889,   0.3380679488182,   0.1560819000006,  -0.2873483598232,  -0.2777025103569,   0.1105648577213,  -0.0163486618549,   0.1633187532425,  -0.0845833569765,   0.2687808573246,   0.3021259307861,  -0.1999926865101,   0.1730590313673,   0.2861377298832},
   {  -0.2667885124683,   0.3222805261612,  -0.0274183377624,  -0.1731220334768,   0.0151802729815,   0.2190497219563,  -0.0488943867385,  -0.2009898722172,   0.0773173868656,  -0.2944126427174,   0.1034207195044,  -0.3079771399498,  -0.0294048469514,  -0.3464451432228,  -0.0033719390631,   0.1870475113392,   0.0224649701267,   0.1783250868320,  -0.2778177559376,   0.1738808602095,  -0.0975930169225,   0.2213121801615,   0.2287876456976,  -0.0991275534034,   0.2278940975666,  -0.1385129988194,   0.0974919572473,   0.0113373165950,  -0.1816162168980,   0.0784746408463},
   {  -0.3070500493050,  -0.0854076519608,   0.0931645855308,   0.2227043062449,  -0.0077514732257,   0.0824898928404,  -0.0094390129671,   0.0253140609711,  -0.0887933075428,  -0.1681889444590,  -0.1638477295637,   0.2369614839554,  -0.2359239012003,   0.1143776848912,   0.0676543340087,   0.1582062393427,  -0.0472021251917,   0.1739067286253,  -0.0639306604862,   0.1293143630028,  -0.1154955998063,   0.1691095679998,   0.1006368324161,  -0.2205899357796,   0.2043583393097,  -0.1815079003572,  -0.2703328132629,  -0.1896586716175,  -0.1848548501730,   0.1301241964102},
   {  -0.2533541321754,   0.1658568680286,   0.1159531250596,  -0.2269316464663,  -0.0868525281549,  -0.0358067713678,  -0.0004513650783,  -0.1024077013135,   0.0879506692290,   0.2038886547089,   0.0860603004694,  -0.1464793235064,   0.1804049164057,   0.1010992527008,  -0.1875895857811,  -0.1051180139184,   0.2037341296673,   0.1205137595534,   0.0937821641564,  -0.1530682444572,  -0.1291351467371,  -0.0424030683935,  -0.0773200839758,   0.1167095080018,   0.0358862988651,  -0.3325709998608,   0.2556698322296,   0.1166772842407,   0.1315217316151,  -0.0828290954232},
   {   0.0823962539434,   0.1026323288679,  -0.0905065089464,   0.2101126611233,   0.0549893341959,  -0.1471906155348,  -0.1924492716789,  -0.0711061283946,  -0.0008239517920,  -0.1923210918903,  -0.0964337959886,   0.0585039518774,   0.0917285978794,   0.0283720586449,  -0.1156668066978,   0.1848351210356,  -0.0111529529095,   0.1439009606838,   0.0687061697245,   0.0471466332674,   0.1296939849854,  -0.1438823491335,   0.0344677418470,  -0.0382684990764,  -0.2780139446259,  -0.2848266959190,   0.2388049066067,  -0.1075298711658,   0.2320406883955,   0.2405185848475},
   {  -0.0624510310590,   0.0022095167078,  -0.2518836259842,  -0.0126196881756,  -0.0081614432856,   0.2243753969669,   0.1295360475779,  -0.1990622878075,  -0.0999938845634,   0.1475486904383,   0.1011600941420,   0.0954339653254,   0.1411083638668,  -0.3361712098122,   0.1704562306404,   0.0034152439330,   0.2663322091103,  -0.1037226393819,   0.0223263408989,  -0.1512761116028,   0.1621835976839,  -0.1402560472488,  -0.0683987885714,  -0.0071846060455,  -0.2067780047655,  -0.0002896471997,  -0.1877718716860,  -0.1658321321011,  -0.0619081370533,  -0.0517581403255},
   {  -0.1079302430153,   0.1328778564930,  -0.1444640606642,   0.2616296708584,   0.1759397834539,  -0.1918021142483,   0.2222048789263,  -0.2661322355270,   0.1970922052860,  -0.2395213693380,   0.2340065240860,   0.1087346225977,  -0.1743985414505,   0.1001701205969,   0.0495622418821,   0.0957993716002,  -0.0046717682853,   0.1575562357903,  -0.0989222973585,  -0.0968212410808,   0.1256205141544,   0.0068747657351,   0.0831233635545,   0.0055687096901,   0.0103143919259,   0.0205306559801,  -0.0322685241699,  -0.1845612525940,   0.1340567916632,   0.2653923630714},
   {  -0.0804840922356,  -0.0874748602509,   0.1250365674496,   0.2335377782583,  -0.0021005165763,  -0.2088634073734,   0.2077589631081,   0.2308971732855,  -0.0500207766891,   0.1226159185171,  -0.1752156615257,   0.2452175766230,   0.0766901969910,  -0.2973555028439,   0.1252852380276,   0.2425833940506,   0.0627823621035,  -0.2270470261574,  -0.0354017615318,  -0.1491473466158,  -0.0944886803627,   0.1078730300069,   0.0588235631585,   0.2039008587599,   0.1976651251316,  -0.1038215085864,   0.2006040215492,  -0.1566277891397,  -0.1765256822109,  -0.0248549543321},
   {  -0.0282700415701,   0.0354775786400,   0.0805579125881,  -0.4598654508591,   0.2582328021526,  -0.2623256742954,  -0.1901721656322,   0.0086940033361,  -0.0398971810937,  -0.2731495201588,  -0.0201365165412,  -0.1830973476171,   0.1227442994714,  -0.1011724248528,  -0.3848606050014,  -0.0710402429104,  -0.1399962455034,  -0.0628207698464,  -0.1803123652935,   0.3225605487823,   0.2681080102921,  -0.0412597917020,   0.0348165854812,  -0.0699595361948,   0.2518133819103,   0.0351761728525,   0.1251789331436,  -0.1292606890202,   0.3832654654980,  -0.0062123388052},
   {   0.2754174470901,  -0.0332341603935,  -0.1495058983564,  -0.1265914589167,  -0.1209652647376,   0.0416307486594,  -0.2032725512981,   0.2188062071800,  -0.3709648251534,  -0.1930619180202,  -0.1190740987659,  -0.0834229588509,  -0.1609271317720,  -0.0613922029734,  -0.0756125152111,  -0.0528580881655,  -0.2123353183270,  -0.1169844195247,  -0.1546032726765,  -0.1039087325335,  -0.0918470770121,   0.3334253430367,  -0.0374153703451,   0.2773836553097,  -0.0533508211374,   0.2341136485338,   0.0781333297491,  -0.1688425391912,   0.0587327815592,  -0.0240855477750},
   {  -0.2005362063646,   0.0768887698650,   0.0694291517138,   0.1847722977400,  -0.2699623405933,  -0.2644455432892,   0.2963724434376,  -0.0669949874282,  -0.0366005972028,  -0.0560753680766,  -0.0106970174238,  -0.2999555766582,  -0.0623992830515,  -0.1799846738577,  -0.1864472031593,  -0.1421070843935,  -0.0360890850425,   0.0536198690534,   0.2660554349422,  -0.2343292385340,   0.0977237597108,  -0.1355984359980,   0.0622462369502,  -0.2438425123692,  -0.0345208831131,  -0.2402871549129,   0.0229499693960,  -0.1000769585371,   0.1698320209980,   0.1663426905870},
   {  -0.0919915735722,  -0.0243045687675,  -0.0612562261522,   0.1935339421034,   0.1643861681223,  -0.1877226978540,  -0.1367230564356,  -0.0500940158963,  -0.1914266049862,   0.0702241957188,   0.2044873982668,  -0.0545093752444,  -0.0164273437113,  -0.1994152665138,  -0.1238898932934,   0.0314573012292,   0.1010484695435,   0.1835315376520,   0.0247289575636,  -0.1450788825750,  -0.0268860366195,  -0.1399080157280,   0.0647725835443,  -0.1277977377176,  -0.1175940707326,  -0.2714568376541,   0.0084704868495,   0.0078363958746,  -0.2132206559181,  -0.2792461514473},
   {   0.0449658744037,   0.0337648279965,   0.1237365975976,   0.1331561654806,   0.0403925143182,  -0.1274686604738,   0.0474704653025,   0.0389151237905,  -0.0583404861391,  -0.0430814921856,  -0.0624811127782,  -0.0159754883498,   0.0356680378318,   0.0406848564744,  -0.2270504087210,  -0.0647674426436,   0.1836057305336,   0.0137181589380,  -0.0349540524185,  -0.2752084434032,   0.1714622825384,   0.0881195515394,   0.0350699312985,   0.0797427818179,  -0.3653454184532,  -0.1071145683527,  -0.0624524019659,  -0.0435406565666,   0.0558200590312,  -0.2493326216936},
   {  -0.1006152331829,   0.0118081057444,   0.2319197207689,  -0.2004218101501,  -0.0617977529764,  -0.0801949650049,  -0.2599734365940,  -0.2651404440403,  -0.0931808799505,   0.0848340317607,   0.1195585131645,  -0.2108978927135,  -0.0410911291838,  -0.2255879938602,   0.1841221898794,  -0.3921220004559,  -0.1111058592796,  -0.0412919968367,  -0.0275193247944,  -0.0091695087031,   0.0516251847148,   0.2103436589241,  -0.1175212487578,  -0.0795386731625,   0.2390089929104,  -0.1847763657570,  -0.2062749713659,   0.2096064984798,  -0.1675614714622,   0.3217688202858},
   {   0.1965507864952,  -0.1211816668510,  -0.0861161872745,   0.1926190108061,   0.0451949089766,   0.1674720048904,   0.1487580537796,   0.1246157884598,   0.2089932560921,   0.1589231640100,  -0.0901463851333,  -0.1157227978110,   0.1697732061148,  -0.0173443593085,   0.2172936946154,   0.2024570405483,  -0.0017628191272,   0.0601919032633,  -0.2818272113800,  -0.2505676150322,  -0.1628365665674,   0.2501565515995,  -0.1969454437494,  -0.1773156821728,  -0.1653474718332,  -0.0121675021946,  -0.0129886846989,  -0.1323777437210,  -0.1222401633859,   0.0393293201923},
   {  -0.1065663620830,  -0.2043416351080,  -0.1514901369810,  -0.0814265534282,   0.1467422544956,  -0.1276646256447,  -0.2262559980154,   0.1008284837008,   0.0242169108242,  -0.1188904494047,  -0.1127153486013,  -0.1224968209863,  -0.2616892457008,  -0.0477044507861,  -0.0260265786201,   0.0160960927606,  -0.0217633675784,  -0.1599633097649,  -0.0256659835577,  -0.1905382573605,   0.0004648370668,  -0.1284997165203,  -0.0480686984956,  -0.0680016577244,  -0.0914259850979,   0.1185304969549,  -0.0853879973292,  -0.1586158573627,  -0.1161847934127,  -0.0468181632459},
   {   0.1756072342396,  -0.1523184776306,   0.0497975647449,  -0.2497212588787,  -0.1272014826536,   0.1314949244261,   0.0844966769218,  -0.1360738724470,  -0.0649583637714,  -0.0562140047550,  -0.0339680351317,   0.0804576054215,   0.0023395635653,  -0.1386811435223,   0.0980041995645,   0.1299620568752,   0.1545757353306,   0.1374118030071,   0.1435511857271,  -0.0277901478112,  -0.1180525794625,  -0.0287778321654,   0.0927602723241,  -0.0237076692283,   0.1955639719963,   0.1480347663164,  -0.2015484124422,  -0.2820770144463,   0.0364622995257,  -0.0605374425650},
   {  -0.0531379655004,   0.1345272809267,   0.2232408523560,   0.0476434566081,   0.0441725328565,   0.0896281599998,  -0.2030221819878,   0.2439254820347,  -0.0082174483687,   0.0895778909326,   0.1897328495979,   0.1003560200334,   0.0225325431675,  -0.2537050545216,   0.1214968264103,   0.0893362537026,  -0.0220212340355,  -0.1052833646536,  -0.1605116873980,  -0.0627579391003,   0.1572251915932,   0.1812338978052,   0.2102762609720,   0.1644282788038,   0.2902186214924,   0.2286090254784,   0.1646203398705,   0.1910416781902,  -0.0965122878551,  -0.1415230333805},
   {   0.1863006800413,  -0.2029253095388,  -0.2532443702221,   0.2394671291113,  -0.1989631801844,  -0.2454391270876,  -0.0665931776166,  -0.1620440334082,  -0.1607406735420,  -0.0208846163005,  -0.0049194204621,   0.1844130158424,   0.0919099822640,   0.1486555039883,   0.0715370550752,   0.0182654187083,  -0.0192776098847,   0.1875410825014,   0.0898861512542,  -0.0341223329306,  -0.1996116042137,  -0.1421731412411,   0.1119548007846,  -0.2113158553839,   0.1867116838694,  -0.2852494716644,   0.1249782890081,   0.1214738786221,  -0.0812762752175,   0.0552131980658},
   {   0.0614702962339,   0.0343406274915,  -0.0104805929586,  -0.0068438146263,   0.2333388477564,   0.0078264540061,  -0.0716878846288,   0.0402105264366,   0.0323385559022,  -0.0260390285403,  -0.1150467172265,   0.0732042342424,   0.0728709250689,   0.1068740710616,  -0.0212794449180,   0.2079593241215,  -0.0177484359592,  -0.2128850817680,  -0.0148542569950,  -0.1681026071310,  -0.0377464927733,  -0.0301756467670,  -0.1984386146069,   0.1028116345406,   0.0721857771277,  -0.1294492930174,   0.0405330248177,   0.1392844617367,   0.0822688713670,   0.0550391897559},
   {  -0.1028483957052,   0.1970601975918,   0.0660947263241,  -0.2439292371273,   0.0664517134428,  -0.3031348884106,  -0.0314796045423,  -0.0590484738350,   0.1314609497786,   0.0098470244557,  -0.0782091096044,  -0.1541961580515,  -0.2790941298008,   0.0103779947385,   0.1888870000839,   0.0356387495995,   0.0738546922803,   0.0545592755079,  -0.0614701546729,  -0.1441963464022,   0.0952222719789,  -0.0634654238820,  -0.0149634508416,   0.0001088355129,   0.2161333113909,  -0.0556442178786,  -0.0053806770593,   0.2249449044466,  -0.2476943731308,  -0.2000385075808},
   {   0.0096641825512,  -0.1623774468899,   0.1650595515966,  -0.1136813461781,  -0.0372700616717,   0.0967490077019,   0.0830725952983,   0.1203501671553,  -0.1544473767281,  -0.0512358546257,   0.1219504997134,  -0.2038566470146,  -0.2785589694977,   0.1162760183215,  -0.0715955048800,  -0.1671580374241,  -0.0750643908978,  -0.1129266098142,   0.1250714063644,   0.0979253426194,   0.1056865081191,  -0.0509255155921,   0.0817513018847,  -0.1054062247276,  -0.1807394474745,   0.0215746611357,   0.2942915260792,   0.2895219027996,  -0.1349681764841,  -0.1408987045288},
   {  -0.2918235063553,   0.0018634966109,  -0.1251824796200,  -0.0908667892218,  -0.1609535068274,  -0.1703359335661,  -0.1370872706175,  -0.0883648246527,  -0.2777621150017,  -0.0837979912758,  -0.0394023507833,   0.1272862851620,   0.0167571995407,  -0.0520606897771,  -0.1606529504061,   0.1934547424316,  -0.1546315699816,   0.0552983134985,   0.3551401197910,   0.0169624090195,   0.1381811946630,   0.2034406065941,  -0.0851414874196,  -0.2689774632454,  -0.0863981470466,  -0.2631155848503,  -0.1309581398964,   0.2607527077198,   0.2023405879736,   0.1929739415646},
   {   0.0562270432711,  -0.1229018792510,   0.0900915563107,  -0.1660889387131,  -0.1802196204662,   0.0257379189134,   0.1164792478085,  -0.1253325045109,   0.1039592549205,  -0.0583462603390,  -0.0156604535878,   0.1101881414652,  -0.1849114149809,  -0.0952984020114,  -0.1772952377796,  -0.1603537946939,   0.0060322252102,  -0.0366041399539,  -0.1839975565672,   0.2158729583025,  -0.0054993871599,   0.0170059781522,   0.1430040150881,   0.0872007831931,  -0.1508889049292,   0.2088250517845,  -0.0654067620635,   0.1836282610893,  -0.0093343434855,   0.2082572430372}};
  const float bias_0[30] = {   0.0854038298130,   0.0161660704762,   0.1619904041290,   0.0502434410155,   0.1059027090669,   0.0584930703044,   0.0423596911132,   0.1614331454039,   0.0275009777397,   0.0588226728141,   0.0667981654406,  -0.0669607147574,  -0.0310254450887,   0.0071936501190,   0.0632671266794,   0.1523981690407,   0.0003275697527,   0.1180663928390,   0.1436599940062,   0.1190299615264,   0.0867804586887,   0.0804389938712,  -0.0166033264250,   0.0180984716862,   0.0733822286129,   0.1102347001433,   0.0492521300912,   0.0890122205019,  -0.0369796976447,   0.0740031450987};
  // Declare the arrays in the stack
  const float kernel_1[30][30] = 
  {{  -0.0578077472746,   0.0699497088790,  -0.1014864817262,   0.0010621058755,   0.1893010735512,  -0.1305499076843,  -0.0740380957723,   0.1674575805664,   0.0226282291114,   0.0991490781307,  -0.1202291697264,  -0.2558881640434,   0.1626920998096,  -0.1844087988138,   0.1868070513010,   0.2239375859499,  -0.2159410417080,  -0.0709127634764,  -0.0228726323694,   0.2877045869827,   0.1771076470613,  -0.0507671795785,   0.0519176088274,  -0.2304127961397,  -0.0456088706851,  -0.2658836245537,  -0.1018493250012,  -0.0050032432191,  -0.1909215599298,  -0.1204073429108},
   {  -0.1475664973259,  -0.1039840579033,   0.0984212011099,  -0.3962181806564,   0.0972392931581,  -0.1589614301920,   0.1566231250763,   0.0810635685921,   0.1377157121897,   0.2196494489908,   0.0172565951943,   0.0960110723972,   0.1816449761391,  -0.0390062294900,  -0.2433203160763,   0.1849326342344,  -0.1901865452528,   0.0217982381582,  -0.0478160604835,  -0.2786812186241,   0.1244423463941,  -0.2127377688885,  -0.0138636501506,  -0.0588272474706,  -0.3000264763832,   0.0520195029676,  -0.2629399299622,  -0.4285627007484,  -0.0394829064608,  -0.1580906510353},
   {   0.1302716135979,  -0.3141349852085,   0.0924622416496,   0.3229780793190,  -0.0413237474859,  -0.1327727586031,   0.1044404059649,   0.0079337321222,   0.1106280311942,  -0.2183422744274,   0.1729281246662,   0.0121841924265,  -0.1857363730669,  -0.1720547825098,   0.0394586883485,   0.1931900829077,   0.0336367152631,  -0.1459710597992,   0.0034306044690,   0.0512196868658,   0.1042182072997,  -0.2770846188068,   0.1513386964798,   0.1173727214336,   0.0694116204977,  -0.1550733894110,   0.1935748606920,  -0.0750942677259,   0.1294440627098,   0.1459977328777},
   {   0.0961255654693,  -0.3026396632195,   0.1642987132072,   0.2872039377689,   0.1149594485760,  -0.2650056481361,  -0.2471851557493,   0.2401060611010,   0.1178385391831,  -0.2500655353069,   0.1006620749831,   0.1698324531317,  -0.0081496257335,   0.1454836130142,  -0.0452127121389,  -0.0660203695297,   0.0449422933161,  -0.2427543848753,   0.1058377102017,  -0.2962856590748,   0.0858400464058,  -0.0758499577641,  -0.0887134522200,   0.1731602698565,   0.1692126542330,  -0.2093373239040,   0.3256117403507,   0.1989374905825,   0.3069584369659,  -0.1957172155380},
   {   0.0625524073839,  -0.1454950720072,   0.1451158076525,   0.3309943377972,   0.2799355685711,   0.0365832112730,  -0.0378634966910,  -0.1156777217984,   0.1629834324121,   0.2299982607365,  -0.1987987756729,  -0.1352762281895,   0.2246215045452,   0.0729225054383,   0.1340268254280,   0.3032561540604,   0.3647746741772,   0.0788604095578,  -0.3088552951813,  -0.1648883968592,   0.2907790839672,   0.0731798410416,   0.2662376463413,   0.3123100996017,  -0.2311453670263,   0.1271708160639,   0.2024543881416,  -0.0726832523942,   0.3249710202217,  -0.2814908325672},
   {  -0.2137928307056,   0.1449964046478,   0.1364577561617,  -0.2397450357676,  -0.3421401679516,   0.1665411144495,  -0.1242037639022,  -0.0766010433435,   0.1104636117816,  -0.0683601647615,   0.0957196578383,  -0.0595314130187,  -0.0711425244808,   0.0435308255255,   0.1507341861725,   0.2126173377037,   0.3601293265820,   0.0301339514554,  -0.3016655445099,  -0.2191385328770,  -0.1002427637577,   0.0458236709237,  -0.0583252906799,   0.1843877583742,  -0.0369694940746,  -0.0841282382607,  -0.1645392328501,  -0.1580779105425,   0.0136476559564,  -0.2559590935707},
   {  -0.1828878968954,  -0.2577293515205,  -0.0910813212395,  -0.0603919923306,  -0.1875441968441,   0.0652467012405,   0.0077164317481,   0.1084794849157,   0.0772967115045,   0.3034098744392,  -0.1963763535023,  -0.2404091209173,  -0.2128983438015,   0.0865202695131,  -0.3380190432072,  -0.1531120687723,  -0.1596680879593,   0.0837778225541,  -0.1647536754608,  -0.3096611797810,   0.1051443815231,   0.2905464470387,   0.0726868659258,   0.0608985610306,   0.3386254608631,  -0.2886033654213,  -0.0069021037780,   0.2453105896711,   0.2599678039551,  -0.1726696938276},
   {   0.0612899623811,   0.0040184920654,   0.2241849750280,  -0.0488650240004,  -0.0901767387986,  -0.1890112608671,  -0.3622957766056,  -0.3627506196499,   0.0426673516631,  -0.1495968252420,   0.0593147985637,   0.0732252597809,   0.0180769711733,   0.0288454089314,   0.2687132358551,  -0.0429640598595,  -0.2600927948952,   0.0236141830683,   0.1335662901402,   0.1511313766241,   0.1729577481747,   0.1853813976049,   0.1391067653894,   0.2201976627111,  -0.0096855536103,  -0.0178562961519,  -0.3126047551632,   0.2105735838413,  -0.1095154881477,  -0.0317129120231},
   {   0.1464834660292,   0.1739389300346,   0.2048283219337,   0.1018740087748,   0.1024725884199,   0.1889107823372,   0.0641024559736,  -0.2176352739334,  -0.0481235869229,  -0.3936536014080,  -0.4214722812176,  -0.2030336558819,  -0.0526558570564,   0.0865194797516,  -0.1398250758648,   0.0281993523240,   0.1676681041718,   0.2088077962399,   0.2159696519375,   0.1137153729796,   0.0824032276869,   0.1633492708206,  -0.0082438401878,   0.0937207043171,  -0.2202365398407,   0.0239831507206,   0.1694194823503,  -0.1029172092676,  -0.3293092548847,   0.1501757502556},
   {   0.1778806149960,  -0.3106540739536,   0.1562455594540,  -0.3229504823685,  -0.1899910867214,  -0.0316640436649,  -0.2040130943060,  -0.2849314510822,   0.1416776180267,  -0.0664664581418,  -0.0598893873394,  -0.1495194733143,   0.2820580303669,   0.1716712266207,   0.1942276805639,   0.2455755025148,  -0.0286097861826,   0.0687614232302,  -0.0202973075211,  -0.1043201163411,  -0.0061844591983,   0.2230695933104,   0.3089887201786,  -0.0955794006586,  -0.3362979590893,   0.0269965548068,   0.3381684124470,  -0.2784618735313,   0.2335741966963,  -0.4140816032887},
   {   0.3087381720543,   0.1161333620548,   0.2162313312292,   0.4197153449059,  -0.3659692704678,  -0.0817314684391,   0.0791450068355,   0.1101211234927,   0.0303485915065,  -0.0160304456949,  -0.0679842755198,  -0.1452941447496,  -0.2610608339310,  -0.0726263076067,   0.0553437136114,  -0.1737213283777,  -0.1982703357935,   0.4076558351517,  -0.0944000035524,  -0.2623158991337,  -0.1575479805470,  -0.0726788341999,   0.2457317858934,   0.2127508521080,   0.2572136521339,  -0.3828014135361,  -0.2310044616461,   0.2573380768299,  -0.2221357673407,   0.1460288763046},
   {  -0.1918466091156,  -0.1155416145921,   0.1637261658907,   0.0092785274610,   0.3215609788895,  -0.1086445376277,  -0.2906113862991,   0.2004195749760,  -0.1273669898510,  -0.1210631430149,   0.3038100600243,   0.0064620841295,  -0.0002068429167,  -0.3754254877567,  -0.1000523716211,  -0.1448077857494,  -0.1463125944138,   0.2203208804131,   0.2894058227539,   0.1309058070183,  -0.1555242836475,  -0.2758812308311,   0.1328495591879,  -0.3169642984867,   0.1852039545774,   0.1417443007231,  -0.0501535423100,   0.0536830984056,  -0.0349842011929,   0.1466924548149},
   {  -0.1634915769100,   0.0650582909584,   0.3202833831310,   0.2046113759279,  -0.3107753992081,  -0.0347396135330,   0.1624026447535,  -0.0781199634075,  -0.1185510456562,   0.1001003235579,   0.0628466382623,  -0.1854116469622,   0.0330256707966,   0.3045350015163,  -0.0391022786498,  -0.1423727124929,  -0.1813745349646,  -0.1447307318449,   0.3235538899899,  -0.2365185171366,   0.2871296107769,  -0.0717874541879,   0.1324091255665,  -0.0098070735112,   0.2521296739578,  -0.1883988529444,  -0.2687094509602,   0.1606593728065,   0.2892313003540,   0.1606297492981},
   {  -0.0119780935347,   0.3370029330254,   0.0331870093942,  -0.3048829138279,   0.2748745679855,   0.3506240546703,   0.1200029551983,   0.1614660918713,   0.0760178640485,   0.2686652243137,   0.0058041410521,   0.0222938265651,  -0.1432268768549,   0.0417387895286,  -0.2274857908487,  -0.2575557529926,  -0.1197937577963,  -0.0137189021334,   0.0946130529046,   0.1678462177515,   0.2640478610992,   0.2402780205011,  -0.3092426359653,  -0.0484795272350,   0.0273747518659,   0.3709057271481,  -0.2280858159065,   0.1602852493525,  -0.1185113042593,   0.4113266468048},
   {  -0.3018221259117,   0.0957781523466,  -0.2202626466751,   0.0704829394817,  -0.2510802745819,   0.2878117561340,   0.2708911299706,   0.1240620017052,   0.3718886673450,   0.0739883258939,  -0.0329526364803,  -0.2040651738644,  -0.0798253342509,  -0.2099995464087,   0.3162956237793,  -0.2722815573215,   0.1855908334255,   0.1452728956938,  -0.0653285831213,  -0.3793023228645,  -0.1072460040450,  -0.3124172091484,  -0.1233610063791,  -0.1636825799942,  -0.0203101541847,   0.0005333169247,   0.0971320122480,  -0.2417644560337,   0.2165278643370,   0.0112269334495},
   {  -0.3198287189007,  -0.0273676887155,  -0.1984848231077,   0.3007051348686,  -0.1342111080885,  -0.2672537863255,  -0.2410651445389,  -0.0696417167783,   0.1308376193047,   0.2630231082439,   0.1207555010915,   0.1757125705481,  -0.1172008737922,   0.2841862738132,   0.0494815446436,   0.3191089034081,   0.2264630049467,   0.0446836128831,   0.0627025663853,  -0.3987459242344,   0.1920946240425,   0.0454444624484,   0.1382865756750,   0.2700630724430,   0.2616240084171,  -0.0190703384578,   0.0547429062426,  -0.0984750166535,   0.1497699916363,   0.1889759153128},
   {   0.1909174919128,   0.3196195662022,   0.2984179258347,   0.3199787437916,  -0.3230994939804,  -0.2408019453287,  -0.1443222463131,  -0.5186249613762,   0.0606156140566,   0.3295390009880,  -0.0886254310608,   0.2189791053534,  -0.1056803986430,  -0.2974523901939,  -0.1669710576534,   0.0794710144401,   0.1821196228266,  -0.1397246420383,   0.1240031495690,   0.3236532211304,  -0.1368629634380,   0.0444240644574,   0.0044152927585,   0.1317691802979,   0.0900664702058,  -0.1347189992666,  -0.0762109309435,  -0.1070232540369,   0.0799592211843,  -0.4411666095257},
   {  -0.0439949333668,  -0.2068950980902,  -0.1425898671150,   0.0284484904259,  -0.2014201730490,   0.1098335012794,  -0.2176548242569,  -0.0726489573717,  -0.2410078495741,   0.0565621592104,  -0.0739319846034,   0.3310876488686,  -0.1798538863659,   0.0743732601404,  -0.0230906214565,  -0.1173832044005,   0.2035982161760,  -0.1316274404526,  -0.0897481292486,   0.2960301637650,   0.2443370223045,  -0.0173175334930,  -0.0771877542138,  -0.1291796118021,  -0.1097112372518,   0.1946425586939,  -0.3353690505028,   0.1466911137104,   0.2201460599899,  -0.2283025234938},
   {  -0.1961706429720,   0.0229537598789,   0.0265774577856,   0.2192596942186,  -0.0340675711632,   0.1828756928444,   0.2491261810064,   0.1198785379529,   0.1291500478983,   0.1593949794769,   0.0303787272424,   0.3173716366291,   0.2882124185562,  -0.0816282182932,  -0.2599607110023,   0.3180908262730,   0.0091649619862,   0.0518200621009,   0.1589398682117,  -0.3530661463737,   0.3393723368645,  -0.2983170747757,   0.2029809057713,  -0.0190535690635,  -0.2342932969332,  -0.2097190618515,  -0.0581547468901,  -0.3870490491390,  -0.1491277813911,   0.0428932979703},
   {  -0.2514501512051,   0.3361773192883,   0.1130327656865,   0.1703036129475,   0.1956581622362,  -0.1189693808556,   0.1451168954372,   0.1413748860359,   0.2874885201454,  -0.0773213654757,  -0.0560616664588,  -0.1269832700491,   0.1942351609468,   0.0317334346473,  -0.1849649697542,  -0.1584827303886,  -0.1814792454243,   0.0846569612622,   0.2895314693451,  -0.0076406402513,  -0.2316520214081,   0.2883577942848,  -0.0852439552546,  -0.0423059090972,  -0.3286294639111,   0.0325086228549,  -0.1379588246346,   0.0938638970256,   0.1687982231379,  -0.0151866273955},
   {   0.1478919535875,  -0.2269646972418,  -0.1881570070982,   0.0016703746514,   0.1155510023236,   0.0030855969526,   0.1169942319393,  -0.0773066058755,   0.2850332260132,  -0.1698186397552,   0.0322894789279,  -0.2173728197813,  -0.1509383320808,   0.1249108761549,   0.1993060410023,  -0.1353328675032,   0.2492409497499,   0.0385120175779,   0.1327234655619,   0.1944517344236,  -0.0567331872880,   0.3551459908485,   0.2385363727808,   0.2745336294174,  -0.0868675708771,  -0.2582849860191,   0.0020343130454,  -0.2447665631771,  -0.2119614928961,  -0.1008714735508},
   {  -0.2434429973364,  -0.2578226923943,  -0.0219943523407,   0.0683993101120,   0.1994020640850,  -0.0926774963737,   0.0797081068158,   0.1253412216902,   0.3409856557846,   0.2452489584684,   0.3712408840656,   0.2103573977947,  -0.0932781845331,  -0.0615997388959,  -0.2418460100889,   0.0702003389597,   0.0958972722292,  -0.3148734271526,  -0.0928142443299,  -0.2016809582710,   0.0727031379938,   0.0184090416878,  -0.1561321914196,  -0.0324257649481,   0.4042664766312,   0.2387035489082,  -0.2618815600872,  -0.1054828017950,   0.1343972533941,  -0.1398712396622},
   {   0.1839939206839,   0.1528661251068,   0.0090413596481,  -0.2802836298943,   0.0976762026548,   0.0479914695024,   0.0051104528829,  -0.1062797382474,   0.1439972072840,   0.3245321512222,  -0.0293015521020,  -0.1346197575331,  -0.4566444754601,  -0.0424665883183,  -0.1837060898542,   0.0901452004910,   0.1992977857590,  -0.0837229490280,  -0.4751750826836,  -0.2036616355181,   0.0119349723682,  -0.1889769136906,  -0.4506370723248,   0.1310566365719,   0.0504073686898,  -0.0786092802882,  -0.0491910539567,  -0.2938785552979,  -0.1560826450586,   0.1112125217915},
   {  -0.2000159919262,  -0.0544503293931,   0.2840958833694,  -0.0078345583752,   0.2615361809731,  -0.0923810526729,   0.1111371144652,  -0.0272760428488,  -0.1571525931358,  -0.1093829199672,   0.2878022491932,  -0.0347426198423,   0.2758593857288,  -0.3057206273079,   0.0118388822302,  -0.0512202121317,   0.3257117271423,  -0.1013349816203,  -0.3491636514664,   0.2533535361290,  -0.2214581072330,  -0.2519411146641,  -0.0866160541773,   0.0950358137488,   0.0240262132138,   0.2612115740776,   0.1970742642879,  -0.0861603170633,  -0.1722087860107,  -0.0699651911855},
   {  -0.0178058668971,   0.2898704111576,  -0.2724244892597,  -0.2140990197659,   0.1239843592048,   0.3122163414955,  -0.0169477853924,   0.0501622036099,   0.4215463697910,  -0.1738743782043,  -0.1293120384216,  -0.2877486646175,  -0.1625500023365,  -0.0409153439105,   0.2268569618464,  -0.0156039604917,  -0.1228382512927,  -0.2747919261456,  -0.1475811749697,  -0.3972645699978,  -0.0971314609051,   0.1026668474078,   0.1226493343711,   0.1278227120638,   0.1242942586541,   0.0336543619633,  -0.3666020631790,  -0.2158810943365,  -0.1925976127386,  -0.2003912627697},
   {   0.3497810661793,   0.2128120660782,  -0.2320334762335,   0.2212247103453,   0.2249249219894,   0.3202430605888,  -0.3598966002464,  -0.1612534373999,  -0.1199599131942,  -0.0395036675036,  -0.2738609015942,  -0.1215807870030,  -0.0291462596506,  -0.1576726883650,   0.0181821603328,  -0.0005668000667,  -0.0229424443096,  -0.1844192296267,  -0.0028271428309,  -0.1976015865803,   0.2006918489933,   0.1214809045196,   0.2592050135136,   0.0791279226542,   0.2487878799438,   0.1567497849464,  -0.3914997875690,   0.0810688585043,   0.2147046625614,  -0.1681853383780},
   {   0.0326067730784,   0.1888730376959,   0.0171552449465,   0.3220108151436,  -0.1152623146772,  -0.0750178322196,  -0.1460400521755,   0.2829794883728,  -0.1075249537826,  -0.0794625580311,   0.2278105616570,  -0.0497540459037,  -0.1534286141396,  -0.0922498404980,   0.2110797762871,   0.0970539748669,   0.1354984045029,   0.0976766869426,  -0.0082112979144,  -0.0497967042029,   0.1757599264383,  -0.0493778251112,  -0.1291566640139,  -0.0967295020819,  -0.1168744340539,  -0.0146084092557,  -0.3675957024097,  -0.2133359313011,  -0.1535200476646,   0.1080996766686},
   {   0.2207325547934,   0.2646641135216,  -0.2275155633688,  -0.0201881602407,   0.2092826217413,   0.2410532385111,   0.2351057529449,   0.0813171863556,  -0.2279657870531,  -0.0345122069120,  -0.3531215190887,   0.0806389302015,   0.1158347353339,  -0.0945750996470,   0.2301235198975,   0.1304914355278,  -0.2023333460093,   0.3697988986969,   0.1132412403822,   0.2196109741926,  -0.1303532868624,   0.0961846113205,  -0.0863813087344,   0.0960968658328,   0.2383236140013,   0.1346575021744,  -0.0715753063560,   0.2127155810595,  -0.2650827467442,  -0.0886533483863},
   {   0.0024387028534,   0.0894192978740,   0.0350732095540,  -0.2149948924780,  -0.2389302402735,   0.1194203197956,   0.2073501050472,  -0.2670341432095,  -0.1027140468359,  -0.2384672313929,   0.1775194555521,  -0.0743715912104,  -0.1120117753744,   0.1596014201641,   0.2261707335711,   0.0759348422289,   0.0496408902109,  -0.0635254681110,  -0.0187534522265,  -0.3536383509636,  -0.2132728248835,   0.1844895929098,  -0.3618364036083,   0.1947820931673,   0.0162877682596,   0.2129550874233,   0.1745581924915,  -0.1791820824146,   0.1049801558256,  -0.2559039294720},
   {   0.1924768835306,   0.0804715454578,   0.0240699183196,   0.0035942804534,  -0.1893266439438,   0.2366399914026,   0.2111559361219,  -0.1427628546953,   0.1362309902906,   0.0942757353187,  -0.0603925772011,   0.2918428480625,   0.2194960862398,   0.2268303036690,  -0.4369846582413,  -0.0940385386348,   0.0802802592516,   0.1557458490133,   0.0215469319373,   0.0386389680207,   0.2786165773869,   0.2994024455547,   0.2862277626991,   0.2672130763531,  -0.1370715200901,  -0.0002069867041,   0.0613508485258,  -0.2030491679907,   0.1197106614709,  -0.1632052510977}};
  const float bias_1[30] = {   0.0571644119918,  -0.0328269340098,   0.0525133050978,   0.0163359809667,   0.0872502252460,   0.0890127271414,  -0.0025528029073,   0.0270677357912,   0.0335295498371,   0.0738247781992,   0.0834618359804,   0.0517767481506,   0.0706072151661,   0.1389753669500,   0.0580029115081,   0.0690451711416,   0.0601396374404,  -0.0108318654820,   0.0401368290186,   0.0389367640018,   0.0399561785161,   0.0267227366567,   0.0552036426961,  -0.0235942266881,   0.0641309171915,   0.0598291605711,   0.0261164028198,   0.0411540605128,   0.0429847612977,   0.1197376325727};
  // Declare the arrays in the stack
  const float kernel_2[30][30] = 
  {{   0.1966273933649,   0.1597939431667,  -0.1411566883326,  -0.1658135503531,  -0.0221099350601,   0.2949632108212,   0.2454420030117,  -0.1382256746292,   0.2342075109482,   0.1441973447800,   0.4433752298355,   0.1080699190497,   0.1590349674225,   0.3029435873032,   0.1938561201096,   0.2786891460419,  -0.3432150185108,   0.2438921183348,   0.3518557250500,  -0.0272380858660,  -0.2496265023947,  -0.3272459208965,   0.1886896491051,   0.2073449343443,   0.0211515873671,   0.2423250824213,   0.1445922404528,  -0.0599643215537,  -0.1710890233517,   0.1137578859925},
   {   0.3733593225479,  -0.0676401406527,  -0.2895116806030,   0.0901408419013,   0.2790488600731,  -0.0660231858492,   0.2015518993139,   0.1556100696325,  -0.0396343730390,   0.2759337425232,   0.2800339758396,   0.0351454205811,  -0.1973421573639,  -0.1987742334604,  -0.0674034729600,   0.1488256454468,   0.2043293863535,   0.1229542866349,  -0.0328206941485,  -0.0225451029837,  -0.1451784819365,  -0.0297229606658,   0.3028970956802,  -0.0623408965766,  -0.2743812799454,  -0.0469858497381,   0.3370782136917,   0.0217718351632,  -0.0943838283420,  -0.2666349112988},
   {   0.0414144285023,   0.2451234459877,   0.2219142317772,  -0.1969606280327,  -0.0103540783748,  -0.3020648956299,   0.3178273141384,   0.0980839282274,   0.2728635966778,   0.1683714836836,   0.1507934629917,   0.2215300947428,   0.0305408723652,   0.1928872913122,   0.1072736978531,  -0.2996514439583,  -0.1797113567591,   0.2960297763348,  -0.0193717274815,   0.0735590159893,   0.2560304403305,  -0.1149008199573,   0.0673863813281,   0.1457361578941,   0.0748965516686,   0.1142747849226,  -0.2004034966230,  -0.0349235944450,   0.0544668585062,   0.0334566459060},
   {  -0.0662983506918,  -0.3108795881271,   0.2727480232716,   0.2537623941898,   0.3246572911739,   0.2672680616379,   0.0387492477894,  -0.4258618950844,  -0.0055497097783,  -0.1515259593725,   0.1259605139494,  -0.1849105358124,  -0.0802413821220,   0.0804186686873,   0.1739954203367,  -0.0584019646049,   0.0832395404577,   0.0330416187644,   0.2034666985273,   0.0753145590425,  -0.2498316019773,   0.2390884608030,  -0.0875163897872,   0.2144641429186,   0.1587830632925,  -0.2472147494555,  -0.1679589003325,   0.1696736514568,   0.1210088357329,   0.1221309676766},
   {   0.2491181045771,   0.0294710267335,  -0.0657147616148,   0.3034082353115,   0.1022066622972,   0.1753578186035,  -0.2190822809935,   0.2024917155504,  -0.1678775846958,  -0.3052519857883,  -0.0308341775090,   0.1571120619774,   0.2339596003294,   0.2838216125965,   0.2142474800348,   0.0154023943469,   0.0759633481503,   0.3133093714714,  -0.0250394977629,  -0.2684922814369,   0.3248794078827,  -0.1748295575380,   0.0444780290127,  -0.0979923754930,  -0.2219056785107,   0.3474954664707,   0.2405162304640,  -0.1249498873949,  -0.0564873442054,   0.0048490362242},
   {   0.2795622348785,   0.2885639071465,   0.0493274219334,   0.0851176902652,  -0.1470080316067,   0.3105457425117,   0.0532314628363,  -0.1489033997059,   0.2469787001610,   0.0397898629308,   0.1202234253287,   0.0359838344157,   0.2327745556831,   0.2464823126793,  -0.3395281136036,   0.0629422217607,   0.0137478634715,  -0.2823663353920,   0.1272834986448,  -0.0267599169165,   0.1826030611992,   0.3773971199989,   0.3190901279449,   0.0528157502413,   0.3027085959911,   0.2421054840088,   0.1553103327751,   0.0441255867481,   0.2010795474052,   0.3336311280727},
   {  -0.0811684727669,   0.1157271414995,   0.2374239414930,   0.2241888791323,   0.0856096521020,   0.2094851136208,   0.1957037895918,  -0.2018197327852,   0.0480850823224,  -0.1674345880747,   0.0799713358283,   0.3234918713570,   0.0516274757683,  -0.3232011497021,  -0.0688793063164,   0.0988611057401,   0.2471614331007,   0.1200277432799,   0.2141435295343,  -0.2101316750050,  -0.2917483448982,   0.0437657535076,   0.0837305635214,  -0.0897172391415,   0.0097064552829,   0.1018069162965,   0.2575033605099,   0.3305070400238,   0.0605228841305,   0.1497636884451},
   {   0.3242551386356,  -0.2117206007242,  -0.3767324090004,   0.2015758752823,  -0.0071314619854,   0.1467031240463,   0.1851689517498,   0.1999794691801,   0.2405543327332,  -0.2409665882587,   0.0910492539406,   0.3348636925220,   0.2629251778126,  -0.2008327394724,   0.0824907943606,   0.3053119182587,  -0.1678422242403,   0.1303979456425,  -0.2128858864307,   0.0514513924718,  -0.2685165107250,  -0.2146620601416,  -0.0559946671128,  -0.2174766063690,   0.2638232409954,   0.2996664047241,  -0.0413758084178,   0.3889276087284,   0.3615562021732,  -0.2511723041534},
   {  -0.1974150091410,   0.3231727480888,  -0.0897448807955,   0.1504942774773,   0.2373969852924,   0.3009625375271,  -0.3293182551861,   0.2016759365797,  -0.0900083929300,   0.0842020437121,  -0.1591099798679,  -0.0472930781543,   0.0768077298999,   0.1813340783119,   0.2996224462986,  -0.0875199735165,   0.2730783224106,   0.2968031466007,   0.2308343499899,   0.1143515855074,   0.0757465437055,   0.0018469492206,  -0.1816993653774,   0.1782008260489,   0.1882025450468,   0.0491924397647,  -0.2018084228039,   0.0067395800725,  -0.3375772237778,  -0.2819105088711},
   {   0.3037353456020,   0.2350365072489,  -0.1047745570540,  -0.0957024917006,   0.2801035046577,   0.0965448990464,  -0.2001563757658,  -0.2614271938801,   0.1916672587395,  -0.0402300767601,   0.3193770051003,  -0.3846465051174,   0.3351778090000,  -0.2143290489912,  -0.1183864995837,   0.0903967320919,   0.2029720842838,  -0.2153679132462,  -0.1050960570574,  -0.3762693405151,  -0.2800974845886,   0.0176739487797,   0.1357729285955,   0.1667742729187,   0.3583627641201,  -0.2795008122921,  -0.2661115527153,  -0.1309459507465,  -0.1386073827744,  -0.0706395730376},
   {   0.2007673084736,   0.0313870720565,   0.2527680695057,   0.1160834282637,  -0.0418555252254,  -0.1695567220449,  -0.1489468216896,  -0.2351595908403,  -0.3242597579956,   0.3717976212502,  -0.1191723346710,   0.0333379432559,   0.3330030739307,   0.0384217239916,   0.1942262053490,   0.1431964337826,  -0.0214136857539,  -0.1788340359926,  -0.2354583144188,   0.0329673066735,  -0.0479515828192,   0.3053176105022,  -0.2017388641834,  -0.2406767755747,   0.0222484841943,  -0.0349317416549,   0.3233424127102,   0.1613667756319,  -0.0856294035912,   0.1935854405165},
   {   0.0729631856084,   0.2869405746460,  -0.1769217103720,  -0.2287339419127,   0.2843976318836,  -0.0798592716455,   0.3088387548923,  -0.1940379589796,  -0.1384370774031,  -0.2654240727425,  -0.1071599051356,  -0.1180221512914,  -0.2655666768551,   0.2754537761211,  -0.1013525351882,   0.1583270430565,  -0.0175251886249,   0.1885876506567,  -0.2288257181644,  -0.0965509191155,  -0.1579750180244,  -0.0036268413533,   0.3045625984669,  -0.3201555907726,  -0.0626775473356,  -0.1316022723913,  -0.0855014249682,  -0.2921940982342,   0.1721398085356,   0.1634517163038},
   {   0.0702454745770,   0.1725504696369,  -0.1941164880991,  -0.2169673293829,  -0.3488196134567,   0.0041864435188,  -0.1626088619232,  -0.0576336160302,  -0.1398758441210,   0.0497944280505,   0.1012760549784,   0.0582062490284,   0.2153960019350,   0.2660261690617,   0.0126559641212,   0.1088579967618,   0.0418309234083,  -0.1540999263525,  -0.1521971523762,  -0.3219564557076,   0.3736930489540,  -0.0899130329490,   0.0449250265956,  -0.1850699037313,   0.0664338320494,   0.2231953293085,  -0.0233789645135,  -0.2299701273441,  -0.1581444591284,  -0.2605969309807},
   {   0.1603161245584,  -0.0446957796812,  -0.3712030947208,   0.2612729370594,   0.0850551202893,  -0.0423802696168,   0.1655113697052,  -0.0173482913524,   0.0544766038656,  -0.3873834311962,   0.1751674860716,   0.1900471001863,  -0.0528676919639,  -0.2185219526291,   0.1176559403539,  -0.1471091806889,  -0.0873990654945,  -0.0148707916960,  -0.0049626110122,   0.0113921146840,  -0.0957425162196,  -0.2183120995760,  -0.2034119665623,   0.1707426011562,   0.1526926308870,   0.3271504938602,  -0.3008093237877,   0.0048979758285,   0.2828903496265,  -0.1927191913128},
   {   0.2583261132240,  -0.2838984429836,   0.2389963418245,   0.0288488175720,   0.2021962702274,  -0.0280784089118,  -0.2472526133060,  -0.1827775686979,  -0.2377305030823,   0.2065077722073,  -0.2510597109795,  -0.2501783668995,  -0.2149855494499,   0.3529774248600,   0.0685769543052,  -0.2639250159264,   0.2431674450636,   0.2364628612995,   0.0860006138682,  -0.0942165926099,   0.2845226526260,   0.1325717568398,   0.0755339562893,  -0.1172409206629,   0.0213413648307,   0.2343810796738,   0.0997560322285,   0.3519801497459,   0.2807648181915,  -0.1734393090010},
   {  -0.2473013103008,   0.0795718580484,   0.3481850624084,   0.1030747070909,  -0.2806340754032,   0.2349818497896,  -0.2942717671394,   0.0363309942186,   0.3180623650551,   0.3012768924236,   0.1825163066387,  -0.0443739444017,   0.2190049737692,   0.1043065488338,  -0.1702941805124,   0.2379768043756,  -0.0414047762752,  -0.2865660786629,   0.1211326867342,   0.1432283818722,   0.3317343294621,  -0.3285231888294,   0.1131883412600,  -0.0585478097200,   0.0651249885559,   0.1497120112181,   0.1109839007258,  -0.0357178151608,   0.2023082375526,  -0.2116221189499},
   {  -0.3513068854809,   0.1512305140495,   0.2752555310726,   0.3326169252396,   0.2486035525799,  -0.0279314052314,   0.1428907215595,  -0.0455817319453,   0.2828718423843,  -0.1339559555054,  -0.1731821596622,  -0.0202301852405,  -0.0635376349092,   0.0378012172878,   0.1625200659037,  -0.5383254885674,   0.2663314938545,  -0.0589609220624,  -0.2756261825562,  -0.1280160993338,  -0.1382005363703,  -0.1846555173397,   0.0362393781543,   0.1964337229729,  -0.1698493361473,   0.0057120868005,   0.1483283638954,  -0.0248599145561,  -0.1795132905245,   0.0434477403760},
   {  -0.1351058930159,   0.1704970151186,   0.2680044770241,   0.2011696100235,   0.1224502027035,  -0.1478832364082,   0.1683642864227,   0.0748332515359,   0.2445436120033,   0.0822122246027,  -0.2430120557547,   0.1468794047832,   0.1434526890516,   0.2909418046474,  -0.3918653428555,   0.2762386798859,  -0.0848307088017,  -0.3110106885433,   0.0698423534632,   0.2426684647799,   0.2565812170506,  -0.2814778387547,   0.1232657954097,   0.2313026487827,   0.0730812773108,  -0.1843396276236,   0.1179349571466,  -0.0470462962985,   0.2456680834293,  -0.0202070306987},
   {   0.1782781779766,   0.0859704911709,   0.0999997928739,  -0.0596314035356,   0.0537328831851,  -0.0165321603417,  -0.1361735612154,  -0.0060972664505,  -0.1877426207066,   0.0176374353468,   0.1238139271736,   0.2512965500355,  -0.3159809410572,   0.0505952239037,  -0.1396342962980,   0.0951622426510,  -0.1460343003273,   0.1359250247478,   0.3103417754173,   0.0114064170048,   0.3590257465839,   0.0884761959314,   0.1431291252375,  -0.1920633316040,   0.1838157027960,  -0.1808733046055,   0.0442271009088,   0.0062205088325,   0.1976771056652,   0.0305266287178},
   {   0.3582250475883,  -0.2823103070259,  -0.0666658058763,   0.2966071367264,   0.0138713801280,   0.2306790053844,   0.0188281685114,   0.1654985249043,   0.1299646049738,   0.3593567907810,   0.1619262546301,  -0.1666609793901,  -0.5492265224457,  -0.0777450427413,   0.0956012308598,   0.2162282019854,   0.0665947943926,   0.1943589746952,   0.2138792425394,   0.0003465636692,   0.4012164175510,  -0.0377578437328,  -0.0996627807617,  -0.0691464543343,  -0.1443078964949,   0.0279876720160,   0.4203191995621,   0.2687863409519,   0.0174223259091,  -0.3229869902134},
   {  -0.1016089320183,   0.1752155423164,  -0.1678484827280,   0.3144811689854,   0.1553307771683,   0.2188830673695,   0.3139830827713,   0.2698775529861,   0.1323606222868,   0.0889841765165,  -0.1393965631723,   0.3034988343716,   0.0572089441121,  -0.0990113168955,  -0.2045803815126,  -0.1776327490807,  -0.2975796163082,   0.2202524989843,   0.1530921161175,   0.2833786010742,   0.2961733937263,   0.0295954048634,   0.2360447794199,  -0.2280279397964,   0.2393789142370,   0.0469202175736,  -0.1583338677883,  -0.2053522914648,   0.0348479747772,   0.2340054810047},
   {   0.1054671704769,  -0.1827631741762,  -0.0024272392038,   0.0661413744092,   0.1019053533673,   0.3366582393646,  -0.2735711336136,  -0.2085892260075,  -0.2910544574261,  -0.1369750946760,  -0.0612723231316,  -0.2420880794525,   0.0715831741691,   0.0425100065768,  -0.2644324302673,  -0.0842217057943,   0.1375123560429,   0.1650716364384,  -0.2481371313334,  -0.3085904717445,   0.2760787606239,  -0.2166078686714,  -0.0443992912769,   0.1866962611675,   0.2277837097645,  -0.0003183875524,  -0.1189531683922,   0.1053280606866,   0.0845394060016,  -0.1899489164352},
   {  -0.2117830961943,   0.1909778565168,   0.3941581547260,   0.1428622305393,   0.3085299134254,   0.0277621652931,   0.0657360404730,  -0.4983410239220,  -0.1126032993197,   0.1964313238859,   0.3755561411381,  -0.1879081875086,  -0.2499366551638,   0.2442697584629,   0.1554538458586,  -0.1393275409937,   0.0859784856439,   0.0696083977818,   0.3006970584393,   0.2350546717644,   0.0485253818333,   0.1506813615561,  -0.0149410851300,  -0.0408156290650,   0.1407915353775,  -0.0951594039798,   0.1943940073252,  -0.1205816715956,  -0.2477976083755,  -0.0023756800219},
   {  -0.0799354314804,  -0.2618746161461,  -0.2940457761288,   0.0195153001696,   0.2318548858166,  -0.0134848011658,   0.2277082651854,   0.2463492453098,  -0.0871235877275,  -0.0662466660142,   0.2300292700529,  -0.0957436040044,  -0.3040272891521,  -0.0953848436475,   0.1827166378498,   0.0948842391372,   0.1904706060886,  -0.2219545692205,  -0.3261956870556,   0.1765609085560,  -0.2299971282482,  -0.0181543901563,   0.0988723188639,  -0.1445093005896,  -0.0265893638134,   0.0922522842884,   0.1532450765371,   0.3058200478554,  -0.2204537391663,   0.0412889458239},
   {  -0.3472501933575,   0.1889526247978,  -0.2145108878613,  -0.1225140020251,  -0.2370817512274,   0.2002418488264,   0.0754512175918,  -0.0470336973667,   0.0857520923018,  -0.1861933916807,  -0.3848711252213,  -0.3463026583195,   0.3351448178291,  -0.3047136962414,   0.2785001993179,  -0.2571391761303,  -0.0468018837273,  -0.1657435894012,  -0.0862742289901,   0.0408430360258,  -0.1571347266436,  -0.2073366940022,  -0.0529746524990,  -0.1204149797559,  -0.1609296649694,  -0.2608811259270,   0.2948462665081,  -0.0489156842232,   0.2935352921486,  -0.0255516059697},
   {  -0.1228668540716,   0.1834290474653,   0.3572840392590,   0.2021288573742,   0.1678436845541,   0.4239236414433,   0.2284192740917,   0.2675229907036,   0.1370436102152,  -0.1464865803719,  -0.2780142128468,   0.2705715298653,   0.0183062814176,  -0.1834518164396,   0.1756985038519,  -0.2577589154243,  -0.1346296519041,  -0.2513240277767,  -0.1884735226631,   0.2636643946171,  -0.2928250730038,  -0.1365904510021,  -0.2433981299400,   0.1459037065506,  -0.3810100853443,  -0.0498318746686,   0.3306712210178,   0.0891384258866,   0.2740283608437,   0.0355619862676},
   {  -0.1802882403135,  -0.1391412466764,  -0.4353521764278,  -0.0045043877326,  -0.0721766054630,  -0.2587405145168,  -0.2914495468140,  -0.2731730043888,  -0.2436220645905,  -0.1624829471111,  -0.0421245433390,   0.0030226733070,   0.4000339806080,   0.0552802756429,  -0.0867580324411,  -0.1783151626587,  -0.1733218580484,  -0.3712360858917,  -0.2370843142271,  -0.0242729466408,  -0.2020187973976,   0.0802523568273,   0.1851036846638,  -0.0931369066238,   0.0494446456432,  -0.3329668641090,  -0.2622249722481,  -0.1496433317661,   0.2379972189665,   0.0936700105667},
   {   0.3706012368202,   0.2186844348907,   0.2182047367096,   0.1732660979033,  -0.0652927532792,   0.2747701406479,   0.2852917611599,   0.2373419851065,   0.2681876122952,   0.2394666969776,   0.2542324066162,   0.2042375802994,  -0.1884124279022,  -0.0821545794606,  -0.0072701270692,  -0.0502113215625,  -0.2138466238976,  -0.2657036185265,   0.2978913187981,   0.0076537481509,   0.2345715314150,  -0.3952082991600,   0.3791599869728,  -0.4885335266590,   0.3136179149151,   0.0311124641448,   0.0432916320860,  -0.2847278416157,   0.1116408854723,   0.3002371490002},
   {  -0.1879277825356,  -0.2077982425690,  -0.1981776803732,   0.0945389792323,   0.1703492552042,   0.3001659512520,  -0.0071195391938,   0.1350559890270,   0.1093120127916,  -0.3392079174519,  -0.2574801445007,   0.2378156036139,  -0.2411016970873,  -0.1564128696918,   0.3331439197063,   0.1416500508785,  -0.1988406926394,   0.1689324527979,   0.1046954691410,  -0.0113653121516,   0.1205688118935,  -0.0204026903957,  -0.3190521597862,  -0.1386028081179,  -0.0040451758541,  -0.1158281937242,  -0.2485949844122,   0.2797113060951,   0.3531619310379,   0.1884587854147},
   {  -0.3173445165157,  -0.0975518524647,  -0.4196390509605,   0.2968318462372,   0.0537579432130,   0.3922335505486,  -0.3013320267200,  -0.3718639016151,   0.2539632022381,  -0.3055266439915,   0.2049881964922,  -0.1271383762360,   0.0894516408443,   0.2209568321705,   0.4028398096561,  -0.1590237021446,   0.4310605525970,  -0.3094603121281,  -0.4526158273220,  -0.4120141267776,  -0.0758552700281,  -0.1722343266010,   0.0865860283375,  -0.2811188697815,  -0.0745316669345,  -0.2340411692858,  -0.1178773567080,   0.0336184427142,  -0.1324468255043,  -0.4711381494999}};
  const float bias_2[30] = {   0.0845697373152,  -0.0002723419166,   0.0401162095368,   0.0628741458058,  -0.0131340194494,   0.0536482147872,  -0.0033781104721,  -0.0094921626151,  -0.0612012296915,   0.0359446629882,   0.0093638729304,   0.0375248454511,   0.0602038949728,  -0.0227289944887,   0.0198341701180,   0.0585274808109,   0.0786555036902,   0.0235593356192,   0.0176636278629,  -0.0032990169711,   0.0721302703023,   0.0769627392292,   0.0419068150222,  -0.0544644668698,   0.0573491230607,   0.0943100154400,   0.0291052851826,   0.0227348431945,   0.0392639711499,   0.0444375164807};
  // Declare the arrays in the stack
  const float kernel_3[30][30] = 
  {{  -0.1151437833905,   0.2636655271053,  -0.1418470293283,   0.3414151668549,  -0.2851850092411,  -0.2717010080814,  -0.2467722147703,   0.0258674379438,  -0.0676788091660,  -0.1956410408020,  -0.0808289051056,  -0.0867163464427,   0.1880686283112,   0.0001152077093,  -0.4290310740471,  -0.1197180822492,  -0.2548473775387,   0.3338741362095,   0.4065258502960,   0.2657341957092,   0.1738014370203,   0.0502992495894,   0.2570429742336,  -0.0393643230200,  -0.0894072800875,  -0.2071462422609,  -0.1147786155343,   0.1380866616964,   0.2471350431442,  -0.0678651183844},
   {  -0.2587707936764,   0.1953887641430,  -0.3530271351337,   0.3173349797726,  -0.3599106371403,  -0.1942366957664,   0.0338690467179,  -0.1200087815523,   0.2026795744896,   0.3314253985882,   0.2855769991875,  -0.2493063211441,  -0.0400228165090,   0.0889533534646,  -0.2554203569889,  -0.1033386513591,   0.1310906112194,  -0.0832553133368,   0.0710458531976,   0.0039472728968,   0.0518345050514,  -0.1390155255795,   0.1535587459803,  -0.3081490695477,   0.4172447025776,   0.1458292007446,   0.1155263632536,  -0.1719584614038,  -0.0367518104613,   0.1499388813972},
   {  -0.1679420471191,   0.2514742612839,   0.0780406147242,   0.3612672388554,  -0.3075281977654,  -0.1330637782812,   0.1263491958380,   0.2246319502592,   0.0342651270330,   0.2800541222095,  -0.0130268754438,   0.2371426224709,   0.1171057969332,  -0.2848079204559,   0.2654501199722,   0.3326230943203,  -0.2090905159712,   0.0464990548790,  -0.1338610649109,  -0.1827255785465,  -0.2504468262196,   0.3636453151703,  -0.2035931944847,  -0.0201780069619,   0.2889057695866,  -0.3533461689949,  -0.2367025911808,   0.1487480401993,   0.1320396065712,  -0.0635300055146},
   {   0.3449311554432,  -0.2083332687616,  -0.1334442198277,   0.1024650633335,  -0.2555825412273,   0.2975744307041,   0.1329603493214,   0.1698789298534,   0.2043205499649,   0.1278695613146,  -0.1427884250879,  -0.2370746284723,   0.1037641912699,   0.0924064144492,  -0.2546065151691,  -0.0478935949504,  -0.1142206043005,  -0.2028357982635,  -0.2726923227310,  -0.1306411325932,   0.2670753598213,  -0.0831501334906,   0.0135705387220,  -0.2980124652386,  -0.0478693321347,  -0.0695473104715,  -0.2689200639725,   0.1336897164583,   0.1783702671528,   0.1500515788794},
   {   0.2011172175407,  -0.0060723810457,   0.0822294205427,  -0.1585629135370,   0.1037493422627,   0.1937654167414,  -0.2667330205441,  -0.0175430681556,  -0.2585445642471,   0.3368171453476,   0.3304915428162,  -0.0536355264485,   0.1367134451866,  -0.0245306789875,   0.0234361272305,  -0.2414797991514,  -0.0243233125657,  -0.0748853832483,  -0.1985678225756,   0.2439921349287,  -0.2095316499472,   0.2036736458540,  -0.0493413843215,   0.2031675130129,  -0.2839036881924,   0.2104650437832,  -0.0557760000229,   0.0770511329174,  -0.1363023519516,   0.2552337944508},
   {   0.3169998228550,   0.0270315594971,  -0.1256213933229,   0.1025633364916,   0.2989927530289,   0.3035198152065,   0.1495416611433,   0.2170493453741,  -0.0828601419926,  -0.0702296346426,   0.3215449154377,   0.1527438312769,  -0.0780842676759,   0.1985042691231,  -0.1597618609667,   0.2105327695608,  -0.1137363538146,   0.1284551173449,  -0.2298769056797,   0.2085469812155,  -0.1865176856518,   0.3530776798725,  -0.1046368777752,  -0.0088066542521,  -0.1536867916584,  -0.2273500561714,   0.2441647052765,  -0.3580921590328,  -0.2160747349262,  -0.0950540527701},
   {  -0.1563091129065,  -0.1604415178299,  -0.2281996607780,  -0.0710419267416,  -0.2271220982075,   0.3070789277554,   0.2668109238148,  -0.2363018393517,  -0.0338637232780,   0.1152281239629,   0.3502971529961,   0.1169762909412,  -0.0139021063223,  -0.1065833568573,   0.1520363688469,  -0.2895060777664,  -0.2627367675304,   0.1138634309173,  -0.1062942892313,   0.1437570452690,   0.3464125096798,   0.3070396482944,  -0.1693826168776,  -0.0886637195945,   0.2462673634291,  -0.0196239612997,   0.0906735137105,  -0.0447541363537,  -0.0016665158328,   0.1236262097955},
   {  -0.3093101680279,   0.1089165210724,   0.5205796360970,  -0.0521000586450,   0.0404982008040,  -0.1270456612110,   0.1437505334616,  -0.2372652292252,  -0.1970743834972,   0.1379781365395,   0.2938744425774,  -0.0227224528790,  -0.2863096594810,  -0.0554755516350,   0.0065472992137,  -0.2189024835825,  -0.0721472203732,  -0.1909745931625,   0.1472621560097,  -0.1063344776630,   0.3317478597164,   0.2791870832443,  -0.0287990458310,   0.2735415101051,  -0.1667542308569,  -0.0723923221231,   0.1828456819057,  -0.1659137755632,  -0.0816278383136,  -0.2216074317694},
   {   0.1955135613680,   0.1487159430981,  -0.1236180812120,   0.1378232389688,   0.2677399814129,  -0.3294119238853,  -0.1959082335234,  -0.2690681517124,   0.2118284404278,   0.2554239332676,  -0.2375488877296,  -0.1079069003463,  -0.2465147227049,  -0.1886070668697,  -0.2872009277344,   0.2777838110924,  -0.3120845854282,   0.2737329304218,  -0.1823038607836,   0.1784354299307,   0.1824433952570,  -0.0795692726970,  -0.2316414117813,   0.1899111866951,  -0.1892789602280,   0.0713876038790,   0.2758889198303,  -0.0043002874590,   0.0543052405119,   0.0750691071153},
   {  -0.2948659956455,  -0.1095106080174,   0.0048176841810,   0.2644706964493,   0.1236040890217,   0.3169683516026,   0.1811345368624,   0.1906171739101,   0.1542012542486,   0.2438914328814,   0.0132356518880,  -0.2515798807144,  -0.1798797249794,  -0.2738823592663,  -0.2371727526188,   0.1108957380056,  -0.0712289661169,  -0.0278520099819,  -0.0531786605716,  -0.1793353259563,   0.0426925793290,  -0.2046378701925,  -0.2284983843565,   0.0667835921049,   0.2749023437500,   0.0008212389075,   0.2213456481695,  -0.2375679463148,  -0.1991168260574,   0.2051773816347},
   {  -0.3128618597984,  -0.0737877413630,   0.1016419455409,   0.0440235771239,   0.1646670848131,  -0.2089535593987,   0.0995965003967,  -0.0332310087979,  -0.3728356361389,   0.2817387580872,  -0.2354840040207,   0.3193642199039,  -0.3856066167355,   0.1078371927142,  -0.1101331561804,   0.2802776694298,   0.2812286317348,   0.2210042178631,   0.0885023474693,  -0.0713953077793,  -0.1205386221409,  -0.0248036272824,  -0.1004003211856,   0.2327498048544,   0.2843594849110,   0.1192728877068,   0.2556367814541,  -0.3355456888676,   0.1044566109776,   0.2258208543062},
   {  -0.2535020112991,   0.0904723033309,  -0.1811623573303,   0.2984994649887,   0.0948004424572,   0.0347462967038,  -0.1017198339105,  -0.2105631083250,  -0.2721294462681,   0.1735805124044,   0.2469736784697,  -0.1424867957830,   0.1587631553411,  -0.1194282025099,   0.0229842439294,   0.0150585286319,   0.1497960835695,   0.0502933934331,   0.1665970683098,  -0.0683527290821,   0.0786937922239,   0.2966268360615,   0.2897316813469,  -0.2193230539560,   0.3082177340984,   0.0606507286429,  -0.0330211706460,   0.0035308799706,  -0.2397299557924,  -0.0086723510176},
   {   0.0927367508411,   0.1030757948756,  -0.0458535514772,  -0.1515616923571,  -0.1940633207560,   0.0000974350769,  -0.0715351253748,  -0.3131734430790,  -0.3222151696682,  -0.1764373034239,  -0.0681491866708,   0.4549825787544,   0.0157628785819,   0.0056232591160,  -0.1046352535486,  -0.1223967671394,  -0.2286061793566,   0.1157920286059,   0.2980666160583,   0.3677413463593,  -0.1114172339439,  -0.1864340603352,  -0.3047659695148,   0.0987055078149,   0.1794104129076,   0.2504619359970,  -0.1056212410331,  -0.2161014974117,   0.2108675688505,   0.2479131817818},
   {  -0.0844698175788,  -0.2152662575245,   0.1148448213935,  -0.0917351990938,  -0.1964667737484,  -0.2612122595310,  -0.1105075478554,   0.1234582290053,   0.1964765340090,  -0.0688128694892,   0.3123161196709,   0.1689310073853,   0.1250996589661,   0.2378646880388,   0.3153123557568,  -0.0169467646629,  -0.1900931298733,  -0.1489246785641,   0.3023653030396,   0.3186136186123,  -0.2587582170963,   0.1608321517706,  -0.2334115803242,   0.2045852392912,  -0.3467370867729,  -0.1734714508057,  -0.0211818199605,  -0.0645801872015,   0.2079757004976,   0.0683906748891},
   {  -0.0131364567205,   0.0141567923129,  -0.1157168969512,  -0.0494852848351,  -0.1317224353552,   0.1324272006750,  -0.0069271647371,   0.0091378465295,   0.0548350177705,  -0.2562730610371,   0.0209052152932,  -0.2058706134558,   0.0638806149364,   0.3398166894913,   0.2530267834663,  -0.1110674962401,  -0.2993188500404,  -0.1175204887986,  -0.1099875271320,   0.0267910417169,  -0.1949989795685,  -0.0956893563271,   0.3225376605988,   0.0346273221076,  -0.3637996912003,  -0.3791411817074,  -0.2694524824619,  -0.2115767598152,   0.0953868180513,   0.1559541225433},
   {  -0.1649240553379,   0.3401219248772,   0.3671028912067,   0.1801274716854,  -0.1960149407387,   0.0131501983851,   0.2540242373943,   0.1935311406851,   0.1964578777552,   0.0726105570793,   0.2226690798998,   0.1236480772495,   0.1007962599397,   0.1274025142193,  -0.3078858256340,  -0.2067322582006,  -0.0748588517308,   0.2602434754372,  -0.4060943722725,  -0.3154572546482,  -0.3017749786377,   0.2849505841732,   0.2252830266953,   0.0894722267985,   0.2270472645760,   0.1108743473887,  -0.0723942816257,  -0.2564901709557,   0.3012688755989,  -0.3530958890915},
   {   0.0773729756474,   0.2373772114515,  -0.1574101299047,   0.2021410167217,   0.2553518414497,   0.0648148953915,   0.1829000562429,   0.1157054826617,  -0.3462673127651,  -0.2489145249128,  -0.2414634078741,  -0.1248217746615,   0.3177415132523,   0.3351202309132,   0.0537446290255,   0.1103274747729,   0.2039155811071,  -0.2859531641006,   0.2749557197094,   0.0850951299071,   0.1431163251400,   0.1080355718732,  -0.1263022124767,  -0.2434872090816,  -0.1641242951155,   0.2868021726608,  -0.0201101526618,   0.2634789049625,  -0.1604393571615,   0.3175309002399},
   {  -0.0662272199988,  -0.1991524994373,   0.1372211724520,   0.3105767071247,   0.0146913593635,  -0.1785876303911,  -0.2945066094398,  -0.1538333445787,  -0.3021354079247,  -0.1992519199848,   0.3026019930840,  -0.0739984065294,  -0.2478996962309,  -0.3038659691811,   0.1844916343689,   0.2294579744339,  -0.0873330235481,   0.1474114060402,  -0.0288295783103,   0.2228604555130,   0.0958640202880,   0.3273211121559,   0.2725721895695,  -0.1518104672432,   0.1223005130887,   0.0485097318888,  -0.0665167868137,   0.0713080614805,   0.3248454630375,  -0.3159599006176},
   {  -0.0141928419471,  -0.3245077729225,   0.1607375442982,  -0.0392532572150,  -0.3075667321682,   0.0569794736803,   0.0379170849919,   0.2154391109943,   0.4312536120415,   0.0099437814206,   0.2140463739634,  -0.2641311287880,  -0.1960096061230,  -0.2431542426348,   0.3010564446449,   0.1453151851892,  -0.2778117358685,   0.1283587366343,   0.1460236757994,   0.1533241271973,  -0.2106586694717,   0.0798078998923,   0.3370697498322,   0.3085788488388,   0.0843566358089,   0.1248516365886,   0.0587678626180,   0.0391511209309,  -0.0937900096178,   0.1437855809927},
   {  -0.2990075349808,   0.0408506095409,   0.1841451823711,  -0.2167213261127,   0.1556629985571,   0.1081871241331,   0.1416524946690,  -0.0529400371015,  -0.3327540755272,   0.2438283264637,  -0.1929510831833,   0.0406288281083,  -0.0165813192725,  -0.0587821193039,  -0.1181412115693,  -0.1164797991514,   0.0771915316582,  -0.2314400225878,   0.1831211298704,  -0.1961127221584,   0.0189880710095,  -0.0091192331165,   0.2137817144394,   0.1202541962266,  -0.2771748006344,  -0.0525322295725,  -0.1812151521444,  -0.2562581896782,  -0.1477187275887,   0.1637707501650},
   {  -0.0080233588815,   0.1746480315924,  -0.1958879232407,   0.2713903486729,  -0.3961447477341,  -0.1737339049578,  -0.0866343230009,   0.2435938417912,   0.0300859194249,  -0.2157165706158,  -0.0596188828349,  -0.2653932273388,   0.0067634508014,   0.2124467939138,   0.2796075344086,  -0.0157280005515,  -0.0270553808659,   0.3578296899796,  -0.0281275454909,  -0.3255689442158,  -0.0152073195204,  -0.1767331659794,   0.3513899445534,  -0.1032500416040,   0.1426075845957,  -0.2848771810532,  -0.2615324556828,   0.2476025521755,  -0.0308354813606,  -0.0267013646662},
   {  -0.3032758831978,   0.1261969208717,  -0.0767923742533,   0.1792088001966,   0.2724010646343,   0.0858336836100,   0.1388389468193,   0.3860327005386,   0.0918496325612,  -0.3239876329899,  -0.0956612229347,  -0.1996184140444,   0.0186895336956,   0.1977797746658,  -0.2746658921242,  -0.0298597961664,   0.1068996787071,  -0.0700397044420,   0.0385423302650,  -0.2820205390453,   0.1586464643478,   0.1287237554789,   0.3306306898594,   0.0766083374619,   0.2276288717985,  -0.0177387222648,  -0.2470599412918,  -0.1278896033764,  -0.2150134146214,  -0.0595491528511},
   {  -0.1964040994644,  -0.2703638374805,   0.2335933893919,   0.2914703190327,  -0.3932660818100,   0.0085424100980,  -0.1081064119935,   0.2726370692253,  -0.2948280274868,   0.2922658026218,   0.3266713917255,   0.1337203830481,   0.0683339014649,   0.2422105371952,   0.2189241945744,  -0.2725014686584,  -0.2760205268860,   0.1510135084391,  -0.2947286069393,   0.0321579538286,   0.1547225117683,   0.2489361166954,  -0.1029734387994,   0.1737008094788,  -0.1642873436213,   0.1826497018337,  -0.0874765813351,  -0.2578354477882,   0.1296800374985,  -0.2659951448441},
   {   0.0090304566547,  -0.1541691571474,   0.1610427796841,  -0.3676660358906,  -0.0744868069887,  -0.2080876529217,  -0.1366450339556,   0.1983511894941,  -0.1328983455896,  -0.1216346770525,   0.1383641958237,   0.0993311107159,   0.3952552974224,  -0.1803845167160,   0.2029650360346,   0.3507426977158,  -0.1856366246939,  -0.1060822308064,   0.2127824276686,  -0.1603991836309,  -0.2022415399551,  -0.0391658954322,  -0.3164261579514,   0.1444500088692,   0.1896988004446,   0.0831288471818,  -0.1426114588976,  -0.0882539376616,  -0.2566567957401,   0.3621790707111},
   {   0.0570567250252,   0.0681581869721,   0.0252058710903,  -0.2904676198959,   0.0380214937031,   0.0350390076637,   0.2213904261589,   0.1882041841745,  -0.0427806526423,   0.1123101338744,  -0.1281847208738,   0.0753312110901,  -0.1714374125004,   0.2045554816723,   0.1536576896906,  -0.1482796967030,  -0.3239983916283,  -0.0527344867587,  -0.2533693611622,   0.2453877329826,  -0.0789775028825,   0.0212100483477,   0.1261916905642,   0.0928556174040,   0.0940488725901,   0.1206264570355,   0.0573996342719,   0.2502248883247,   0.2181152552366,   0.2151824682951},
   {   0.1689822226763,   0.1617066115141,   0.0536326318979,   0.2616390585899,  -0.0538299418986,   0.2289682626724,  -0.1713847070932,   0.2709419131279,  -0.2941254079342,  -0.2922992706299,  -0.3015643358231,  -0.1353340148926,  -0.2076105177402,  -0.1949516832829,  -0.2819640934467,   0.2244072407484,   0.1459069252014,  -0.2934902310371,  -0.1330172270536,   0.2290059626102,   0.2888745963573,   0.0811937153339,  -0.0601235441864,  -0.1205036491156,  -0.0558349899948,  -0.0256024934351,   0.2249214202166,  -0.2632166147232,   0.2457403391600,  -0.2646490633488},
   {  -0.0484818369150,  -0.3679931461811,   0.2375338971615,   0.3470636308193,   0.1959079355001,   0.1435816586018,  -0.3911634087563,   0.1150793656707,  -0.0201694928110,   0.1592202931643,   0.2330425679684,  -0.1026306226850,  -0.1543169468641,   0.1118763610721,  -0.2855963706970,   0.2434204518795,   0.0178069509566,  -0.1698475480080,   0.1341702193022,  -0.0604972578585,  -0.0665512233973,  -0.0298544391990,  -0.2166582792997,   0.1237085983157,  -0.2750155925751,  -0.0164601057768,  -0.2291611284018,  -0.0664196833968,  -0.2120984047651,   0.1950355321169},
   {   0.3426056206226,   0.0190820991993,   0.2453472167253,   0.0294472761452,  -0.1166076734662,   0.1731048077345,   0.0578274689615,  -0.0660844892263,  -0.1635666191578,   0.2497871518135,   0.2819551229477,   0.4294849038124,   0.2887285649776,  -0.1630822271109,  -0.1091014742851,  -0.0401386767626,  -0.3258532583714,   0.0628707706928,  -0.2096034586430,   0.2863714694977,  -0.1248301863670,  -0.2472665905952,  -0.2997275590897,  -0.2545525431633,  -0.1987087577581,  -0.1846460103989,  -0.0207106694579,   0.2400837242603,  -0.2373500317335,  -0.1773077398539},
   {   0.3634115159512,  -0.3058462440968,  -0.2465649992228,  -0.1721994578838,   0.2999562025070,   0.3394704163074,  -0.3375031650066,  -0.1680080294609,   0.1420612633228,   0.0347662828863,  -0.1713378727436,   0.3266794383526,   0.3696660697460,  -0.0208845082670,  -0.1007939204574,  -0.0040950351395,  -0.1894753873348,  -0.1170397996902,  -0.1090341508389,  -0.2709001302719,   0.1804972738028,  -0.2141793966293,   0.1584216803312,   0.1640532612801,  -0.0866196975112,   0.1758797764778,   0.2377066612244,  -0.0966060981154,   0.2839949727058,  -0.2288687974215},
   {  -0.2905768752098,  -0.2225512117147,   0.0846488401294,   0.1891253143549,   0.1940368413925,   0.0714854300022,  -0.0046272086911,  -0.3379005491734,  -0.3100035488605,   0.2585281133652,   0.3513543605804,  -0.2631940841675,   0.1861551254988,   0.0908056199551,   0.1014155149460,   0.2488765418530,  -0.0287120640278,  -0.2214841097593,   0.4645565748215,   0.1584082543850,   0.2139195501804,   0.3650391399860,  -0.1591048985720,  -0.2708861827850,  -0.1736510097980,   0.1581402570009,  -0.3105260431767,  -0.1181365922093,   0.1389598101377,   0.0750160887837}};
  const float bias_3[30] = {   0.0457466691732,  -0.0324047096074,  -0.0390095114708,   0.0540131777525,  -0.0726734846830,  -0.0046027917415,  -0.0324742086232,   0.0545683465898,   0.0282495580614,  -0.0189715549350,  -0.0349864214659,   0.0998417139053,   0.0349291004241,   0.0753483623266,  -0.0235498528928,   0.0246259346604,  -0.0134966420010,   0.0087982323021,   0.0428929626942,   0.0040449043736,  -0.0572238378227,   0.0249433610588,   0.0642959624529,  -0.0022981946822,   0.1251677572727,   0.0122513324022,  -0.0184682924300,  -0.0414410457015,   0.0561512671411,   0.0091897128150};
  // Declare the arrays in the stack
  const float kernel_4[30][30] = 
  {{  -0.1000544726849,  -0.2554728388786,   0.1145086884499,  -0.3410243988037,  -0.1161280050874,   0.0978600159287,  -0.2337460666895,  -0.1115044057369,   0.1307240575552,   0.3359450101852,   0.1242291629314,  -0.0364749543369,  -0.0550999417901,  -0.0123377805576,   0.0826077237725,  -0.1939493715763,  -0.2900939881802,  -0.3202691674232,   0.1119090914726,  -0.2976440787315,  -0.0980994999409,  -0.2895170152187,   0.3357858061790,  -0.1760793626308,   0.2485751062632,   0.3811856806278,   0.1240073442459,  -0.2544649541378,  -0.0550123527646,   0.1679669767618},
   {   0.1149532422423,  -0.2318626195192,  -0.0561470799148,   0.5468426346779,  -0.1276532560587,   0.0089384317398,   0.1072564572096,  -0.0506475307047,   0.2737510800362,  -0.2953811883926,  -0.4746776819229,  -0.0296656228602,   0.0919181108475,   0.1638273149729,  -0.2547962963581,  -0.0440916381776,  -0.0842613577843,   0.1236442700028,   0.2240277230740,   0.2494669407606,   0.0839375108480,  -0.0260735452175,  -0.0776997655630,  -0.3593975007534,   0.0717242360115,  -0.0510065034032,  -0.3236383199692,   0.0440451800823,  -0.0412603840232,   0.3801449835300},
   {   0.0102157015353,   0.0746772512794,   0.1012459695339,   0.2279987633228,  -0.2856270968914,   0.1921653896570,   0.1969970911741,   0.3049792945385,   0.0736908391118,   0.0619086176157,  -0.2361826598644,  -0.0341238081455,  -0.4975728392601,  -0.1155453026295,  -0.2364559769630,   0.4095234572887,   0.2456846833229,  -0.0811875090003,   0.1997766047716,   0.1091671288013,  -0.2056123167276,  -0.2236168980598,   0.1582583934069,   0.3127368688583,   0.0956415832043,  -0.0939637497067,  -0.1413031816483,  -0.1363062560558,  -0.0306439530104,   0.1346977055073},
   {  -0.0553380511701,   0.3229203224182,  -0.0731888785958,  -0.1161793619394,  -0.2183818072081,   0.3685771822929,   0.1749172508717,  -0.0469562076032,  -0.2314353287220,  -0.0355069302022,  -0.0746165588498,  -0.0550431534648,   0.0297968219966,   0.1391239464283,   0.3100618720055,   0.1061591953039,  -0.3010936379433,  -0.0191675387323,   0.0009191645659,  -0.3103581368923,  -0.2420297712088,   0.0590970031917,   0.3038415014744,   0.3454321920872,  -0.0944558605552,  -0.2350952327251,   0.0328225083649,  -0.0582826063037,   0.1773008704185,   0.0673734545708},
   {  -0.1459126323462,  -0.2172082811594,   0.2894810736179,   0.1643492579460,  -0.2577134966850,   0.2046627998352,  -0.1039668992162,   0.2704292535782,  -0.2526121139526,  -0.1457229405642,  -0.3039626181126,   0.0566731132567,  -0.3431775867939,   0.0335021242499,   0.1267780363560,  -0.2997689545155,  -0.0122615816072,  -0.1652511954308,  -0.1946513950825,   0.1624972969294,  -0.0799616575241,   0.0067199445330,  -0.4508388638496,  -0.1377804726362,   0.2169458717108,   0.3657436072826,  -0.2900755405426,  -0.1696834266186,   0.2825517058372,  -0.2485189288855},
   {   0.1555202305317,  -0.1517768204212,   0.1135655120015,  -0.0649406239390,  -0.0002992968075,   0.2388638406992,   0.1442049592733,  -0.1023169234395,   0.2361483573914,  -0.0508998744190,  -0.1517253965139,   0.3476446866989,  -0.0224373713136,  -0.1853661835194,  -0.2109279781580,  -0.1587814539671,  -0.1725331395864,   0.2605018615723,   0.1824182718992,   0.1888378262520,  -0.1422253549099,  -0.0997949689627,   0.2610896825790,   0.0601266808808,   0.2663703262806,   0.1670384854078,  -0.1646265983582,   0.2351378351450,  -0.3752987086773,  -0.2202971577644},
   {  -0.0331221856177,  -0.1310308128595,  -0.3636874854565,  -0.2348071038723,  -0.0926673933864,   0.0843185484409,   0.0118753127754,   0.2453418225050,   0.0043388507329,   0.1715031862259,  -0.2590654194355,  -0.1526600122452,   0.1996458321810,   0.3046479225159,   0.3330762684345,   0.4194169342518,  -0.1309006214142,   0.1187634617090,  -0.3957038819790,  -0.2661005854607,   0.2043852955103,  -0.0499599874020,  -0.2668412029743,   0.2973970472813,  -0.1429403126240,  -0.0904158279300,  -0.2649270296097,   0.0391545109451,   0.1592938899994,   0.0216026771814},
   {   0.1307196766138,   0.1997153759003,  -0.2006508111954,   0.0425572581589,   0.3375898003578,   0.0693966224790,  -0.2940903306007,  -0.1802414804697,   0.1930144131184,  -0.0258969180286,   0.1295716762543,   0.0527726225555,   0.2423523366451,   0.3269442617893,  -0.1418989300728,  -0.2320655882359,  -0.2111284732819,  -0.3180214464664,  -0.0712926089764,   0.0410468950868,  -0.4329834878445,  -0.2306956499815,  -0.0779725238681,   0.2887481749058,   0.1921298205853,   0.0251311175525,  -0.0658457577229,   0.3171120882034,   0.0411339960992,  -0.3726018965244},
   {   0.2397860139608,  -0.0448854714632,  -0.1814955770969,  -0.4661850631237,  -0.0328014455736,  -0.2875908911228,  -0.3692824840546,   0.4045680463314,   0.1635459065437,  -0.3133611381054,  -0.0244050733745,  -0.0101682255045,   0.4932489395142,   0.2156976163387,   0.1704129129648,  -0.0020173604134,   0.1073857843876,  -0.1213817298412,  -0.1138514801860,   0.1393186599016,  -0.4155897200108,  -0.3814404606819,   0.1060576811433,   0.1949752867222,   0.0867427885532,   0.3333123922348,   0.1900649815798,  -0.0902444124222,  -0.0523861683905,  -0.2311357110739},
   {   0.0790395662189,   0.0897026434541,   0.2278296351433,   0.2121272981167,  -0.2985677421093,  -0.1782679706812,   0.2960226237774,   0.1114569455385,  -0.1061379089952,   0.1302408576012,  -0.1558057665825,  -0.0662044212222,  -0.2726159989834,  -0.2312269508839,   0.0986314490438,   0.1687593162060,   0.0179235339165,   0.0605472698808,   0.1065676510334,  -0.2062454670668,   0.0365509912372,   0.3607037663460,  -0.2856556773186,  -0.0295709017664,  -0.3244824409485,  -0.2281171381474,   0.0309539604932,   0.3506393730640,  -0.0905691459775,   0.2945233285427},
   {  -0.0407596118748,   0.1018236875534,   0.2349542826414,   0.2041349112988,  -0.1327382624149,   0.1419651657343,   0.2334835827351,   0.3034547865391,   0.1250671446323,   0.0993566289544,  -0.1183452010155,  -0.0395436771214,   0.0564644783735,   0.0429553464055,   0.0741146877408,   0.2389147877693,  -0.1431158632040,   0.0585826262832,  -0.1600184291601,  -0.1684516817331,   0.1338298022747,   0.0223920084536,   0.1280260533094,   0.1401695460081,   0.1816816776991,   0.0954637005925,  -0.2245415449142,   0.0434103161097,  -0.2847366034985,   0.0468231923878},
   {  -0.4364415109158,  -0.4191080927849,   0.1427367925644,  -0.3132633864880,   0.1773691922426,   0.1020228564739,  -0.2290138155222,   0.3499598503113,   0.0967647135258,   0.2996394038200,   0.2594270706177,  -0.0514414459467,   0.3956337571144,  -0.2933206856251,   0.3898300528526,  -0.2362539768219,   0.1549343168736,  -0.1150951832533,   0.0897908285260,   0.0082104578614,   0.3926464319229,  -0.5152714252472,   0.0438493043184,  -0.1214587539434,  -0.1427586376667,  -0.0423605926335,   0.4037153422832,  -0.5445470809937,   0.2249758541584,  -0.0214285850525},
   {  -0.2911857068539,  -0.1078353971243,   0.3485966026783,  -0.0173603575677,  -0.2100507467985,   0.1155522316694,  -0.1156758591533,   0.2418941706419,   0.1408865898848,  -0.1090387627482,   0.0013433811255,   0.0927878022194,   0.0124487904832,   0.2707670927048,  -0.0831446722150,  -0.1498619914055,   0.0129520297050,  -0.0087938690558,   0.1271635144949,  -0.0522473603487,   0.1721661239862,  -0.2100033015013,  -0.0329808555543,  -0.1755492687225,  -0.0969034880400,   0.3511010408401,   0.2732654809952,  -0.3063756823540,   0.4219250679016,   0.1779329776764},
   {  -0.0215710103512,  -0.1286403834820,  -0.1180276423693,  -0.0487330108881,   0.1164734736085,  -0.2709637284279,  -0.3295058012009,  -0.0450851805508,   0.0523527041078,  -0.0673349350691,   0.3100891709328,   0.1519153565168,   0.1769051998854,   0.1551596820354,   0.1626995801926,   0.1718681603670,  -0.0592146813869,   0.2775472104549,   0.2500197291374,   0.1819207817316,   0.1004551127553,  -0.1533111929893,  -0.0846620202065,   0.0499327555299,  -0.2862690985203,   0.3165780305862,   0.3459143936634,   0.2149040997028,  -0.2269116044044,  -0.2757956683636},
   {   0.0712914094329,  -0.3103295862675,   0.1390161365271,   0.0029294048436,   0.2799185812473,  -0.0098732514307,  -0.0361822620034,   0.0105049032718,  -0.1632353663445,   0.2561916708946,   0.2938587963581,   0.3775720298290,  -0.2159745544195,   0.1451854109764,   0.0061540212482,  -0.3691463470459,  -0.1636095494032,  -0.1827555596828,   0.3699044287205,  -0.0288353934884,   0.2243132442236,   0.0934527963400,   0.0409789346159,  -0.3572313189507,  -0.2706073224545,  -0.1465904861689,   0.0978422984481,  -0.0955552905798,  -0.0900898352265,   0.0547277294099},
   {  -0.1346149146557,   0.2835809886456,   0.1546956002712,  -0.0621835328639,   0.0228581614792,   0.0412314943969,  -0.1308214366436,   0.2847575843334,   0.1878733187914,   0.2119698971510,  -0.0046020215377,  -0.4291275739670,  -0.3222110569477,  -0.2347297668457,   0.2883854210377,  -0.3662739992142,   0.0795090198517,  -0.0939186587930,  -0.2838029265404,   0.2986349761486,  -0.4022398293018,  -0.1209217533469,   0.1830275505781,   0.3561265170574,   0.3178064823151,   0.1031494513154,  -0.2371716052294,  -0.3189643621445,   0.2802974879742,   0.2054052948952},
   {  -0.1230577528477,  -0.2353804409504,   0.1419783830643,  -0.3012738227844,   0.1236704140902,  -0.0263359658420,  -0.1789942532778,  -0.1153734475374,   0.2515813708305,  -0.0777628272772,  -0.2491467446089,  -0.0326964594424,  -0.0220101792365,   0.2861359417439,  -0.2051117718220,   0.0392117984593,   0.1244307458401,   0.1910614520311,   0.1698948144913,   0.2904444634914,   0.0846582576632,  -0.1997244656086,  -0.1829367280006,  -0.0635903179646,  -0.1210903227329,  -0.2203244864941,   0.1214179247618,  -0.1770438700914,   0.0250256359577,  -0.2386000454426},
   {  -0.1423042565584,   0.0245801042765,  -0.1312006860971,   0.1089466065168,  -0.3620078265667,   0.2074084728956,  -0.3340155780315,   0.1387693583965,   0.0947387963533,   0.0037245962303,  -0.0572702400386,  -0.0575186498463,  -0.1551641523838,  -0.1618614941835,   0.3154478967190,  -0.0560495406389,   0.1523430347443,   0.0053661316633,   0.1693572849035,   0.0804340541363,  -0.1774995774031,  -0.1852496117353,  -0.1343151926994,   0.3229036331177,   0.1902314126492,   0.2501609623432,  -0.1973261088133,  -0.1215045824647,   0.1817705929279,  -0.3234879374504},
   {  -0.2121735364199,   0.1319307982922,  -0.0364803038538,   0.0491903983057,  -0.0901235342026,   0.0799263939261,  -0.0549945607781,   0.0574296265841,  -0.1983356028795,   0.4077416360378,   0.2964822351933,  -0.2005836963654,   0.3576330542564,   0.0324735306203,   0.1363620460033,  -0.2904117405415,   0.2226151525974,   0.0869050770998,  -0.0312528759241,  -0.1471647769213,   0.0302841383964,   0.3439663946629,   0.2254665941000,  -0.4488725066185,  -0.0857950001955,   0.4390935301781,   0.3133309781551,  -0.4250189065933,  -0.4563706815243,   0.0635138303041},
   {  -0.1448642313480,  -0.1104493439198,  -0.0106528410688,   0.1581182181835,  -0.0505954995751,  -0.2408184111118,   0.3388243019581,  -0.2372881323099,  -0.0602609068155,   0.2148944884539,   0.0772570148110,  -0.2259142845869,   0.1317329257727,   0.2282733619213,  -0.0543007515371,  -0.1310785710812,   0.0398771129549,   0.0045591285452,   0.3625725805759,  -0.1489502489567,   0.0823904722929,   0.0655924901366,   0.0490362234414,  -0.1132464185357,   0.0387877635658,  -0.1116582378745,   0.0428230315447,   0.0407330989838,   0.1512111425400,  -0.2113220989704},
   {   0.3691726922989,  -0.1961044222116,   0.2248444408178,   0.2493238747120,   0.2728886306286,   0.3061498105526,   0.3142199516296,   0.1860643327236,   0.2685464620590,  -0.1378598511219,  -0.2473666071892,   0.0276417285204,  -0.3846272826195,  -0.1224111318588,  -0.3480779230595,  -0.1584080457687,   0.1295933425426,   0.1830263435841,   0.0904940143228,  -0.2244185805321,  -0.0023922789842,  -0.0489270947874,   0.1796340197325,  -0.0037939692847,   0.2426339089870,   0.0352414697409,  -0.3389749825001,  -0.2579924464226,  -0.0629091784358,  -0.2404006868601},
   {   0.3661547005177,   0.2169258743525,  -0.0544293113053,   0.3536680340767,  -0.2501276135445,   0.2657049596310,   0.1737845689058,  -0.1401573121548,  -0.0100807864219,   0.0684387460351,   0.1653493046761,  -0.2810285985470,  -0.1947482079268,  -0.2463281750679,  -0.1527204960585,   0.3265112638474,  -0.0176198482513,   0.2750960886478,  -0.0901659801602,  -0.1546862125397,  -0.1496086120605,   0.2610340714455,  -0.0458061434329,   0.1375884413719,  -0.2409989088774,   0.1363865286112,   0.1431966423988,   0.1051887646317,  -0.0541712306440,   0.2866047024727},
   {  -0.0169138442725,  -0.1490143090487,  -0.3648636937141,  -0.3487378656864,  -0.1429639160633,  -0.1819411367178,   0.0981944203377,   0.3612908720970,  -0.3098696768284,  -0.0276485383511,   0.1476099789143,   0.0971193611622,   0.1734585016966,  -0.0446609780192,   0.3029661178589,  -0.2041043788195,  -0.3111944198608,  -0.3871191143990,  -0.2822240889072,   0.0693958252668,  -0.0431238301098,   0.0601275786757,  -0.3641911447048,   0.4092661738396,  -0.0569602511823,   0.0221067089587,  -0.1265306323767,  -0.2679043710232,   0.0708953887224,   0.1309120953083},
   {   0.0041466066614,  -0.0800330564380,  -0.0973615497351,   0.0580706782639,  -0.3521782159805,  -0.3078983724117,   0.3245066404343,  -0.0484690070152,  -0.1489159464836,   0.3005870580673,  -0.2151867151260,   0.2466531544924,  -0.1122602298856,   0.1520040929317,  -0.3009220063686,   0.0453956015408,  -0.2118931710720,  -0.1232232227921,   0.0015856613172,   0.2570679485798,  -0.1135765835643,   0.1558479368687,   0.2029803544283,  -0.3087189197540,  -0.0811311677098,  -0.2619158029556,   0.2368355840445,   0.0537655130029,  -0.0362646430731,   0.0053705135360},
   {   0.0915304645896,   0.0460056848824,   0.2218660563231,   0.0176929850131,  -0.4031297564507,   0.3265783786774,  -0.0043139141053,  -0.1731139570475,  -0.1392513662577,   0.1373966038227,  -0.2862463593483,   0.1707194298506,   0.1503487080336,   0.3041819632053,   0.3565350472927,  -0.1922537088394,  -0.3074780702591,  -0.0347119010985,  -0.0810356959701,  -0.2934975922108,   0.1727852523327,   0.3629020452499,   0.3018392622471,   0.1119473949075,  -0.0393780954182,   0.1958961337805,   0.4318260550499,  -0.2244973331690,   0.3369452655315,  -0.0839480161667},
   {   0.0583914108574,   0.2537074983120,  -0.0425278469920,  -0.0854543372989,   0.2242562621832,   0.1443929523230,   0.1666512042284,  -0.2681116163731,  -0.1938007324934,   0.0218893680722,  -0.1993803083897,   0.2758937478065,  -0.2346338629723,   0.0905969515443,   0.0394894443452,  -0.2151291370392,  -0.1145897880197,  -0.0696849077940,  -0.1528943181038,   0.1474939137697,   0.0630410611629,   0.3161828815937,   0.2867746353149,  -0.3887044191360,  -0.2065316289663,  -0.0593863986433,   0.4097879827023,   0.0198532752693,  -0.4477132856846,  -0.2137066721916},
