#include "LatinoAnalysis/MultiDraw/interface/TTreeFunction.h" 
#include "LatinoAnalysis/MultiDraw/interface/FunctionLibrary.h" 
#include "TSystem.h" 
#include "iostream" 
#include "vector" 
#include "TLorentzVector.h" 
#include "TMath.h" 
#include "TSystem.h" 
#include <map> 
#include "TString.h" 
#include <string.h> 
class AddDNNScoresv7 : public multidraw::TTreeFunction {  
	public: 
		//Class Constructor  
		AddDNNScoresv7(char const* name); 
		//Class Destructor  
		~AddDNNScoresv7() { 
   		} 
		//Functions from Multidraw namespace (TTreeFunction class) 
		char const* getName() const override {return "AddDNNScoresv7"; } 
		TTreeFunction* clone() const override {return new AddDNNScoresv7(name_.c_str());} 
		unsigned getNdata() override {return 1; } 
		//This function will return the required value 
		double evaluate(unsigned) override; 
 
	protected: 
		void bindTree_(multidraw::FunctionLibrary&) override; 
 
		//name of the required ME 
		std::string name_; 
 
		//Needed variables to select the events 
		TTreeReaderValue<float> *mll{}; 
               TTreeReaderValue<float> *ptll{}; 
               TTreeReaderValue<float> *drll{};
               FloatArrayReader* Lepton_eta{};
               FloatArrayReader* Lepton_phi{};
               FloatArrayReader* Lepton_pt{}; 
               IntArrayReader* CleanJet_jetIdx{}; 
               FloatArrayReader* Jet_qgl{}; 
               FloatArrayReader* Jet_btagDeepFlavB{};
               FloatArrayReader* Jet_eta{};
               TTreeReaderValue<float> *pt1{}; 
               TTreeReaderValue<float> *pt2{}; 
               TTreeReaderValue<float> *mth{}; 
               TTreeReaderValue<float> *mjj{}; 
               TTreeReaderValue<float> *dphijj{}; 
               TTreeReaderValue<float> *PuppiMET_pt{}; 
               TTreeReaderValue<float> *dphillmet{}; 
               TTreeReaderValue<float> *mcollWW{}; 
 
	private: 
		Double_t LHCsqrts_= 13., mh_= 125.; 
 
}; 
	AddDNNScoresv7::AddDNNScoresv7(char const* name): 
		TTreeFunction() 
	{ 
		name_ = name; 
	} 
 
	double 
	AddDNNScoresv7::evaluate(unsigned) 
	{
            const float weight_0[60][19] = {{-0.331320226192, -0.0114770913497, 0.122424267232, 0.137052133679, -0.221817791462, -0.0220823548734, 0.219941422343, 0.100744791329, -0.00798442028463, 0.373048782349, -0.460833251476, -0.115094423294, -0.130065321922, 0.01144560799, -0.180209070444, 0.0726514905691, 0.00653409631923, -0.0445854179561, 0.289368093014}, 
                {0.509887576103, 0.0714384764433, 0.0281735565513, 0.130671426654, -0.224775791168, 0.277866065502, -0.173417568207, -0.225394666195, 0.345601201057, -0.111986942589, -0.422559320927, 0.0653415620327, -0.086223974824, 0.109105728567, -0.5138245821, -0.0371627174318, 0.121705494821, 0.0121870394796, -0.149111866951}, 
                {0.33707177639, -0.0309797544032, -0.0280376449227, 0.0376921184361, -0.0385457761586, -0.362088561058, 0.0233368612826, -0.406237393618, -0.31164765358, -0.40671390295, -0.261878043413, -0.0492070019245, 0.0424690134823, -0.150518193841, -0.495566666126, 0.17931291461, -0.0138443903998, -0.0137803964317, 0.0982374548912}, 
                {-0.16513197124, -0.0646318420768, -0.066019654274, -0.0675514414907, -0.0460571944714, -0.0855562984943, -0.0124015947804, 0.109077259898, 0.0783581659198, -0.131485760212, 0.256094247103, 0.22457921505, 0.302302658558, -0.00173791940324, -0.115486510098, 0.0515404753387, 0.0739251002669, -1.35451996326, 0.0878817662597}, 
                {0.222099065781, -0.00255684857257, 0.0304757561535, -0.121993407607, -0.00910627562553, -0.0413637459278, -0.00319066341035, 0.0861962661147, 0.0767192468047, -0.0225260555744, -1.07183110714, 0.0481490194798, 0.202767491341, -0.099905654788, 0.122100837529, 0.0853982195258, -0.0934579595923, -0.0285405255854, -0.0121231516823}, 
                {0.0868539512157, 0.0243194773793, 0.0702735632658, -0.0165545064956, -0.0169235244393, -0.06281042099, -0.0856463387609, 0.173854872584, -0.047639362514, -0.0301505252719, 0.306636452675, 0.774018406868, -0.839565873146, -0.0973257869482, 0.0656217560172, -0.0424396060407, 0.000596695928834, 0.0087324930355, 0.0437158606946}, 
                {0.147657930851, 0.131860136986, -0.00115959672257, 0.239420980215, -0.27381375432, 0.215782925487, 0.224903702736, -0.089250266552, 0.429985582829, -0.167505592108, 0.159217983484, 0.133033931255, -0.0340621136129, -0.0690681785345, -0.168035849929, -0.193731978536, 0.130269870162, 0.159323528409, -0.0542951561511}, 
                {0.12281960994, 0.0903891324997, -0.0223829708993, -0.0119528379291, 0.0631092712283, -0.157736718655, -0.1653778404, -0.258906543255, 0.208253279328, -0.127239078283, 0.664700031281, 0.174657434225, -0.1628126055, 0.0154097750783, 0.0751442909241, -0.199826180935, -0.106754988432, -0.0793038755655, 0.0417537242174}, 
                {-0.00249232165515, -0.0234802439809, -0.0413635969162, -0.121233694255, -0.156705737114, 0.0657037124038, -0.0237076450139, 0.0140436086804, 0.136917844415, 0.263308346272, 0.107092291117, 0.877187430859, -0.162800431252, -0.0156448874623, 0.0203890502453, -0.0864553004503, -0.0678527578712, 0.0370390564203, -0.314855694771}, 
                {0.228627979755, 0.0169329624623, -0.409127414227, -0.14598557353, 0.00102353841066, -0.0983897820115, 0.0837865024805, 0.328957855701, 0.436521708965, -0.0427291318774, -0.135735452175, -0.143430516124, -0.00893546361476, 0.298647969961, 0.0876310914755, 0.258910447359, -0.112411007285, 0.341147691011, 0.205916047096}, 
                {-0.621370792389, -0.0115641131997, 0.048812571913, -0.0542218014598, 0.0969185978174, -0.0221991743892, -0.438271909952, -0.0658864974976, -0.181866407394, 0.0249735061079, 0.21923302114, -0.068884678185, -0.0386299900711, -0.109723165631, -0.0348650887609, 0.0658801347017, -0.0530302114785, -0.238864734769, 0.161189824343}, 
                {-0.13226133585, -0.00116879306734, 0.0215894579887, 0.155928403139, 0.228890672326, 0.024378022179, -0.0157005954534, 0.211465418339, 0.218403890729, 0.0401749797165, -0.0494615510106, -1.07690095901, 0.114594638348, -0.012600408867, 0.013927676715, -0.0572806373239, 0.0244019553065, 0.0284761507064, -0.261507958174}, 
                {1.35921514034, -0.0516721531749, -0.00873434729874, 0.0752894207835, -0.0388023294508, -0.123905532062, 0.307450920343, 0.402464836836, -0.186637058854, -0.276146233082, 0.191395446658, -0.157468274236, -0.0439974814653, 0.0326809026301, 0.603779017925, 0.179943114519, 0.0567999109626, 0.0426629632711, 0.0322796888649}, 
                {-0.3292273283, -0.0126929972321, 0.00351575878449, 0.282871961594, -0.0291661098599, 0.0955729857087, 0.162389814854, -0.480677783489, -0.538389503956, 0.129907399416, 0.335635662079, 0.0264256037772, 0.0217785630375, 0.0726447030902, -0.162091687322, -0.198254391551, -0.156930983067, -0.121524550021, 0.161310002208}, 
                {0.144359275699, 0.114852853119, 0.146946579218, -0.0172051154077, -0.251799970865, -0.0727251321077, 0.147319078445, 0.0165629219264, -0.252736777067, -0.287233620882, 0.0280426237732, -0.302686274052, -0.229737013578, 0.210915192962, -0.45651113987, 0.0608285479248, -0.1468744874, -0.0108591653407, 0.101757735014}, 
                {0.00248217303306, 0.00813057273626, -0.00340203708038, 0.0452291965485, -0.0706827715039, -0.0109517527744, -0.0899114534259, -0.193555161357, -0.3011752069, 1.74316489697, -0.0349945314229, 0.0438395179808, -0.0187425334007, 0.0121254334226, 0.279214322567, -0.028037795797, -0.321248888969, -0.0240398086607, -0.0347316749394}, 
                {-0.745634496212, -0.0172222815454, -0.00899763591588, -0.079957023263, 0.0880972221494, -0.123874887824, -0.321438342333, 0.101338773966, -0.102870509028, -0.237141862512, 0.000153282948304, 0.0267969146371, 0.0368170961738, 0.0197963118553, -0.0566037930548, 0.136497378349, -0.271532833576, 0.153212562203, 0.202041208744}, 
                {0.144137129188, -0.0388861894608, 0.0477880947292, -0.0622377023101, -0.0110076311976, -0.139970824122, 0.208779230714, 0.401970624924, -0.00908109359443, 0.220594927669, 0.0244382098317, -0.233078554273, -0.217811882496, 0.00390879623592, 0.369452178478, -0.0718151628971, 0.0329615958035, -0.853701114655, -0.409352362156}, 
                {0.390604138374, 0.0512081384659, 0.0373178459704, 0.391056865454, 0.0901935175061, 0.258439004421, -0.0760171562433, -0.27222853899, -0.0675108134747, 0.0447121784091, 0.206234231591, -0.450539886951, -0.537471354008, 0.0333357602358, 0.192849114537, -0.153959348798, 0.150629997253, 0.167633235455, 0.179713845253}, 
                {-0.17683647573, 0.0489647425711, 0.0341286063194, -0.119455672801, -0.0548962764442, 0.338079035282, -0.095115929842, -0.204036742449, 0.328874439001, -0.418854087591, -0.22911901772, -0.0670862048864, -0.0117512634024, -0.11930692941, -0.245251178741, 0.0567052029073, 0.24013479054, 0.000704230624251, -0.0558731481433}, 
                {-0.0716007426381, 0.0545197837055, 0.0555813796818, 0.138265475631, -0.0729329660535, 0.555120110512, -0.167481511831, 0.122554451227, -0.280954450369, -0.305773675442, -0.101954467595, -0.0427530370653, 0.217203035951, -0.209085911512, 0.0879859849811, 0.165105164051, -0.119886502624, 0.152864724398, 0.163818493485}, 
                {0.000510107260197, 0.0125985834748, 0.0336709320545, 0.141306713223, 0.128335639834, -0.0101188635454, 0.00660674739629, 0.116261176765, -0.0446729436517, -0.0388913974166, -0.00798610132188, 0.365585803986, -1.16337800026, -0.0027512004599, 0.0509283319116, 0.00735688162968, -0.00785883236676, -0.0376743040979, 0.0229783374816}, 
                {-0.0746448412538, 0.0507804080844, -0.0398701801896, -0.0106444200501, 0.0457743778825, -0.244075700641, -0.033079624176, -0.0812863856554, 0.0618142597377, 0.321145474911, 0.293005287647, -0.588278055191, -0.00680015748367, 0.0406845137477, -0.205949753523, 0.0296981763095, -0.0428229831159, 0.152024298906, -0.0771670490503}, 
                {-0.00647113332525, 0.0304515119642, -0.0290005616844, -0.166731357574, -0.200718283653, -0.0756475031376, 0.00242153694853, 0.38875323534, -0.312419623137, -0.0291180126369, -0.44480201602, 0.55952757597, 0.320805281401, -0.0361197330058, -0.165616974235, -0.0415805801749, -0.0108730196953, 0.266258090734, -0.0613334849477}, 
                {-0.40544718504, 0.00858429446816, 0.0259506162256, -0.295352905989, 0.294873118401, 0.0201093517244, 0.107105508447, 0.0755049288273, -0.550599575043, -0.325510799885, -0.13980935514, -0.092879973352, 0.0209934934974, -0.0141007667407, -0.176709920168, -0.014847215265, 0.132371097803, 0.000694159418344, -0.0392681397498}, 
                {-0.143047749996, -0.14226359129, -0.0299053173512, 0.174322813749, -0.0440045967698, -0.452946424484, -0.0526841431856, -0.301475137472, -0.666151821613, -0.336072534323, 0.193012982607, -0.0810363218188, 0.0267315842211, 0.0360337719321, -0.0977820530534, 0.0862317532301, 0.134051412344, 0.269836395979, 0.102730721235}, 
                {-0.0104691479355, 0.0547979474068, 0.0807639285922, 0.0249845292419, -0.0688554868102, -0.531515598297, 0.0153446756303, 0.320767015219, -0.163148254156, 0.247884064913, -0.37206107378, 0.588081359863, -0.397795259953, -0.120783768594, -0.237003341317, 0.272808015347, -0.211704835296, 0.106163337827, -0.064545750618}, 
                {0.147143632174, -0.0579583123326, -0.0190836954862, -0.459151089191, -0.285714954138, 0.342360764742, 0.034341789782, -0.388227581978, -0.0486603975296, 0.0676777362823, -0.0106138056144, 0.151171118021, 0.0476713553071, 0.11183244735, 0.170515924692, -0.130605563521, -0.38236361742, 0.117032207549, -0.111360684037}, 
                {0.0473207235336, -0.00752816582099, 0.0565026476979, -0.358252048492, -0.19969920814, -0.0296701155603, 0.024876203388, 0.177406519651, 0.0474319308996, -0.0841099321842, -0.0642016604543, 0.782491028309, 0.679162740707, -0.0376749932766, 0.145516753197, 0.0884062349796, -0.0551161952317, 0.0977174937725, 0.103962816298}, 
                {0.169620484114, -0.0907295942307, -0.0740654021502, 0.0106809698045, 0.0572874546051, 0.0154857141897, 0.027166614309, 0.289681226015, 0.319202452898, 0.0264229197055, -0.102699294686, -0.0229791365564, -0.0313494428992, 0.0173201076686, -0.077575571835, -0.0951287001371, -0.060973893851, 0.123355276883, 0.316259950399}, 
                {-0.543857336044, 0.0348893329501, 0.0178507827222, -0.0389200411737, -0.0576467327774, -0.0762914940715, -0.0712625458837, -0.0808490365744, -0.48381254077, -0.510049819946, 0.128131687641, 0.105849049985, 0.00658999150619, -0.0109413107857, 0.205641910434, 0.00163113325834, -0.0921594202518, -0.115996345878, -0.0397306382656}, 
                {0.111946240067, -0.0526572726667, -0.0256003495306, 0.415704697371, 0.358325302601, 0.161738708615, -0.0791899338365, -0.293888449669, -0.253815889359, 0.0840595960617, -0.0541834942997, -0.307719320059, -0.27796921134, 0.100331127644, 0.0687641873956, -0.048114079982, -0.234682127833, -0.0260995961726, -0.112595237792}, 
                {0.179266601801, 0.0717167332768, 0.0557405725121, -0.0823638886213, 0.0132186282426, -0.120723076165, -0.0296441055834, 0.315083354712, 0.0219503697008, 0.294619739056, 0.0399286858737, -0.417558312416, 1.02122926712, -0.119067311287, 0.0273772962391, -0.0847830921412, -0.104041494429, 0.0585812963545, 0.101434379816}, 
                {-0.249800235033, -0.0142891760916, -0.123836405575, -0.0782416313887, 0.247583255172, 0.315054118633, -0.375967770815, 0.243858456612, 0.199096366763, 0.0294302068651, -0.0260457899421, 0.100148998201, 0.0942927077413, 0.18558165431, -0.390441030264, -0.237702310085, -0.0270704030991, -0.0302472766489, -0.176246538758}, 
                {0.142240449786, 0.00200886721723, 0.00574840698391, 0.197354599833, 0.189653784037, -0.00784892961383, -0.0426757857203, -0.0303865913302, 0.10008738935, -0.0743403360248, -0.548875451088, 0.00113447557669, -0.624001979828, -0.142250522971, 0.136658772826, 0.090016707778, -0.0543426126242, -0.406821876764, -0.0576436929405}, 
                {-0.120881587267, 0.0479972325265, 0.0166758559644, -0.00398689741269, 0.1692404598, -0.113292589784, -0.0129485186189, 0.136655539274, 0.147444725037, -0.119146473706, -0.603216946125, -0.0576683729887, 0.0273122154176, 0.0849631875753, -0.140191480517, 0.149926260114, -0.123302705586, -0.593236088753, -0.330044716597}, 
                {-0.0184831451625, 0.00534807657823, -0.00164364825469, 0.0550575405359, -0.034464944154, -0.0479898378253, -0.0661565959454, -0.0710903927684, 0.160006582737, 0.211594238877, 0.0402210354805, 0.0049935746938, 0.00631301244721, 0.0811071619391, 0.00364770996384, -0.104938194156, 0.194972634315, -0.0794872045517, -1.62613618374}, 
                {-0.35227522254, 0.00664363056421, -0.119617700577, 0.109007671475, -0.228340744972, -0.164727926254, -0.111415699124, 0.0601837784052, -0.552379488945, -0.15621624887, 0.102466620505, 0.0212752241641, 0.0119691155851, 0.0791173502803, -0.263930946589, 0.0790265798569, -0.12109528482, -0.111780591309, 0.0177105758339}, 
                {0.0752001851797, 0.192829981446, -0.0379487909377, -0.00472815474495, -0.00673364615068, 0.44550293684, -0.0475472472608, -0.0594075657427, -0.0446679703891, 0.21338018775, -0.327520221472, -0.326882570982, -0.0364149175584, -0.0396619439125, -0.159188404679, 0.0687782764435, -0.24637787044, -0.121507547796, 0.0665841251612}, 
                {0.577023863792, 0.0316011458635, 0.045851893723, -0.304266661406, 0.269777268171, 0.296657890081, -0.157221481204, 0.0739512518048, -0.261427015066, 0.100043982267, -0.155856028199, 0.0965796411037, 0.0602402165532, 0.081840954721, -0.168869420886, -0.207733929157, -0.317654371262, -0.0190744195133, 0.083576746285}, 
                {0.0854489132762, -0.0503494814038, -0.0267688315362, 0.175571620464, 0.0974550172687, -0.185136660933, 0.0569794401526, -0.00946113932878, -0.0206329077482, 0.246200338006, -0.592676222324, -0.40786999464, -0.107367657125, -0.138852477074, -0.28020259738, 0.108683139086, 0.0159247424453, 0.129215359688, 0.0862231999636}, 
                {0.232604980469, 0.0147456256673, 0.0520366542041, -0.119789272547, 0.0113816289231, 0.0979436039925, 0.0398616939783, -0.257399946451, -0.0468524508178, 0.0598382093012, -0.130843698978, -0.111051417887, -0.0463130585849, -0.810175359249, -0.0067382468842, -0.00774243427441, 0.038128387183, 0.0161993149668, -0.023909561336}, 
                {0.152054205537, -0.0328944250941, -0.123965620995, 0.237680256367, -0.135830506682, -0.0373493507504, 0.448503136635, 0.0188845004886, 0.246375486255, 0.364316940308, -0.134306311607, 0.0882236212492, 0.202167347074, -0.0135176824406, 0.402829647064, 0.119825959206, -0.125930279493, -0.0267367493361, 0.0156962312758}, 
                {0.258230686188, 0.0414534509182, 0.206501975656, -0.27166929841, 0.0782195925713, 0.104686245322, 0.0934313088655, 0.224902227521, -0.118867389858, -0.13887809217, -0.00841817259789, 0.0744280219078, -0.0732691958547, 0.0544161237776, 0.664452970028, -0.120461374521, 0.121826089919, 0.139380425215, -0.231105774641}, 
                {-0.0712911263108, 0.0814662575722, 0.101669669151, -0.10869076103, 0.221535667777, 0.135955289006, 0.255549758673, -0.066007450223, -0.0749716758728, 0.18590182066, -0.0432793274522, 0.40768378973, 0.365792095661, 0.113587588072, -0.0624547451735, 0.0235354136676, 0.21909224987, -0.00129403325263, -0.166022062302}, 
                {0.0969853550196, 0.0512959994376, -0.175623506308, -0.0801540836692, -0.0422008931637, -0.115108661354, 0.00440954323858, 0.118796616793, 0.142459690571, 0.443196088076, -0.125850275159, 0.031979650259, 0.280699372292, -0.31551322341, 0.268410712481, -0.319842427969, 0.27682647109, -0.00347230327316, -0.0695669427514}, 
                {0.0036866478622, -0.181831777096, 0.0321024917066, -0.0132490359247, -0.0707967802882, 0.342880934477, -0.0892514362931, 0.105208083987, 0.308842927217, 0.0300934482366, 0.330365985632, 0.0339980870485, 0.0276259817183, 0.179323777556, -0.507759869099, 0.224126502872, -0.368626564741, 0.164980590343, -0.296469449997}, 
                {-0.491078823805, 0.0871055722237, 0.0240886490792, 0.0957877114415, -0.217126592994, -0.0595386438072, -0.20217128098, -0.0800066068769, 0.0209611058235, -0.298672556877, -0.111420623958, -0.197081640363, 0.195816248655, 0.0265352744609, -0.249720916152, 0.0601106882095, 0.0988162532449, 0.036598790437, -0.104460783303}, 
                {0.096720226109, -0.0888647958636, -0.051903758198, 0.139022678137, -0.177689582109, 0.0899537578225, 0.0489277094603, -0.0115429861471, -0.0893468484282, -0.0501101315022, 0.137501582503, -0.626916050911, 0.576546251774, 0.0674856156111, 0.0828611552715, -0.00158545398153, -0.0835330933332, 0.118241876364, 0.0875632539392}, 
                {-0.270356506109, 0.0773252174258, 0.0919665694237, -0.0507048591971, -0.00338711915538, 0.132901266217, -0.081058613956, -0.301597565413, 0.134127780795, 0.753081440926, 0.228525713086, 0.0384666100144, -0.122410006821, -0.137176275253, -0.0187679827213, 0.332197010517, 0.0295347105712, 0.0106157166883, 0.18709756434}, 
                {-0.299201667309, 0.0221633892506, -0.0718435049057, 0.174292758107, 0.0979763939977, -0.0890373960137, 0.242865636945, 0.0827514082193, -0.541559457779, -0.512017190456, -0.138003021479, 0.10926438123, 0.18288937211, -0.0701819807291, 0.0711033567786, 0.0410191267729, -0.207926541567, -0.091017216444, -0.184122040868}, 
                {-0.387789577246, 0.00955889187753, 0.0259609427303, 0.0284760445356, -0.04635746032, 0.350705713034, -0.303851336241, -0.251959681511, 1.1018487215, 0.0684732198715, -0.0515304096043, 0.00302682211623, 0.0496888160706, 0.0301149170846, 0.247991755605, -0.0565481670201, -0.396302849054, 0.0451633259654, -0.0418655127287}, 
                {-0.0958821102977, 0.0246549788862, 0.128514975309, -0.115919299424, 0.0101962229237, -0.026520261541, 0.0287306383252, -0.985861420631, 0.283523201942, 0.0448910146952, 0.00975433271378, 0.170633718371, -0.133412003517, 0.0986015722156, 0.292228907347, 0.14086894691, 0.312536984682, -0.126478761435, 0.163443952799}, 
                {-0.119219459593, 0.0183665435761, 2.07769917324e-05, -0.00943485833704, -0.283535510302, 0.0627989172935, -0.0266469493508, 0.0634744688869, -0.177734583616, 0.00633376184851, -0.723621785641, 0.0202411022037, 0.301410168409, 0.134731188416, 0.102921962738, -0.105858415365, 0.130581527948, -0.145083144307, -0.102622970939}, 
                {0.381912887096, -0.0208133775741, -0.091237641871, -0.0104870758951, -0.0615878365934, 0.466640651226, -0.0887762084603, -0.262522816658, -0.205870881677, -0.0897761583328, 0.636763870716, 0.0312010794878, 0.0753936469555, 0.566205382347, -0.095141209662, -0.0425790026784, 0.0807930827141, -0.0222769286484, 0.0349576324224}, 
                {-0.356998771429, 0.0538161285222, -0.0216505918652, -0.449032783508, -0.0101296296343, 0.0527917854488, -0.0203359983861, 0.195228591561, -0.322711467743, -0.0636965855956, 0.409571260214, -0.224577248096, -0.117056526244, 0.043196670711, 0.0125063098967, 0.0165074430406, -0.091443233192, -0.110261529684, 0.130064457655}, 
                {-0.0326624922454, 0.0118183959275, -0.0367339923978, 0.0433988980949, 0.202209383249, -0.187438249588, -0.163843050599, -0.221202209592, 0.0261281430721, 0.100884020329, 0.68895894289, -0.0218357685953, 0.0842133462429, -0.0950618833303, -0.556762158871, 0.0734628066421, -0.26934248209, 0.0614242255688, 0.103398121893}, 
                {-0.0407709851861, 0.00259410589933, -0.0520186983049, -0.0492888949811, 0.116191320121, -0.302313506603, 0.0748358294368, 0.129045054317, -0.078138038516, 0.346556693316, -0.795487582684, -0.0293473266065, -0.186356067657, 0.12819673121, 0.0381775870919, -0.252020508051, 0.0520074889064, 0.231652379036, -0.297201663256}, 
                {-0.577109336853, -0.0535741224885, -0.119088277221, 0.0478647425771, -0.0132338898256, -0.00925256777555, -0.453196763992, -0.0910839065909, -0.379685044289, -0.252404272556, -0.0897653400898, -0.178266987205, -0.073753349483, 0.133049160242, 0.24875074625, 0.0189958643168, -0.207308083773, 0.155542761087, -0.0959953069687}, 
                {-0.59644138813, 0.0654867440462, 0.0765140429139, -0.0294299479574, -0.0859741643071, -0.306437730789, -0.417451173067, 0.0684164986014, 0.00361573742703, -0.194810166955, 0.196488633752, 0.103877492249, -0.0908963531256, -0.0729224905372, -0.135948956013, -0.00298862229101, 0.0178472641855, 0.0940285250545, -0.190781027079}}; 
            const double bias_0[60] = {0.278212606907, 0.0857928991318, -0.693804383278, 0.0871921107173, -0.153240785003, 0.0727603211999, 0.485228866339, 0.357596367598, -0.233898475766, 0.214828297496, -0.427723914385, -0.269420921803, -0.116522751749, 0.146661192179, -0.221322864294, 0.088863670826, -0.373706907034, 0.394706130028, 0.184402063489, -0.00767755042762, -0.201692134142, -0.0550857782364, 0.44814273715, -0.0579888522625, -0.246608823538, -0.481593370438, -0.0876807719469, 0.0302588436753, -0.309998452663, 0.627467870712, -0.334324032068, 0.199535995722, 0.0247042365372, -0.386249870062, -0.0835380554199, -0.21655446291, 0.0112226996571, -0.254518538713, 0.0679275467992, 0.0288501642644, -0.138295158744, 0.177480787039, 0.405520737171, 0.563595235348, 0.284591108561, 0.303560942411, 0.391409933567, -0.184638828039, 0.445402920246, 0.469166427851, -0.139659315348, -0.376996397972, 0.0566875040531, -0.0999898016453, -0.00410794699565, -0.112998902798, 0.17367592454, -0.0192532297224, -0.293604642153, -0.505088925362}; 
            const float weight_1[30][60] = {{-0.053210824728, 0.129331067204, -0.448239564896, 0.195755183697, 0.209295660257, -0.136940404773, 0.221979618073, 0.433638811111, -0.536809504032, 0.117629542947, 0.133634328842, -0.935780644417, 0.00478263199329, 0.365870267153, -0.335796236992, -0.00863515492529, -0.311301976442, 0.729131221771, -0.296707004309, 0.0161881353706, -0.0801727697253, -0.169715479016, -0.271554380655, -0.41431838274, 0.16038018465, 0.0567685961723, -0.0769980549812, -0.0292153377086, -0.189600214362, -0.183948487043, 0.174217626452, -0.497948676348, 0.264015644789, 0.0285884775221, 0.0690891221166, 0.0202185790986, -0.287514895201, -0.0394152253866, -0.0732573717833, 0.0181441530585, 0.118572182953, -0.18447086215, -0.148123338819, -0.246886640787, 0.119593366981, 0.0226454455405, 0.180020496249, 0.0787066966295, 0.09561534971, 0.229565680027, -0.00305566377938, -0.0234844405204, -0.191402480006, 0.00213791965507, 0.106401577592, 0.0282667204738, 0.298163205385, 0.0306957289577, -0.00582444155589, 0.185886651278}, 
                {0.0979338809848, 0.171313211322, 0.340920448303, 0.357162445784, -0.478499889374, 0.00271955132484, -0.112743712962, 0.242678493261, 0.510052502155, 0.133919820189, 0.215782910585, -0.945939779282, -0.212012708187, 0.122908659279, -0.148788258433, -0.101014398038, -0.0859930887818, -0.0179422609508, -0.253870993853, 0.019589908421, -0.00815914571285, -0.809723615646, -0.348519146442, -0.246724918485, -0.12313824147, -0.0448222719133, -0.134620189667, 0.319461882114, 0.000236069899984, 0.183312639594, 0.335157841444, -0.194316253066, -0.365765810013, 0.0352075025439, -0.114015415311, -0.0915009826422, -0.00433113332838, 0.0975367277861, -0.01350976713, -0.0386164858937, 0.129279047251, 0.143384516239, 0.227583140135, 0.0909064039588, 0.051247280091, -0.113031469285, -0.0498643778265, 0.00320716761053, -0.275448769331, 0.0970776081085, 0.0656620040536, 0.0972178205848, 0.143517673016, -0.420290976763, 0.225119829178, -0.230268523097, -0.076825723052, -0.271691322327, 0.0378385186195, -0.160407155752}, 
                {0.0927972346544, 0.158356279135, 0.0809430330992, -0.189826160669, 0.0511629655957, 0.0954251661897, 0.0965956151485, -0.215654745698, 0.0478268712759, 0.240786641836, 0.0803415253758, -0.083709128201, 0.00224930001423, 0.191501483321, -0.118738800287, -0.0432501472533, 0.282052874565, 0.0167587734759, -0.130847722292, 0.148449212313, 0.169964239001, -0.0841712579131, -0.142094984651, -0.0532006956637, 0.363449037075, 0.305576056242, 0.341924637556, 0.0446295812726, 0.208602309227, 0.122885935009, -0.162762776017, 0.201577365398, 0.129189223051, 0.0387939214706, -0.086546882987, 0.0185730624944, 0.20800280571, 0.117358908057, 0.152119800448, -0.170918375254, -0.234989017248, -0.15806953609, 0.237899407744, 0.0574297606945, -0.0407055914402, -0.0600636564195, 0.346299856901, -0.13321082294, 0.12617406249, -0.192272976041, 0.22751031816, 0.307984322309, 0.146664351225, 0.071403555572, -0.0706160664558, -0.213295906782, -0.391781002283, 0.19911442697, 0.296461164951, -0.0107820527628}, 
                {0.131300806999, -0.307334035635, -0.119561240077, -0.345997214317, -0.127032503486, -0.31431043148, 0.0278796106577, -0.168343439698, 0.0911896973848, 0.468842357397, 0.128656581044, 0.391181260347, 0.483717918396, 0.207893848419, 0.370102912188, -0.0865047723055, 0.101589336991, -0.305312901735, 0.0561240129173, -0.130741849542, 0.0878487750888, 0.138042017817, 0.222411006689, 0.267605513334, 0.108125470579, -0.122874222696, 0.149339690804, 0.120133921504, 0.101530820131, 0.1322581321, 0.162246644497, 0.115073762834, -0.196383371949, -0.0261541251093, -0.333923339844, -0.402504235506, -0.0658323764801, -0.0116356788203, 0.275510013103, 0.00220233830623, 0.185540169477, 0.450136244297, -0.104102656245, -0.0685857608914, 0.3530613482, 0.114761166275, 0.498816311359, 0.185201764107, -0.234376803041, 0.202773168683, 0.218564525247, 0.0735891163349, 0.233991548419, -0.197646468878, -0.376151710749, -0.0587836541235, 0.306537270546, 0.0330270789564, 0.221585035324, -0.0960538312793}, 
                {-0.0874044820666, -0.36406865716, 0.0593302324414, 0.318155616522, -0.191874548793, -0.230145514011, 0.14251306653, 0.216987341642, 0.137508958578, -0.0551957823336, 0.389519393444, -0.0721964240074, 0.279237151146, 0.212249338627, 0.102259345353, -0.515423119068, 0.0408029332757, -0.247330516577, -0.0324405878782, -0.236558884382, 0.123995833099, -0.0490715503693, 0.244274258614, -0.260170310736, -0.101312749088, -0.304653584957, 0.0128838764504, 0.159305796027, -0.19435916841, -0.180143386126, 0.401259094477, -0.00684906682, 0.237864434719, -0.172080725431, -0.00301570305601, 0.287469565868, 0.0355159789324, -0.0764865651727, -0.226357534528, -0.0459205545485, -0.150770768523, 0.0894686877728, -0.113629311323, -0.0920095816255, -0.3178139925, -0.0160415675491, 0.423195362091, 0.0788386464119, -0.0285804644227, -0.0815498307347, 0.0759225860238, 0.607729136944, 0.361981749535, 0.0468341521919, -0.506511807442, -0.146387070417, 0.0748469755054, 0.0656782388687, 0.222208917141, 0.062353041023}, 
                {-0.189739108086, -0.0300049278885, -0.288874179125, 0.0248385164887, -0.421900004148, 0.0504443198442, 0.0044476124458, 0.309740275145, -0.0479992218316, 0.000718060648069, -0.13939204812, -0.511013865471, 0.123742260039, 0.283745408058, -0.0447260960937, 0.0513593479991, 0.121951170266, -0.163451060653, -0.311275005341, -0.313952922821, 0.0450549200177, 0.124303497374, 0.290735185146, 0.0851644650102, 0.0836134850979, 0.214424818754, 0.312707185745, 0.00435295235366, -0.187556326389, 0.169089436531, -0.257898360491, -0.359298110008, 0.178180396557, -0.116128638387, -0.52096426487, 0.0718586444855, -0.0565491169691, 0.183933317661, -0.0172689389437, 0.102325826883, -0.0318284630775, 0.0422659441829, -0.111264958978, 0.0272467546165, 0.335374772549, 0.320283442736, 0.188185617328, 0.223869651556, 0.19957767427, 0.142873391509, 0.155967518687, -0.422552555799, 0.0565765164793, -0.145183935761, -0.0149178020656, 0.129944622517, 0.220856353641, 0.0518334433436, -0.0416374914348, 0.221350595355}, 
                {-0.184300407767, 0.0301038268954, -0.0701972544193, 0.400635272264, -0.119349360466, 0.0244472119957, -0.086525939405, -0.161857664585, -0.0985229089856, 0.0795879811049, -0.209802165627, -0.161068722606, 0.252192884684, 0.159813717008, 0.262379795313, 0.466359496117, 0.0692532137036, 0.0799451619387, 0.0138401603326, 0.0763359889388, -0.0391968935728, 0.0675108730793, -0.239668697119, -0.164072781801, 0.139991521835, 0.171763181686, -0.256408721209, 0.392430990934, -0.0569176115096, 0.178535029292, -0.209024816751, 0.229189991951, 0.11063208431, -0.125051036477, -0.0663453936577, -0.288948535919, 0.246889472008, -0.234539747238, -0.120516031981, 0.308644622564, -0.239514172077, 0.173820868134, -0.254469633102, 0.30371761322, 0.134493261576, 0.202394515276, -0.255519151688, 0.00733098760247, -0.132358625531, 0.10532514751, -0.23560577631, -0.35777002573, 0.063537940383, 0.215684995055, 0.0605807192624, -0.0930450931191, -0.0367221720517, -0.0459226891398, 0.267499774694, -0.00194374530111}, 
                {-0.0322787836194, -0.0722701773047, 0.0643842145801, 0.24332331121, 0.205860510468, -0.251528590918, 0.145895242691, 0.0190607011318, 0.113139696419, 0.545251071453, -0.0151239773259, 0.2820558846, -0.127587810159, -0.191362962127, 0.218937769532, -0.132009997964, -0.290585637093, -0.113061845303, 0.111761942506, 0.0265595670789, 0.1013481915, 0.382671147585, 0.0227511655539, -0.31774443388, -0.330885052681, -0.0934869125485, -0.0390503779054, 0.0701334029436, 0.204519271851, 0.265381217003, 0.17022587359, 0.0414177104831, -0.0905117988586, -0.258032441139, 0.305516123772, 0.332360476255, 0.223471477628, -0.296572834253, -0.150660291314, 0.0585253089666, 0.116793312132, 0.38813495636, -0.0470164678991, 0.2257463485, 0.0446193180978, 0.288169085979, -0.116381153464, 0.129276365042, -0.11023735255, 0.0316009223461, 0.0302075054497, 0.056864310056, 0.00901926867664, 0.25069975853, 0.209144622087, 0.1914139539, -0.0972466766834, -0.196928322315, -0.226204037666, -0.215139076114}, 
                {-0.119223788381, -0.964626133442, 0.248492389917, 0.264373451471, 0.013857495971, 0.0614067576826, -0.164902418852, -0.347303599119, -0.0450173132122, 0.156791955233, 0.0793974176049, 0.383597671986, -0.849550843239, 0.395971864462, 0.0784600377083, -0.355691313744, -0.0853533223271, 0.0425445139408, -0.194743543863, -0.0405268147588, -0.186374053359, 0.208924859762, -0.259652644396, 0.00309229781851, 0.0615561977029, 0.313865453005, 0.103152148426, 0.00412192102522, -0.142988204956, -0.353775799274, 0.134693413973, -0.0220350790769, 0.0443890504539, 0.11679290235, 0.0593572594225, -0.0514534637332, 0.114175781608, 0.1012660712, -0.225450456142, -0.305547714233, -0.0597213245928, -0.00606800010428, -0.537228107452, -0.0415321178734, 0.0718191564083, 0.412558495998, -0.364424020052, -0.0605109483004, 0.125236213207, -0.238629847765, 0.269468724728, 0.337377727032, 0.223396658897, 0.0789944678545, 0.236853048205, 0.167870298028, -0.23781336844, 0.186135515571, -0.203094795346, 0.351215332747}, 
                {0.283809453249, -0.0544396676123, 0.127299904823, -0.473687112331, 0.735017061234, 0.378157764673, -0.0370720364153, 0.159967124462, 0.0186638012528, 0.0147213637829, -0.122457608581, 0.0654203891754, -0.0307174734771, -0.114620029926, 0.122594662011, 0.080258384347, -0.0616142451763, -0.111349515617, 0.158968523145, 0.114408142865, -0.17850022018, -0.215429335833, -0.380367308855, 0.0873811915517, -0.0225553642958, -0.27497652173, 0.0843852907419, 0.13799469173, -0.204190388322, -0.0377030409873, -0.00806009396911, 0.0522755943239, 0.0257349777967, 0.155703380704, 0.22483882308, 0.391784340143, 0.286827772856, -0.136744171381, 0.230389490724, -0.0320423617959, 0.0973591580987, -0.0367623716593, 0.0336753427982, -0.19533200562, -0.366138845682, -0.140222206712, 0.0418361797929, 0.205247163773, 0.311589151621, -0.190447568893, 0.298479735851, -0.0318008996546, -0.0971872657537, 0.226573586464, -0.00510224793106, -0.357536971569, -0.39090809226, 0.259952455759, 0.1969961375, 0.145481869578}, 
                {-0.104272373021, 0.312132865191, -0.222971990705, -0.102324955165, 0.016529224813, 0.262431800365, 0.0265812519938, 0.378419071436, 0.462218791246, -0.0385648235679, 0.144410640001, -1.43250751495, -0.134998008609, 0.0249350741506, 0.111647054553, -0.0902453735471, 0.231092959642, -0.007216734346, -0.308416396379, -0.0175209343433, 0.016465306282, -0.0760326758027, -0.545665323734, 0.208207428455, 0.117545709014, 0.100843474269, 0.0243768524379, 0.364421010017, 0.61097830534, 0.319499194622, -0.0658357143402, -0.150187179446, -0.171466261148, 0.0290731750429, -0.107955463231, 0.0767591893673, 0.186010375619, 0.0722814202309, -0.0219563450664, -0.196490049362, -0.263063400984, -0.0549948513508, 0.22877830267, 0.0572361424565, 0.0578358620405, -0.00435047177598, 0.106341086328, -0.163486599922, -0.700015425682, 0.20755623281, 0.102317638695, -0.0862113833427, -0.0269356612116, 0.177639052272, 0.227310910821, -0.347667068243, -0.131408318877, -0.112046204507, -0.110710941255, 0.159350335598}, 
                {-1.01754558086, -0.129031538963, -0.285244077444, -0.0522639118135, -0.120379939675, 0.118601314723, 0.109328255057, -0.419379323721, -0.346259862185, -0.0277952291071, 0.176580011845, 0.392705321312, -0.509588479996, -0.115966461599, -0.588660240173, -1.06370532513, 0.191393703222, -0.904191434383, -0.273417234421, 0.265344679356, 0.168028861284, -0.0619594529271, -0.290568858385, -0.322036534548, -0.015852348879, -0.962928235531, -0.315857738256, -0.530704975128, -0.858325183392, -0.221980184317, -0.270655721426, -0.0450122132897, -0.192461267114, 0.159267649055, 0.245529577136, -0.908489704132, 0.04024047032, -1.43079066277, 0.267038315535, 0.337357074022, -0.409514725208, 0.100727289915, -1.81453454494, -0.23503421247, 0.228692218661, 0.100217737257, 0.0972573831677, 0.082044750452, -0.298896461725, 0.0526027753949, -1.00696825981, -0.04515709728, -2.25980567932, -0.380526959896, -0.947092592716, -1.16169571877, 0.392522901297, -0.851009786129, -0.276552200317, 0.138214558363}, 
                {0.152159973979, -0.119261018932, -0.169955417514, -0.209900781512, -0.408137112856, 0.485528081656, 0.310612797737, -0.0201723240316, -0.194899171591, 0.0927696600556, 0.220785990357, -0.657169222832, 0.180374845862, 0.251947700977, 0.186082780361, -0.0548869930208, -0.0916496440768, 0.0949402377009, 0.128998786211, -0.142329216003, 0.220502138138, -0.348152220249, 0.0330043770373, 0.0243644509465, 0.380780547857, 0.0984322205186, 0.138348087668, 0.181481435895, 0.231633841991, 0.256673932076, -0.048430711031, 0.158412307501, -0.172525092959, 0.0992140099406, -0.141327351332, -0.208839580417, -0.183114618063, -0.0441179461777, 0.320309460163, 0.121355511248, -0.0986141636968, 0.294630587101, 0.019668335095, -0.0951910987496, -0.239241451025, -0.244814768434, 0.166250705719, 0.240712419152, 0.145127668977, 0.0442397855222, -0.197224155068, -0.056308619678, 0.15685197711, -0.0405494980514, 0.106271579862, 0.0240069441497, 0.0524246878922, -0.0654571279883, 0.197296410799, 0.204898893833}, 
                {-0.178211197257, -0.0669868439436, 0.122308067977, 0.337585389614, -0.376668214798, -0.139078259468, -0.557410299778, 0.13263861835, 0.0160498693585, 0.00443468755111, 0.0697493478656, 0.312498837709, -0.781705617905, 0.375659495592, 0.215699970722, -1.19625282288, 0.355977118015, 0.0939482599497, 0.016475463286, 0.025389906019, 0.233326584101, -0.00680107669905, -0.219265803695, -0.00324327405542, 0.250968366861, 0.339109748602, 0.00465345708653, 0.039461132139, -0.235884338617, -0.351581573486, 0.238801702857, -0.184750586748, -0.222450956702, 0.229262799025, 0.047623924911, -0.207131445408, 0.225393667817, 0.108782432973, -0.27641955018, -0.124675162137, 0.265926212072, 0.270630151033, -0.59275496006, 0.204521611333, -0.0476227775216, 0.28272113204, -0.300998777151, 0.380558311939, -0.279502272606, -0.541673898697, 0.217969730496, 0.32901340723, 0.283499568701, 0.176844641566, -0.163904801011, 0.0941745042801, -0.115394666791, -0.175580322742, 0.211744174361, 0.349111974239}, 
                {0.156399533153, 0.0154021391645, -0.06828481704, 0.597562134266, -0.0754112303257, -0.414156794548, -0.113665021956, 0.136638626456, 0.108848929405, -0.0844003558159, 0.173611417413, 0.533338487148, 0.395141452551, -0.091845959425, -0.166219204664, -0.146461561322, 0.405103623867, 0.549656152725, 0.0311367586255, 0.315644830465, 0.2364615798, 0.438903659582, -0.0975583121181, -0.117992594838, 0.159095108509, 0.0596226528287, -0.241857305169, -0.214025273919, 0.332244366407, 0.211816951632, -0.147711873055, -0.0646223649383, 0.413387179375, 0.418925970793, 0.396457076073, -0.131374180317, 0.168282061815, -0.0268143955618, 0.395170480013, -0.122057460248, 0.122812025249, 0.282502263784, 0.238368198276, 0.121205747128, 0.0247729867697, -0.0971645563841, -0.135936409235, 0.311886608601, 0.0509438738227, -0.00624273484573, -0.042697455734, 0.373473584652, 0.0191663019359, -0.00313778128475, 0.189162775874, -0.113854534924, -0.0358042903244, -0.116722404957, 0.261882871389, 0.212392002344}, 
                {-0.197553575039, -0.18055562675, -0.343917161226, 0.194066151977, 0.378317117691, 0.321227997541, 0.188779011369, 0.166522666812, -0.081091940403, 0.317546695471, 0.32092371583, 0.0658883005381, -0.438280493021, -0.068433240056, -0.00723749678582, 0.0297284964472, 0.0452993661165, 0.181545078754, -0.127858549356, 0.0733333677053, -0.195673108101, 0.239606663585, 0.00677859922871, 0.0582548826933, 0.0500073097646, -0.155273810029, 0.329427659512, -0.302466750145, 0.154097378254, 0.464588135481, -0.28255456686, -0.132772773504, 0.395097911358, 0.151264756918, -0.0445716679096, 0.687696576118, 0.176734149456, 0.287754535675, -0.0171399526298, -0.0340010076761, 0.253935694695, -0.465357005596, 0.181608259678, 0.0552953444421, -0.233937591314, 0.0186155345291, 0.0851422697306, -0.130048185587, -0.0834180936217, 0.285449385643, -0.0497391223907, -0.155997991562, -0.092021651566, 0.0807932317257, -0.323062330484, -0.335211366415, -0.182541146874, 0.347004920244, 0.245290279388, 0.209653899074}, 
                {-0.862546682358, -0.117455601692, 0.415967196226, 0.0561671555042, 0.362008571625, 0.192334592342, -0.0963965728879, 0.0355890914798, -0.190645039082, 0.281417995691, -0.358519047499, -0.0213362760842, 0.442350596189, 0.0825960338116, 0.116490311921, -0.206486329436, -0.184538945556, -0.0875830128789, 0.0359009243548, -0.00867535173893, 0.0375982746482, -0.22181174159, 0.440027683973, 0.22731667757, 0.390395790339, -0.0296707917005, -0.273450523615, -0.285310596228, -0.0750767141581, 0.127194941044, -0.0428419671953, 0.433873713017, -0.276638627052, -0.167796999216, 0.10944378376, -0.0622358173132, 0.108422651887, -0.0886377990246, 0.00730232568458, 0.231112703681, -0.100056543946, -0.00493429880589, 0.247851520777, -0.114916801453, 0.0928784310818, 0.11180229485, 0.123927026987, -0.168276250362, -0.245679348707, 0.253916025162, 0.0133577203378, 0.223949447274, 0.421807736158, -0.138275146484, 0.209792837501, 0.200926959515, -0.0446290448308, -0.242602944374, -0.158073619008, -0.389950096607}, 
                {-0.226359084249, -0.27815669775, 0.16557559371, 0.335282623768, -0.455941200256, 0.390698552132, -0.153795585036, 0.0372356250882, 0.212656527758, -0.13653254509, 0.24397726357, 0.121680192649, 0.0395028851926, 0.0563762895763, -0.00488279620185, 0.0117012271658, -0.227600008249, 0.0918934196234, 0.226159244776, 0.0945523455739, 0.163674488664, -1.37196588516, 0.199297368526, -0.14700512588, -0.0703270509839, -0.209223285317, 0.139435589314, 0.109986029565, -0.00705905677751, 0.231093615294, 0.0424139872193, -0.00723227113485, 0.111834466457, -0.054301276803, 0.221537709236, -0.0253405049443, 0.183816626668, -0.206794068217, 0.114514276385, -0.041808322072, 0.170971632004, 0.105505414307, -0.0982816889882, 0.442820042372, -0.189518615603, 0.0516971722245, -0.321202278137, 0.176060885191, 0.169905170798, -0.21228890121, -0.0849177092314, 0.00279226293787, -0.487817436457, -0.285857617855, 0.0195975117385, -0.0435901395977, 0.0218812841922, -0.457612067461, -0.0265881717205, -0.0464938133955}, 
                {-0.149692982435, 0.0741035193205, 0.285544455051, 0.319092988968, -0.247724279761, -0.0885322019458, 0.168463423848, 0.160342499614, -0.0862391367555, 0.381997704506, 0.0319227799773, -0.394637227058, -0.13157171011, 0.281180173159, 0.256594121456, 0.06755091995, -0.235045313835, 0.316347241402, -0.266595840454, -0.177265197039, 0.305161356926, -0.230364978313, -0.235822618008, -0.0799846276641, 0.0788938179612, 0.000971845234744, -0.0430000461638, 0.352583676577, 0.0235966742039, -0.134581506252, 0.0302080381662, 0.506339430809, -0.318689316511, -0.16617256403, -0.0934139788151, 0.287208974361, 0.559741258621, 0.510951817036, -0.0932596027851, 0.251083552837, -0.224481552839, 0.37313079834, 0.0209490992129, -0.2469522506, 0.418786764145, 0.176829949021, 0.199428930879, -0.163146495819, -0.323021292686, 0.156767532229, -0.131484642625, 0.0371130183339, 0.207105651498, 0.0286629516631, -0.0614470541477, 0.150103867054, 0.24840079248, -0.0926543772221, -0.159731209278, 0.0400891527534}, 
                {-0.0434491038322, -0.0804557874799, -0.270699411631, 0.280512154102, -0.591896951199, 0.649411261082, 0.0972419083118, 0.115656353533, 0.28047990799, 0.0727938637137, -0.0635265931487, -0.161948606372, 0.133138850331, 0.202522024512, -0.00961641222239, 0.112910181284, -0.147030428052, -0.01562730968, -0.453261584044, 0.0107541205361, 0.0667700171471, 0.0513586513698, 0.129468217492, -0.366031706333, 0.0980292856693, 0.045056514442, 0.302618592978, 0.0819623470306, -0.770257532597, -0.0695796534419, 0.0552931912243, -0.115804806352, 0.445338279009, -0.0581905320287, -0.308701127768, 0.1061341241, 0.218804091215, 0.0927622914314, -0.0258563198149, -0.138178110123, -0.456613123417, 0.0624480992556, -0.103690907359, 0.0253441054374, 0.146019890904, -0.148749232292, 0.0916406735778, 0.060519516468, 0.490732073784, -0.0420869514346, -0.0129528362304, -0.0100703286007, -0.0262927245349, -0.465964198112, 0.000731686130166, 0.05281868577, 0.161278054118, -0.165625959635, 0.0339705720544, -0.00393327977508}, 
                {0.0750124827027, 0.408353924751, 0.445131748915, -0.093937523663, 0.137996211648, 0.127772852778, -0.0340089090168, -0.124990440905, 0.00620654318482, -0.248970210552, -0.021463625133, -0.119384527206, -0.157385960221, 0.084414370358, -0.210367202759, 0.0199519004673, 0.152407482266, -0.257149249315, -0.143751591444, -0.280086100101, 0.234088033438, -0.504431605339, -0.0252232756466, 0.141862824559, -0.00338830146939, 0.0743677094579, 0.151744276285, -0.205632999539, -0.0504120402038, 0.0763920247555, -0.256937265396, -0.180844143033, 0.33853584528, -0.317015141249, 0.265509039164, 0.240312114358, 0.271512001753, -0.0337713286281, 0.184436619282, -0.0221450403333, 0.0657034963369, 0.171731635928, -0.131817013025, 0.29921862483, -0.113494858146, -0.237253442407, -0.216318681836, -0.243304088712, -0.0843803733587, 0.0805378928781, -0.232561454177, -0.108028240502, 0.420972794294, 0.0941257476807, 0.589008510113, 0.229115575552, -0.181046769023, 0.450625836849, 0.00623130751774, 0.157546728849}, 
                {-0.00800673943013, 0.145276024938, 0.10726018995, -0.0389620736241, -0.0825359448791, -0.0959872230887, 0.0388940088451, 0.0936696305871, 0.0906795635819, 0.00960373226553, -0.291409611702, 0.312529653311, -0.834386229515, 0.401933610439, -0.410240232944, 0.144953668118, -0.167227134109, -0.0957553237677, -0.170705363154, -0.0673115327954, 0.283108562231, 0.4253693223, 0.0780248269439, -0.405282199383, -0.191037088633, 0.202460438013, -0.172757968307, 0.287882000208, 0.214242503047, -0.0458891578019, 0.0587729737163, 0.171689331532, 0.0257659293711, -0.405054062605, 0.171485334635, 0.234615087509, 0.235035032034, -0.0962064415216, 0.00184391031507, 0.299701988697, -0.0801343619823, 0.219174623489, -0.216304257512, 0.359682440758, -0.0848738029599, 0.29186925292, 0.117320306599, -0.00864872522652, 0.113423466682, -0.235733404756, 0.00375869870186, -0.324415236712, 0.224509343505, 0.188984006643, 0.234989538789, -0.339921325445, 0.0208284705877, -0.0471791215241, -0.0373070351779, -0.248101562262}, 
                {0.209530457854, -0.288880676031, -0.1260676682, 0.0940966755152, 0.115594267845, 0.0922761633992, -0.362737298012, 0.314435303211, 0.153763338923, 0.186801940203, -0.125497177243, 0.00687517365441, -0.582081139088, 0.186273738742, -0.224867209792, -0.0769958049059, -0.406858950853, 0.484000891447, -0.293644249439, -0.640305995941, -0.476295799017, -0.0525205768645, 0.237921774387, 0.0384654961526, -0.216808363795, -0.0439039953053, -0.0127460509539, -0.0905738919973, -0.0346284843981, 0.203546270728, 0.0108065428212, -0.346866041422, 0.382889807224, -0.116360373795, 0.231350749731, -0.148752465844, 0.471052497625, -0.286549955606, 0.169079855084, -0.439562022686, -0.0454135835171, -0.0678053945303, 0.0437754690647, 0.121124848723, 0.0383083596826, 0.057921577245, -0.0473861135542, -0.518725454807, 0.0211117621511, 0.154346823692, -0.105757862329, -1.44664800167, -0.32296064496, -0.377762407064, -0.342163234949, -0.273792862892, 0.0784043371677, 0.213248610497, -0.0520942211151, 0.0446693301201}, 
                {0.251781314611, 0.0761182233691, -0.337990313768, 0.247909188271, 0.00555892148986, 0.180782735348, 0.0392145216465, 0.271804273129, 0.0664376243949, 0.32887917757, -0.507779896259, 0.0894277691841, -0.371612399817, -0.160154640675, -0.037094142288, -0.38630002737, -0.529252171516, 0.0575922057033, 0.292835950851, 0.171838313341, -0.175948917866, -0.256043314934, -0.155059099197, 0.0484325699508, -0.114343322814, -0.354648381472, 0.192417234182, 0.0863095745444, -0.187690392137, 0.195622414351, -0.375520139933, 0.0426837094128, 0.184217020869, 0.020871784538, 0.0219228863716, -0.13598844409, 0.0613600201905, -0.0390482805669, 0.043623238802, 0.196028351784, 0.221718609333, -0.00789453089237, -0.0542099960148, 0.348865509033, 0.0721239075065, 0.364174097776, 0.404422104359, 0.106548450887, 0.197253629565, 0.207180768251, -0.0559549927711, -0.306621640921, 0.081686206162, -0.10922255367, -0.165111213923, -0.199273005128, -0.0196176413447, 0.0485123693943, -0.489792644978, -0.555439949036}, 
                {-0.462871849537, -0.00863137468696, 0.421381115913, 0.10045337677, 0.239030987024, 0.497669517994, -0.183838889003, -0.191267803311, 0.369055509567, 0.106225244701, -0.133047297597, 0.053013432771, -0.118197850883, -0.169116586447, 0.0299348365515, 0.0968761667609, 0.0461122691631, -0.245559260249, -0.0210365112871, -0.101834252477, -0.130625337362, 0.269038826227, 0.00921711418778, -0.158663466573, 0.190097212791, 0.28314936161, 0.0889833644032, -0.00454727374017, 0.40644338727, -0.453656613827, -0.0345432385802, -0.148889869452, 0.613186776638, 0.18967436254, 0.502767205238, 0.128699347377, -0.554221510887, -0.0663444772363, -0.0730633512139, 0.162368521094, 0.405542016029, -0.0468775331974, -0.0913896411657, -0.210669666529, -0.0731275081635, -0.00499152345583, -0.215491384268, 0.143461331725, 0.470615983009, -0.0876615643501, -0.313737243414, 0.133470013738, 0.0874384269118, 0.222464650869, -0.066551156342, -0.113302603364, -0.165991038084, 0.399986028671, -0.150883197784, 0.073597855866}, 
                {-0.152569293976, 0.287808805704, 0.303703784943, 0.39414447546, 0.0386417657137, -0.179241299629, -0.0234460420907, -0.261436581612, 0.392462730408, -0.115352652967, 0.144548282027, 0.0990704447031, 0.0024870657362, 0.0711347386241, -0.0316117182374, -0.206877395511, -0.199833542109, -0.106656774879, -0.346921294928, -0.00652616797015, -0.12925375998, 0.143393740058, 0.105090543628, -0.266160577536, 0.15959225595, -0.315495640039, 0.545525372028, 0.281499773264, -0.328516244888, -0.0185627732426, -0.147733598948, -0.250801235437, 0.432760924101, -0.0163622424006, -0.407759308815, 0.0333725176752, 0.0322198569775, 0.0570212677121, 0.295110493898, 0.232447519898, -0.155338808894, -0.047339014709, -0.0544729866087, 0.15449655056, -0.136000484228, 0.177853420377, -0.0338604263961, -0.277372598648, 0.393924117088, 0.121387735009, 0.316522866488, -0.464509248734, 0.0925222188234, 0.176400825381, -0.071395047009, 0.079463429749, -0.429074704647, -0.0552476830781, 0.133520364761, 0.361602574587}, 
                {0.0944139584899, 0.112640671432, 0.264088153839, 0.167754888535, 0.14660063386, -0.0374119356275, 0.137739464641, -0.272990137339, 0.018107406795, -0.124034941196, 0.381211489439, -0.229510679841, 0.187261596322, -0.00483697745949, -0.146426782012, -0.606721043587, 0.0133610414341, 0.0336904674768, 0.139801308513, -0.122791677713, 0.211609914899, 0.318943321705, -0.121367380023, 0.297818392515, 0.313980400562, -0.234181702137, 0.0694471150637, 0.32846263051, 0.0999928861856, 0.0740335360169, 0.216313064098, 0.281298607588, 0.208185687661, 0.303172528744, 0.238298743963, 0.0672894641757, -0.272503077984, 0.119543038309, 0.0925911515951, -0.0596959255636, 0.0631506890059, -0.323520928621, -0.141564175487, 0.150352478027, -0.234414592385, 0.0452669933438, 0.219076097012, -0.196217119694, 0.0375081375241, 0.118373058736, 0.220923885703, 0.226606026292, -0.209387019277, 0.0326384529471, 0.0218451377004, 0.205363109708, -0.264370828867, -0.254913598299, 0.124700799584, -0.0167654585093}, 
                {-0.0114226099104, -0.132389575243, 0.194912567735, -0.27244797349, 0.0944714099169, 0.234784036875, -0.503618299961, 0.118372328579, -0.283428490162, 0.222531169653, 0.102408513427, 0.125171914697, -0.321839898825, 0.256224602461, -0.0911734551191, -0.887381494045, -0.0252272635698, -0.411663234234, 0.126154899597, 0.30426850915, -0.324077397585, -0.037660703063, -0.109045363963, -0.20363548398, -0.02683625184, 0.186458274722, 0.333856225014, -0.191212773323, -0.0779051780701, -0.268000334501, 0.307153642178, -0.0565647147596, 0.213700920343, -0.185110345483, 0.13136805594, 0.270351022482, 0.117418512702, 0.109439559281, -0.0817356109619, -0.375461518764, -0.192533090711, -0.228143423796, -0.188991650939, 0.379623353481, 0.168563351035, 0.0497903041542, -0.00916299503297, 0.198665335774, 0.0403995811939, -0.509962022305, -0.0326432436705, -0.28793528676, -0.196001470089, 0.123734630644, -0.202414318919, -0.0228804014623, -0.00107750680763, 0.153783082962, 0.288942724466, 0.297318279743}, 
                {0.234682351351, -0.101002961397, 0.10501883924, -0.19419375062, 0.201363191009, 0.31659579277, -0.0293084979057, 0.254737764597, 0.485731571913, -0.218449115753, -0.26198425889, -0.416882246733, 0.0220559779555, -0.127891764045, -0.0243210978806, 0.0488603152335, -0.102329969406, 0.260695397854, -0.0975928604603, 0.0298542715609, -0.135227024555, 0.328948885202, -0.13648596406, 0.46681496501, -0.00544961122796, 0.152186080813, -0.147677138448, -0.145094320178, -0.0788295418024, 0.124132730067, 0.145444631577, -0.138258442283, -1.21148478985, 0.119922436774, 0.257559865713, -0.122158840299, 0.0279576517642, -0.228298246861, 0.164569452405, -0.140572622418, -0.15000897646, -0.19716873765, -0.138806432486, 0.00141321262345, 0.2521943748, 0.205261036754, -0.155014201999, 0.051003549248, -0.818241477013, -0.0691943690181, -0.140066578984, -0.00639147870243, -0.235524654388, -0.119723074138, 0.298280000687, 0.0984429419041, -0.142583578825, -0.267193317413, -0.0258620698005, -0.0122471889481}, 
                {0.102335266769, 0.271403163671, -0.113157227635, 0.063535310328, 0.16963173449, -0.0813991650939, -0.195323884487, -0.124075420201, 0.52300798893, 0.0526646822691, 0.204449743032, 0.547852098942, -0.196053564548, -0.115942634642, -0.610752344131, -0.257900387049, 0.185932010412, 0.232584446669, 0.0387253127992, -0.0218777917325, -0.125341117382, 0.161172688007, 0.050563134253, -0.250494837761, 0.0769575461745, 0.215135157108, 0.222830548882, 0.226142719388, 0.0257041435689, 0.0119773065671, 0.321269392967, -0.00730728218332, 0.0883354842663, 0.000360742444173, -0.0419945605099, -0.0345757491887, 0.140043064952, 0.03139802441, 0.362618416548, 0.116413921118, 0.23997066915, -0.206723019481, 0.112773127854, 0.0624934695661, 0.136026352644, -0.113024234772, -0.0679548755288, 0.348056286573, 0.0325003825128, -0.0915095731616, -0.0375792682171, 0.22869206965, -0.210595279932, 0.0606065541506, 0.0820784643292, 0.0867318883538, -0.0208522994071, 0.192816764116, -0.125481307507, -0.0498223900795}}; 
            const double bias_1[30] = {0.104835540056, 0.381503969431, 0.017348555848, 0.0418195985258, -0.103686861694, 0.384886354208, 0.42592599988, 0.299739658833, -0.354423612356, -0.0600359812379, -0.0683012902737, -0.101538807154, 0.255043029785, -0.234613090754, -0.243391215801, 0.240994900465, 0.106512881815, 0.34542915225, 0.378844797611, 0.343357473612, 0.214719265699, 0.227615937591, 0.358237296343, 0.487773925066, -0.421715885401, -0.247786611319, -0.376466989517, -0.178322866559, 0.0673571228981, -0.265244722366}; 
            const float weight_2[15][30] = {{-0.159520819783, 0.212121516466, 0.225872322917, -0.160620301962, 0.47258785367, 0.0136015387252, -0.0182457733899, 0.347937554121, -0.127879485488, 0.350187689066, 0.394784986973, 1.22546195984, -0.293838471174, -0.438374072313, 0.0806305408478, 0.375929713249, -0.409416079521, 0.0120657756925, -0.290344774723, 0.405449062586, 0.221724718809, -0.0198338422924, -0.430090636015, -0.141540512443, -0.170627504587, 0.162960499525, -0.0221122149378, 0.178564786911, 0.367288559675, 0.220578208566}, 
                {-0.0900918245316, 0.150229483843, -0.0446400344372, 0.4108979702, 0.459057450294, 0.210688069463, -0.29655700922, 0.212287709117, -0.127545416355, -0.398598045111, -0.256735146046, -0.34707403183, 0.00850302539766, 0.334356695414, -0.362688869238, 0.154617488384, -0.560639023781, -0.0808666646481, 0.305327653885, -0.092797614634, -0.597902357578, -0.150231316686, 0.420206427574, 0.0327989161015, -0.458294838667, 0.0701808184385, -0.27366271615, -0.212313532829, -0.112019829452, -0.259162575006}, 
                {0.207866773009, -0.281159430742, 0.187331944704, 0.127769887447, 0.281363397837, 0.0081183174625, 0.428414791822, 0.219412177801, -0.559230744839, 0.0593144372106, -0.0528561361134, -1.29860424995, 0.310562074184, 0.230089589953, 0.409016162157, 0.213150173426, 0.0175439193845, -0.471117079258, 0.653800010681, 0.348884135485, 0.470656007528, 0.192904114723, 0.584584236145, -0.176882207394, -1.01657032967, -0.0425843261182, -0.0500553399324, -0.00281876698136, -0.470002681017, 0.339429229498}, 
                {-0.389482468367, 0.0725973695517, 0.308301270008, 0.510185778141, 0.00321503472514, 0.239974692464, 0.257848501205, -0.18471570313, 0.576351583004, 0.11451330781, -0.0207453295588, 1.31073915958, 0.295577794313, 0.471549808979, 0.423013597727, 0.333727091551, -0.0863760635257, 0.168484017253, 0.256113618612, -0.0691807121038, -0.0630262419581, -0.190726354718, -0.630625247955, -0.657055914402, -0.279191732407, -0.0125390263274, 0.00670511415228, 0.0526212789118, -0.142559528351, 0.0605894513428}, 
                {-0.178017780185, 0.0737996473908, 0.182899564505, -0.0492855422199, 0.0974862203002, -0.117380484939, -0.486653655767, -0.385572940111, 0.0937775298953, -0.00965650938451, -0.0718345940113, 0.695618748665, 0.0606829635799, -0.178421318531, 0.286989063025, 0.191511854529, 0.000919946061913, -0.0308940205723, -0.0190666038543, -0.118809610605, 0.203798428178, 0.102023765445, 0.011732515879, -0.100204877555, 0.509816765785, 0.485171675682, 0.35078188777, -0.154377639294, 0.573933660984, 0.353422403336}, 
                {0.391368716955, 0.632735431194, 0.228209018707, -0.0520141497254, -0.136464625597, 0.0172649342567, 0.182267680764, -0.305204331875, -0.327625125647, 0.0280836373568, -0.469608604908, 0.575418353081, 0.445073455572, 0.0990937128663, -0.151886120439, 0.479264438152, 0.032900582999, 0.394488096237, 0.0127418516204, -0.611135601997, 0.137545466423, 0.196222394705, 0.170581698418, 0.368707746267, 0.128234937787, -0.212455928326, 0.166869401932, 0.0684177726507, -0.0715607330203, -0.148601233959}, 
                {-0.0412580743432, -0.118676699698, 0.248784482479, -0.0113946050406, -0.0320269912481, -0.225056484342, 0.381268948317, 0.393424510956, -0.459993422031, 0.225467354059, -0.172838404775, -0.145210951567, -0.133846193552, -0.481264233589, -0.33909881115, -0.24161323905, 0.487668693066, 0.160908520222, 0.251699477434, 0.151546701789, 0.0287131909281, 0.678676784039, -0.143349945545, 0.0176840852946, 0.564726054668, 0.311635762453, 0.150005117059, -0.451940894127, -0.0677117556334, 0.231851041317}, 
                {0.467275053263, 0.520221590996, 0.137761369348, 0.0144475884736, -0.014271308668, -0.0266532879323, 0.0919672325253, -0.133805587888, -0.156383484602, -0.134799405932, -0.27147719264, -0.354750216007, 0.0855029523373, 0.241813957691, -0.0308783706278, -0.19615149498, 0.349852442741, 0.275396764278, 0.419762820005, -0.743393421173, 0.405193209648, -0.292495250702, 0.301825523376, 0.233293250203, -0.571742594242, -0.0917297005653, -0.113469459116, 0.221216738224, 0.316400051117, 0.0514394491911}, 
                {-0.090362817049, -0.0609226711094, -0.300016283989, -0.732603549957, -0.0880309715867, -0.298113524914, 0.13720433414, -0.22376383841, -0.0984477549791, 0.0113008357584, -0.559621036053, -0.256396174431, 0.119754828513, -0.0642433837056, 0.25866496563, 0.350067228079, 0.185412973166, 0.0683519616723, 0.419036865234, 0.111905641854, 0.0390677303076, 0.0356693007052, 0.0683614313602, 0.206833675504, -0.199438810349, 0.503951072693, 0.587942183018, 0.177195340395, 0.15409514308, -0.305107295513}, 
                {-0.407827854156, 0.669200658798, 0.0505740977824, 0.0389382503927, -0.159303426743, 0.426130652428, 0.187562763691, 0.249415338039, -0.273695230484, -0.541437625885, -0.0461006872356, 0.266620159149, 0.46169257164, -0.231039017439, 0.165267974138, -0.188603982329, 0.173704743385, -0.243615046144, -0.222421690822, 0.360042363405, 0.276736408472, 0.18855650723, 0.311008602381, 0.123995952308, -0.629044830799, -0.308082580566, 0.130942299962, -0.109022296965, -0.213373780251, -0.221578970551}, 
                {0.0896116420627, -0.362538695335, 0.256336927414, 0.201280370355, 0.213480174541, -0.230235770345, 0.0795463323593, 0.214330539107, 0.044559545815, -0.20769944787, 0.41424882412, -1.09575033188, -0.210323065519, 0.379081368446, 0.475636452436, -0.0410132966936, -0.324834406376, -0.27941352129, 0.258389770985, 0.574873030186, -0.48896509409, 0.170957744122, 0.37579408288, -0.032782278955, -0.664081633091, 0.0351147577167, 0.181078061461, -0.125184416771, -0.245975583792, 0.0808802545071}, 
                {0.802022397518, 0.291486233473, 0.295570522547, 0.0409848466516, -0.0519106909633, -0.269108355045, 0.0898985415697, 0.247083768249, 0.446159541607, 0.387322127819, -0.497431367636, -0.105622448027, 0.301326870918, 0.0511210635304, -0.16352109611, 0.139787808061, -0.293159365654, 0.397802889347, 0.335582047701, -0.91273778677, 0.19812604785, -0.363375037909, -0.0930516570807, 0.0884757563472, 0.33701851964, -0.253497838974, -0.0390936434269, -0.091869212687, 0.39592218399, -0.232615381479}, 
                {-0.220363989472, -0.17483958602, -0.0673517212272, 0.143036067486, -0.126757830381, -0.251528024673, 0.276615470648, 0.217667654157, -0.190450698137, -0.133565157652, 0.199430182576, -0.718449056149, -0.262825220823, -0.111735291779, 0.292677015066, 0.430678993464, 0.610385537148, 0.312909573317, -0.31040263176, 0.0574197210371, 0.101707540452, -0.0369967669249, 0.237410187721, 0.356048256159, -0.0995654389262, -0.093949213624, -0.120614059269, -0.486047893763, 0.0847197696567, 0.086320400238}, 
                {0.00689624343067, -0.199823454022, 0.107087425888, 0.0861852169037, -0.195558875799, 0.152588948607, -0.00729127088562, 0.153485819697, -0.293390989304, 0.133707210422, -0.0891075506806, -0.276794165373, -0.348142713308, -0.945477604866, 0.126839280128, 0.369474202394, -0.213057085872, 0.208581954241, 0.336236834526, 0.075092241168, 0.0909957736731, 0.125573396683, 0.515732944012, 0.909256637096, -0.27577188611, 0.291324615479, -0.354723483324, -0.721602737904, 0.135163635015, -0.141146436334}, 
                {-0.333842754364, 0.257473558187, 0.0204879250377, -0.143286600709, -0.201475381851, 0.477865427732, 0.12988036871, 0.0913113430142, -0.77449297905, -0.0599108338356, -0.248438626528, -0.847790181637, 0.261604636908, -0.140073090792, -0.1651122123, 0.232907563448, -0.0945686548948, 0.159199893475, -0.0581209734082, -0.0580119639635, 0.346333622932, 0.0467046648264, 0.773276031017, 0.601604402065, -0.177723973989, -0.364146649837, -0.379567950964, -0.511601150036, -0.277908682823, 0.240285724401}}; 
            const double bias_2[15] = {-0.0988948494196, 0.21821822226, 0.179537400603, -0.0227593425661, -0.178741231561, 0.330640614033, 0.338491380215, 0.411645889282, -0.220501288772, 0.14123980701, -0.116983488202, 0.00786898285151, 0.21488724649, 0.356495976448, 0.281563609838}; 
            const float weight_3[10][15] = {{0.455972999334, -0.172870337963, -0.197283193469, -0.0887462049723, 0.0183749981225, 0.285213649273, -0.352295666933, -0.00904093123972, -0.382113337517, -0.0398724675179, 0.433921188116, 0.0125806778669, 0.450317949057, 0.199305027723, 0.50844335556}, 
                {-0.814765393734, -0.163092032075, 0.0429458171129, -0.258714169264, -0.185330599546, -0.571424603462, 0.471332997084, 0.270639747381, 0.0518943816423, 0.213231369853, 0.297719419003, 0.377711117268, -0.628018915653, -0.157913401723, -0.477964490652}, 
                {-0.133900567889, 0.362128555775, 0.512778401375, 0.19791136682, 0.275154083967, 0.198303863406, -0.26001521945, -0.0904366001487, -0.358768284321, 0.0746472403407, -0.00872971210629, -0.298535466194, -0.0488376133144, -0.493414282799, 0.405015677214}, 
                {-0.208034098148, 0.692547500134, 0.548441708088, -0.22690397501, -0.202383175492, -0.548618137836, -0.0801110193133, -0.655769586563, 0.225073292851, 0.158135771751, 0.393604516983, -0.183548495173, 0.149395033717, 0.11884470284, 0.543288469315}, 
                {-0.169821083546, -0.437102675438, -0.126587957144, -0.122786641121, 0.0323099531233, 0.178633123636, 0.331075519323, -0.0181530658156, 0.512358784676, -0.208773970604, 0.316631108522, -0.244117408991, -0.487566441298, -0.212904796004, -0.132425487041}, 
                {-0.205148696899, 0.0693102478981, 0.125666290522, -0.754392921925, 0.251670211554, 0.0145882032812, 0.622028172016, 0.502480208874, 0.142601758242, 0.528653025627, -0.417737156153, -0.328469127417, 0.587072849274, 0.603758096695, 0.532414913177}, 
                {-0.289466977119, -0.0291697792709, -0.10333301872, 0.215024873614, 0.1788405478, 0.160950869322, -0.278563857079, -0.143458724022, -0.00250643980689, 0.482258826494, -0.554195284843, 0.541529595852, 0.0828079506755, -0.154634326696, 0.535596132278}, 
                {-0.460489034653, 0.408363640308, 0.138418257236, 0.309953600168, -0.411927938461, 0.423112928867, 0.237935245037, -0.379536628723, -0.539289116859, 0.593905210495, -0.209551617503, -0.386526882648, -0.198894530535, 0.103815667331, 0.333496451378}, 
                {-0.256209254265, 0.221524849534, 0.278911411762, -0.179133832455, 0.129954695702, 0.558353304863, 0.421576917171, 0.281552970409, 0.0179748870432, -0.294533908367, -0.0929809212685, 0.331722140312, -0.208904594183, 0.266733467579, 0.513020217419}, 
                {0.580242931843, -0.757930099964, 0.545328497887, 0.383079946041, 0.450802445412, 0.219671204686, 0.0633273124695, 0.149969831109, 0.138925522566, -0.273385375738, 0.210235893726, 0.486424684525, 0.0521732643247, -0.298765540123, -0.45903840661}}; 
            const double bias_3[10] = {0.0167942978442, -0.115507952869, 0.0243587642908, 0.0768034830689, -0.0829584896564, 0.136264890432, 0.0144933620468, 0.219420179725, 0.255829453468, 0.0329592972994}; 
            const float weight_4[6][10] = {{0.23930990696, 0.250073939562, -0.707935869694, 0.692953705788, -0.0275234803557, 0.475935399532, -0.157821983099, -0.0298118628561, -0.614757955074, 0.282480031252}, 
                {-0.439420759678, 1.18093383312, 0.661337912083, 0.336017429829, 0.047090433538, -0.598715662956, -0.297892689705, -0.365765482187, -0.756873250008, 0.315435260534}, 
                {0.475826323032, 0.121840447187, -0.163351178169, -0.218524068594, -0.380492717028, 0.465226322412, -0.196846470237, -0.674708902836, 0.475538700819, 0.0782426819205}, 
                {-0.421420782804, -1.22906756401, 0.191844731569, -0.7264367342, -0.487127661705, -0.939086914062, 0.189593404531, -0.455664426088, -0.287168979645, 0.725671648979}, 
                {0.213159710169, 0.195739865303, 0.198284804821, -0.73517626524, -0.86833769083, 0.38507565856, 0.410172015429, 0.302575320005, 0.356730818748, -0.169380232692}, 
                {-0.545279562473, 0.138788834214, -0.480812549591, -0.197496905923, 0.140027537942, 0.524736464024, -0.319926857948, -0.15764836967, 0.458982557058, 0.395226478577}}; 
            const double bias_4[6] = {-0.228409588337, 0.123658001423, -0.034095056355, 0.0507451221347, -0.127122208476, 0.261010617018}; 
            const double var_means[19] = {239.688108846, -0.00490398678852, -0.00699417305398, -0.00108234166183, -0.0014950229849, 121.921187548, 2.23383062069, 161.029055402, 83.148495202, 162.058091394, 801.57413433, -0.0013975364677, -0.00316731574607, 1.60739027608, 118.322593129, 1.7439788583, 347.172581122, 0.0997341663359, 0.0865884663569};
            const double var_std[19] = {304.455252308, 1.81372712939, 1.81254508388, 1.05756723615, 1.09757561106, 102.208652014, 0.973654869091, 172.0271027, 103.15553286, 191.33755546, 871.884929928, 2.22778388889, 2.56053930997, 0.915859221792, 107.678133478, 0.942049409202, 285.238684538, 0.23517930751, 0.208961216603};

            float mll_var{*mll->Get()};
            float lepton_eta1_var = Lepton_eta->At(0);
            float lepton_eta2_var = Lepton_eta->At(1);
            float lepton_phi1_var = Lepton_phi->At(0);
            float lepton_phi2_var = Lepton_phi->At(1);
            float ptll_var{*ptll->Get()};
            float drll_var{*drll->Get()};
            float pt1_var = Lepton_pt->At(0);
            float pt2_var = Lepton_pt->At(1);
            int jet1_idx = CleanJet_jetIdx->At(0);
            int jet2_idx = CleanJet_jetIdx->At(1);
            float jet1_qgl = Jet_qgl->At(jet1_idx);
            float jet2_qgl = Jet_qgl->At(jet2_idx);
            float jet1_btag = Jet_btagDeepFlavB->At(jet1_idx);
            float jet2_btag = Jet_btagDeepFlavB->At(jet2_idx);
            float jet_eta1_var = Jet_eta->At(jet1_idx);
            float jet_eta2_var = Jet_eta->At(jet2_idx);
            //float pt1_var{*pt1->Get()};
            //float pt2_var{*pt2->Get()};
            float mth_var{*mth->Get()};
            float mjj_var{*mjj->Get()};
            float dphijj_var{*dphijj->Get()};
            float PuppiMET_pt_var{*PuppiMET_pt->Get()};
            float dphillmet_var{*dphillmet->Get()};
            float mcollWW_var{*mcollWW->Get()};

            float input_layer[19] = { mll_var, lepton_phi1_var, lepton_phi2_var, lepton_eta1_var, lepton_eta2_var, ptll_var, drll_var, pt1_var, pt2_var, mth_var, mjj_var, jet_eta1_var, jet_eta2_var, dphijj_var, PuppiMET_pt_var, dphillmet_var, mcollWW_var, jet1_btag, jet2_btag};
            for (int index = 0; index < 19; index = index + 1) { 
                input_layer[index] = (input_layer[index]-var_means[index])/var_std[index];            }
            float layer0[60] = { 0 };
            for (int next_index = 0; next_index < 60; next_index = next_index +1) { 
                for (int last_index = 0; last_index < 19; last_index = last_index + 1) { 
                    layer0[next_index] += weight_0[next_index][last_index] * input_layer[last_index]; 
                }
                layer0[next_index] += bias_0[next_index]; 
                layer0[next_index] = layer0[next_index] > 0 ? layer0[next_index] : 0; // RELU 
            }
            float layer1[30] = { 0 };
            for (int next_index = 0; next_index < 30; next_index = next_index +1) { 
                for (int last_index = 0; last_index < 60; last_index = last_index + 1) { 
                    layer1[next_index] += weight_1[next_index][last_index] * layer0[last_index]; 
                }
                layer1[next_index] += bias_1[next_index]; 
                layer1[next_index] = layer1[next_index] > 0 ? layer1[next_index] : 0; // RELU 
            }
            float layer2[15] = { 0 };
            for (int next_index = 0; next_index < 15; next_index = next_index +1) { 
                for (int last_index = 0; last_index < 30; last_index = last_index + 1) { 
                    layer2[next_index] += weight_2[next_index][last_index] * layer1[last_index]; 
                }
                layer2[next_index] += bias_2[next_index]; 
                layer2[next_index] = layer2[next_index] > 0 ? layer2[next_index] : 0; // RELU 
            }
            float layer3[10] = { 0 };
            for (int next_index = 0; next_index < 10; next_index = next_index +1) { 
                for (int last_index = 0; last_index < 15; last_index = last_index + 1) { 
                    layer3[next_index] += weight_3[next_index][last_index] * layer2[last_index]; 
                }
                layer3[next_index] += bias_3[next_index]; 
                layer3[next_index] = layer3[next_index] > 0 ? layer3[next_index] : 0; // RELU 
            }
            float layer4[6] = { 0 };
            for (int next_index = 0; next_index < 6; next_index = next_index +1) { 
                for (int last_index = 0; last_index < 10; last_index = last_index + 1) { 
                    layer4[next_index] += weight_4[next_index][last_index] * layer3[last_index]; 
                }
                layer4[next_index] += bias_4[next_index]; 
            }
            float max_final_layer = layer4[0];
            for (int index = 0; index < 6; index = index +1) { 
                if(layer4[index] > max_final_layer){
                    max_final_layer = layer4[index];
                }
            }
            float softmax_denom = 0; 
            for (int index = 0; index < 6; index = index +1) { 
                softmax_denom += expf(layer4[index] - max_final_layer); 
            }
            float softmax_output[6] = { 0 }; 
            for (int index = 0; index < 6; index = index +1) { 
                softmax_output[index] = expf(layer4[index] - max_final_layer - log(softmax_denom));
            }
            if(strcmp(name_.c_str(), "VBF_OFF") == 0) {
                return (double) softmax_output[0];
            }
            if(strcmp(name_.c_str(), "VBF_ON") == 0) {
                return (double) softmax_output[1];
            }
            else if(strcmp(name_.c_str(), "ggH_OFF") == 0) {
                return (double) softmax_output[2];
            }
            else if(strcmp(name_.c_str(), "ggH_ON") == 0) {
                return (double) softmax_output[3];
            }
            else if(strcmp(name_.c_str(), "top") == 0) {
                return (double) softmax_output[4];
            }
            else if(strcmp(name_.c_str(), "WW") == 0) {
                return (double) softmax_output[5];
            }
            else if(strcmp(name_.c_str(), "MAX") == 0) {
                float max_index = 0;
                float max_value = softmax_output[0];
                for (int index = 1; index < 6; index = index +1) {
                    if(softmax_output[index] > max_value){
                        max_index = index;
                        max_value = softmax_output[index];
                    }
                }
                return (double) max_index;
            }
            return -1.0;

	}


	void 
	AddDNNScoresv7::bindTree_(multidraw::FunctionLibrary& _library) 
	{ 
		_library.bindBranch(mll, "mll");
                _library.bindBranch(Lepton_eta, "Lepton_eta");
                _library.bindBranch(Lepton_phi, "Lepton_phi");
                _library.bindBranch(ptll, "ptll"); 
                _library.bindBranch(drll, "drll"); 
                _library.bindBranch(Lepton_pt, "Lepton_pt"); 
                _library.bindBranch(CleanJet_jetIdx, "CleanJet_jetIdx"); 
                _library.bindBranch(Jet_qgl, "Jet_qgl"); 
                _library.bindBranch(Jet_btagDeepFlavB, "Jet_btagDeepFlavB");
                _library.bindBranch(Jet_eta, "Jet_eta");
                _library.bindBranch(pt1, "pt1"); 
                _library.bindBranch(pt2, "pt2");
                _library.bindBranch(mth, "mth"); 
                _library.bindBranch(mjj, "mjj"); 
                _library.bindBranch(dphijj, "dphijj"); 
                _library.bindBranch(PuppiMET_pt, "PuppiMET_pt"); 
                _library.bindBranch(dphillmet, "dphillmet"); 
                _library.bindBranch(mcollWW, "mcollWW"); 
	}
