#include "LatinoAnalysis/MultiDraw/interface/TTreeFunction.h" 
#include "LatinoAnalysis/MultiDraw/interface/FunctionLibrary.h" 
#include "TSystem.h" 
#include "iostream" 
#include "vector" 
#include "TLorentzVector.h" 
#include "TMath.h" 
#include "TSystem.h" 
#include <map> 
#include "TString.h" 
#include <string.h> 
class AddDNNScoresv1_0jet : public multidraw::TTreeFunction {  
	public: 
		//Class Constructor  
		AddDNNScoresv1_0jet(char const* name); 
		//Class Destructor  
		~AddDNNScoresv1_0jet() { 
   		} 
		//Functions from Multidraw namespace (TTreeFunction class) 
		char const* getName() const override {return "AddDNNScoresv1_0jet"; } 
		TTreeFunction* clone() const override {return new AddDNNScoresv1_0jet(name_.c_str());} 
		unsigned getNdata() override {return 1; } 
		//This function will return the required value 
		double evaluate(unsigned) override; 
 
	protected: 
		void bindTree_(multidraw::FunctionLibrary&) override; 
 
		//name of the required ME 
		std::string name_; 
 
		//Needed variables to select the events 
		TTreeReaderValue<float> *mll{}; 
               TTreeReaderValue<float> *dphill{}; 
               TTreeReaderValue<float> *detall{}; 
               TTreeReaderValue<float> *ptll{}; 
               TTreeReaderValue<float> *drll{}; 
               FloatArrayReader* Lepton_pt{}; 
               IntArrayReader* CleanJet_jetIdx{}; 
               FloatArrayReader* CleanJet_pt{}; 
               FloatArrayReader* Jet_btagDeepFlavB{}; 
               TTreeReaderValue<float> *pt1{}; 
               TTreeReaderValue<float> *pt2{}; 
               TTreeReaderValue<float> *mth{}; 
               TTreeReaderValue<float> *PuppiMET_pt{}; 
               TTreeReaderValue<float> *dphillmet{}; 
               TTreeReaderValue<float> *mcollWW{}; 
 
	private: 
		Double_t LHCsqrts_= 13., mh_= 125.; 
 
}; 
	AddDNNScoresv1_0jet::AddDNNScoresv1_0jet(char const* name): 
		TTreeFunction() 
	{ 
		name_ = name; 
	} 
 
	double 
	AddDNNScoresv1_0jet::evaluate(unsigned) 
	{
            const float weight_0[60][12] = {{0.218685731292, 0.326160639524, 0.108265034854, -0.0203386526555, 0.0295272581279, 0.115568697453, 0.176467627287, 0.121458336711, 0.16001932323, 0.181956544518, -0.301681339741, -0.387185752392}, 
                {0.437071323395, -0.115194030106, -0.193897888064, 0.0548104196787, 0.127750590444, -0.0465858019888, 0.459281921387, 0.0898802801967, -0.102322071791, -0.0468546524644, 0.116095982492, -0.350117594004}, 
                {-0.0354430675507, 0.0536837726831, -0.0905106216669, -0.217237472534, 0.140416309237, 0.188615426421, -0.440777808428, -0.122162662446, 0.217014536262, 0.345924675465, -0.0571874789894, -0.125576302409}, 
                {0.287951648235, -0.250426381826, -0.165240377188, 0.151453092694, 0.213285818696, -0.186345547438, 0.275312811136, 0.202582702041, -0.0750643983483, -0.0138331633061, -0.332413464785, 0.33669295907}, 
                {-0.0938649103045, -0.110841281712, -0.112360455096, 0.39625877142, 0.3224196136, -0.00102628651075, 0.106274910271, -0.0918504074216, -0.277780354023, 0.0495072342455, -0.272949069738, -0.48495811224}, 
                {0.0213557537645, -0.173462882638, 0.222799569368, 0.365536302328, 0.0286925975233, -0.275209933519, 0.398828417063, 0.181304872036, -0.0249642152339, 0.464681357145, 0.166238799691, -0.0930343195796}, 
                {-0.0713705718517, -0.0506975315511, 0.00448415009305, -0.456828832626, 0.0471541695297, 0.205634042621, -0.0276389941573, -0.0658797025681, 0.498533219099, -0.100812844932, -0.0519346743822, 0.431039273739}, 
                {-0.152801796794, -0.222117334604, -0.0330339558423, 0.477802753448, 0.103782191873, 0.399670541286, -0.0962986499071, -0.32084608078, -0.211492493749, -0.188825339079, -0.0330587364733, -0.114571467042}, 
                {-0.264409661293, -0.150207534432, 0.0283278003335, 0.16282337904, -0.341172754765, 0.211723253131, 0.0248484816402, -0.132652089, 0.16765409708, -0.228821069002, 0.0252389907837, 0.0422828346491}, 
                {-0.0943545773625, -0.0186723638326, 0.232905045152, 0.159577026963, 0.0628773793578, -0.126050546765, 0.129208907485, 0.082049831748, 0.161980181932, 0.00217926828191, 0.027823517099, -0.437295377254}, 
                {-0.32936707139, -0.031158560887, -0.195269525051, 0.0618398040533, 0.0426480509341, -0.0347298122942, -0.343080312014, -0.250575006008, 0.0839889869094, 0.0979162678123, 0.415212929249, 0.119389124215}, 
                {-0.195878461003, -0.00111775763799, -0.0509226210415, 0.228452071548, -0.238500922918, 0.161721348763, 0.0691173821688, 0.345411539078, 0.248695835471, 0.309640318155, 0.00380845088512, -0.0155744394287}, 
                {-0.336192548275, 0.17005623877, -0.0362777113914, 0.19736482203, 0.24194791913, -0.362950712442, -0.268852353096, 0.334126621485, -0.0654443278909, 0.224037721753, -0.0315490216017, 0.123184740543}, 
                {0.040288541466, -0.0625484734774, -0.126975044608, 0.493823677301, 0.0518584512174, -0.107293918729, -0.106943137944, 0.0976100489497, 0.0396467931569, -0.0774869993329, -0.163157105446, -0.295583635569}, 
                {-0.22817234695, -0.0416644886136, 0.0577587522566, -0.238158017397, -0.140942588449, 0.118138603866, -0.51907736063, -0.392841726542, 0.147125005722, 0.0651930868626, -0.224782675505, -0.116289071739}, 
                {-0.261152297258, 0.408639073372, 0.0077892690897, -0.0427558086812, 0.37207454443, 0.180651962757, -0.381352335215, 0.210450157523, 0.301845401525, -0.0755437538028, -0.239796236157, -0.0212757084519}, 
                {-0.0197046417743, 0.134693205357, -0.335267901421, 0.41515147686, 0.18983708322, 0.0123417582363, 0.0438562557101, 0.0380343347788, -0.199551567435, -0.00862544495612, -0.20093858242, -0.228660136461}, 
                {0.0504071898758, -0.108472965658, -0.0237315669656, 0.772026717663, 0.0357092060149, 0.271945416927, -0.05264088884, -0.167078718543, -0.754000306129, -0.0282062459737, -0.166829794645, 0.0284310746938}, 
                {-0.0112517476082, -0.103792868555, 0.128136321902, -0.48081189394, 0.0222599748522, -0.258328288794, -0.0128400707617, -0.0529535673559, 0.0381595231593, -0.0820167437196, -0.110310003161, -0.125861689448}, 
                {-0.121452525258, 0.118624091148, 0.186773106456, -0.0131409298629, -0.0174931697547, -0.522787630558, 0.0446614399552, -0.211408361793, -0.505585551262, 0.0441169477999, -0.200064748526, 0.00615847948939}, 
                {0.183478817344, -0.00841109827161, -0.125565186143, 0.0658669471741, 0.204606696963, 0.307566910982, -0.0243537984788, 0.136078476906, 0.248428374529, 0.0111443055794, -0.359696656466, 0.430419057608}, 
                {0.194591596723, -0.160325407982, -0.238855347037, 0.152766093612, 0.0883161574602, -0.276437073946, 0.333954274654, -0.220212116838, -0.0400236845016, -0.0284534264356, -0.0848475918174, 0.295504301786}, 
                {-0.141137346625, -0.0239294227213, -0.0389428883791, -0.0734128430486, 0.0504419989884, -0.238857507706, -0.324775546789, 0.200939923525, 0.734928607941, -0.136053666472, 0.0113570317626, 0.0340466834605}, 
                {0.337075233459, -0.152828767896, 0.16535204649, -0.554145157337, -0.203654676676, 0.0411142595112, 0.0243563912809, -0.0308593809605, 0.10815962404, 0.0771563053131, 0.414957880974, -0.0618637315929}, 
                {0.00105511466973, -0.164076536894, -0.0670864209533, 0.262573093176, -0.100889272988, -0.221290811896, -0.0608702637255, 0.0250871796161, -0.0727447271347, -0.0393577702343, 0.202658578753, 0.55694514513}, 
                {0.204850301147, 0.130349203944, 0.0839174091816, -0.20568792522, -0.312561631203, -0.305132865906, 0.0353527776897, 0.378322333097, -0.0151724107563, 0.0357314348221, -0.188807561994, -0.0107706245035}, 
                {0.452145457268, 0.242166131735, 0.28373876214, -0.142191305757, -0.222649723291, 0.153816521168, 0.322674930096, -0.14700999856, -0.0243451986462, -0.0452294126153, 0.313729375601, -0.392285734415}, 
                {-0.168373540044, -0.041458632797, -0.016671795398, 0.532991468906, 0.115659497678, 0.13878749311, 0.131041035056, 0.0310663115233, -0.0602770447731, 0.029083840549, -0.0808620303869, -0.0556940697134}, 
                {-0.209272831678, -0.265365153551, 0.177713885903, -0.315795958042, -0.11802277714, -0.391792953014, -0.429371148348, -0.296937942505, -0.203856959939, -0.00706957047805, 0.144610986114, -0.105925939977}, 
                {0.0976701974869, -0.0424379520118, -0.186635255814, -0.342403024435, -0.252989560366, -0.235201388597, -0.0790615081787, 0.0361360497773, 0.0765605196357, 0.132750034332, 0.503948330879, -0.052766058594}, 
                {-0.12140301615, 0.0436594970524, 0.00781661644578, 0.286989957094, -0.216874599457, -0.364025235176, 0.966710567474, 0.104289866984, 0.195806577802, -0.117538273335, -0.341839104891, -0.0212705284357}, 
                {-0.220500558615, 0.166349261999, -0.208151906729, 0.0130563285202, -0.216389775276, -0.14478585124, 0.0329657308757, 0.0945563465357, -0.103900291026, -0.0396762825549, 0.740527391434, -0.0273068547249}, 
                {-0.160267531872, -0.0524609945714, -0.00374049111269, -0.121018141508, -0.258060872555, -0.129358097911, -0.365069329739, -0.043309930712, 0.100516796112, 0.0111782755703, 0.187428504229, -0.022519595921}, 
                {0.119833499193, 0.389361917973, 0.036514185369, -0.129109799862, -0.161309927702, 0.0385738685727, 0.536213636398, -0.0479108989239, -0.0379494950175, 0.0341253243387, -0.0871143266559, 0.0263843536377}, 
                {0.00835236720741, -0.0235911272466, -0.0261146426201, -0.425378739834, -0.177572324872, -0.00603153835982, -0.418646305799, -0.10074467212, -0.300812929869, 0.157715573907, -0.0847563147545, 0.175955116749}, 
                {0.373953968287, 0.089943960309, 0.495612353086, 0.107496827841, -0.0777791813016, -0.292125880718, 0.158828735352, -0.0452811978757, 0.101840443909, -0.131806790829, -0.371932595968, 0.174175053835}, 
                {-0.00181635876652, 0.151427254081, -0.00233539799228, 0.0615031197667, -0.159057229757, 0.254074841738, 0.248376399279, 0.224899590015, -0.0720296502113, -0.0550980269909, -0.0254123751074, -0.0697992071509}, 
                {-0.0504047945142, 0.129974395037, -0.0814731270075, -0.258141577244, -0.233073577285, -0.28193885088, 0.419419884682, -0.265729337931, -0.0936181694269, -0.252463966608, 0.152306377888, 0.0315765850246}, 
                {-0.156078070402, -0.0516343228519, 0.206529319286, 0.412781625986, -0.234232842922, 0.378527015448, -0.155354931951, -0.12302403897, 0.0765181034803, -0.124847181141, -0.364886492491, -0.38871255517}, 
                {-0.14016866684, -0.319359004498, 0.405463218689, 0.302154153585, 0.21612238884, 0.0755106955767, 0.172519057989, 0.327007979155, -0.0691146329045, 0.0851550996304, 0.0743778944016, 0.0130777526647}, 
                {-0.294283926487, -0.0664064884186, 0.00304448255338, 0.378823548555, 0.00246316869743, 0.176253482699, -0.149760738015, 0.00718164537102, 0.0147317005321, -0.137967050076, 0.262877494097, -0.362783133984}, 
                {-0.0146284718066, -0.19722700119, 0.109990306199, 0.208921134472, 0.128683954477, -0.0396723747253, 0.402889579535, -0.0350892394781, -0.184980913997, 0.0604696571827, 0.00656474288553, -0.450703501701}, 
                {0.07962308079, -0.0383449420333, -0.166341543198, -0.248225077987, -0.00738496193662, -0.0312198642641, 0.386246532202, -0.135628655553, 0.514424979687, -0.199220657349, 0.144220247865, -0.373630046844}, 
                {-0.39685639739, -0.0322569124401, -0.129580289125, -0.161084413528, 0.00717905350029, -0.293691664934, -0.464771300554, -0.12676756084, 0.353554308414, -0.105193339288, -0.221384450793, -0.0113895898685}, 
                {-0.246422067285, -0.223295435309, -0.300907343626, -0.169379711151, -0.200013265014, -0.18233679235, -0.0121908606961, 0.173097282648, -0.130081892014, -0.156514286995, 0.188110381365, -0.0480420403183}, 
                {-0.270931780338, -0.344487667084, 0.0937475040555, 0.477495074272, 0.0923380330205, -0.235014528036, -0.0573755502701, 0.291077136993, -0.430107861757, -0.0710162520409, -0.0818563401699, -0.124934948981}, 
                {0.290707588196, -0.162050798535, 0.222282394767, 0.244560882449, -0.00325032626279, 0.119327187538, -0.131353780627, -0.238592609763, 0.00836239382625, 0.154309272766, -0.39527708292, 0.260620862246}, 
                {-0.245249032974, -0.196208640933, -0.244461864233, -0.214864373207, 0.0318365581334, 0.0248571746051, -0.39770001173, 0.0115367360413, -0.318342506886, -0.0920836552978, 0.00811602920294, -0.0582794472575}, 
                {0.238548770547, -0.189414799213, -0.0143641205505, 0.472492814064, -0.250870376825, -0.221362382174, 0.735522985458, 0.254724830389, 0.317009836435, -0.117491200566, -0.259333848953, 0.0147009305656}, 
                {-0.0419118255377, -0.116005420685, 0.250287026167, -0.176209762692, 0.0696507096291, -0.0550828240812, -0.310909003019, -0.263754248619, 0.538149833679, -0.0436449460685, 0.0557600781322, -0.0182967130095}, 
                {-0.212575882673, 0.120329424739, 0.179431557655, 0.370461642742, 0.02081736736, 0.0800061747432, -0.190854355693, 0.500458419323, 0.229825213552, 0.0258398000151, -0.341235548258, 0.0253497250378}, 
                {-0.382192134857, 0.187762349844, 0.0102781206369, -0.147978752851, 0.272550165653, -0.0740408971906, -0.432859838009, 0.107183352113, 0.102546788752, 0.121267080307, -0.227431237698, 0.156144499779}, 
                {-0.165788248181, -0.108289264143, -0.206669807434, 0.171825528145, -0.13129504025, 0.0719166994095, -0.361588329077, 0.140222653747, -0.107696913183, -0.0999416261911, -0.0874640718102, 0.260103106499}, 
                {0.119035720825, -0.209243416786, 0.132592514157, 0.122932709754, -0.168784081936, -0.187558084726, 0.399359375238, 0.3552698493, -0.155237540603, 0.120219029486, -0.197582289577, 0.0886008664966}, 
                {0.0544309690595, 0.279455691576, -0.121672309935, 0.328042954206, -0.0587857887149, 0.414375513792, -0.172149956226, 0.310740143061, -0.33248898387, 0.0122118722647, -0.207121968269, 0.0572138428688}, 
                {0.0777631253004, -0.0676120594144, -0.0769470185041, -0.19179327786, 0.105775155127, -0.165519997478, -0.00131076702382, -0.0905136838555, 0.714246749878, -0.193210840225, 0.0886945575476, -0.318640083075}, 
                {0.378140181303, 0.148435458541, 0.184323206544, -0.332271248102, 0.119854032993, -0.07290250808, 0.314887344837, -0.0758995190263, 0.314100265503, -0.00613828748465, 0.102075532079, 0.113420896232}, 
                {0.183714702725, 0.12560993433, 0.0774423927069, 0.348346173763, -0.18072873354, 0.133489951491, -0.193343549967, -0.0964992642403, -0.198785379529, -0.0728858709335, 0.204077705741, 0.474743694067}, 
                {-0.253787487745, -0.127741217613, 0.204631626606, 0.0512234158814, 0.32541424036, 0.0932672321796, 0.182229578495, 0.281409174204, -0.182738512754, -0.163177758455, 0.042534571141, 0.28889772296}, 
                {0.165718585253, 0.180310174823, -0.138830274343, 0.315474003553, 0.103349983692, 0.252890825272, 0.497063100338, -0.112988688052, -0.171403035522, 0.196237042546, -0.0460787340999, 0.351771205664}}; 
            const double bias_0[60] = {0.208539620042, 0.246347874403, -0.239218145609, -0.020453305915, 0.119759984314, -0.00252237659879, -0.379963964224, -0.208575978875, -0.244022905827, 0.249318674207, -0.165164738894, 0.206082314253, 0.058653280139, 0.0154172498733, -0.190457135439, 0.0550863705575, 0.24131923914, 0.0238561090082, 0.0243521034718, 0.0152813345194, 0.0625476017594, 0.246828556061, 0.0654837042093, -0.0527641996741, -0.101291075349, 0.312850773335, 0.267246931791, 0.39197820425, -0.236170575023, 0.159491345286, 0.0479618832469, 0.0403479486704, -0.0951767116785, 0.391901642084, -0.235717356205, 0.0499784760177, 0.47032520175, -0.180443048477, 0.0849616751075, 0.149258390069, 0.114160045981, 0.143597155809, 0.0767220854759, 0.0264440383762, -0.182679593563, 0.0221081450582, -0.209094733, -0.207437679172, -0.405165612698, -0.10887247324, 0.389810234308, 0.104293391109, -0.150419726968, 0.161036372185, 0.379677772522, 0.018021563068, 0.170864015818, -0.256714403629, 0.00215248973109, -0.031533010304}; 
            const float weight_1[30][60] = {{0.0371873155236, 0.0448419041932, 0.359140753746, 0.0903277099133, 0.288932651281, 0.112295918167, 0.116093635559, -0.221369042993, -0.0648110955954, 0.315778523684, -0.337032705545, 0.0344984941185, -0.0463792607188, -0.028667839244, 0.117293685675, -0.256908208132, 0.31960567832, 0.0947584286332, 0.0303617864847, 0.0204158872366, 0.0371526181698, 0.0236919857562, 0.203268766403, 0.133152604103, 0.174779072404, -0.281039685011, 0.229380771518, 0.117341391742, -0.162254586816, -0.0510789975524, -0.25103777647, 0.139699563384, -0.231343463063, 0.0532214567065, -0.231434360147, 0.099222406745, 0.143897861242, -0.32430100441, 0.0722197815776, 0.168393313885, 0.296129584312, -0.0481488332152, 0.112477295101, -0.0904442667961, -0.0761585980654, 0.0167209170759, 0.0210914835334, -0.302541613579, -0.0742112398148, 0.0413380712271, 0.377598494291, -0.0778763964772, -0.213281646371, -0.013708264567, -0.169273450971, 0.476560205221, 0.0890052691102, 0.0585984885693, -0.043154515326, -0.145704507828}, 
                {0.150189086795, 0.0312309283763, -0.195876613259, -0.0434577725828, 0.0336197353899, -0.0882366001606, 0.492058604956, 0.265727102757, -0.234483942389, -0.231903448701, -0.172368720174, 0.126918911934, 0.261720359325, -0.325627982616, -0.402280658484, 0.162973254919, 0.0300199277699, 0.463655620813, -0.19916036725, 0.163508832455, 0.123851679265, -0.164160475135, 0.208631664515, -0.734158873558, -0.211778312922, -0.368354916573, 0.148223266006, 0.22803068161, -0.0343731790781, -0.0736854970455, -0.191869482398, -0.204366579652, -0.272897303104, 0.340478092432, -0.384225487709, -0.0909423530102, 0.366948634386, 0.367732167244, -0.168334379792, 0.137790888548, 0.0277807544917, -0.317002356052, 0.284732431173, -0.206708475947, -0.19375833869, -0.407185256481, -0.35711568594, 0.125871673226, -0.255815446377, 0.337124407291, 0.072603136301, 0.169485598803, -0.216676518321, 0.103314720094, 0.293831259012, 0.181133508682, 0.12008202076, 0.392898201942, 0.0195463914424, 0.510508060455}, 
                {-0.00971493218094, 0.160296082497, 0.0798992663622, -0.121526502073, -0.140362769365, -0.232567921281, -0.475258976221, -0.290216267109, 0.192270249128, -0.108290217817, -0.240291118622, 0.0175136476755, 0.0306697189808, -0.120023198426, 0.0388816148043, -0.220819398761, 0.110293202102, -0.215622261167, 0.022120822221, -0.264089524746, 0.21026687324, 0.193804219365, 0.224864214659, -0.366049438715, 0.150451987982, 0.245508432388, 0.232631832361, 0.193662896752, -0.00551077304408, -0.111204385757, 0.00679990509525, -0.00587403494865, -0.176552519202, 0.445269584656, -0.019088326022, 0.181759461761, -0.0591003783047, -0.08243753016, -0.0261660534889, 0.0431018769741, 0.21248960495, -0.0073178508319, 0.11553812772, 0.0203990936279, 0.264226645231, -0.029294455424, 0.232990548015, -0.168290302157, -0.561532080173, 0.0126748206094, 0.163688033819, 0.260300755501, 0.276683986187, 0.0530850812793, 0.179834589362, 0.115888930857, 0.141109824181, 0.0577208027244, -0.0815404504538, 0.0070791891776}, 
                {-0.332036018372, -0.329329311848, 0.116027735174, -0.0579838901758, -0.142349734902, -0.155570209026, 0.0563149526715, -0.0589346624911, 0.149624124169, 0.0735239908099, 0.0495643280447, -0.215215057135, 0.175290167332, -0.00198074174114, 0.112703599036, 0.288992345333, 0.151830762625, -0.357862234116, 0.104260705411, 0.198494896293, 0.0954012200236, 0.157236814499, -0.217651799321, -0.0354963690042, 0.0807983353734, 0.0198045521975, -0.427210330963, -0.312670707703, 0.202946543694, 0.29663541913, 0.354509979486, -0.113230615854, 0.177138239145, -0.54588919878, 0.259656369686, -0.375319302082, -0.043388210237, 0.00669916020706, -0.143851876259, -0.20854113996, -0.0644275099039, -0.087010294199, -0.00282465619966, 0.2640196383, 0.126158073545, 0.26299238205, 0.0520623810589, 0.00437555927783, -0.231342703104, -0.17934705317, 0.015804534778, 0.257058620453, 0.176243066788, 0.251285284758, -0.117871709168, 0.0626621767879, -0.354041099548, -0.037074573338, 0.063821233809, -0.260155200958}, 
                {0.145295962691, -0.0857235193253, -0.460905462503, -0.0131025640294, 0.330452203751, -0.208263888955, -0.180665642023, -0.122602038085, -0.412531107664, 0.232893809676, 0.0020673496183, -0.268920391798, 0.158276721835, 0.153429880738, -0.176089420915, -0.220435500145, 0.293322920799, -0.335818320513, 0.0438089258969, 0.0807097032666, -0.0103141879663, 0.0235482826829, 0.0624020136893, 0.141080468893, -0.013228032738, 0.252676010132, -0.344921141863, 0.0454933084548, 0.336909562349, 0.24581129849, -0.476786822081, 0.0806591138244, 0.00280908332206, 0.0092395413667, 0.195792138577, 0.0792431384325, 0.173647880554, -0.180313259363, 0.198865160346, 0.356256604195, -0.072654210031, 0.165210947394, -0.372956395149, 0.254385381937, -0.0328665114939, 0.02351956442, 0.30315348506, 0.341980040073, -0.897074818611, 0.106321766973, 0.242197543383, 0.0627343654633, 0.235664710402, -0.294326335192, -0.0905587524176, -0.277715474367, -0.0609686300159, 0.0171998739243, 0.0946428254247, -0.100980989635}, 
                {-0.0683245658875, -0.117407426238, 0.422644644976, -0.087593100965, -0.0445889234543, -0.181199252605, 0.3402967453, 0.0839025750756, -0.135772272944, 0.0408874824643, 0.0698119923472, 0.13310328126, 0.0121512319893, 0.0919050574303, 0.363491177559, 0.293035507202, 0.14956279099, 0.386585652828, 0.0745745822787, -0.132316961884, 0.198432639241, -0.0828389823437, -0.158941015601, 0.0325773768127, -0.1317935884, -0.139666870236, -0.289375185966, 0.189925864339, 0.11362657696, -0.0178682990372, 0.52125865221, -0.103371113539, 0.248244032264, -0.255424618721, 0.123965792358, 0.0608948580921, 0.272763282061, 0.0453456416726, -0.0687666013837, 0.0527198165655, -0.0758502036333, -0.133414149284, -0.175814181566, -0.117544285953, 0.0392378978431, 0.225328281522, -0.273952066898, 0.317444294691, -0.439493656158, 0.119702778757, -0.162902876735, 0.159503296018, 0.0280590988696, -0.117185093462, 0.491281986237, 0.235653728247, 0.206094101071, -0.306310623884, 0.169598907232, 0.318226575851}, 
                {-0.52561634779, 0.291639775038, -0.0418125726283, -0.204640343785, 0.0219829380512, -0.133336409926, 0.254543602467, 0.00224563432857, 0.168057531118, 0.340124845505, -0.215799927711, -0.294145852327, 0.00605731969699, 0.201905250549, 0.0752189382911, -0.0634862706065, 0.219878777862, 0.553841710091, 0.247605741024, 0.0715728104115, 0.0397039875388, -0.138884410262, 0.220121592283, -0.00192730478011, -0.0696697607636, -0.0152516840026, -0.1041033566, -0.079833060503, -0.0836931541562, -0.281245231628, -0.0203857794404, -0.187419831753, 0.370297640562, -0.0856323540211, 0.016772178933, 0.0963208004832, 0.248132705688, -0.278912484646, 0.44000941515, 0.103360451758, 0.313981950283, 0.118340373039, -0.00599242607132, 0.0601393766701, -0.0999583899975, 0.379828304052, 0.427455335855, 0.187562853098, 0.337888121605, 0.706334173679, -0.381911635399, 0.247802957892, 0.181459382176, 0.101978361607, 0.175943300128, -0.0485337749124, -0.172743290663, 0.230881035328, 0.252247065306, -0.248376622796}, 
                {-0.289525151253, -0.225127249956, -0.216569066048, 0.1754091084, 0.320394933224, 0.0284527782351, 0.338281989098, -0.00382881588303, -0.0342765934765, 0.243811011314, 0.0655845925212, 0.108971014619, 0.0202638898045, 0.0609460808337, 0.109914347529, -0.00402309885249, 0.30961099267, 0.521194279194, 0.219561338425, 0.264171302319, -0.0665249824524, 0.0336871482432, -0.0256522111595, -0.279762774706, 0.295717895031, 0.0977403074503, -0.407266527414, 0.162139296532, 0.283714234829, -0.0296038500965, 0.256732016802, -0.13625086844, 0.216194108129, 0.121382653713, 0.0664860159159, -0.206353634596, -0.139892265201, 0.239882007241, -0.168153822422, -0.0347276069224, 0.22574813664, 0.174942806363, 0.0895496085286, 0.0595588758588, 0.167245864868, -0.00915006548166, 0.0959633216262, -0.118914462626, 0.442988455296, -0.046862963587, -0.348260164261, 0.174976810813, 0.136301964521, -0.0717437341809, -0.269510567188, 0.252347707748, -0.0290972404182, 0.272588074207, 0.0763602852821, 0.0124403126538}, 
                {-0.144457608461, -0.268928557634, -0.0552604161203, 0.219867184758, -0.535534083843, -0.188720673323, 0.368032246828, -0.284219056368, 0.188058003783, -0.533869743347, 0.163908973336, -0.0681066811085, 0.224956735969, -0.202625706792, -0.173777222633, -0.0985587090254, -0.562456011772, -0.00135917309672, -0.130813315511, -0.0181156136096, 0.444247663021, 0.323163926601, 0.046045564115, -0.0223044864833, 0.528064250946, -0.313221096992, -0.303349941969, -0.15554626286, -0.105077669024, -0.0953725501895, 0.0270935501903, 0.0521575510502, -0.0946691632271, -0.257035315037, 0.208728924394, -0.0615459606051, -0.394310504198, 0.023687062785, -0.16013815999, 0.00650902092457, -0.268761724234, 0.0329417735338, -0.156776487827, -0.244408205152, -0.201696395874, -0.265483409166, 0.305481255054, 0.0374256148934, 0.00118719844613, -0.172861739993, -0.0534348860383, 0.0455212555826, 0.121335200965, -0.0717718452215, 0.0618592016399, -0.484369397163, 0.169321417809, 0.632479429245, 0.39329341054, 0.348247826099}, 
                {0.0919598639011, -0.114045150578, 0.229243502021, 0.312613725662, -0.0316138938069, -0.0312038809061, 0.321083217859, -0.227717608213, -0.0672628134489, 0.0134559525177, 0.0424894317985, -0.0551535114646, -0.187781497836, -0.010709123686, 0.0853090956807, 0.0665979981422, 0.0683147162199, 0.120998479426, -0.244051501155, 0.0155995655805, 0.145170673728, 0.0556844100356, 0.0876521244645, -0.249728888273, 0.0511751323938, 0.141068205237, 0.00803174823523, -0.0945275500417, -0.189787358046, -0.228197991848, 0.123780198395, -0.0283578634262, -0.190658509731, 0.0582623146474, -0.100121356547, 0.314694643021, -0.0827968418598, 0.10201523453, 0.232414677739, -0.0986621156335, -0.0104161491618, 0.233284950256, -0.0768578350544, 0.133793011308, 0.124114125967, 0.0398797914386, -0.139170899987, -0.140333935618, 0.0442698374391, -0.282099455595, 0.312344223261, 0.0243188869208, 0.342994332314, 0.0150879528373, -0.0686899870634, -0.349270522594, -0.0372885167599, 0.32686689496, 0.0775932520628, 0.0269638001919}, 
                {0.0346384681761, 0.035964269191, 0.149745315313, 0.160020545125, -0.0273095406592, 0.270797848701, -0.448423802853, 0.632837593555, 0.0901914983988, -0.183339178562, 0.104823425412, -0.076196141541, 0.310344129801, 0.0950749590993, -0.17552767694, -0.0311843249947, 0.35213676095, 0.111780546606, -0.0669420585036, -0.241474494338, -0.158706307411, -0.205545559525, -0.0707282721996, -0.0174309778959, 0.065352641046, -0.0506416372955, 0.228121578693, -0.015004995279, -0.125151321292, -0.409744471312, 0.0819987952709, -0.0713558793068, 0.0730880647898, -0.0863597169518, 0.156810641289, 0.0664830133319, 0.0829139351845, -0.251780748367, -0.151816025376, -0.124123863876, 0.257554769516, -0.261671960354, -0.290519744158, 0.115718111396, -0.216961741447, 0.0294812489301, 0.222858637571, -0.0271698478609, 0.339759975672, 0.0907713994384, 0.125122502446, -0.0302087683231, -0.00942330621183, -0.159989148378, 0.435444176197, 0.00881745759398, 0.102706968784, -0.202517822385, 0.0362215600908, -0.0496260710061}, 
                {-0.215043857694, 0.037291046232, -0.196459546685, 0.0567820556462, 0.107662469149, -0.127137467265, 0.0145356487483, -0.166218787432, -0.213638231158, 0.0996717363596, 0.0664721876383, 0.0750787183642, -0.0832042470574, -0.045872412622, 0.0519381538033, -0.0718748122454, 0.0378092192113, 0.0793067663908, 0.129193380475, 0.413562744856, -0.435622662306, 0.30614849925, 0.096211463213, -0.20543923974, -0.15932507813, 0.132821843028, -0.0889335423708, 0.146870300174, 0.0312868766487, 0.368511527777, -0.300455898046, 0.154733121395, -0.269498258829, 0.282381564379, 0.0347813218832, 0.0289252884686, -0.258024960756, 0.112857848406, -0.253311902285, -0.194769322872, -0.132342278957, 0.162733823061, -0.0429635420442, -0.346272200346, 0.167134225368, -0.308152318001, -0.0976333394647, -0.152614012361, -0.117054790258, 0.0437376126647, 0.336154073477, 0.0334780216217, -0.339470118284, -0.00325772585347, -0.628775179386, -0.0889160335064, 0.117419175804, -0.0653897151351, -0.1466871351, 0.202069178224}, 
                {-0.00413768226281, 0.119446277618, -0.00273934961297, 0.27058082819, 0.438824921846, 0.023103248328, 0.283434569836, -0.36663132906, 0.0372510179877, -0.0223803408444, -0.328058987856, -0.312432289124, -0.319084584713, 0.199669659138, 0.343513280153, 0.0673679858446, 0.0837264433503, 0.470268964767, -0.220594972372, -0.0257691405714, 0.394257187843, -0.0467943511903, 0.152703016996, -0.27071928978, 0.210354477167, -0.11969871074, 0.105027206242, -0.152461901307, -0.0363656878471, -0.11784414202, 0.470185935497, -0.326146692038, 0.158391967416, -0.106959834695, 0.17665027082, -0.129253864288, 0.238476827741, -0.264285683632, -0.00263034249656, -0.165634036064, 0.407649129629, 0.0294003318995, -0.206900909543, 0.235493555665, 0.150924131274, 0.170362353325, 0.174651965499, -0.193570166826, -0.502668559551, 0.220757842064, -0.375022232533, 0.0650102347136, 0.25869128108, 0.187012419105, 0.144011467695, -0.019392080605, -0.0798229649663, 0.366039097309, 0.363895386457, -0.0584052279592}, 
                {0.0283238254488, -0.336074829102, 0.109332814813, -0.187756404281, -0.139589503407, -0.00948341283947, 0.303027153015, -0.128432571888, 0.162901833653, -0.0272834543139, -0.0256882347167, -0.283871561289, 0.189289480448, 0.125562995672, 0.410345494747, 0.00400872156024, -0.0174406804144, 0.14500656724, 0.122809812427, 0.215334028006, -0.00988107640296, -0.0217832904309, 0.347507447004, 0.458113700151, -0.154161036015, -0.00662871776149, -0.269872546196, -0.512466549873, 0.326283276081, 0.245509490371, -0.237964048982, -0.0161702800542, 0.253403931856, -0.113069653511, 0.0343464799225, -0.352559179068, -0.171538516879, 0.0501485355198, 0.0213603656739, -0.190855383873, -0.21631076932, -0.200101241469, 0.00292638107203, 0.329780220985, -0.0122785773128, -0.313482344151, -0.318877249956, -0.0390277057886, -0.505646944046, 0.141933977604, -0.265182554722, 0.383613407612, -0.119437143207, -0.196742042899, 0.292301416397, -0.0856535583735, -0.448278665543, 0.139327302575, 0.104510821402, -0.153596237302}, 
                {0.0486187785864, 0.254314810038, 0.191664919257, 0.122725561261, 0.194288164377, 0.0525618195534, -0.0305536054075, -0.192856281996, 0.454413443804, -0.0978946685791, -0.105982974172, -0.144047826529, -0.130971804261, -0.000703297555447, -0.227466419339, -0.0632875487208, 0.223941668868, -0.299383103848, -0.0995092019439, -0.0718778297305, -0.245331302285, 0.00461210822687, -0.273461103439, -0.13303168118, 0.13658413291, 0.315655976534, 0.509831488132, 0.0414107702672, -0.219547361135, -0.265016764402, 0.0184807423502, -0.291841119528, -0.0621381737292, -0.0459512285888, -0.43720844388, 0.214089781046, 0.21983204782, 0.0639641806483, 0.136432573199, -0.0326000005007, -0.158028692007, 0.340245336294, 0.105478338897, 0.159484326839, -0.0878059715033, 0.0540961585939, -0.0862165391445, 0.111018136144, -0.350004762411, -0.201860710979, 0.00740469060838, -0.0596775710583, 0.322715401649, 0.158081129193, 0.0702169984579, -0.12356364727, -0.240323588252, 0.0103873731568, -0.242655307055, 0.014742645435}, 
                {0.121298916638, -0.0454063042998, 0.58998554945, 0.169242709875, 0.412232846022, -0.114567063749, 0.449258685112, 0.0600170269608, -0.0788270607591, 0.0944414064288, 0.00216614175588, 0.150983691216, -0.00937020871788, 0.229954883456, -0.1128058061, -0.119476571679, -0.0999116152525, 0.302687495947, 0.119316190481, -0.0406652912498, 0.0218030568212, 0.0741420313716, 0.290861517191, 0.0347385182977, 0.243082463741, -0.243454560637, 0.030092081055, -0.0591777563095, -0.222467139363, -0.257367908955, -0.278073906898, 0.12965092063, -0.0246955938637, -0.232470542192, -0.144051730633, 0.185248225927, -0.265689909458, 0.0246474854648, 0.316819697618, 0.0743184760213, 0.306559354067, 0.177602276206, -0.00491391727701, 0.19516171515, -0.305544674397, -0.00665048090741, 0.00198815646581, -0.258189857006, 0.341402471066, -0.0268895532936, 0.0625172257423, -0.0675398185849, 0.306989938021, 0.183474734426, -0.264448970556, 0.265084981918, 0.138579174876, 0.0594904012978, 0.142584323883, 0.0856644362211}, 
                {0.0725591853261, -0.0508912988007, 0.153296664357, 0.168901130557, 0.160798460245, -0.449326664209, 0.201923325658, -0.031147858128, 0.13747318089, -0.0064107440412, 0.155690208077, -0.236427292228, 0.158361658454, -0.0220892652869, 0.0520516969264, 0.391843765974, 0.236242622137, 0.223608091474, 0.285139530897, 0.0774539485574, 0.139234915376, -0.0302052646875, 0.207989186049, 0.227775603533, -0.141267001629, -0.096853710711, 0.116005666554, -0.410127997398, 0.229590833187, 0.124320670962, -0.273511826992, 0.107407607138, -0.0993118286133, 0.235104709864, 0.0155604667962, 0.0380693264306, -0.26828110218, 0.200451940298, -0.0890419259667, -0.232391670346, 0.149643316865, -0.0364767052233, 0.13986235857, 0.25309792161, 0.0971556082368, 0.048389647156, 0.371175140142, -0.0201142560691, -0.480449140072, 0.355967789888, 0.00702580297366, 0.306910276413, 0.140157938004, -0.228633463383, -0.0668127462268, 0.018816800788, -0.221081316471, 0.0614192038774, 0.0159670040011, 0.0534529425204}, 
                {-0.193285942078, 0.0482249297202, 0.324472904205, 0.282249391079, 0.0137796401978, -0.070265814662, 0.276478171349, -0.316812008619, -0.207853168249, 0.239313170314, -0.150412097573, -0.0873058214784, 0.277085632086, -0.1914267838, -0.0069373883307, 0.132504552603, 0.187171503901, 0.409753143787, 0.143845126033, 0.168174430728, 0.168808117509, -0.0487449131906, -0.310317307711, -0.301613509655, 0.0581885166466, 0.119126051664, -0.394263207912, 0.169414371252, 0.105589881539, -0.243036627769, 0.331713199615, -0.0666858553886, 0.224132075906, 0.0671244263649, 0.059615816921, -0.47397467494, 0.195426762104, -0.172019377351, -0.153572916985, -0.184028655291, 0.15328168869, -0.0784834176302, 0.18956835568, 0.193376928568, -0.164922401309, -0.0348856188357, 0.339572995901, -0.00436643371359, -0.0166105404496, 0.349688440561, 0.0908869355917, 0.363510966301, 0.274811685085, -0.0507793463767, 0.251616686583, -0.0210640039295, 0.147810637951, 0.224064141512, -0.227695643902, 0.032543733716}, 
                {0.0197571218014, 0.377095460892, 0.0363867618144, -0.809320449829, 0.112959042192, -0.0200450140983, 0.170712381601, 0.022517176345, 0.242866382003, 0.237035036087, 0.0314863622189, -0.44443500042, 0.111870504916, 0.0369881279767, -0.0994704887271, 0.118107005954, 0.186498656869, 0.197721064091, -0.213945508003, -0.214548364282, -0.447844713926, 0.113218791783, -0.0831329002976, -0.515696644783, 0.271478950977, -0.415711641312, 0.0929559022188, 0.183861851692, -0.259449720383, -0.240990385413, 0.0520516894758, -0.271898925304, -0.381228715181, -0.0647327005863, 0.450445353985, 0.14533996582, 0.129921853542, -0.36326572299, 0.112620405853, 0.0647264048457, 0.470970511436, -0.0072475541383, 0.263296067715, -0.0824053213, -0.107399351895, 0.131895959377, -0.202729061246, -0.160109609365, 0.168266579509, 0.0783137157559, -0.0870048627257, -0.0704930052161, 0.149729937315, -0.335743248463, -0.132691249251, 0.177628070116, 0.100283488631, 0.327838361263, -0.511891126633, -0.226754695177}, 
                {0.0574309192598, -0.156993895769, 0.105141244829, 0.0106224613264, -0.201420754194, 0.190865844488, -0.576053917408, 0.0180389229208, 0.0447587072849, -0.0594035312533, -0.116211913526, 0.0256613343954, -0.021363498643, 0.184924840927, -0.0855393186212, -0.1625135988, -0.129034817219, -0.24031214416, 0.194483608007, 0.355180352926, -0.273220688105, 0.253602743149, 0.263615995646, 0.0887282416224, 0.083382293582, 0.130276203156, 0.275081813335, 0.292419523001, -0.171342045069, -0.120337449014, -0.0417944304645, 0.116163544357, 0.156414866447, 0.210179314017, 0.183775544167, 0.0990666002035, 0.0607971474528, 0.0397088043392, -0.264973044395, 0.279627114534, -0.00652938475832, 0.0676333606243, -0.0632164850831, 0.104488246143, -0.208052396774, -0.0598910786211, 0.178748607635, 0.105576477945, 0.383901685476, 0.223476603627, 0.124811649323, 0.0831493586302, -0.196803614497, 0.221160590649, -0.0711123943329, -0.0699311196804, 0.178966999054, -0.247582241893, 0.165198415518, 0.0819159820676}, 
                {0.396829396486, 0.0301095284522, -0.0551404543221, 0.0941943824291, 0.29260340333, -0.389759033918, 0.0914783924818, 0.171519741416, -0.186325222254, 0.327754914761, -0.0868048220873, -0.218168005347, 0.132440239191, -0.175119951367, 0.16868622601, 0.067853115499, 0.148537710309, 0.0886797010899, -0.0427458398044, -0.0938994064927, 0.174658507109, 0.310672312975, -0.0451567135751, -0.318916589022, -0.0849413052201, 0.148001477122, 0.351171523333, 0.261048913002, 0.138355791569, 0.15939719975, -0.345276832581, -0.0415257588029, 0.152412697673, 0.215269714594, -0.0672466307878, 0.36508589983, 0.0801310539246, 0.343856096268, -0.1753577739, 0.149965822697, 0.216148942709, 0.222615152597, 0.180175751448, -0.223264336586, -0.215012848377, 0.137475311756, -0.235378816724, -0.279336512089, -0.65314167738, -0.308587402105, 0.262972682714, 0.168880939484, -0.104684725404, -0.118333823979, 0.1330319345, -0.0909931585193, 0.150281399488, 0.456949174404, 0.291692912579, 0.493548542261}, 
                {-0.0568965040147, 0.0304528027773, 0.160096257925, -0.281322181225, -0.20021353662, -0.0638822093606, -0.355891555548, 0.00627479469404, -0.0415150336921, -0.0430375225842, 0.334930330515, 0.0144810061902, -0.17081092298, -0.0664975494146, -0.210467249155, 0.13878801465, 0.157707765698, 0.087663218379, 0.207475528121, 0.224397674203, 0.0638132989407, -0.0250836163759, 0.111604370177, -0.156637296081, -0.0807294845581, 0.179412454367, 0.222159042954, 0.196998953819, 0.169741526246, 0.241115391254, -0.401270031929, 0.467681735754, 0.140628308058, -0.106335237622, -0.123162254691, 0.244668453932, -0.0342313535511, 0.141142636538, -0.0885767415166, 0.0634017661214, -0.090062700212, 0.297660827637, 0.00407694093883, 0.0374102890491, -0.177731812, -0.117266088724, -0.0220160931349, 0.210568368435, -0.151126474142, -0.0705754384398, -0.206400513649, 0.16672052443, 0.158448964357, -0.0370379053056, -0.0305225718766, 0.134838327765, 0.287511259317, 0.221399575472, 0.0594544075429, 0.062635563314}, 
                {0.156141549349, 0.172117307782, 0.188246697187, -0.217860996723, -0.284875690937, -0.288003027439, -0.134981349111, -0.257261812687, -0.177104622126, -0.0340318977833, 0.0747290030122, -0.095064073801, 0.18695640564, -0.130393028259, 0.0452906638384, 0.141742408276, -0.00311702489853, -0.778475046158, 0.0162033643574, 0.0837411954999, 0.183416947722, 0.114819526672, -0.114161550999, 0.105145856738, -0.237773582339, -0.101053901017, -0.155433803797, 0.0401231385767, 0.308057397604, -0.152358308434, -0.0707959905267, 0.337731897831, 0.0981844291091, 0.148664936423, 0.338205546141, 0.159351989627, 0.137462973595, -0.0909083634615, 0.03775087744, -0.260719686747, 0.071666508913, 0.122893147171, -0.143278062344, 0.0991785675287, -0.121690325439, 0.000727382255718, -0.0711001604795, 0.244703680277, -0.0964096710086, -0.14889729023, -0.0325874313712, 0.141922906041, 0.0345604345202, 0.0837775319815, 0.421249866486, -0.343667894602, -0.349901497364, 0.118011370301, -0.103875763714, 0.28957465291}, 
                {-0.560623407364, 0.00061947182985, -0.112579710782, -0.126995071769, 0.0414525382221, 0.178035259247, -0.014197813347, 0.153475210071, -0.171577557921, -0.320069104433, 0.353281795979, -0.0199938975275, 0.0566416420043, -0.0916462615132, 0.0773839130998, 0.206096604466, 0.0648668706417, 0.307663083076, 0.0682163909078, 0.0946788266301, -0.41462418437, 0.0695299431682, -0.329833120108, 0.0156786944717, -0.177436813712, 0.210410624743, -0.226880609989, -0.27527564764, 0.217075556517, 0.0189915336668, -0.0874587073922, 0.138047203422, -0.174015834928, -0.656779944897, 0.317274481058, 0.00116301025264, -0.285428702831, 0.212105676532, -0.255058705807, -0.350761443377, 0.15712454915, -0.204849541187, 0.130150720477, 0.144828483462, 0.199678823352, 0.0540221892297, 0.0774098485708, 0.198479473591, 0.127329573035, 0.331904917955, -0.182971999049, 0.130917057395, 0.202860072255, 0.153149157763, 0.0408316627145, 0.0414589345455, -0.464450776577, -0.170610234141, -0.0433785021305, 0.0153520582244}, 
                {0.038410268724, 0.00907890871167, -0.131904497743, 0.131103694439, 0.277341872454, -0.501183152199, 0.224117651582, -0.133746162057, -0.0913410782814, 0.201867207885, 0.277881145477, 0.254754185677, -0.00735447090119, 0.148626998067, -0.150502860546, -0.251240432262, -0.000407873245422, -0.118745073676, 0.113719679415, -0.0793114975095, 0.123204812407, -0.0550423823297, 0.104078911245, -0.159083530307, 0.243317261338, -0.171553134918, 0.319549441338, -0.0334282070398, -0.140280127525, 0.288692176342, 0.0100916661322, -0.0689418613911, -0.190294012427, 0.252671599388, -0.179422870278, 0.0740175098181, 0.321160852909, -0.139603659511, 0.0193133987486, 0.181413456798, 0.0256384797394, 0.0343941114843, 0.158322274685, 0.194771379232, -0.14268296957, 0.193059653044, -0.257018476725, -0.260350555182, 0.101689077914, -0.200626075268, 0.203694611788, 0.0680195614696, -0.00255658035167, 0.281349301338, 0.159368246794, -0.0969042703509, 0.126480802894, -0.47805005312, -0.293250203133, -0.255791723728}, 
                {0.294502735138, -0.0882183760405, 0.0100640496239, 0.163009613752, 0.322102963924, 0.257915824652, -0.0524882674217, 0.19687230885, 0.28194925189, -0.114082857966, -0.48852416873, 0.0654918476939, 0.2638284266, -0.253263831139, -0.16508230567, -0.104389816523, 0.181524530053, -0.100040920079, -0.174273446202, -0.0797401443124, 0.201813310385, 0.322330981493, 0.129174292088, -0.116705745459, 0.0283294897527, -0.149677529931, 0.399216920137, 0.350599229336, -0.300242424011, -0.394390136003, 0.601626515388, 0.413160502911, -0.323758631945, -0.0440976545215, -0.224835038185, 0.252512544394, 0.0103007927537, 0.244620114565, -0.502312541008, 0.250491261482, -0.216984629631, 0.226605013013, -0.140306010842, 0.0668113678694, -0.450961053371, -0.153961405158, 0.247211709619, -0.27345380187, -0.220421925187, 0.273340046406, 0.31134134531, -0.0232455898076, -0.10627193749, 0.169952616096, 0.0581681728363, 0.144414067268, 0.0336908325553, -0.25981760025, 0.223213717341, 0.181841701269}, 
                {-0.0612005479634, 0.0818824395537, 0.0280608609319, 0.0247768294066, 0.0891930907965, -0.241960391402, -0.0928903073072, 0.122981607914, -0.172381624579, 0.236038953066, -0.193420395255, -0.284012854099, 0.0443307980895, -0.241788446903, -0.239822864532, -0.218562468886, -0.27080309391, 0.00827617384493, 0.253793895245, 0.351177662611, -0.290688514709, 0.259058475494, 0.0565735064447, -0.558735489845, -0.353460460901, 0.0498658418655, 0.00192322325893, 0.300265043974, -0.217622041702, 0.270687282085, -0.245308190584, 0.670939564705, 0.203526869416, 0.20332968235, -0.198157057166, 0.124962516129, 0.447728991508, 0.1173305884, -0.118295624852, -0.0986562743783, 0.0397197119892, -0.0206404849887, 0.192442625761, -0.151974156499, -0.110286422074, -0.126179024577, 0.0449631810188, -0.16697050631, -0.509023964405, -0.172263711691, 0.142827183008, 0.185864567757, 0.0752842053771, -0.328947752714, 0.0681880787015, -0.141230300069, 0.0103163886815, 0.212161779404, -0.144253715873, 0.0391069278121}, 
                {0.163660377264, 0.0960346460342, -0.250464349985, 0.222609221935, -0.275264978409, -0.165710195899, -0.534107148647, 0.161764711142, 0.0593471154571, -0.0517364777625, 0.192976251245, 0.107887491584, 0.208809494972, -0.18445456028, -0.302907347679, -0.331006675959, 0.137935474515, -0.362834990025, 0.233469992876, -0.0434120222926, 0.228100776672, 0.168245136738, 0.0296354740858, 0.0518383979797, -0.109915666282, 0.188951417804, 0.0996928885579, 0.0215003397316, 0.0775835067034, 0.00303010339849, 0.056881017983, -0.0852962583303, -0.0674317777157, 0.365479558706, -0.030899528414, 0.379671692848, -0.108135282993, 0.102848567069, -0.292275011539, 0.195605263114, -0.0333259291947, 0.169361516833, -0.0297253075987, 0.181221529841, -0.0803112611175, 0.121695324779, -0.0611584112048, -0.244167715311, -0.252320468426, -0.223899424076, 0.394778579473, 0.165233299136, 0.0984502881765, 0.337894171476, 0.36731788516, -0.164755359292, 0.29718747735, 0.0981018021703, 0.0165158323944, 0.144126981497}, 
                {-0.100787959993, -0.0703116431832, 0.0669878050685, 0.453675150871, -0.264391094446, -0.038282841444, 0.350533097982, -0.225073114038, -0.195853874087, -0.131325468421, -0.188212290406, -0.135223016143, 0.16805523634, 0.305328547955, 0.0574204400182, 0.129225358367, -0.326715379953, 0.0236866828054, 0.143925577402, -0.100845091045, 0.274670809507, 0.290083318949, 0.280926942825, 0.115419276059, 0.106635048985, -0.0326407253742, 0.292963922024, -0.0816393569112, 0.00935721304268, -0.0945937782526, 0.0201611071825, 0.303398221731, -0.0495360940695, -0.0442181192338, -0.247909873724, 0.125194326043, -0.124329440296, 0.137664169073, 0.278098404408, 0.164810925722, -0.185062870383, -0.00701738428324, -0.701954782009, 0.12876868248, -0.287781327963, -0.24866437912, -0.418650120497, -0.427790731192, 0.280840396881, 0.151787474751, -0.0489842928946, -0.0182101428509, 0.0948975533247, -0.087043479085, 0.143874004483, -0.358696788549, 0.292004317045, -0.202951014042, -0.0884752646089, 0.204382762313}, 
                {0.1453012079, 0.443580746651, 0.252019315958, 0.119022227824, 0.0859899669886, -0.0464491546154, -0.0409300327301, -0.0809235498309, -0.32186666131, 0.29517608881, -0.271062910557, -0.109881319106, -0.0552920512855, 0.320290595293, -0.17511536181, -0.124303594232, 0.194646880031, 0.53103441, -0.0628437846899, -0.0319280438125, 0.268367767334, 0.468029886484, -0.0484127923846, 0.171495646238, 0.141723826528, 0.0106824561954, 0.0802756100893, -0.0502327904105, -0.101065993309, -0.314942121506, 0.0828546658158, -0.0671326890588, -0.164157658815, 0.00770253594965, 0.0469572730362, 0.0839444175363, -0.0436889156699, 0.00807080417871, -0.0346844606102, -0.110613144934, -0.0817961618304, 0.366437345743, 0.264505147934, -0.037622243166, -0.162518337369, 0.086422495544, -0.172009408474, -0.0280282944441, -0.55615645647, -0.242665275931, 0.0599531233311, 0.0462260358036, -0.11494512856, 0.0591852329671, -0.0951104983687, 0.206612318754, 0.0275312755257, 0.108979582787, 0.191014304757, 0.122119404376}}; 
            const double bias_1[30] = {0.0374938771129, 0.338742941618, 0.257994264364, -0.0487852245569, 0.393163830042, -0.0406788699329, 0.0790668874979, -0.0712106004357, -0.402270883322, 0.110917761922, -0.00248220958747, 0.0018674286548, -0.0210685562342, -0.0942680612206, 0.112626425922, 0.0137195065618, -0.162317097187, -0.0482951104641, 0.175625920296, 0.187847718596, 0.238476857543, 0.104923218489, 0.00380653003231, -0.189192250371, 0.247276648879, 0.182006597519, 0.316089898348, 0.289775490761, -0.109852403402, 0.137391015887}; 
            const float weight_2[15][30] = {{0.115763388574, 0.111043386161, -0.110327206552, -0.228696599603, -0.268985033035, -0.383442342281, 0.0760025456548, -0.112432688475, -0.0832135751843, 0.0334971658885, -0.3086771667, -0.117955885828, -0.325120955706, -0.197907343507, -0.381499677896, -0.334782570601, 0.101785704494, -0.0128475585952, 0.256743848324, 0.226500466466, 0.0637727081776, 0.195463806391, 0.0796041116118, -0.226243644953, -0.131327942014, -0.394843041897, -0.310086876154, 0.0574514679611, -0.154021427035, -0.129061043262}, 
                {-0.563722074032, -0.213278084993, 0.212665721774, -0.350633949041, 0.264439344406, 0.182173624635, 0.428642660379, -0.105927936733, 0.856969416142, 0.0467909872532, -0.224474236369, -0.499585688114, 0.274152010679, 0.354402661324, 0.330087780952, 0.139052286744, 0.136005237699, 0.333542466164, 0.00845200195909, -0.309026449919, -0.254664689302, 0.188544347882, -0.354506701231, 0.0996603220701, -0.145913168788, 0.0214380547404, -0.370276868343, 0.16586586833, 0.00225237291306, 0.141640946269}, 
                {-0.339832812548, 0.276748985052, -0.217899590731, -0.0317859239876, 0.470652282238, -0.139137282968, 0.431089401245, 0.172684758902, -0.568537712097, 0.422440797091, 0.416512519121, -0.0331438109279, -0.270762354136, 0.255585223436, -0.332700431347, 0.145397379994, -0.312070071697, 0.202746868134, -0.459119766951, 0.173109844327, 0.418502449989, 0.18562707305, 0.226790800691, -0.216254800558, -0.0394487567246, 0.0867555364966, 0.117714941502, 0.140958324075, 0.0908004045486, -0.253384590149}, 
                {-0.00910088326782, -0.08273524791, -0.207532957196, -0.303191781044, -0.553958714008, -0.0669824033976, -0.130936458707, 0.0986105278134, -0.147022306919, -0.133504107594, 0.367836922407, -0.843790113926, 0.125871583819, 0.385674089193, -0.422353982925, 0.575197100639, 0.0776522606611, -0.0102377515286, 0.63242483139, 0.21123367548, -0.469387084246, -0.0550050698221, 0.252231568098, -0.114356637001, -0.413333445787, 0.357413738966, 0.0399368219078, -0.291950255632, -0.138668209314, -0.0576137378812}, 
                {0.470265716314, -0.14204223454, 0.208826884627, -0.123249329627, 0.237178370357, 0.2938554883, 0.110308252275, 0.430772662163, 0.930019259453, 0.268766522408, -0.137270659208, 0.41149482131, 0.219499692321, 0.111319281161, -0.263908147812, 0.472653657198, -0.0681638419628, -0.265129208565, -0.0982566550374, 0.010621169582, 0.194122463465, 0.327371686697, -0.348872929811, -0.191650301218, 0.0622097104788, 0.352015525103, 0.292541474104, 0.188498318195, 0.443514496088, 0.231742784381}, 
                {0.13684181869, -0.0175358746201, 0.192675024271, 0.229822039604, -0.0592190995812, 0.160234749317, -0.387337237597, -0.228712424636, -0.278085589409, -0.156085044146, 0.133719548583, 0.41041842103, -0.723816990852, 0.108425334096, -0.185350343585, -0.164185374975, -0.123824097216, 0.122971631587, 0.194136336446, 0.367663919926, -0.131437212229, -0.169392868876, 0.254131555557, 0.312944322824, -0.279487967491, 0.0586843192577, 0.0822239592671, 0.307023108006, -0.225693047047, -0.266525328159}, 
                {0.0292739793658, 0.491281151772, 0.417713820934, -0.213428348303, 0.368398010731, -0.0126181179658, -0.123964950442, -0.277793049812, -0.397825866938, 0.0659806355834, 0.159851133823, 0.275389164686, 0.0744856148958, -0.480896502733, 0.131158515811, 0.0886522904038, -0.165762633085, -0.0103682447225, 0.333389014006, -0.251675754786, 0.226750299335, 0.162307053804, -0.123675890267, -0.369860261679, 0.331389844418, 0.429376095533, 0.527229845524, 0.382755577564, 0.199869200587, 0.413569003344}, 
                {0.349865615368, 0.23686850071, 0.319648206234, -0.378382563591, -0.208416357636, -0.196489751339, -0.055625859648, 0.00354753434658, -0.459610998631, -0.0859318077564, 0.136641681194, 0.0862111151218, -0.3578954041, -0.507135093212, 0.244653403759, -0.113569825888, -0.382948338985, -0.100516855717, 0.301253527403, 0.431648105383, 0.298321992159, 0.278574794531, 0.235556840897, -0.250733494759, 0.134130269289, 0.764209926128, 0.513948142529, 0.450423955917, 0.0532888360322, 0.164127007127}, 
                {0.349971026182, -0.290701955557, 0.207854345441, 0.168570443988, 0.00390067929402, -0.288948267698, -0.386853188276, -0.131648033857, 0.130182504654, 0.0045190746896, -0.305720239878, -0.207668885589, 0.309317052364, 0.124355614185, -0.255544930696, -0.199626252055, -0.16589191556, -0.108022287488, 0.0847621932626, -0.151458606124, -0.284427314997, 0.0652592554688, -0.109755448997, -0.192442551255, -0.12614621222, 0.178648173809, 0.254508197308, -0.359204679728, -0.0958545804024, -0.132061824203}, 
                {-0.469138860703, 0.177186086774, 0.196877479553, 0.145423308015, 0.450527250767, 0.29191172123, 0.259842038155, 0.110357172787, -0.169322371483, -0.189058497548, 0.472811430693, -0.313146591187, 0.163553476334, 0.443433612585, 0.0427584387362, -0.219260498881, 0.00137801084202, 0.296592772007, 0.211706951261, 0.0962290838361, 0.399686068296, 0.2708594203, -0.0758289769292, 0.382502943277, -0.387911915779, -0.250579178333, 0.296760082245, -0.253046095371, -0.394412517548, -0.2519120574}, 
                {-0.115518316627, 0.372388154268, 0.429090708494, 0.38688865304, 0.0619904883206, 0.492872864008, -0.0360068082809, 0.119426608086, -0.922443032265, 0.154891192913, -0.17666503787, -0.593018472195, 0.210229128599, -0.144796580076, -0.275870025158, -0.113072946668, -0.368773549795, -0.0379050560296, 0.0324193425477, 0.0770234540105, -0.223304033279, -0.00638954807073, 0.309351921082, 0.0298236552626, 0.283406436443, 0.292537808418, 0.0722358003259, 0.3004591465, -0.508808791637, -0.126163542271}, 
                {0.312762796879, -0.0453832075, 0.222898826003, -0.0183529127389, 0.236529171467, 0.326853722334, 0.293518900871, -0.159949496388, 0.28792861104, -0.326331317425, -0.0369475223124, 0.0178251955658, -0.247768044472, 0.0948664098978, 0.0905875787139, -0.0039515257813, 0.223616331816, -0.124063454568, 0.594161212444, 0.102239482105, -0.32523059845, 0.0637530013919, -0.334325879812, -0.0251998510212, 0.126975521445, -0.228005513549, 0.0907655209303, -0.417445331812, -0.605148553848, 0.284562468529}, 
                {-0.162418022752, -0.36125048995, 0.0468865185976, -0.294647604227, 0.00615868531168, -0.47467058897, 0.0037870677188, 0.188813835382, 1.09880387783, 0.163423627615, 0.204893931746, 0.481499969959, -0.20598526299, -0.557754099369, 0.247425034642, 0.317085713148, 0.360151737928, 0.385400801897, 0.121956340969, 0.0667385160923, -0.272188514471, 0.0550675317645, 0.139795005322, -0.384848117828, 0.430526047945, -0.22266189754, 0.290489315987, 0.142141163349, 0.202843368053, 0.0604121461511}, 
                {-0.109031282365, 0.280510038137, 0.381790667772, -0.30641618371, 0.0846044495702, 0.35838213563, 0.247469067574, -0.0766914263368, 0.876584708691, 0.349548906088, -0.265133440495, 0.00519686611369, 0.424044281244, 0.0148925827816, 0.169793590903, 0.0964132547379, -0.0188060645014, 0.425634801388, 0.200465276837, -0.0238032154739, 0.395156741142, -0.32726213336, -0.332062095404, -0.256234407425, 0.0923086330295, -0.156517893076, -0.0898573249578, -0.211425423622, 0.0377621017396, 0.335670024157}, 
                {-0.192421063781, -0.103024527431, 0.193400457501, 0.202579677105, 0.373543590307, -0.212989553809, 0.314522087574, -0.154921263456, -0.515309512615, -0.136267364025, -0.0623850859702, 0.258032023907, -0.10329400748, -0.502001643181, -0.412273257971, -0.329608559608, -0.333062797785, -0.0350347198546, -0.469824284315, 0.382634043694, -0.0333951152861, 0.0140332579613, -0.156139627099, -0.344081401825, 0.00334349065088, -0.479603201151, 0.516579985619, 0.450910240412, 0.308544784784, 0.222284495831}}; 
            const double bias_2[15] = {-0.0446449369192, -0.110166482627, 0.148386508226, -0.0384199619293, -0.0262232776731, -0.125413030386, 0.24063500762, 0.207409963012, -0.00342650734819, 0.0416304059327, 0.158162876964, 0.0921256765723, -0.0370016954839, 0.14519494772, 0.259507268667}; 
            const float weight_3[10][15] = {{0.356734454632, -0.42223700881, 0.415697395802, -0.363639712334, -0.232985004783, 0.441217720509, 0.309481412172, -0.303777068853, -0.322012424469, -0.478401988745, -0.490444689989, -0.212189137936, -0.409996390343, -0.266464293003, 0.287003189325}, 
                {0.0510371029377, 0.114099510014, 0.065783508122, 0.479500293732, -0.264583736658, -0.464898258448, 0.451018601656, 0.276013165712, -0.368308126926, -0.192435979843, 0.131779551506, 0.0283694863319, -0.256930828094, 0.317654132843, 0.620087206364}, 
                {0.416039735079, 0.596166491508, 0.341276109219, -0.0800476521254, -0.318092554808, -0.356183499098, -0.471737742424, -0.290308952332, 0.488186359406, 0.109766475856, 0.458983510733, 0.362812578678, 0.360134571791, 0.44304728508, 0.16636967659}, 
                {0.251520901918, -0.310365855694, 0.489264190197, 0.858278751373, 0.225296869874, -0.0148629248142, -0.28619197011, -0.0706736668944, 0.344323396683, 0.358967810869, 0.647246003151, -0.298480600119, -0.238718688488, -0.309802740812, 0.0219897087663}, 
                {-0.370298206806, -0.300207853317, 0.462728142738, 0.177340134978, 0.235395371914, 0.501755297184, 0.351630777121, 0.640385687351, -0.45410656929, 0.238890230656, -0.41182911396, -0.252106398344, 0.397564202547, -0.344831436872, 0.516650080681}, 
                {-0.177579462528, -0.241117596626, -0.00678841304034, 0.43677085638, -0.118409834802, -0.509835064411, 0.355124294758, 0.713820874691, -0.122684791684, -0.233092352748, 0.250015765429, 0.0332375057042, -0.205180987716, 0.298626720905, 0.0884655117989}, 
                {-0.0307012032717, -0.324561834335, 0.255631029606, -0.200439587235, 0.357952296734, 0.744943678379, 0.0925883501768, 0.104444012046, -0.11155551672, -0.475930035114, 0.310646414757, 0.27524510026, -0.43606415391, 0.499718129635, -0.315236061811}, 
                {0.233844906092, -0.264764755964, 0.219070971012, -0.506251215935, -0.098460957408, 0.589703023434, 0.0352479666471, 0.140345275402, 0.375644981861, -0.0598602332175, 0.553853392601, 0.016990698874, -0.125445023179, -0.467571169138, 0.11872715503}, 
                {-0.0935120359063, -0.358746379614, -0.469994604588, 0.401566505432, -0.325107187033, -0.273267626762, -0.0943916589022, -0.357068538666, -0.0533711612225, -0.464178234339, -0.205576628447, 0.221910640597, 0.19253000617, -0.0305999238044, -0.110766291618}, 
                {-0.10190731287, 0.00151834427379, 0.226770594716, -1.00474154949, 0.610439479351, -0.371945559978, 0.0966373085976, 0.491539984941, -0.285421729088, -0.0178557690233, -0.12024717778, 0.325285285711, 0.51151406765, -0.0560824722052, -0.247993022203}}; 
            const double bias_3[10] = {-0.0266995131969, 0.199346527457, 0.0372727103531, 0.154599919915, 0.0336470752954, 0.135457783937, 0.13134509325, 0.0546994097531, -0.00649731978774, 0.0368563644588}; 
            const float weight_4[4][10] = {{-0.241338789463, 0.679960131645, 0.00663543166593, -0.0903781354427, -0.0469678752124, 0.527143239975, -0.0259151328355, 0.143876180053, 0.103427924216, 0.0456217713654}, 
                {0.0682454183698, -0.906815290451, 0.775232374668, 0.536319196224, -0.216369897127, -0.769358575344, -0.804748237133, 0.228183731437, -0.152271986008, -0.119414776564}, 
                {-0.0774147138, 0.00240132003091, 0.247768044472, -0.443360000849, -0.205634713173, 0.439513146877, 0.0625027641654, -0.593372225761, 0.393844008446, 0.760245859623}, 
                {-0.58483850956, 0.141169458628, -0.0582802146673, 0.0354426316917, 0.619302630424, 0.241774067283, -0.539523124695, 0.392757028341, -0.263991326094, 0.170507103205}}; 
            const double bias_4[4] = {-0.23805269599, 0.200823992491, 0.180476799607, 0.133914396167}; 
            const double var_means[12] = {166.293785176, 1.9712966797, 0.990817128983, 76.0102009787, 2.33902274713, 103.247797372, 58.4212725433, 147.292473564, 76.7304577875, 2.80036558504, 243.295238267, -0.579771968091};
            const double var_std[12] = {184.183683508, 0.869629617083, 0.762168024711, 54.7136225447, 0.85665489385, 102.908603838, 62.0117934745, 109.575703839, 56.5160565663, 0.393888062896, 159.158115956, 0.538405752879};

            float mll_var{*mll->Get()};
            float dphill_var{*dphill->Get()};
            float detall_var{*detall->Get()};
            float ptll_var{*ptll->Get()};
            float drll_var{*drll->Get()};
            float pt1_var = Lepton_pt->At(0);
            float pt2_var = Lepton_pt->At(1);
            int jet1_idx = CleanJet_jetIdx->At(0);
            float jet1_btag = Jet_btagDeepFlavB->At(jet1_idx);
            float jet1_pt = CleanJet_pt->At(0);
            //float pt1_var{*pt1->Get()};
            //float pt2_var{*pt2->Get()};
            float mth_var{*mth->Get()};
            float PuppiMET_pt_var{*PuppiMET_pt->Get()};
            float dphillmet_var{*dphillmet->Get()};
            float mcollWW_var{*mcollWW->Get()};
            float btag;
            if(jet1_pt > 20){btag = jet1_btag;}else{btag = -1.;}

            float input_layer[12] = { mll_var, dphill_var, detall_var, ptll_var, drll_var, pt1_var, pt2_var, mth_var, PuppiMET_pt_var, dphillmet_var, mcollWW_var, btag};
            for (int index = 0; index < 12; index = index + 1) { 
                input_layer[index] = (input_layer[index]-var_means[index])/var_std[index];            }
            float layer0[60] = { 0 };
            for (int next_index = 0; next_index < 60; next_index = next_index +1) { 
                for (int last_index = 0; last_index < 12; last_index = last_index + 1) { 
                    layer0[next_index] += weight_0[next_index][last_index] * input_layer[last_index]; 
                }
                layer0[next_index] += bias_0[next_index]; 
                layer0[next_index] = layer0[next_index] > 0 ? layer0[next_index] : 0; // RELU 
            }
            float layer1[30] = { 0 };
            for (int next_index = 0; next_index < 30; next_index = next_index +1) { 
                for (int last_index = 0; last_index < 60; last_index = last_index + 1) { 
                    layer1[next_index] += weight_1[next_index][last_index] * layer0[last_index]; 
                }
                layer1[next_index] += bias_1[next_index]; 
                layer1[next_index] = layer1[next_index] > 0 ? layer1[next_index] : 0; // RELU 
            }
            float layer2[15] = { 0 };
            for (int next_index = 0; next_index < 15; next_index = next_index +1) { 
                for (int last_index = 0; last_index < 30; last_index = last_index + 1) { 
                    layer2[next_index] += weight_2[next_index][last_index] * layer1[last_index]; 
                }
                layer2[next_index] += bias_2[next_index]; 
                layer2[next_index] = layer2[next_index] > 0 ? layer2[next_index] : 0; // RELU 
            }
            float layer3[10] = { 0 };
            for (int next_index = 0; next_index < 10; next_index = next_index +1) { 
                for (int last_index = 0; last_index < 15; last_index = last_index + 1) { 
                    layer3[next_index] += weight_3[next_index][last_index] * layer2[last_index]; 
                }
                layer3[next_index] += bias_3[next_index]; 
                layer3[next_index] = layer3[next_index] > 0 ? layer3[next_index] : 0; // RELU 
            }
            float layer4[4] = { 0 };
            for (int next_index = 0; next_index < 4; next_index = next_index +1) { 
                for (int last_index = 0; last_index < 10; last_index = last_index + 1) { 
                    layer4[next_index] += weight_4[next_index][last_index] * layer3[last_index]; 
                }
                layer4[next_index] += bias_4[next_index]; 
            }
            float max_final_layer = layer4[0];
            for (int index = 0; index < 4; index = index +1) { 
                if(layer4[index] > max_final_layer){
                    max_final_layer = layer4[index];
                }
            }
            float softmax_denom = 0; 
            for (int index = 0; index < 4; index = index +1) { 
                softmax_denom += expf(layer4[index] - max_final_layer); 
            }
            float softmax_output[4] = { 0 }; 
            for (int index = 0; index < 4; index = index +1) { 
                softmax_output[index] = expf(layer4[index] - max_final_layer - log(softmax_denom));
            }
            if(strcmp(name_.c_str(), "ggH_OFF") == 0) {
                return (double) softmax_output[0];
            }
            if(strcmp(name_.c_str(), "ggH_ON") == 0) {
                return (double) softmax_output[1];
            }
            else if(strcmp(name_.c_str(), "top") == 0) {
                return (double) softmax_output[2];
            }
            else if(strcmp(name_.c_str(), "WW") == 0) {
                return (double) softmax_output[3];
            }
            else if(strcmp(name_.c_str(), "MAX") == 0) {
                float max_index = 0;
                float max_value = softmax_output[0];
                for (int index = 1; index < 4; index = index +1) {
                    if(softmax_output[index] > max_value){
                        max_index = index;
                        max_value = softmax_output[index];
                    }
                }
                return (double) max_index;
            }
            return -1.0;

	} 
	void 
	AddDNNScoresv1_0jet::bindTree_(multidraw::FunctionLibrary& _library) 
	{ 
		_library.bindBranch(mll, "mll"); 
                _library.bindBranch(dphill, "dphill"); 
                _library.bindBranch(detall, "detall"); 
                _library.bindBranch(ptll, "ptll"); 
                _library.bindBranch(drll, "drll"); 
                _library.bindBranch(Lepton_pt, "Lepton_pt"); 
                _library.bindBranch(CleanJet_jetIdx, "CleanJet_jetIdx"); 
                _library.bindBranch(Jet_btagDeepFlavB, "Jet_btagDeepFlavB"); 
                _library.bindBranch(pt1, "pt1"); 
                _library.bindBranch(pt2, "pt2"); 
                _library.bindBranch(mth, "mth"); 
                _library.bindBranch(PuppiMET_pt, "PuppiMET_pt"); 
                _library.bindBranch(dphillmet, "dphillmet"); 
                _library.bindBranch(mcollWW, "mcollWW"); 
                _library.bindBranch(CleanJet_pt, "CleanJet_pt"); 
	}
