#include "LatinoAnalysis/MultiDraw/interface/TTreeFunction.h" 
#include "LatinoAnalysis/MultiDraw/interface/FunctionLibrary.h" 
#include "TSystem.h" 
#include "iostream" 
#include "vector" 
#include "TLorentzVector.h" 
#include "TMath.h" 
#include "TSystem.h" 
#include <map> 
#include "TString.h" 
#include <string.h> 
class AddDNNScoresv1_1jet : public multidraw::TTreeFunction {  
public: 
//Class Constructor  
AddDNNScoresv1_1jet(char const* name); 
//Class Destructor  
~AddDNNScoresv1_1jet() { 
   } 
//Functions from Multidraw namespace (TTreeFunction class) 
char const* getName() const override {return "AddDNNScoresv1_1jet"; } 
TTreeFunction* clone() const override {return new AddDNNScoresv1_1jet(name_.c_str());} 
unsigned getNdata() override {return 1; } 
//This function will return the required value 
double evaluate(unsigned) override; 
 
protected: 
void bindTree_(multidraw::FunctionLibrary&) override; 
 
//name of the required ME 
std::string name_; 
 
//Needed variables to select the events 
TTreeReaderValue<float> *mll{}; 
               TTreeReaderValue<float> *dphill{}; 
               TTreeReaderValue<float> *detall{}; 
               TTreeReaderValue<float> *ptll{}; 
               TTreeReaderValue<float> *drll{}; 
               FloatArrayReader* Lepton_pt{}; 
               IntArrayReader* CleanJet_jetIdx{}; 
               FloatArrayReader* CleanJet_pt{}; 
               FloatArrayReader* Jet_btagDeepFlavB{}; 
               TTreeReaderValue<float> *pt1{}; 
               TTreeReaderValue<float> *pt2{}; 
               TTreeReaderValue<float> *mth{}; 
               TTreeReaderValue<float> *PuppiMET_pt{}; 
               TTreeReaderValue<float> *dphillmet{}; 
               TTreeReaderValue<float> *mcollWW{}; 
 
private: 
Double_t LHCsqrts_= 13., mh_= 125.; 
 
}; 
AddDNNScoresv1_1jet::AddDNNScoresv1_1jet(char const* name): 
TTreeFunction() 
{ 
name_ = name; 
} 
 
double 
AddDNNScoresv1_1jet::evaluate(unsigned) 
{
            const float weight_0[60][12] = {{0.560386478901, 0.0538796000183, 0.257837474346, -0.175743505359, 0.289305925369, 0.1560883075, -0.0541889332235, -0.394985467196, 0.110917985439, 0.327803254128, -0.150296092033, 0.322549700737}, 
                {-0.26719725132, 0.276236355305, -0.269880145788, 0.172977238894, -0.192166611552, 0.388370722532, -0.016451831907, 0.205090627074, 0.170751437545, -0.139501944184, 0.2511331141, -0.206754237413}, 
                {-0.0579331181943, 0.22198368609, 0.0794914737344, 0.0637329295278, 0.176708698273, 0.0708286017179, 0.326470851898, -0.0574687086046, -0.19748185575, 0.0866800397635, -0.166401132941, -0.0386203154922}, 
                {0.422228097916, -0.31801840663, 0.162849590182, -0.0506852716208, -0.248144909739, -0.0749393552542, 0.25306636095, 0.149584665895, 0.346515327692, -0.00795550271869, 0.0163256321102, -0.00405706046149}, 
                {-0.164708942175, -0.318137705326, -0.0765129029751, -0.279718458652, -0.188149943948, -0.0648774579167, -0.428119003773, 0.177112609148, -0.0767858177423, -0.0730879828334, 0.313387125731, -0.123979248106}, 
                {0.497988909483, -0.285759478807, 0.268273025751, 0.238899692893, -0.0116413729265, -0.243567511439, 0.277420580387, -0.0853713527322, 0.18849773705, -0.0254656206816, 0.496638506651, -0.225467190146}, 
                {0.0716929808259, -0.0174657031894, -0.00902607291937, -0.152641549706, 0.00806218013167, 0.143639609218, -0.0755836963654, 0.6595261693, 0.229647517204, 0.145486310124, -0.192305296659, -0.254579335451}, 
                {0.139019757509, 0.0633590146899, 0.145492300391, -0.105728894472, -0.0629924982786, 0.149355560541, -0.0909495875239, -0.105628088117, -0.0834185779095, 0.0902962759137, -0.0894180908799, 0.493494868279}, 
                {-0.289736062288, -0.18511800468, 0.0330538190901, -0.107628822327, 0.167873218656, 0.153524935246, -0.435918271542, 0.220332115889, -0.178732872009, -0.028486225754, 0.140786901116, 0.322707146406}, 
                {0.30185174942, 0.0838270708919, -0.307630866766, -0.274413794279, 0.0108221871778, -0.0790744051337, 0.64574444294, 0.0713960528374, -0.0375745631754, 0.213226988912, 0.304187268019, -0.186094522476}, 
                {0.141816750169, -0.166868433356, -0.107100605965, 0.208183005452, -0.0329024270177, 0.0233602356166, 0.095261529088, -0.399032980204, -0.208856195211, 0.124113611877, 0.164577156305, 0.00797955226153}, 
                {-0.239307552576, -0.110318571329, -0.244358867407, -0.0471419878304, 0.0296892244369, -0.189809888601, -0.0584083423018, -0.293597131968, -0.0168701913208, 0.100859969854, 0.0249409601092, 0.322585821152}, 
                {0.264013767242, 0.258939832449, -0.23458263278, -0.214095503092, 0.0793689414859, 0.354163020849, 0.391778945923, 0.106985263526, 0.162985891104, 0.154035061598, 0.090744189918, 0.0539403669536}, 
                {-0.327289789915, 0.252698779106, -0.0431032180786, -0.428797364235, 0.00663124863058, -0.403971165419, -0.0327321626246, -0.112130783498, 0.00158752163406, 0.0261551383883, 0.262467622757, -0.172605797648}, 
                {-0.354808419943, -0.103569887578, -0.0729161426425, -0.0276708323509, -0.0678303837776, -0.107838757336, -0.239320397377, -0.138512015343, -0.113947153091, -0.0777733400464, -0.184658721089, -0.00692427251488}, 
                {-0.406118810177, 0.253096818924, 0.0668074935675, -0.291673243046, -0.216350033879, -0.144041955471, -0.426663756371, -0.195514962077, 0.0685256496072, -0.216105386615, 0.107661254704, 0.0314355418086}, 
                {0.271734774113, 0.279429227114, 0.267381280661, 0.0880518108606, 0.0118787698448, -0.181409791112, 0.0995091572404, -0.0918147265911, 0.296683013439, 0.112369939685, 0.0740583091974, 0.213196605444}, 
                {0.0848126932979, -0.0985401794314, 0.0935637205839, 0.231563359499, -0.192896947265, -0.256623208523, 0.190929576755, -0.0555136539042, 0.119024552405, -0.102478779852, 0.113115750253, -0.143131196499}, 
                {0.109737217426, -0.15136705339, -0.268793940544, 0.0322299264371, -0.168555378914, -0.213398426771, 0.417414188385, 0.209733441472, -0.101533293724, 0.0178581401706, -0.186650291085, 0.0688242316246}, 
                {-0.175405278802, -0.0448644831777, -0.126500993967, -0.290938675404, 0.349183380604, -0.104228772223, -0.42758384347, 0.121360041201, -0.218901887536, 0.182146504521, -0.0414378009737, -0.059768974781}, 
                {0.0555604808033, 0.256856352091, 0.30136179924, -0.388576894999, 0.660313844681, -0.0610570833087, -0.243454575539, -0.204186677933, 0.194032847881, -0.106400832534, 0.297714054585, 0.136139720678}, 
                {0.184909448028, -0.0907862409949, 0.328794598579, -0.141248717904, 0.23824198544, -0.141772121191, 0.1253952384, 0.109704680741, -0.213182851672, -0.232038795948, 0.171423107386, 0.129890486598}, 
                {0.0322746671736, 0.317617058754, 0.251839101315, 0.142698422074, -0.213549464941, 0.357194066048, 0.00104358315002, 0.377419501543, -0.0346813499928, -0.140581592917, -0.268708616495, 0.0292109921575}, 
                {-0.287025213242, -0.0262170862406, 0.223907515407, -0.107454784214, 0.137540325522, -0.185111150146, -0.526293098927, -0.139015063643, -0.105354450643, 0.24413920939, 0.124161593616, -0.0226467680186}, 
                {0.447353750467, 0.0491173006594, -0.17130856216, 0.302195042372, 0.233390465379, 0.183206319809, -0.355416327715, 0.0515211746097, -0.18826161325, -0.363496601582, 0.12876470387, -0.0798602253199}, 
                {0.107446491718, -0.205347970128, 0.0153862377629, 0.276622533798, -0.17462991178, 0.00246057473123, 0.0827681571245, 0.122011654079, -0.485222041607, -0.19251640141, -0.164489001036, 0.294454783201}, 
                {0.0772147774696, 0.359320104122, -0.18974365294, -0.112810060382, -0.200883179903, -0.248516067863, 0.193734511733, 0.308661550283, -0.0181252360344, 0.090258397162, -0.334148138762, 0.160634756088}, 
                {-0.064912751317, 0.253063201904, 0.031783696264, -0.1899292171, 0.0921094194055, 0.365470707417, -0.0207318793982, 0.308822214603, 0.14506521821, -0.101122044027, 0.198344603181, -0.0291215442121}, 
                {-0.132990270853, -0.00338645535521, 0.109751261771, -0.100638590753, 0.0584810972214, 0.322271853685, 0.11930077523, 0.0508659891784, -0.194104194641, 0.131580740213, -0.0459779202938, -0.944198250771}, 
                {0.454609245062, -0.0198376514018, -0.0367893688381, -0.169805079699, 0.00220323074609, 0.0267576910555, 0.272159993649, -0.349371403456, 0.0728506296873, -0.0778687149286, -0.194446131587, 0.40242511034}, 
                {0.356232106686, 0.0341472178698, -0.23152962327, -0.0651842579246, -0.0219410173595, -0.11789406091, 0.168246939778, -0.0856125578284, 0.0581305585802, 0.0837170481682, -0.262790620327, -0.40439119935}, 
                {0.00236364942975, -0.150675877929, 0.00585741084069, -0.180830255151, 0.211898013949, 0.170272663236, 0.398121595383, 0.205381542444, -0.404481947422, -0.056823451072, 0.0950673222542, -0.128065735102}, 
                {-0.00156456779223, -0.0524035394192, 0.0855033397675, -0.205638080835, -0.069293320179, -0.064165905118, 0.0524577237666, 0.638469219208, 0.057177323848, -0.17958445847, -0.231369480491, 0.141389101744}, 
                {-0.0744892582297, -0.0522354282439, 0.0313797965646, -0.160542145371, -0.115410670638, -0.0122317187488, -0.0334003381431, 0.0220956411213, -0.102232053876, -0.0672786980867, -0.0155039737001, -0.847302794456}, 
                {-0.228950038552, 0.0469768159091, 0.125855445862, 0.233367204666, -0.0802311599255, -0.151306629181, -0.415620982647, -0.51639598608, -0.0986913740635, -0.131885185838, 0.0599423982203, -0.0187598951161}, 
                {-0.0976643189788, -0.104416698217, -0.166134178638, 0.114344976842, 0.19617523253, 0.0384268909693, -0.413910657167, 0.674087166786, 0.0149226179346, -0.237465634942, 0.143521174788, -0.00739415548742}, 
                {-0.0721559599042, 0.202242806554, 0.0636481419206, -0.301488429308, -0.168905317783, -0.168556451797, -0.544082522392, -0.177409991622, -0.403231590986, 0.244293242693, 0.0686660259962, -0.113834343851}, 
                {-0.184631988406, 0.033282045275, 0.0705866888165, 0.261572301388, -0.178505569696, 0.0510089844465, -0.104689024389, 0.0579668655992, 0.067898362875, 0.227306678891, 0.0336655601859, 0.284178435802}, 
                {0.25521633029, 0.272324323654, -0.0877123698592, -0.0759473145008, 0.0877041891217, 0.0596518293023, 0.182515114546, 0.0380082540214, -0.0408205166459, -0.226417288184, 0.0617211312056, -0.067304559052}, 
                {-0.0155769502744, 0.0996742770076, 0.281643420458, 0.321675002575, -0.0984070971608, -0.00397390592843, -0.0231558885425, 0.186664253473, -0.301399976015, -0.00611386308447, -0.231120198965, 0.167941704392}, 
                {-0.023513128981, 0.0017753514694, 0.133332952857, 0.582817792892, -0.207230493426, -0.246173352003, 0.597598075867, -0.166066542268, 0.18561783433, -0.0357866026461, 0.0232031606138, -0.0211819540709}, 
                {0.431368172169, 0.219322562218, 0.318899393082, -0.0919739454985, -0.15255934, 0.276708036661, 0.385886490345, -0.425009548664, -0.245247945189, -0.143759131432, 0.233332186937, -0.276495784521}, 
                {0.214881807566, -0.0567249208689, 0.0207805875689, 0.088671900332, 0.321116834879, 0.0283107496798, -0.0132647994906, -0.0422813408077, 0.00978846102953, -0.190527379513, -0.134076014161, -0.571232616901}, 
                {0.0379190780222, 0.0243767388165, 0.0564322732389, 0.217152804136, -0.340867936611, 0.140889838338, 0.52571696043, 0.0191635135561, 0.238810226321, 0.136864319444, -0.0907433107495, 0.309778481722}, 
                {-0.329326868057, -0.02100013569, -0.165438205004, 0.0175625905395, 0.315724372864, 0.138709574938, -0.350989490747, -0.236043557525, 0.0691975951195, -0.18434971571, -0.315969020128, 0.087241910398}, 
                {-0.195192009211, -0.0167000070214, -0.260101884604, 0.0677949115634, 0.14394569397, -0.0418745353818, -0.262969315052, 0.249716758728, 0.210049197078, -0.0890816450119, 0.300526350737, -0.373104244471}, 
                {0.307445764542, -0.208754435182, -0.00360896624625, -0.010759241879, 0.108904011548, -0.213657930493, -0.0704365000129, 0.60259950161, -0.0907581225038, -0.0393380634487, -0.195007920265, 0.066950827837}, 
                {0.0388480275869, -0.0660612285137, 0.00492679933086, 0.0561720132828, 0.10148461163, -0.283639281988, 0.12991245091, 0.13221167028, 0.249242573977, 0.0413026958704, 0.135884985328, -0.568744838238}, 
                {-0.0923521667719, -0.145620703697, 0.0642376095057, -0.12162104249, -0.0695823505521, -0.114075534046, -0.0232172198594, -0.291111290455, 0.060340307653, -0.192794427276, -0.00816399883479, 0.397150605917}, 
                {-0.0667765811086, 0.0368319749832, -0.0516499355435, 0.09027813375, 0.00407913094386, 0.0320506393909, -0.451473385096, 0.0147565966472, -0.186167284846, 0.0375775694847, -0.207534492016, 0.342636018991}, 
                {-0.172291994095, 0.181997925043, 0.0750262737274, 0.193690285087, -0.0162500310689, 0.0116590512916, 0.10281509161, -0.0509507134557, 0.732190310955, -0.266415417194, 0.10068064183, -0.023699760437}, 
                {-0.240034267306, 0.0704435408115, 0.284532040358, 0.476288706064, -0.00866763107479, -0.0871871188283, -0.0378860197961, 0.140193372965, 0.0871532037854, -0.0838453769684, -0.292353719473, -0.0400326289237}, 
                {0.0762965157628, 0.227585166693, -0.13125886023, -0.0519818887115, 0.0448584295809, -0.0519891269505, 0.28163164854, 0.245344042778, -0.200201094151, 0.0802126973867, -0.29776635766, 0.260610610247}, 
                {-0.199207648635, 0.161386698484, -0.031876668334, 0.174849778414, -0.221717238426, 0.214885950089, 0.148053839803, 0.130660995841, -0.0211775619537, -0.0820041298866, -0.486616224051, -0.257219314575}, 
                {0.25517681241, -0.00861530192196, 0.0824457257986, 0.0694166123867, 0.295777529478, 0.355275958776, -0.0507355071604, 0.123657464981, -0.0257166046649, 0.0969243943691, 0.326649963856, 0.395405828953}, 
                {0.325733631849, -0.0717885345221, -0.26513761282, -0.0788524374366, -0.0602591633797, 0.536307275295, -0.376325756311, 0.221298545599, -0.0175213441253, -0.159210637212, 0.00942371413112, 0.110917411745}, 
                {-0.374671161175, -0.0250228382647, 0.0275210421532, -0.0485925674438, -0.144986435771, 0.0711697116494, -0.26931014657, -0.148650228977, 0.203199535608, 0.0665925145149, -0.246136590838, -0.122055999935}, 
                {0.101170741022, -0.102303221822, -0.0848408639431, -0.238589674234, 0.355507969856, 0.360413372517, -0.158513054252, 0.0936869010329, 0.529193162918, -0.0639038383961, 0.115795955062, -0.402059018612}, 
                {0.227432921529, -0.170093983412, -0.0685337483883, -0.0701988041401, 0.0701783522964, 0.187415644526, -0.121047236025, 0.141897559166, -0.0202422309667, -0.0493295043707, 0.264262229204, -0.678563535213}, 
                {0.303793936968, 0.280070483685, 0.282269507647, -0.00976587086916, -0.0291376728565, -0.264288425446, -0.0964325666428, 0.143976464868, 0.437073409557, -0.0631249174476, -0.508095383644, -0.138801932335}}; 
            const double bias_0[60] = {0.197331234813, -0.072262391448, 0.389528185129, -0.25681373477, -0.225484013557, 0.0623977482319, 0.257572710514, 0.517672777176, 0.138894751668, 0.0671214014292, -0.0690851807594, -0.0297119617462, 0.396598726511, -0.153361678123, -0.3303642869, -0.114656031132, 0.389198690653, -0.08916785568, -0.271709650755, -0.182849362493, -0.0643247365952, 0.229865476489, 0.382194727659, -0.128610610962, -0.0576951056719, 0.138508215547, 0.21044498682, 0.350531935692, -0.130999550223, 0.28257060051, -0.01115469262, 0.231327921152, 0.305909782648, -0.393669128418, -0.158339202404, 0.169852793217, -0.246235117316, 0.0672504156828, 0.492167949677, 0.26306450367, -0.233767256141, 0.167475298047, -0.042469073087, 0.0541684180498, 0.0109063843265, 0.0294898636639, 0.415224194527, 0.102471515536, -0.00504285981879, -0.0750264972448, -0.170464262366, 0.244573131204, 0.439516335726, -0.112075395882, 0.452295422554, 0.0213261172175, -0.206982150674, 0.0308958850801, -0.154863521457, -0.203864574432}; 
            const float weight_1[30][60] = {{-0.114090755582, 0.00695644970983, 0.182452395558, -0.231972903013, 0.243478879333, 0.0267754886299, -0.299872159958, 0.149808257818, 0.249149471521, 0.0257890690118, 0.253828823566, 0.277097463608, 0.0953813269734, 0.198360592127, -0.182258978486, 0.0667625367641, 0.276360422373, -0.103608392179, -0.0439825616777, -0.194338932633, -0.142688840628, 0.294515103102, 0.255122929811, -0.287494063377, 0.113819248974, -0.0393912345171, 0.0877440422773, -0.113179661334, -0.514838218689, 0.00160518509801, -0.265276759863, 0.0243391599506, 0.258693546057, -0.0705322697759, -0.223084852099, 0.158097863197, -0.106622949243, -0.0166389644146, 0.187237173319, 0.276623100042, -0.61122572422, 0.363349616528, -0.166621744633, -0.139816343784, -0.172272861004, 0.0566207319498, 0.111178010702, -0.0162027385086, 0.0640365555882, 0.0547487027943, -0.391505926847, -0.145981252193, -0.182791724801, -0.164605304599, 0.087007984519, 0.26752397418, -0.153150573373, 0.0826870203018, -0.0668250396848, 0.045390419662}, 
                {-0.156878337264, -0.024746356532, 0.456736922264, 0.300182551146, -0.0758257433772, -0.136271312833, 0.0674011707306, -0.062969610095, 0.324841380119, 0.0135121364146, -0.0843560174108, -0.0672952905297, -0.123946674168, -0.0995320677757, -0.0944758653641, -0.0414217710495, 0.260134965181, 0.0374776758254, -0.0189568810165, -0.368784278631, 0.122099727392, -0.00281009310856, 0.421545028687, -0.0574431084096, -0.0466578751802, -0.189063042402, 0.0129817705601, 0.148912206292, -0.194879680872, 0.0451608598232, 0.161813437939, 0.266151487827, 0.297674238682, -0.145569071174, -0.39749738574, 0.566985309124, 0.041087269783, 0.297035336494, 0.262914568186, -0.136822804809, -0.0297587178648, 0.19625800848, -0.00580966612324, -0.156277984381, -0.293219536543, 0.12212973088, 0.390023171902, 0.0648300424218, -0.362141609192, 0.0933003798127, -0.161755993962, 0.0459043681622, 0.240982607007, 0.139349326491, -0.152817800641, 0.107705317438, -0.0811768174171, -0.0648729503155, 0.0438858382404, 0.460311830044}, 
                {0.187029421329, 0.0773572921753, -0.0413376018405, -0.412371009588, -0.0292346775532, -0.0838211253285, 0.106215052307, 0.124202944338, 0.0588711611927, 0.206438392401, 0.142220199108, 0.0550502836704, 0.152002260089, 0.174801915884, 0.108058720827, -0.177884638309, 0.0196529459208, 0.201996430755, 0.362560093403, 0.176948457956, 0.221202597022, 0.20387595892, 0.0930883139372, -0.0390660092235, -0.0728977397084, -0.0863154754043, 0.0279497951269, 0.151944160461, -0.167190507054, 0.0575545057654, 0.248542264104, 0.228016644716, -0.025750361383, 0.0949797481298, 0.0052149775438, -0.212299451232, 0.175120159984, 0.0311645884067, 0.458405017853, 0.0493081770837, 0.112060941756, 0.0300307292491, 0.159657225013, 0.171268716455, -0.209419280291, -0.312228888273, -0.0370424687862, 0.18305143714, -0.00222982210107, -0.0343860983849, -0.191137209535, 0.238670378923, 0.230624601245, -0.330200850964, -0.042807649821, -0.323961794376, -0.198561266065, -0.0643279701471, 0.0178259853274, 0.226892948151}, 
                {-0.446296542883, -0.0196591932327, 0.226070344448, -0.586604654789, -0.166941359639, -0.0657004788518, 0.206715598702, 0.121043004096, -0.212631329894, 0.119471713901, 0.287427693605, -0.13033901155, -0.370305776596, 0.183615893126, -0.012650359422, 0.234869763255, 0.210423901677, 0.00693419016898, -0.275933772326, -0.128733977675, -0.0248981565237, -0.014939410612, 0.251640230417, -0.134156644344, 0.207398369908, -0.104252651334, 0.0518315583467, -0.0772247985005, 0.27972266078, 0.128941729665, 0.163358062506, 0.14275187254, -0.0911079272628, -0.108585052192, 0.0135849462822, -0.204838275909, 0.000340428581694, -0.16107095778, 0.276552349329, -0.139267161489, -0.0577928721905, 0.213093131781, 0.219084694982, 0.0414419807494, -0.0289432555437, 0.0296874474734, 0.199158772826, 0.198590427637, -0.0431984588504, 0.0413199141622, 0.0295904260129, -0.1496347785, -0.0732223987579, -0.0331889241934, -0.224600031972, 0.0796794444323, -0.189110964537, 0.478034347296, 0.030863488093, -0.112660139799}, 
                {0.268884420395, -0.149803072214, 0.494065910578, 0.0391138643026, -0.145384028554, 0.545059978962, 0.126034393907, 0.250696599483, -0.101053096354, 0.107116281986, -0.102757014334, 0.0208437517285, -0.287734031677, -0.452976465225, -0.0966784283519, -0.150098234415, -0.0741273984313, 0.0815606042743, -0.149096801877, -0.203620642424, -0.316589653492, 0.163760200143, 0.0986916050315, 0.11729516834, 0.439082026482, 0.0544649027288, 0.246332123876, 0.12011346966, -0.145044073462, -0.032575674355, -0.116393789649, 0.241928115487, 0.0485588423908, -0.230861589313, -0.0497806183994, 0.312912344933, -0.206121459603, 0.000679090502672, 0.182476341724, 0.0116727091372, -0.183013066649, 0.280402779579, -0.220069155097, -0.279980689287, -0.249343678355, 0.0398588068783, 0.376003354788, 0.194222480059, -0.0155418654904, 0.102031871676, 0.0517554208636, -0.141039207578, 0.250746458769, -0.0270978640765, -0.126056060195, 0.093409255147, 0.14004483819, -0.535601973534, 0.140225380659, -0.0401697903872}, 
                {0.153990536928, -0.0546791665256, -0.0799179896712, 0.248511776328, -0.29697111249, -0.00216333661228, -0.0835410505533, 0.220239639282, 0.206732660532, 0.391662329435, 0.0932525843382, 0.252901405096, 0.15611602366, -0.0915916189551, 0.224812194705, 0.0985818877816, 0.248377114534, -0.135910481215, -0.44762802124, -0.0231718551368, 0.116367183626, -0.136999577284, 0.246145442128, 0.0619179606438, 0.104139998555, 0.203279092908, 0.231226488948, 0.130000337958, -0.677537739277, 0.270020693541, -0.0505929403007, -0.351752072573, 0.43595468998, -0.262638300657, -0.0960678011179, -0.25564160943, -0.374994128942, -0.0885806158185, -0.114081397653, -0.00530101498589, -0.026159061119, 0.142792135477, 0.120152898133, -0.203333571553, 0.261641591787, 0.0263866465539, 0.0391932912171, -0.317047417164, 0.308900773525, 0.0509396493435, 0.134155169129, 0.131612747908, 0.19176132977, -0.0576326809824, 0.00686856871471, 0.179889827967, 0.0824450403452, 0.399368524551, -0.145113393664, 0.326204866171}, 
                {-0.0515490211546, -0.0182976350188, 0.0534650161862, -0.173657745123, -0.138395860791, -0.214445501566, 0.451804190874, 0.132356643677, 0.295725911856, 0.154525339603, -0.0392274037004, 0.0833662599325, -0.0905513092875, -0.361634165049, 0.168383583426, 0.0711879506707, -0.171021103859, 0.279201477766, -0.0936427265406, 0.108379013836, 0.130591526628, -0.0869583040476, 0.224058479071, -0.00646693212911, 0.0139524042606, -0.0659427717328, 0.130957499146, 0.492910534143, 0.0240544434637, -0.478800982237, 0.206223368645, 0.0188178587705, 0.115611843765, -0.0364924632013, 0.0215379055589, -0.210630625486, 0.170161277056, -0.278426676989, -0.225434541702, -0.0330893099308, -0.263952195644, 0.13619863987, -0.0428789928555, 0.123310148716, 0.0327447354794, -0.139693856239, 0.0839428305626, -0.0236587319523, 0.126715391874, 0.0176272373646, -0.428660452366, -0.15312102437, 0.146997913718, -0.0575530268252, 0.3761048913, -0.372955083847, -0.0332717299461, -0.196939378977, -0.282618045807, -0.233824729919}, 
                {0.132791101933, -0.327166616917, 0.331376492977, 0.306798100471, -0.509473323822, 0.0777559429407, -0.228706479073, 0.224727109075, -0.0345800109208, 0.546611726284, 0.0103605734184, -0.332773923874, 0.520610451698, -0.0825551822782, -0.424809187651, -0.188620731235, 0.350438684225, -0.0385325029492, -0.0298004448414, -0.361697793007, -0.33487662673, 0.188126981258, 0.43540123105, -0.301198601723, -0.0225225109607, -0.209551230073, -0.235704392195, -0.0530200339854, -0.02873714827, 0.269554525614, 0.176203027368, -0.0869110748172, 0.27502143383, -0.0438223741949, -0.184681653976, 0.196256861091, 0.0157827008516, -0.311654180288, 0.26611572504, 0.261630326509, 0.00786816608161, 0.286211460829, -0.0455229431391, -0.467952370644, -0.150940835476, 0.125695422292, 0.324688762426, 0.320086956024, -0.0466942600906, 0.0418892614543, -0.0669809430838, 0.323372542858, 0.145507246256, 0.0770426318049, 0.0742847248912, -0.113527774811, -0.361345827579, 0.32426789403, 0.0548044592142, -0.375290334225}, 
                {-0.0900634601712, -0.216563910246, -0.184221252799, -0.132797539234, 0.0841712653637, -0.168088957667, 0.0836661756039, 0.36270943284, 0.12393245846, -0.383478134871, 0.0437763743103, 0.21456797421, 0.190329283476, 0.0337934829295, -0.1706135571, 0.123887002468, 0.0196310449392, -0.099842004478, 0.240194886923, -0.204751119018, 0.26289716363, -0.0663592219353, 0.171994000673, 0.0737214162946, 0.152081474662, 0.160885199904, 0.151476666331, 0.109914846718, -0.142125293612, 0.107647925615, 0.122312545776, -0.0240401215851, 0.219166532159, -0.221758723259, 0.228818416595, 0.059467535466, 0.0528697706759, 0.275507420301, -0.0508644171059, 0.123078413308, -0.281185120344, -0.0855099260807, -0.247796803713, 0.255225002766, 0.226687416434, -0.0169793516397, 0.347576379776, -0.0887608528137, 0.0486212447286, 0.28617593646, 0.0706677660346, -0.143335282803, 0.285868674517, 0.368601590395, 0.341656684875, -0.183456122875, 0.0477191992104, -0.0724771469831, -0.152728721499, -0.456945061684}, 
                {0.273141622543, 0.22027477622, -0.196552634239, -0.360386371613, 0.183365896344, -0.20645006001, -0.2620010674, 0.13718649745, 0.201554387808, -0.300908327103, 0.224312469363, -0.0613599568605, 0.0505934208632, 0.317282915115, 0.192726314068, 0.336089223623, -0.0515882559121, -0.0704891756177, -0.187598839402, 0.0997231155634, 0.0540719293058, 0.211337298155, 0.0604740977287, -0.103447243571, 0.246463745832, -0.0530872829258, 0.197567373514, -0.212675973773, -0.0600632876158, -0.23098154366, 0.0262606963515, 0.0263774450868, -0.0673458576202, 0.195017769933, -0.00275585940108, 0.249949127436, 0.24457924068, -0.0916935503483, 0.0485459193587, -0.114266879857, 0.193478137255, 0.122046202421, 0.131891787052, -0.364974945784, 0.0931811705232, -0.061498388648, 0.0470620989799, -0.196981564164, -0.0320542082191, 0.0298213027418, -0.11244148761, 0.416659355164, 0.0618708059192, 0.000395486917114, 0.106440015137, 0.145362079144, 0.107477709651, -0.181506127119, -0.0514769181609, -0.185078471899}, 
                {0.146040588617, 0.23927102983, 0.0430238880217, -0.210794001818, 0.183929800987, 0.0513113290071, 0.125512212515, -0.396552205086, -0.282671064138, 0.0816362425685, -0.104868851602, -0.167231753469, 0.040226418525, -0.0781854167581, 0.210050180554, 0.125881925225, 0.11039186269, 0.252837896347, -0.0131406756118, -0.115871198475, 0.0707880407572, -0.0563902370632, -0.0894035622478, 0.0202828478068, -0.0106642916799, -0.152522370219, -0.23665907979, -0.0741763189435, 0.672405898571, -0.335573464632, -0.0148731051013, -0.0494334734976, -0.276097327471, 0.843462646008, 0.167172253132, 0.083338059485, -0.122655205429, -0.273311346769, -0.159955784678, -0.0483234524727, -0.295782655478, 0.0905562788248, 0.331659704447, -0.233613878489, 0.0369206182659, 0.15266032517, -0.0553560517728, 0.0176396258175, -0.42277571559, -0.206301540136, 0.251877993345, -0.017671495676, 0.128612324595, 0.0971138775349, -0.125471577048, -0.41134724021, -0.156045615673, -0.058033876121, 0.261552721262, 0.199363902211}, 
                {0.117043837905, -0.0387954935431, -0.132477238774, -0.193421557546, 0.0827434957027, -0.0826657414436, 0.316848218441, -0.594139814377, -0.486305147409, 0.00389076210558, -0.0579102374613, 0.0379068143666, -0.137349501252, 0.154823958874, -0.0210944693536, 0.127087399364, -0.120348468423, 0.0647414475679, 0.0705953687429, 0.201745986938, -0.247510969639, -0.242218822241, 0.154752194881, 0.0789186507463, 0.134666994214, -0.0743778347969, -0.18585652113, 0.00901010166854, 0.60508030653, -0.098464153707, 0.361386567354, 0.176101461053, 0.0364513508976, 0.636897802353, -0.0185948759317, -0.0437431260943, 0.123429253697, -0.293698102236, -0.119283802807, 0.0103179560974, -0.264098912477, 0.323983281851, 0.555723547935, -0.284833282232, -0.0727861896157, 0.38892108202, -0.147739484906, 0.506895661354, -0.0263837054372, 0.138802856207, -0.299165159464, 0.284415960312, -0.338701963425, 0.19334705174, -0.232031643391, -0.504553198814, -0.112370975316, 0.094268091023, 0.560396671295, -0.0939976796508}, 
                {-0.233591705561, -0.0270168781281, -0.205641627312, 0.349446117878, -0.0277035590261, -0.352084815502, 0.0394616238773, -0.163925796747, -0.339181661606, -0.342324495316, -0.0036242029164, 0.075289234519, 0.197249159217, -0.268934816122, 0.137274429202, 0.147982865572, -0.192086935043, 0.416542112827, 0.0785339549184, 0.312128990889, 0.0384595803916, -0.0341619811952, -0.00489100068808, -0.231177225709, -0.026621485129, 0.16203352809, 0.0446955673397, 0.0528159588575, 0.0145175419748, -0.18669372797, 0.199581563473, 0.0113862557337, -0.0078934924677, 0.275668531656, 0.116445623338, 0.186574026942, 0.0212678965181, -0.00743092782795, 0.152102142572, -0.127892836928, 0.263722360134, -0.299569308758, 0.192035079002, 0.0229427926242, 0.0920604243875, 0.274356871843, -0.0433968044817, 0.00543562835082, 0.274586886168, -0.181301519275, 0.372465133667, 0.232489615679, 0.0310956891626, -0.0485501810908, 0.170351281762, 0.212572559714, -0.0871953293681, 0.237535178661, 0.426760435104, 0.0801275968552}, 
                {0.247393324971, 0.067791685462, 0.423485398293, 0.283422231674, -0.0879974067211, 0.368435889482, 0.20383694768, 0.0188476704061, -0.146166265011, -0.0656433925033, 0.0995140150189, -0.185823619366, -0.334226191044, -0.0110781900585, -0.0609745159745, -0.195018187165, -0.0698826685548, 0.112983949482, -0.171015456319, -0.0729214996099, -0.564521968365, 0.0985148474574, 0.146129891276, 0.0837792158127, -0.199101984501, -0.234504967928, 0.0897532403469, 0.239664196968, 0.211457043886, -0.177642807364, -0.00163989875, -0.0345855280757, 0.215525403619, -0.108049400151, -0.278978824615, 0.0410129800439, 0.101262532175, -0.394688844681, 0.365325301886, 0.140765056014, 0.00537675432861, 0.293839991093, 0.144727766514, -0.12008830905, -0.17647524178, 0.191425457597, 0.199763447046, 0.00878038350493, -0.258241027594, -0.224535495043, -0.332561284304, 0.177735283971, -0.351044714451, 0.0206132493913, -0.885119378567, 0.292270570993, 0.100966289639, 0.00992744043469, 0.232966557145, -0.136130303144}, 
                {-0.136968418956, 0.0853115990758, -0.0815330967307, 0.302583634853, -0.042320009321, -0.143044963479, -0.0129352016374, 0.23332452774, 0.167702361941, 0.455333054066, 0.0119325332344, 0.191025003791, -0.0682858154178, 0.301258653402, -0.103936754167, 0.124451369047, 0.0674248561263, -0.0887885764241, -0.0601635277271, 0.179053992033, 0.146200269461, 0.32719424367, 0.13860860467, 0.00395154301077, -0.414010763168, 0.176377162337, 0.0745923519135, -0.372969299555, -0.0270458608866, -0.177652746439, 0.0095925135538, 0.204608470201, 0.188653290272, -0.251012861729, 0.237141102552, 0.558292984962, 0.100737094879, 0.0118481330574, 0.15144482255, 0.0458008125424, -0.174218326807, -0.119523309171, -0.494380474091, 0.0429433137178, -0.145274817944, 0.202842459083, -0.103237174451, 0.209165662527, 0.08604016155, -0.0621141754091, 0.133340477943, 0.220895662904, 0.0914818570018, -0.168148234487, -0.491963267326, -0.123535104096, -0.212758734822, -0.315696060658, -0.176907092333, -0.116819322109}, 
                {-0.682688593864, 0.270923614502, -0.271416008472, 0.242239758372, -0.156285271049, 0.438875287771, 0.00954834744334, 0.213509231806, 0.0337508097291, 0.149000197649, -0.480162799358, -0.0545550994575, -0.159784585238, 0.348796457052, -0.263264775276, 0.191763162613, -0.0904454514384, 0.177144661546, -0.0461861528456, -2.31871318817, -0.177618011832, -0.147896692157, 0.2671264112, -0.0192179586738, 0.299212604761, -0.350794136524, 0.115471862257, -0.522166371346, -0.398405104876, 0.0318335108459, 0.0378350913525, 0.642536222935, 0.511973381042, -0.172472253442, -1.98762476444, 0.0157805103809, -1.02999544144, 0.0825459063053, 0.0808086246252, 0.442188888788, -0.0545003451407, -0.416433274746, -0.290897518396, -0.0897893235087, -0.072918318212, -0.106016099453, 0.193844303489, 0.167954698205, -0.102560587227, -0.240902706981, -0.468100190163, -0.0718317404389, 0.0859881192446, 0.148373395205, 0.229465037584, 0.0374170392752, -0.102165192366, -0.247255578637, 0.312279433012, -0.361344814301}, 
                {-0.00407666247338, 0.16786916554, 0.00981279090047, 0.0448289103806, 0.1211604774, -0.102904990315, 0.0312393158674, -0.0136839589104, -0.227428212762, 0.109678454697, 0.125757843256, 0.176369652152, -0.0070722727105, -0.0799619331956, 0.283302247524, -0.223797783256, 0.0553621985018, -0.0145984096453, -0.0417587682605, 0.110807605088, -0.368775039911, -0.216256350279, 0.240109145641, 0.305417895317, -0.323801517487, -0.101212747395, 0.144621953368, -0.304848909378, 0.38827008009, 0.118353232741, 0.473331689835, -0.292525142431, -0.0270116236061, 0.0824054256082, 0.187850385904, -0.116742432117, 0.22386367619, -0.0249196365476, -0.192808687687, 0.161743372679, 0.345557421446, 0.124450519681, 0.260416209698, -0.0841095373034, 0.019931089133, -0.113220721483, 0.25326231122, 0.163101434708, -0.0764424949884, -0.098767504096, -0.314440578222, 0.149701789021, 0.121669188142, -0.0974243283272, -0.0440036356449, 0.139825806022, 0.189866483212, 0.454529523849, 0.593217134476, 0.0894606634974}, 
                {-0.286548733711, 0.124215438962, -0.171721667051, -0.0821881443262, 0.0995829254389, -0.0806360021234, 0.0907122790813, 0.177770733833, -0.152511745691, -0.0834975391626, 0.237467035651, 0.0265736021101, 0.2214371562, -0.193515375257, -0.105710685253, 0.190356478095, -0.106387928128, -0.120344989002, -0.0140826953575, 0.0117097636685, -0.0286816246808, 0.105677478015, -0.200330674648, -0.0069015705958, 0.263985574245, 0.340609937906, 0.129271522164, 0.0232028681785, -0.204121768475, 0.432566791773, 0.193178594112, -0.148935705423, 0.161750987172, -0.178556621075, 0.114634521306, -0.175713986158, 0.0289137978107, 0.108046941459, 0.256330013275, 0.316140055656, -0.0463858991861, -0.05978089571, -0.181504815817, -0.39617022872, 0.0847974568605, -0.0786668881774, 0.228299334645, -0.0553282164037, -0.195136472583, -0.203371718526, -0.0679761618376, -0.225945398211, -0.0872003436089, 0.0733948349953, 0.0509750172496, 0.189731553197, -0.139366239309, -0.367393791676, 0.136217564344, -0.213639348745}, 
                {-0.63805603981, 0.283568590879, -0.389456957579, 0.139013141394, -0.134021237493, -0.324042797089, 0.0761012807488, 0.0430909246206, -0.0282701011747, -0.473115950823, 0.149649828672, 0.0794815123081, -0.351609736681, 0.299891382456, 0.015447200276, -0.0664107277989, -0.1743478477, 0.266678988934, 0.276516497135, 0.101542174816, 0.420734375715, -0.00907379668206, -0.27704846859, 0.218886315823, -0.113001644611, -0.190652951598, 0.0479712970555, -0.181905701756, 0.00826068408787, -0.228485301137, 0.124714128673, -0.252824038267, 0.107922390103, 0.200453743339, 0.191876605153, -0.0180257875472, 0.321761876345, 0.0593466050923, -0.0796124115586, 0.00469522224739, 0.424062669277, -0.411905735731, 0.0231042969972, 0.149002149701, 0.154154211283, 0.0173002406955, 0.124035529792, 0.156048506498, 0.237373009324, -0.0458930619061, -0.20128954947, -0.240228623152, -0.00186105479952, 0.331725776196, 0.00325622595847, 0.211399465799, 0.259586781263, -0.125200465322, 0.0377759933472, -0.308525174856}, 
                {-0.499587237835, -0.274367392063, 0.278009772301, 0.264716595411, 0.119716972113, -0.113933123648, -0.275376439095, 0.232183232903, -0.167341738939, -0.110660970211, -0.0536255501211, -0.0802220255136, -0.261277228594, 0.0734447836876, -0.0800908654928, 0.126959115267, -0.197499260306, 0.212705254555, 0.0574285164475, 0.10039114207, 0.173327773809, -0.12992797792, -0.00995025876909, 0.359103858471, 0.360863000154, 0.102335989475, 0.0199398510158, -0.178315639496, 0.11607837677, -0.390870094299, -0.165217608213, 0.166226878762, 0.157072678208, 0.209454223514, 0.091066673398, 0.246949344873, 0.0169295798987, 0.455839157104, 0.0743408575654, -0.0706833302975, 0.261453062296, -0.217198595405, 0.0741788670421, -0.047391757369, 0.0533768385649, 0.42349216342, -0.0630095601082, 0.34249034524, -0.00313161383383, -0.095781236887, -0.146864131093, 0.0758761018515, 0.2984790802, 0.123585626483, -0.406529575586, -0.0167994201183, 0.145014315844, 0.0592264682055, 0.264825254679, 0.218503862619}, 
                {-1.00936162472, -0.0821549221873, -0.285616904497, -0.210839033127, -0.00668527698144, 0.494707971811, -0.87715947628, -0.123392648995, -0.0855238512158, 0.288994252682, 0.122823923826, -0.0797307267785, -0.559270322323, -0.231265515089, -0.30542576313, 0.0211365073919, 0.56961619854, -0.123264379799, -0.0301749706268, -0.103535749018, -0.369037121534, 0.0144998002797, -0.353648602962, -0.62180942297, 0.434233397245, 0.119921684265, -0.235813185573, -0.612229764462, 0.0654071047902, 0.204107046127, 0.0889094024897, -0.2796844244, 0.028147879988, -0.419504135847, -0.127997174859, 0.203560262918, -0.829280555248, 0.291737854481, 0.216724723577, 0.178321436048, 0.016516327858, 0.0321542061865, 0.0801683291793, -0.198314249516, -0.0487859100103, 0.197031706572, 0.405578792095, -0.191351979971, 0.081038467586, -0.43627512455, 0.190587416291, -0.176624670625, 0.270556002855, -0.150759026408, 0.410882413387, -0.0424651317298, -0.509820818901, -0.101758517325, 0.136752396822, 0.0606513023376}, 
                {0.162136480212, 0.100339978933, -0.003387224162, -0.192936047912, -0.285883724689, 0.164755389094, 0.350253373384, 0.215319901705, -0.0839027017355, 0.246608510613, 0.337614297867, -0.19392773509, -0.18765579164, -0.0800206437707, -0.11177508533, -0.226253896952, 0.161544412374, -0.171333000064, -0.390712320805, -0.0883275866508, 0.0494817942381, 0.0432217828929, 0.15025267005, 0.206889778376, 0.165744453669, -0.163374841213, -0.0458243265748, -0.0550459623337, 0.306594640017, 0.254927575588, 0.0340990871191, 0.312836378813, 0.291008174419, -0.146852701902, 0.198296099901, 0.0231746230274, -0.217366874218, -0.486713349819, 0.166368126869, 0.0864783748984, -0.389362633228, 0.359056919813, -0.119338043034, -0.473422020674, 0.0472479313612, 0.230525448918, 0.042418256402, 0.161029413342, -0.260554403067, -0.1546677351, -0.175732836127, 0.0613660402596, 0.0405292361975, 0.0503520183265, -0.306356668472, -0.193342477083, -0.18584215641, 0.430583059788, 0.138835221529, 0.202740192413}, 
                {-0.0177705790848, -0.193684563041, 0.206350177526, -0.0321186520159, 0.046562038362, 0.139429315925, -0.124756835401, 0.0709029957652, 0.281567335129, -0.139865070581, -0.27361908555, -0.103077173233, 0.110446773469, -0.051902718842, -0.121988154948, 0.11263038218, -0.0229210071266, -0.18052059412, 0.0395110547543, -0.0731517970562, -0.226840496063, -0.021286027506, 0.22304213047, 0.068599998951, -0.264971852303, -0.0959617346525, 0.263004601002, 0.31173157692, -0.217959165573, -0.0844010263681, -0.0197214893997, 0.177881851792, 0.204251408577, -0.37965425849, -0.140968307853, 0.0694346353412, -0.263899028301, -0.144324570894, 0.133260071278, -0.0643749758601, 0.120703332126, 0.0631889998913, 0.0495577305555, 0.139873787761, 0.073448613286, 0.298072725534, 0.297801136971, 0.23362159729, 0.16807821393, 0.173004433513, 0.106904782355, 0.172757953405, 0.303981244564, -0.0298457685858, -0.15397143364, -0.393904685974, -0.0787462294102, 0.173418045044, -0.337503314018, -0.124980673194}, 
                {-0.0861659124494, 0.0454626083374, 0.0278662648052, -0.179002463818, 0.108383648098, -0.0388225242496, -0.174740254879, 0.40675625205, 0.355207502842, -0.172915220261, -0.0383093729615, -0.220262423158, 0.432068347931, -0.401707172394, 0.108606979251, 0.0271573867649, 0.169116601348, -0.00736391358078, 0.0807323008776, 0.0246920771897, -0.146538242698, 0.181493371725, -0.0644402429461, 0.158264070749, -0.0649673715234, 0.246790841222, -0.130496069789, 0.370538711548, -0.389041692019, 0.191705256701, 0.0609904676676, 0.0428970083594, 0.018997721374, -0.187082007527, -0.218793928623, -0.0730723068118, -0.0427510216832, -0.126512050629, 0.19376347959, 0.213506057858, -0.525305449963, -0.0537855215371, 0.103113688529, -0.189522534609, -0.0501091517508, -0.00482791569084, -0.0324815399945, -0.244507357478, 0.0480389557779, -0.0427902415395, 0.430064231157, 0.167287394404, 0.347344875336, 0.254639387131, 0.245854318142, -0.165078163147, -0.0050732656382, 0.109215378761, -0.397120147943, -0.139199316502}, 
                {-0.156270235777, -0.149389266968, 0.227852508426, -0.160092160106, -0.44943779707, -0.141507804394, -0.16214120388, -0.169045105577, -0.51577436924, 0.0390051789582, -0.310466021299, 0.0899252146482, -0.0281855985522, 0.232302099466, 0.0534806847572, -0.192566588521, -0.153301611543, 0.177638694644, 0.59611004591, -0.144902676344, 0.0913583859801, 0.217512458563, -0.0586850531399, -0.166890546679, 0.0867401063442, -0.231085181236, 0.119984857738, -0.142860636115, 0.521105289459, -0.264076888561, 0.381536453962, 0.0361632071435, -0.171507611871, 0.143553435802, -0.114684812725, -0.239457935095, -0.399034053087, 0.363008707762, -0.170957505703, 0.0515714175999, -0.19498629868, 0.317736804485, 0.107623569667, -0.686172425747, 0.255842119455, 0.400510251522, -0.290393769741, 0.0448226071894, -0.336535871029, 0.0555743202567, 0.240875437856, 0.129011407495, -0.101478308439, 0.0983067154884, -0.110954739153, 0.303284019232, 0.256120741367, 0.054660834372, 0.169611364603, 0.483545809984}, 
                {0.13239954412, -0.255714565516, -0.0684229657054, 0.456155478954, 0.111547827721, -0.100497983396, -0.206625625491, -0.144528672099, 0.239854931831, -0.0674866512418, 0.0842761471868, 0.254650294781, -0.0220124404877, 0.0584178976715, 0.121062025428, 0.00848871655762, 0.338096857071, 0.152593836188, 0.266000002623, 0.194019407034, 0.404953658581, 0.167043492198, -0.223224282265, 0.345842123032, 0.211623638868, 0.251755386591, 0.398552417755, -0.0662729516625, -0.0944666191936, -0.107811465859, 0.19507406652, 0.235514059663, -0.109632372856, -0.222828119993, 0.215803042054, 0.095414057374, 0.212498649955, 0.390075594187, -0.29267257452, 0.061449687928, 0.139896914363, 0.123627945781, 0.195195123553, -0.0394869185984, 0.312398970127, 0.0809890404344, 0.287384212017, 0.231686666608, -0.136704772711, 0.0399041585624, -0.220896586776, 0.347566157579, 0.096947722137, -0.0715463683009, 0.0977891981602, -0.24938224256, -0.0165766384453, -0.176708430052, 0.279063880444, -0.144950628281}, 
                {-0.0980654135346, 0.0793804600835, 0.200751304626, 0.106764145195, -0.22154211998, 0.145739808679, 0.0922252982855, 0.0372942239046, -0.0159819796681, 0.0687805861235, -0.316513478756, -0.193960860372, -0.00702197849751, 0.0281587522477, 0.00614131568, -0.408549934626, 0.321165502071, -0.107235066593, 0.138988375664, -0.08143222332, 0.239162936807, 0.183820590377, 0.543816685677, -0.293135613203, 0.0518902726471, -0.104824841022, 0.17688588798, 0.153487294912, -0.0132810277864, 0.102187156677, 0.102283015847, 0.0234931148589, 0.108107939363, 0.125843837857, -0.285478711128, 0.22066628933, 0.151418700814, -0.0147526282817, 0.134083226323, 0.0445072539151, -0.168423965573, 0.274402797222, 0.0811854228377, -0.156701609492, -0.345593869686, 0.230951577425, 0.478809118271, -0.0119637176394, 0.0614488869905, -0.228925600648, 0.0383324585855, 0.216845661402, 0.215642854571, -0.0930094048381, -0.290182083845, 0.482042580843, -0.0911392346025, -0.191672489047, -0.0978260487318, 0.415700912476}, 
                {-0.0650301501155, -0.389141947031, 0.297623068094, -0.15071117878, -0.183719992638, -0.364318728447, 0.185935720801, -0.0670643150806, 0.132012397051, 0.146435022354, 0.187671378255, -0.0587625540793, 0.241300985217, 0.268345564604, 0.206243142486, -0.0385592654347, -0.0680559277534, -0.257536739111, 0.155786886811, -0.0714872181416, -0.137374013662, 0.166174009442, -0.0224755462259, -0.150624364614, -0.0966340973973, -0.161326408386, -0.105018742383, 0.0832147672772, -0.210480540991, 0.0622795782983, 0.00676856935024, -0.124639555812, 0.245089575648, 0.163173645735, 0.031464766711, 0.325939178467, -0.346034735441, 0.127893581986, 0.031851939857, -0.315637260675, -0.107421688735, 0.0080987336114, -0.0780440419912, 0.065487422049, -0.140158653259, -0.128584370017, 0.224811628461, 0.173424229026, 0.0788767635822, -0.0541499257088, -0.640872836113, -0.209705069661, 0.0396770462394, -0.130883067846, 0.0958581864834, 0.364206075668, 0.132873743773, 0.021923866123, -0.232556521893, 0.277710914612}, 
                {0.368921488523, -0.200826361775, 0.286344438791, 0.332930237055, -0.228232741356, -0.0484836623073, -0.246907129884, 0.375839501619, 0.0452127344906, 0.194304272532, 0.15841473639, 0.164075106382, -0.284677743912, -0.151968836784, -0.135237142444, -0.453147858381, 0.331422477961, 0.00717979669571, -0.0303139258176, -0.189416721463, -0.251381009817, 0.00728818960488, -0.0316073521972, 0.010711632669, 0.430156618357, 0.0765379741788, 0.102089241147, -0.0993068665266, -0.235463872552, -0.0353871434927, 0.200796201825, 0.228799909353, 0.158444970846, -0.0154065676033, 0.0817684978247, -0.152641683817, -0.048870511353, 0.0753118097782, 0.188442826271, 0.402106404305, -0.569226026535, 0.128024041653, 0.0410503484309, 0.138053640723, -0.0331723168492, 0.283418595791, 0.149286359549, -0.211955547333, -0.235679253936, 0.150720536709, 0.0115593392402, -0.133254244924, -0.0279512945563, 0.0648953169584, -0.106880001724, -0.0677573829889, -0.370207607746, 0.216214507818, 0.179853901267, 0.483371913433}, 
                {-0.13699349761, 0.228849411011, 0.147740706801, -0.232451304793, -0.0760778263211, 0.157503008842, 0.286357104778, -0.155556410551, 0.32493519783, -0.00528755225241, 0.149862706661, 0.185393095016, 0.0499340891838, -0.432161450386, 0.14611440897, -0.191213741899, 0.00265369703993, 0.150903001428, 0.265528947115, -0.177980273962, -0.00813978444785, 0.222901269794, -0.122134253383, -0.157330870628, 0.101691484451, 0.238120079041, 0.140406191349, 0.108403854072, 0.0935559868813, 0.00164392369334, 0.223167717457, 0.225058153272, 0.162402957678, 0.47683608532, -0.324692308903, -0.0437882356346, 0.0512419566512, -0.0290336161852, 0.087323628366, 0.398559778929, -0.209197700024, 0.105804644525, 0.501145899296, 0.175627723336, -0.0270653162152, 0.0347976349294, -0.13986800611, 0.132884070277, -0.0275536756963, 0.13271714747, 0.0592733547091, -0.221396863461, 0.106691800058, 0.24271954596, 0.13291297853, 0.0590357556939, -0.0448152385652, 0.166243717074, 0.235404506326, -0.306988358498}}; 
            const double bias_1[30] = {0.284517973661, 0.203251034021, 0.10520093888, 0.17028541863, 0.270672172308, 0.307071834803, -0.0463996604085, 0.269257426262, 0.0254004560411, 0.0250388961285, -0.162822574377, -0.0175950545818, -0.0457744784653, 0.092355184257, 0.124049916863, -0.0467174947262, -0.0634265765548, 0.0205206647515, -0.0618416033685, -0.0500456690788, 0.199508443475, 0.251650184393, 0.0541256517172, 0.186930716038, -0.229341834784, -0.0393649674952, 0.194824323058, 0.0443309433758, 0.199686124921, 0.00210758415051}; 
            const float weight_2[15][30] = {{0.137828558683, 0.070763528347, 0.13362146914, 0.212946623564, -0.00101686420385, -0.260803312063, 0.183244287968, 0.143095895648, -0.221095263958, 0.364805400372, 0.472609132528, 0.212548881769, 0.0444329604506, -0.141382992268, -0.244523018599, -0.391942977905, 0.322143733501, 0.387729912996, -0.0985792279243, -0.117173843086, 0.135189250112, -0.0862078219652, 0.192754074931, 0.0806685909629, 0.158409774303, -0.00274264719337, 0.226062580943, -0.109669595957, -0.208143204451, 0.126249849796}, 
                {-0.109025977552, 0.510233581066, 0.284545272589, 0.243083447218, 0.147579699755, 0.262273997068, 0.305287599564, 0.483249157667, 0.139271453023, -0.294679760933, -0.0313068144023, 0.235063478351, -0.014925298281, 0.402245402336, -0.247324958444, -0.596119046211, -0.326535761356, -0.18207116425, -0.186117887497, -0.155632510781, 0.557433009148, 0.449852228165, -0.0261640734971, 0.39175209403, 0.21536628902, 0.151975139976, 0.299444407225, 0.325006067753, 0.247200354934, 0.336948633194}, 
                {0.273806393147, 0.380479753017, 0.221309915185, 0.194634288549, 0.440343260765, 0.388153344393, -0.0492581315339, 0.426610201597, -0.198508441448, 0.152571946383, 0.1326354146, -0.187114775181, 0.262877702713, 0.329518824816, 0.189976334572, -0.746760368347, -0.0560567975044, 0.302976429462, 0.203008413315, 0.272671461105, 0.459287881851, 0.183883607388, -0.0859250202775, 0.0147830843925, 0.0472944974899, 0.290227234364, 0.199229210615, -0.361518800259, 0.448934435844, -0.206197857857}, 
                {-0.164888128638, 0.68475073576, 0.102846302092, 0.167656704783, 0.0971270874143, 0.429131418467, -0.0688582509756, 0.513722538948, -0.143102988601, 0.197440475225, -0.371796399355, -0.417982548475, 0.103118881583, 0.0484336987138, -0.177141368389, -0.498123556376, 0.222068548203, 0.455229997635, 0.137115269899, -0.139180868864, 0.386713147163, 0.315139919519, 0.277723103762, 0.355320572853, 0.132331162691, 0.0632092356682, -0.0864446759224, -0.136589661241, 0.270099163055, 0.465958744287}, 
                {-0.202236786485, 0.0184469819069, -0.155379325151, 0.376841545105, -0.177022993565, -0.29282772541, 0.00159756524954, 0.188042148948, -0.379170805216, -0.0477589555085, 0.0932474061847, 0.575590014458, 0.263182491064, 0.417673707008, -0.109474606812, -0.996983170509, 0.176895439625, -0.129433780909, -0.210173338652, -0.0519740693271, 0.0563618540764, -0.161723598838, -0.0781147629023, -0.574089348316, 0.961238086224, -0.0290316790342, 0.182387560606, -0.203346595168, -0.298257440329, 0.131590992212}, 
                {-0.363032519817, 0.176341056824, -0.0430440306664, 0.286879211664, 0.241459935904, -0.025475256145, -0.248812556267, -0.633253455162, -0.167553588748, -0.238200008869, -0.0276272948831, 0.151624143124, 0.162643387914, 0.0719934627414, 0.240376532078, 0.069506675005, -0.159173160791, 0.23530690372, 0.320417881012, 0.16677634418, -1.46433436871, 0.00713341403753, 0.325057834387, 0.272238403559, -0.965050160885, 0.295170754194, -0.311310827732, -0.175176486373, 0.133213311434, -0.19116564095}, 
                {-0.0891040936112, 0.396605998278, -0.0823596566916, -1.0905234376e-05, -0.399855047464, 0.428433030844, 0.087642647326, -0.156340032816, -0.016520190984, -0.0410402938724, 0.0640047341585, -0.0712508410215, -1.61698174477, -0.388906985521, -0.220953255892, -0.25251403451, -0.248776137829, -0.3515612185, 0.267284691334, 0.0366024039686, 0.516597926617, 0.0461179278791, -0.11359295249, 0.17328171432, 0.148885622621, 0.260965406895, 0.0807793810964, 0.581892907619, -0.300839275122, -0.576459765434}, 
                {0.543079435825, 0.279792904854, -0.0229584965855, 0.18373246491, -0.0283668991178, 0.471454441547, -0.301163434982, 0.0906954556704, 0.137891739607, 0.326608270407, 0.332127928734, -0.266525149345, -0.0903222113848, 0.158223718405, 0.41037517786, 0.198166191578, -0.0474986881018, -0.0875386819243, 0.250689566135, -0.0257423520088, 0.0759140178561, 0.0891710221767, 0.0269014518708, 0.292753875256, -0.291395664215, 0.356394141912, 0.329401344061, -0.224295333028, 0.360164999962, 0.0927841737866}, 
                {0.175742745399, -0.300958573818, -0.0547924526036, -0.108118899167, -0.16842623055, -0.216632381082, 0.225394815207, 0.252784192562, 0.102605044842, -0.392646282911, -0.285494148731, -0.150792732835, 0.403930991888, 0.334065824747, -0.09395365417, -0.514032304287, -0.29012092948, 0.275990247726, 0.375974088907, -0.131875172257, 1.06232023239, -0.168908387423, -0.614515781403, 0.04620077461, 0.19254758954, 0.26025685668, 0.270769178867, -0.19591858983, -0.282914072275, 0.102423965931}, 
                {-0.0250070709735, -0.0744510442019, 0.354785174131, 0.289734423161, -0.226493299007, 0.249270796776, 0.346942842007, -0.0119442585856, -0.187223255634, -0.0829400494695, 0.270791530609, 0.318892121315, 0.228212356567, 0.179812610149, 0.038665484637, 0.552629172802, 0.235812723637, 0.330310225487, 0.500665009022, 0.23725271225, -0.0987487733364, -0.0165596473962, -0.143984392285, -0.186251148582, -0.0636409670115, 0.405587464571, -0.282868027687, -0.257367610931, -0.0266156550497, 0.00124248210341}, 
                {0.588821649551, -0.181103035808, -0.286073565483, 0.123870961368, -0.256926506758, 0.393897801638, 0.279791861773, -0.0149456979707, 0.38765385747, -0.104288950562, -0.311262220144, -0.16748316586, -0.213203296065, 0.083511441946, -0.0220558382571, 0.379749268293, -0.00232007610612, 0.47984290123, 0.0772083699703, -0.209254190326, -0.884704053402, 0.0503574311733, 0.282407194376, 0.085938051343, -0.488763898611, 0.00743665639311, -0.1311019063, -0.0519300550222, 0.349876463413, 0.223960608244}, 
                {0.00352338841185, -0.169009119272, 0.0906950607896, -0.231339603662, 0.0827972739935, -0.162868902087, -0.0118578951806, -0.0743166133761, -0.117155335844, -0.0244294833392, -0.00769709981978, 0.289593875408, 0.107592500746, 0.140961766243, -0.373370856047, 0.103962555528, -0.0760177820921, -0.226557210088, -0.286186486483, -0.232768386602, 0.190173074603, -0.423849493265, 0.281079828739, -0.364585846663, 0.192158579826, -0.335111111403, 0.24467343092, -0.0911475643516, -0.177818849683, -0.373393774033}, 
                {-0.0145625974983, 0.112589113414, 0.144585579634, -0.276241183281, -0.342184394598, -0.0688389390707, 0.272776454687, -1.46326231956, 0.214648976922, 0.222718685865, 0.17612272501, 0.137706100941, 0.0448408201337, -0.271975934505, 0.150082752109, 0.754946112633, -0.281089514494, -0.0211931876838, -0.0425142683089, 0.390897780657, -0.879426300526, -0.173179641366, 0.161613076925, 0.185774877667, -0.606048703194, 0.253872424364, -0.311857789755, 0.139268100262, -0.279069572687, 0.408531188965}, 
                {-0.286722958088, -0.395635992289, 0.168585985899, -0.04112861678, -0.294259756804, 0.250849366188, -0.0685458183289, -1.31269085407, 0.133559763432, 0.13506218791, 0.424607902765, 0.208644941449, 0.395894050598, -0.187786236405, -0.166227728128, 0.586685359478, 0.406203627586, -0.172875076532, 0.392320454121, 0.103760331869, -1.28864479065, -0.555237531662, 0.0997551605105, 0.0281364414841, -0.734747648239, 0.370118498802, -0.0925745293498, -0.279138982296, 0.180584743619, 0.103122599423}, 
                {-0.25348892808, -0.0532993115485, -0.212997213006, -0.0620923750103, -0.310012668371, -0.254556834698, -0.113102957606, 0.157636672258, 0.0231380108744, 0.122209586203, 0.323456972837, 0.637404382229, -0.0986049622297, -0.00566651718691, -0.0724871531129, -0.019628662616, 0.0588052012026, -0.186164349318, -0.21203930676, 0.128054767847, -0.215599879622, 0.200609177351, -0.0179936215281, -0.229961723089, 0.596459448338, -0.0417769216001, -0.107382036746, -0.115753903985, 0.168886989355, 0.394874423742}}; 
            const double bias_2[15] = {0.186488583684, 0.0949900746346, 0.0677051618695, 0.0295697432011, 0.0190583467484, -0.0114578939974, -0.112432360649, 0.102422036231, -0.173741787672, -0.0409018807113, 0.124735638499, -0.0612971968949, 0.0249071549624, -0.0289947874844, -0.1554389745}; 
            const float weight_3[10][15] = {{0.464541256428, -0.326970547438, -0.31793102622, -0.162739962339, 0.44015032053, -0.105366744101, 0.0971069633961, -0.41043227911, 0.368298947811, -0.302562087774, 0.0904415473342, 0.0202290304005, 0.447947919369, 0.0161286108196, -0.182641744614}, 
                {0.0778067559004, 0.351487100124, -0.0714340955019, -0.0365444086492, 0.588921129704, -1.09158396721, 0.457041025162, -0.197210237384, -0.482638090849, -0.548930227757, -0.390594869852, -0.0149994352832, 0.499983996153, -0.611881136894, -0.237868502736}, 
                {0.229729160666, 0.250080108643, 0.427590548992, 0.477130174637, 0.4354185462, -0.161541074514, 0.937199056149, 0.497453987598, 0.0484101139009, -0.306197971106, 0.54970240593, -0.201605111361, 0.0543996207416, -0.601220786572, -0.291446954012}, 
                {0.111631110311, -0.538113355637, 0.183053687215, 0.298718750477, 0.0498402304947, -0.0365565009415, -0.212990507483, 0.120306685567, -0.724619030952, -0.0616397447884, 0.386560946703, 0.0921059250832, 0.579173922539, -0.106051415205, -0.0401539355516}, 
                {0.506924211979, 0.11816252768, -0.272546440363, 0.51260560751, -0.296029567719, 0.371145784855, -0.325660377741, -0.337702900171, -0.10888081044, 0.512788414955, -0.0160083137453, -0.0931377783418, 0.250238806009, 0.454752266407, -0.546083807945}, 
                {0.477393746376, -0.520057737827, 0.01816335693, -0.253892302513, 0.289135187864, -0.170078113675, -0.189352810383, 0.445350289345, -0.125760748982, 0.0433983579278, 0.297051221132, -0.260774165392, 0.325597316027, 0.533185362816, -0.016122488305}, 
                {0.248462080956, -0.186169967055, 0.542092621326, 0.327782154083, 0.350567251444, 0.0986550301313, 0.054887149483, 0.367350429296, -0.00548340892419, 0.0717834085226, -0.42017391324, 0.458041608334, -0.454916238785, -0.46147108078, 0.590339124203}, 
                {-0.237504571676, -0.586645364761, 0.278033912182, 0.394316971302, -0.5907741189, 0.429094225168, -0.179440185428, 0.175918191671, -0.314193785191, 0.191267162561, 0.227586477995, 0.274469733238, 0.0707138702273, -0.0217121094465, -0.179874718189}, 
                {0.24789942801, 0.0379420854151, 0.431021749973, 0.335663199425, 0.393170565367, -0.205850675702, 0.225377202034, 0.0152367781848, -0.408106178045, 0.168136760592, -0.390121251345, 0.225794792175, -0.094996266067, -0.211432933807, 0.205820694566}, 
                {-0.433733761311, -0.320561885834, -0.423986852169, -0.136095553637, -0.0282115824521, 0.385004550219, 0.236859247088, 0.0404165126383, -0.277847290039, -0.517491102219, 0.288994193077, 0.422006726265, 0.0191371627152, 0.0389895811677, -0.167341768742}}; 
            const double bias_3[10] = {0.0339976586401, 0.279399335384, 0.120725400746, -0.00624170387164, 0.0655728206038, 0.0734301805496, 0.0852882638574, -0.0561312176287, 0.0436198636889, -0.0404787883162}; 
            const float weight_4[4][10] = {{0.438207477331, 0.450873702765, 0.21713078022, -0.738649010658, 0.549243092537, -0.387153476477, -0.0938272848725, -0.425964355469, -0.0755637511611, 0.419313818216}, 
                {-0.00547408824787, -5.30782413483, -0.549292325974, 0.371859610081, 0.198414608836, 0.715176522732, -0.877937495708, 0.385545909405, -0.56422662735, -0.0278768390417}, 
                {0.377138823271, 0.0535516515374, 0.579185068607, 0.00760004064068, -0.584818899632, -0.172008618712, -0.344735503197, 0.0992254540324, -0.395918905735, -0.316616773605}, 
                {-0.30899554491, -0.124256581068, -0.347388505936, -0.362543821335, -0.282584428787, 0.378429889679, 0.679905056953, 0.0640635713935, 0.427746385336, -0.427382618189}}; 
            const double bias_4[4] = {-0.00268425815739, -0.0845448598266, -0.00747773982584, 0.0330205783248}; 
            const double var_means[12] = {169.284345468, 1.8793515898, 1.01358508754, 88.1301989009, 2.27807517934, 110.45121203, 58.9993816872, 137.099287268, 84.2166461665, 2.13231355378, 261.563969636, 0.232110924799};
            const double var_std[12] = {189.860389563, 0.895676565049, 0.771432567534, 62.3483658223, 0.875805561158, 106.673357674, 63.500824736, 117.731278316, 65.8273767151, 0.820588484902, 171.096533263, 0.364929378834};

            float mll_var{*mll->Get()};
            float dphill_var{*dphill->Get()};
            float detall_var{*detall->Get()};
            float ptll_var{*ptll->Get()};
            float drll_var{*drll->Get()};
            float pt1_var = Lepton_pt->At(0);
            float pt2_var = Lepton_pt->At(1);
            int jet1_idx = CleanJet_jetIdx->At(0);
            float jet1_btag = Jet_btagDeepFlavB->At(jet1_idx);
            float jet1_pt = CleanJet_pt->At(0);
            //float pt1_var{*pt1->Get()};
            //float pt2_var{*pt2->Get()};
            float mth_var{*mth->Get()};
            float PuppiMET_pt_var{*PuppiMET_pt->Get()};
            float dphillmet_var{*dphillmet->Get()};
            float mcollWW_var{*mcollWW->Get()};

            float input_layer[12] = { mll_var, dphill_var, detall_var, ptll_var, drll_var, pt1_var, pt2_var, mth_var, PuppiMET_pt_var, dphillmet_var, mcollWW_var, jet1_btag};
            for (int index = 0; index < 12; index = index + 1) { 
                input_layer[index] = (input_layer[index]-var_means[index])/var_std[index];            }
            float layer0[60] = { 0 };
            for (int next_index = 0; next_index < 60; next_index = next_index +1) { 
                for (int last_index = 0; last_index < 12; last_index = last_index + 1) { 
                    layer0[next_index] += weight_0[next_index][last_index] * input_layer[last_index]; 
                }
                layer0[next_index] += bias_0[next_index]; 
                layer0[next_index] = layer0[next_index] > 0 ? layer0[next_index] : 0; // RELU 
            }
            float layer1[30] = { 0 };
            for (int next_index = 0; next_index < 30; next_index = next_index +1) { 
                for (int last_index = 0; last_index < 60; last_index = last_index + 1) { 
                    layer1[next_index] += weight_1[next_index][last_index] * layer0[last_index]; 
                }
                layer1[next_index] += bias_1[next_index]; 
                layer1[next_index] = layer1[next_index] > 0 ? layer1[next_index] : 0; // RELU 
            }
            float layer2[15] = { 0 };
            for (int next_index = 0; next_index < 15; next_index = next_index +1) { 
                for (int last_index = 0; last_index < 30; last_index = last_index + 1) { 
                    layer2[next_index] += weight_2[next_index][last_index] * layer1[last_index]; 
                }
                layer2[next_index] += bias_2[next_index]; 
                layer2[next_index] = layer2[next_index] > 0 ? layer2[next_index] : 0; // RELU 
            }
            float layer3[10] = { 0 };
            for (int next_index = 0; next_index < 10; next_index = next_index +1) { 
                for (int last_index = 0; last_index < 15; last_index = last_index + 1) { 
                    layer3[next_index] += weight_3[next_index][last_index] * layer2[last_index]; 
                }
                layer3[next_index] += bias_3[next_index]; 
                layer3[next_index] = layer3[next_index] > 0 ? layer3[next_index] : 0; // RELU 
            }
            float layer4[4] = { 0 };
            for (int next_index = 0; next_index < 4; next_index = next_index +1) { 
                for (int last_index = 0; last_index < 10; last_index = last_index + 1) { 
                    layer4[next_index] += weight_4[next_index][last_index] * layer3[last_index]; 
                }
                layer4[next_index] += bias_4[next_index]; 
            }
            float max_final_layer = layer4[0];
            for (int index = 0; index < 4; index = index +1) { 
                if(layer4[index] > max_final_layer){
                    max_final_layer = layer4[index];
                }
            }
            float softmax_denom = 0; 
            for (int index = 0; index < 4; index = index +1) { 
                softmax_denom += expf(layer4[index] - max_final_layer); 
            }
            float softmax_output[4] = { 0 }; 
            for (int index = 0; index < 4; index = index +1) { 
                softmax_output[index] = expf(layer4[index] - max_final_layer - log(softmax_denom));
            }
            if(strcmp(name_.c_str(), "ggH_OFF") == 0) {
                return (double) softmax_output[0];
            }
            if(strcmp(name_.c_str(), "ggH_ON") == 0) {
                return (double) softmax_output[1];
            }
            else if(strcmp(name_.c_str(), "top") == 0) {
                return (double) softmax_output[2];
            }
            else if(strcmp(name_.c_str(), "WW") == 0) {
                return (double) softmax_output[3];
            }
            else if(strcmp(name_.c_str(), "MAX") == 0) {
                float max_index = 0;
                float max_value = softmax_output[0];
                for (int index = 1; index < 4; index = index +1) {
                    if(softmax_output[index] > max_value){
                        max_index = index;
                        max_value = softmax_output[index];
                    }
                }
                return (double) max_index;
            }
            return -1.0;

} 
void 
AddDNNScoresv1_1jet::bindTree_(multidraw::FunctionLibrary& _library) 
{ 
_library.bindBranch(mll, "mll"); 
                _library.bindBranch(dphill, "dphill"); 
                _library.bindBranch(detall, "detall"); 
                _library.bindBranch(ptll, "ptll"); 
                _library.bindBranch(drll, "drll"); 
                _library.bindBranch(Lepton_pt, "Lepton_pt"); 
                _library.bindBranch(CleanJet_jetIdx, "CleanJet_jetIdx"); 
                _library.bindBranch(Jet_btagDeepFlavB, "Jet_btagDeepFlavB"); 
                _library.bindBranch(pt1, "pt1"); 
                _library.bindBranch(pt2, "pt2"); 
                _library.bindBranch(mth, "mth"); 
                _library.bindBranch(PuppiMET_pt, "PuppiMET_pt"); 
                _library.bindBranch(dphillmet, "dphillmet"); 
                _library.bindBranch(mcollWW, "mcollWW"); 
                _library.bindBranch(CleanJet_pt, "CleanJet_pt"); 
}
