<?xml version="1.0"?>
<MethodSetup Method="BDT::BDT15">
  <GeneralInfo>
    <Info name="TMVA Release" value="4.2.1 [262657]"/>
    <Info name="ROOT Release" value="6.12/04 [396292]"/>
    <Info name="Creator" value="aman"/>
    <Info name="Date" value="Thu Oct 31 12:09:25 2019"/>
    <Info name="Host" value="Linux kaur 4.15.0-36-generic #39~16.04.1-Ubuntu SMP Tue Sep 25 08:59:23 UTC 2018 x86_64 x86_64 x86_64 GNU/Linux"/>
    <Info name="Dir" value="/home/aman/Downloads/root-6.12.04/tutorials/tmva"/>
    <Info name="Training events" value="264825"/>
    <Info name="TrainingTime" value="5.55411899e+01"/>
    <Info name="AnalysisType" value="Classification"/>
  </GeneralInfo>
  <Options>
    <Option name="V" modified="Yes">False</Option>
    <Option name="VerbosityLevel" modified="No">Default</Option>
    <Option name="VarTransform" modified="No">None</Option>
    <Option name="H" modified="Yes">False</Option>
    <Option name="CreateMVAPdfs" modified="No">False</Option>
    <Option name="IgnoreNegWeightsInTraining" modified="No">False</Option>
    <Option name="NTrees" modified="Yes">500</Option>
    <Option name="MaxDepth" modified="Yes">2</Option>
    <Option name="MinNodeSize" modified="Yes">0.5%</Option>
    <Option name="nCuts" modified="Yes">1000</Option>
    <Option name="BoostType" modified="Yes">AdaBoost</Option>
    <Option name="AdaBoostR2Loss" modified="No">quadratic</Option>
    <Option name="UseBaggedBoost" modified="No">False</Option>
    <Option name="Shrinkage" modified="No">1.000000e+00</Option>
    <Option name="AdaBoostBeta" modified="Yes">1.000000e-01</Option>
    <Option name="UseRandomisedTrees" modified="No">False</Option>
    <Option name="UseNvars" modified="No">4</Option>
    <Option name="UsePoissonNvars" modified="No">True</Option>
    <Option name="BaggedSampleFraction" modified="No">6.000000e-01</Option>
    <Option name="UseYesNoLeaf" modified="No">True</Option>
    <Option name="NegWeightTreatment" modified="No">inverseboostnegweights</Option>
    <Option name="Css" modified="No">1.000000e+00</Option>
    <Option name="Cts_sb" modified="No">1.000000e+00</Option>
    <Option name="Ctb_ss" modified="No">1.000000e+00</Option>
    <Option name="Cbb" modified="No">1.000000e+00</Option>
    <Option name="NodePurityLimit" modified="No">5.000000e-01</Option>
    <Option name="SeparationType" modified="Yes">giniindex</Option>
    <Option name="RegressionLossFunctionBDTG" modified="No">huber</Option>
    <Option name="HuberQuantile" modified="No">7.000000e-01</Option>
    <Option name="DoBoostMonitor" modified="No">False</Option>
    <Option name="UseFisherCuts" modified="No">False</Option>
    <Option name="MinLinCorrForFisher" modified="No">8.000000e-01</Option>
    <Option name="UseExclusiveVars" modified="No">False</Option>
    <Option name="DoPreselection" modified="No">False</Option>
    <Option name="SigToBkgFraction" modified="No">1.000000e+00</Option>
    <Option name="PruneMethod" modified="No">nopruning</Option>
    <Option name="PruneStrength" modified="No">0.000000e+00</Option>
    <Option name="PruningValFraction" modified="No">5.000000e-01</Option>
    <Option name="SkipNormalization" modified="No">False</Option>
    <Option name="nEventsMin" modified="No">0</Option>
    <Option name="UseBaggedGrad" modified="No">False</Option>
    <Option name="GradBaggingFraction" modified="No">6.000000e-01</Option>
    <Option name="UseNTrainEvents" modified="No">0</Option>
    <Option name="NNodesMax" modified="No">0</Option>
  </Options>
  <Variables NVar="18">
    <Variable VarIndex="0" Expression="Lepton_pt[0]" Label="pt1" Title="pt1" Unit="" Internal="pt1" Type="F" Min="2.50133228e+01" Max="1.37651270e+03"/>
    <Variable VarIndex="1" Expression="Lepton_pt[1]" Label="pt2" Title="pt2" Unit="" Internal="pt2" Type="F" Min="1.50117979e+01" Max="9.44939880e+02"/>
    <Variable VarIndex="2" Expression="Lepton_pt[2]" Label="pt3" Title="pt3" Unit="" Internal="pt3" Type="F" Min="1.00943975e+01" Max="4.99443237e+02"/>
    <Variable VarIndex="3" Expression="Lepton_pt[3]" Label="pt4" Title="pt4" Unit="" Internal="pt4" Type="F" Min="1.00002708e+01" Max="3.39335785e+02"/>
    <Variable VarIndex="4" Expression="z0DeltaPhi_zh4l" Label="z0DeltaPhi_zh4l" Title="z0DeltaPhi_zh4l" Unit="" Internal="z0DeltaPhi_zh4l" Type="F" Min="-3.14158630e+00" Max="3.14158368e+00"/>
    <Variable VarIndex="5" Expression="z0DeltaR_zh4l" Label="z0DeltaR_zh4l" Title="z0DeltaR_zh4l" Unit="" Internal="z0DeltaR_zh4l" Type="F" Min="1.47765011e-01" Max="5.18176174e+00"/>
    <Variable VarIndex="6" Expression="z1DeltaR_zh4l" Label="z1DeltaR_zh4l" Title="z1DeltaR_zh4l" Unit="" Internal="z1DeltaR_zh4l" Type="F" Min="7.85610452e-02" Max="5.28186417e+00"/>
    <Variable VarIndex="7" Expression="lep1Mt_zh4l" Label="lep1Mt_zh4l" Title="lep1Mt_zh4l" Unit="" Internal="lep1Mt_zh4l" Type="F" Min="0.00000000e+00" Max="1.12396667e+03"/>
    <Variable VarIndex="8" Expression="lep2Mt_zh4l" Label="lep2Mt_zh4l" Title="lep2Mt_zh4l" Unit="" Internal="lep2Mt_zh4l" Type="F" Min="5.69640724e-05" Max="6.95013733e+02"/>
    <Variable VarIndex="9" Expression="lep3Mt_zh4l" Label="lep3Mt_zh4l" Title="lep3Mt_zh4l" Unit="" Internal="lep3Mt_zh4l" Type="F" Min="0.00000000e+00" Max="6.57513550e+02"/>
    <Variable VarIndex="10" Expression="lep4Mt_zh4l" Label="lep4Mt_zh4l" Title="lep4Mt_zh4l" Unit="" Internal="lep4Mt_zh4l" Type="F" Min="0.00000000e+00" Max="3.43356964e+02"/>
    <Variable VarIndex="11" Expression="z0Mass_zh4l" Label="z0Mass_zh4l" Title="z0Mass_zh4l" Unit="" Internal="z0Mass_zh4l" Type="F" Min="1.30225325e+01" Max="2.28230011e+02"/>
    <Variable VarIndex="12" Expression="z1Mass_zh4l" Label="z1Mass_zh4l" Title="z1Mass_zh4l" Unit="" Internal="z1Mass_zh4l" Type="F" Min="1.20083361e+01" Max="1.24463354e+03"/>
    <Variable VarIndex="13" Expression="mllll_zh4l" Label="mllll_zh4l" Title="mllll_zh4l" Unit="" Internal="mllll_zh4l" Type="F" Min="6.40918427e+01" Max="2.92205957e+03"/>
    <Variable VarIndex="14" Expression="z1Mt_zh4l" Label="z1Mt_zh4l" Title="z1Mt_zh4l" Unit="" Internal="z1Mt_zh4l" Type="F" Min="7.35227513e-05" Max="1.13958179e+03"/>
    <Variable VarIndex="15" Expression="z1DeltaPhi_zh4l" Label="z1DeltaPhi_zh4l" Title="z1DeltaPhi_zh4l" Unit="" Internal="z1DeltaPhi_zh4l" Type="F" Min="-3.14158368e+00" Max="3.14158368e+00"/>
    <Variable VarIndex="16" Expression="z1dPhi_lep1MET_zh4l" Label="z1dPhi_lep1MET_zh4l" Title="z1dPhi_lep1MET_zh4l" Unit="" Internal="z1dPhi_lep1MET_zh4l" Type="F" Min="0.00000000e+00" Max="3.14158821e+00"/>
    <Variable VarIndex="17" Expression="z1dPhi_lep2MET_zh4l" Label="z1dPhi_lep2MET_zh4l" Title="z1dPhi_lep2MET_zh4l" Unit="" Internal="z1dPhi_lep2MET_zh4l" Type="F" Min="0.00000000e+00" Max="3.14158034e+00"/>
  </Variables>
  <Spectators NSpec="0"/>
  <Classes NClass="2">
    <Class Name="Signal" Index="0"/>
    <Class Name="Background" Index="1"/>
  </Classes>
  <Transformations NTransformations="0"/>
  <MVAPdfs/>
  <Weights NTrees="500" AnalysisType="0">
    <BinaryTree type="DecisionTree" boostWeight="1.9621241147395660e-01" itree="0">
      <Node pos="s" depth="0" NCoef="0" IVar="12" Cut="7.8647727966308594e+01" cType="1" res="-9.9000000000000000e+01" rms="0.0000000000000000e+00" purity="5.0000000000000000e-01" nType="0">
        <Node pos="l" depth="1" NCoef="0" IVar="-1" Cut="7.3353286743164062e+01" cType="0" res="-9.9000000000000000e+01" rms="0.0000000000000000e+00" purity="8.2556462287902832e-01" nType="1"/>
        <Node pos="r" depth="1" NCoef="0" IVar="8" Cut="1.2913821411132812e+02" cType="0" res="-9.9000000000000000e+01" rms="0.0000000000000000e+00" purity="6.1141647398471832e-02" nType="0">
          <Node pos="l" depth="2" NCoef="0" IVar="-1" Cut="0.0000000000000000e+00" cType="1" res="-9.9000000000000000e+01" rms="0.0000000000000000e+00" purity="6.0545814037322998e-01" nType="1"/>
          <Node pos="r" depth="2" NCoef="0" IVar="-1" Cut="0.0000000000000000e+00" cType="1" res="-9.9000000000000000e+01" rms="0.0000000000000000e+00" purity="4.2680487036705017e-02" nType="-1"/>
        </Node>
      </Node>
    </BinaryTree>
    <BinaryTree type="DecisionTree" boostWeight="1.7522974595084895e-01" itree="1">
      <Node pos="s" depth="0" NCoef="0" IVar="12" Cut="7.8647727966308594e+01" cType="1" res="-9.9000000000000000e+01" rms="0.0000000000000000e+00" purity="4.9070170521736145e-01" nType="0">
        <Node pos="l" depth="1" NCoef="0" IVar="-1" Cut="7.3353286743164062e+01" cType="0" res="-9.9000000000000000e+01" rms="0.0000000000000000e+00" purity="7.9548335075378418e-01" nType="1"/>
        <Node pos="r" depth="1" NCoef="0" IVar="-1" Cut="1.3361842346191406e+02" cType="0" res="-9.9000000000000000e+01" rms="0.0000000000000000e+00" purity="6.9276310503482819e-02" nType="-1"/>
      </Node>
    </BinaryTree>
    <BinaryTree type="DecisionTree" boostWeight="1.5770677135576303e-01" itree="2">
      <Node pos="s" depth="0" NCoef="0" IVar="12" Cut="7.8647727966308594e+01" cType="1" res="-9.9000000000000000e+01" rms="0.0000000000000000e+00" purity="4.8261284828186035e-01" nType="0">
        <Node pos="l" depth="1" NCoef="0" IVar="-1" Cut="7.3353286743164062e+01" cType="0" res="-9.9000000000000000e+01" rms="0.0000000000000000e+00" purity="7.6549953222274780e-01" nType="1"/>
        <Node pos="r" depth="1" NCoef="0" IVar="-1" Cut="1.1789860534667969e+02" cType="0" res="-9.9000000000000000e+01" rms="0.0000000000000000e+00" purity="8.1463277339935303e-02" nType="-1"/>
      </Node>
    </BinaryTree>
    <BinaryTree type="DecisionTree" boostWeight="1.5242476396444543e-01" itree="3">
      <Node pos="s" depth="0" NCoef="0" IVar="12" Cut="7.0317802429199219e+01" cType="1" res="-9.9000000000000000e+01" rms="0.0000000000000000e+00" purity="4.7449046373367310e-01" nType="0">
        <Node pos="l" depth="1" NCoef="0" IVar="-1" Cut="7.3353286743164062e+01" cType="0" res="-9.9000000000000000e+01" rms="0.0000000000000000e+00" purity="7.6874417066574097e-01" nType="1"/>
        <Node pos="r" depth="1" NCoef="0" IVar="7" Cut="1.3361842346191406e+02" cType="0" res="-9.9000000000000000e+01" rms="0.0000000000000000e+00" purity="1.3556176424026489e-01" nType="0">
          <Node pos="l" depth="2" NCoef="0" IVar="-1" Cut="0.0000000000000000e+00" cType="1" res="-9.9000000000000000e+01" rms="0.0000000000000000e+00" purity="6.1644840240478516e-01" nType="1"/>
          <Node pos="r" depth="2" NCoef="0" IVar="-1" Cut="0.0000000000000000e+00" cType="1" res="-9.9000000000000000e+01" rms="0.0000000000000000e+00" purity="9.7450256347656250e-02" nType="-1"/>
        </Node>
      </Node>
    </BinaryTree>
    <BinaryTree type="DecisionTree" boostWeight="1.4369541231760144e-01" itree="4">
      <Node pos="s" depth="0" NCoef="0" IVar="12" Cut="8.1771446228027344e+01" cType="1" res="-9.9000000000000000e+01" rms="0.0000000000000000e+00" purity="4.6762970089912415e-01" nType="0">
        <Node pos="l" depth="1" NCoef="0" IVar="7" Cut="7.3353286743164062e+01" cType="0" res="-9.9000000000000000e+01" rms="0.0000000000000000e+00" purity="7.0125097036361694e-01" nType="0">
          <Node pos="l" depth="2" NCoef="0" IVar="-1" Cut="0.0000000000000000e+00" cType="1" res="-9.9000000000000000e+01" rms="0.0000000000000000e+00" purity="8.7457454204559326e-01" nType="1"/>
          <Node pos="r" depth="2" NCoef="0" IVar="-1" Cut="0.0000000000000000e+00" cType="1" res="-9.9000000000000000e+01" rms="0.0000000000000000e+00" purity="4.5041567087173462e-01" nType="-1"/>
        </Node>
        <Node pos="r" depth="1" NCoef="0" IVar="-1" Cut="1.2014428710937500e+02" cType="0" res="-9.9000000000000000e+01" rms="0.0000000000000000e+00" purity="8.3018414676189423e-02" nType="-1"/>
      </Node>
    </BinaryTree>
    <BinaryTree type="DecisionTree" boostWeight="1.2913122602814875e-01" itree="5">
      <Node pos="s" depth="0" NCoef="0" IVar="12" Cut="8.1771446228027344e+01" cType="1" res="-9.9000000000000000e+01" rms="0.0000000000000000e+00" purity="4.7626587748527527e-01" nType="0">
        <Node pos="l" depth="1" NCoef="0" IVar="7" Cut="7.3353286743164062e+01" cType="0" res="-9.9000000000000000e+01" rms="0.0000000000000000e+00" purity="7.0189160108566284e-01" nType="0">
          <Node pos="l" depth="2" NCoef="0" IVar="-1" Cut="0.0000000000000000e+00" cType="1" res="-9.9000000000000000e+01" rms="0.0000000000000000e+00" purity="8.5794556140899658e-01" nType="1"/>
          <Node pos="r" depth="2" NCoef="0" IVar="-1" Cut="0.0000000000000000e+00" cType="1" res="-9.9000000000000000e+01" rms="0.0000000000000000e+00" purity="4.8699444532394409e-01" nType="-1"/>
        </Node>
        <Node pos="r" depth="1" NCoef="0" IVar="-1" Cut="1.2014428710937500e+02" cType="0" res="-9.9000000000000000e+01" rms="0.0000000000000000e+00" purity="9.4633392989635468e-02" nType="-1"/>
      </Node>
    </BinaryTree>
    <BinaryTree type="DecisionTree" boostWeight="1.2544586748893791e-01" itree="6">
      <Node pos="s" depth="0" NCoef="0" IVar="12" Cut="7.8647727966308594e+01" cType="1" res="-9.9000000000000000e+01" rms="0.0000000000000000e+00" purity="4.8462343215942383e-01" nType="0">
        <Node pos="l" depth="1" NCoef="0" IVar="-1" Cut="5.7539554595947266e+01" cType="0" res="-9.9000000000000000e+01" rms="0.0000000000000000e+00" purity="7.1402293443679810e-01" nType="1"/>
        <Node pos="r" depth="1" NCoef="0" IVar="7" Cut="1.1789860534667969e+02" cType="0" res="-9.9000000000000000e+01" rms="0.0000000000000000e+00" purity="1.2512925267219543e-01" nType="0">
          <Node pos="l" depth="2" NCoef="0" IVar="-1" Cut="0.0000000000000000e+00" cType="1" res="-9.9000000000000000e+01" rms="0.0000000000000000e+00" purity="5.1633709669113159e-01" nType="1"/>
          <Node pos="r" depth="2" NCoef="0" IVar="-1" Cut="0.0000000000000000e+00" cType="1" res="-9.9000000000000000e+01" rms="0.0000000000000000e+00" purity="7.7143751084804535e-02" nType="-1"/>
        </Node>
      </Node>
    </BinaryTree>
    <BinaryTree type="DecisionTree" boostWeight="1.1188603216779439e-01" itree="7">
      <Node pos="s" depth="0" NCoef="0" IVar="12" Cut="8.1771446228027344e+01" cType="1" res="-9.9000000000000000e+01" rms="0.0000000000000000e+00" purity="4.7413727641105652e-01" nType="0">
        <Node pos="l" depth="1" NCoef="0" IVar="-1" Cut="6.0964412689208984e+01" cType="0" res="-9.9000000000000000e+01" rms="0.0000000000000000e+00" purity="6.7801499366760254e-01" nType="1"/>
        <Node pos="r" depth="1" NCoef="0" IVar="-1" Cut="1.2014428710937500e+02" cType="0" res="-9.9000000000000000e+01" rms="0.0000000000000000e+00" purity="1.1144340783357620e-01" nType="-1"/>
      </Node>
    </BinaryTree>
    <BinaryTree type="DecisionTree" boostWeight="1.1032537802933794e-01" itree="8">
      <Node pos="s" depth="0" NCoef="0" IVar="12" Cut="8.1771446228027344e+01" cType="1" res="-9.9000000000000000e+01" rms="0.0000000000000000e+00" purity="4.6532109379768372e-01" nType="0">
        <Node pos="l" depth="1" NCoef="0" IVar="8" Cut="6.0964412689208984e+01" cType="0" res="-9.9000000000000000e+01" rms="0.0000000000000000e+00" purity="6.5311920642852783e-01" nType="0">
          <Node pos="l" depth="2" NCoef="0" IVar="-1" Cut="0.0000000000000000e+00" cType="1" res="-9.9000000000000000e+01" rms="0.0000000000000000e+00" purity="8.4499382972717285e-01" nType="1"/>
          <Node pos="r" depth="2" NCoef="0" IVar="-1" Cut="0.0000000000000000e+00" cType="1" res="-9.9000000000000000e+01" rms="0.0000000000000000e+00" purity="4.7579100728034973e-01" nType="-1"/>
        </Node>
        <Node pos="r" depth="1" NCoef="0" IVar="7" Cut="1.2014428710937500e+02" cType="0" res="-9.9000000000000000e+01" rms="0.0000000000000000e+00" purity="1.2301374226808548e-01" nType="0">
          <Node pos="l" depth="2" NCoef="0" IVar="-1" Cut="0.0000000000000000e+00" cType="1" res="-9.9000000000000000e+01" rms="0.0000000000000000e+00" purity="5.2687519788742065e-01" nType="1"/>
          <Node pos="r" depth="2" NCoef="0" IVar="-1" Cut="0.0000000000000000e+00" cType="1" res="-9.9000000000000000e+01" rms="0.0000000000000000e+00" purity="7.0444002747535706e-02" nType="-1"/>
        </Node>
      </Node>
    </BinaryTree>
    <BinaryTree type="DecisionTree" boostWeight="1.1686632217562964e-01" itree="9">
      <Node pos="s" depth="0" NCoef="0" IVar="12" Cut="6.8235321044921875e+01" cType="1" res="-9.9000000000000000e+01" rms="0.0000000000000000e+00" purity="4.7318431735038757e-01" nType="0">
        <Node pos="l" depth="1" NCoef="0" IVar="7" Cut="7.3353286743164062e+01" cType="0" res="-9.9000000000000000e+01" rms="0.0000000000000000e+00" purity="7.0247793197631836e-01" nType="0">
          <Node pos="l" depth="2" NCoef="0" IVar="-1" Cut="0.0000000000000000e+00" cType="1" res="-9.9000000000000000e+01" rms="0.0000000000000000e+00" purity="8.5271406173706055e-01" nType="1"/>
          <Node pos="r" depth="2" NCoef="0" IVar="-1" Cut="0.0000000000000000e+00" cType="1" res="-9.9000000000000000e+01" rms="0.0000000000000000e+00" purity="4.8909583687782288e-01" nType="-1"/>
        </Node>
        <Node pos="r" depth="1" NCoef="0" IVar="11" Cut="9.4728034973144531e+01" cType="0" res="-9.9000000000000000e+01" rms="0.0000000000000000e+00" purity="1.9539834558963776e-01" nType="0">
          <Node pos="l" depth="2" NCoef="0" IVar="-1" Cut="0.0000000000000000e+00" cType="1" res="-9.9000000000000000e+01" rms="0.0000000000000000e+00" purity="5.8308488130569458e-01" nType="1"/>
          <Node pos="r" depth="2" NCoef="0" IVar="-1" Cut="0.0000000000000000e+00" cType="1" res="-9.9000000000000000e+01" rms="0.0000000000000000e+00" purity="1.4056614041328430e-01" nType="-1"/>
        </Node>
      </Node>
    </BinaryTree>
    <BinaryTree type="DecisionTree" boostWeight="1.0338763704864687e-01" itree="10">
      <Node pos="s" depth="0" NCoef="0" IVar="12" Cut="8.1771446228027344e+01" cType="1" res="-9.9000000000000000e+01" rms="0.0000000000000000e+00" purity="4.7986024618148804e-01" nType="0">
        <Node pos="l" depth="1" NCoef="0" IVar="8" Cut="5.5484638214111328e+01" cType="0" res="-9.9000000000000000e+01" rms="0.0000000000000000e+00" purity="6.5921533107757568e-01" nType="0">
          <Node pos="l" depth="2" NCoef="0" IVar="-1" Cut="0.0000000000000000e+00" cType="1" res="-9.9000000000000000e+01" rms="0.0000000000000000e+00" purity="8.1213539838790894e-01" nType="1"/>
          <Node pos="r" depth="2" NCoef="0" IVar="-1" Cut="0.0000000000000000e+00" cType="1" res="-9.9000000000000000e+01" rms="0.0000000000000000e+00" purity="4.8852881789207458e-01" nType="-1"/>
        </Node>
        <Node pos="r" depth="1" NCoef="0" IVar="7" Cut="1.2014428710937500e+02" cType="0" res="-9.9000000000000000e+01" rms="0.0000000000000000e+00" purity="1.3863375782966614e-01" nType="0">
          <Node pos="l" depth="2" NCoef="0" IVar="-1" Cut="0.0000000000000000e+00" cType="1" res="-9.9000000000000000e+01" rms="0.0000000000000000e+00" purity="5.1989996433258057e-01" nType="1"/>
          <Node pos="r" depth="2" NCoef="0" IVar="-1" Cut="0.0000000000000000e+00" cType="1" res="-9.9000000000000000e+01" rms="0.0000000000000000e+00" purity="8.4733806550502777e-02" nType="-1"/>
        </Node>
      </Node>
    </BinaryTree>
    <BinaryTree type="DecisionTree" boostWeight="1.2626564314087524e-01" itree="11">
      <Node pos="s" depth="0" NCoef="0" IVar="12" Cut="6.9276557922363281e+01" cType="1" res="-9.9000000000000000e+01" rms="0.0000000000000000e+00" purity="4.8555144667625427e-01" nType="0">
        <Node pos="l" depth="1" NCoef="0" IVar="13" Cut="1.2005359649658203e+02" cType="0" res="-9.9000000000000000e+01" rms="0.0000000000000000e+00" purity="7.0246207714080811e-01" nType="0">
          <Node pos="l" depth="2" NCoef="0" IVar="-1" Cut="0.0000000000000000e+00" cType="1" res="-9.9000000000000000e+01" rms="0.0000000000000000e+00" purity="7.4299997091293335e-01" nType="1"/>
          <Node pos="r" depth="2" NCoef="0" IVar="-1" Cut="0.0000000000000000e+00" cType="1" res="-9.9000000000000000e+01" rms="0.0000000000000000e+00" purity="5.6734200567007065e-02" nType="-1"/>
        </Node>
        <Node pos="r" depth="1" NCoef="0" IVar="8" Cut="9.2854682922363281e+01" cType="0" res="-9.9000000000000000e+01" rms="0.0000000000000000e+00" purity="2.0948688685894012e-01" nType="0">
          <Node pos="l" depth="2" NCoef="0" IVar="-1" Cut="0.0000000000000000e+00" cType="1" res="-9.9000000000000000e+01" rms="0.0000000000000000e+00" purity="5.7231485843658447e-01" nType="1"/>
          <Node pos="r" depth="2" NCoef="0" IVar="-1" Cut="0.0000000000000000e+00" cType="1" res="-9.9000000000000000e+01" rms="0.0000000000000000e+00" purity="1.5008805692195892e-01" nType="-1"/>
        </Node>
      </Node>
    </BinaryTree>
    <BinaryTree type="DecisionTree" boostWeight="1.0384721912333877e-01" itree="12">
      <Node pos="s" depth="0" NCoef="0" IVar="12" Cut="8.2812690734863281e+01" cType="1" res="-9.9000000000000000e+01" rms="0.0000000000000000e+00" purity="4.7925853729248047e-01" nType="0">
        <Node pos="l" depth="1" NCoef="0" IVar="9" Cut="3.7390457153320312e+01" cType="0" res="-9.9000000000000000e+01" rms="0.0000000000000000e+00" purity="6.4120244979858398e-01" nType="0">
          <Node pos="l" depth="2" NCoef="0" IVar="-1" Cut="0.0000000000000000e+00" cType="1" res="-9.9000000000000000e+01" rms="0.0000000000000000e+00" purity="7.6947826147079468e-01" nType="1"/>
          <Node pos="r" depth="2" NCoef="0" IVar="-1" Cut="0.0000000000000000e+00" cType="1" res="-9.9000000000000000e+01" rms="0.0000000000000000e+00" purity="4.4862484931945801e-01" nType="-1"/>
        </Node>
        <Node pos="r" depth="1" NCoef="0" IVar="-1" Cut="1.0442447662353516e+02" cType="0" res="-9.9000000000000000e+01" rms="0.0000000000000000e+00" purity="1.4545077085494995e-01" nType="-1"/>
      </Node>
    </BinaryTree>
    <BinaryTree type="DecisionTree" boostWeight="9.0344520018474997e-02" itree="13">
      <Node pos="s" depth="0" NCoef="0" IVar="12" Cut="8.2812690734863281e+01" cType="1" res="-9.9000000000000000e+01" rms="0.0000000000000000e+00" purity="4.8398604989051819e-01" nType="0">
        <Node pos="l" depth="1" NCoef="0" IVar="7" Cut="7.7995895385742188e+01" cType="0" res="-9.9000000000000000e+01" rms="0.0000000000000000e+00" purity="6.3878583908081055e-01" nType="0">
          <Node pos="l" depth="2" NCoef="0" IVar="-1" Cut="0.0000000000000000e+00" cType="1" res="-9.9000000000000000e+01" rms="0.0000000000000000e+00" purity="7.8791934251785278e-01" nType="1"/>
          <Node pos="r" depth="2" NCoef="0" IVar="-1" Cut="0.0000000000000000e+00" cType="1" res="-9.9000000000000000e+01" rms="0.0000000000000000e+00" purity="4.8875060677528381e-01" nType="-1"/>
        </Node>
        <Node pos="r" depth="1" NCoef="0" IVar="-1" Cut="1.0442447662353516e+02" cType="0" res="-9.9000000000000000e+01" rms="0.0000000000000000e+00" purity="1.5883935987949371e-01" nType="-1"/>
      </Node>
    </BinaryTree>
    <BinaryTree type="DecisionTree" boostWeight="8.5014545413654566e-02" itree="14">
      <Node pos="s" depth="0" NCoef="0" IVar="12" Cut="8.2812690734863281e+01" cType="1" res="-9.9000000000000000e+01" rms="0.0000000000000000e+00" purity="4.9110341072082520e-01" nType="0">
        <Node pos="l" depth="1" NCoef="0" IVar="-1" Cut="5.9622623443603516e+01" cType="0" res="-9.9000000000000000e+01" rms="0.0000000000000000e+00" purity="6.4067870378494263e-01" nType="1"/>
        <Node pos="r" depth="1" NCoef="0" IVar="-1" Cut="1.0442447662353516e+02" cType="0" res="-9.9000000000000000e+01" rms="0.0000000000000000e+00" purity="1.7128539085388184e-01" nType="-1"/>
      </Node>
    </BinaryTree>
    <BinaryTree type="DecisionTree" boostWeight="1.0821790988268420e-01" itree="15">
      <Node pos="s" depth="0" NCoef="0" IVar="12" Cut="6.6152839660644531e+01" cType="1" res="-9.9000000000000000e+01" rms="0.0000000000000000e+00" purity="4.8311182856559753e-01" nType="0">
        <Node pos="l" depth="1" NCoef="0" IVar="13" Cut="1.1433185577392578e+02" cType="0" res="-9.9000000000000000e+01" rms="0.0000000000000000e+00" purity="6.6810107231140137e-01" nType="0">
          <Node pos="l" depth="2" NCoef="0" IVar="-1" Cut="0.0000000000000000e+00" cType="1" res="-9.9000000000000000e+01" rms="0.0000000000000000e+00" purity="7.0596104860305786e-01" nType="1"/>
          <Node pos="r" depth="2" NCoef="0" IVar="-1" Cut="0.0000000000000000e+00" cType="1" res="-9.9000000000000000e+01" rms="0.0000000000000000e+00" purity="5.1866523921489716e-02" nType="-1"/>
        </Node>
        <Node pos="r" depth="1" NCoef="0" IVar="7" Cut="1.4821539306640625e+02" cType="0" res="-9.9000000000000000e+01" rms="0.0000000000000000e+00" purity="2.5442513823509216e-01" nType="0">
          <Node pos="l" depth="2" NCoef="0" IVar="-1" Cut="0.0000000000000000e+00" cType="1" res="-9.9000000000000000e+01" rms="0.0000000000000000e+00" purity="6.9920426607131958e-01" nType="1"/>
          <Node pos="r" depth="2" NCoef="0" IVar="-1" Cut="0.0000000000000000e+00" cType="1" res="-9.9000000000000000e+01" rms="0.0000000000000000e+00" purity="2.1209792792797089e-01" nType="-1"/>
        </Node>
      </Node>
    </BinaryTree>
    <BinaryTree type="DecisionTree" boostWeight="7.1480420687097312e-02" itree="16">
      <Node pos="s" depth="0" NCoef="0" IVar="12" Cut="8.2812690734863281e+01" cType="1" res="-9.9000000000000000e+01" rms="0.0000000000000000e+00" purity="4.7935828566551208e-01" nType="0">
        <Node pos="l" depth="1" NCoef="0" IVar="-1" Cut="5.9622623443603516e+01" cType="0" res="-9.9000000000000000e+01" rms="0.0000000000000000e+00" purity="6.0813045501708984e-01" nType="1"/>
        <Node pos="r" depth="1" NCoef="0" IVar="7" Cut="1.0442447662353516e+02" cType="0" res="-9.9000000000000000e+01" rms="0.0000000000000000e+00" purity="1.9511935114860535e-01" nType="0">
          <Node pos="l" depth="2" NCoef="0" IVar="-1" Cut="0.0000000000000000e+00" cType="1" res="-9.9000000000000000e+01" rms="0.0000000000000000e+00" purity="5.1577073335647583e-01" nType="1"/>
          <Node pos="r" depth="2" NCoef="0" IVar="-1" Cut="0.0000000000000000e+00" cType="1" res="-9.9000000000000000e+01" rms="0.0000000000000000e+00" purity="1.1393176019191742e-01" nType="-1"/>
        </Node>
      </Node>
    </BinaryTree>
    <BinaryTree type="DecisionTree" boostWeight="7.2146400055073431e-02" itree="17">
      <Node pos="s" depth="0" NCoef="0" IVar="12" Cut="8.2812690734863281e+01" cType="1" res="-9.9000000000000000e+01" rms="0.0000000000000000e+00" purity="4.7001665830612183e-01" nType="0">
        <Node pos="l" depth="1" NCoef="0" IVar="9" Cut="5.9622623443603516e+01" cType="0" res="-9.9000000000000000e+01" rms="0.0000000000000000e+00" purity="5.9097081422805786e-01" nType="0">
          <Node pos="l" depth="2" NCoef="0" IVar="-1" Cut="0.0000000000000000e+00" cType="1" res="-9.9000000000000000e+01" rms="0.0000000000000000e+00" purity="8.0503720045089722e-01" nType="1"/>
          <Node pos="r" depth="2" NCoef="0" IVar="-1" Cut="0.0000000000000000e+00" cType="1" res="-9.9000000000000000e+01" rms="0.0000000000000000e+00" purity="4.8880022764205933e-01" nType="-1"/>
        </Node>
        <Node pos="r" depth="1" NCoef="0" IVar="12" Cut="1.1969211578369141e+02" cType="0" res="-9.9000000000000000e+01" rms="0.0000000000000000e+00" purity="1.9907161593437195e-01" nType="0">
          <Node pos="l" depth="2" NCoef="0" IVar="-1" Cut="0.0000000000000000e+00" cType="1" res="-9.9000000000000000e+01" rms="0.0000000000000000e+00" purity="5.7428580522537231e-01" nType="1"/>
          <Node pos="r" depth="2" NCoef="0" IVar="-1" Cut="0.0000000000000000e+00" cType="1" res="-9.9000000000000000e+01" rms="0.0000000000000000e+00" purity="1.3514429330825806e-01" nType="-1"/>
        </Node>
      </Node>
    </BinaryTree>
    <BinaryTree type="DecisionTree" boostWeight="7.6219418397215272e-02" itree="18">
      <Node pos="s" depth="0" NCoef="0" IVar="12" Cut="8.2812690734863281e+01" cType="1" res="-9.9000000000000000e+01" rms="0.0000000000000000e+00" purity="4.7822508215904236e-01" nType="0">
        <Node pos="l" depth="1" NCoef="0" IVar="8" Cut="6.0964412689208984e+01" cType="0" res="-9.9000000000000000e+01" rms="0.0000000000000000e+00" purity="5.9824150800704956e-01" nType="0">
          <Node pos="l" depth="2" NCoef="0" IVar="-1" Cut="0.0000000000000000e+00" cType="1" res="-9.9000000000000000e+01" rms="0.0000000000000000e+00" purity="7.5652426481246948e-01" nType="1"/>
          <Node pos="r" depth="2" NCoef="0" IVar="-1" Cut="0.0000000000000000e+00" cType="1" res="-9.9000000000000000e+01" rms="0.0000000000000000e+00" purity="4.7020182013511658e-01" nType="-1"/>
        </Node>
        <Node pos="r" depth="1" NCoef="0" IVar="7" Cut="1.0442447662353516e+02" cType="0" res="-9.9000000000000000e+01" rms="0.0000000000000000e+00" purity="2.0498906075954437e-01" nType="0">
          <Node pos="l" depth="2" NCoef="0" IVar="-1" Cut="0.0000000000000000e+00" cType="1" res="-9.9000000000000000e+01" rms="0.0000000000000000e+00" purity="5.0506371259689331e-01" nType="1"/>
          <Node pos="r" depth="2" NCoef="0" IVar="-1" Cut="0.0000000000000000e+00" cType="1" res="-9.9000000000000000e+01" rms="0.0000000000000000e+00" purity="1.2577311694622040e-01" nType="-1"/>
        </Node>
      </Node>
    </BinaryTree>
    <BinaryTree type="DecisionTree" boostWeight="7.8695542847611072e-02" itree="19">
      <Node pos="s" depth="0" NCoef="0" IVar="12" Cut="8.2812690734863281e+01" cType="1" res="-9.9000000000000000e+01" rms="0.0000000000000000e+00" purity="4.8290568590164185e-01" nType="0">
        <Node pos="l" depth="1" NCoef="0" IVar="5" Cut="1.9768033027648926e+00" cType="1" res="-9.9000000000000000e+01" rms="0.0000000000000000e+00" purity="6.0141664743423462e-01" nType="0">
          <Node pos="l" depth="2" NCoef="0" IVar="-1" Cut="0.0000000000000000e+00" cType="1" res="-9.9000000000000000e+01" rms="0.0000000000000000e+00" purity="7.4793988466262817e-01" nType="1"/>
          <Node pos="r" depth="2" NCoef="0" IVar="-1" Cut="0.0000000000000000e+00" cType="1" res="-9.9000000000000000e+01" rms="0.0000000000000000e+00" purity="4.7148856520652771e-01" nType="-1"/>
        </Node>
        <Node pos="r" depth="1" NCoef="0" IVar="9" Cut="7.8754585266113281e+01" cType="0" res="-9.9000000000000000e+01" rms="0.0000000000000000e+00" purity="2.0950360596179962e-01" nType="0">
          <Node pos="l" depth="2" NCoef="0" IVar="-1" Cut="0.0000000000000000e+00" cType="1" res="-9.9000000000000000e+01" rms="0.0000000000000000e+00" purity="5.9031200408935547e-01" nType="1"/>
          <Node pos="r" depth="2" NCoef="0" IVar="-1" Cut="0.0000000000000000e+00" cType="1" res="-9.9000000000000000e+01" rms="0.0000000000000000e+00" purity="1.4888259768486023e-01" nType="-1"/>
        </Node>
      </Node>
    </BinaryTree>
    <BinaryTree type="DecisionTree" boostWeight="6.8022782651175590e-02" itree="20">
      <Node pos="s" depth="0" NCoef="0" IVar="12" Cut="8.2812690734863281e+01" cType="1" res="-9.9000000000000000e+01" rms="0.0000000000000000e+00" purity="4.8797482252120972e-01" nType="0">
        <Node pos="l" depth="1" NCoef="0" IVar="-1" Cut="4.8022804260253906e+01" cType="0" res="-9.9000000000000000e+01" rms="0.0000000000000000e+00" purity="6.0379344224929810e-01" nType="1"/>
        <Node pos="r" depth="1" NCoef="0" IVar="12" Cut="1.1872160339355469e+02" cType="0" res="-9.9000000000000000e+01" rms="0.0000000000000000e+00" purity="2.1674174070358276e-01" nType="0">
          <Node pos="l" depth="2" NCoef="0" IVar="-1" Cut="0.0000000000000000e+00" cType="1" res="-9.9000000000000000e+01" rms="0.0000000000000000e+00" purity="5.6835150718688965e-01" nType="1"/>
          <Node pos="r" depth="2" NCoef="0" IVar="-1" Cut="0.0000000000000000e+00" cType="1" res="-9.9000000000000000e+01" rms="0.0000000000000000e+00" purity="1.5279954671859741e-01" nType="-1"/>
        </Node>
      </Node>
    </BinaryTree>
    <BinaryTree type="DecisionTree" boostWeight="8.3088691249683780e-02" itree="21">
      <Node pos="s" depth="0" NCoef="0" IVar="12" Cut="6.5111602783203125e+01" cType="1" res="-9.9000000000000000e+01" rms="0.0000000000000000e+00" purity="4.7935372591018677e-01" nType="0">
        <Node pos="l" depth="1" NCoef="0" IVar="14" Cut="4.6424465179443359e+01" cType="0" res="-9.9000000000000000e+01" rms="0.0000000000000000e+00" purity="6.3139164447784424e-01" nType="0">
          <Node pos="l" depth="2" NCoef="0" IVar="-1" Cut="0.0000000000000000e+00" cType="1" res="-9.9000000000000000e+01" rms="0.0000000000000000e+00" purity="7.6550060510635376e-01" nType="1"/>
          <Node pos="r" depth="2" NCoef="0" IVar="-1" Cut="0.0000000000000000e+00" cType="1" res="-9.9000000000000000e+01" rms="0.0000000000000000e+00" purity="4.7062584757804871e-01" nType="-1"/>
        </Node>
        <Node pos="r" depth="1" NCoef="0" IVar="8" Cut="9.3098991394042969e+01" cType="0" res="-9.9000000000000000e+01" rms="0.0000000000000000e+00" purity="2.9021283984184265e-01" nType="0">
          <Node pos="l" depth="2" NCoef="0" IVar="-1" Cut="0.0000000000000000e+00" cType="1" res="-9.9000000000000000e+01" rms="0.0000000000000000e+00" purity="6.0596549510955811e-01" nType="1"/>
          <Node pos="r" depth="2" NCoef="0" IVar="-1" Cut="0.0000000000000000e+00" cType="1" res="-9.9000000000000000e+01" rms="0.0000000000000000e+00" purity="2.2867642343044281e-01" nType="-1"/>
        </Node>
      </Node>
    </BinaryTree>
    <BinaryTree type="DecisionTree" boostWeight="8.6275851865203215e-02" itree="22">
      <Node pos="s" depth="0" NCoef="0" IVar="12" Cut="6.5111602783203125e+01" cType="1" res="-9.9000000000000000e+01" rms="0.0000000000000000e+00" purity="4.8435279726982117e-01" nType="0">
        <Node pos="l" depth="1" NCoef="0" IVar="13" Cut="1.2005359649658203e+02" cType="0" res="-9.9000000000000000e+01" rms="0.0000000000000000e+00" purity="6.3131821155548096e-01" nType="0">
          <Node pos="l" depth="2" NCoef="0" IVar="-1" Cut="0.0000000000000000e+00" cType="1" res="-9.9000000000000000e+01" rms="0.0000000000000000e+00" purity="6.6747307777404785e-01" nType="1"/>
          <Node pos="r" depth="2" NCoef="0" IVar="-1" Cut="0.0000000000000000e+00" cType="1" res="-9.9000000000000000e+01" rms="0.0000000000000000e+00" purity="7.1716837584972382e-02" nType="-1"/>
        </Node>
        <Node pos="r" depth="1" NCoef="0" IVar="8" Cut="9.3098991394042969e+01" cType="0" res="-9.9000000000000000e+01" rms="0.0000000000000000e+00" purity="3.0014571547508240e-01" nType="0">
          <Node pos="l" depth="2" NCoef="0" IVar="-1" Cut="0.0000000000000000e+00" cType="1" res="-9.9000000000000000e+01" rms="0.0000000000000000e+00" purity="5.8596169948577881e-01" nType="1"/>
          <Node pos="r" depth="2" NCoef="0" IVar="-1" Cut="0.0000000000000000e+00" cType="1" res="-9.9000000000000000e+01" rms="0.0000000000000000e+00" purity="2.4366106092929840e-01" nType="-1"/>
        </Node>
      </Node>
    </BinaryTree>
    <BinaryTree type="DecisionTree" boostWeight="5.8569351199939737e-02" itree="23">
      <Node pos="s" depth="0" NCoef="0" IVar="12" Cut="8.3853927612304688e+01" cType="1" res="-9.9000000000000000e+01" rms="0.0000000000000000e+00" purity="4.7988492250442505e-01" nType="0">
        <Node pos="l" depth="1" NCoef="0" IVar="-1" Cut="1.1792237091064453e+02" cType="0" res="-9.9000000000000000e+01" rms="0.0000000000000000e+00" purity="5.7674121856689453e-01" nType="1"/>
        <Node pos="r" depth="1" NCoef="0" IVar="11" Cut="8.2513572692871094e+01" cType="1" res="-9.9000000000000000e+01" rms="0.0000000000000000e+00" purity="2.3467992246150970e-01" nType="0">
          <Node pos="l" depth="2" NCoef="0" IVar="-1" Cut="0.0000000000000000e+00" cType="1" res="-9.9000000000000000e+01" rms="0.0000000000000000e+00" purity="8.2132995128631592e-01" nType="1"/>
          <Node pos="r" depth="2" NCoef="0" IVar="-1" Cut="0.0000000000000000e+00" cType="1" res="-9.9000000000000000e+01" rms="0.0000000000000000e+00" purity="1.9238100945949554e-01" nType="-1"/>
        </Node>
      </Node>
    </BinaryTree>
    <BinaryTree type="DecisionTree" boostWeight="5.8786455433237343e-02" itree="24">
      <Node pos="s" depth="0" NCoef="0" IVar="12" Cut="8.2812690734863281e+01" cType="1" res="-9.9000000000000000e+01" rms="0.0000000000000000e+00" purity="4.7275182604789734e-01" nType="0">
        <Node pos="l" depth="1" NCoef="0" IVar="10" Cut="4.8022804260253906e+01" cType="0" res="-9.9000000000000000e+01" rms="0.0000000000000000e+00" purity="5.6466245651245117e-01" nType="0">
          <Node pos="l" depth="2" NCoef="0" IVar="-1" Cut="0.0000000000000000e+00" cType="1" res="-9.9000000000000000e+01" rms="0.0000000000000000e+00" purity="7.7121651172637939e-01" nType="1"/>
          <Node pos="r" depth="2" NCoef="0" IVar="-1" Cut="0.0000000000000000e+00" cType="1" res="-9.9000000000000000e+01" rms="0.0000000000000000e+00" purity="4.7993701696395874e-01" nType="-1"/>
        </Node>
        <Node pos="r" depth="1" NCoef="0" IVar="7" Cut="1.0442447662353516e+02" cType="0" res="-9.9000000000000000e+01" rms="0.0000000000000000e+00" purity="2.4804358184337616e-01" nType="0">
          <Node pos="l" depth="2" NCoef="0" IVar="-1" Cut="0.0000000000000000e+00" cType="1" res="-9.9000000000000000e+01" rms="0.0000000000000000e+00" purity="5.2723252773284912e-01" nType="1"/>
          <Node pos="r" depth="2" NCoef="0" IVar="-1" Cut="0.0000000000000000e+00" cType="1" res="-9.9000000000000000e+01" rms="0.0000000000000000e+00" purity="1.6427576541900635e-01" nType="-1"/>
        </Node>
      </Node>
    </BinaryTree>
    <BinaryTree type="DecisionTree" boostWeight="5.4177161566592628e-02" itree="25">
      <Node pos="s" depth="0" NCoef="0" IVar="12" Cut="8.2812690734863281e+01" cType="1" res="-9.9000000000000000e+01" rms="0.0000000000000000e+00" purity="4.7934895753860474e-01" nType="0">
        <Node pos="l" depth="1" NCoef="0" IVar="7" Cut="1.1792237091064453e+02" cType="0" res="-9.9000000000000000e+01" rms="0.0000000000000000e+00" purity="5.7132893800735474e-01" nType="0">
          <Node pos="l" depth="2" NCoef="0" IVar="-1" Cut="0.0000000000000000e+00" cType="1" res="-9.9000000000000000e+01" rms="0.0000000000000000e+00" purity="7.9503965377807617e-01" nType="1"/>
          <Node pos="r" depth="2" NCoef="0" IVar="-1" Cut="0.0000000000000000e+00" cType="1" res="-9.9000000000000000e+01" rms="0.0000000000000000e+00" purity="4.9856433272361755e-01" nType="-1"/>
        </Node>
        <Node pos="r" depth="1" NCoef="0" IVar="12" Cut="1.1969211578369141e+02" cType="0" res="-9.9000000000000000e+01" rms="0.0000000000000000e+00" purity="2.5210028886795044e-01" nType="0">
          <Node pos="l" depth="2" NCoef="0" IVar="-1" Cut="0.0000000000000000e+00" cType="1" res="-9.9000000000000000e+01" rms="0.0000000000000000e+00" purity="5.8871793746948242e-01" nType="1"/>
          <Node pos="r" depth="2" NCoef="0" IVar="-1" Cut="0.0000000000000000e+00" cType="1" res="-9.9000000000000000e+01" rms="0.0000000000000000e+00" purity="1.8518720567226410e-01" nType="-1"/>
        </Node>
      </Node>
    </BinaryTree>
    <BinaryTree type="DecisionTree" boostWeight="5.6207797669366358e-02" itree="26">
      <Node pos="s" depth="0" NCoef="0" IVar="12" Cut="8.2812690734863281e+01" cType="1" res="-9.9000000000000000e+01" rms="0.0000000000000000e+00" purity="4.8682656884193420e-01" nType="0">
        <Node pos="l" depth="1" NCoef="0" IVar="9" Cut="6.1138450622558594e+01" cType="0" res="-9.9000000000000000e+01" rms="0.0000000000000000e+00" purity="5.7860124111175537e-01" nType="0">
          <Node pos="l" depth="2" NCoef="0" IVar="-1" Cut="0.0000000000000000e+00" cType="1" res="-9.9000000000000000e+01" rms="0.0000000000000000e+00" purity="7.6978051662445068e-01" nType="1"/>
          <Node pos="r" depth="2" NCoef="0" IVar="-1" Cut="0.0000000000000000e+00" cType="1" res="-9.9000000000000000e+01" rms="0.0000000000000000e+00" purity="4.9729442596435547e-01" nType="-1"/>
        </Node>
        <Node pos="r" depth="1" NCoef="0" IVar="9" Cut="7.7316139221191406e+01" cType="0" res="-9.9000000000000000e+01" rms="0.0000000000000000e+00" purity="2.5750812888145447e-01" nType="0">
          <Node pos="l" depth="2" NCoef="0" IVar="-1" Cut="0.0000000000000000e+00" cType="1" res="-9.9000000000000000e+01" rms="0.0000000000000000e+00" purity="5.9452700614929199e-01" nType="1"/>
          <Node pos="r" depth="2" NCoef="0" IVar="-1" Cut="0.0000000000000000e+00" cType="1" res="-9.9000000000000000e+01" rms="0.0000000000000000e+00" purity="1.9214577972888947e-01" nType="-1"/>
        </Node>
      </Node>
    </BinaryTree>
    <BinaryTree type="DecisionTree" boostWeight="5.6723219203309465e-02" itree="27">
      <Node pos="s" depth="0" NCoef="0" IVar="12" Cut="8.3853927612304688e+01" cType="1" res="-9.9000000000000000e+01" rms="0.0000000000000000e+00" purity="4.9358758330345154e-01" nType="0">
        <Node pos="l" depth="1" NCoef="0" IVar="-1" Cut="1.1792237091064453e+02" cType="0" res="-9.9000000000000000e+01" rms="0.0000000000000000e+00" purity="5.8254343271255493e-01" nType="1"/>
        <Node pos="r" depth="1" NCoef="0" IVar="11" Cut="8.2513572692871094e+01" cType="1" res="-9.9000000000000000e+01" rms="0.0000000000000000e+00" purity="2.5760456919670105e-01" nType="0">
          <Node pos="l" depth="2" NCoef="0" IVar="-1" Cut="0.0000000000000000e+00" cType="1" res="-9.9000000000000000e+01" rms="0.0000000000000000e+00" purity="8.1426519155502319e-01" nType="1"/>
          <Node pos="r" depth="2" NCoef="0" IVar="-1" Cut="0.0000000000000000e+00" cType="1" res="-9.9000000000000000e+01" rms="0.0000000000000000e+00" purity="2.1654684841632843e-01" nType="-1"/>
        </Node>
      </Node>
    </BinaryTree>
    <BinaryTree type="DecisionTree" boostWeight="7.1913321880933231e-02" itree="28">
      <Node pos="s" depth="0" NCoef="0" IVar="12" Cut="6.5111602783203125e+01" cType="1" res="-9.9000000000000000e+01" rms="0.0000000000000000e+00" purity="4.8653414845466614e-01" nType="0">
        <Node pos="l" depth="1" NCoef="0" IVar="7" Cut="7.0567718505859375e+01" cType="0" res="-9.9000000000000000e+01" rms="0.0000000000000000e+00" purity="6.0626322031021118e-01" nType="0">
          <Node pos="l" depth="2" NCoef="0" IVar="-1" Cut="0.0000000000000000e+00" cType="1" res="-9.9000000000000000e+01" rms="0.0000000000000000e+00" purity="7.2393649816513062e-01" nType="1"/>
          <Node pos="r" depth="2" NCoef="0" IVar="-1" Cut="0.0000000000000000e+00" cType="1" res="-9.9000000000000000e+01" rms="0.0000000000000000e+00" purity="4.5214051008224487e-01" nType="-1"/>
        </Node>
        <Node pos="r" depth="1" NCoef="0" IVar="11" Cut="9.4299461364746094e+01" cType="0" res="-9.9000000000000000e+01" rms="0.0000000000000000e+00" purity="3.3107805252075195e-01" nType="0">
          <Node pos="l" depth="2" NCoef="0" IVar="-1" Cut="0.0000000000000000e+00" cType="1" res="-9.9000000000000000e+01" rms="0.0000000000000000e+00" purity="6.0566526651382446e-01" nType="1"/>
          <Node pos="r" depth="2" NCoef="0" IVar="-1" Cut="0.0000000000000000e+00" cType="1" res="-9.9000000000000000e+01" rms="0.0000000000000000e+00" purity="2.7548933029174805e-01" nType="-1"/>
        </Node>
      </Node>
    </BinaryTree>
    <BinaryTree type="DecisionTree" boostWeight="6.4706698996571096e-02" itree="29">
      <Node pos="s" depth="0" NCoef="0" IVar="12" Cut="6.5111602783203125e+01" cType="1" res="-9.9000000000000000e+01" rms="0.0000000000000000e+00" purity="4.9027016758918762e-01" nType="0">
        <Node pos="l" depth="1" NCoef="0" IVar="13" Cut="1.2005359649658203e+02" cType="0" res="-9.9000000000000000e+01" rms="0.0000000000000000e+00" purity="6.0499286651611328e-01" nType="0">
          <Node pos="l" depth="2" NCoef="0" IVar="-1" Cut="0.0000000000000000e+00" cType="1" res="-9.9000000000000000e+01" rms="0.0000000000000000e+00" purity="6.3761585950851440e-01" nType="1"/>
          <Node pos="r" depth="2" NCoef="0" IVar="-1" Cut="0.0000000000000000e+00" cType="1" res="-9.9000000000000000e+01" rms="0.0000000000000000e+00" purity="8.1828624010086060e-02" nType="-1"/>
        </Node>
        <Node pos="r" depth="1" NCoef="0" IVar="-1" Cut="3.9737480163574219e+01" cType="0" res="-9.9000000000000000e+01" rms="0.0000000000000000e+00" purity="3.4069690108299255e-01" nType="-1"/>
      </Node>
    </BinaryTree>
    <BinaryTree type="DecisionTree" boostWeight="4.7985038225795369e-02" itree="30">
      <Node pos="s" depth="0" NCoef="0" IVar="7" Cut="1.2126713562011719e+02" cType="0" res="-9.9000000000000000e+01" rms="0.0000000000000000e+00" purity="4.8911863565444946e-01" nType="0">
        <Node pos="l" depth="1" NCoef="0" IVar="13" Cut="6.4978106689453125e+02" cType="1" res="-9.9000000000000000e+01" rms="0.0000000000000000e+00" purity="7.2411799430847168e-01" nType="0">
          <Node pos="l" depth="2" NCoef="0" IVar="-1" Cut="0.0000000000000000e+00" cType="1" res="-9.9000000000000000e+01" rms="0.0000000000000000e+00" purity="7.4333912134170532e-01" nType="1"/>
          <Node pos="r" depth="2" NCoef="0" IVar="-1" Cut="0.0000000000000000e+00" cType="1" res="-9.9000000000000000e+01" rms="0.0000000000000000e+00" purity="1.0966840386390686e-01" nType="-1"/>
        </Node>
        <Node pos="r" depth="1" NCoef="0" IVar="12" Cut="8.2808456420898438e+01" cType="1" res="-9.9000000000000000e+01" rms="0.0000000000000000e+00" purity="4.2561048269271851e-01" nType="0">
          <Node pos="l" depth="2" NCoef="0" IVar="-1" Cut="0.0000000000000000e+00" cType="1" res="-9.9000000000000000e+01" rms="0.0000000000000000e+00" purity="5.0576525926589966e-01" nType="1"/>
          <Node pos="r" depth="2" NCoef="0" IVar="-1" Cut="0.0000000000000000e+00" cType="1" res="-9.9000000000000000e+01" rms="0.0000000000000000e+00" purity="2.3092903196811676e-01" nType="-1"/>
        </Node>
      </Node>
    </BinaryTree>
    <BinaryTree type="DecisionTree" boostWeight="6.7047576786039731e-02" itree="31">
      <Node pos="s" depth="0" NCoef="0" IVar="9" Cut="6.1138450622558594e+01" cType="0" res="-9.9000000000000000e+01" rms="0.0000000000000000e+00" purity="4.8268929123878479e-01" nType="0">
        <Node pos="l" depth="1" NCoef="0" IVar="-1" Cut="5.7842735290527344e+01" cType="1" res="-9.9000000000000000e+01" rms="0.0000000000000000e+00" purity="6.7390191555023193e-01" nType="1"/>
        <Node pos="r" depth="1" NCoef="0" IVar="8" Cut="5.9592765808105469e+01" cType="0" res="-9.9000000000000000e+01" rms="0.0000000000000000e+00" purity="4.0646710991859436e-01" nType="0">
          <Node pos="l" depth="2" NCoef="0" IVar="-1" Cut="0.0000000000000000e+00" cType="1" res="-9.9000000000000000e+01" rms="0.0000000000000000e+00" purity="5.8142173290252686e-01" nType="1"/>
          <Node pos="r" depth="2" NCoef="0" IVar="-1" Cut="0.0000000000000000e+00" cType="1" res="-9.9000000000000000e+01" rms="0.0000000000000000e+00" purity="2.9556667804718018e-01" nType="-1"/>
        </Node>
      </Node>
    </BinaryTree>
    <BinaryTree type="DecisionTree" boostWeight="4.5522233128287348e-02" itree="32">
      <Node pos="s" depth="0" NCoef="0" IVar="7" Cut="1.2126713562011719e+02" cType="0" res="-9.9000000000000000e+01" rms="0.0000000000000000e+00" purity="4.8044079542160034e-01" nType="0">
        <Node pos="l" depth="1" NCoef="0" IVar="13" Cut="6.4978106689453125e+02" cType="1" res="-9.9000000000000000e+01" rms="0.0000000000000000e+00" purity="7.0668363571166992e-01" nType="0">
          <Node pos="l" depth="2" NCoef="0" IVar="-1" Cut="0.0000000000000000e+00" cType="1" res="-9.9000000000000000e+01" rms="0.0000000000000000e+00" purity="7.2581422328948975e-01" nType="1"/>
          <Node pos="r" depth="2" NCoef="0" IVar="-1" Cut="0.0000000000000000e+00" cType="1" res="-9.9000000000000000e+01" rms="0.0000000000000000e+00" purity="1.0973792523145676e-01" nType="-1"/>
        </Node>
        <Node pos="r" depth="1" NCoef="0" IVar="-1" Cut="8.2808456420898438e+01" cType="1" res="-9.9000000000000000e+01" rms="0.0000000000000000e+00" purity="4.1994857788085938e-01" nType="-1"/>
      </Node>
    </BinaryTree>
    <BinaryTree type="DecisionTree" boostWeight="4.8722152983530408e-02" itree="33">
      <Node pos="s" depth="0" NCoef="0" IVar="12" Cut="8.4895172119140625e+01" cType="1" res="-9.9000000000000000e+01" rms="0.0000000000000000e+00" purity="4.8713624477386475e-01" nType="0">
        <Node pos="l" depth="1" NCoef="0" IVar="10" Cut="4.8022804260253906e+01" cType="0" res="-9.9000000000000000e+01" rms="0.0000000000000000e+00" purity="5.5381876230239868e-01" nType="0">
          <Node pos="l" depth="2" NCoef="0" IVar="-1" Cut="0.0000000000000000e+00" cType="1" res="-9.9000000000000000e+01" rms="0.0000000000000000e+00" purity="7.3023372888565063e-01" nType="1"/>
          <Node pos="r" depth="2" NCoef="0" IVar="-1" Cut="0.0000000000000000e+00" cType="1" res="-9.9000000000000000e+01" rms="0.0000000000000000e+00" purity="4.8389908671379089e-01" nType="-1"/>
        </Node>
        <Node pos="r" depth="1" NCoef="0" IVar="12" Cut="1.0620060729980469e+02" cType="0" res="-9.9000000000000000e+01" rms="0.0000000000000000e+00" purity="2.9094192385673523e-01" nType="0">
          <Node pos="l" depth="2" NCoef="0" IVar="-1" Cut="0.0000000000000000e+00" cType="1" res="-9.9000000000000000e+01" rms="0.0000000000000000e+00" purity="5.7148075103759766e-01" nType="1"/>
          <Node pos="r" depth="2" NCoef="0" IVar="-1" Cut="0.0000000000000000e+00" cType="1" res="-9.9000000000000000e+01" rms="0.0000000000000000e+00" purity="1.9775299727916718e-01" nType="-1"/>
        </Node>
      </Node>
    </BinaryTree>
    <BinaryTree type="DecisionTree" boostWeight="4.8091733317047775e-02" itree="34">
      <Node pos="s" depth="0" NCoef="0" IVar="12" Cut="8.4895172119140625e+01" cType="1" res="-9.9000000000000000e+01" rms="0.0000000000000000e+00" purity="4.9263527989387512e-01" nType="0">
        <Node pos="l" depth="1" NCoef="0" IVar="9" Cut="5.9622623443603516e+01" cType="0" res="-9.9000000000000000e+01" rms="0.0000000000000000e+00" purity="5.5938041210174561e-01" nType="0">
          <Node pos="l" depth="2" NCoef="0" IVar="-1" Cut="0.0000000000000000e+00" cType="1" res="-9.9000000000000000e+01" rms="0.0000000000000000e+00" purity="7.1916580200195312e-01" nType="1"/>
          <Node pos="r" depth="2" NCoef="0" IVar="-1" Cut="0.0000000000000000e+00" cType="1" res="-9.9000000000000000e+01" rms="0.0000000000000000e+00" purity="4.8919072747230530e-01" nType="-1"/>
        </Node>
        <Node pos="r" depth="1" NCoef="0" IVar="12" Cut="1.1879014587402344e+02" cType="0" res="-9.9000000000000000e+01" rms="0.0000000000000000e+00" purity="2.9459840059280396e-01" nType="0">
          <Node pos="l" depth="2" NCoef="0" IVar="-1" Cut="0.0000000000000000e+00" cType="1" res="-9.9000000000000000e+01" rms="0.0000000000000000e+00" purity="6.0561203956604004e-01" nType="1"/>
          <Node pos="r" depth="2" NCoef="0" IVar="-1" Cut="0.0000000000000000e+00" cType="1" res="-9.9000000000000000e+01" rms="0.0000000000000000e+00" purity="2.1782267093658447e-01" nType="-1"/>
        </Node>
      </Node>
    </BinaryTree>
    <BinaryTree type="DecisionTree" boostWeight="6.2709963174727296e-02" itree="35">
      <Node pos="s" depth="0" NCoef="0" IVar="12" Cut="8.4895172119140625e+01" cType="1" res="-9.9000000000000000e+01" rms="0.0000000000000000e+00" purity="4.9798807501792908e-01" nType="0">
        <Node pos="l" depth="1" NCoef="0" IVar="5" Cut="2.4375159740447998e+00" cType="1" res="-9.9000000000000000e+01" rms="0.0000000000000000e+00" purity="5.6432998180389404e-01" nType="0">
          <Node pos="l" depth="2" NCoef="0" IVar="-1" Cut="0.0000000000000000e+00" cType="1" res="-9.9000000000000000e+01" rms="0.0000000000000000e+00" purity="6.4005839824676514e-01" nType="1"/>
          <Node pos="r" depth="2" NCoef="0" IVar="-1" Cut="0.0000000000000000e+00" cType="1" res="-9.9000000000000000e+01" rms="0.0000000000000000e+00" purity="4.2196661233901978e-01" nType="-1"/>
        </Node>
        <Node pos="r" depth="1" NCoef="0" IVar="11" Cut="8.2513572692871094e+01" cType="1" res="-9.9000000000000000e+01" rms="0.0000000000000000e+00" purity="2.9947566986083984e-01" nType="0">
          <Node pos="l" depth="2" NCoef="0" IVar="-1" Cut="0.0000000000000000e+00" cType="1" res="-9.9000000000000000e+01" rms="0.0000000000000000e+00" purity="8.2333040237426758e-01" nType="1"/>
          <Node pos="r" depth="2" NCoef="0" IVar="-1" Cut="0.0000000000000000e+00" cType="1" res="-9.9000000000000000e+01" rms="0.0000000000000000e+00" purity="2.5464272499084473e-01" nType="-1"/>
        </Node>
      </Node>
    </BinaryTree>
    <BinaryTree type="DecisionTree" boostWeight="6.1122614531949004e-02" itree="36">
      <Node pos="s" depth="0" NCoef="0" IVar="12" Cut="7.5524002075195312e+01" cType="1" res="-9.9000000000000000e+01" rms="0.0000000000000000e+00" purity="4.9771332740783691e-01" nType="0">
        <Node pos="l" depth="1" NCoef="0" IVar="13" Cut="1.1433185577392578e+02" cType="0" res="-9.9000000000000000e+01" rms="0.0000000000000000e+00" purity="5.7780480384826660e-01" nType="0">
          <Node pos="l" depth="2" NCoef="0" IVar="-1" Cut="0.0000000000000000e+00" cType="1" res="-9.9000000000000000e+01" rms="0.0000000000000000e+00" purity="6.0225462913513184e-01" nType="1"/>
          <Node pos="r" depth="2" NCoef="0" IVar="-1" Cut="0.0000000000000000e+00" cType="1" res="-9.9000000000000000e+01" rms="0.0000000000000000e+00" purity="8.0415241420269012e-02" nType="-1"/>
        </Node>
        <Node pos="r" depth="1" NCoef="0" IVar="11" Cut="9.4299461364746094e+01" cType="0" res="-9.9000000000000000e+01" rms="0.0000000000000000e+00" purity="3.4976744651794434e-01" nType="0">
          <Node pos="l" depth="2" NCoef="0" IVar="-1" Cut="0.0000000000000000e+00" cType="1" res="-9.9000000000000000e+01" rms="0.0000000000000000e+00" purity="6.5965169668197632e-01" nType="1"/>
          <Node pos="r" depth="2" NCoef="0" IVar="-1" Cut="0.0000000000000000e+00" cType="1" res="-9.9000000000000000e+01" rms="0.0000000000000000e+00" purity="2.8466904163360596e-01" nType="-1"/>
        </Node>
      </Node>
    </BinaryTree>
    <BinaryTree type="DecisionTree" boostWeight="4.2638818768272413e-02" itree="37">
      <Node pos="s" depth="0" NCoef="0" IVar="9" Cut="7.7307296752929688e+01" cType="0" res="-9.9000000000000000e+01" rms="0.0000000000000000e+00" purity="4.9216574430465698e-01" nType="0">
        <Node pos="l" depth="1" NCoef="0" IVar="13" Cut="4.7239166259765625e+02" cType="1" res="-9.9000000000000000e+01" rms="0.0000000000000000e+00" purity="7.1829271316528320e-01" nType="0">
          <Node pos="l" depth="2" NCoef="0" IVar="-1" Cut="0.0000000000000000e+00" cType="1" res="-9.9000000000000000e+01" rms="0.0000000000000000e+00" purity="7.6615577936172485e-01" nType="1"/>
          <Node pos="r" depth="2" NCoef="0" IVar="-1" Cut="0.0000000000000000e+00" cType="1" res="-9.9000000000000000e+01" rms="0.0000000000000000e+00" purity="3.5995575785636902e-01" nType="-1"/>
        </Node>
        <Node pos="r" depth="1" NCoef="0" IVar="12" Cut="8.2581001281738281e+01" cType="1" res="-9.9000000000000000e+01" rms="0.0000000000000000e+00" purity="4.4500502943992615e-01" nType="0">
          <Node pos="l" depth="2" NCoef="0" IVar="-1" Cut="0.0000000000000000e+00" cType="1" res="-9.9000000000000000e+01" rms="0.0000000000000000e+00" purity="5.1330435276031494e-01" nType="1"/>
          <Node pos="r" depth="2" NCoef="0" IVar="-1" Cut="0.0000000000000000e+00" cType="1" res="-9.9000000000000000e+01" rms="0.0000000000000000e+00" purity="2.5740292668342590e-01" nType="-1"/>
        </Node>
      </Node>
    </BinaryTree>
    <BinaryTree type="DecisionTree" boostWeight="5.4191347079955356e-02" itree="38">
      <Node pos="s" depth="0" NCoef="0" IVar="9" Cut="7.7307296752929688e+01" cType="0" res="-9.9000000000000000e+01" rms="0.0000000000000000e+00" purity="4.8659312725067139e-01" nType="0">
        <Node pos="l" depth="1" NCoef="0" IVar="13" Cut="4.7239166259765625e+02" cType="1" res="-9.9000000000000000e+01" rms="0.0000000000000000e+00" purity="7.1243697404861450e-01" nType="0">
          <Node pos="l" depth="2" NCoef="0" IVar="-1" Cut="0.0000000000000000e+00" cType="1" res="-9.9000000000000000e+01" rms="0.0000000000000000e+00" purity="7.5843000411987305e-01" nType="1"/>
          <Node pos="r" depth="2" NCoef="0" IVar="-1" Cut="0.0000000000000000e+00" cType="1" res="-9.9000000000000000e+01" rms="0.0000000000000000e+00" purity="3.7011447548866272e-01" nType="-1"/>
        </Node>
        <Node pos="r" depth="1" NCoef="0" IVar="8" Cut="1.2466526031494141e+02" cType="0" res="-9.9000000000000000e+01" rms="0.0000000000000000e+00" purity="4.3984508514404297e-01" nType="0">
          <Node pos="l" depth="2" NCoef="0" IVar="-1" Cut="0.0000000000000000e+00" cType="1" res="-9.9000000000000000e+01" rms="0.0000000000000000e+00" purity="8.3403682708740234e-01" nType="1"/>
          <Node pos="r" depth="2" NCoef="0" IVar="-1" Cut="0.0000000000000000e+00" cType="1" res="-9.9000000000000000e+01" rms="0.0000000000000000e+00" purity="4.0855029225349426e-01" nType="-1"/>
        </Node>
      </Node>
    </BinaryTree>
    <BinaryTree type="DecisionTree" boostWeight="4.7810187029406453e-02" itree="39">
      <Node pos="s" depth="0" NCoef="0" IVar="7" Cut="7.2984848022460938e+01" cType="0" res="-9.9000000000000000e+01" rms="0.0000000000000000e+00" purity="4.9440073966979980e-01" nType="0">
        <Node pos="l" depth="1" NCoef="0" IVar="12" Cut="5.1582122802734375e+01" cType="1" res="-9.9000000000000000e+01" rms="0.0000000000000000e+00" purity="5.9677916765213013e-01" nType="0">
          <Node pos="l" depth="2" NCoef="0" IVar="-1" Cut="0.0000000000000000e+00" cType="1" res="-9.9000000000000000e+01" rms="0.0000000000000000e+00" purity="6.9618934392929077e-01" nType="1"/>
          <Node pos="r" depth="2" NCoef="0" IVar="-1" Cut="0.0000000000000000e+00" cType="1" res="-9.9000000000000000e+01" rms="0.0000000000000000e+00" purity="4.9967721104621887e-01" nType="-1"/>
        </Node>
        <Node pos="r" depth="1" NCoef="0" IVar="8" Cut="4.8555965423583984e+01" cType="0" res="-9.9000000000000000e+01" rms="0.0000000000000000e+00" purity="3.9574414491653442e-01" nType="0">
          <Node pos="l" depth="2" NCoef="0" IVar="-1" Cut="0.0000000000000000e+00" cType="1" res="-9.9000000000000000e+01" rms="0.0000000000000000e+00" purity="5.3117805719375610e-01" nType="1"/>
          <Node pos="r" depth="2" NCoef="0" IVar="-1" Cut="0.0000000000000000e+00" cType="1" res="-9.9000000000000000e+01" rms="0.0000000000000000e+00" purity="2.4828539788722992e-01" nType="-1"/>
        </Node>
      </Node>
    </BinaryTree>
    <BinaryTree type="DecisionTree" boostWeight="5.2210193553156509e-02" itree="40">
      <Node pos="s" depth="0" NCoef="0" IVar="7" Cut="7.2984848022460938e+01" cType="0" res="-9.9000000000000000e+01" rms="0.0000000000000000e+00" purity="4.9419304728507996e-01" nType="0">
        <Node pos="l" depth="1" NCoef="0" IVar="-1" Cut="1.2466585540771484e+02" cType="0" res="-9.9000000000000000e+01" rms="0.0000000000000000e+00" purity="5.9739089012145996e-01" nType="1"/>
        <Node pos="r" depth="1" NCoef="0" IVar="8" Cut="6.3002353668212891e+01" cType="0" res="-9.9000000000000000e+01" rms="0.0000000000000000e+00" purity="3.9455345273017883e-01" nType="0">
          <Node pos="l" depth="2" NCoef="0" IVar="-1" Cut="0.0000000000000000e+00" cType="1" res="-9.9000000000000000e+01" rms="0.0000000000000000e+00" purity="5.7095468044281006e-01" nType="1"/>
          <Node pos="r" depth="2" NCoef="0" IVar="-1" Cut="0.0000000000000000e+00" cType="1" res="-9.9000000000000000e+01" rms="0.0000000000000000e+00" purity="2.9438215494155884e-01" nType="-1"/>
        </Node>
      </Node>
    </BinaryTree>
    <BinaryTree type="DecisionTree" boostWeight="4.9217810055535945e-02" itree="41">
      <Node pos="s" depth="0" NCoef="0" IVar="7" Cut="1.2126713562011719e+02" cType="0" res="-9.9000000000000000e+01" rms="0.0000000000000000e+00" purity="4.8955002427101135e-01" nType="0">
        <Node pos="l" depth="1" NCoef="0" IVar="13" Cut="6.4978106689453125e+02" cType="1" res="-9.9000000000000000e+01" rms="0.0000000000000000e+00" purity="6.7405676841735840e-01" nType="0">
          <Node pos="l" depth="2" NCoef="0" IVar="-1" Cut="0.0000000000000000e+00" cType="1" res="-9.9000000000000000e+01" rms="0.0000000000000000e+00" purity="6.9258314371109009e-01" nType="1"/>
          <Node pos="r" depth="2" NCoef="0" IVar="-1" Cut="0.0000000000000000e+00" cType="1" res="-9.9000000000000000e+01" rms="0.0000000000000000e+00" purity="1.0595459491014481e-01" nType="-1"/>
        </Node>
        <Node pos="r" depth="1" NCoef="0" IVar="9" Cut="3.9747253417968750e+01" cType="0" res="-9.9000000000000000e+01" rms="0.0000000000000000e+00" purity="4.4079244136810303e-01" nType="0">
          <Node pos="l" depth="2" NCoef="0" IVar="-1" Cut="0.0000000000000000e+00" cType="1" res="-9.9000000000000000e+01" rms="0.0000000000000000e+00" purity="5.3963613510131836e-01" nType="1"/>
          <Node pos="r" depth="2" NCoef="0" IVar="-1" Cut="0.0000000000000000e+00" cType="1" res="-9.9000000000000000e+01" rms="0.0000000000000000e+00" purity="3.3642554283142090e-01" nType="-1"/>
        </Node>
      </Node>
    </BinaryTree>
    <BinaryTree type="DecisionTree" boostWeight="5.2379026667932066e-02" itree="42">
      <Node pos="s" depth="0" NCoef="0" IVar="7" Cut="3.7053848266601562e+01" cType="0" res="-9.9000000000000000e+01" rms="0.0000000000000000e+00" purity="4.8681446909904480e-01" nType="0">
        <Node pos="l" depth="1" NCoef="0" IVar="12" Cut="8.8018890380859375e+01" cType="1" res="-9.9000000000000000e+01" rms="0.0000000000000000e+00" purity="5.3709959983825684e-01" nType="0">
          <Node pos="l" depth="2" NCoef="0" IVar="-1" Cut="0.0000000000000000e+00" cType="1" res="-9.9000000000000000e+01" rms="0.0000000000000000e+00" purity="5.8188420534133911e-01" nType="1"/>
          <Node pos="r" depth="2" NCoef="0" IVar="-1" Cut="0.0000000000000000e+00" cType="1" res="-9.9000000000000000e+01" rms="0.0000000000000000e+00" purity="3.4012529253959656e-01" nType="-1"/>
        </Node>
        <Node pos="r" depth="1" NCoef="0" IVar="9" Cut="6.3301891326904297e+01" cType="0" res="-9.9000000000000000e+01" rms="0.0000000000000000e+00" purity="3.1303846836090088e-01" nType="0">
          <Node pos="l" depth="2" NCoef="0" IVar="-1" Cut="0.0000000000000000e+00" cType="1" res="-9.9000000000000000e+01" rms="0.0000000000000000e+00" purity="6.0865056514739990e-01" nType="1"/>
          <Node pos="r" depth="2" NCoef="0" IVar="-1" Cut="0.0000000000000000e+00" cType="1" res="-9.9000000000000000e+01" rms="0.0000000000000000e+00" purity="2.2324284911155701e-01" nType="-1"/>
        </Node>
      </Node>
    </BinaryTree>
    <BinaryTree type="DecisionTree" boostWeight="2.9974339699289837e-02" itree="43">
      <Node pos="s" depth="0" NCoef="0" IVar="7" Cut="1.6056666564941406e+02" cType="0" res="-9.9000000000000000e+01" rms="0.0000000000000000e+00" purity="4.8187270760536194e-01" nType="0">
        <Node pos="l" depth="1" NCoef="0" IVar="13" Cut="5.3039611816406250e+02" cType="1" res="-9.9000000000000000e+01" rms="0.0000000000000000e+00" purity="7.2445738315582275e-01" nType="0">
          <Node pos="l" depth="2" NCoef="0" IVar="-1" Cut="0.0000000000000000e+00" cType="1" res="-9.9000000000000000e+01" rms="0.0000000000000000e+00" purity="7.5539791584014893e-01" nType="1"/>
          <Node pos="r" depth="2" NCoef="0" IVar="-1" Cut="0.0000000000000000e+00" cType="1" res="-9.9000000000000000e+01" rms="0.0000000000000000e+00" purity="4.5536723732948303e-01" nType="-1"/>
        </Node>
        <Node pos="r" depth="1" NCoef="0" IVar="12" Cut="8.4668128967285156e+01" cType="1" res="-9.9000000000000000e+01" rms="0.0000000000000000e+00" purity="4.4830885529518127e-01" nType="0">
          <Node pos="l" depth="2" NCoef="0" IVar="-1" Cut="0.0000000000000000e+00" cType="1" res="-9.9000000000000000e+01" rms="0.0000000000000000e+00" purity="5.0043696165084839e-01" nType="1"/>
          <Node pos="r" depth="2" NCoef="0" IVar="-1" Cut="0.0000000000000000e+00" cType="1" res="-9.9000000000000000e+01" rms="0.0000000000000000e+00" purity="2.9669147729873657e-01" nType="-1"/>
        </Node>
      </Node>
    </BinaryTree>
    <BinaryTree type="DecisionTree" boostWeight="4.0218267200088836e-02" itree="44">
      <Node pos="s" depth="0" NCoef="0" IVar="7" Cut="1.6056666564941406e+02" cType="0" res="-9.9000000000000000e+01" rms="0.0000000000000000e+00" purity="4.7788903117179871e-01" nType="0">
        <Node pos="l" depth="1" NCoef="0" IVar="-1" Cut="2.7840164184570312e+01" cType="0" res="-9.9000000000000000e+01" rms="0.0000000000000000e+00" purity="7.2006273269653320e-01" nType="1"/>
        <Node pos="r" depth="1" NCoef="0" IVar="9" Cut="3.9747253417968750e+01" cType="0" res="-9.9000000000000000e+01" rms="0.0000000000000000e+00" purity="4.4456303119659424e-01" nType="0">
          <Node pos="l" depth="2" NCoef="0" IVar="-1" Cut="0.0000000000000000e+00" cType="1" res="-9.9000000000000000e+01" rms="0.0000000000000000e+00" purity="5.2579772472381592e-01" nType="1"/>
          <Node pos="r" depth="2" NCoef="0" IVar="-1" Cut="0.0000000000000000e+00" cType="1" res="-9.9000000000000000e+01" rms="0.0000000000000000e+00" purity="3.5437941551208496e-01" nType="-1"/>
        </Node>
      </Node>
    </BinaryTree>
    <BinaryTree type="DecisionTree" boostWeight="3.8143690007936229e-02" itree="45">
      <Node pos="s" depth="0" NCoef="0" IVar="10" Cut="5.5911273956298828e+01" cType="0" res="-9.9000000000000000e+01" rms="0.0000000000000000e+00" purity="4.7612851858139038e-01" nType="0">
        <Node pos="l" depth="1" NCoef="0" IVar="13" Cut="3.7351181030273438e+02" cType="1" res="-9.9000000000000000e+01" rms="0.0000000000000000e+00" purity="6.5909993648529053e-01" nType="0">
          <Node pos="l" depth="2" NCoef="0" IVar="-1" Cut="0.0000000000000000e+00" cType="1" res="-9.9000000000000000e+01" rms="0.0000000000000000e+00" purity="7.1641206741333008e-01" nType="1"/>
          <Node pos="r" depth="2" NCoef="0" IVar="-1" Cut="0.0000000000000000e+00" cType="1" res="-9.9000000000000000e+01" rms="0.0000000000000000e+00" purity="3.1151938438415527e-01" nType="-1"/>
        </Node>
        <Node pos="r" depth="1" NCoef="0" IVar="-1" Cut="2.6728801727294922e+00" cType="1" res="-9.9000000000000000e+01" rms="0.0000000000000000e+00" purity="4.3339523673057556e-01" nType="-1"/>
      </Node>
    </BinaryTree>
    <BinaryTree type="DecisionTree" boostWeight="4.6626946148641421e-02" itree="46">
      <Node pos="s" depth="0" NCoef="0" IVar="7" Cut="3.7053848266601562e+01" cType="0" res="-9.9000000000000000e+01" rms="0.0000000000000000e+00" purity="4.8253950476646423e-01" nType="0">
        <Node pos="l" depth="1" NCoef="0" IVar="12" Cut="5.2616714477539062e+01" cType="1" res="-9.9000000000000000e+01" rms="0.0000000000000000e+00" purity="5.2904993295669556e-01" nType="0">
          <Node pos="l" depth="2" NCoef="0" IVar="-1" Cut="0.0000000000000000e+00" cType="1" res="-9.9000000000000000e+01" rms="0.0000000000000000e+00" purity="6.2386596202850342e-01" nType="1"/>
          <Node pos="r" depth="2" NCoef="0" IVar="-1" Cut="0.0000000000000000e+00" cType="1" res="-9.9000000000000000e+01" rms="0.0000000000000000e+00" purity="4.4973236322402954e-01" nType="-1"/>
        </Node>
        <Node pos="r" depth="1" NCoef="0" IVar="9" Cut="6.3301891326904297e+01" cType="0" res="-9.9000000000000000e+01" rms="0.0000000000000000e+00" purity="3.2038387656211853e-01" nType="0">
          <Node pos="l" depth="2" NCoef="0" IVar="-1" Cut="0.0000000000000000e+00" cType="1" res="-9.9000000000000000e+01" rms="0.0000000000000000e+00" purity="5.8884030580520630e-01" nType="1"/>
          <Node pos="r" depth="2" NCoef="0" IVar="-1" Cut="0.0000000000000000e+00" cType="1" res="-9.9000000000000000e+01" rms="0.0000000000000000e+00" purity="2.3741620779037476e-01" nType="-1"/>
        </Node>
      </Node>
    </BinaryTree>
    <BinaryTree type="DecisionTree" boostWeight="2.7103303234587064e-02" itree="47">
      <Node pos="s" depth="0" NCoef="0" IVar="7" Cut="1.6056666564941406e+02" cType="0" res="-9.9000000000000000e+01" rms="0.0000000000000000e+00" purity="4.8464626073837280e-01" nType="0">
        <Node pos="l" depth="1" NCoef="0" IVar="-1" Cut="2.7840164184570312e+01" cType="0" res="-9.9000000000000000e+01" rms="0.0000000000000000e+00" purity="7.1456909179687500e-01" nType="1"/>
        <Node pos="r" depth="1" NCoef="0" IVar="-1" Cut="8.8212509155273438e+01" cType="1" res="-9.9000000000000000e+01" rms="0.0000000000000000e+00" purity="4.5294940471649170e-01" nType="-1"/>
      </Node>
    </BinaryTree>
    <BinaryTree type="DecisionTree" boostWeight="2.9629694389953387e-02" itree="48">
      <Node pos="s" depth="0" NCoef="0" IVar="7" Cut="3.7053848266601562e+01" cType="0" res="-9.9000000000000000e+01" rms="0.0000000000000000e+00" purity="4.8977467417716980e-01" nType="0">
        <Node pos="l" depth="1" NCoef="0" IVar="-1" Cut="1.2466526031494141e+02" cType="0" res="-9.9000000000000000e+01" rms="0.0000000000000000e+00" purity="5.3493154048919678e-01" nType="1"/>
        <Node pos="r" depth="1" NCoef="0" IVar="9" Cut="6.3301891326904297e+01" cType="0" res="-9.9000000000000000e+01" rms="0.0000000000000000e+00" purity="3.3071345090866089e-01" nType="0">
          <Node pos="l" depth="2" NCoef="0" IVar="-1" Cut="0.0000000000000000e+00" cType="1" res="-9.9000000000000000e+01" rms="0.0000000000000000e+00" purity="5.8410543203353882e-01" nType="1"/>
          <Node pos="r" depth="2" NCoef="0" IVar="-1" Cut="0.0000000000000000e+00" cType="1" res="-9.9000000000000000e+01" rms="0.0000000000000000e+00" purity="2.5104776024818420e-01" nType="-1"/>
        </Node>
      </Node>
    </BinaryTree>
    <BinaryTree type="DecisionTree" boostWeight="4.6495872410689532e-02" itree="49">
      <Node pos="s" depth="0" NCoef="0" IVar="8" Cut="4.8633186340332031e+01" cType="0" res="-9.9000000000000000e+01" rms="0.0000000000000000e+00" purity="4.8482793569564819e-01" nType="0">
        <Node pos="l" depth="1" NCoef="0" IVar="16" Cut="1.5786561965942383e+00" cType="1" res="-9.9000000000000000e+01" rms="0.0000000000000000e+00" purity="5.5866533517837524e-01" nType="0">
          <Node pos="l" depth="2" NCoef="0" IVar="-1" Cut="0.0000000000000000e+00" cType="1" res="-9.9000000000000000e+01" rms="0.0000000000000000e+00" purity="6.5148657560348511e-01" nType="1"/>
          <Node pos="r" depth="2" NCoef="0" IVar="-1" Cut="0.0000000000000000e+00" cType="1" res="-9.9000000000000000e+01" rms="0.0000000000000000e+00" purity="4.7177925705909729e-01" nType="-1"/>
        </Node>
        <Node pos="r" depth="1" NCoef="0" IVar="7" Cut="7.8599067687988281e+01" cType="0" res="-9.9000000000000000e+01" rms="0.0000000000000000e+00" purity="3.9383560419082642e-01" nType="0">
          <Node pos="l" depth="2" NCoef="0" IVar="-1" Cut="0.0000000000000000e+00" cType="1" res="-9.9000000000000000e+01" rms="0.0000000000000000e+00" purity="5.4728347063064575e-01" nType="1"/>
          <Node pos="r" depth="2" NCoef="0" IVar="-1" Cut="0.0000000000000000e+00" cType="1" res="-9.9000000000000000e+01" rms="0.0000000000000000e+00" purity="2.7877163887023926e-01" nType="-1"/>
        </Node>
      </Node>
    </BinaryTree>
    <BinaryTree type="DecisionTree" boostWeight="4.5640333012695058e-02" itree="50">
      <Node pos="s" depth="0" NCoef="0" IVar="8" Cut="4.8633186340332031e+01" cType="0" res="-9.9000000000000000e+01" rms="0.0000000000000000e+00" purity="4.8571696877479553e-01" nType="0">
        <Node pos="l" depth="1" NCoef="0" IVar="13" Cut="4.6875570678710938e+02" cType="1" res="-9.9000000000000000e+01" rms="0.0000000000000000e+00" purity="5.5930233001708984e-01" nType="0">
          <Node pos="l" depth="2" NCoef="0" IVar="-1" Cut="0.0000000000000000e+00" cType="1" res="-9.9000000000000000e+01" rms="0.0000000000000000e+00" purity="5.8077734708786011e-01" nType="1"/>
          <Node pos="r" depth="2" NCoef="0" IVar="-1" Cut="0.0000000000000000e+00" cType="1" res="-9.9000000000000000e+01" rms="0.0000000000000000e+00" purity="2.1070317924022675e-01" nType="-1"/>
        </Node>
        <Node pos="r" depth="1" NCoef="0" IVar="7" Cut="7.8599067687988281e+01" cType="0" res="-9.9000000000000000e+01" rms="0.0000000000000000e+00" purity="3.9478367567062378e-01" nType="0">
          <Node pos="l" depth="2" NCoef="0" IVar="-1" Cut="0.0000000000000000e+00" cType="1" res="-9.9000000000000000e+01" rms="0.0000000000000000e+00" purity="5.3574019670486450e-01" nType="1"/>
          <Node pos="r" depth="2" NCoef="0" IVar="-1" Cut="0.0000000000000000e+00" cType="1" res="-9.9000000000000000e+01" rms="0.0000000000000000e+00" purity="2.8822422027587891e-01" nType="-1"/>
        </Node>
      </Node>
    </BinaryTree>
    <BinaryTree type="DecisionTree" boostWeight="4.2687590557925370e-02" itree="51">
      <Node pos="s" depth="0" NCoef="0" IVar="9" Cut="7.7307296752929688e+01" cType="0" res="-9.9000000000000000e+01" rms="0.0000000000000000e+00" purity="4.8075532913208008e-01" nType="0">
        <Node pos="l" depth="1" NCoef="0" IVar="-1" Cut="9.0738960266113281e+01" cType="1" res="-9.9000000000000000e+01" rms="0.0000000000000000e+00" purity="6.5576690435409546e-01" nType="1"/>
        <Node pos="r" depth="1" NCoef="0" IVar="8" Cut="1.2535023498535156e+02" cType="0" res="-9.9000000000000000e+01" rms="0.0000000000000000e+00" purity="4.4516658782958984e-01" nType="0">
          <Node pos="l" depth="2" NCoef="0" IVar="-1" Cut="0.0000000000000000e+00" cType="1" res="-9.9000000000000000e+01" rms="0.0000000000000000e+00" purity="7.9032820463180542e-01" nType="1"/>
          <Node pos="r" depth="2" NCoef="0" IVar="-1" Cut="0.0000000000000000e+00" cType="1" res="-9.9000000000000000e+01" rms="0.0000000000000000e+00" purity="4.1963258385658264e-01" nType="-1"/>
        </Node>
      </Node>
    </BinaryTree>
    <BinaryTree type="DecisionTree" boostWeight="4.0505175726279610e-02" itree="52">
      <Node pos="s" depth="0" NCoef="0" IVar="12" Cut="8.8018890380859375e+01" cType="1" res="-9.9000000000000000e+01" rms="0.0000000000000000e+00" purity="4.8656019568443298e-01" nType="0">
        <Node pos="l" depth="1" NCoef="0" IVar="4" Cut="-2.5578353404998779e+00" cType="0" res="-9.9000000000000000e+01" rms="0.0000000000000000e+00" purity="5.2497172355651855e-01" nType="0">
          <Node pos="l" depth="2" NCoef="0" IVar="-1" Cut="0.0000000000000000e+00" cType="1" res="-9.9000000000000000e+01" rms="0.0000000000000000e+00" purity="5.5209231376647949e-01" nType="1"/>
          <Node pos="r" depth="2" NCoef="0" IVar="-1" Cut="0.0000000000000000e+00" cType="1" res="-9.9000000000000000e+01" rms="0.0000000000000000e+00" purity="2.7463674545288086e-01" nType="-1"/>
        </Node>
        <Node pos="r" depth="1" NCoef="0" IVar="12" Cut="1.0056787872314453e+02" cType="0" res="-9.9000000000000000e+01" rms="0.0000000000000000e+00" purity="3.2460314035415649e-01" nType="0">
          <Node pos="l" depth="2" NCoef="0" IVar="-1" Cut="0.0000000000000000e+00" cType="1" res="-9.9000000000000000e+01" rms="0.0000000000000000e+00" purity="5.6717079877853394e-01" nType="1"/>
          <Node pos="r" depth="2" NCoef="0" IVar="-1" Cut="0.0000000000000000e+00" cType="1" res="-9.9000000000000000e+01" rms="0.0000000000000000e+00" purity="1.5815412998199463e-01" nType="-1"/>
        </Node>
      </Node>
    </BinaryTree>
    <BinaryTree type="DecisionTree" boostWeight="3.3724633613243842e-02" itree="53">
      <Node pos="s" depth="0" NCoef="0" IVar="10" Cut="5.5225246429443359e+01" cType="0" res="-9.9000000000000000e+01" rms="0.0000000000000000e+00" purity="4.8025983572006226e-01" nType="0">
        <Node pos="l" depth="1" NCoef="0" IVar="13" Cut="3.7351181030273438e+02" cType="1" res="-9.9000000000000000e+01" rms="0.0000000000000000e+00" purity="6.3698744773864746e-01" nType="0">
          <Node pos="l" depth="2" NCoef="0" IVar="-1" Cut="0.0000000000000000e+00" cType="1" res="-9.9000000000000000e+01" rms="0.0000000000000000e+00" purity="6.9199913740158081e-01" nType="1"/>
          <Node pos="r" depth="2" NCoef="0" IVar="-1" Cut="0.0000000000000000e+00" cType="1" res="-9.9000000000000000e+01" rms="0.0000000000000000e+00" purity="3.0108508467674255e-01" nType="-1"/>
        </Node>
        <Node pos="r" depth="1" NCoef="0" IVar="-1" Cut="2.6728801727294922e+00" cType="1" res="-9.9000000000000000e+01" rms="0.0000000000000000e+00" purity="4.4270497560501099e-01" nType="-1"/>
      </Node>
    </BinaryTree>
    <BinaryTree type="DecisionTree" boostWeight="3.3862474064772177e-02" itree="54">
      <Node pos="s" depth="0" NCoef="0" IVar="12" Cut="8.8018890380859375e+01" cType="1" res="-9.9000000000000000e+01" rms="0.0000000000000000e+00" purity="4.8587679862976074e-01" nType="0">
        <Node pos="l" depth="1" NCoef="0" IVar="13" Cut="1.2084928131103516e+02" cType="0" res="-9.9000000000000000e+01" rms="0.0000000000000000e+00" purity="5.2266329526901245e-01" nType="0">
          <Node pos="l" depth="2" NCoef="0" IVar="-1" Cut="0.0000000000000000e+00" cType="1" res="-9.9000000000000000e+01" rms="0.0000000000000000e+00" purity="5.3855216503143311e-01" nType="1"/>
          <Node pos="r" depth="2" NCoef="0" IVar="-1" Cut="0.0000000000000000e+00" cType="1" res="-9.9000000000000000e+01" rms="0.0000000000000000e+00" purity="1.0635130852460861e-01" nType="-1"/>
        </Node>
        <Node pos="r" depth="1" NCoef="0" IVar="12" Cut="1.0056787872314453e+02" cType="0" res="-9.9000000000000000e+01" rms="0.0000000000000000e+00" purity="3.2880893349647522e-01" nType="0">
          <Node pos="l" depth="2" NCoef="0" IVar="-1" Cut="0.0000000000000000e+00" cType="1" res="-9.9000000000000000e+01" rms="0.0000000000000000e+00" purity="5.6125742197036743e-01" nType="1"/>
          <Node pos="r" depth="2" NCoef="0" IVar="-1" Cut="0.0000000000000000e+00" cType="1" res="-9.9000000000000000e+01" rms="0.0000000000000000e+00" purity="1.6655440628528595e-01" nType="-1"/>
        </Node>
      </Node>
    </BinaryTree>
    <BinaryTree type="DecisionTree" boostWeight="3.7640710752037954e-02" itree="55">
      <Node pos="s" depth="0" NCoef="0" IVar="12" Cut="6.5111602783203125e+01" cType="1" res="-9.9000000000000000e+01" rms="0.0000000000000000e+00" purity="4.7975164651870728e-01" nType="0">
        <Node pos="l" depth="1" NCoef="0" IVar="13" Cut="1.1433185577392578e+02" cType="0" res="-9.9000000000000000e+01" rms="0.0000000000000000e+00" purity="5.4345256090164185e-01" nType="0">
          <Node pos="l" depth="2" NCoef="0" IVar="-1" Cut="0.0000000000000000e+00" cType="1" res="-9.9000000000000000e+01" rms="0.0000000000000000e+00" purity="5.6630557775497437e-01" nType="1"/>
          <Node pos="r" depth="2" NCoef="0" IVar="-1" Cut="0.0000000000000000e+00" cType="1" res="-9.9000000000000000e+01" rms="0.0000000000000000e+00" purity="9.5799438655376434e-02" nType="-1"/>
        </Node>
        <Node pos="r" depth="1" NCoef="0" IVar="-1" Cut="2.6796727180480957e+00" cType="1" res="-9.9000000000000000e+01" rms="0.0000000000000000e+00" purity="3.9297837018966675e-01" nType="-1"/>
      </Node>
    </BinaryTree>
    <BinaryTree type="DecisionTree" boostWeight="3.9883019795332049e-02" itree="56">
      <Node pos="s" depth="0" NCoef="0" IVar="8" Cut="1.2466526031494141e+02" cType="0" res="-9.9000000000000000e+01" rms="0.0000000000000000e+00" purity="4.7876545786857605e-01" nType="0">
        <Node pos="l" depth="1" NCoef="0" IVar="13" Cut="3.3622927856445312e+02" cType="1" res="-9.9000000000000000e+01" rms="0.0000000000000000e+00" purity="7.3890846967697144e-01" nType="0">
          <Node pos="l" depth="2" NCoef="0" IVar="-1" Cut="0.0000000000000000e+00" cType="1" res="-9.9000000000000000e+01" rms="0.0000000000000000e+00" purity="8.4572345018386841e-01" nType="1"/>
          <Node pos="r" depth="2" NCoef="0" IVar="-1" Cut="0.0000000000000000e+00" cType="1" res="-9.9000000000000000e+01" rms="0.0000000000000000e+00" purity="4.9738499522209167e-01" nType="-1"/>
        </Node>
        <Node pos="r" depth="1" NCoef="0" IVar="9" Cut="7.7307296752929688e+01" cType="0" res="-9.9000000000000000e+01" rms="0.0000000000000000e+00" purity="4.5767918229103088e-01" nType="0">
          <Node pos="l" depth="2" NCoef="0" IVar="-1" Cut="0.0000000000000000e+00" cType="1" res="-9.9000000000000000e+01" rms="0.0000000000000000e+00" purity="6.3753247261047363e-01" nType="1"/>
          <Node pos="r" depth="2" NCoef="0" IVar="-1" Cut="0.0000000000000000e+00" cType="1" res="-9.9000000000000000e+01" rms="0.0000000000000000e+00" purity="4.2290422320365906e-01" nType="-1"/>
        </Node>
      </Node>
    </BinaryTree>
    <BinaryTree type="DecisionTree" boostWeight="2.2169812287308691e-02" itree="57">
      <Node pos="s" depth="0" NCoef="0" IVar="7" Cut="3.7053848266601562e+01" cType="0" res="-9.9000000000000000e+01" rms="0.0000000000000000e+00" purity="4.8466786742210388e-01" nType="0">
        <Node pos="l" depth="1" NCoef="0" IVar="-1" Cut="1.2466526031494141e+02" cType="0" res="-9.9000000000000000e+01" rms="0.0000000000000000e+00" purity="5.2350813150405884e-01" nType="1"/>
        <Node pos="r" depth="1" NCoef="0" IVar="5" Cut="1.9530665874481201e+00" cType="1" res="-9.9000000000000000e+01" rms="0.0000000000000000e+00" purity="3.4598994255065918e-01" nType="0">
          <Node pos="l" depth="2" NCoef="0" IVar="-1" Cut="0.0000000000000000e+00" cType="1" res="-9.9000000000000000e+01" rms="0.0000000000000000e+00" purity="5.2075225114822388e-01" nType="1"/>
          <Node pos="r" depth="2" NCoef="0" IVar="-1" Cut="0.0000000000000000e+00" cType="1" res="-9.9000000000000000e+01" rms="0.0000000000000000e+00" purity="2.5374656915664673e-01" nType="-1"/>
        </Node>
      </Node>
    </BinaryTree>
    <BinaryTree type="DecisionTree" boostWeight="4.0323456869614277e-02" itree="58">
      <Node pos="s" depth="0" NCoef="0" IVar="8" Cut="4.8633186340332031e+01" cType="0" res="-9.9000000000000000e+01" rms="0.0000000000000000e+00" purity="4.8068991303443909e-01" nType="0">
        <Node pos="l" depth="1" NCoef="0" IVar="13" Cut="4.6875570678710938e+02" cType="1" res="-9.9000000000000000e+01" rms="0.0000000000000000e+00" purity="5.4580724239349365e-01" nType="0">
          <Node pos="l" depth="2" NCoef="0" IVar="-1" Cut="0.0000000000000000e+00" cType="1" res="-9.9000000000000000e+01" rms="0.0000000000000000e+00" purity="5.6666004657745361e-01" nType="1"/>
          <Node pos="r" depth="2" NCoef="0" IVar="-1" Cut="0.0000000000000000e+00" cType="1" res="-9.9000000000000000e+01" rms="0.0000000000000000e+00" purity="2.1054749190807343e-01" nType="-1"/>
        </Node>
        <Node pos="r" depth="1" NCoef="0" IVar="9" Cut="4.5474880218505859e+01" cType="0" res="-9.9000000000000000e+01" rms="0.0000000000000000e+00" purity="4.0000760555267334e-01" nType="0">
          <Node pos="l" depth="2" NCoef="0" IVar="-1" Cut="0.0000000000000000e+00" cType="1" res="-9.9000000000000000e+01" rms="0.0000000000000000e+00" purity="5.2922201156616211e-01" nType="1"/>
          <Node pos="r" depth="2" NCoef="0" IVar="-1" Cut="0.0000000000000000e+00" cType="1" res="-9.9000000000000000e+01" rms="0.0000000000000000e+00" purity="3.1026896834373474e-01" nType="-1"/>
        </Node>
      </Node>
    </BinaryTree>
    <BinaryTree type="DecisionTree" boostWeight="2.5479301058815264e-02" itree="59">
      <Node pos="s" depth="0" NCoef="0" IVar="8" Cut="1.2466526031494141e+02" cType="0" res="-9.9000000000000000e+01" rms="0.0000000000000000e+00" purity="4.7648978233337402e-01" nType="0">
        <Node pos="l" depth="1" NCoef="0" IVar="-1" Cut="3.3622927856445312e+02" cType="1" res="-9.9000000000000000e+01" rms="0.0000000000000000e+00" purity="7.2802335023880005e-01" nType="1"/>
        <Node pos="r" depth="1" NCoef="0" IVar="12" Cut="7.8057113647460938e+01" cType="1" res="-9.9000000000000000e+01" rms="0.0000000000000000e+00" purity="4.5644852519035339e-01" nType="0">
          <Node pos="l" depth="2" NCoef="0" IVar="-1" Cut="0.0000000000000000e+00" cType="1" res="-9.9000000000000000e+01" rms="0.0000000000000000e+00" purity="5.0479525327682495e-01" nType="1"/>
          <Node pos="r" depth="2" NCoef="0" IVar="-1" Cut="0.0000000000000000e+00" cType="1" res="-9.9000000000000000e+01" rms="0.0000000000000000e+00" purity="3.4524613618850708e-01" nType="-1"/>
        </Node>
      </Node>
    </BinaryTree>
    <BinaryTree type="DecisionTree" boostWeight="3.7737744045665399e-02" itree="60">
      <Node pos="s" depth="0" NCoef="0" IVar="8" Cut="1.2466526031494141e+02" cType="0" res="-9.9000000000000000e+01" rms="0.0000000000000000e+00" purity="4.7365307807922363e-01" nType="0">
        <Node pos="l" depth="1" NCoef="0" IVar="13" Cut="3.3622927856445312e+02" cType="1" res="-9.9000000000000000e+01" rms="0.0000000000000000e+00" purity="7.2294908761978149e-01" nType="0">
          <Node pos="l" depth="2" NCoef="0" IVar="-1" Cut="0.0000000000000000e+00" cType="1" res="-9.9000000000000000e+01" rms="0.0000000000000000e+00" purity="8.2841473817825317e-01" nType="1"/>
          <Node pos="r" depth="2" NCoef="0" IVar="-1" Cut="0.0000000000000000e+00" cType="1" res="-9.9000000000000000e+01" rms="0.0000000000000000e+00" purity="4.9391686916351318e-01" nType="-1"/>
        </Node>
        <Node pos="r" depth="1" NCoef="0" IVar="9" Cut="7.7307296752929688e+01" cType="0" res="-9.9000000000000000e+01" rms="0.0000000000000000e+00" purity="4.5388019084930420e-01" nType="0">
          <Node pos="l" depth="2" NCoef="0" IVar="-1" Cut="0.0000000000000000e+00" cType="1" res="-9.9000000000000000e+01" rms="0.0000000000000000e+00" purity="6.1358898878097534e-01" nType="1"/>
          <Node pos="r" depth="2" NCoef="0" IVar="-1" Cut="0.0000000000000000e+00" cType="1" res="-9.9000000000000000e+01" rms="0.0000000000000000e+00" purity="4.2327991127967834e-01" nType="-1"/>
        </Node>
      </Node>
    </BinaryTree>
    <BinaryTree type="DecisionTree" boostWeight="2.2123319478375411e-02" itree="61">
      <Node pos="s" depth="0" NCoef="0" IVar="7" Cut="3.7053848266601562e+01" cType="0" res="-9.9000000000000000e+01" rms="0.0000000000000000e+00" purity="4.7926893830299377e-01" nType="0">
        <Node pos="l" depth="1" NCoef="0" IVar="8" Cut="1.2946008300781250e+02" cType="0" res="-9.9000000000000000e+01" rms="0.0000000000000000e+00" purity="5.1576852798461914e-01" nType="0">
          <Node pos="l" depth="2" NCoef="0" IVar="-1" Cut="0.0000000000000000e+00" cType="1" res="-9.9000000000000000e+01" rms="0.0000000000000000e+00" purity="7.5973999500274658e-01" nType="1"/>
          <Node pos="r" depth="2" NCoef="0" IVar="-1" Cut="0.0000000000000000e+00" cType="1" res="-9.9000000000000000e+01" rms="0.0000000000000000e+00" purity="4.9467837810516357e-01" nType="-1"/>
        </Node>
        <Node pos="r" depth="1" NCoef="0" IVar="5" Cut="1.9530665874481201e+00" cType="1" res="-9.9000000000000000e+01" rms="0.0000000000000000e+00" purity="3.4828755259513855e-01" nType="0">
          <Node pos="l" depth="2" NCoef="0" IVar="-1" Cut="0.0000000000000000e+00" cType="1" res="-9.9000000000000000e+01" rms="0.0000000000000000e+00" purity="5.1339393854141235e-01" nType="1"/>
          <Node pos="r" depth="2" NCoef="0" IVar="-1" Cut="0.0000000000000000e+00" cType="1" res="-9.9000000000000000e+01" rms="0.0000000000000000e+00" purity="2.6045742630958557e-01" nType="-1"/>
        </Node>
      </Node>
    </BinaryTree>
    <BinaryTree type="DecisionTree" boostWeight="2.1909711005575823e-02" itree="62">
      <Node pos="s" depth="0" NCoef="0" IVar="7" Cut="3.7053848266601562e+01" cType="0" res="-9.9000000000000000e+01" rms="0.0000000000000000e+00" purity="4.8326373100280762e-01" nType="0">
        <Node pos="l" depth="1" NCoef="0" IVar="-1" Cut="1.2946008300781250e+02" cType="0" res="-9.9000000000000000e+01" rms="0.0000000000000000e+00" purity="5.2044183015823364e-01" nType="1"/>
        <Node pos="r" depth="1" NCoef="0" IVar="9" Cut="6.3301891326904297e+01" cType="0" res="-9.9000000000000000e+01" rms="0.0000000000000000e+00" purity="3.4944364428520203e-01" nType="0">
          <Node pos="l" depth="2" NCoef="0" IVar="-1" Cut="0.0000000000000000e+00" cType="1" res="-9.9000000000000000e+01" rms="0.0000000000000000e+00" purity="5.5438935756683350e-01" nType="1"/>
          <Node pos="r" depth="2" NCoef="0" IVar="-1" Cut="0.0000000000000000e+00" cType="1" res="-9.9000000000000000e+01" rms="0.0000000000000000e+00" purity="2.8246939182281494e-01" nType="-1"/>
        </Node>
      </Node>
    </BinaryTree>
    <BinaryTree type="DecisionTree" boostWeight="2.1186256756329059e-02" itree="63">
      <Node pos="s" depth="0" NCoef="0" IVar="7" Cut="3.7053848266601562e+01" cType="0" res="-9.9000000000000000e+01" rms="0.0000000000000000e+00" purity="4.7955760359764099e-01" nType="0">
        <Node pos="l" depth="1" NCoef="0" IVar="8" Cut="1.2946008300781250e+02" cType="0" res="-9.9000000000000000e+01" rms="0.0000000000000000e+00" purity="5.1497131586074829e-01" nType="0">
          <Node pos="l" depth="2" NCoef="0" IVar="-1" Cut="0.0000000000000000e+00" cType="1" res="-9.9000000000000000e+01" rms="0.0000000000000000e+00" purity="7.5161075592041016e-01" nType="1"/>
          <Node pos="r" depth="2" NCoef="0" IVar="-1" Cut="0.0000000000000000e+00" cType="1" res="-9.9000000000000000e+01" rms="0.0000000000000000e+00" purity="4.9474447965621948e-01" nType="-1"/>
        </Node>
        <Node pos="r" depth="1" NCoef="0" IVar="5" Cut="1.9530665874481201e+00" cType="1" res="-9.9000000000000000e+01" rms="0.0000000000000000e+00" purity="3.5164895653724670e-01" nType="0">
          <Node pos="l" depth="2" NCoef="0" IVar="-1" Cut="0.0000000000000000e+00" cType="1" res="-9.9000000000000000e+01" rms="0.0000000000000000e+00" purity="5.0854820013046265e-01" nType="1"/>
          <Node pos="r" depth="2" NCoef="0" IVar="-1" Cut="0.0000000000000000e+00" cType="1" res="-9.9000000000000000e+01" rms="0.0000000000000000e+00" purity="2.6768553256988525e-01" nType="-1"/>
        </Node>
      </Node>
    </BinaryTree>
    <BinaryTree type="DecisionTree" boostWeight="3.5525623107903352e-02" itree="64">
      <Node pos="s" depth="0" NCoef="0" IVar="7" Cut="3.7053848266601562e+01" cType="0" res="-9.9000000000000000e+01" rms="0.0000000000000000e+00" purity="4.8339059948921204e-01" nType="0">
        <Node pos="l" depth="1" NCoef="0" IVar="8" Cut="5.9592765808105469e+01" cType="0" res="-9.9000000000000000e+01" rms="0.0000000000000000e+00" purity="5.1945406198501587e-01" nType="0">
          <Node pos="l" depth="2" NCoef="0" IVar="-1" Cut="0.0000000000000000e+00" cType="1" res="-9.9000000000000000e+01" rms="0.0000000000000000e+00" purity="5.9466195106506348e-01" nType="1"/>
          <Node pos="r" depth="2" NCoef="0" IVar="-1" Cut="0.0000000000000000e+00" cType="1" res="-9.9000000000000000e+01" rms="0.0000000000000000e+00" purity="4.5890763401985168e-01" nType="-1"/>
        </Node>
        <Node pos="r" depth="1" NCoef="0" IVar="9" Cut="6.3301891326904297e+01" cType="0" res="-9.9000000000000000e+01" rms="0.0000000000000000e+00" purity="3.5277381539344788e-01" nType="0">
          <Node pos="l" depth="2" NCoef="0" IVar="-1" Cut="0.0000000000000000e+00" cType="1" res="-9.9000000000000000e+01" rms="0.0000000000000000e+00" purity="5.4785728454589844e-01" nType="1"/>
          <Node pos="r" depth="2" NCoef="0" IVar="-1" Cut="0.0000000000000000e+00" cType="1" res="-9.9000000000000000e+01" rms="0.0000000000000000e+00" purity="2.8881576657295227e-01" nType="-1"/>
        </Node>
      </Node>
    </BinaryTree>
    <BinaryTree type="DecisionTree" boostWeight="3.4757311841449028e-02" itree="65">
      <Node pos="s" depth="0" NCoef="0" IVar="7" Cut="3.7053848266601562e+01" cType="0" res="-9.9000000000000000e+01" rms="0.0000000000000000e+00" purity="4.8507866263389587e-01" nType="0">
        <Node pos="l" depth="1" NCoef="0" IVar="15" Cut="-8.3168798685073853e-01" cType="0" res="-9.9000000000000000e+01" rms="0.0000000000000000e+00" purity="5.2047210931777954e-01" nType="0">
          <Node pos="l" depth="2" NCoef="0" IVar="-1" Cut="0.0000000000000000e+00" cType="1" res="-9.9000000000000000e+01" rms="0.0000000000000000e+00" purity="5.6539285182952881e-01" nType="1"/>
          <Node pos="r" depth="2" NCoef="0" IVar="-1" Cut="0.0000000000000000e+00" cType="1" res="-9.9000000000000000e+01" rms="0.0000000000000000e+00" purity="4.2196258902549744e-01" nType="-1"/>
        </Node>
        <Node pos="r" depth="1" NCoef="0" IVar="5" Cut="1.9530665874481201e+00" cType="1" res="-9.9000000000000000e+01" rms="0.0000000000000000e+00" purity="3.5640144348144531e-01" nType="0">
          <Node pos="l" depth="2" NCoef="0" IVar="-1" Cut="0.0000000000000000e+00" cType="1" res="-9.9000000000000000e+01" rms="0.0000000000000000e+00" purity="5.0436848402023315e-01" nType="1"/>
          <Node pos="r" depth="2" NCoef="0" IVar="-1" Cut="0.0000000000000000e+00" cType="1" res="-9.9000000000000000e+01" rms="0.0000000000000000e+00" purity="2.7672722935676575e-01" nType="-1"/>
        </Node>
      </Node>
    </BinaryTree>
    <BinaryTree type="DecisionTree" boostWeight="2.9472957571335331e-02" itree="66">
      <Node pos="s" depth="0" NCoef="0" IVar="12" Cut="8.8018890380859375e+01" cType="1" res="-9.9000000000000000e+01" rms="0.0000000000000000e+00" purity="4.8304909467697144e-01" nType="0">
        <Node pos="l" depth="1" NCoef="0" IVar="13" Cut="1.2084928131103516e+02" cType="0" res="-9.9000000000000000e+01" rms="0.0000000000000000e+00" purity="5.1477348804473877e-01" nType="0">
          <Node pos="l" depth="2" NCoef="0" IVar="-1" Cut="0.0000000000000000e+00" cType="1" res="-9.9000000000000000e+01" rms="0.0000000000000000e+00" purity="5.2891010046005249e-01" nType="1"/>
          <Node pos="r" depth="2" NCoef="0" IVar="-1" Cut="0.0000000000000000e+00" cType="1" res="-9.9000000000000000e+01" rms="0.0000000000000000e+00" purity="1.1856414377689362e-01" nType="-1"/>
        </Node>
        <Node pos="r" depth="1" NCoef="0" IVar="12" Cut="1.0056787872314453e+02" cType="0" res="-9.9000000000000000e+01" rms="0.0000000000000000e+00" purity="3.4359920024871826e-01" nType="0">
          <Node pos="l" depth="2" NCoef="0" IVar="-1" Cut="0.0000000000000000e+00" cType="1" res="-9.9000000000000000e+01" rms="0.0000000000000000e+00" purity="5.6838685274124146e-01" nType="1"/>
          <Node pos="r" depth="2" NCoef="0" IVar="-1" Cut="0.0000000000000000e+00" cType="1" res="-9.9000000000000000e+01" rms="0.0000000000000000e+00" purity="1.7884100973606110e-01" nType="-1"/>
        </Node>
      </Node>
    </BinaryTree>
    <BinaryTree type="DecisionTree" boostWeight="2.0366742141810484e-02" itree="67">
      <Node pos="s" depth="0" NCoef="0" IVar="7" Cut="3.7053848266601562e+01" cType="0" res="-9.9000000000000000e+01" rms="0.0000000000000000e+00" purity="4.7762310504913330e-01" nType="0">
        <Node pos="l" depth="1" NCoef="0" IVar="8" Cut="1.2946008300781250e+02" cType="0" res="-9.9000000000000000e+01" rms="0.0000000000000000e+00" purity="5.1166784763336182e-01" nType="0">
          <Node pos="l" depth="2" NCoef="0" IVar="-1" Cut="0.0000000000000000e+00" cType="1" res="-9.9000000000000000e+01" rms="0.0000000000000000e+00" purity="7.3354607820510864e-01" nType="1"/>
          <Node pos="r" depth="2" NCoef="0" IVar="-1" Cut="0.0000000000000000e+00" cType="1" res="-9.9000000000000000e+01" rms="0.0000000000000000e+00" purity="4.9304810166358948e-01" nType="-1"/>
        </Node>
        <Node pos="r" depth="1" NCoef="0" IVar="-1" Cut="8.1413528442382812e+01" cType="1" res="-9.9000000000000000e+01" rms="0.0000000000000000e+00" purity="3.5379382967948914e-01" nType="-1"/>
      </Node>
    </BinaryTree>
    <BinaryTree type="DecisionTree" boostWeight="2.7395989045027547e-02" itree="68">
      <Node pos="s" depth="0" NCoef="0" IVar="7" Cut="3.7053848266601562e+01" cType="0" res="-9.9000000000000000e+01" rms="0.0000000000000000e+00" purity="4.8208558559417725e-01" nType="0">
        <Node pos="l" depth="1" NCoef="0" IVar="13" Cut="4.1756384277343750e+02" cType="1" res="-9.9000000000000000e+01" rms="0.0000000000000000e+00" purity="5.1598787307739258e-01" nType="0">
          <Node pos="l" depth="2" NCoef="0" IVar="-1" Cut="0.0000000000000000e+00" cType="1" res="-9.9000000000000000e+01" rms="0.0000000000000000e+00" purity="5.3469812870025635e-01" nType="1"/>
          <Node pos="r" depth="2" NCoef="0" IVar="-1" Cut="0.0000000000000000e+00" cType="1" res="-9.9000000000000000e+01" rms="0.0000000000000000e+00" purity="2.9829224944114685e-01" nType="-1"/>
        </Node>
        <Node pos="r" depth="1" NCoef="0" IVar="-1" Cut="8.1413528442382812e+01" cType="1" res="-9.9000000000000000e+01" rms="0.0000000000000000e+00" purity="3.5846590995788574e-01" nType="-1"/>
      </Node>
    </BinaryTree>
    <BinaryTree type="DecisionTree" boostWeight="3.0041206531561927e-02" itree="69">
      <Node pos="s" depth="0" NCoef="0" IVar="10" Cut="5.5568260192871094e+01" cType="0" res="-9.9000000000000000e+01" rms="0.0000000000000000e+00" purity="4.7899836301803589e-01" nType="0">
        <Node pos="l" depth="1" NCoef="0" IVar="13" Cut="3.6666033935546875e+02" cType="1" res="-9.9000000000000000e+01" rms="0.0000000000000000e+00" purity="6.1237269639968872e-01" nType="0">
          <Node pos="l" depth="2" NCoef="0" IVar="-1" Cut="0.0000000000000000e+00" cType="1" res="-9.9000000000000000e+01" rms="0.0000000000000000e+00" purity="6.6665029525756836e-01" nType="1"/>
          <Node pos="r" depth="2" NCoef="0" IVar="-1" Cut="0.0000000000000000e+00" cType="1" res="-9.9000000000000000e+01" rms="0.0000000000000000e+00" purity="3.0068951845169067e-01" nType="-1"/>
        </Node>
        <Node pos="r" depth="1" NCoef="0" IVar="-1" Cut="2.6778879165649414e+00" cType="1" res="-9.9000000000000000e+01" rms="0.0000000000000000e+00" purity="4.4799408316612244e-01" nType="-1"/>
      </Node>
    </BinaryTree>
    <BinaryTree type="DecisionTree" boostWeight="4.0359862711026082e-02" itree="70">
      <Node pos="s" depth="0" NCoef="0" IVar="12" Cut="8.8018890380859375e+01" cType="1" res="-9.9000000000000000e+01" rms="0.0000000000000000e+00" purity="4.8407647013664246e-01" nType="0">
        <Node pos="l" depth="1" NCoef="0" IVar="16" Cut="1.7606540918350220e+00" cType="1" res="-9.9000000000000000e+01" rms="0.0000000000000000e+00" purity="5.1441603899002075e-01" nType="0">
          <Node pos="l" depth="2" NCoef="0" IVar="-1" Cut="0.0000000000000000e+00" cType="1" res="-9.9000000000000000e+01" rms="0.0000000000000000e+00" purity="5.7305389642715454e-01" nType="1"/>
          <Node pos="r" depth="2" NCoef="0" IVar="-1" Cut="0.0000000000000000e+00" cType="1" res="-9.9000000000000000e+01" rms="0.0000000000000000e+00" purity="4.2124590277671814e-01" nType="-1"/>
        </Node>
        <Node pos="r" depth="1" NCoef="0" IVar="12" Cut="1.0056787872314453e+02" cType="0" res="-9.9000000000000000e+01" rms="0.0000000000000000e+00" purity="3.4907904267311096e-01" nType="0">
          <Node pos="l" depth="2" NCoef="0" IVar="-1" Cut="0.0000000000000000e+00" cType="1" res="-9.9000000000000000e+01" rms="0.0000000000000000e+00" purity="5.6658214330673218e-01" nType="1"/>
          <Node pos="r" depth="2" NCoef="0" IVar="-1" Cut="0.0000000000000000e+00" cType="1" res="-9.9000000000000000e+01" rms="0.0000000000000000e+00" purity="1.8760497868061066e-01" nType="-1"/>
        </Node>
      </Node>
    </BinaryTree>
    <BinaryTree type="DecisionTree" boostWeight="2.7907911647704842e-02" itree="71">
      <Node pos="s" depth="0" NCoef="0" IVar="9" Cut="1.5663570404052734e+01" cType="0" res="-9.9000000000000000e+01" rms="0.0000000000000000e+00" purity="4.8240944743156433e-01" nType="0">
        <Node pos="l" depth="1" NCoef="0" IVar="4" Cut="2.5013406276702881e+00" cType="1" res="-9.9000000000000000e+01" rms="0.0000000000000000e+00" purity="5.1006752252578735e-01" nType="0">
          <Node pos="l" depth="2" NCoef="0" IVar="-1" Cut="0.0000000000000000e+00" cType="1" res="-9.9000000000000000e+01" rms="0.0000000000000000e+00" purity="5.3419572114944458e-01" nType="1"/>
