
    // Select all (Ctrl+A), Copy (Ctrl+C), paste to an empty text file (Ctrl+V) and save that file as 'generated_code.h'
    // 
    // Auto-generated header file. Assumes img to be a floating point array
    // of 64 elements (corresponding to an 8x8 b&w image)

    #include <math.h>

    float norma;
    
inline float activation_0 (float x, float n) 
{ return x > 0 ? x : 0;}
inline float activation_1 (float x, float n) 
{ return x > 0 ? x : 0;}
inline float activation_2 (float x, float n) 
{ return x > 0 ? x : 0;}
inline float activation_3 (float x, float n) 
{ return exp(x)/n;  }

    float guess_digit (const float *img, int flag)
    {
    
  // Declare the arrays in the stack
  const float kernel_0[22][240] = 
  {{   0.0227051731199,  -0.0934346094728,  -0.1146108806133,  -0.1449674665928,  -0.1332151442766,  -0.0079880598933,  -0.0927654504776,  -0.1459759771824,  -0.0820330977440,  -0.1491227000952,   0.0304422602057,  -0.0152909951285,  -0.0937855094671,  -0.0784483477473,  -0.1179662123322,  -0.1832423210144,   0.0229347180575,  -0.0861726179719,   0.0109010953456,   0.0570289529860,   0.0007373789558,  -0.0654238387942,  -0.2425117641687,   0.0284287687391,   0.0407953746617,  -0.0776632651687,  -0.0678665935993,  -0.0006164344377,   0.0115136289969,   0.0034277339000,  -0.0623750947416,   0.0286711826921,  -0.1092777326703,  -0.0354520902038,  -0.0096814241260,  -0.0583361797035,   0.0360314361751,   0.0082090506330,   0.0017455434427,  -0.0405865348876,   0.0398109555244,  -0.2491470277309,   0.0301714874804,   0.0478141903877,  -0.0020407421980,  -0.1908388584852,  -0.1435257941484,  -0.0002945550077,   0.0354128107429,   0.0302568301558,   0.0425197333097,   0.0600513480604,  -0.0019381571328,  -0.0456609986722,  -0.0016924524680,  -0.0042774984613,  -0.0413234829903,  -0.0148765994236,  -0.0648089945316,   0.0062495558523,  -0.0810854062438,   0.0247679017484,   0.0081427004188,  -0.0028881535400,   0.0276927575469,   0.0061544701457,  -0.0243255291134,  -0.0000216096050,  -0.0823439508677,  -0.1039647310972,  -0.2732483446598,  -0.0370146296918,   0.0261747352779,  -0.1708024591208,   0.0126619795337,  -0.0381309203804,  -0.0022085011005,   0.0231602285057,  -0.1090757921338,  -0.0042322427034,  -0.0371373444796,  -0.0092321252450,  -0.1303872019053,   0.0060626808554,  -0.1321639716625,   0.0014694691636,  -0.2652986049652,   0.0004927909467,  -0.0571720004082,   0.0173628963530,   0.0136051066220,  -0.0732125565410,  -0.0109331151471,  -0.0261163860559,   0.0386389903724,  -0.1197902411222,  -0.0856731757522,  -0.0893649235368,   0.0032425606623,   0.0211629271507,  -0.0771642550826,   0.0222376044840,  -0.1150086522102,   0.0152352591977,  -0.0703557208180,   0.0059005143121,   0.0272219534963,   0.0427396893501,   0.0024204442743,  -0.0906968712807,  -0.0121426964179,  -0.0717826113105,  -0.0101491808891,   0.0358651801944,  -0.1473570019007,   0.0281373299658,   0.0535102374852,  -0.0809003338218,   0.0364541076124,  -0.0428859256208,   0.0117360614240,  -0.0643545538187,   0.0266665630043,   0.0058908588253,  -0.1023444458842,  -0.1199973300099,   0.0340723246336,   0.0375167317688,   0.0007653509965,  -0.1072017550468,   0.0048627275974,  -0.0077836252749,  -0.0065602697432,   0.0019659220707,  -0.1068227589130,  -0.1473348736763,   0.0176775474101,   0.0050123170950,   0.0402556173503,   0.0281060412526,   0.0457915142179,   0.0424876622856,   0.0314743556082,   0.0173008665442,   0.0210184566677,  -0.1056483089924,   0.0386059060693,  -0.0204687714577,  -0.1361869424582,  -0.0304141007364,   0.0286528505385,   0.0115471202880,  -0.0655933842063,  -0.0210069045424,  -0.0774917155504,   0.0148293990642,  -0.1038413122296,   0.0650783330202,  -0.0019764131866,   0.0393767766654,  -0.0099221812561,  -0.0217735134065,   0.0102657424286,  -0.0320078022778,   0.0207201521844,  -0.0875498205423,   0.0238296315074,  -0.0037877799477,   0.0116893704981,  -0.0389204211533,   0.0064152861014,  -0.0450492240489,   0.0200248658657,  -0.1116969585419,   0.0012448101770,   0.0029529449530,   0.0080515332520,   0.0507265031338,  -0.0827461481094,  -0.0928555950522,   0.0470821857452,   0.0155214071274,  -0.0635601058602,  -0.1512201428413,  -0.0112088387832,  -0.0923799201846,  -0.0512839630246,   0.0401844605803,   0.0310142338276,  -0.0836025550961,  -0.0267562437803,   0.0446847379208,   0.0092119304463,   0.0133193153888,   0.0138132739812,  -0.2092182636261,  -0.0380989201367,   0.0186251997948,   0.0453877747059,  -0.0250610411167,  -0.2027113139629,   0.0265766810626,   0.0083262734115,  -0.0158906858414,   0.0147991646081,   0.0008166677435,   0.0422933064401,   0.0173587296158,  -0.1028094440699,   0.0055943126790,  -0.0936703532934,  -0.0338545851409,  -0.0855964198709,  -0.0016446991358,   0.0626709461212,  -0.1308365762234,  -0.0316500142217,  -0.0459518171847,  -0.1246332526207,  -0.0058002807200,  -0.2362997680902,   0.0639240667224,   0.0004784143239,   0.0144099546596,  -0.0170726254582,  -0.0619025826454,  -0.0114748142660,   0.0514594912529,   0.0204148907214,   0.0135388169438,   0.0036445090082,  -0.0072989496402,  -0.0722396075726,   0.0709584131837,  -0.0005843285471,  -0.0104467272758,   0.0067887664773,  -0.0424801744521,  -0.0281004272401,  -0.0946473777294},
   {   0.0154077643529,   0.1467659771442,  -0.0077698836103,  -0.1119480654597,   0.1445718705654,   0.1512276381254,  -0.1411269903183,   0.1043998226523,  -0.1571221649647,   0.0869653299451,  -0.0900492295623,   0.1499245315790,  -0.3582710325718,   0.1004857420921,   0.0883018448949,  -0.0304959733039,  -0.0820440277457,   0.0268081985414,   0.0244104657322,  -0.0115502141416,  -0.0199628546834,  -0.0412962846458,  -0.0693818703294,   0.0677249655128,   0.0799795687199,  -0.0247977860272,  -0.0081115001813,  -0.0793336033821,   0.1264585256577,   0.0525939166546,  -0.1544301509857,  -0.0012724995613,   0.1481742560863,  -0.2679098248482,   0.0147121641785,  -0.0523247495294,   0.0447723567486,  -0.0387320630252,  -0.0167925376445,  -0.1301310211420,   0.0292576607317,  -0.3461000621319,  -0.1010546684265,  -0.0987299606204,   0.0651364699006,   0.0339566916227,   0.0365501232445,   0.0775005295873,   0.0430243685842,   0.0215044151992,   0.0257632173598,  -0.1699718087912,  -0.1182459890842,  -0.2431251555681,   0.0600602701306,   0.1020551472902,  -0.0449533276260,   0.0969800949097,  -0.0925814211369,  -0.0494551323354,   0.0168304014951,   0.0768300145864,   0.1513507217169,  -0.2176490724087,  -0.0389492623508,   0.0141793461516,   0.0975034460425,  -0.0197834018618,   0.0507240667939,   0.0182567164302,   0.0886559635401,   0.0893300697207,   0.0880008637905,   0.1437063068151,  -0.0196496993303,  -0.0239407084882,  -0.1302355676889,  -0.0550082847476,  -0.0286541767418,   0.0311514176428,  -0.0360723175108,   0.0127632254735,  -0.0215045437217,  -0.0086374543607,  -0.4473529458046,   0.0803679227829,   0.1666168421507,   0.0254173371941,  -0.1134972274303,   0.0652017295361,  -0.2017290443182,  -0.0580049343407,   0.0131155913696,   0.0149500668049,  -0.1282172501087,   0.1306223422289,  -0.2428113818169,  -0.0747102499008,  -0.0959520041943,   0.0511691272259,   0.0435220450163,  -0.2224022299051,  -0.5342770218849,  -0.0014392712619,   0.0760733634233,   0.0680518001318,  -0.0128971720114,   0.0826668515801,  -0.0300131104887,   0.0035391903948,  -0.0140741551295,  -0.0297932922840,   0.0172387529165,  -0.0567589141428,  -0.5834621191025,  -0.0794752463698,  -0.0945036858320,   0.0154967913404,   0.0191865973175,  -0.0117637990043,   0.0318067520857,  -0.0093161109835,  -0.0462541803718,  -0.0275131613016,   0.0781349167228,   0.1551128029823,  -0.0312366131693,  -0.0067188777030,  -0.3387044370174,  -0.0370943844318,  -0.1325354278088,   0.0571771748364,  -0.0500855743885,   0.0662651881576,   0.0590458698571,  -0.0922676548362,   0.0498134493828,  -0.0055832024664,  -0.3163484334946,   0.1039968580008,   0.0037659101654,   0.0721986144781,   0.0665038228035,  -0.1158025041223,  -0.0388518013060,   0.1347168684006,   0.0321412496269,  -0.0930103510618,   0.2021553069353,  -0.0234039518982,  -0.1166908591986,  -0.0272230673581,   0.0559293143451,   0.1932042390108,  -0.0774535983801,   0.0103624900803,  -0.0421493425965,   0.0185825880617,   0.0479390546679,  -0.3104964196682,  -0.0485513210297,  -0.0669177174568,  -0.0174317192286,  -0.4189454317093,  -0.1115375980735,  -0.0692365616560,  -0.0996698513627,   0.0657884329557,  -0.0221174899489,  -0.0668632015586,  -0.1196349933743,   0.0619991384447,  -0.0902329385281,  -0.3432857990265,   0.0039213346317,  -0.0656308680773,  -0.3303426802158,  -0.1382028758526,  -0.0626623854041,  -0.2013697922230,  -0.1137382313609,  -0.0265145488083,   0.0676654800773,   0.0956646949053,   0.0794117152691,  -0.1419495344162,  -0.0553160496056,  -0.0829247310758,  -0.3498735725880,  -0.1911815553904,   0.1083498075604,  -0.0675990208983,   0.0507975257933,  -0.1531390696764,   0.1318427026272,   0.0876603573561,   0.0073644313961,   0.0798228606582,  -0.0648445785046,  -0.0465165935457,   0.0879228338599,   0.1330774724483,   0.0675831660628,   0.1285836696625,  -0.0000912085088,  -0.1169461309910,  -0.1300668716431,  -0.0298574529588,   0.0728962346911,  -0.0397813804448,   0.0829109176993,  -0.0259552411735,  -0.0223822630942,  -0.1554858833551,   0.0759237706661,  -0.0344019308686,  -0.1264668256044,   0.1220207959414,   0.0096316058189,   0.0573766306043,   0.1235719397664,   0.0763023272157,   0.0070364167914,   0.1183539330959,   0.0197564344853,  -0.0164755359292,   0.0495498776436,  -0.0774710178375,   0.0322451218963,  -0.0294852275401,   0.0245146211237,  -0.0046538719907,   0.0683533698320,   0.1440869718790,  -0.0204320736229,  -0.0193462762982,   0.0026575296652,   0.0850359871984,  -0.1248741075397,  -0.1835996359587},
   {  -0.0033206578810,   0.0939177274704,  -0.1210903599858,   0.1408967226744,   0.0936884433031,  -0.0399895422161,  -0.0551832020283,  -0.0345098413527,   0.0073726088740,   0.1064630150795,   0.0829918086529,  -0.0327593497932,   0.1910023838282,  -0.0556970462203,   0.1113788187504,   0.1883958727121,  -0.0769616290927,  -0.0792157277465,   0.1088912412524,  -0.0171097274870,  -0.0034037702717,   0.1209617257118,   0.0523576661944,  -0.0093155177310,   0.0651520118117,  -0.0566884875298,   0.0162341091782,  -0.1037950739264,   0.0486389920115,   0.0290493555367,   0.0039367792197,  -0.0994274318218,   0.1336856633425,   0.1132342070341,   0.0712356045842,   0.1033375188708,   0.0021276029292,  -0.0052828979678,   0.0711768865585,   0.0918546468019,  -0.0551197938621,   0.1061155945063,   0.0912264510989,  -0.0149182602763,  -0.0857026875019,  -0.1261191070080,   0.0932565256953,   0.0272330623120,  -0.0006735377829,  -0.0900159254670,   0.0632467567921,  -0.1345873177052,   0.0829017311335,  -0.1069709360600,  -0.0071628359146,  -0.1238687410951,   0.0848303884268,  -0.0598408579826,  -0.0123328529298,   0.0734926387668,  -0.0147718880326,  -0.0355351753533,   0.0968260243535,  -0.0058736624196,   0.0625720024109,   0.0260063074529,  -0.0239843074232,   0.0002447661245,  -0.0268119145185,  -0.1213115751743,  -0.0668761208653,  -0.1408398747444,  -0.0176814794540,   0.0526512823999,   0.0330588743091,  -0.0929374992847,   0.0125677697361,   0.1076091974974,  -0.0538188554347,  -0.1692730784416,  -0.0505468994379,   0.0865684822202,   0.0587245710194,   0.0122598214075,   0.0055227801204,  -0.0381166785955,   0.1956351250410,  -0.0668180808425,  -0.0315137356520,  -0.0393134765327,   0.0710000172257,  -0.0975996255875,  -0.1506835371256,  -0.0514823272824,   0.0160029046237,   0.0544952303171,   0.1542128622532,  -0.0223899576813,  -0.0038679908030,  -0.0027297860943,  -0.0808296725154,  -0.1219732016325,   0.0192752890289,   0.0836976692080,   0.0180100705475,   0.0668346807361,  -0.0068780016154,   0.0537196435034,  -0.0563012622297,   0.0514340922236,   0.1819328069687,  -0.1502308994532,   0.0447015129030,  -0.1661811619997,   0.1346427202225,  -0.0918853133917,   0.0040491544642,   0.0954597070813,  -0.0126206167042,  -0.1858275979757,  -0.0092275943607,   0.1248118132353,  -0.0485144071281,   0.0094968089834,   0.1166288629174,   0.1677737534046,  -0.0454349890351,  -0.3508426547050,   0.0948719680309,  -0.0907615199685,   0.0724170953035,   0.0399271808565,   0.1243922784925,  -0.1846603453159,  -0.0448340959847,   0.1700825989246,   0.0671659857035,  -0.2045806348324,  -0.0063038310036,  -0.0958905071020,  -0.0720716565847,   0.0518904924393,  -0.3919983804226,  -0.0816836282611,  -0.0838632360101,   0.0606971569359,   0.0544579699636,   0.0875174179673,  -0.0248694606125,   0.0397687517107,  -0.0087398700416,  -0.0839988067746,   0.0462770760059,  -0.0041551217437,  -0.0214915573597,  -0.0027298908681,   0.0479672141373,   0.0167032293975,   0.0134020019323,  -0.0627559795976,  -0.0535947829485,   0.0932056233287,   0.0485186874866,   0.0962847918272,  -0.0521914139390,  -0.0439606644213,   0.0416878201067,  -0.1052259281278,  -0.2576402127743,  -0.0562112815678,  -0.1456592530012,   0.0350769385695,   0.0939112305641,  -0.1505174189806,  -0.0438585020602,  -0.0134003050625,  -0.3004536628723,  -0.0082213692367,   0.1135957911611,   0.0416635461152,  -0.0283032413572,  -0.4626289606094,   0.1911432147026,  -0.0475172251463,   0.1311018764973,   0.0516839288175,  -0.0902196317911,   0.0244695395231,   0.0731641426682,  -0.1365087926388,  -0.0563284829259,  -0.1829026788473,  -0.1334410309792,   0.1150049641728,  -0.0518991760910,  -0.0389535762370,   0.1361046880484,  -0.0735686346889,   0.0010537341004,  -0.0267939362675,   0.0735190883279,  -0.0815834328532,   0.0280544273555,   0.0826310142875,   0.1296606808901,  -0.0684414133430,  -0.0212426409125,  -0.0837864950299,   0.0851325914264,   0.0131379496306,   0.0504205003381,   0.0315763093531,   0.0917849689722,   0.0317557230592,  -0.0620424933732,  -0.2323537468910,  -0.1083588004112,  -0.0013005316723,   0.0291228480637,  -0.0180698297918,  -0.1047654300928,  -0.1475632637739,   0.0787161663175,  -0.0104862358421,   0.1714346408844,  -0.1125563830137,   0.0494832620025,   0.0375276692212,  -0.0764506757259,   0.1026727557182,   0.1553451716900,   0.0188546292484,   0.0091573446989,  -0.0925348922610,  -0.0237219054252,  -0.0541483499110,  -0.0900012254715,  -0.0165076386184,  -0.1028028056026,   0.0154514759779},
   {  -0.2990835905075,   0.0424989052117,  -0.0698651373386,   0.0559860393405,  -0.1232804358006,   0.5648036003113,  -0.2874492108822,   0.0936999842525,  -0.3080617785454,  -0.1055313199759,   0.1222179904580,   0.3313553631306,   0.1038619801402,   0.0658440515399,   0.0018188827671,  -0.0569968111813,  -0.3870140612125,  -0.1688949763775,  -0.1609837710857,  -0.4242681562901,   0.4294480681419,  -0.1305587291718,  -0.4339647293091,   0.0370610505342,   0.2043086439371,  -0.1397468745708,   0.0506393164396,   0.1106086075306,  -0.9796274900436,   0.2987223565578,   0.0628690868616,   0.2071947008371,   0.2419721633196,  -0.0900124087930,   0.7158349156380,   0.2554716169834,   0.1672379970551,  -0.7131270170212,  -0.3926928043365,  -0.1415017396212,  -0.2701494991779,  -0.0859372690320,  -0.2185803204775,  -0.1744089275599,  -0.3878159523010,  -0.7242893576622,  -0.2146713882685,  -0.1572797447443,   0.2898098528385,  -0.0298291184008,   0.0528117977083,  -0.1520034372807,   0.2474505603313,  -0.2402736842632,  -0.1197312623262,  -0.3246285915375,  -0.0401771366596,  -0.5637965798378,   0.1071904674172,  -0.4387039840221,  -0.0674765780568,   0.5092825889587,  -1.0264929533005,  -0.0085364524275,   0.5155713558197,   0.4619383513927,  -0.0330904908478,   0.3114046156406,   0.0559119284153,  -0.0754565075040,  -0.0329957120121,  -0.2961362600327,  -0.2535645961761,  -0.2909392714500,  -0.9192580580711,  -0.1129103526473,   0.9906533956528,   0.6821186542511,   0.0246029775590,  -0.0124825555831,   0.2628821134567,   0.0605371333659,   0.0245176833123,  -0.5052195787430,   0.0119803175330,   0.1514872908592,  -0.0226512122899,  -0.1225517839193,  -0.1097364053130,   0.6848776936531,   0.8542025089264,  -0.0746088251472,  -0.5832457542419,  -0.0286244750023,   0.5680205821991,  -0.0457063764334,  -0.1891754269600,   0.0793590694666,   0.5222629904747,  -0.0224040243775,  -0.0003090485116,  -0.2528698146343,  -0.2780053019524,  -0.1409276127815,   0.2107806950808,  -0.1147901788354,   0.1220919340849,   0.4813686609268,   1.0445215702057,   0.0432307161391,   0.9047451019287,   0.1723329275846,   0.2375732809305,  -0.0428614467382,  -0.0403946116567,  -0.3086229562759,   0.3780108392239,   0.0280035827309,  -0.1910544186831,  -0.3325955271721,  -1.3061366081238,  -0.4798676073551,  -0.4479305446148,  -0.0229571852833,  -0.0519950315356,  -0.7413904666901,  -0.7658300399780,  -0.3839437663555,  -0.3537684082985,   0.0464887693524,   1.0113635063171,  -0.3263297677040,  -0.0246400926262,  -0.1333273500204,   0.0113672241569,  -0.0874231755733,   0.7525703907013,  -0.7522242069244,   0.4874727129936,  -0.0900371968746,  -0.0722151175141,  -0.6743834614754,  -0.4011449217796,  -0.4070966243744,  -0.3074989616871,   0.0695977658033,  -0.8320889472961,   0.3655225038528,   0.0401180200279,  -0.0694880113006,   0.4678085148335,  -0.2774935960770,  -0.0613108612597,  -0.4739037156105,  -0.0061349603347,  -0.1957947015762,   0.0158091709018,  -0.2517212927341,  -0.3777221739292,  -0.0139229223132,  -0.0350910313427,  -0.2208514213562,  -0.6197756528854,   0.1383196115494,  -0.1490253806114,  -0.1923573464155,   0.3253859877586,   0.3685791790485,  -0.2572427392006,   0.0265848040581,  -0.0608939342201,  -0.0021638206672,   0.5654292702675,   0.0874430909753,   0.0925397276878,   0.3591938912868,   0.0896514132619,   0.3811543881893,   0.0741121619940,  -0.1538019329309,  -0.7778363227844,  -0.3061031103134,  -0.1653871238232,  -0.0026287396904,   0.0957195162773,  -0.0923818051815,   0.0259761828929,   0.4576832354069,   0.3522023856640,  -0.0463897809386,  -0.0140854828060,  -0.2087503224611,  -0.4467839896679,   0.5338202118874,   0.3180047869682,  -0.3209517598152,  -0.0418053343892,  -0.1633595675230,   0.7819074392319,   0.0145459249616,  -0.2218205481768,  -0.4657053053379,   0.1498551517725,  -0.1459272056818,  -0.0579289123416,   0.2726853787899,   0.3998889923096,   0.1493261903524,  -0.6228050589561,  -0.4024264216423,   0.0475212633610,   0.0203768778592,   0.0577751472592,  -0.3572205603123,   0.7587776184082,  -0.2138866335154,  -0.3339033126831,   0.0279892887920,   0.1290348023176,  -0.3878012895584,  -0.8553056120872,  -0.1360311806202,   0.4045848250389,  -0.5799514651299,  -0.0384280793369,   0.0658492445946,  -0.2285932153463,   0.6203771233559,  -0.6019996404648,  -0.4617208540440,   0.3605362474918,   0.3425989747047,  -0.0809946358204,  -0.2881453633308,   0.8998777866364,  -0.0021248669364,  -0.3163754642010,  -0.1072811186314,   0.0761214047670,   0.1433764398098},
   {   0.0211696457118,  -0.4676979482174,   0.0955990105867,   0.0268733315170,  -0.1239375025034,   0.6053456068039,   0.0746722295880,   0.1495643258095,   0.1037152484059,  -0.1948382854462,   0.1184815242887,   0.6164657473564,  -0.2799403071404,  -0.0095758372918,  -0.1821992844343,  -0.3933150768280,  -0.3722254037857,  -0.0379106290638,   0.3406627774239,  -0.0329416505992,  -0.0130699733272,  -0.3902589082718,   0.0054052318446,   0.3079801797867,  -0.1730574369431,   0.0449008159339,  -0.0985536202788,  -0.0312083400786,  -0.3151050806046,  -0.1813085675240,  -0.1288467943668,   0.2441255748272,   0.0048447274603,   0.1106369867921,   0.4991339743137,  -0.0568615943193,  -0.1074812337756,   0.2436292767525,  -0.2377038151026,  -0.0828783884645,   0.2856099605560,   0.1753022372723,  -0.2782807052135,  -1.0493456125259,   0.0709560513496,   0.3172454833984,   0.3038155138493,  -0.0466021485627,   0.0724271833897,  -0.2580164074898,  -0.0553076751530,  -0.4589195549488,  -0.3115039169788,   0.1173769757152,  -0.1467641890049,   0.0658941566944,  -0.0547790601850,  -0.8799874186516,  -0.0085366601124,  -0.4707121849060,   0.0469892844558,   0.3109864294529,  -0.5975310802460,   0.3225354254246,   0.1483962237835,   0.1685431003571,   0.0135926222429,  -0.2802825570107,   0.0071428045630,   0.0091188931838,   0.3223636150360,  -0.4935190379620,   0.0964025408030,  -0.1731995791197,  -0.5490812063217,   0.1267699301243,   0.3092330396175,   0.1620161533356,   0.0398957468569,  -0.0146735357121,   0.1128579527140,  -0.2904881834984,  -0.0691654756665,  -0.0066377338953,  -0.2688131928444,   0.0411229617894,  -0.2056494355202,  -0.1424118578434,   0.0685727298260,   0.4921889901161,   0.5054154396057,  -0.1264869123697,   0.2110871076584,  -0.0230166483670,   0.0835292115808,   0.0978790894151,  -0.2068850398064,   0.0785252526402,   0.1733237653971,  -0.1722295582294,   0.0608345419168,  -0.4363983273506,  -0.3932990729809,   0.2548834383488,   0.0677234828472,  -0.3518142700195,  -0.0471760556102,   0.4820472598076,   0.7671095132828,   0.0919955521822,   0.3669917583466,   0.2630993425846,   0.2359797507524,   0.1027948558331,  -0.1756334602833,  -0.1797992587090,  -0.0099999802187,  -0.0261044502258,   0.0913008451462,  -0.4563485383987,  -0.6054858565331,  -0.3406438231468,   0.0323694311082,   0.0707265213132,  -0.0759971141815,  -0.9199429154396,  -0.3318663835526,  -0.2229721397161,  -0.6275185942650,   0.0402655825019,   0.2597240209579,   0.1125165298581,  -0.2387308031321,   0.0809964612126,  -0.0208755545318,  -0.1154386624694,   0.5591856837273,  -0.4694486856461,   0.6419199705124,  -0.2447600364685,  -0.3368205428123,  -0.1722584515810,  -0.1064628437161,  -0.5605832338333,  -0.5597310662270,   0.2309018224478,  -0.4771083295345,  -0.1789259314537,   0.0849686563015,  -0.3766274750233,  -0.0670840293169,  -0.3235593438148,  -0.0004582569236,   0.4293600022793,  -0.0247967187315,   0.0374221131206,   0.3673551082611,   0.2570019364357,   0.1186191588640,  -0.0924923047423,   0.3453069031239,   0.3820160329342,  -0.2606178820133,  -0.3297849297523,  -0.0061096828431,   0.1593779772520,   0.2271770536900,   0.3183807432652,   0.0363767407835,   0.0080823805183,  -0.1552798599005,   0.1740662902594,   0.2830167710781,   0.1400320380926,  -0.0386274755001,   0.0446843728423,  -0.1126716062427,   0.3463511765003,   0.0027111098170,  -0.2771804630756,  -0.5503042936325,  -0.2766549289227,  -0.4034527242184,  -0.1027965322137,   0.0004341159947,   0.0809578746557,  -0.0294768977910,   0.3361055850983,   0.0049462039024,  -0.2295014858246,   0.1479298323393,  -0.1366005986929,  -0.2605776786804,   0.2093565165997,   0.0156245715916,   0.0140547538176,  -0.0997587367892,  -0.4114074707031,   0.4606822431087,   0.5948156714439,   0.5155370831490,   0.0166462417692,   0.0663023963571,  -0.3227502703667,  -0.2793011665344,   0.2471876144409,   0.0981166511774,   0.4418865740299,  -0.2583765983582,  -0.1234996765852,   0.0627326667309,   0.1127633601427,   0.0377906300128,  -0.2193011939526,   0.3285497128963,  -0.3535409867764,   0.2899645864964,   0.1929090172052,  -0.0066444785334,  -0.1198973730206,  -0.0384815856814,  -0.1886656433344,  -0.2847710549831,  -0.6508335471153,  -0.2455056756735,   0.2483108192682,  -0.5590673685074,   0.2601512372494,  -0.0963369756937,  -0.2870098352432,  -0.0895424261689,   0.5812491774559,   0.0193919017911,  -0.2856276929379,   0.6653390526772,   0.3221693038940,  -0.0172072015703,  -0.1498636305332,   0.0454010218382,  -0.0142901632935},
   {  -0.0685697421432,  -0.0722026228905,  -0.0415209233761,  -0.1160844340920,  -0.1576582342386,   0.0110592087731,  -0.0445687919855,  -0.0560193695128,   0.2312135547400,  -0.1159245073795,   0.0795012488961,  -0.0396786369383,   0.2155477553606,   0.0022682154085,  -0.0527990199625,  -0.4266311526299,   0.0057328604162,  -0.1613476723433,   0.0607340782881,  -0.0195826441050,  -0.0596139654517,   0.0136239351705,  -0.1029857173562,  -0.0852082818747,  -0.0055383443832,  -0.0123929260299,  -0.0099223898724,  -0.0118492934853,  -0.0713763609529,   0.0454211011529,   0.1606552749872,   0.0443864539266,  -0.1561047434807,  -0.0962139368057,   0.0647599399090,   0.0200679283589,  -0.1465146988630,   0.0325993187726,  -0.0555686093867,  -0.0999396219850,   0.0221028588712,   0.1383784860373,  -0.2062294334173,  -0.1788555830717,  -0.0392030328512,  -0.0829144939780,   0.0830195322633,  -0.0161386616528,  -0.0876947119832,  -0.0131271164864,  -0.1257648319006,  -0.2351371049881,   0.1591352522373,   0.1580602824688,  -0.0298706181347,   0.0823551118374,   0.0583119876683,  -0.1314447820187,  -0.1726756542921,  -0.3490674495697,  -0.0607279762626,  -0.0457075498998,   0.0392492711544,   0.1259067803621,  -0.0084936721250,  -0.0410805791616,   0.0360996983945,  -0.0037930461112,  -0.0681343972683,  -0.0487635992467,  -0.4683538973331,  -0.1180164068937,  -0.0851046815515,   0.1355869919062,   0.0053248410113,  -0.0543750934303,  -0.0221561323851,   0.0133287841454,   0.0821859985590,  -0.0456661805511,  -0.0063198585995,  -0.0641906708479,  -0.0141888028011,  -0.0924029499292,   0.0768784806132,  -0.0323389172554,   0.0430331788957,   0.0510870888829,  -0.0566946007311,  -0.1003197208047,   0.0477366335690,  -0.0553644075990,  -0.0104063553736,   0.0097444532439,  -0.0461014248431,   0.0054491818883,   0.1171264722943,  -0.0461327321827,   0.0052923415788,   0.0525836795568,  -0.0130530577153,  -0.1687426418066,  -0.0097721293569,   0.0641224980354,   0.0178497340530,   0.2245526313782,   0.0911401361227,   0.0037483517081,   0.0253341142088,  -0.0926672592759,  -0.3782483935356,  -0.0536671765149,   0.0803462937474,  -0.1289045363665,  -0.0222102385014,  -0.0868379026651,   0.0620309561491,   0.0198082774878,   0.0512558072805,  -0.1141783967614,   0.0208895355463,   0.1419172286987,  -0.0335425660014,  -0.0257503520697,   0.0342674441636,   0.1543458551168,   0.0472321882844,   0.0757007822394,   0.0434176325798,  -0.0658055990934,  -0.0274134017527,   0.1554300636053,  -0.3260756433010,   0.1420233398676,   0.0262512937188,   0.1690366417170,  -0.0449940077960,   0.0507144294679,  -0.0047027068213,  -0.0144357886165,  -0.0112069388852,  -0.1477907747030,   0.0032441532239,   0.0188241861761,   0.0373750627041,   0.2206776291132,  -0.0511328056455,   0.0917533636093,  -0.2169624567032,  -0.0732111781836,  -0.0544753819704,   0.0535155944526,  -0.0390582494438,  -0.2069752961397,  -0.1284689903259,   0.0397428944707,  -0.1506397575140,   0.0236821509898,  -0.1027777418494,   0.0286246221513,  -0.0531773269176,  -0.1626941263676,  -0.0273796766996,   0.1318525969982,  -0.0680171176791,  -0.0444901324809,   0.0567638501525,   0.0693275555968,   0.1355152875185,   0.0335270315409,  -0.0644437000155,  -0.0817403495312,  -0.0129987504333,  -0.0069238408469,   0.0233540795743,   0.0172063708305,   0.1794523894787,  -0.0108650038019,   0.0282308738679,   0.0509393960238,   0.0841482058167,  -0.1064657196403,   0.1664194464684,  -0.2040275931358,   0.0222914814949,  -0.1212411969900,  -0.0205158311874,  -0.0379379838705,  -0.0583736710250,  -0.0465720221400,  -0.0339612998068,  -0.0356670729816,  -0.0309316739440,  -0.1062301993370,  -0.0096978787333,   0.1462881416082,  -0.0401266813278,  -0.0560606271029,  -0.0370422340930,  -0.1029330343008,  -0.0790930837393,  -0.0448317602277,   0.0206580311060,  -0.4047154188156,   0.1323213130236,  -0.0361017920077,   0.1337670832872,  -0.1180527359247,  -0.2747366726398,   0.0937906801701,   0.0399868637323,   0.0008693317650,  -0.0132746156305,  -0.0223548151553,  -0.1418792754412,  -0.1099480241537,  -0.0178805571049,  -0.3434574604034,   0.0138078611344,  -0.0560658909380,  -0.0254335384816,  -0.0773230716586,  -0.0104863569140,  -0.0613288544118,  -0.0336239300668,   0.1692787706852,  -0.1935515850782,  -0.0486390627921,  -0.0114203905687,   0.0213861782104,   0.1155197769403,   0.0246613696218,  -0.0091014215723,  -0.1146291941404,   0.0670883432031,  -0.1035970151424,   0.0021077452693,  -0.1325685977936,   0.0214170515537,   0.1639810055494},
   {  -0.0014126352035,   0.0296299625188,  -0.1149652227759,   0.0072523760609,   0.0137977777049,   0.0299591459334,   0.0915858298540,  -0.0701117292047,   0.0990192070603,  -0.0802049636841,   0.0074783251621,   0.0719367638230,   0.0705118030310,  -0.0718224197626,   0.0523711070418,  -0.0948885530233,   0.0663563460112,   0.0452354401350,  -0.0588551163673,  -0.0400815829635,   0.0233885850757,   0.0725527852774,   0.0794339999557,  -0.0660425201058,  -0.0887734740973,  -0.0634371340275,  -0.0781097263098,  -0.0060748215765,  -0.1828533262014,  -0.0661381259561,  -0.2487148046494,  -0.0998675376177,  -0.0115087740123,   0.1062624454498,  -0.0739887803793,   0.0553494654596,   0.0092916274443,   0.0874551907182,   0.0311976857483,   0.0357184037566,  -0.1339485794306,   0.1367668658495,   0.0136747248471,  -0.0538639612496,   0.0709474384785,  -0.0082461610436,  -0.0217124931514,  -0.0903976708651,  -0.0312149859965,  -0.0143551426008,  -0.1179868951440,  -0.1396187841892,  -0.0049598892219,  -0.1830172836781,  -0.0711611658335,  -0.0159848853946,  -0.1044934317470,  -0.2475994378328,  -0.0992398336530,   0.0748157054186,   0.0912338048220,  -0.0810715109110,   0.0073805134743,  -0.0597589612007,   0.0159864481539,   0.0593546517193,  -0.0614217258990,  -0.0011070660548,  -0.1366096884012,  -0.0773358047009,   0.0539254620671,   0.0124033782631,   0.0721566602588,   0.1413110196590,  -0.0014714516001,  -0.0205485131592,   0.0336082428694,  -0.0496060624719,   0.0916617214680,  -0.0901732444763,   0.2193418443203,   0.0368260778487,  -0.0826096236706,   0.0283903069794,  -0.0436833836138,   0.0647289305925,   0.0398971922696,  -0.0393804833293,   0.0323173739016,  -0.0843726769090,   0.0558291822672,   0.0842853486538,  -0.0202939528972,   0.0616221986711,   0.0775089561939,  -0.0901365280151,   0.0523271858692,  -0.1121147051454,  -0.0140913119540,  -0.0990927070379,  -0.0595715939999,  -0.1653660982847,  -0.1662374883890,   0.0112383728847,   0.1068524867296,  -0.0537414997816,  -0.0637103617191,  -0.0363842882216,  -0.0128091862425,   0.0146096190438,  -0.3046211600304,   0.0615274906158,   0.0263205431402,   0.0089155295864,  -0.0550410412252,  -0.0283380001783,   0.0256135724485,  -0.0095207784325,   0.0208082105964,   0.0177526008338,   0.0037383090239,   0.0451050363481,   0.0451474487782,   0.0242396313697,  -0.0103920372203,  -0.0030755412299,   0.0082208057866,  -0.0535869412124,  -0.2522838711739,  -0.0989144369960,   0.1050542965531,   0.0098565667868,  -0.0511930398643,  -0.1566637903452,   0.0124234780669,  -0.2039930969477,  -0.0672544017434,   0.0230579338968,  -0.1829673051834,   0.0121817151085,   0.0125718545169,  -0.1161084547639,  -0.0734207406640,  -0.1192109882832,   0.0503465905786,  -0.0974198579788,  -0.0623886436224,   0.0337891168892,   0.0672578364611,   0.0579560846090,   0.1122322306037,   0.1183813437819,  -0.0337044037879,  -0.1778210401535,  -0.0945439934731,  -0.0256893225014,  -0.0964629277587,  -0.0355406105518,  -0.0214974787086,  -0.0799341648817,   0.0508900992572,   0.1805847585201,   0.0564247518778,   0.1198195815086,   0.0678612217307,  -0.2131094187498,   0.0734944790602,   0.1014102250338,   0.0387045592070,  -0.0139518277720,   0.0811873748899,   0.0600221939385,  -0.0161349810660,   0.1541172564030,  -0.0538521595299,   0.0680143311620,  -0.2494859099388,  -0.1775892525911,  -0.1124568134546,  -0.1342378109694,   0.0304434560239,   0.0421652533114,  -0.0929939821362,  -0.0326188877225,   0.0335289575160,   0.0732242390513,   0.0637835636735,  -0.0781160816550,  -0.0675369873643,   0.1808072328568,  -0.1657903045416,  -0.0550003498793,   0.0806624516845,  -0.0063487980515,  -0.0391450338066,  -0.1037788242102,   0.0319784879684,  -0.1326941400766,   0.0242135096341,  -0.0482252053916,  -0.1275656223297,   0.0375965125859,   0.0221150908619,  -0.1486774384975,  -0.0369226597250,   0.0819104239345,  -0.0699130967259,   0.1217286959291,  -0.0489222630858,  -0.0261789225042,  -0.0661376714706,   0.0238919164985,   0.0541912466288,   0.1062143370509,  -0.0491979494691,   0.0772967189550,   0.1767887026072,  -0.1299115717411,  -0.1526940613985,   0.0242526978254,  -0.0222725402564,   0.0199970342219,  -0.0233133565634,  -0.0017192348605,   0.1144758686423,  -0.2423872649670,  -0.0534153096378,  -0.1418589204550,   0.0039335982874,   0.0354120433331,  -0.0098763825372,   0.0432785227895,  -0.1901303976774,   0.0058508822694,  -0.0632471665740,   0.1763664931059,   0.1129349395633,   0.0244668703526,   0.0434049367905,   0.1828327476978},
   {   0.0538771674037,  -0.6435770988464,   0.1378358751535,   0.0038564440329,   0.0690450221300,  -0.2881206572056,  -0.1757330894470,  -0.0043543349020,  -0.5576881170273,  -0.1937918961048,   0.1865307390690,  -0.2722216546535,   0.1651389300823,  -0.1449821293354,   0.1416089087725,   0.0054224235937,  -0.1894129663706,   0.0090482281521,  -0.1894123107195,  -0.2570145726204,   0.2585709691048,  -0.4870362877846,   0.0529143512249,  -0.4454613626003,   0.0872489959002,   0.0988638699055,  -0.0374005138874,   0.0627956464887,  -1.0400345325470,   0.3347885310650,   0.1118826717138,  -0.0144510129467,  -0.1285897493362,  -0.2619428634644,   0.7057648301125,   0.0455133765936,   0.0517553314567,  -0.3591442704201,   0.0628886818886,  -0.1062402799726,  -0.5503584742546,  -0.2439281791449,   0.0397018268704,  -0.2426136732101,  -0.2156396955252,   0.3387647271156,   0.2958739697933,  -0.0038107687142,   0.0719394609332,   0.0427985601127,   0.1335930079222,   0.3580304682255,   0.0410814359784,  -0.2052589058876,  -0.0264537576586,  -0.0747713670135,   0.0673130825162,  -0.6616649031639,  -0.0946250185370,  -0.0799130871892,  -0.0004307635536,   0.2364390492439,  -0.6941096186638,  -0.0555013492703,   0.0288015436381,   0.5016226768494,   0.0089600775391,   0.4204375147820,   0.0449793823063,  -0.0473393797874,   0.1484859436750,  -1.0212385654449,  -0.1256194114685,  -0.5518752932549,  -0.9332590103149,  -0.0216905381531,   0.9261310696602,   0.0091915419325,   0.4691208899021,  -0.1572955697775,   0.1916207671165,  -0.2095530629158,   0.0263308174908,  -0.4240637421608,  -0.0065973149613,   0.0820703431964,  -0.5030150413513,  -0.0957786142826,   0.0288508962840,   0.3682135045528,   0.2538465857506,  -0.1453691273928,  -0.0477025210857,   0.1196620911360,   0.0770857408643,  -0.1391664594412,  -0.1262476295233,   0.0707919523120,   0.4041640162468,   0.4361975789070,  -0.0920516476035,   0.0355010703206,  -0.1287124007940,  -0.1336901783943,   0.2032904624939,  -0.7298400402069,   0.0371103659272,   0.0315794944763,   1.4521737098694,   0.0827639549971,   0.3257880806923,   1.2488029003143,  -0.0197182260454,  -0.2231559157372,   0.5720002055168,  -0.2078196406364,   0.2604882419109,   0.0186307020485,  -0.2577186524868,  -0.9996047616005,  -1.1722921133041,  -0.4144681394100,  -0.4396730661392,   0.1723938435316,  -0.0896232128143,  -1.2143459320068,  -0.5649954080582,  -0.1446715444326,  -0.4859914779663,   0.0808339044452,   0.4598872959614,   0.1304641067982,  -0.5902099609375,  -0.3967043161392,  -0.0118265030906,  -0.1191488802433,  -0.0608970411122,   0.2384335249662,   0.0080211441964,   0.1409246772528,   0.2512931227684,  -0.1575908362865,  -0.4946759641171,   0.1576711088419,   0.0791433006525,  -0.5129737257957,  -0.1501932442188,   0.2909073531628,  -0.1944917142391,  -0.5496127605438,   0.1012470871210,   0.1519866585732,  -0.0399537011981,  -0.4058585166931,  -0.0051750806160,  -0.1185517013073,   1.0428870916367,  -0.4269377887249,   0.6120560169220,  -0.1895013451576,  -0.0217055529356,  -0.7589175105095,  -0.2759383916855,  -0.3609960377216,   0.0969930216670,   0.4097443521023,  -0.3428256213665,  -0.3313741683960,  -0.9788595438004,  -0.0324888750911,   0.2729132175446,   0.0242129582912,   0.0728437453508,  -0.7393054366112,  -0.0779149979353,  -0.0806801915169,  -0.2647545933723,   0.0993480607867,   0.0483582168818,   0.0356620624661,  -0.0963059887290,   0.5283616781235,  -0.2510875165462,   0.0758611708879,   0.2486420273781,   0.0490650348365,   0.0175681971014,   0.0544903762639,   0.0659181401134,  -0.0239803828299,   0.0524481534958,  -0.0632870495319,   0.1163614317775,   0.3193357586861,   0.2887066602707,  -0.0382565371692,   0.0617616884410,   0.0758686736226,   0.0499484390020,   0.2447294294834,  -0.1444843560457,  -0.4714712500572,   0.8572922945023,  -0.1751750707626,  -0.2276613414288,  -0.3638956248760,   0.2467707842588,   0.3513808846474,  -1.1301369667053,  -0.3925807476044,   0.0115319937468,  -0.0683705434203,   0.0416575595737,  -0.0087316818535,   0.3009113073349,  -0.6316462159157,   0.2828369438648,   0.2506892085075,  -0.0196417868137,  -0.1169703081250,  -0.3293290436268,   0.1099437698722,   0.2300220727921,  -0.2036811411381,   0.0682279989123,   0.2828627228737,  -0.1116253286600,   0.3666313886642,  -0.2415295690298,  -0.1488617658615,   0.1390022635460,   0.1213747188449,  -0.0463727600873,   0.2717280685902,   0.2576808631420,  -0.4106040894985,  -0.4842520356178,   0.0044688349590,  -0.0659092962742,   0.0781556367874},
   {   0.0407327711582,  -0.0743109509349,   0.0011461594841,   0.0303163379431,  -0.1213696300983,   0.3909462094307,  -0.1834366619587,   0.0069767646492,  -0.1677690744400,  -0.0698628425598,   0.0048339539208,   0.6352511048317,  -0.5470528602600,   0.1418285965919,  -0.0219005197287,  -0.2674950659275,  -0.4530412256718,  -0.1444404423237,  -0.0319023653865,  -0.0218458920717,   0.4335954189301,   0.0011132711079,  -0.0107088647783,   0.2304311692715,   0.1976673156023,   0.1507637500763,   0.0361745804548,  -0.1124966144562,  -0.5455061793327,   0.0247724689543,   0.3107799887657,   0.4396921098232,   0.1212475374341,  -0.1939226537943,   0.6334614753723,   0.1630788594484,  -0.0354665480554,  -0.3432128727436,  -0.1181378886104,   0.0435694791377,  -0.1405541896820,  -0.4872983992100,  -0.2153656333685,  -0.3784016668797,  -0.3012998104095,  -0.1362373083830,   0.2662358582020,  -0.0117194652557,   0.4467122852802,   0.1086044162512,  -0.3225648105145,  -0.3254176378250,  -0.0661997720599,  -0.2364943474531,  -0.0299749933183,  -0.1874287575483,  -0.0033191663679,  -0.4701851904392,  -0.0993492975831,  -0.4828455448151,  -0.0226550903171,   0.3798370957375,  -0.8486024141312,  -0.1856295168400,   0.2652993798256,   0.3086373209953,   0.1253212541342,  -0.0255220942199,  -0.0216921735555,  -0.1634864360094,   0.0810975804925,  -0.2348591089249,   0.0578650310636,  -0.2019589543343,  -0.7139729261398,  -0.0097823925316,   0.7159463763237,   0.4504871070385,  -0.0105869686231,  -0.0031815008260,   0.1409822404385,  -0.0465711317956,  -0.1063996702433,  -0.3686258494854,  -0.0336263515055,   0.1062620952725,  -0.0063648307696,   0.0192585624754,  -0.0606431514025,   0.6090607643127,   0.5442639589310,   0.1743558198214,  -0.0932745710015,  -0.0464367307723,   0.2598106861115,   0.0873336493969,  -0.2723798453808,  -0.0636171028018,   0.3881514370441,   0.2022020965815,   0.1003287285566,  -0.3927382528782,  -0.3076584041119,   0.0057331393473,   0.2536929547787,  -0.0459835976362,   0.0958369076252,   0.4810342788696,   0.7455220222473,   0.0669783130288,   0.7169029712677,   0.3081622123718,   0.2438006103039,   0.0968484506011,  -0.2276745587587,  -0.1649384647608,   0.1538955122232,  -0.0093490602449,  -0.0348162353039,  -0.5526049137115,  -0.9668281674385,  -0.5325589776039,  -0.1317112892866,  -0.2264540195465,  -0.0529263652861,  -0.1800388097763,  -0.3974927663803,  -0.0642172023654,  -0.4818345308304,   0.0068836933933,   0.6631665825844,  -0.2818655669689,  -0.2094070613384,  -0.0407468155026,  -0.1000010743737,  -0.3460993766785,   0.4183292686939,  -0.3539789319038,   0.1366293579340,  -0.2041800320148,  -0.0361309610307,  -0.3979273736477,   0.0428033582866,  -0.3810782730579,  -0.3236723542213,   0.1093128994107,  -0.4603990912437,   0.1414305418730,  -0.0101508963853,  -0.5559962391853,   0.2896990478039,  -0.2336326092482,   0.0504846274853,  -0.0365281589329,  -0.0575329475105,  -0.2419712692499,   0.3037699162960,  -0.0185627285391,   0.1495274156332,  -0.2394943684340,   0.0872341170907,   0.0047933966853,  -0.4029473066330,  -0.1111625581980,  -0.1147190406919,   0.1844052672386,   0.2716218233109,   0.4794896543026,  -0.0057800365612,  -0.0414489582181,  -0.2280229777098,  -0.1185767054558,   0.4950869381428,  -0.3360408246517,  -0.0414382144809,   0.4104087054729,   0.0166153274477,   0.1448046565056,   0.1107847169042,  -0.1961563378572,  -0.5941284894943,  -0.1941643357277,   0.1201378479600,  -0.0338326916099,   0.1052975133061,  -0.0511701144278,   0.0252323616296,   0.3216429948807,  -0.2626009285450,  -0.0587912276387,  -0.0004583853588,  -0.2360454201698,  -0.3663600981236,   0.5509003400803,   0.2738545238972,  -0.1640662252903,   0.0075664562173,  -0.1347474753857,   0.4895673692226,   0.4346869885921,   0.1197610348463,  -0.1529754549265,   0.0065797059797,  -0.1116366833448,  -0.2041752040386,   0.3295456469059,   0.1265807896852,   0.2495414465666,  -0.2469787895679,  -0.3296169638634,  -0.0889017656446,  -0.1411602497101,   0.0464308485389,  -0.3280071318150,   0.5214659571648,  -0.5522766709328,  -0.3198874294758,   0.1745371818542,  -0.0725398734212,  -0.3528060019016,  -0.0063436608762,  -0.1723569631577,   0.3173730075359,  -0.4259915947914,   0.1313271075487,   0.1835306435823,  -0.2141602933407,   0.4092625379562,  -0.4518015682697,  -0.1901345998049,   0.0796427503228,   0.4016316235065,   0.1210738718510,  -0.0911831259727,   0.6075314879417,   0.0860250070691,   0.0809800773859,  -0.1057349145412,  -0.0781847313046,  -0.0724668875337},
   {   0.0876276344061,   0.0883276835084,  -0.1124712228775,  -0.0210248585790,  -0.0948913842440,  -0.1250591576099,   0.0688267648220,   0.0160328131169,  -0.1541499793530,  -0.0560602284968,  -0.1353134512901,  -0.1301391273737,  -0.0062769223005,  -0.1412151306868,  -0.1068136096001,   0.0891769230366,  -0.1055436655879,  -0.0878932774067,   0.0734345391393,   0.0925279706717,  -0.0449055619538,   0.0247350130230,  -0.0920750722289,  -0.1243858784437,  -0.0593448430300,   0.1342428773642,  -0.0923351123929,  -0.0519241429865,   0.0708058923483,   0.0568720661104,  -0.1942822039127,  -0.0657056942582,  -0.0142499851063,   0.0102248610929,  -0.0763086378574,  -0.0545800514519,  -0.0287062320858,   0.0621760860085,   0.0219868700951,  -0.0385607965291,   0.0693188905716,  -0.3758041858673,  -0.1199551671743,   0.0107745127752,  -0.0664630681276,  -0.1132565289736,   0.0907772481441,  -0.0346126295626,   0.0398496426642,  -0.0003230746079,   0.1850736290216,  -0.2031261771917,  -0.0812663212419,  -0.3336237967014,  -0.1671092212200,   0.0851705893874,  -0.0208476837724,   0.1284906715155,  -0.0349865332246,   0.0008739356417,  -0.0627868324518,   0.0196610223502,  -0.1589160710573,  -0.0058024125174,  -0.1840686202049,  -0.0719281956553,  -0.0267191436142,   0.0266064908355,  -0.0611264668405,   0.0784936621785,  -0.0000934447453,   0.1560532301664,   0.0076912180521,  -0.1231830567122,   0.0282265823334,  -0.1050658971071,   0.0011367765255,  -0.1610859185457,   0.0096205594018,   0.0659362077713,  -0.0448892675340,  -0.0425825305283,   0.0989154204726,   0.0130870779976,  -0.2315752357244,  -0.1660272628069,  -0.0333732515574,   0.0071554910392,  -0.0255262814462,   0.0465914271772,  -0.1267919540405,  -0.0604597367346,   0.0650909915566,  -0.0563150495291,  -0.0409479551017,  -0.0114860786125,  -0.1881567090750,  -0.0799104273319,   0.0555724240839,   0.0666071772575,   0.0329149477184,  -0.0634618848562,  -0.2956529855728,   0.0590255483985,   0.0595426186919,  -0.0903802961111,   0.1142434030771,  -0.1534064561129,   0.1881861984730,   0.0497446060181,  -0.0305465385318,   0.1329472810030,   0.0743260830641,  -0.1667178273201,  -0.3114923834801,   0.0046577490866,  -0.0950532853603,   0.0054705911316,   0.0011212413665,   0.0162349026650,   0.0336257666349,   0.0505987256765,  -0.0491673685610,   0.0298460628837,  -0.1768084913492,  -0.0471184812486,   0.0314706452191,   0.0826393961906,  -0.2801564931870,   0.1373650580645,  -0.1777962297201,   0.1590985059738,   0.0194732956588,   0.1286985874176,  -0.0518010705709,   0.0018157024169,   0.0090524451807,   0.2051296085119,  -0.2670196890831,  -0.0394948832691,  -0.0041731190868,   0.1324077397585,  -0.0479562021792,   0.1214075610042,  -0.0056948186830,  -0.0538816899061,   0.1774134635925,   0.0379193127155,   0.0921126753092,   0.0216806679964,  -0.0066668470390,   0.0519701465964,  -0.0902726873755,  -0.3167659640312,  -0.1340307444334,   0.0597396008670,   0.0999034345150,   0.0692801028490,   0.0501951202750,  -0.0725536197424,   0.0925727412105,  -0.2925491034985,  -0.0010603329865,  -0.1392993927002,   0.1209491714835,   0.0952543169260,  -0.2181026637554,  -0.0856230705976,  -0.2709690034389,   0.0116850994527,   0.0789340659976,  -0.1316388547421,  -0.0975529551506,  -0.4446787834167,  -0.0287129748613,  -0.1590537726879,  -0.0360192246735,  -0.0853861942887,   0.0687947198749,  -0.1283494234085,   0.1008827090263,   0.0495501570404,  -0.0597689561546,  -0.0089642209932,  -0.0650678351521,  -0.0798005983233,  -0.0066711246036,   0.0891780853271,  -0.1983562856913,  -0.1187352836132,   0.0064299721271,   0.0517526827753,  -0.0078008905984,   0.0500962547958,  -0.0109308669344,   0.0343689247966,  -0.1184232458472,   0.0477842353284,  -0.1143240854144,  -0.0841442942619,   0.1420105993748,  -0.0478293299675,   0.2496663779020,   0.1594231873751,  -0.0579478181899,  -0.1805923283100,  -0.0259221717715,   0.0328046977520,   0.0495604872704,   0.0113940751180,  -0.2056848108768,  -0.0415382422507,  -0.0616380050778,   0.1053598001599,  -0.0391655452549,   0.1074295118451,   0.1459393650293,   0.1123095750809,   0.0665521919727,   0.0574878379703,   0.0992245599627,   0.0019004757050,   0.0316300950944,  -0.0470377504826,  -0.0641155615449,   0.2648817598820,   0.0651493147016,  -0.0226357039064,   0.1138177514076,   0.0142712295055,  -0.0797346681356,  -0.0926833078265,   0.0510062053800,   0.0212744735181,  -0.0953004434705,  -0.0231105871499,  -0.1202074214816,  -0.0888333246112,  -0.0464324727654,   0.0695543810725},
   {  -0.0727122873068,   0.0332335568964,   0.1275878548622,  -0.0435816943645,  -0.0224102381617,  -0.0354944244027,   0.0131160216406,   0.0336391627789,  -0.2430872768164,   0.0994429439306,  -0.1076588556170,   0.0089316824451,   0.3257102370262,  -0.0270322281867,  -0.2428002804518,   0.1739881038666,   0.1488659381866,  -0.0600907094777,  -0.0172333754599,   0.0835794657469,  -0.0314767323434,  -0.0967649668455,  -0.0420641191304,  -0.0296551976353,   0.0135001521558,  -0.0615667700768,   0.0107115013525,   0.1103510186076,  -0.0649872422218,   0.0430310405791,   0.1657896637917,   0.1029666885734,   0.2528944909573,   0.0998024344444,  -0.0042842756957,   0.0187665075064,  -0.0802585706115,   0.0559454150498,  -0.1104635298252,  -0.0968563631177,   0.0488687083125,   0.0439651496708,  -0.0646097809076,  -0.1669111996889,   0.0348798632622,   0.0213573984802,   0.1697919964790,   0.0444914810359,  -0.1615408509970,  -0.1309355795383,  -0.1867476552725,  -0.1117217913270,   0.1195576265454,  -0.0824042856693,  -0.0601109638810,   0.0508361272514,   0.0562786087394,   0.0656068697572,  -0.0058987620287,  -0.0154220247641,  -0.0167852807790,  -0.0960240513086,  -0.0757015794516,   0.3473290801048,  -0.0289454832673,  -0.0619060546160,  -0.1468909084797,  -0.0031756493263,  -0.0209279004484,  -0.0118386633694,   0.1373716890812,  -0.1186438724399,  -0.0086272964254,   0.0800495222211,  -0.0188888497651,   0.0033072545193,  -0.0393501855433,   0.0453445203602,   0.1195715367794,  -0.0491730012000,  -0.0024831392802,  -0.0228154323995,   0.0048778848723,   0.0770446360111,  -0.0671318173409,   0.0038213396911,  -0.1696851402521,  -0.0499725639820,   0.0233486462384,  -0.0364189445972,   0.0031953558791,   0.0952780619264,   0.1163503453135,   0.0649588629603,  -0.0689122304320,  -0.0359579995275,   0.1457382887602,  -0.0921357050538,   0.0079908911139,   0.0657522529364,   0.0506380274892,  -0.1906930655241,  -0.1268982291222,  -0.0919743403792,  -0.0248624254018,   0.0159441605210,  -0.0682345479727,  -0.0125622600317,  -0.0453633293509,  -0.0781009644270,   0.2084654420614,  -0.0599844716489,  -0.1747198849916,  -0.1141760274768,   0.2173816412687,   0.0738251283765,   0.0171014070511,  -0.0884882211685,  -0.1680655181408,   0.1577164828777,   0.0639176294208,  -0.1319270581007,   0.0309985596687,  -0.0071384878829,  -0.1160680800676,  -0.1370512396097,   0.0464035384357,  -0.0487916357815,   0.1572550386190,  -0.0880183503032,  -0.0241126772016,   0.0502269864082,  -0.0495634786785,  -0.0729719996452,  -0.0245762951672,   0.0549131706357,  -0.0558954030275,  -0.1301182359457,   0.0809742584825,  -0.1260782033205,  -0.0584509111941,  -0.0199583731592,  -0.1145691722631,   0.1178444847465,   0.0100586749613,  -0.0776342228055,  -0.0228335224092,   0.0625103786588,  -0.0044020689093,  -0.1465411186218,   0.0456236861646,  -0.1017293483019,  -0.1645221710205,  -0.1771136969328,   0.0650720149279,  -0.0177541561425,   0.0811520367861,  -0.0049493727274,  -0.1407991051674,   0.1047985702753,  -0.0506859458983,   0.0636819452047,  -0.0911032035947,   0.0577231943607,   0.1187679618597,   0.0616883561015,  -0.0298970323056,   0.0499141179025,  -0.0910579115152,   0.0190398376435,   0.0942073762417,  -0.0784383341670,  -0.0373334623873,  -0.1432216167450,   0.0744287744164,   0.1204412803054,  -0.4404349625111,   0.0658110678196,   0.0373056344688,  -0.1489392966032,  -0.1214820370078,   0.0855318680406,  -0.1583227366209,   0.0024033763912,  -0.0468719340861,  -0.1340365409851,   0.1034756898880,  -0.0487629994750,   0.0027667519171,  -0.1045258417726,  -0.0612657368183,   0.0227469466627,   0.0862913131714,   0.0590469576418,  -0.0378433316946,   0.0676638185978,  -0.1689839065075,  -0.1253564357758,  -0.1329530328512,   0.0638531595469,   0.1434984207153,   0.0087933801115,  -0.0707490146160,   0.0881917849183,  -0.0063926228322,   0.1025171056390,   0.0758415460587,  -0.0838165059686,   0.1428475379944,   0.1191994100809,  -0.1907750219107,   0.0131857385859,  -0.0731399282813,  -0.0302235372365,  -0.0465545840561,  -0.0415601171553,   0.0198579933494,   0.0463650040329,  -0.1603754907846,  -0.0421947054565,  -0.1539355367422,   0.0178907867521,  -0.0994473621249,  -0.1547262072563,  -0.0553125254810,  -0.1342878341675,   0.1492335647345,  -0.1250263154507,  -0.0893286392093,   0.0702561363578,   0.0261055100709,   0.0801124498248,  -0.0661425814033,  -0.0149248475209,   0.0636595562100,   0.0683591216803,  -0.0249601155519,  -0.0614546760917,  -0.0061394292861,  -0.0452578626573},
   {   0.9521789550781,   0.6753818988800,   0.1052471995354,   0.1356055289507,  -0.1072239652276,   0.2970540523529,   0.1489740312099,  -0.1140916049480,  -0.2766327261925,   0.2339530140162,  -0.0009524030029,   0.3658887445927,  -0.2318362742662,  -0.0040855244733,   0.2083074450493,   1.0093475580215,  -0.9872296452522,   0.1053910031915,   1.1680583953857,   0.8977965116501,   0.2169439494610,   0.8206052780151,  -0.6179595589638,   0.3193773925304,  -0.1549732089043,   0.0157294701785,  -0.0046763592400,   0.0768469274044,  -1.4358580112457,  -0.0590207763016,  -1.3482596874237,  -1.1274675130844,   1.2614754438400,   0.3188887238503,   0.5723605751991,  -0.7568063735962,  -0.9208690524101,  -0.4150762856007,  -0.3030444681644,  -0.1563582122326,   0.5530453920364,   0.8503491282463,   0.0852138102055,  -0.8773158192635,  -0.8880390524864,  -0.2415706813335,   0.0650878176093,   0.0072566918097,   0.4889172017574,  -0.3306927084923,   0.3054688572884,   0.6110140681267,  -1.2583402395248,  -0.6150999069214,   0.0359656885266,  -0.4675519168377,  -0.0362133346498,  -0.3415497839451,   0.0329585447907,   0.1635792553425,   0.0544895455241,   0.0870521739125,   0.2086557596922,  -0.5684740543365,  -0.0689737349749,   0.9606021046638,   0.1288414895535,  -1.5889950990677,  -0.0134806158021,   0.0203439034522,  -0.4858898818493,  -0.8800823092461,   0.7599421143532,  -0.4608787298203,  -0.1893847286701,   0.0024454223458,   0.5750363469124,   0.4443590342999,  -0.5907726883888,  -0.0373531319201,  -1.3326632976532,  -1.1324779987335,   0.0547526255250,   0.0563204847276,   0.4491084516048,   1.3775584697723,   0.0753084719181,  -0.0776943638921,   0.0152956685051,   0.2639290690422,   0.0844610258937,  -0.0098910424858,  -0.6075941920280,  -0.6364098191261,  -1.4668064117432,  -0.0068212756887,  -0.6794523596764,   0.0042674541473,   2.3054502010345,   1.2220982313156,  -0.1665374636650,  -0.7852786183357,  -0.6954752802849,  -2.4191346168518,   0.3405295014381,   0.0438196361065,  -0.8555781841278,   0.6090048551559,   0.6387465596199,   0.0433047860861,   0.5427234768867,  -0.0643498077989,  -1.2538546323776,   0.3776913285255,  -0.3712304532528,  -0.8960850834846,  -0.3073640465736,  -0.0502208210528,  -0.4675596952438,   0.2375547736883,   0.4145916700363,  -1.2206450700760,   1.4754017591476,  -1.2829394340515,  -0.1688556373119,  -0.3290596604347,  -0.3618122637272,   0.1376118212938,   0.3736933469772,  -0.0907149240375,  -0.4264049232006,   0.0693397819996,   0.7010902166367,  -0.2634401619434,  -0.0558155328035,   0.5647345185280,   0.7676171660423,  -0.3302304744720,  -0.8375844955444,   0.6138227581978,   0.5941405296326,  -0.9462381005287,   0.6670422554016,   0.0909591987729,  -0.1552739590406,  -0.1844568103552,   0.6868826150894,   0.2756205499172,  -0.2187299132347,   0.0175612382591,  -0.2689779698849,   1.1072770357132,  -0.0367866195738,  -0.9187173247337,  -0.0735289976001,  -1.4075752496719,   0.0210512094200,  -1.2483382225037,  -0.9149912595749,   0.5953643918037,  -0.3365409374237,  -0.4212351441383,   0.6547319293022,   0.3311149775982,  -0.7709037065506,  -0.0024940806907,   0.9840145111084,   0.3214759528637,   0.9900776743889,   0.0653061345220,  -0.4342125654221,   0.0863635689020,  -0.5310220718384,  -0.1632030904293,  -0.1257017254829,   0.7128704786301,  -0.7028547525406,   0.7007901668549,  -0.0675160363317,  -0.7917858958244,  -0.0513310283422,   0.7338650822639,   0.6509885191917,   0.1773645728827,  -0.3480439782143,   0.0250713992864,  -0.1249143853784,  -0.1370343565941,  -0.6729804277420,  -0.6787770390511,  -0.0064981193282,   0.0393183492124,   0.8993407487869,  -0.9524042606354,   2.0762364864349,  -0.0852797627449,   0.0749668255448,  -0.2692756950855,  -0.2340377867222,   1.0383133888245,   1.0342932939529,   0.3867406249046,  -0.3507928252220,  -0.3316724002361,   0.3309265971184,  -0.1174874007702,  -0.4042600393295,  -1.6845815181732,   0.3473962843418,  -1.1052609682083,  -0.0691358223557,  -0.1093664839864,  -0.0949386432767,   0.7437694668770,  -0.3722257912159,  -0.1327044814825,  -0.1040810719132,  -0.6518569588661,   0.0072138011456,   0.2262754291296,  -0.1683757901192,  -0.3910709321499,   1.0953906774521,  -1.2683095932007,   0.1943957656622,   0.0758512318134,  -0.4180546998978,  -1.3294733762741,   0.2977721691132,   0.6825097799301,  -1.0844671726227,  -0.5843993425369,   0.0632501244545,   0.4827876389027,  -0.2606535851955,  -0.2760923206806,   1.6033890247345,  -0.0727185159922,  -0.0144434329122,   0.5750584006310},
   {   0.0102649936453,  -0.2157628089190,  -0.1068427711725,  -0.0024575868156,  -0.0692748725414,  -0.0493500381708,   0.1042909696698,  -0.1917322576046,   0.2086738795042,  -0.0688083991408,   0.0248116236180,   0.0377157889307,  -0.1251426935196,  -0.0340759158134,   0.1975878030062,   0.1496980041265,  -0.0352040864527,   0.0294572599232,   0.0595006607473,  -0.1171277388930,   0.0011208323995,  -0.0316644869745,  -0.3705970942974,  -0.0300681553781,  -0.0774443820119,  -0.0107602560893,  -0.1310860663652,  -0.1112882941961,  -0.0062533477321,  -0.0990626588464,  -0.1428405046463,  -0.1264001578093,  -0.2101849913597,   0.0936142504215,   0.1072191521525,  -0.1045976132154,   0.0050041433424,  -0.0804527476430,  -0.0339915491641,   0.0279351361096,   0.1535765677691,  -0.2976753115654,   0.0426096096635,  -0.1565580368042,  -0.0200098287314,   0.2691592872143,  -0.1905223727226,   0.0622308515012,  -0.0199165903032,   0.0245049167424,   0.0140410950407,  -0.1729748100042,  -0.3011620938778,   0.0673392117023,  -0.0872037857771,   0.1217581331730,  -0.0943455398083,  -0.1536169499159,  -0.1161983087659,   0.1678477227688,  -0.1069936305285,  -0.0089623490348,   0.0679402574897,  -0.3791909217834,  -0.0789132192731,   0.0250509120524,   0.0418053865433,  -0.0172086805105,   0.0357822924852,   0.0640141293406,   0.1080273017287,  -0.0949843302369,  -0.1490463912487,   0.1891980767250,   0.0723820626736,  -0.0770156234503,  -0.0042835399508,  -0.0223379172385,   0.3107373714447,  -0.0648905113339,   0.0829978361726,  -0.0281372722238,   0.1197904124856,  -0.0562759228051,  -0.0655393525958,   0.0367478057742,   0.0911030545831,   0.0516247190535,  -0.0782997906208,  -0.1634647101164,   0.0558023452759,   0.0687281340361,  -0.3268920183182,  -0.0376904755831,  -0.0806546360254,   0.0977716669440,   0.0765086561441,   0.1056731045246,   0.0302510056645,  -0.0126783167943,  -0.0057127578184,   0.0336849018931,   0.1932279467583,   0.0772631764412,  -0.1136285513639,   0.1084228828549,  -0.0404670089483,   0.0546845011413,  -0.0753737762570,  -0.1511982977390,  -0.0360375791788,   0.2306415289640,   0.0224101729691,   0.0359381027520,   0.0440168119967,   0.0178324691951,  -0.0855930596590,   0.0384995304048,   0.1458394527435,  -0.0905728861690,  -0.1049675121903,   0.1271308809519,  -0.0996714383364,  -0.0110122077167,   0.0102494619787,  -0.1434544026852,  -0.0637368634343,  -0.2005859017372,  -0.3938587903976,  -0.0652122497559,  -0.1285205334425,  -0.1022027209401,   0.1860964298248,   0.1284776628017,  -0.0811542645097,   0.0656312704086,   0.1207280009985,  -0.2400760501623,   0.2113488167524,  -0.0583493039012,  -0.1101117283106,  -0.0381855517626,  -0.1956162452698,  -0.1093984097242,  -0.1086468994617,   0.0983597487211,  -0.0295491125435,   0.1158524900675,  -0.1673387140036,   0.1998106390238,  -0.0427301749587,   0.0416846461594,  -0.0822635665536,   0.0893132165074,  -0.1441995650530,   0.0954047590494,   0.0467649959028,  -0.1365240812302,  -0.0864869430661,   0.0507576130331,   0.0147526338696,  -0.2339875549078,  -0.0773342400789,   0.0365741141140,   0.0674934089184,  -0.0740781798959,  -0.0017652256647,  -0.1450814008713,  -0.1385835558176,   0.1582995057106,  -0.0902415290475,  -0.0562309063971,  -0.1132528260350,  -0.2968001365662,   0.0260324943811,   0.0527349226177,   0.1100636199117,   0.2222862690687,   0.0416533611715,   0.4589709937572,   0.0479695722461,   0.2253852337599,   0.2425387203693,  -0.0420427136123,  -0.0400594137609,  -0.0591144189239,  -0.0965587198734,  -0.0393317118287,   0.0603768453002,  -0.2445224970579,  -0.0842013806105,   0.0027702848893,   0.0520454309881,  -0.1849343180656,  -0.1264807730913,   0.0062863323838,  -0.1017107889056,  -0.0750805363059,  -0.0515000969172,  -0.3692810535431,  -0.1866473704576,  -0.0871394574642,  -0.0234125908464,   0.0650122091174,  -0.0538723804057,  -0.0066350740381,  -0.0969217643142,  -0.1202155798674,   0.1741978526115,   0.1670511364937,  -0.0377390384674,  -0.0873709619045,  -0.0298685319722,   0.0524221174419,  -0.1415812224150,   0.3709867298603,  -0.1140693351626,   0.0232854504138,  -0.1267185360193,  -0.0201065465808,  -0.1259630471468,  -0.0384233258665,  -0.1595733165741,   0.0027804346755,  -0.1040174067020,  -0.0647162869573,   0.0911709219217,   0.1330218911171,   0.0156136462465,  -0.0665331333876,   0.1190794706345,   0.0722945109010,  -0.1004986241460,  -0.0711928084493,   0.1067146882415,  -0.0834198072553,  -0.1298354119062,   0.0500639863312,   0.0622790455818,  -0.2136560380459},
   {   0.8489861488342,  -1.3307005167007,  -0.0256900209934,  -0.1140771210194,   0.1233581602573,   0.3800640702248,   0.1524672061205,   0.2274195998907,  -0.2688894569874,  -0.2976347208023,   0.1653071492910,   0.6688708066940,  -0.4818646609783,   0.0405644997954,   0.0826503112912,   0.8905689120293,  -0.8803031444550,   0.0506722517312,   1.3278269767761,   0.6557804942131,   0.2494078278542,   1.5929269790649,  -0.3003036081791,   0.0617768317461,  -0.2983740270138,   0.0541589856148,  -0.0057524843141,  -0.1254669576883,  -0.3000839650631,  -0.0854514017701,  -1.2359185218811,  -1.2147300243378,   1.3070857524872,   0.4328275024891,   0.3320616483688,  -0.0982872918248,  -0.8587327003479,  -0.2344122976065,   0.4821541607380,  -0.0621642842889,   0.8975172638893,   0.3145509064198,  -0.0782591626048,  -1.1417129039764,  -0.3280657827854,  -0.1427405327559,   0.3503902256489,  -0.0568850487471,   0.2965799272060,   0.3859831690788,   0.6315675377846,   0.4204170107841,  -1.5002741813660,   0.2023287564516,   0.0069297584705,  -0.3274545073509,   0.0451164171100,  -0.8729756474495,   0.0745262652636,   0.3594828248024,  -0.0676231309772,   0.4883916676044,  -0.2021338641644,  -0.9106192588806,  -0.1993211507797,   0.2941527962685,  -0.0388411469758,  -0.5482721328735,  -0.0070165540092,   0.0423911288381,   0.8314012885094,  -0.1045061051846,   0.8319784998894,   0.3333359956741,  -0.1161897256970,  -0.0201918128878,  -0.0339362807572,   0.2031324654818,  -0.2609179913998,   0.0828710123897,  -0.6865976452827,  -1.3757365942001,   0.0360895283520,   0.1597506403923,   0.4796603918076,   0.3873200416565,   0.8212164640427,  -0.1120900064707,   0.1057743504643,   0.5193023681641,  -0.0046218410134,   0.0569677129388,  -0.8133815526962,  -0.7621414065361,  -0.7265877127647,  -0.0173699688166,  -0.9361819028854,  -0.0440994314849,   1.8809865713120,   0.8433943390846,   0.0577692799270,  -0.0208220072091,  -0.4712841808796,  -1.4015387296677,   0.2684481441975,  -0.4724221527576,  -0.5587035417557,   0.4718890786171,   0.0765947252512,  -0.0355387926102,   1.2260477542877,  -0.3080887198448,  -0.8553449511528,  -0.1562016606331,  -0.4085134267807,  -0.9036390185356,  -0.4930534958839,  -0.1090118139982,  -0.0808018594980,   1.2792173624039,   0.1718663722277,  -0.6655826568604,   0.9195663928986,  -1.0855138301849,   0.0280220545828,   0.0751029029489,  -0.5722532272339,   0.3308896124363,   0.1925039440393,  -0.0183967929333,  -0.2601765990257,   0.2033005654812,   0.3237327039242,  -0.5233681201935,  -0.0068956911564,   0.4978899657726,   0.1764683723450,  -0.1726855039597,   0.3967563211918,   0.3434938788414,   0.1246234253049,  -0.6649416089058,   0.4535960555077,   0.5082238912582,  -0.3999569416046,  -0.6780807375908,   0.4317074716091,  -0.2564773559570,  -0.0837307646871,   0.4437040984631,  -0.0894293114543,   0.2570567727089,   0.0643514841795,  -1.3709388971329,   0.0203799381852,  -0.6845090985298,   0.7299520969391,  -0.7064201831818,  -0.2423647940159,   0.1857575178146,  -0.0317183025181,   0.0075040184893,   0.3182897269726,   0.6714114546776,  -0.2102615982294,  -0.2320978045464,   0.8755536079407,   0.3482063114643,   0.4928878843784,   0.1321668624878,  -0.1569996178150,   0.0409914441407,  -0.3946867883205,  -0.3290643990040,  -0.1203210949898,   0.4906136989594,   0.1079070642591,   0.7880366444588,   0.1712001115084,  -0.6261990666389,  -0.2825686931610,  -0.2413610816002,   0.3479548990726,  -0.1734194904566,  -0.3674060404301,   0.1122654378414,   0.0169958937913,  -0.1201604530215,   0.2996018826962,  -0.5972836613655,  -0.0052297296934,  -0.1198738068342,   0.5305608510971,  -0.6305069327354,   1.2173886299133,   0.0490337684751,  -0.0694693699479,  -0.2804709374905,   0.0561054050922,   1.0832506418228,  -0.2689247131348,   0.1261458545923,   0.1593936681747,  -0.9143322110176,   0.7323825955391,   0.1951757669449,  -0.1681091636419,  -1.5785814523697,  -0.3984343409538,  -0.9259456992149,  -0.0397807694972,   0.0337369367480,   0.0029105653521,   0.5827658176422,   0.0325637832284,   1.3508342504501,  -0.7739836573601,   0.2886318266392,  -0.0529461689293,  -0.0579324960709,  -0.0341342948377,   0.0105321872979,   0.6348814368248,  -0.6582358479500,  -0.1505343317986,  -0.9140592813492,  -0.5546099543571,  -1.7591679096222,   0.2533956170082,   1.0274468660355,  -1.3414584398270,   0.1655706465244,  -0.0878662019968,   0.3021574020386,   0.3792800009251,  -0.3571708202362,   0.9939284324646,   0.1282595694065,   0.1216657608747,   0.4098557829857},
   {  -0.0559850297868,   0.1164117902517,  -0.1200149655342,  -0.0523754805326,  -0.1672280281782,  -0.0243512839079,   0.1589807718992,  -0.0473299771547,  -0.0683988705277,  -0.0850334987044,  -0.0122809428722,   0.0100448336452,  -0.2379939556122,  -0.0181771945208,   0.0793977007270,  -0.1229966506362,  -0.0736517831683,   0.0683504939079,  -0.0325466617942,  -0.0129904178903,   0.0399650447071,   0.1294624954462,   0.1826941370964,   0.0778190717101,   0.0756358653307,  -0.1518870145082,  -0.0695467963815,  -0.1280803382397,   0.1519908308983,  -0.0033739125356,   0.1285366415977,   0.0049444306642,  -0.0326815992594,   0.0031899348833,   0.0895136743784,   0.0915056616068,   0.0222317129374,  -0.0500650182366,  -0.0516507513821,  -0.0506185777485,   0.0684710592031,   0.0738894492388,  -0.0827341228724,  -0.0297591704875,   0.0763697251678,   0.1312336325645,   0.0826998427510,  -0.1497158408165,   0.0093186656013,  -0.0940627232194,  -0.0843112692237,   0.0147765688598,  -0.0717487409711,   0.0771536305547,  -0.1301603615284,   0.0943400263786,  -0.0896352604032,   0.0457991622388,  -0.0060254358687,  -0.0508750788867,  -0.0709275975823,   0.0139527274296,   0.0659166947007,  -0.1629358679056,  -0.0422827228904,   0.0439419150352,  -0.1251050382853,   0.0034415870905,  -0.0286263506860,   0.0222490970045,   0.0015580559848,   0.0986580029130,  -0.0023651069496,   0.0155930509791,  -0.0397982336581,   0.0660721212626,   0.0226954277605,  -0.0090402690694,   0.0224618632346,  -0.1539872139692,  -0.2118703722954,   0.0417225807905,  -0.1266092061996,   0.1029841527343,   0.1381143033504,   0.0855392217636,   0.0469836927950,  -0.0821716487408,   0.0068153045140,  -0.0515709668398,  -0.1053562238812,  -0.0668438598514,   0.1340743154287,   0.0880748406053,   0.0027564121410,  -0.0550850257277,  -0.0931554734707,  -0.1576920002699,  -0.0134931830689,  -0.0203733164817,  -0.1180524528027,   0.1248998269439,   0.2189369499683,  -0.0452584102750,  -0.2051456868649,  -0.1491210162640,   0.0456807948649,  -0.0562046915293,  -0.3453079164028,  -0.0129281161353,   0.0120662981644,   0.0942140817642,  -0.0447521321476,  -0.2098333090544,   0.1085012480617,   0.0567478872836,  -0.0868566185236,  -0.0904879197478,  -0.0073648528196,   0.1208947300911,   0.0104254065081,   0.0209804028273,   0.0795966088772,   0.0289073847234,   0.0083938203752,   0.0304287206382,  -0.0417743921280,  -0.0144681818783,   0.0390655919909,  -0.1147867739201,   0.0242662820965,  -0.0811589136720,   0.1287670433521,   0.0197211876512,  -0.0518540143967,  -0.0977108404040,   0.0287902448326,  -0.0181512776762,  -0.2390216141939,   0.0804369375110,   0.0237417444587,   0.1245145648718,   0.0381676219404,   0.0020630888175,   0.0031388094649,  -0.0278751533478,  -0.0349781475961,  -0.1344742625952,  -0.0917965248227,  -0.0075614103116,  -0.0321888960898,  -0.0927835851908,  -0.0663854554296,   0.2385377585888,   0.0218837969005,  -0.0200117211789,   0.0079868445173,  -0.0557512491941,   0.0945821478963,  -0.1524780988693,   0.0741990134120,  -0.0701740682125,  -0.0127266170457,  -0.0766999945045,  -0.1542106866837,   0.2182736396790,  -0.0836971625686,   0.0411134958267,  -0.0891119465232,  -0.1365835070610,   0.0127263544127,  -0.0343187041581,   0.0558925755322,   0.2118200063705,  -0.0261617209762,  -0.0622326992452,   0.0143271731213,  -0.0003691446618,  -0.1330574303865,   0.0594181977212,  -0.1420847326517,  -0.3488202095032,  -0.0583152882755,   0.0291557591408,   0.0606936551630,  -0.0859704613686,  -0.1391573995352,   0.1027908250690,   0.0049768816680,   0.0778401345015,  -0.0547526702285,   0.0585648640990,   0.0058346074075,  -0.1077230349183,   0.0066694375128,  -0.0241179857403,  -0.1039728671312,  -0.1065084785223,   0.0126683656126,   0.1640833765268,   0.0489011742175,  -0.0178961157799,  -0.3341978192329,  -0.0457458570600,  -0.0595256909728,   0.0670007094741,  -0.0578809306026,   0.0197284240276,   0.1448718905449,  -0.0995197892189,  -0.0293431393802,  -0.0450143627822,  -0.0884170085192,  -0.0145959099755,  -0.0033584770281,   0.0000354859076,   0.0135331898928,  -0.0245178714395,  -0.1114794388413,   0.0813856571913,   0.2393664866686,  -0.1271500289440,   0.0295044202358,  -0.0763403102756,  -0.1016261205077,   0.0255656372756,   0.0258656367660,  -0.0136870257556,   0.0480559393764,  -0.1080145835876,  -0.1967442780733,  -0.0249867271632,   0.0165915004909,   0.0133408578113,   0.0225210189819,  -0.1096076667309,  -0.0346779599786,  -0.0358128696680,  -0.0942003503442,  -0.1527522057295},
   {  -0.6703419089317,  -0.2927941381931,  -0.0854374393821,   0.0737835839391,  -0.0003666725243,   0.0737683624029,  -0.9552217721939,   0.0972424596548,   0.7159029841423,   0.0561825446784,   0.2234409153461,   0.5077020525932,  -0.0934134125710,   0.0324813835323,   0.5745648145676,   0.3901260197163,  -0.0117488745600,   0.0169725902379,   0.0978123471141,  -0.0655922666192,  -0.2605173289776,   0.5455198884010,   0.4242534637451,   0.3239412903786,  -0.1800094991922,  -0.0328235849738,  -0.0160183925182,  -0.0049392008223,   1.3692507743835,  -0.2965943515301,  -1.6918258666992,   0.2509704530239,  -0.9783970117569,   0.3090791702271,   0.0160671081394,  -0.0011444294360,   1.1250151395798,   0.1499411761761,   0.4528204202652,   0.0752029791474,  -0.0508529581130,   1.2949132919312,  -0.4626198709011,  -0.8817972540855,   0.6277004480362,  -1.7459788322449,  -0.6022896170616,  -0.0901382192969,  -0.5533673167229,  -0.4674277603626,  -0.3357871174812,  -0.1309092789888,  -1.2509500980377,   0.7640273571014,  -0.0732938870788,   0.1587406843901,   0.1107049733400,  -0.2204760611057,   0.0156814120710,  -0.6136900186539,   0.0155771719292,  -0.0837723687291,   0.3208768665791,   0.9896447658539,  -0.2135327607393,  -0.6740868091583,  -0.0122068729252,   2.7848086357117,   0.0097776520997,  -0.0118503933772,   0.0063420790248,   0.7678417563438,  -1.0341155529022,  -0.5560953617096,   0.1055541709065,   0.0578067675233,  -0.3259647190571,  -0.5811994075775,   2.3844017982483,   0.0124315507710,  -0.4251766502857,  -0.2325661927462,  -0.0592332519591,   0.4989828169346,   0.9283585548401,   0.0650440379977,  -0.1987609714270,  -0.2641334235668,  -0.0415475144982,  -0.2077106684446,  -0.2858787178993,  -0.0089364349842,  -0.4534589350224,   0.1475900411606,   0.7202575206757,  -0.0746392086148,   0.7986946105957,  -0.0225780289620,  -2.8044338226318,  -0.5935002565384,   0.0279649179429,   0.3038882017136,   0.1432332545519,   0.5756537318230,  -0.5449755191803,   0.7911177277565,   0.1318136304617,  -0.2946343123913,  -0.0572481080890,   0.0231700278819,   0.6507523655891,   1.0914016962051,   1.2885966300964,   1.2294255495071,   1.1898429393768,   0.3482322394848,   0.4457575380802,   0.0223129689693,   0.3338349163532,  -0.1508543193340,   0.1471425145864,  -0.7550679445267,  -0.3685817718506,   1.0478206872940,   0.0118747996166,  -0.2431786507368,   0.1763412803411,  -0.3008590936661,  -1.6773772239685,  -0.0638430565596,   0.0833220556378,  -0.0842765793204,   1.0061764717102,   0.5449056625366,  -0.1317318379879,  -0.0370078086853,  -0.4509069919586,  -0.0301717910916,   0.1744985580444,  -0.0267350468785,   0.0598562806845,   0.5691536068916,   0.3856616318226,   0.2082913815975,   0.0673324465752,  -0.1529405564070,  -0.0535979755223,   0.1650290191174,   1.3113435506821,   0.0439340993762,  -0.1960139870644,  -0.7468528747559,  -0.0070730098523,  -0.0524540767074,   0.0107946619391,   0.6763690710068,  -1.8707177639008,   0.3406760096550,   0.4371297359467,  -0.0408569015563,  -0.5527530908585,   0.7675861716270,  -0.1194669082761,  -0.1957152336836,   0.7820317745209,  -0.3983008265495,  -1.5760062932968,  -0.8118646740913,   0.8397822380066,  -0.0461392551661,   0.6007179021835,  -0.0380970276892,   0.2514724135399,   0.5666069984436,   0.0501753538847,  -0.6947162747383,   0.6795853972435,   0.5964193940163,  -0.0270147640258,   0.9791835546494,   0.0161459781229,   1.6553879976273,   0.1555395871401,  -0.1161612868309,  -0.2589850425720,   0.0957766398787,   0.0865292996168,   0.2343578934669,   0.4106113612652,   0.1038874462247,  -0.0950996726751,   0.2194363921881,   0.0465137958527,   0.6491379141808,  -0.0897794812918,  -0.1158568784595,   0.0860906466842,  -0.6375643610954,   0.3115426599979,   1.8528722524643,   0.4962108135223,   0.2490713298321,  -0.3054235577583,   1.0097150802612,   0.4094991385937,  -0.0116369109601,  -0.2844002842903,   0.7123796343803,   0.0714715272188,   0.2024613767862,   0.0184493772686,  -0.1451122909784,  -0.0310208946466,  -0.2807085812092,  -0.0003196109028,   1.2917978763580,   0.2742751538754,  -0.2902624011040,   0.0556012429297,   0.0680334419012,   1.1084480285645,   0.2289439886808,  -0.5382522344589,   0.3569036126137,  -0.1744471490383,  -1.0328387022018,   0.0885988995433,   0.2151248455048,  -0.0485245548189,   0.0048927688040,   1.3169671297073,   0.3168648481369,  -0.0054771015421,  -0.2099688351154,   0.2248692065477,   1.4358173608780,  -0.4353643357754,   0.0121176978573,  -0.0053394800052,   0.7782303690910},
   {  -0.0619128048420,  -0.4252792894840,  -0.1000764146447,  -0.0625119954348,   0.0618751123548,   0.0981335043907,  -0.0837887898088,  -0.0052801109850,   0.0224031265825,   0.0325659513474,  -0.1476600021124,  -0.0351880192757,   0.0291508156806,   0.0173157211393,  -0.0750815123320,   0.1751060336828,   0.0994285345078,   0.0140199828893,  -0.0477644689381,  -0.0729113444686,   0.0204792264849,  -0.0709742158651,   0.1207967251539,   0.0006150332047,  -0.1008010283113,  -0.0524885393679,   0.1437253803015,   0.0001480263454,  -0.1663554459810,  -0.0353551879525,  -0.1344446390867,   0.1747325211763,  -0.3141162693501,  -0.0722936391830,   0.0089115267619,   0.2040989547968,   0.0302207451314,  -0.0889913067222,   0.1961220353842,  -0.0558726415038,  -0.1244139447808,   0.2109354734421,   0.2031311690807,  -0.3994448482990,   0.0042900964618,   0.3611384034157,  -0.0723219662905,   0.0753371343017,   0.1523568928242,   0.1364317387342,  -0.2828529775143,  -0.2721867561340,  -0.1314879655838,   0.0934351161122,  -0.0757635608315,  -0.1339098811150,  -0.1444504708052,   0.2224913537502,   0.0792765691876,   0.0031581011135,  -0.0380544923246,  -0.0643335953355,  -0.0733790993690,   0.0132115734741,   0.0785226300359,  -0.0974417552352,   0.0070397877134,  -0.0019428830128,  -0.0131593132392,  -0.0822635069489,  -0.0512431859970,  -0.0302821900696,  -0.3160465657711,  -0.2027367055416,   0.0886405855417,   0.0335080400109,   0.0917266458273,   0.0245880745351,  -0.0477354936302,   0.1228397563100,  -0.0176683906466,  -0.0147701576352,   0.0999113246799,  -0.0269731990993,  -0.0873480960727,  -0.0956563130021,   0.0386198498309,  -0.0280986558646,  -0.0874590352178,   0.2348660230637,   0.1242484077811,  -0.1683541387320,   0.0768189281225,  -0.0084749367088,  -0.0803719982505,  -0.1046410053968,  -0.2142582684755,   0.0938014835119,  -0.0086275637150,  -0.0209877844900,   0.1559592932463,   0.1023200526834,  -0.1464433968067,  -0.0442137308419,  -0.2152369469404,  -0.0438242256641,  -0.1310534179211,  -0.1285713464022,  -0.0008643990150,  -0.0387612059712,  -0.0139906676486,   0.1139099523425,  -0.1636951267719,   0.1953843235970,  -0.0079964213073,  -0.0284603722394,  -0.1142559796572,  -0.1388964205980,   0.0012848286424,  -0.0098521392792,   0.0922676548362,  -0.0233148839325,  -0.1173833012581,  -0.2537823617458,  -0.0809020102024,   0.2233714312315,   0.0288268700242,  -0.0982340648770,   0.1082676425576,  -0.0736816823483,  -0.0103905210271,  -0.0006271966267,   0.0632834434509,   0.1035087630153,  -0.0298271048814,   0.1584693640471,  -0.0830564945936,   0.0799259915948,   0.0674957856536,   0.0332820639014,  -0.1166528686881,  -0.1623098105192,  -0.0434585660696,  -0.0250957999378,  -0.0541931763291,   0.1209063902497,  -0.0425133854151,   0.1455497890711,  -0.0138356266543,   0.2202946841717,  -0.0489403158426,  -0.0439082346857,   0.0690828859806,   0.0532656013966,  -0.0735940188169,  -0.0224221814424,   0.2275103628635,  -0.1222714856267,   0.1863860338926,  -0.0893017277122,  -0.0345645882189,  -0.0374827496707,   0.0602877810597,  -0.0550774186850,  -0.2177277505398,  -0.0819664523005,  -0.0173552799970,  -0.0914572477341,   0.2616802453995,   0.1006783097982,   0.0064176563174,  -0.0235782191157,   0.0584905780852,  -0.1948135495186,  -0.0487848669291,   0.0100427689031,   0.1813710927963,  -0.3805672526360,   0.0063312039711,  -0.1777239739895,  -0.0516898706555,  -0.2935374677181,  -0.2064179331064,   0.0077028139494,  -0.1289895176888,  -0.1239264532924,  -0.1426224559546,  -0.0367184132338,   0.1652195453644,  -0.0123210679740,  -0.0239832308143,  -0.2287148386240,  -0.0065691261552,   0.0480127632618,   0.0841028690338,   0.0063049923629,   0.0233801007271,  -0.0877130925655,   0.0748586431146,  -0.0454746522009,   0.2811619639397,   0.0132516659796,  -0.0846302285790,  -0.2261191457510,  -0.4260676801205,   0.0747771188617,   0.0224520396441,   0.0538573898375,   0.0686826109886,   0.0361836999655,   0.0987075939775,   0.0217680614442,   0.0348505303264,   0.0126826968044,  -0.0874186530709,  -0.0793559700251,   0.0189074296504,  -0.1717069596052,   0.1214619502425,  -0.1085454523563,   0.2593441009521,   0.0331263057888,   0.1124944239855,   0.1741719394922,   0.1151470169425,  -0.0764125436544,   0.0151789551601,  -0.0889912471175,  -0.0009784334106,   0.0759729146957,  -0.0170049108565,  -0.0423985272646,   0.0845000892878,  -0.0426180511713,   0.0529754646122,  -0.0393512174487,   0.0947757884860,   0.0596112199128,  -0.0102008134127,   0.0613617077470},
   {  -1.3144849538803,   0.7481465339661,   0.0670731887221,  -0.0063698794693,  -0.0950449779630,   0.3234933316708,   1.3465088605881,  -0.1350874155760,   1.0939118862152,   0.3463090956211,   0.6040704846382,  -0.7610492110252,   0.3372209668159,  -0.0220275409520,   0.1668486595154,  -0.7054055333138,   0.4352943599224,   0.0314840003848,  -1.3339797258377,  -1.0215184688568,  -0.0564484000206,  -0.9992383718491,   0.0265339147300,  -0.0113603593782,   0.2753363847733,  -0.0124764284119,   0.0586738884449,   0.1504384577274,   0.3593479692936,   0.3943604528904,  -0.3334902226925,   1.1726794242859,   1.2343363761902,   0.4944118559361,  -0.2205005139112,   0.4995447993279,   1.2569235563278,   0.2174927294254,   0.0042706830427,  -0.0279934331775,  -0.5746723413467,   0.3335925936699,   0.4644152522087,   0.8956525325775,   0.4196836650372,  -0.4306155741215,  -0.1339438110590,  -0.1024133339524,  -0.7270946502686,  -0.3378102183342,  -0.1414423882961,   0.3304491341114,  -0.5133546590805,   0.4841641783714,  -0.0145362112671,   0.6504733562469,  -0.0386419408023,  -0.5088047981262,  -0.1007816493511,  -0.4808242321014,  -0.0364111810923,  -0.1025054380298,   0.0693177655339,  -1.4086346626282,   0.1072665452957,  -1.0819327831268,  -0.0231471825391,   0.0596760548651,  -0.0323504060507,   0.0839612334967,   0.2765756845474,   0.2990415990353,  -1.5337311029434,   1.0114006996155,   0.3158166110516,   0.1411338299513,   0.2112845778465,  -0.7096676826477,  -0.5035033226013,   0.1328253298998,  -0.6640030741692,   1.3397253751755,  -0.1592259109020,  -0.1489554792643,  -0.1369472593069,  -1.3064132928848,   1.1013991832733,  -0.0229302439839,  -0.0267350301147,  -0.5847511291504,   0.3189599215984,  -0.0557168461382,   0.7968341112137,   0.8930018544197,   1.2907617092133,  -0.0644787326455,  -1.5871831178665,   0.0432385243475,  -0.6149802803993,  -1.3365662097931,   0.0300173107535,  -0.1705253124237,   0.9557024836540,   2.1355686187744,   0.9345656037331,   0.2043331861496,   1.0625783205032,  -0.7725933790207,  -0.0947398841381,  -0.0381278097630,  -0.8797407150269,  -0.8430733680725,  -1.3330034017563,  -1.3643409013748,   0.5597611665726,   0.9969426393509,   0.7026922106743,  -0.0391246192157,   0.7178627252579,  -2.4382150173187,  -0.3287957608700,   0.4893419742584,  -1.2896940708160,   1.9850075244904,   0.1101651266217,  -0.8065189123154,   0.2963933944702,   0.6266146898270,  -0.4540951251984,   0.1686308085918,   0.7231282591820,  -0.1472962945700,  -1.2760015726089,  -1.4445866346359,  -0.0287665035576,  -0.0990457907319,  -0.6389918923378,   0.5150191187859,  -0.3502040207386,  -0.6132417321205,  -0.2337359637022,   0.9242622852325,  -0.6728824377060,   0.1853782683611,   0.3726561963558,  -0.6841951608658,  -0.1507702320814,   0.1568385213614,  -0.3563558757305,  -0.3889488577843,   0.5531683564186,  -1.1949554681778,  -0.0874616429210,   0.1250092238188,  -0.0554774813354,   1.3279055356979,  -1.0822774171829,   1.2004238367081,   0.5381827950478,  -0.0563155822456,   0.2828930914402,  -0.5443078875542,  -0.3438460528851,  -1.4315649271011,   0.2793369591236,   0.0179792847484,  -1.2484860420227,  -0.3613901734352,  -0.5643828511238,  -0.0382782928646,   0.8109290599823,  -0.0361867286265,   0.5143565535545,  -1.3567571640015,  -0.0805728361011,  -0.5553124547005,  -0.6319923996925,  -0.3169969320297,   0.0401744991541,   0.8840924501419,  -0.3779263198376,  -0.5615579485893,   1.7192428112030,   0.4859533011913,   0.4522994160652,  -0.1008011996746,   0.0401709228754,   0.1556539237499,   0.9879105091095,   0.3525633215904,   0.0843406170607,   0.1371179968119,  -0.6171097159386,  -0.2169504910707,  -1.5549470186234,  -0.0187830533832,  -0.0339258946478,   0.6378415226936,   0.2935405373573,   1.0984196662903,   0.1578188389540,  -0.1513016074896,   0.1218931972980,  -1.5993812084198,  -0.6727787256241,  -0.2476532459259,  -0.3687763512135,   1.8802301883698,   0.0857420563698,   1.0104256868362,  -0.0035848314874,   0.1090517714620,  -0.0605498999357,  -0.6727721095085,   0.3976471424103,  -0.9589529037476,  -0.1688156872988,  -0.1551692485809,  -0.0578050129116,   0.0691335201263,   0.6209379434586,   0.0664308294654,  -0.6421187520027,   0.2725995779037,   0.0153906401247,  -0.2227350026369,   1.0150320529938,  -0.3862013518810,   0.2748968899250,  -1.1737676858902,   0.1654409170151,   0.2736219763756,  -0.0229484606534,  -0.3232838511467,   0.1127222552896,  -1.0077250003815,  -1.2933725118637,   0.0003582813079,  -0.0275357384235,   0.8654314279556},
   {   0.0753341019154,  -0.1709621101618,   0.0058157593012,   0.0117557533085,  -0.0114421704784,  -0.0747395306826,  -0.0971583127975,   0.1097908616066,   0.2799873948097,  -0.0923321694136,  -0.1387635767460,  -0.1621602624655,  -0.1891827434301,  -0.0123003013432,  -0.0563228912652,   0.2872111499310,   0.0105078965425,  -0.0038216523826,  -0.1722603142262,  -0.1230867877603,  -0.0593494661152,  -0.0215649381280,   0.4060873389244,   0.0842923745513,  -0.0224523004144,   0.0466076470912,  -0.1273572891951,  -0.0257258620113,   0.0467473827302,  -0.0489684157073,   0.2374650985003,  -0.1425985544920,  -0.3650224208832,   0.0419242978096,  -0.0944769456983,  -0.0428988896310,  -0.0602030418813,  -0.0191648732871,  -0.1749849319458,  -0.1400389671326,  -0.2030376493931,   0.0876271352172,  -0.0997963622212,   0.1232324317098,  -0.1485566943884,  -0.2444474697113,  -0.0639437064528,  -0.0679349750280,  -0.1923760622740,  -0.0961583629251,   0.0462626479566,   0.2017094045877,  -0.1644920557737,   0.1242722570896,  -0.0191499255598,   0.0937836095691,  -0.0771326571703,  -0.1748506277800,   0.0141587769613,  -0.1080206036568,  -0.1050856336951,   0.0834328681231,  -0.0525314733386,   0.1410534828901,   0.0696825757623,   0.0641651228070,   0.0091771204025,   0.0130447335541,   0.0237123724073,   0.0237708427012,   0.3357591331005,   0.0414472483099,  -0.0974773913622,  -0.7253252863884,   0.2010109424591,  -0.0733952894807,  -0.0377757139504,  -0.0212715212256,   0.0483433045447,  -0.0026623127051,  -0.5942548513412,  -0.0431425645947,   0.0630257204175,  -0.1936145126820,  -0.5915268063545,   0.0459742695093,   0.3026699125767,   0.0311738047749,   0.1353322863579,  -0.3258772194386,  -0.0292793121189,   0.0971492826939,  -0.0788724198937,  -0.0713122636080,  -0.0478393137455,  -0.0477835275233,   0.3635180890560,  -0.0161830093712,   0.0081024933606,   0.0293823089451,   0.0980382710695,   0.2179615348577,   0.0190219804645,  -0.1038060635328,  -0.2549501359463,  -0.0745431110263,  -0.0715492516756,   0.0055641303770,  -0.0000695036433,  -0.0654623359442,   0.0507993139327,  -0.0865695476532,   0.0838559269905,  -0.8585730791092,  -0.0495318509638,  -0.0419750474393,  -0.0123609937727,   0.0734352022409,  -0.1817764937878,   0.2069734185934,  -0.1134368106723,   0.0354416817427,   0.0160120688379,   0.0386378727853,   0.0063476567157,  -0.1514652967453,  -0.0858486220241,  -0.1057177260518,  -0.1358490884304,  -0.0250762309879,   0.0737511143088,  -0.0579838678241,   0.1387275606394,  -0.0252052284777,  -0.0549597293139,   0.0442677922547,  -0.8210835456848,  -0.0435136817396,  -0.1037045195699,  -0.0159190390259,   0.1991539895535,   0.0891791284084,  -0.2473050951958,   0.0937315896153,   0.0204050485045,   0.1332877427340,   0.0350739285350,   0.0229988582432,   0.5042751431465,  -0.6269608139992,  -0.1878037899733,   0.0998298749328,  -0.0613204240799,  -0.1825986206532,   0.0460388511419,  -0.0700162202120,   0.2271350324154,  -0.0623861476779,   0.0880637392402,   0.0040091313422,  -0.0202618464828,   0.4386414587498,  -0.1615892350674,  -0.0470650941133,   0.1733316332102,  -0.1786817610264,  -0.0231817085296,  -0.2297507375479,   0.1203370988369,   0.0184633545578,   0.0064144455828,   0.0639823228121,  -0.1278474181890,  -0.0965298786759,  -0.0016022162745,   0.0704028904438,  -0.1884097605944,   0.0420874729753,   0.0135026406497,   0.1898605674505,   0.1866396516562,   0.0249829925597,   0.2898057401180,   0.0327889621258,  -0.0544496811926,  -0.0061818887480,  -0.0856251865625,  -0.1714861243963,  -0.0383991338313,  -0.1797670871019,   0.1256425529718,  -0.0106405569240,   0.0222666691989,   0.1849333494902,   0.0884191393852,  -0.0688267722726,   0.1681742519140,   0.2292213141918,  -0.0942076072097,   0.1089257895947,   0.0480239689350,  -0.1779401600361,   0.1132725998759,   0.0529948696494,   0.1152647212148,  -0.1457275450230,  -0.0808717384934,   0.0266792997718,  -0.2306333631277,  -0.0446347370744,   0.0986306816339,  -0.0554427020252,   0.1533572673798,  -0.1207052692771,  -0.0356294587255,   0.1462691277266,   0.0089709572494,   0.3803363442421,   0.0365303605795,   0.0552977062762,   0.1619562655687,   0.0658049806952,  -0.1073249876499,   0.1668941378593,   0.0137839755043,   0.0664276033640,  -0.1987129002810,  -0.0499995574355,  -0.1042460203171,   0.0048207491636,  -0.0646691024303,  -0.1039718389511,   0.0024087817874,  -0.0366957150400,  -0.0054755555466,  -0.0276800021529,  -0.0736593157053,  -0.0291760340333,   0.0200493913144,  -0.1127436831594},
   {   0.4700496792793,   0.5770664811134,   0.1182060986757,  -0.0407031923532,   0.0201147701591,   0.3967250287533,  -0.3992233276367,   0.0807643607259,   0.0603758171201,  -0.0331743881106,  -0.5306299924850,   0.0763284787536,  -1.2087261676788,  -0.0564095638692,  -0.3422257602215,   1.1045472621918,   0.3631266951561,   0.1212718933821,  -0.3304415345192,  -0.2225096970797,   0.2025317549706,  -0.8862587809563,   0.5460154414177,   0.2916778326035,   0.0298515781760,  -0.0316804833710,  -0.1238157600164,   0.0364588461816,  -0.2806668281555,   0.1544715315104,   0.4519316256046,   1.4911842346191,   0.5394906997681,  -0.0994449257851,  -0.1011507585645,  -0.1583980023861,  -0.4206188321114,   0.4053196609020,  -0.5249742865562,   0.0200713686645,   0.2696709334850,   0.0029697099235,   0.0059864101931,  -0.0219402611256,  -0.1054962277412,   0.2617463767529,   0.1075197830796,   0.1309769153595,   0.2426371127367,   0.5441162586212,   0.6274638772011,   0.4660586118698,   0.2149933725595,   1.1173311471939,  -0.0362703390419,   0.2620205879211,   0.0390255488455,   0.5086669325829,   0.0918568223715,  -0.3627330064774,  -0.0467586554587,  -0.0297350045294,  -0.3875018060207,  -0.9957665205002,  -0.1551430672407,   0.4301848709583,   0.0009357794188,  -0.2039183676243,  -0.0840165764093,   0.0343340896070,  -0.0406060740352,  -0.3306457102299,   0.2644715011120,   0.7232969403267,  -0.2500729858875,  -0.0625361651182,  -0.1380679309368,   0.3217264413834,   0.2250103950500,  -0.0662147104740,  -0.6499199867249,   1.1791552305222,  -0.1173402667046,  -0.7188661098480,   0.0071030221879,  -0.1323364377022,  -0.3258602917194,  -0.0145480800420,   0.0266420412809,  -0.2640306651592,  -0.4632018208504,  -0.0105239897966,  -0.3837425708771,   0.0424372330308,  -0.2577722072601,   0.0954866930842,  -0.2999397814274,   0.0826245844364,   0.4459172487259,  -1.1451333761215,   0.1261163353920,  -0.3024469316006,  -0.2427449524403,   0.1939666420221,  -0.2399225682020,  -0.0935719162226,   0.1647889167070,  -0.4448425173759,  -1.1304526329041,   0.0393686518073,  -0.4249597191811,  -1.0873551368713,   1.0986711978912,   0.2254305183887,  -1.0340552330017,  -0.2575725018978,  -0.4137758016586,   0.0518849678338,   0.6885046362877,   0.1632218360901,   0.1668930500746,   0.1047129109502,  -0.2581767141819,  -0.1762485057116,   0.0310896541923,  -0.8499560356140,  -0.0463514626026,   0.5912367105484,   0.3344752788544,   0.0389446504414,  -0.4483688771725,  -0.4346696734428,  -0.1825817823410,  -0.0854791179299,   0.1558850258589,   0.5003591775894,  -0.6722286343575,  -0.0150936804712,  -0.2640623152256,  -0.2980082631111,  -1.2311159372330,   0.2419272214174,  -0.1696809679270,  -0.2584393024445,  -0.0537077225745,   0.5003763437271,  -0.4334780573845,   0.2626025974751,   0.7728832960129,  -0.7197969555855,   0.6198959946632,  -0.1149033457041,  -0.0960283726454,   0.1915281265974,   0.1692641377449,   0.1936295479536,   0.7174336910248,   0.4394364953041,   0.1770293563604,  -0.5440687537193,   0.7579300403595,   0.4603241086006,  -0.0801960453391,  -0.5454362034798,   0.3433032035828,  -0.4425710439682,  -0.8082258701324,   0.1963454484940,   0.9630272388458,  -0.0301574505866,   0.0727314800024,  -0.1270079314709,   0.0689138546586,  -0.0662342309952,   0.0294345300645,   0.1728555858135,  -0.3976700603962,   0.3402795791626,   0.0120659731328,   0.3001061081886,  -0.2954011559486,   0.8104693889618,  -0.4517125189304,   0.0833987221122,  -0.4298126697540,   0.1343862563372,  -0.0496027432382,   0.1130858734250,   0.4055630862713,   0.0596855431795,  -0.0350144542754,   0.5308314561844,  -0.6659395098686,  -0.6877219676971,  -0.1844858676195,  -0.1072600111365,   0.0048737111501,   0.2243667691946,   0.3478806614876,  -0.2552102506161,   1.4640787839890,  -0.0119291571900,  -0.4889746010303,   1.7622610330582,  -0.4033975899220,   0.4902389347553,   0.1513364464045,   0.4552845954895,   1.1816064119339,   0.2773641645908,   0.0262331217527,  -0.1047299206257,  -0.0005288078682,   0.3349872529507,  -0.1162409558892,   0.2294508069754,  -0.1408510953188,  -0.5038337707520,  -0.0892996340990,   0.0859694778919,   0.0234603118151,  -0.0299763642251,  -0.1077689081430,   0.4051481783390,  -0.1810887902975,   0.1869554817677,   0.8116242289543,  -0.3348913788795,   0.4124927520752,   0.0067262928933,  -0.7009038925171,   0.0362275801599,   0.1653322130442,  -0.0663846656680,   0.1685271561146,   0.4516993463039,  -0.4874937534332,  -0.0127537650988,   0.0590759515762,  -0.7852374911308},
   {  -0.2946380078793,   0.4895063340664,  -0.1221595108509,  -0.0649475455284,  -0.0559712760150,   0.8095232844353,   0.4671242237091,   0.2204804271460,   0.7575811147690,   0.0018077786081,   1.6386159658432,   1.0722273588181,   1.0564678907394,   0.0324589796364,  -0.4196267724037,   0.8395346403122,  -2.0138297080994,   0.0810932740569,   1.3826822042465,   1.7640265226364,   0.6209070086479,   1.6593903303146,  -0.4122117161751,   1.4284502267838,  -2.3721196651459,  -0.1141288802028,   0.0325627736747,   0.0217706933618,  -2.0445170402527,  -1.4183868169785,   1.0919404029846,   0.6138583421707,   0.6071023344994,   1.9839396476746,  -2.7841527462006,   0.2647264599800,  -1.3255364894867,  -0.3803651928902,   0.6434617638588,   0.0765433609486,   1.1721335649490,   0.9780669808388,   0.9753963351250,  -1.0036828517914,  -0.0848260149360,  -0.7104713916779,  -0.1974915117025,  -0.0593966171145,   1.5182442665100,   1.0347107648849,  -0.7638726234436,  -0.5986098647118,   0.3251533508301,  -0.1587015092373,  -0.1655822694302,   1.1377065181732,  -0.0341532155871,  -0.5251774191856,   0.1014345735312,   0.7203717231750,   0.1306094676256,  -0.7335896492004,  -0.9127207398415,  -1.7648530006409,   0.1401556730270,  -2.2296845912933,  -0.0304979104549,  -1.7164607048035,   0.0676349177957,   0.0321543961763,   0.2052076458931,  -0.2138698250055,  -1.7885104417801,   0.3564267754555,   2.0566639900208,   0.0478735640645,  -2.6082112789154,   1.4032865762711,  -1.2840002775192,   0.0747163221240,  -0.1193267554045,  -0.5208281874657,   0.0229144543409,   1.5557053089142,   0.4757440686226,  -2.1822307109833,   0.1206444501877,  -0.1861766129732,   0.1291175037622,   1.1853072643280,   1.3719667196274,   0.0999042615294,   0.2798371911049,  -1.7425165176392,  -0.1043660640717,  -0.0142431994900,  -0.4934850931168,   0.0734797269106,  -1.1942049264908,  -2.0535132884979,   0.0739738419652,  -1.0797833204269,   0.6586377024651,  -0.4622492790222,   0.1636753380299,  -0.9805102348328,  -1.8290531635284,   1.4492110013962,   0.9923723340034,   0.0324619971216,  -0.6899558305740,  -1.0680235624313,   0.0689380541444,   0.5317303538322,  -0.6868979334831,   1.0928635597229,  -0.1912731230259,   0.0002705282532,   1.9385126829147,   2.0633211135864,   1.3599385023117,   0.9013943672180,   1.3907799720764,  -0.5250636339188,  -0.0377795845270,   1.0781366825104,   0.2481107413769,  -0.2028408795595,  -0.0173722729087,   0.0238865353167,  -0.3292813003063,  -0.4293659925461,   1.3846875429153,   0.5681719183922,  -0.0286609306931,   0.1410072594881,   1.6949480772018,  -0.5098376274109,   0.0380412898958,  -2.2625055313110,  -1.3109771013260,  -0.1151600554585,   0.7777879238129,  -1.0852447748184,  -2.0373558998108,  -0.8210256695747,  -0.9599056839943,  -1.0450181961060,   0.4144152700901,   1.2918248176575,   1.1387360095978,   0.0207927655429,  -0.0657702907920,  -0.3644080162048,   0.1060637831688,  -0.5480170845985,  -0.5539408326149,   1.6327048540115,  -2.3138344287872,   0.5383968353271,   2.2856242656708,   0.5624918937683,   0.7502608299255,  -0.1347297430038,  -0.2337592840195,  -0.3874521255493,   0.3458284735680,   1.2839173078537,   0.2061055600643,   0.0250485073775,  -2.0844314098358,   0.0304818302393,   1.5815972089767,   1.0046390295029,   0.3363738656044,   2.0500988960266,   0.3885189890862,  -0.0467139035463,   0.0339979492128,   0.1015129908919,  -0.6551928520203,  -0.4886646270752,   0.3184843957424,   0.2024160921574,  -1.8709609508514,   0.0992112308741,  -0.0651152580976,   2.2028434276581,  -2.0412592887878,  -0.0660228878260,  -0.0269055608660,  -0.9340503811836,  -0.7077990770340,  -0.0783993378282,   0.5952276587486,  -0.0856520757079,  -0.0364556908607,  -0.5122238397598,   0.5040452480316,  -0.8947866559029,   0.3287161588669,   0.9898709058762,  -0.8644521236420,  -0.1195278689265,  -0.9262870550156,   2.2654693126678,  -1.4117971658707,   1.4242291450500,   0.4276016950607,   1.1224623918533,   0.1081542819738,   0.1391922980547,  -0.0185302980244,   0.7412308454514,   0.3597384989262,  -0.2729363143444,   1.0947935581207,  -0.0253581199795,  -0.1422072499990,   0.3533247709274,  -0.7712153792381,  -1.8831949234009,  -1.2391166687012,  -0.8077386021614,  -1.6848686933517,  -0.2971891164780,  -0.3850693702698,   0.9163910150528,   1.4188486337662,  -1.5725206136703,  -0.7213374376297,   0.4269657135010,  -0.0301289726049,  -1.9809092283249,   2.0375537872314,  -0.1569749712944,   0.2484708130360,   0.0591457933187,  -0.0599119439721,   0.0405238084495},
